{"type": "afterstate-value-mlp", "version": 1, "inputSize": 215, "layers": [{"weight": [[0.01879027672111988, 0.030300242826342583, 0.08444968611001968, 0.055870648473501205, 0.16001476347446442, 0.03774433583021164, 0.023258943110704422, 0.06823576241731644, 0.06692805141210556, 0.06047465279698372, -0.06971728056669235, 0.09241815656423569, 0.0650239959359169, 0.11919765919446945, 0.16049250960350037, 0.11447328329086304, 0.13517233729362488, 0.08133259415626526, -0.03397198021411896, 0.017176836729049683, 0.04313861206173897, 0.03915250673890114, 0.149954691529274, 0.058873265981674194, 0.03928150236606598, 0.12157337367534637, 0.020342720672488213, 0.016893137246370316, 0.019264817237854004, 0.048185817897319794, 0.089521624147892, 0.05696389451622963, 0.006396516691893339, 0.04558323323726654, -0.05572337284684181, 0.0273472648113966, -0.03381366282701492, -0.052442919462919235, -0.009651807136833668, 0.029967935755848885, 0.017396217212080956, 0.03804853931069374, 0.0034599939826875925, 0.06372030824422836, -0.01817535236477852, -0.01845071278512478, 0.10006457567214966, 0.0074064298532903194, 0.06523799151182175, -0.01956029236316681, 0.0623030886054039, 0.05801397189497948, 0.023246150463819504, 0.013569745235145092, 0.0006972917472012341, -0.01836603321135044, -0.037035562098026276, -0.06002325564622879, -0.026433872058987617, -0.08915271610021591, -0.01763133332133293, 0.015718603506684303, -0.026872234418988228, -0.06903190165758133, -0.049469202756881714, 0.05937879532575607, 0.044420115649700165, -0.08290386945009232, 0.025201180949807167, -0.06298038363456726, -0.015150274150073528, 0.01665918529033661, 0.01790965162217617, -0.006573142018169165, 0.04749990254640579, -0.013127603568136692, 0.06730953603982925, 0.011812685057520866, 0.043317049741744995, 0.0007220865227282047, -0.028912434354424477, 0.06645608693361282, -0.02601723186671734, 0.07966689765453339, -0.011753802187740803, 5.0473099690862e-06, -0.03441263362765312, 0.041579775512218475, -0.03012799099087715, 0.027774179354310036, 0.05453826114535332, -0.020983221009373665, 0.04804912209510803, -0.026161925867199898, -0.0053654443472623825, -0.015654079616069794, 0.05160371586680412, -0.06137853488326073, -0.036417096853256226, 0.05666738376021385, 0.005155564285814762, -0.06063348427414894, -0.038940321654081345, -0.05770706757903099, -0.01953827030956745, -0.0363161638379097, 0.02212170511484146, 0.011633877642452717, 0.004256420768797398, -0.008275416679680347, 0.013081205077469349, 0.048308491706848145, -0.05561169981956482, 0.01489943079650402, -0.0037500273901969194, 0.051647379994392395, -0.03301268443465233, -0.047528550028800964, -0.07329941540956497, -0.031203005462884903, 0.0004880173073615879, 0.04780076816678047, 0.03599047288298607, -0.05956808105111122, -0.036999575793743134, 0.055327363312244415, 0.016579333692789078, -0.046115171164274216, -0.008164389990270138, 0.010391038842499256, -0.05058658495545387, 0.042329009622335434, -0.022143041715025902, 0.014654847793281078, 0.005839118734002113, -0.03104918636381626, -0.014625373296439648, 0.03806420415639877, -0.04500929266214371, 0.007377894129604101, 0.09341531991958618, -0.030807290226221085, 0.027557959780097008, -0.0027476875111460686, -0.0509047657251358, -0.06914148479700089, 0.012952777557075024, -0.02587808482348919, 0.002902950858697295, 0.0360352024435997, 0.029560856521129608, 0.0623624250292778, 0.06889138370752335, 0.02290695533156395, -0.0462164580821991, -0.05158751457929611, -0.013231308199465275, -0.07103046774864197, 0.038391631096601486, 0.042800046503543854, -0.026258107274770737, 0.06547930091619492, 0.004069350194185972, -0.03388581797480583, -0.04395309463143349, -0.0007279005367308855, -0.056716188788414, -0.049669183790683746, -0.05530669540166855, 0.010539195500314236, -0.0274836253374815, 0.05707474425435066, -0.022361647337675095, 0.035907573997974396, -0.033843401819467545, 0.03569579869508743, -0.06324087083339691, 0.04285077378153801, -0.04006071388721466, 0.004908014088869095, -0.02296583168208599, -0.05105433985590935, -0.017901714891195297, -0.07096260786056519, -0.039626337587833405, -0.010873374529182911, -0.04812425747513771, -0.00832310225814581, 0.035471245646476746, -0.04394965246319771, -0.044840309768915176, 0.05985970422625542, 0.046660058200359344, -0.007328961510211229, 0.028827663511037827, 0.00947000365704298, -0.04998735338449478, -0.0009566477965563536, -0.02807207964360714, -0.05849670246243477, 0.03494764119386673, 0.0017305782530456781, 0.0014664556365460157, 0.0007216137601062655, -0.0909518301486969, 0.036143939942121506, 0.004055496770888567, 0.020108873024582863, -0.03128862380981445, 0.035519883036613464, 0.06123935431241989, -0.04008288308978081, -0.057477086782455444, -0.052445318549871445, 0.05793780833482742], [0.005895341280847788, 0.022483395412564278, -0.00999737624078989, -0.1414540857076645, 0.06081312149763107, 0.039229054003953934, 0.06512986123561859, -0.0384652316570282, 0.06271205842494965, 0.012771070934832096, 0.06249114125967026, -0.017283938825130463, 0.06316746771335602, -0.06757836043834686, 0.049981214106082916, -0.0470220223069191, 0.030313609167933464, 0.028092626482248306, -0.02566988579928875, 0.022302575409412384, -0.014869891107082367, -0.010037957690656185, -0.011567861773073673, -0.11747918277978897, -0.14804543554782867, -0.0520169660449028, -0.05145318806171417, 0.0499337874352932, -0.008480658754706383, -0.0011869082227349281, -0.030200032517313957, -0.0226313304156065, 0.042250122874975204, -0.1275397688150406, -0.10694105178117752, -0.038271039724349976, 0.008964219130575657, 0.0397791787981987, -0.03647596389055252, 0.06200837716460228, 0.024045558646321297, -0.004871611017733812, -0.005873397458344698, -0.039253104478120804, -0.018421804532408714, 0.030487481504678726, -0.03907487913966179, -0.01799791492521763, -0.013127176091074944, 0.056900784373283386, 0.0471101738512516, -0.06429479271173477, -0.027801847085356712, 0.057538218796253204, 0.07923296838998795, 0.014921795576810837, -0.020918112248182297, -0.016808083280920982, 0.03092351369559765, -0.03627081587910652, -0.050541143864393234, 0.04958006367087364, -0.025506524369120598, -0.09836199879646301, 0.07197622954845428, -0.020550372079014778, -0.04497147724032402, -0.02452884428203106, 0.0025760179851204157, 0.0004087687411811203, 0.00921228714287281, -0.03396445885300636, -0.07998419553041458, -0.034479495137929916, -0.01827600598335266, 0.02333643287420273, 0.06674439460039139, -0.029984617605805397, -0.07418853789567947, -0.059815261512994766, -0.009701666422188282, -0.07647910714149475, 0.011996377259492874, -0.03568712994456291, -0.02104445919394493, 0.06495022028684616, -0.04036314785480499, 0.04158910736441612, -0.005677398294210434, -0.045059964060783386, 0.03415378928184509, -0.060425736010074615, 0.04824209585785866, 0.042173415422439575, -0.04949960485100746, -0.05637253448367119, 0.007710397243499756, 0.01891236938536167, -0.027206923812627792, -0.015719471499323845, 0.09975600242614746, 0.023576391860842705, -0.005453506950289011, -0.09500004351139069, -0.00467325234785676, -0.04321825131773949, 0.0010200482793152332, -0.0813717320561409, -0.08753696084022522, -0.03025083802640438, 0.028406735509634018, 0.04435309022665024, -0.0013834713026881218, -0.02945646643638611, 0.04099835455417633, 0.031866248697042465, 0.06762591004371643, 0.05916276201605797, -0.061210934072732925, -0.09998342394828796, 0.010498796589672565, -0.018864450976252556, 0.021017273887991905, -0.06598910689353943, -0.05976109579205513, 0.053853705525398254, -0.03706997260451317, 0.00015322639956139028, 0.06608249247074127, 0.0003052201063837856, -0.05349035933613777, -0.006134729832410812, 0.01545659452676773, 0.005927860736846924, -0.058840688318014145, -0.04111982509493828, -0.05713553726673126, 0.054854463785886765, -0.0018366167787462473, 0.0007607649895362556, -0.021051283925771713, 0.03853991627693176, 0.03756636008620262, 0.017422357574105263, -0.04896417632699013, -0.00206622458063066, 0.03688750043511391, -0.013741881586611271, -0.020501798018813133, -0.04390111565589905, 0.021673329174518585, -0.021473374217748642, -0.012263940647244453, -0.06318704783916473, -0.01800510101020336, 0.006565304007381201, 0.02421344257891178, 0.029752662405371666, 0.05420972779393196, -0.1169562041759491, -0.06093675270676613, -0.05595619976520538, -0.04506794363260269, -0.02147175371646881, -0.025782296434044838, -0.04086802527308464, 0.0017899656668305397, 0.05511325225234032, 0.010648117400705814, -0.08294297754764557, 0.06195979192852974, 0.06376409530639648, -0.010885697789490223, -0.09118649363517761, 0.008347596973180771, -0.04522200673818588, -0.05998491123318672, 0.04688156023621559, 0.06884986162185669, -0.022234328091144562, -0.010387853719294071, 0.004449670668691397, 0.08546710014343262, -0.028522716835141182, 0.006093836389482021, -0.02114185318350792, -0.04826842248439789, 0.03171642869710922, -0.02060992456972599, -0.00895034708082676, -0.0012144724605605006, -0.0009026821935549378, -0.038651153445243835, 0.011007294990122318, 0.08437477052211761, 0.008389015682041645, 0.020422670990228653, 0.08464353531599045, 0.07484787702560425, -0.017717476934194565, 0.1384211927652359, 0.022400125861167908, 0.006255120970308781, 0.07165662944316864, 0.0009958973387256265, -0.04369206354022026, -0.03873124718666077, 0.061107706278562546, -0.0547281913459301, 0.02146010287106037, -0.05108074098825455, 0.0007973973406478763, 0.014464803040027618, -0.04354168847203255, 0.020513596013188362], [-0.028557410463690758, -0.10919508337974548, 0.021169109269976616, 0.09305599331855774, 0.11370110511779785, 0.09398221224546432, 0.05995477735996246, -0.05894007533788681, 0.06592369824647903, -0.045627448707818985, 0.12422677874565125, 0.07183467596769333, 0.08310143649578094, 0.16798433661460876, 0.08259330689907074, 0.05661744624376297, 0.020601371303200722, 0.02169519104063511, 0.03985349461436272, 0.06618043780326843, -0.05195026472210884, 0.04679402709007263, -0.00786386989057064, 0.05412403121590614, 0.048998937010765076, 0.05129241198301315, -0.00985180214047432, 0.019228579476475716, 0.041764870285987854, -0.014661823399364948, 0.09378404915332794, -0.014986077323555946, -0.038259752094745636, 0.05482611060142517, -0.04052698612213135, 0.014733094722032547, 0.0005855595227330923, -0.023239437490701675, 0.03934485465288162, -0.004898842889815569, -0.03671210631728172, 0.05801144242286682, 0.09744805097579956, 0.0016465301159769297, 0.0133517449721694, 0.01706119067966938, 0.0785747766494751, 0.05570691078901291, -0.023895716294646263, 0.06100442633032799, -0.009222631342709064, 0.08566129952669144, 0.03967690467834473, 0.010214565321803093, 0.06280199438333511, -0.02548735961318016, -0.010993890464305878, 0.04260771721601486, 0.008948144502937794, 0.058668192476034164, -0.02014234848320484, 0.012656779028475285, 0.02177494578063488, 0.00536740617826581, -0.04477253183722496, 0.02314252033829689, 0.07971272617578506, 0.02038656733930111, -0.03484594076871872, 0.01496129296720028, -0.05135386064648628, 0.052331164479255676, -0.006224881391972303, 0.09072542190551758, 0.03940127044916153, 0.06525388360023499, 0.040492165833711624, 0.05755843594670296, 0.04913504049181938, 0.02785947546362877, -0.0554300919175148, 0.004651834722608328, 0.01682666502892971, -0.0018892299849539995, -0.03063754178583622, -0.005135307554155588, -0.032236166298389435, -0.01224402617663145, 0.06312499195337296, 0.07153274863958359, 0.10023745149374008, -0.049057718366384506, 0.07690597325563431, -0.03733315318822861, 0.02106316387653351, -0.05069784075021744, 0.01759139634668827, 0.05905134603381157, -0.05200628936290741, -0.05572722852230072, 0.043585821986198425, 0.02827543392777443, 0.0008104552398435771, 0.008261138573288918, -0.03303729370236397, 0.06483420729637146, 0.03093510866165161, 0.008228311315178871, -0.038111671805381775, -0.004577751737087965, 0.0598810538649559, -0.03580747917294502, -0.040150195360183716, 0.007991177029907703, 0.017241334542632103, 0.04864409938454628, -0.0328797809779644, -0.02142736129462719, 0.042018819600343704, 0.03093135356903076, 0.012572923675179482, 0.06781540811061859, 0.017271356657147408, 0.04416806250810623, -0.04444383829832077, -0.04486347362399101, 0.02077445387840271, 0.0018118958687409759, -0.01388257835060358, -0.04878770187497139, -0.02624073252081871, -0.03755461797118187, 0.07886605709791183, -0.018916144967079163, 0.06618836522102356, 0.03541342169046402, -0.0517689511179924, 0.0014991590287536383, 0.019123811274766922, 0.06472767889499664, -0.047358546406030655, 0.06458822637796402, 0.012376146391034126, -0.041553087532520294, -0.02153625153005123, 0.05734351649880409, 0.053899962455034256, -0.0009664685348980129, -0.04968914017081261, 0.05194373428821564, 0.03635372221469879, 0.026110246777534485, -0.03941758722066879, 0.024425320327281952, 0.001625408069230616, -0.013701326213777065, -0.03139606863260269, -0.05359424650669098, -0.007916310802102089, 0.004619859158992767, 0.03452964872121811, -0.037548188120126724, 0.0414949394762516, 0.0693635493516922, -0.043240126222372055, 5.408035940490663e-05, -5.174806574359536e-06, -0.027796562761068344, 0.05404225364327431, 0.07726912945508957, 0.05439387261867523, 0.024254484102129936, 0.051056958734989166, 0.014858735725283623, 0.017873527482151985, -0.03262411803007126, -0.052423931658267975, 0.04675380885601044, -0.03057033009827137, 0.045429736375808716, 0.03101692907512188, 0.014805893413722515, -0.024079279974102974, 0.06289472430944443, 0.010300197638571262, 0.05689633637666702, 0.03544725850224495, 0.061941202729940414, 0.009139763191342354, -0.031502075493335724, -0.050259362906217575, 0.002255063969641924, 0.03104192391037941, 0.04858237877488136, -0.043728169053792953, 0.050220634788274765, -0.02515987493097782, -0.009879511781036854, 0.02697947807610035, -0.007495385129004717, -0.006761182565242052, 0.07030491530895233, -0.03523166477680206, 0.06582050770521164, -0.023783983662724495, -0.03732959181070328, 0.011566138826310635, -0.014970231801271439, -0.03379024192690849, -0.04289590194821358, 0.07243005186319351, -0.002805574331432581, -0.015505537390708923, 0.05413897708058357, 0.013104874640703201], [0.0036555191036313772, 0.08644264936447144, -0.0584099218249321, -0.09559047967195511, -0.11853654682636261, -0.07322041690349579, 0.0228616651147604, 0.06050927937030792, 0.003879147581756115, 0.013115234673023224, -0.05766741931438446, -0.08812271058559418, -0.172528475522995, -0.0738130658864975, -0.19155365228652954, -0.11087421327829361, -0.1030987799167633, 0.06479651480913162, 0.09521987289190292, -0.06712572276592255, 0.057606473565101624, 0.10864020138978958, -0.003670605132356286, 0.050935856997966766, 0.050068095326423645, -0.07845477759838104, 0.03604813665151596, 0.00807669386267662, 0.045738548040390015, -0.03183361515402794, -0.024579858407378197, -0.01930670067667961, 0.12385839968919754, 0.11324974149465561, 0.10787750780582428, 0.04771248996257782, -0.013179121538996696, 0.07643061876296997, 0.05305260792374611, 0.036267202347517014, 0.04469698667526245, -0.005718715023249388, 0.06687133759260178, -0.008633234538137913, -0.008433348499238491, 0.043014563620090485, -0.01338312029838562, -0.01749565824866295, -0.04061048850417137, -0.05641259625554085, 0.09557577222585678, 0.056615155190229416, 0.10305505245923996, 0.02109513431787491, 0.06544969975948334, 0.09790823608636856, -0.0023191371001303196, -0.04687047377228737, -0.03908810392022133, 0.04228386655449867, -0.02815244533121586, 0.06493627279996872, -0.013808545656502247, 0.10823434591293335, 0.07030894607305527, -0.035103071480989456, -0.05285336822271347, 0.010542267002165318, -0.01708167977631092, -0.016072604805231094, 0.003338835434988141, 0.04107989743351936, -0.01301809586584568, 0.0996008962392807, -0.011007815599441528, 0.07761406898498535, -0.07511855661869049, -0.010304003022611141, 0.034221939742565155, -0.02542761154472828, 0.009196142666041851, 0.06221543997526169, 0.006510801613330841, 0.10542242228984833, -0.0028956630267202854, 0.02834470197558403, -0.09170389920473099, -0.014211304485797882, 0.007775625213980675, 0.08583208918571472, -0.014226987957954407, 0.03434039279818535, 0.062011413276195526, 0.05823130160570145, 0.008876320905983448, -0.021894965320825577, -0.06548189371824265, 0.0432945117354393, -0.04358014091849327, -0.018463538959622383, -0.07421213388442993, 0.024448338896036148, 0.05519784614443779, -0.038077641278505325, 0.07506556808948517, 0.03474697098135948, 0.00280936760827899, 0.04886721074581146, 0.02204626053571701, -0.000491004204377532, -0.07698316127061844, 0.03366406634449959, -0.03744356706738472, 0.01178781222552061, -0.047465939074754715, 0.0002814093604683876, -0.07670707255601883, -0.029996979981660843, 0.04084628447890282, 0.05135856941342354, -0.07908648997545242, 0.006450136192142963, 0.03304776921868324, -0.03641430661082268, -0.06460274010896683, -0.059481725096702576, -0.04362056404352188, 0.026792379096150398, -0.0134804118424654, -0.023507090285420418, -0.008845400996506214, 0.02338309958577156, -0.02965095266699791, 0.016125615686178207, -0.049454666674137115, -0.05340239033102989, -0.05850975215435028, -0.058289170265197754, 0.032341793179512024, 0.013745931908488274, -0.053081486374139786, -0.03653628006577492, 0.011212224140763283, 0.04965445026755333, -0.03044855035841465, 0.03449033945798874, -0.04267839714884758, 0.02250639908015728, -0.015265803784132004, 0.011567781679332256, 0.01174895092844963, -0.02883242815732956, -0.08115784823894501, -0.03932461515069008, -0.037917956709861755, -0.07681573927402496, 0.018105223774909973, -0.06701482832431793, 0.009090541861951351, -0.007142677437514067, -0.02119300328195095, -0.042222268879413605, 0.0010820786701515317, -0.006064236164093018, 0.04632051661610603, 0.060097672045230865, 0.04733637720346451, -0.004634871147572994, 0.06568498909473419, 0.03312249481678009, 0.04193577542901039, -0.04046736657619476, -0.029101300984621048, 0.05603567138314247, 0.025222331285476685, 0.04984108731150627, -0.05966555327177048, 0.023112844675779343, -0.03062729723751545, -0.03384722024202347, -0.07001423090696335, 0.04681574925780296, 0.01566721871495247, -0.04125814139842987, -0.09442004561424255, 0.011317703872919083, -0.06218783184885979, 0.04976291581988335, -0.018417678773403168, 0.04799817129969597, -0.02482495829463005, -0.05554315075278282, 0.056212276220321655, 0.04595121368765831, 0.01218724437057972, -0.018202178180217743, 0.05723588913679123, 0.06242184340953827, 0.05238610506057739, -0.007417301181703806, 0.074427030980587, -0.12306840717792511, -0.1508873701095581, -0.06277494877576828, 0.02710753306746483, 0.10054202377796173, 0.006473524961620569, 0.05384306237101555, -0.05654516816139221, 0.01728840544819832, -0.00044333795085549355, 0.07701170444488525, -0.04980811849236488, 0.10250328481197357, -0.04918081313371658], [0.016840482130646706, -0.1186600849032402, 0.021715685725212097, 0.05715453624725342, 0.04858988896012306, 0.027649352326989174, -0.029569223523139954, 0.055967722088098526, -0.038685526698827744, -0.01262215618044138, 0.055637508630752563, 0.015820149332284927, 0.10401250422000885, 0.179595485329628, 0.15944038331508636, 0.15204359591007233, 0.1226143091917038, 0.014575724489986897, 0.05955737084150314, -0.031083934009075165, -0.02460971474647522, 0.06436356157064438, 0.04981042072176933, 0.05253159999847412, 0.06886332482099533, 0.11061222106218338, 0.07331449538469315, -0.06071067973971367, 0.03261810168623924, 0.049014944583177567, 0.04703084006905556, 0.03661401942372322, 0.030776746571063995, -0.04255499318242073, 0.016258379444479942, 0.013936782255768776, -0.02792051061987877, 0.04793704301118851, 0.028643690049648285, 0.012528524734079838, -0.032861340790987015, -0.002310714451596141, -0.021697159856557846, 0.07714296132326126, 0.03189709410071373, -0.003966984339058399, -0.036807797849178314, -0.0205551665276289, 0.010873792693018913, -0.045559853315353394, 0.07176192104816437, 0.07977376878261566, 0.04120095074176788, -0.050025902688503265, -0.061017706990242004, 0.00421729264780879, 0.048016779124736786, -0.007479144260287285, -0.016672180965542793, -0.028997590765357018, 0.0020587174221873283, 0.07125221192836761, 0.015269135124981403, 0.04889934882521629, -0.026042446494102478, 0.06625332683324814, 0.07293470203876495, 0.03719675913453102, -0.023929977789521217, 0.000432643573731184, -0.0425427220761776, 0.027036111801862717, 0.08617013692855835, -0.02329305186867714, -0.03496479243040085, -0.02398568019270897, -0.021536998450756073, 0.04034126549959183, 0.032519616186618805, -0.030504625290632248, -0.03524279221892357, 0.056516923010349274, -0.02465716004371643, 0.06546787172555923, -0.026967784389853477, 0.07362993061542511, -0.024676423519849777, -0.00101002911105752, -0.013212032616138458, 0.08421848714351654, 0.015777448192238808, 0.014198980294167995, -0.03772718459367752, -0.005010398104786873, 0.06531250476837158, -0.06429137289524078, 0.034646667540073395, -0.011055538430809975, 0.03810381516814232, -0.035090040415525436, -0.043670814484357834, -0.010916539467871189, 0.06640879809856415, 0.06491810828447342, 0.04327540099620819, 0.056263167411088943, 0.05793021246790886, -0.06475389748811722, 0.036110781133174896, 0.03489891067147255, 0.07639569789171219, -0.007680094800889492, 0.047684501856565475, -0.0023756390437483788, -0.037149760872125626, 0.01845012791454792, -0.038346998393535614, 0.03811516985297203, 0.037473250180482864, 0.023382289335131645, -0.06077561900019646, -0.004060073755681515, 0.024790886789560318, -0.00672210194170475, -0.059171948581933975, -0.0019500431371852756, -0.056169796735048294, -0.01914183422923088, 0.0648641362786293, -0.06200462207198143, -0.06245562806725502, 0.006845253054052591, 0.058353617787361145, -0.024763284251093864, -0.027936937287449837, -0.04781588912010193, 0.03031506948173046, -0.006726125720888376, -0.0612296536564827, 0.06512634456157684, 0.07108066976070404, -0.05131485313177109, -0.02161577343940735, -0.047758013010025024, -0.04810745641589165, -0.04941894859075546, 0.031034570187330246, 0.03807459771633148, 0.07114437967538834, -0.04147164896130562, 0.07447828352451324, -0.028284048661589622, -0.06338583678007126, 0.0026500793173909187, 0.004758475814014673, 0.06854813545942307, 0.010426064021885395, -0.0042408243753015995, -0.01397994440048933, -0.02665717713534832, -0.016990425065159798, -0.015228161588311195, -0.059865716844797134, 0.03716816380620003, 0.05821094289422035, 0.04684628173708916, 0.042215947061777115, 0.06564682722091675, 0.029079148545861244, 0.07600204646587372, -0.034593094140291214, 0.03897269815206528, -0.009952062740921974, -0.014509485103189945, -0.05575978755950928, -0.041549455374479294, 0.034286487847566605, 0.017479829490184784, -0.05082098767161369, 0.02487633377313614, -0.044485703110694885, 0.0050495695322752, 0.06404990702867508, -0.029148459434509277, 0.0654418095946312, -0.03164713457226753, -0.03383232280611992, 0.02250470407307148, 0.02561815083026886, 0.055942829698324203, 0.07363174855709076, -0.02444155141711235, -0.03240114450454712, 0.003772077849134803, 0.054688405245542526, 0.062183767557144165, 0.03791810944676399, -0.061117514967918396, 0.011391366831958294, 0.0016524136299267411, 0.08976174145936966, 0.039997927844524384, 0.05583809316158295, -0.027592472732067108, 0.016983497887849808, -0.018378570675849915, 0.00852231215685606, 0.004667527507990599, -0.013338711112737656, 0.01632090099155903, -0.02656286023557186, -0.011801043525338173, -0.03963975980877876, 0.03141583874821663, 0.059421561658382416], [-0.004369510803371668, -0.03877834975719452, 0.054309893399477005, 0.11045769602060318, 0.11722297221422195, 0.08794981241226196, -0.016304727643728256, -0.07056304812431335, 0.059200070798397064, 0.010103676468133926, 0.09694668650627136, 0.07444217801094055, 0.13525885343551636, 0.15898236632347107, 0.19037821888923645, 0.18232476711273193, 0.02026708610355854, 0.030179185792803764, -0.10608202964067459, -0.04238240420818329, 0.02839392051100731, 0.010903063230216503, 0.03203022480010986, 0.04627762734889984, -0.017565175890922546, 0.04294505715370178, 0.0052871908992528915, -0.07731276005506516, -0.05621463432908058, -0.0626613050699234, 0.09751235693693161, 0.05953482165932655, -0.03774838522076607, 0.06316491961479187, -0.007494721561670303, 0.11095244437456131, -0.06277310103178024, -0.08598856627941132, 0.030071305111050606, -0.014528023079037666, -0.03344962000846863, -0.012257462367415428, 0.05136941745877266, 0.052306678146123886, -0.0429818257689476, -0.04848150163888931, 0.03948555886745453, -0.09977097809314728, -0.0024191790726035833, -0.06841929256916046, -0.0628613755106926, 0.0597708597779274, -0.05315691605210304, -0.037555426359176636, -0.017405785620212555, 0.0495537593960762, -0.04038240388035774, 0.01584550365805626, -0.017956621944904327, -0.03331935405731201, 0.0038963276892900467, 0.06610953062772751, -0.023004647344350815, -0.03141912445425987, 0.05731024220585823, -0.03788638859987259, -0.006772479508072138, 0.012044326402246952, 0.023081500083208084, 0.05293019115924835, -0.03924466297030449, -0.043350949883461, -0.05069250985980034, -0.05787543207406998, 0.002457699738442898, 0.01410022284835577, 0.012485768646001816, -0.03053334355354309, 0.06471206992864609, 0.06402090936899185, -0.0188608355820179, -0.06665098667144775, 0.026082897558808327, 0.0644734725356102, 0.05353464558720589, -0.014204751700162888, 0.030993055552244186, -0.013403650373220444, 0.053658757358789444, -0.03685176372528076, -0.08200550079345703, -0.027073431760072708, 0.0440872423350811, -0.024206994101405144, 0.022365575656294823, -0.05312495306134224, 0.04217439144849777, -0.05325780808925629, 0.07430832833051682, 0.0339839868247509, -0.05091876536607742, 0.01792162097990513, 3.995727456640452e-05, 0.03374047949910164, -0.05762927979230881, -0.024509312584996223, -0.07590332627296448, 0.041169423609972, 0.05801653489470482, 0.05986759439110756, 0.07704762369394302, -0.041465483605861664, 0.03654005751013756, -0.05230003595352173, 0.033959973603487015, 0.07077416032552719, 0.016800645738840103, 0.026451807469129562, 0.006609218195080757, 0.0569702573120594, 0.02187425084412098, -0.05850403383374214, -0.06373919546604156, -0.014290074817836285, 0.05681721493601799, -0.03039613366127014, -0.06613170355558395, 0.04052285850048065, -0.06426406651735306, 0.03440309688448906, -0.009088234044611454, -0.03838696703314781, 0.03430163115262985, 0.03376293182373047, -0.08304216712713242, 0.06656437367200851, -0.0332907997071743, 0.056089188903570175, 0.010066804476082325, 0.03469537943601608, 0.05014387518167496, 0.014042026363313198, 0.0571083165705204, -0.05362412706017494, 0.026855546981096268, -0.044402748346328735, 0.0014801177894696593, 0.0005535903619602323, -0.04223404824733734, -0.055829551070928574, -0.0011850461596623063, -0.00823168084025383, 0.042081620544195175, -0.00408500200137496, -0.014999786391854286, 0.0055029122158885, 0.011120827868580818, -0.046050604432821274, -0.0779900848865509, -0.052131809294223785, 0.05367468297481537, 0.026404915377497673, -0.07333395630121231, -0.074058398604393, -0.03740861266851425, 0.044201165437698364, 0.009630502201616764, -0.0303010493516922, -0.03259942680597305, 0.0635887086391449, -0.0349062979221344, -0.06229007989168167, 0.052969492971897125, 0.054194625467061996, 0.05753525719046593, 0.01654001511633396, -0.019559714943170547, 0.0012377192033454776, -0.015923194587230682, -0.06724485754966736, 0.014114071615040302, 0.046235647052526474, -0.06060131639242172, 0.047026898711919785, -0.013379555195569992, -0.06107785925269127, 0.04019363969564438, 0.057781197130680084, -0.06238410249352455, 0.04789286106824875, 0.029095755890011787, 0.07281807065010071, -0.07249168306589127, -0.058633506298065186, 0.04079178720712662, -0.03789990767836571, 0.0010829492239281535, -0.040977392345666885, -0.03321623429656029, 0.03072117269039154, -0.09296594560146332, -0.042539339512586594, 0.09077010303735733, 0.018604697659611702, 0.0390176884829998, -0.03014499880373478, -0.060174278914928436, -0.06458356976509094, 0.07507114857435226, 0.038560010492801666, 0.06835223734378815, 0.02383348159492016, -0.06292446702718735, -0.012001065537333488, 0.02287968248128891], [0.023497480899095535, -0.11480828374624252, 0.0680696964263916, 0.11254766583442688, 0.07864353805780411, 0.1383034884929657, 0.03703262656927109, 0.045755837112665176, 0.04879000037908554, 0.02618926763534546, 0.09903055429458618, 0.007749741431325674, 0.05601589381694794, 0.058126043528318405, 0.16785702109336853, 0.15339817106723785, 0.06751371920108795, 0.07563579827547073, -0.04537762328982353, 0.027686286717653275, -0.021786846220493317, 0.06970281898975372, -0.012844912707805634, 0.11708196997642517, 0.04777669161558151, 0.05091974511742592, 0.024863263592123985, -0.05478966236114502, -0.03711900860071182, 0.00506660295650363, 0.06546091288328171, -0.03951080143451691, -0.06124439090490341, 0.015753261744976044, 0.0740494579076767, -0.029976829886436462, -0.016561269760131836, 0.04746169224381447, 0.021678082644939423, -0.013801810331642628, -0.04825086519122124, 0.03159452974796295, 0.014592655934393406, 0.007540842518210411, -0.010086523368954659, -0.04491052404046059, -0.042994894087314606, -0.055989280343055725, 0.04782933369278908, 0.07250432670116425, 0.005965051241219044, 0.06932412087917328, 0.025737570598721504, -0.0523093044757843, 0.049066394567489624, 0.01340697705745697, 0.024041786789894104, 0.041999101638793945, 0.020316394045948982, 0.023236500099301338, -0.02136344276368618, 0.02089223638176918, 0.03144342079758644, 0.003660785034298897, 0.009439829736948013, 0.05848732963204384, 0.007250144146382809, -0.026883278042078018, -0.002801630413159728, 0.009897178038954735, -0.012089700438082218, 0.051025062799453735, 0.003303533885627985, 0.05438343435525894, -0.03396004065871239, -0.03520539775490761, 0.01538615208119154, 0.023038189858198166, 0.02344079501926899, 0.01730884425342083, -0.02854781411588192, -0.03119206428527832, -0.021798308938741684, -0.005723972804844379, -0.004646803252398968, -0.0463842935860157, -0.0390600860118866, -0.019045347347855568, 0.016795149073004723, -0.03550180792808533, 0.0724903792142868, 0.06260251253843307, 0.0008524699369445443, 0.04963252693414688, 0.06939589977264404, 0.0012451233342289925, -0.03610413521528244, 0.017361775040626526, -0.0631391704082489, 0.004874196834862232, -0.03440721705555916, -0.010971138253808022, 0.0011299129109829664, -0.022350044921040535, 0.003483137581497431, 0.0010093685705214739, 0.054439157247543335, 0.04061756655573845, -0.0850813165307045, -0.05791143327951431, 0.023128101602196693, -0.04929991066455841, 0.04419615492224693, -0.010296269319951534, -0.04916839674115181, -0.012651442550122738, 0.07304849475622177, -0.03554489463567734, -0.06741969287395477, -0.08769001066684723, -0.03899996727705002, -0.06650624424219131, -0.02447202242910862, -0.05168316885828972, 0.008065421134233475, 0.04464885592460632, -0.03296634554862976, 0.03459944576025009, -0.006736459210515022, 0.013403072021901608, -0.022902842611074448, -0.03954392299056053, 0.024274233728647232, 0.069520004093647, -0.06003078073263168, 0.03430716693401337, -0.04614657536149025, 0.04520799219608307, 0.018489154055714607, 0.05788619443774223, 0.02764705941081047, 0.08062653243541718, 0.05244356766343117, -0.058631639927625656, 0.060649484395980835, -0.04362841323018074, 0.04407138377428055, -0.03340734913945198, 0.04104945436120033, 0.012410434894263744, -0.01570110023021698, -0.01854846253991127, -0.04558224976062775, 0.011374073103070259, 0.03462524339556694, -0.0033673972357064486, -0.01343903224915266, -0.05474366620182991, 0.05834905803203583, -0.047237638384103775, 0.007073099724948406, -0.009186521172523499, -0.07889080792665482, 0.02465604990720749, 0.048006895929574966, -0.0007553871255367994, 0.028336530551314354, -0.06543729454278946, 0.009509071707725525, 0.07070844620466232, 0.06224067881703377, -0.07033935189247131, 0.046271272003650665, -0.000726587837561965, -0.02489502914249897, -0.0284883975982666, -0.04712025448679924, -0.0589628592133522, 0.063750721514225, -0.0041182758286595345, -0.014163735322654247, 0.04433509334921837, -0.040753912180662155, -0.05290113016963005, -0.006203628145158291, 0.01710594817996025, 0.05368291214108467, 0.013358586467802525, 0.01666252501308918, -0.0574788823723793, 0.03294559568166733, 0.042047690600156784, -0.017058899626135826, 0.031617142260074615, 0.0622175931930542, 0.04841340333223343, -0.0373896099627018, 0.014110646210610867, -0.010136976838111877, 0.019303055480122566, 0.015818627551198006, 0.060499172657728195, -0.03463141620159149, 0.03697412461042404, 0.0020009034778922796, 0.035280708223581314, 0.010923508554697037, 0.03056258149445057, 0.0068475427106022835, -0.0033910945057868958, 0.018293172121047974, -0.04042757302522659, -0.024628039449453354, -0.08560691028833389, 0.05552831292152405], [0.0845358595252037, 0.0530317947268486, -0.0451788567006588, -0.057681504637002945, -0.09670798480510712, -0.07604212313890457, 0.06327307224273682, 0.0011312770657241344, 0.07907097786664963, -0.017980920150876045, -0.019117919728159904, 0.0012883394956588745, -0.10726236552000046, -0.1533668339252472, -0.08237429708242416, -0.08430717885494232, -0.0930953174829483, -0.019593480974435806, -0.02172301523387432, 0.07020152360200882, 0.10153914242982864, -0.04058507829904556, -0.02273167110979557, -0.09175291657447815, -0.023188650608062744, 0.05842526629567146, -0.02435518056154251, 0.029278188943862915, 0.030072160065174103, -0.004723282530903816, 0.05895932763814926, 0.028856363147497177, 0.10918660461902618, 0.024535423144698143, 0.08178692311048508, 0.05852992832660675, 0.04823959618806839, 0.05939176306128502, 0.07965824007987976, 0.08705161511898041, 0.07960064709186554, 0.06630595028400421, -0.03806319087743759, 0.048243630677461624, 0.07848235964775085, 0.08252821862697601, -0.027222545817494392, -0.027851253747940063, 0.0011612401576712728, 0.031384773552417755, 0.031235346570611, 0.030135909095406532, 0.05874833092093468, 0.047983936965465546, -0.026549875736236572, 0.07321935147047043, 0.005631835665553808, -0.012732022441923618, 0.059722404927015305, 0.0529719814658165, -0.046155937016010284, -0.03852124139666557, -0.038675591349601746, 0.06288530677556992, 0.03951646760106087, 0.003673694096505642, -0.0066355750896036625, -0.001041238196194172, 0.019577229395508766, 0.06624029576778412, -0.034699175506830215, 0.009067676961421967, 0.03794480487704277, 0.019412029534578323, -0.04401061683893204, -0.030431659892201424, 0.002847789553925395, -0.058449435979127884, 0.05566548928618431, 0.021949894726276398, 0.07435844093561172, -0.028878096491098404, 0.04929400607943535, 0.011346849612891674, 0.017244962975382805, -0.05594845861196518, -0.04792178422212601, 0.013483655638992786, 0.016547346487641335, 0.0079481340944767, 0.017544658854603767, -0.04002673178911209, -0.05411985144019127, -0.0633297860622406, -0.009708553552627563, -0.047130037099123, 0.040987785905599594, -0.07306542247533798, -0.0388968288898468, -0.03487376123666763, -0.0009244558750651777, -0.01944868080317974, 0.03917616978287697, 0.0077806501649320126, -0.014322488568723202, -0.03930274769663811, -0.012311793863773346, -0.04737250134348869, -0.016012661159038544, -0.007271766196936369, -0.02812623418867588, 0.023822417482733727, 0.010117124766111374, 0.018933704122900963, 0.0424596406519413, 0.01609215885400772, 0.025721363723278046, 0.06152372062206268, 0.03099583461880684, 0.01831192523241043, 0.025531144812703133, -0.0016161879757419229, 0.05184226110577583, 0.016439633443951607, -0.04388904944062233, 0.0445934422314167, 0.017575262114405632, 0.04552638530731201, -0.04419628903269768, -0.04555097594857216, -0.043200183659791946, -0.059462469071149826, -0.06498172134160995, 0.03495669364929199, 0.022631775587797165, 0.029936762526631355, 0.020874008536338806, -0.0436682291328907, -0.026314392685890198, -0.007746926508843899, 0.06220580264925957, -0.003381658811122179, -0.03584475442767143, 0.0077768005430698395, -0.03211851045489311, -0.024040699005126953, 0.021888798102736473, 0.04731621593236923, 0.061177629977464676, 0.01990974135696888, -0.03353536128997803, 0.05870386213064194, 0.024757714942097664, -0.037067048251628876, -0.03149209916591644, 0.053475409746170044, 0.06985285878181458, -0.0370517298579216, 0.04518922045826912, 0.0025277291424572468, 0.06568989157676697, 0.02619861625134945, -0.0486433207988739, -0.07465986162424088, -0.016830477863550186, -0.03670704737305641, 0.04415564611554146, 0.01756945624947548, -0.05234954506158829, 0.04441202059388161, 0.022862141951918602, 0.0394466295838356, -0.07796860486268997, 0.048384975641965866, 0.04399103671312332, -0.015686655417084694, -0.06218911334872246, 0.03423582389950752, 0.03587048128247261, 0.00911730621010065, 0.04701637476682663, -0.04227900132536888, 0.0367094911634922, -0.026170236989855766, -0.03028111532330513, -0.042340926826000214, 0.027422189712524414, 0.04686691612005234, -0.020076368004083633, -0.04146503657102585, -0.06440163403749466, -0.029034731909632683, -0.017537029460072517, -0.07699982821941376, -0.039527639746665955, -0.03257053345441818, 0.07429244369268417, -0.015117245726287365, 0.05572644993662834, 0.06614689528942108, -0.06894039362668991, 0.027605334296822548, -0.003270266577601433, -0.10068625211715698, 0.052961088716983795, 0.08675017207860947, -0.014132717624306679, -0.030625149607658386, 0.03462052345275879, -0.0512305423617363, -0.02000891976058483, 0.02957543171942234, 0.058875177055597305, -0.01868775300681591, 0.02584747225046158], [-0.02979092486202717, -0.060790322721004486, 0.02340172603726387, 0.03353457152843475, 0.11295966058969498, 0.13096944987773895, -0.021552495658397675, -0.02005494385957718, 0.059063661843538284, -0.06677822023630142, 0.07543761283159256, 0.127541184425354, 0.06820347160100937, 0.05625942721962929, 0.10572724044322968, 0.15551388263702393, 0.1267109513282776, 0.0908157154917717, -0.045963387936353683, 0.00613519549369812, -0.004632371012121439, 0.05189009755849838, 0.0717594176530838, 0.12707683444023132, 0.03464566171169281, 0.07959496974945068, 0.053274042904376984, 0.009485986083745956, 0.04544262960553169, -0.020337626338005066, 0.01281669456511736, 0.04395077005028725, 0.07408198714256287, -0.005284393206238747, 0.020400987938046455, 0.06447918713092804, 0.03353197127580643, -0.024853968992829323, 0.05255457013845444, -0.061968594789505005, -0.04609562084078789, 0.09007371217012405, 0.0015866333851590753, 0.08355879783630371, 0.08054078370332718, 0.020336996763944626, -0.02072293497622013, -0.03965095430612564, 0.026981202885508537, 0.03682458773255348, -0.008546054363250732, 0.019209742546081543, 0.013199534267187119, -0.02682526595890522, 0.039004404097795486, 0.07054613530635834, 0.060156527906656265, 0.040019482374191284, 0.017280325293540955, -0.047072798013687134, -0.0041343136690557, -0.0402451828122139, -0.030367176979780197, -0.0424078069627285, 0.04848921671509743, 0.060872022062540054, -0.021815024316310883, 0.0608963742852211, -0.007652562577277422, -0.0847703069448471, 0.025569984689354897, 0.027115125209093094, -0.03073257766664028, -0.049215417355298996, 0.0074360184371471405, -0.06549044698476791, 0.03184807673096657, 0.07461860030889511, 0.041229475289583206, 0.04330748692154884, -0.054904352873563766, 0.009103810414671898, 0.040079884231090546, -0.011791721917688847, -0.02774648740887642, 0.05104945972561836, -0.016305962577462196, -0.042143888771533966, -0.030348902568221092, 0.07259099185466766, 0.025562303140759468, 0.02140975557267666, 0.021403219550848007, 0.06705886125564575, 0.027706479653716087, 0.00794216524809599, -0.049349624663591385, 0.01788380928337574, -0.031409312039613724, 0.0663062185049057, -0.004926949739456177, 0.010009154677391052, 0.06129559502005577, -0.01744886487722397, 0.06154832988977432, 0.009669273160398006, -7.080838258843869e-05, -0.02776394411921501, 0.004138534422963858, 0.015747833997011185, 0.06359884142875671, 0.06028104946017265, -0.050189170986413956, -0.0092921806499362, 0.050569672137498856, 0.06042495369911194, 0.05890820547938347, 0.07493280619382858, -0.04712639003992081, -0.03351380676031113, -0.05786040425300598, 0.07262144982814789, 0.01521612610667944, -0.04938405007123947, 0.04449963569641113, -0.02155715972185135, -0.014699884690344334, -0.04760357365012169, -0.022572938352823257, -0.045450642704963684, -0.024334844201803207, -0.00015525263734161854, -0.030796337872743607, 0.0786522701382637, 0.00807986594736576, 0.06078261882066727, -0.03971968591213226, -0.035140398889780045, 0.053052015602588654, -0.007643190212547779, -0.03176642581820488, 0.016426963731646538, -0.0329589806497097, -0.047631777822971344, -0.04876049980521202, -0.0444304458796978, 0.03337536379694939, 0.05776739865541458, 0.054568614810705185, -0.04673079028725624, 0.05774615705013275, -0.019273880869150162, 0.02381100133061409, -0.04074578359723091, 0.036628659814596176, 0.026624253019690514, -0.008417501114308834, 0.02126939594745636, 0.05799032747745514, -0.03667696937918663, 0.03995463252067566, 0.08023069053888321, -0.056481678038835526, -0.026396306231617928, -0.04596075043082237, -0.050246112048625946, 0.027894219383597374, 0.01114618219435215, -0.0114981010556221, 0.03382587432861328, -0.033570561558008194, 0.05422692745923996, -0.024484684690833092, 0.05404514819383621, 0.07597625255584717, 0.02506181038916111, 0.051788561046123505, 0.030467404052615166, -0.016293929889798164, -0.02710168994963169, 0.06427738070487976, -0.05722136050462723, 0.049491170793771744, -0.013873809017241001, 0.0022096626926213503, 0.030941182747483253, 0.015904344618320465, -0.00069073197664693, 0.05017745494842529, 0.020558105781674385, 0.07164909690618515, -0.0475907102227211, -0.03734055534005165, 0.04537670686841011, 0.009645532816648483, -0.02993699163198471, -0.024787703529000282, 0.053867895156145096, 0.028931492939591408, 0.043620653450489044, 0.033566512167453766, 0.026570765301585197, -0.04369214549660683, 0.044874485582113266, 0.009411102160811424, -0.007200274150818586, 0.011076324619352818, 0.0007424674113281071, 0.024455469101667404, -0.05308496579527855, -0.03277205303311348, 0.06508003175258636, 0.007163560949265957, 0.026754964143037796, -0.04118643328547478], [-0.0622718371450901, -0.0037589543499052525, -0.009284156374633312, 0.14437463879585266, 0.11543124914169312, 0.07825366407632828, 0.028434302657842636, -0.006869597360491753, 0.0010787121718749404, -0.04883536696434021, 0.10719610005617142, 0.11168282479047775, 0.1704959124326706, 0.16829392313957214, 0.07207746058702469, 0.1711563915014267, 0.08042465895414352, 0.015938205644488335, -0.021207712590694427, 0.018713606521487236, -0.013639288954436779, 0.05160292983055115, 0.06166980415582657, 0.13706852495670319, 0.08802252262830734, 0.04686892032623291, 0.02331266738474369, 0.026202570647001266, 0.026492392644286156, -0.027335869148373604, 0.038064002990722656, 0.07814827561378479, -0.0008276712615042925, 0.08979407697916031, 0.044440362602472305, 0.07311252504587173, 0.059369560331106186, 0.011383643373847008, 0.009996562264859676, 0.0374288409948349, 0.007373215164989233, 0.051187142729759216, 0.042910750955343246, 0.04542781785130501, 0.032188426703214645, -0.02970614656805992, -0.0076477425172924995, -0.027781754732131958, 0.026866953819990158, 0.0518166646361351, -0.05447540432214737, 0.03550863265991211, -0.0582791306078434, 0.0440458245575428, 0.03312373161315918, -0.0616142638027668, 0.028057953342795372, -0.07754454761743546, -0.04204068332910538, -0.07677586376667023, 0.051761940121650696, 0.012884069234132767, -0.04111660644412041, -0.03374291956424713, -0.018231859430670738, 0.04942568019032478, 0.0346825085580349, -0.03519926592707634, 0.03281744569540024, -0.01784876361489296, -0.04793297126889229, -0.06032451614737511, 0.04682674631476402, 0.03298841044306755, 0.055298320949077606, -0.06094053387641907, -0.018522918224334717, 0.05088045820593834, -0.0281999334692955, 0.04142586886882782, -0.0968015193939209, 0.023330872878432274, 0.060828305780887604, -0.043058257550001144, -0.021388094872236252, -0.03640791028738022, 0.05126379057765007, -0.0186622217297554, 0.06174507364630699, 0.04103194922208786, 0.0039043009746819735, 0.015361171215772629, -0.016882646828889847, 0.06357283890247345, 0.002153103007003665, 0.006013752426952124, -0.00431898795068264, 0.0075738499872386456, -0.0012906569754704833, 0.053293414413928986, -0.04085063561797142, 0.029494551941752434, 0.028316127136349678, -0.07965195178985596, 0.029488641768693924, 0.017427314072847366, -0.0008430361049249768, -0.023162834346294403, 0.029006727039813995, -0.07156192511320114, 0.022347286343574524, -0.012465409934520721, -0.015145128592848778, -0.027005571871995926, -0.011188235133886337, 0.02553945779800415, -0.049065083265304565, -0.010131841525435448, -0.06760105490684509, 0.0036419127136468887, 0.09208745509386063, -0.03568066284060478, 0.05268118530511856, -0.08716007322072983, 0.0389719158411026, 0.036877840757369995, 0.012466507963836193, -0.03790668770670891, -0.020539360120892525, 0.014199302531778812, 0.009892427362501621, 0.027747170999646187, 0.0324750579893589, 0.03487938269972801, -0.044719282537698746, 0.04320434108376503, -0.053750064224004745, -0.015971209853887558, -0.007139141205698252, 0.007228456437587738, 0.04591793194413185, 0.02346862107515335, -0.08339343965053558, -0.02546527236700058, 0.02229301445186138, -0.04881543666124344, -0.04954700544476509, -0.003899032948538661, -0.0688667818903923, 0.0072289686650037766, 0.0013379843439906836, 0.04420273378491402, -0.0158542487770319, -0.03941167891025543, -0.03388912230730057, -0.0065626041032373905, -0.0316496305167675, 0.05516733229160309, 0.01638227142393589, -0.03859966620802879, 0.03972670063376427, -0.009377000853419304, 0.07672537118196487, 0.022754274308681488, 0.02595914714038372, 0.026722203940153122, -0.06865034252405167, -0.03365239500999451, -0.02301960252225399, 0.03753519803285599, -0.06283055245876312, 0.006875335704535246, -0.05947709083557129, 0.0016780176665633917, -0.029214516282081604, 0.016708286479115486, -0.016303719952702522, -0.0649016946554184, -0.04522725194692612, 0.0056552826426923275, 0.010990467853844166, 0.03437243029475212, 0.03223327919840813, 0.06373162567615509, -0.016362719237804413, -0.039917219430208206, -0.021291760727763176, -0.031326405704021454, 0.03622420132160187, 0.024643799290060997, -0.020582519471645355, -0.05849422141909599, 0.005686101038008928, -0.044050637632608414, -0.03401372581720352, -0.04974428191781044, -0.06594392657279968, -0.026014050468802452, -0.015699369832873344, -0.028487449511885643, -0.019988805055618286, 0.06150202080607414, 0.017383532598614693, 0.057380255311727524, -0.06860336661338806, -0.018165402114391327, -0.046071913093328476, 0.00942142028361559, 0.08575834333896637, 0.045871321111917496, 0.05029177665710449, -0.07128316909074783, -0.012323422357439995, -0.11220182478427887, -0.0362224206328392], [0.03792361542582512, 0.024771511554718018, -0.05001503601670265, -0.027845028787851334, -0.00561711098998785, 0.05494234338402748, 0.02633185312151909, 0.01382842194288969, -0.04103696346282959, 0.057769231498241425, -0.0420636311173439, -0.05150788649916649, -0.025429824367165565, -0.03252222761511803, 0.056745145469903946, 0.03894127160310745, -0.05389153212308884, -0.059147197753190994, -0.037329770624637604, 0.039965927600860596, 0.022424176335334778, -0.04371544346213341, -0.06854205578565598, -0.01799151860177517, -0.03151765465736389, -0.011572303250432014, -0.039568156003952026, -0.04088258743286133, 0.013294230215251446, -0.042097240686416626, -0.012369116768240929, 0.05723116546869278, -0.03651822730898857, -0.060891371220350266, -0.029221806675195694, 0.01288739312440157, -0.06113189086318016, -0.06894897669553757, -0.06857945024967194, -0.01225230097770691, -0.018775075674057007, -0.03777586296200752, -0.0204892847687006, -0.0587792806327343, 0.007411889731884003, -0.005568281747400761, 0.00812339223921299, -0.012770070694386959, -0.050897978246212006, -0.0608028881251812, -0.012051443569362164, 0.0411490872502327, -0.04387960955500603, -0.05773197486996651, 0.062319379299879074, -0.006993225309997797, 0.04595717042684555, -0.05212796479463577, 0.053071215748786926, 0.03277029097080231, -0.051368776708841324, -0.014709530398249626, -0.050296999514102936, 0.0222947858273983, 0.028341930359601974, 0.005660864524543285, 0.05744041129946709, 0.026159241795539856, -0.02626216597855091, -0.06773718446493149, 0.04663672298192978, 0.024624407291412354, 0.03031700663268566, -0.05671456456184387, 0.017540255561470985, -0.002820089692249894, -0.007770948577672243, -0.05852852389216423, 0.013902355916798115, -0.022683003917336464, 0.01253778301179409, 0.045570600777864456, -0.057311367243528366, -0.07360629737377167, 0.0003571745182853192, -0.0011294393334537745, 0.058271363377571106, 0.04408964887261391, 0.0446493998169899, 0.009415382519364357, -0.03464796394109726, -0.054952461272478104, 0.01673351600766182, 0.0552234947681427, 0.047487422823905945, 0.04972510039806366, 0.025431379675865173, -0.017905516549944878, 0.05032392218708992, -0.04430348426103592, -0.05542479455471039, 0.05276812985539436, 0.02919670008122921, -0.012732279486954212, -0.03271203860640526, -0.06694217026233673, 0.03909056633710861, 0.019954439252614975, -0.04351707920432091, 0.01996254175901413, 0.0086613018065691, -0.01053351629525423, 0.03302725777029991, -0.015176396816968918, -0.0098417354747653, 0.05270504206418991, -0.0640895813703537, -0.04843556880950928, 0.002295611659064889, -0.02065351791679859, -0.04301047325134277, 0.00557741429656744, 0.030837280675768852, -0.060668013989925385, 0.03802855312824249, -0.021139880642294884, -0.04417138546705246, -0.05850241705775261, -0.05966585874557495, -0.0005444000707939267, -0.05057269707322121, 0.033124569803476334, 0.01342786941677332, -0.07364305108785629, -0.021296223625540733, 0.034235987812280655, -0.04291907325387001, -0.003889362560585141, -0.05628632754087448, -0.06397721916437149, 0.048117745667696, -0.018881166353821754, -0.07365357875823975, -0.05190670117735863, -0.006004359107464552, 0.04505937173962593, -0.022199880331754684, -0.004313723184168339, -0.013305014930665493, 0.050118181854486465, 0.024211186915636063, -0.05708690360188484, -0.06377299129962921, -0.04441715031862259, -0.032269325107336044, 0.028437523171305656, 0.009491278789937496, 0.0315842367708683, -0.022222967818379402, -0.029240069910883904, -0.06992343068122864, 0.04378752037882805, -0.06562496721744537, -0.027051862329244614, 0.05967310816049576, -0.0664774551987648, -0.0026412876322865486, -0.028889277949929237, 0.03542092442512512, 0.022431954741477966, -0.04092152416706085, 0.05424616485834122, 0.033303339034318924, -0.04224831983447075, 0.03221306577324867, 0.000581862754188478, -0.03740767762064934, -0.04042680934071541, -0.0608225017786026, -0.05181127041578293, -0.07141859084367752, 0.0469135083258152, 0.0015648965490981936, 0.033231716603040695, 0.04017193987965584, 0.043373603373765945, 0.039783790707588196, 0.04659236967563629, 0.02586374431848526, 0.015071884728968143, -0.006591813638806343, -0.017375420778989792, 0.02586531825363636, 0.05575951933860779, -0.0722246840596199, 0.00863933190703392, 0.05843552201986313, -0.03963501751422882, 0.01864737644791603, 0.02335090935230255, 0.01844150200486183, -0.05935433506965637, -0.025585288181900978, 0.01925734430551529, -0.038027722388505936, 0.028839901089668274, 0.05081101506948471, -0.01629866100847721, 0.021970218047499657, -0.0506284199655056, -0.028994962573051453, 0.026261933147907257, -0.03884726017713547, 0.013092073611915112, -0.054703496396541595], [-0.029912155121564865, 0.05387285724282265, -0.044014960527420044, 0.054493945091962814, 0.04756234586238861, 0.03360029309988022, -0.011241815984249115, 0.0513404943048954, 0.007711315527558327, 0.024441806599497795, 0.03831683099269867, 0.05924249812960625, -0.011905123479664326, -0.02274041436612606, -0.03766386955976486, -0.030546467751264572, -0.029309242963790894, -0.011396858841180801, 0.026640184223651886, 0.0502685122191906, 0.0062302942387759686, -0.0037331096827983856, -0.01337654609233141, -0.04349659010767937, 0.062091030180454254, -0.04716656357049942, -0.005814574658870697, 0.017481604591012, 0.035593096166849136, -0.030100485309958458, -0.005238235928118229, -0.0391603522002697, -0.03664520010352135, 0.05571838095784187, -0.05661473050713539, -0.015225028619170189, -0.043995942920446396, 0.062005020678043365, -0.04704814776778221, -0.021514156833291054, 0.014183667488396168, -0.05717160180211067, -0.02744322642683983, -0.014608288183808327, -0.0627429187297821, -0.01938624493777752, -0.05245579406619072, -0.004809227306395769, -0.03569256141781807, 0.00021093725808896124, 0.05460980907082558, 0.004303754772990942, 0.008326170034706593, -0.04881026968359947, 0.014639136381447315, -0.016084764152765274, 0.04849144071340561, 0.051989100873470306, -0.06702960282564163, -0.01684238761663437, -0.005095811560750008, -0.037267301231622696, 0.017103232443332672, -0.0553395040333271, -0.029572894796729088, -0.03845060616731644, -0.05177173390984535, 0.048322826623916626, -0.0667591542005539, -0.01809546910226345, -0.048432592302560806, 0.019139712676405907, 0.007911221124231815, -0.0480087511241436, -0.05446181446313858, 0.04131517559289932, -0.038292866200208664, -0.048051994293928146, 0.05484512820839882, 0.014843394979834557, -0.052476368844509125, -0.044724781066179276, -0.02683505043387413, 0.012074890546500683, -0.03938252106308937, 0.0604243166744709, -0.020693061873316765, 0.0026956028304994106, 0.041239723563194275, -0.0737823024392128, -0.06062444671988487, -0.0418698824942112, -0.03967995569109917, -0.05492560938000679, -0.007684360723942518, 0.012236269190907478, 0.028027499094605446, -0.06174357607960701, 0.021065929904580116, -0.03624098375439644, 0.06372296065092087, 0.014666461385786533, 0.03127182275056839, 0.01846379227936268, 0.02025395631790161, 0.039140090346336365, 0.0035880901850759983, -0.028088092803955078, 0.055851828306913376, 0.04265587776899338, -0.0402614064514637, -0.011240067891776562, 0.03530483692884445, -0.07188194245100021, 0.012228635139763355, -0.025961633771657944, -0.0005354344029910862, 0.059428177773952484, -0.022676702588796616, -0.030669230967760086, -0.009809456765651703, 0.05857470631599426, 0.04529935121536255, -0.05904011428356171, 0.0025135427713394165, 0.05273178219795227, 0.0006830175407230854, -0.048988718539476395, -0.06423703581094742, -0.004294406156986952, -0.04888511449098587, -0.008534838445484638, -0.05974102020263672, 0.013474510982632637, -0.060685113072395325, 0.003371765371412039, -0.06516234576702118, -0.05501164495944977, -0.060440171509981155, 0.05209549516439438, -0.02757379226386547, 0.012724613770842552, 0.03947953134775162, 0.021753745153546333, -0.025534940883517265, 0.03185713291168213, 0.013523911125957966, -0.010215049609541893, -0.02673049084842205, -0.0009352908818982542, -0.053863976150751114, -0.02946801669895649, -0.006334436126053333, -0.011552353389561176, -0.031273894011974335, -0.04107988253235817, 0.02603776566684246, -0.017803527414798737, 0.060738928616046906, 0.000978162046521902, 0.01895715296268463, 0.0074008465744555, 0.022650299593806267, -0.07071194052696228, 0.0469171516597271, -0.0652921125292778, -0.044840432703495026, -0.03163045644760132, 0.0013142118696123362, -0.018481411039829254, 0.034207671880722046, 0.027476772665977478, -0.0184418223798275, -0.05617573857307434, -0.013816882856190205, -0.00812306348234415, 0.03256835788488388, -0.019904889166355133, -0.07461905479431152, 0.0038627441972494125, -0.011694137938320637, -0.04480265453457832, 0.01874515600502491, -0.016127392649650574, 0.025596942752599716, -0.00956400390714407, -0.022967413067817688, -0.05213838070631027, 0.0337703563272953, 0.005911766551434994, -0.003634741762652993, -0.056257717311382294, -0.06684566289186478, 0.0455523319542408, 0.057450130581855774, 0.034493543207645416, 0.05041246861219406, -0.02467270940542221, 0.04727756232023239, -0.07116001844406128, 0.004948417656123638, 0.048432424664497375, 0.01638585887849331, -0.006689456291496754, 0.012104340828955173, -0.0202287957072258, -0.03817647323012352, 0.05805838108062744, -0.07060933858156204, 0.006312012672424316, -0.0730958953499794, -0.014285699464380741, 0.027731239795684814, -0.03678848221898079, 0.003102591261267662], [0.02528419904410839, 0.03650128096342087, -0.04230530560016632, -0.033114589750766754, -0.03611379861831665, -0.024666275829076767, 0.060760825872421265, -0.0355161689221859, 0.033809781074523926, -0.025473637506365776, 0.026136577129364014, -0.026928937062621117, -0.003853950882330537, -0.0177841167896986, 0.023478055372834206, -0.03539823368191719, -0.01121156383305788, 0.034648310393095016, -0.028343655169010162, 0.0303288996219635, 0.02243395522236824, 0.02806440182030201, -0.06720302253961563, 0.016178110614418983, -0.0015287573914974928, -0.002186110243201256, 0.03463186323642731, 0.029469218105077744, 0.038561832159757614, 0.010443604551255703, -0.0031933665741235018, 0.0653882622718811, 0.018397720530629158, -0.010959847830235958, 0.014044358395040035, -0.03693414852023125, 0.009108809754252434, -0.054960209876298904, 0.03331819176673889, 0.05817526951432228, -0.0531734935939312, -0.06861981004476547, 0.0627744123339653, -0.050080396234989166, 0.02852799743413925, 0.03281186893582344, 0.030182037502527237, 0.025375155732035637, -0.05722776800394058, 0.03460923954844475, -0.06348587572574615, -0.05745549127459526, 0.040875259786844254, 0.016722438856959343, -0.0025778128765523434, -0.04272734001278877, -0.017072215676307678, -0.043473001569509506, 0.023344365879893303, -0.012924662791192532, 0.030913228169083595, -0.05766734108328819, -0.04883398488163948, 0.05477572977542877, 0.06324516981840134, -0.023088660091161728, 0.05411668121814728, 0.03091641329228878, -0.03400185704231262, 0.024389952421188354, -0.055001500993967056, 0.04411950707435608, -0.01544050220400095, -0.006992297247052193, -0.05300211161375046, 0.044827137142419815, -0.051075540482997894, 0.059321556240320206, 0.005858296528458595, 0.010308622382581234, 0.01859329827129841, 0.02280867099761963, -0.0385739840567112, -0.054549165070056915, -0.019486794248223305, -0.021606311202049255, 0.05122889205813408, 0.0006835652166046202, -0.05524352937936783, -0.014478437602519989, 0.02658994495868683, 0.01731126941740513, -0.02208636701107025, 0.0010019983164966106, -0.030437488108873367, -0.06407687067985535, -0.014340613968670368, -0.028104277327656746, 0.009868835099041462, 0.004103506449609995, 0.0016280513955280185, 0.020925333723425865, 0.008414551615715027, -0.021191474050283432, -0.06396342068910599, -0.008928247727453709, -0.006360389292240143, -0.024662014096975327, -0.023352187126874924, -0.06578315794467926, -0.03253915533423424, 0.028354831039905548, 0.008876715786755085, 0.04515080899000168, 0.002901986939832568, 0.007500282488763332, 0.03738829493522644, -0.038411591202020645, 0.010885200463235378, -0.035084422677755356, -0.01241072453558445, -0.029566803947091103, 0.058791402727365494, -0.03207952901721001, -0.04805244505405426, 0.024044277146458626, 0.00639428710564971, 0.037865687161684036, -0.039620622992515564, 0.0535794198513031, -0.06598012149333954, -0.016798969358205795, -0.047485195100307465, -0.03493815287947655, 0.020578976720571518, -0.006062705535441637, 0.003978582099080086, -0.03611333668231964, 0.016067279502749443, -0.05269446596503258, 0.024596262723207474, -0.05595023185014725, -0.05734134092926979, -0.07088091969490051, -0.027047904208302498, -0.06858667731285095, 0.0036584860645234585, -0.03514419496059418, -0.008983829990029335, 0.04151449352502823, 0.021986177191138268, 0.0631735697388649, 0.03678610548377037, 0.02369643747806549, 0.026710782200098038, -0.022729530930519104, 0.0006353406934067607, -0.06112587824463844, -0.008840643800795078, -0.028458314016461372, 0.022582367062568665, 0.028060689568519592, 0.00663972832262516, -0.053151149302721024, -0.007100916467607021, -0.059350814670324326, 0.012084378860890865, -0.07196304202079773, 0.0603322796523571, 0.03904353454709053, -0.03213924914598465, 0.04587630182504654, -0.010288462042808533, -0.022677427157759666, 0.001159211155027151, 0.01689327321946621, 0.017503445968031883, -0.02438146434724331, -0.03572023659944534, 0.04153415933251381, 0.010768240317702293, 0.03753505274653435, -0.046779658645391464, -0.06599286198616028, -0.025465868413448334, 0.03349529951810837, -0.013593901880085468, 0.07079293578863144, -0.04289793595671654, -0.002600626554340124, 0.02790805511176586, 0.025709744542837143, -0.007629547733813524, -0.06577645987272263, 0.04996253922581673, -0.019877491518855095, -0.003569516120478511, 0.009554837830364704, -0.06712568551301956, -0.0433952771127224, -0.06853251904249191, -0.0662965476512909, 0.014785872772336006, 0.007569859270006418, -0.014135004952549934, 0.0017076936783269048, 0.011930356733500957, -0.06758793443441391, 0.04626544192433357, 0.045779649168252945, -0.023118486627936363, 0.05581257864832878, -0.02887554280459881, -0.05462411418557167, -0.06483995169401169], [0.04087156429886818, 0.00034192888415418565, -0.043374355882406235, -0.05607808753848076, 0.056997254490852356, 0.003127224277704954, 0.005438349675387144, -0.027504198253154755, -0.060323718935251236, -0.06492872536182404, -0.05370578542351723, 0.06501016020774841, -0.05437410995364189, -0.01336310338228941, 0.054040029644966125, -0.05612708628177643, 0.05798247456550598, -0.0593804307281971, 0.01915832795202732, -0.025215597823262215, 0.053324680775403976, -0.00042530373320914805, -0.03757984936237335, 0.003930133301764727, -0.010122052393853664, 0.049302224069833755, 0.05945469066500664, -0.06699977815151215, 0.06710482388734818, 0.039350252598524094, 0.047444261610507965, 0.04407363384962082, -0.06302289664745331, -0.042796578258275986, 0.05307890102267265, -0.016283024102449417, 0.0480600968003273, -0.02236855961382389, 0.06031984090805054, -0.009281104430556297, -0.05896493420004845, 0.053781021386384964, 0.03287331759929657, -0.05920081213116646, 0.03868987038731575, -0.06554435938596725, -0.01365700364112854, 0.01235438697040081, 0.009408282116055489, -0.004409004934132099, -0.06739580631256104, 0.04305084049701691, -0.011020692065358162, -0.0530722513794899, -0.022067327052354813, -0.03220043331384659, -0.029479149729013443, 0.03135237470269203, 0.0006761748809367418, -0.06508694589138031, 0.06293690949678421, -0.04699990898370743, 0.0017883095424622297, -0.04424029961228371, 0.040674228221178055, -0.0174159724265337, -0.047185905277729034, -0.024312106892466545, -0.015042935498058796, -0.021178094670176506, -0.02665996365249157, 0.0029046512208878994, -0.06098037213087082, 0.05712070316076279, -0.06976369023323059, 0.027234423905611038, 0.04851143807172775, -0.01581580936908722, 0.03507291153073311, -0.04398047924041748, 0.041873760521411896, 0.01733986660838127, 0.023868808522820473, 0.010784417390823364, 0.055932171642780304, 0.02411767654120922, 0.03529118746519089, 0.014908365905284882, -0.03970147669315338, 0.025945862755179405, -0.05161008983850479, -0.004757774528115988, 0.06083465740084648, -0.04440721124410629, 0.052048370242118835, 0.05012943223118782, 0.021533867344260216, -0.06224740669131279, 0.039584483951330185, 0.06230660900473595, -0.037949949502944946, -0.025534534826874733, -0.05399404093623161, 0.051198456436395645, 0.01286289282143116, 0.0448654405772686, 0.019739527255296707, -0.041763968765735626, -0.037252698093652725, 0.025688504800200462, -0.06010977551341057, -0.0647401362657547, 0.02534065768122673, 0.011565775610506535, -0.02376064844429493, 0.0018572065746411681, -0.05945826321840286, -0.04188653081655502, -0.031142450869083405, 0.01766287162899971, 0.029697494581341743, 0.024010926485061646, -0.006832520477473736, -0.03674490749835968, -0.011512654833495617, -0.06064430996775627, 0.015489918179810047, 0.04813796281814575, 0.008800718002021313, -0.004374021198600531, -0.03323458135128021, -0.01322325598448515, 0.00857079029083252, -0.041365403681993484, -0.04588419198989868, -0.06718386709690094, 0.04329748451709747, 0.012967774644494057, -0.039129942655563354, 0.062247782945632935, 0.06099512055516243, 0.04082268103957176, 0.04686293378472328, -0.04399857670068741, -0.027553671970963478, -0.009987974539399147, -0.007498859893530607, -0.029722530394792557, 0.007398037705570459, -0.029373085126280785, -0.023616990074515343, 0.05670466274023056, 0.0517859160900116, 0.03566054254770279, -0.04300224781036377, -0.009431804530322552, -0.015220223926007748, 0.04097150266170502, 0.008856539614498615, -0.017467429861426353, 0.020033597946166992, -0.06613321602344513, 0.04962059482932091, -0.057680632919073105, -0.030350765213370323, -0.02172989398241043, -0.05145123228430748, -0.04109121859073639, -0.012817444279789925, 0.00930655375123024, 0.004834586288779974, 0.056289754807949066, -0.04803262650966644, -0.025355808436870575, -0.0398983433842659, 0.012443196028470993, -0.003422223497182131, -0.04732031747698784, -0.0219073835760355, -0.036231767386198044, 0.0022644081618636847, -0.04243386536836624, -0.009670782834291458, 0.009487424977123737, -0.04976604878902435, -0.05212885141372681, 0.039448730647563934, 0.04465785622596741, -0.032695405185222626, -0.017127161845564842, -0.05047742277383804, -0.05271453410387039, -0.02244042046368122, 0.002343634841963649, -0.03626853972673416, 0.03483051806688309, -0.06718990206718445, -0.005649544298648834, 0.044480931013822556, -0.001816159812733531, 0.022375527769327164, 0.054552312940359116, 0.045550525188446045, 0.05530901253223419, -0.002214512089267373, -0.06413429975509644, 0.04351674020290375, -0.046582773327827454, 0.02041744813323021, 0.031170915812253952, -0.05336418002843857, -0.04939373955130577, -0.022407900542020798, -0.048122894018888474, -0.047935888171195984], [0.06261416524648666, 0.03816843777894974, -0.01291765458881855, -0.028778105974197388, -0.034293923527002335, -0.11596626788377762, -0.009890804067254066, -0.016276810318231583, 0.03397903963923454, 0.01757219061255455, 0.006971349008381367, -0.02761152759194374, -0.15506741404533386, -0.14554889500141144, -0.11962016671895981, -0.0634024515748024, -0.024223515763878822, -0.04858960956335068, 0.02792205475270748, 0.05683531612157822, 0.04431115835905075, -0.007090678438544273, 0.03699583560228348, -0.12206585705280304, 0.01443444937467575, -0.0905994325876236, -0.10138808935880661, 0.03260733559727669, -0.03228390961885452, 0.07028038054704666, 0.06023894250392914, -0.03306400775909424, -0.011624692007899284, 0.02122291922569275, -0.014581866562366486, 0.04443356394767761, -0.027653127908706665, 0.03624939173460007, -0.04189884290099144, 0.08310581743717194, -0.023284155875444412, 0.004516243934631348, -0.010106836445629597, 0.013316434808075428, 0.07435546070337296, -0.02365696057677269, -0.05899827554821968, -0.04492580518126488, 0.08535236865282059, -0.016666609793901443, 0.01640164852142334, -0.05381065234541893, 0.020374486222863197, -0.04482189565896988, -0.027846291661262512, -0.00935034453868866, 0.05755550041794777, 0.005597956012934446, -0.020610839128494263, 0.06899579614400864, -0.05249198153614998, -0.02371818758547306, -0.06443961709737778, 0.05247653275728226, 0.05557575449347496, 0.0293513685464859, 0.06494878977537155, -0.04293975606560707, -0.028375331312417984, -0.005822479724884033, 0.044745150953531265, 0.003234545234590769, 0.05239264294505119, -0.008873197250068188, -0.05929425731301308, -0.07605498284101486, -0.012454652227461338, 0.0282413512468338, -0.028246110305190086, -0.06478848308324814, 0.04575919359922409, -0.03570370376110077, 0.07830753177404404, -0.04831242933869362, 0.035566721111536026, -0.010592940263450146, 0.05175948515534401, 0.0283509511500597, 0.05346772074699402, 0.06656976044178009, -0.05608784779906273, -0.04099447280168533, -0.010109926573932171, -0.006422276142984629, 0.004627276211977005, 0.036500923335552216, 0.040011219680309296, 0.028897082433104515, 0.026024699211120605, 0.03259299695491791, 0.04621950536966324, -0.008068052120506763, -0.015299394726753235, 0.020983684808015823, 0.025579998269677162, -0.010015035979449749, -0.043931350111961365, 0.053394343703985214, -0.011430364102125168, -0.02948029153048992, 0.0720151960849762, 0.030233919620513916, -0.003125167218968272, -0.0009062361204996705, 0.013788869604468346, -0.004232360050082207, 0.049147482961416245, -0.049322567880153656, -0.06740670651197433, -0.08631909638643265, -0.01862677000463009, -0.03679407387971878, -0.02247041091322899, 0.011692539788782597, -0.06816577166318893, -0.031506091356277466, 0.03967364504933357, -0.061067190021276474, 0.003083309857174754, 0.046375572681427, -0.002881885040551424, 0.04303978756070137, -0.0789848044514656, -0.023926451802253723, 0.007376235444098711, 0.025126662105321884, -0.025249913334846497, -0.04395679011940956, 0.06139638274908066, 0.0435979999601841, -0.019176851958036423, -0.013357596471905708, 0.01011386327445507, 0.005784342531114817, -0.026552710682153702, -0.07137753069400787, 0.010975770652294159, -0.07002873718738556, 0.0830611065030098, 0.06425796449184418, -0.027944039553403854, 0.050461817532777786, 0.03583138436079025, 0.04232032224535942, -0.017396211624145508, -0.025470541790127754, -0.05771072581410408, -0.019922109320759773, 0.07801133394241333, 0.0019680240657180548, -0.04924250766634941, -0.06048397719860077, 0.025580735877156258, -0.060490693897008896, 0.017345627769827843, 0.04977336525917053, 0.06268531084060669, 0.05711610987782478, -0.012564999051392078, 0.06635285913944244, 0.0023626128677278757, -0.04393420368432999, 0.04656002297997475, -0.014654270373284817, -0.030676066875457764, -0.005297423340380192, 0.020594999194145203, 0.04794155806303024, 0.059918928891420364, 0.0338473878800869, 0.020703116431832314, 0.02436780370771885, 0.037921465933322906, 0.06378393620252609, 0.011778077110648155, 0.03469982370734215, 0.0535876639187336, 0.04765734821557999, -0.06529984623193741, 0.05839380994439125, 0.026979757472872734, -0.014023088850080967, 0.03668444976210594, 0.0171146709471941, -0.01836383529007435, 0.0581950880587101, -0.028377747163176537, 0.04484399035573006, -0.00866151973605156, 0.06402323395013809, 0.09379789978265762, -0.048303257673978806, 0.07680489867925644, 0.03686488792300224, 0.019924046471714973, 0.0031330599449574947, 0.06415952742099762, -0.01633170247077942, -0.013887052424252033, 0.058785103261470795, 0.00698302686214447, 0.02240714617073536, -0.018202845007181168, 0.07215055823326111, -0.04274003580212593], [-0.04628847911953926, -0.053336165845394135, 0.1338862180709839, 0.0002803100796882063, 0.0959320142865181, 0.16582205891609192, 0.059121713042259216, -0.07734794169664383, -0.03740180283784866, -0.00422215461730957, 0.1663569062948227, 0.17067578434944153, 0.09861357510089874, 0.14581210911273956, 0.1207083910703659, 0.08454123139381409, 0.05179336294531822, 0.037436895072460175, 7.383721822407097e-05, 0.02989788167178631, -0.02549034170806408, 0.06131510064005852, -0.0011217112187296152, 0.11698401719331741, 0.03740882873535156, 0.0050971489399671555, 0.04819763824343681, 0.05249105021357536, 0.058929193764925, 0.015390358865261078, 0.05095138028264046, 0.031702421605587006, 0.0186419989913702, 0.020359545946121216, 0.06784627586603165, -0.004801540169864893, 0.01600327156484127, -0.015315941534936428, 0.03764300048351288, -0.04411473125219345, -0.01813211478292942, -0.019892144948244095, 0.030131028965115547, 0.027166089043021202, 0.04405305162072182, 0.04425504803657532, 0.028749415650963783, -0.03437308967113495, 0.007450291886925697, -0.042932137846946716, 0.05615566298365593, 0.05382566899061203, -0.02980636991560459, 0.03273053094744682, -0.018478162586688995, -0.013847410678863525, -0.05066624656319618, -0.06352347880601883, -0.0407564714550972, 0.005858370568603277, 0.03719582408666611, -0.019909817725419998, 0.0590972974896431, 0.015165818855166435, -0.054511573165655136, 0.030891863629221916, 0.043540921062231064, 0.04392228275537491, -0.04147064685821533, -0.044803816825151443, -0.058893170207738876, -0.007567321415990591, 0.024151872843503952, -0.03974054381251335, 0.006331417243927717, 0.023659108206629753, -0.07356154173612595, 0.026614312082529068, 0.03401417285203934, 0.037911560386419296, 0.057643819600343704, -0.028575057163834572, 0.029309919103980064, -0.05426858738064766, 0.05377158522605896, -0.03879386931657791, -0.06557773798704147, 0.032831139862537384, -0.024823009967803955, -0.04360724613070488, 0.06670929491519928, 0.06170924752950668, -0.06033291667699814, -0.051374755799770355, -0.04948320984840393, -0.0073988717049360275, -0.015700936317443848, 0.054691776633262634, 0.029949579387903214, -0.04004953056573868, 0.02577381394803524, -0.010811078362166882, 0.05527367815375328, 0.028177211061120033, -0.0032318190205842257, -0.012237682938575745, -0.00444830721244216, -0.08148892968893051, -0.002391132991760969, 0.043367497622966766, 0.006819794420152903, 0.034985169768333435, -0.051717035472393036, -0.06174246966838837, 0.05252360180020332, -0.04211735352873802, 0.07201512157917023, -0.0355706661939621, -0.07616046816110611, 0.010904359631240368, -0.04377321898937225, -0.020537221804261208, 0.06775940209627151, -0.05781109631061554, -0.011602993123233318, -0.026230594143271446, -0.0463394857943058, 0.008702580817043781, -0.020210785791277885, 0.08832449465990067, 0.02020064927637577, 0.04962773993611336, -0.07240111380815506, -0.022925544530153275, 0.021172013133764267, 0.0636424720287323, -0.061494871973991394, -0.029741352424025536, 0.02409135177731514, 0.05802411958575249, -0.05021626874804497, -0.028713664039969444, -0.038667064160108566, 0.0349481962621212, -0.062027525156736374, -0.050299689173698425, 0.02547704614698887, 0.048304878175258636, -0.056211207062006, 0.05373641848564148, -0.04432438686490059, -0.04104660451412201, 0.008680631406605244, -0.06905044615268707, -0.052266959100961685, 0.0022821517195552588, -0.012398040853440762, -0.005500552244484425, -0.04659578576683998, -0.04939932003617287, 0.05981362983584404, -0.034155216068029404, 0.0070425826124846935, -0.07368257641792297, 0.041804514825344086, 0.017491692677140236, -0.05995946004986763, -0.010701329447329044, 0.0010343737667426467, 0.05211722105741501, 0.06941817700862885, 0.019697319716215134, 0.0082611795514822, 0.0391453355550766, 0.006417845841497183, -0.0720418244600296, -0.05526445806026459, 0.05987357348203659, 0.052204400300979614, 0.046994514763355255, 0.06285151839256287, -0.015254964120686054, -0.011853022500872612, 0.06789867579936981, -0.018862122669816017, -0.037636879831552505, 0.025508860126137733, -0.0035253490786999464, 0.028572015464305878, 0.01898759976029396, -0.04000537842512131, 0.018972458317875862, 0.025973619893193245, -0.04453958943486214, -0.052821166813373566, -0.018971752375364304, 0.004738927818834782, -0.019570231437683105, -0.049339327961206436, -0.07271742820739746, -0.0025132240261882544, -0.010128403082489967, 0.0697886273264885, -0.03297555074095726, -0.007366859819740057, 0.009119685739278793, 0.007945866324007511, -0.0606427937746048, -0.022005949169397354, -0.00477399630472064, 0.026297006756067276, -0.011389566585421562, 0.0114821195602417, -0.08666524291038513, 0.0023330647964030504], [0.04294992610812187, -0.06597475707530975, 0.018117913976311684, 0.08173605054616928, 0.09479523450136185, 0.14991848170757294, 0.0501277856528759, -0.0604948028922081, 0.0057960147969424725, 0.013699833303689957, 0.02612578496336937, 0.03037482127547264, 0.13940466940402985, 0.12375785410404205, 0.13614094257354736, 0.0345495380461216, 0.09486249089241028, 0.03046327643096447, 0.030156072229146957, 0.083699069917202, -0.0218143779784441, 0.07895653694868088, 0.10507424920797348, 0.03459829464554787, 0.0046403128653764725, -0.009958985261619091, 0.05858341231942177, 0.06473442167043686, 0.07535126805305481, 0.003974988590925932, 0.059817466884851456, -0.0022008558735251427, -0.019225122407078743, 0.03173082321882248, 0.023717811331152916, 0.08578735589981079, 0.06971295922994614, 0.025203043594956398, 0.08227980136871338, -0.03148766979575157, -0.0078217051923275, 0.06706398725509644, 0.07845661044120789, 0.046131402254104614, 0.05277153104543686, 0.04034857079386711, -0.03285045176744461, -0.01920483447611332, 0.06506184488534927, 0.03826509416103363, 0.05037877336144447, 0.06140833720564842, 0.0695568397641182, 0.04640199616551399, 0.042069919407367706, 0.03322279825806618, -0.04267009720206261, -0.023180032148957253, 0.04652675613760948, -0.021046029403805733, -0.04940773546695709, 0.07751119881868362, 0.008716936223208904, 0.04122307151556015, -0.043937984853982925, 0.06710543483495712, -0.01574685238301754, -0.0023106292355805635, 0.05255722999572754, -0.07256112992763519, -0.0729881152510643, 0.07340101897716522, -0.029438914731144905, 0.07707466185092926, 0.007797175087034702, 0.02772551216185093, 0.001663475064560771, 0.062137335538864136, -0.04120974987745285, -0.03674463927745819, -0.042018823325634, 0.06966669112443924, 0.021366432309150696, 0.06989876180887222, 0.044213712215423584, 0.0631071999669075, 0.020297108218073845, 0.06648380309343338, 0.0617564357817173, 0.007451777812093496, 0.02804674208164215, 0.01748480089008808, -0.009016979485750198, -0.040533315390348434, -0.033122532069683075, -0.0024784209672361612, 0.023038895800709724, 0.05573498085141182, 0.013523894362151623, -0.023395827040076256, -0.04981450363993645, -0.040973830968141556, 0.0544629842042923, 0.04077979549765587, 0.029005391523241997, 0.07336882501840591, 0.08295702934265137, 0.020465465262532234, 0.0219962690025568, -0.014394442550837994, 0.0003414148814044893, -0.05054881423711777, 0.047616370022296906, 0.06802071630954742, 0.07094058394432068, -0.01622661203145981, 0.008122239261865616, -0.012267419137060642, 0.04611767455935478, 0.006433852948248386, 0.018233658745884895, 0.008217910304665565, 0.05676113814115524, -0.028290480375289917, -0.0145362988114357, 0.020489169284701347, -0.019953101873397827, -0.02206718921661377, 0.009998433291912079, 0.008319237269461155, 0.028572874143719673, -0.015828382223844528, -0.029894482344388962, 0.030051086097955704, 0.020157193765044212, 0.06672807037830353, -0.04126688465476036, 0.05931991711258888, 0.004238470457494259, 0.01596001535654068, -0.05155865475535393, -0.0522393099963665, -0.034366145730018616, 0.036163222044706345, 0.05698370933532715, -0.005491835530847311, 0.024051854386925697, -0.01189444586634636, 0.07478967308998108, -0.044928014278411865, 0.008494491688907146, -0.046233389526605606, 0.0592326782643795, 0.00971751194447279, -0.014103683643043041, 0.05319242924451828, 0.06225976347923279, 0.0006720138480886817, 0.06829424202442169, 0.009976457804441452, 0.040092892944812775, 0.014599286019802094, -0.026814589276909828, -0.031875889748334885, 0.01564660109579563, 0.0029227938503026962, -0.02485719881951809, 0.052934061735868454, 0.07605867832899094, 0.022894319146871567, -0.03985574096441269, 0.05493243411183357, 0.07757417112588882, 0.023460425436496735, -0.012178930453956127, 0.04498349502682686, -0.03994349017739296, -0.05363381654024124, 0.005482318811118603, 0.06293688714504242, -0.0017583008157089353, -0.0021201130002737045, 0.04389623552560806, 0.029881181195378304, -0.03047683648765087, 0.012869982980191708, 0.0427771732211113, 0.020638013258576393, 0.0423167422413826, 0.016128264367580414, 0.036766745150089264, -0.03822905942797661, 0.03581150621175766, -0.05601249262690544, -0.01184883713722229, 0.020615138113498688, 0.022354021668434143, -0.0008895056089386344, 0.056329045444726944, -0.0005141504807397723, 0.05247490853071213, -0.021548442542552948, -0.022177638486027718, 0.04309312254190445, 0.0654916912317276, 0.06445471197366714, -0.010211910121142864, -0.0602460540831089, 0.010494162328541279, 0.0755978524684906, 0.004655520431697369, -0.016898538917303085, 0.05786356329917908, 0.046110574156045914, 0.07398480176925659], [-0.0006792846834287047, -0.10862413793802261, 0.06475954502820969, 0.10061931610107422, 0.13050197064876556, 0.1542123556137085, -0.0007822714396752417, -0.07562769204378128, 0.0027480963617563248, -0.06276608258485794, 0.04766276106238365, 0.09712051600217819, 0.1534382551908493, 0.06974261999130249, 0.17054393887519836, 0.13538485765457153, 0.0843566358089447, -0.013639101758599281, -0.030749892815947533, 0.0657123401761055, 0.04279926046729088, -0.020879732444882393, 0.053339459002017975, 0.1064535453915596, 0.08721365034580231, 0.01584733836352825, 0.032805003225803375, -0.03041739948093891, 0.013081363402307034, -0.03189965337514877, 0.01990814507007599, -0.015571528114378452, -0.05116969719529152, 0.05139465257525444, 0.020242756232619286, 0.04740053042769432, -0.04023554176092148, 0.06666556000709534, -0.04921530559659004, -0.03934785723686218, -0.04329054802656174, 0.037463247776031494, 0.00888717733323574, -0.03233787789940834, 0.0003030294319614768, 0.06554511934518814, 0.01620333082973957, -0.06433001160621643, -0.022347230464220047, -0.030693020671606064, 0.05707845836877823, -0.013650566339492798, -0.03842126950621605, 0.015341364778578281, -0.060431260615587234, 0.012620948255062103, -0.03754332289099693, -0.014323036186397076, -0.0030235820449888706, -0.03842660412192345, -0.034201789647340775, 0.0808492973446846, 0.04913927614688873, -0.019921593368053436, 0.07244419306516647, 0.011885782703757286, 0.006079338490962982, 0.06057954952120781, 0.02525813691318035, -0.056413788348436356, -0.07087194174528122, 0.012642710469663143, 0.024823728948831558, 0.0907667726278305, 0.027622904628515244, 0.006547416560351849, -0.026186497882008553, -0.04767191410064697, 0.05243711173534393, 0.0649319738149643, -0.0875944122672081, 0.004123961087316275, 0.07315656542778015, 0.07306508719921112, 0.0005546595202758908, -0.0031035379506647587, -0.033899810165166855, -0.019131816923618317, -0.0025044765789061785, 0.06726988404989243, 0.0657510757446289, 0.06703855097293854, 0.05202412232756615, 0.00658127898350358, 0.03187686949968338, -0.006059097591787577, -0.015933945775032043, 0.01037529855966568, 0.01888243295252323, 0.05290086194872856, 0.060769375413656235, -0.029610900208353996, 0.07669438421726227, -0.00481573399156332, -0.0018814398208633065, 0.07671045511960983, 0.058238767087459564, 0.05174912512302399, 0.020745649933815002, -0.06828383356332779, -0.03640923276543617, 0.005797249265015125, -0.03956424817442894, 0.07221505045890808, -0.04957548528909683, 0.007889852859079838, -0.017023051157593727, -0.019506022334098816, -0.056453634053468704, -0.02098068781197071, 0.06703206896781921, -0.02683780901134014, 0.031262967735528946, 0.028639094904065132, 0.07246117293834686, -0.017054930329322815, 0.04151962697505951, -0.016594257205724716, 0.04771830141544342, 0.032392073422670364, -0.0380808524787426, -0.00666797487065196, 0.06832405924797058, 0.07765566557645798, -0.023430759087204933, -0.04241541773080826, 0.0644688606262207, 0.0642380490899086, 0.03283364325761795, 0.04133870452642441, -0.027638517320156097, 0.06814897060394287, 0.07961471378803253, 0.01392032764852047, -0.034812457859516144, 0.02459205500781536, -0.0540597103536129, -0.04102529212832451, 0.008123131468892097, 0.0681288093328476, -0.024990135803818703, -0.03786984086036682, 0.005647079087793827, 0.04759107902646065, -0.04190858453512192, 0.08159986138343811, 0.04217182472348213, -0.03896850347518921, -0.03596067056059837, -0.002891815034672618, 0.02378574199974537, 0.06189822405576706, 0.06995967030525208, -0.020096465945243835, 0.005568482913076878, 0.026139428839087486, 0.004158644936978817, 0.013469395227730274, -0.05351008102297783, 0.022339291870594025, -0.026038190349936485, -0.053294580429792404, -0.03330519050359726, -0.04308895394206047, -0.031065789982676506, 0.057713188230991364, -0.05831019952893257, 0.04869997128844261, 0.04676416888833046, 0.06313027441501617, 0.059067822992801666, -0.00823268759995699, 0.05957500636577606, 0.055308617651462555, -4.0108439861796796e-05, 0.07339933514595032, -0.04492391273379326, -0.007430810481309891, 0.016978392377495766, 0.05790402740240097, -0.0125456303358078, -0.03850123658776283, 0.0336507186293602, 0.04071681201457977, -0.032734114676713943, -0.03878038749098778, 0.06180994212627411, -0.015924448147416115, -0.05419263243675232, 0.044064976274967194, 0.046387072652578354, 0.024079784750938416, 0.029786456376314163, -0.010223484598100185, 0.04894297569990158, 0.030510980635881424, 0.015462987124919891, -0.020014557987451553, 0.0014409979339689016, 0.028109712526202202, -0.026920275762677193, 0.01932724192738533, 0.012929118238389492, -0.02216900885105133, 0.04375902935862541], [0.03928370401263237, -0.04241142421960831, 0.04633769392967224, 0.029499417170882225, 0.03893791139125824, 0.0016730184433981776, 0.040804047137498856, 0.042704928666353226, 0.0044051269069314, 0.05971838906407356, 0.017727436497807503, 0.016264164820313454, 0.05554395169019699, -0.036285340785980225, 0.03890366107225418, -0.03838036581873894, 0.03786734491586685, 0.02744581736624241, -0.01771172508597374, -0.021087851375341415, 0.021721290424466133, 0.05245927721261978, -0.029807163402438164, 0.043770577758550644, -0.06684605777263641, 0.01705850288271904, 0.05071602016687393, -0.022557483986020088, 0.007624149788171053, -0.016945967450737953, 0.05370338261127472, -0.012915050610899925, -0.05619160458445549, -0.009467671625316143, 0.016063764691352844, -0.058990877121686935, 0.0033675692975521088, -0.03898613154888153, 0.06164107099175453, -0.012127895839512348, -0.05714800953865051, 0.03698395937681198, 0.04550538957118988, 0.06678833812475204, 0.049134183675050735, -0.0018813851056620479, -0.05391906574368477, 0.056336354464292526, -0.06069764122366905, 0.04811413958668709, -0.05597548559308052, -0.010893653146922588, 0.055501095950603485, 0.031025171279907227, 0.0017585376044735312, -0.0585838221013546, 0.038557782769203186, -0.0011846492998301983, 0.02621947042644024, -0.009407851845026016, -0.02814636006951332, 0.006086454261094332, 0.05880749598145485, -0.010311282239854336, 0.025543594732880592, -0.019268976524472237, -0.011462472379207611, -0.03779346123337746, 0.04488573968410492, -0.05076364427804947, 0.03596667945384979, 0.0005731353885494173, 0.03997714817523956, -0.031089093536138535, 0.057129260152578354, -0.02960696816444397, -0.013252124190330505, -0.04863889887928963, -0.034837521612644196, -0.008292034268379211, -0.009036972187459469, 0.03305025026202202, 0.027674924582242966, -0.036710191518068314, 0.016786376014351845, 0.044384464621543884, 0.02208126336336136, 0.013355807401239872, -0.014811363071203232, 0.03470735251903534, 0.03462156280875206, 0.004758250433951616, -0.003532139351591468, -0.04775334522128105, -0.012822439894080162, -0.051251236349344254, 0.036736831068992615, -0.05526399984955788, -0.01821720413863659, 0.04070794954895973, 0.03361431136727333, -0.07358751446008682, 0.05218460410833359, -0.059589922428131104, -0.00212428392842412, -0.018122104927897453, -0.06887692958116531, 0.038165029138326645, 0.0062270876951515675, -0.0052542476914823055, -0.04831201583147049, -0.06892327219247818, -0.060667335987091064, 0.01772131770849228, 0.010005030781030655, 0.04153593257069588, -0.06578075885772705, -0.01292795967310667, 0.0429488830268383, 0.030831480398774147, 0.03781026229262352, -0.052615273743867874, -0.02356969378888607, 0.013317497447133064, 0.03394228219985962, 0.012122400104999542, -0.06705963611602783, 0.015095028094947338, -0.007023255806416273, -0.046575553715229034, -0.04862406104803085, -0.03777776658535004, 0.013492085970938206, 0.05184110254049301, 0.007540117483586073, -0.009023451246321201, -0.0740782767534256, -0.030968232080340385, -0.058891668915748596, -0.005892918445169926, -0.06505656242370605, -0.07001592218875885, 0.036522604525089264, 0.021661857143044472, 0.04514756798744202, -0.07630059123039246, -0.010565852746367455, 0.0077546522952616215, 0.05459423363208771, 0.01793287694454193, 0.006550418213009834, 0.01941148191690445, 0.027805380523204803, -0.002646140055730939, -0.003601189935579896, -0.06476879864931107, 0.02526639774441719, 0.016600726172327995, -0.06074537709355354, -0.04460052028298378, 0.03529402241110802, -0.06863074004650116, 0.016329139471054077, -0.02735739015042782, 0.015128616243600845, -0.03585827723145485, -0.06756039708852768, -0.057626258581876755, 0.009385379031300545, -0.06984885036945343, -0.04542052745819092, -0.029118627309799194, -5.42790257895831e-05, 0.03146655857563019, -0.0027182616759091616, -0.07277412712574005, 0.04208996146917343, -0.003488994901999831, -0.06112048774957657, 0.01676480658352375, -0.03694694861769676, -0.025316836312413216, 0.049453284591436386, 0.05573086440563202, -0.058712322264909744, -0.01697515696287155, 0.016650889068841934, -0.05776568874716759, -0.03675438091158867, -0.04961758852005005, -0.017783159390091896, -0.07439224421977997, 0.0025805423501878977, 0.05565699189901352, -0.0608132928609848, 0.034233227372169495, 0.01449643075466156, -0.03094344586133957, -0.06315010786056519, 0.009883047081530094, -0.02485262043774128, -0.014509888365864754, -0.036356233060359955, -0.04862162470817566, 0.0328596755862236, -0.02433999627828598, 0.029978696256875992, -0.02056194469332695, -0.02582421526312828, 0.05927472934126854, -0.03697275370359421, 0.010699044913053513, -0.04523210600018501, -0.026905052363872528, -0.07303202897310257], [0.011174168437719345, 0.06518476456403732, 0.027026189491152763, 0.18440809845924377, 0.06816229969263077, 0.08406215906143188, 0.08256158977746964, 0.019738953560590744, 0.025113195180892944, 0.06073936074972153, 0.10443546622991562, 0.09339220821857452, 0.07571310549974442, 0.10210765898227692, 0.1894456148147583, 0.11086703091859818, 0.13713178038597107, 0.11518429964780807, 0.025406787171959877, 0.050479765981435776, -0.029802866280078888, 0.046627890318632126, 0.057645976543426514, 0.10976259410381317, 0.09725885838270187, 0.11907441914081573, 0.04855600371956825, -0.04920181259512901, 0.07673124969005585, 0.04061194136738777, -0.004673261195421219, 0.06779861450195312, -0.00885343924164772, -0.0250393133610487, 0.0912059098482132, 0.06497248262166977, 0.06307535618543625, -0.0446806475520134, -0.023277755826711655, -0.022162187844514847, -0.004775382578372955, 0.033652205020189285, 0.010286014527082443, -0.0105836670845747, 0.06178737431764603, 0.05709017813205719, -0.019503280520439148, -0.03865717351436615, -0.04697880148887634, 0.01805998384952545, 0.04274168610572815, -0.0028217576909810305, -0.01918978802859783, 0.01652444712817669, -0.04515032470226288, -0.005762450862675905, -0.05125030130147934, -0.05356472730636597, -0.05664790794253349, -0.008793135173618793, 0.10209865868091583, -0.011859476566314697, 0.04303446784615517, 0.013495002873241901, 0.0661221444606781, -0.023854440078139305, -0.006048124749213457, 0.054582543671131134, 0.057980477809906006, -0.07145784795284271, 0.04091809689998627, -0.025485338643193245, 0.034779369831085205, 0.07379253208637238, -0.030031843110919, -0.024712735787034035, -0.022187864407896996, 0.009990987367928028, -0.03891964256763458, -0.020939603447914124, -0.03458734229207039, -0.04414482042193413, 0.0605543814599514, 0.03730715438723564, 0.06039911508560181, -0.02048235759139061, 0.06040266901254654, 0.0007667498430237174, -0.01420957688242197, 0.05540834739804268, 0.12541446089744568, 0.030924273654818535, 7.732919766567647e-05, -0.04803744703531265, 0.0414905771613121, -0.023574035614728928, 0.0266683641821146, -0.06518396735191345, 0.03621981292963028, -0.05204563960433006, -0.01081212516874075, 0.03135966509580612, 0.02522919327020645, -0.0032050658483058214, 0.02835407666862011, 0.004993870388716459, 0.0602458231151104, 0.014036194421350956, 0.027865586802363396, 0.02025972492992878, 0.013606694526970387, 0.005529588554054499, 0.0020804363302886486, -0.0510755255818367, 0.05516861751675606, -0.06364919990301132, 0.07995575666427612, -0.05014083534479141, -0.09077751636505127, 0.034643664956092834, 0.04147889092564583, -0.00868495274335146, 0.03658818453550339, 0.02826087921857834, -0.01753944158554077, -0.06150723993778229, 0.0516088493168354, 0.030093422159552574, -0.027732020244002342, 0.01760081574320793, -0.0031713051721453667, -0.05140027403831482, -0.06239643692970276, 0.021150875836610794, -0.04449308291077614, 0.017636556178331375, -0.07037747651338577, -0.043623410165309906, -0.07652962952852249, -0.03603772446513176, 0.04703046754002571, 0.049361810088157654, -0.013654468581080437, -0.061680302023887634, 0.036725401878356934, -0.058786723762750626, -0.056302864104509354, -0.033773645758628845, 0.06951171904802322, 0.004820334725081921, -0.011572841554880142, 0.049797121435403824, -0.024192018434405327, -0.08818750083446503, -0.03668372705578804, 0.05024474486708641, 0.04949614033102989, -0.06019868329167366, -0.028726838529109955, 0.049574628472328186, -0.054953306913375854, -0.024058662354946136, 0.04570579528808594, -0.025495145469903946, 0.038864072412252426, -0.05998355150222778, -0.05733301490545273, -0.0031524356454610825, 0.007330084219574928, -0.04735228419303894, 0.005508178845047951, -0.018523020669817924, -0.0847296193242073, -0.00904883537441492, -0.04004877060651779, 0.026923051103949547, -0.046448346227407455, 0.027516627684235573, -0.03869689255952835, -0.015265827998518944, -0.06378889828920364, -0.018497496843338013, 0.04666179418563843, -0.04248833283782005, -0.0010965755209326744, 0.005267350003123283, -0.012844252400100231, 0.046824466437101364, -0.005546453408896923, -0.040841422975063324, 0.049842461943626404, 0.024458017200231552, -0.06572237610816956, -0.04383319616317749, 0.011990377679467201, -0.029370326548814774, -0.01609303615987301, -0.04622877016663551, -0.018449116498231888, -0.013145740143954754, 0.030421510338783264, 0.01247658021748066, 0.06349796801805496, 0.07062534987926483, -0.07327184826135635, -0.0014420795487239957, -0.09316498786211014, 0.047984447330236435, 0.060756850987672806, -0.014653574675321579, 0.05102976784110069, -0.10044234991073608, -0.061556603759527206, -0.06508876383304596, -0.0010583599796518683], [0.013346151448786259, -0.018873630091547966, 0.03548698127269745, 0.13588261604309082, 0.06389209628105164, 0.1268089860677719, -0.05467120185494423, -0.03955201432108879, 0.06664954125881195, 0.02071404829621315, 0.09189204126596451, 0.1106104925274849, 0.08959826081991196, 0.0946369618177414, 0.04454079642891884, 0.11875606328248978, 0.06868411600589752, -0.032178040593862534, 0.001161377876996994, -0.017114182934165, -0.05826431140303612, -0.018018094822764397, 0.06720193475484848, 0.07452451437711716, -0.018861787393689156, 0.03440220281481743, -0.031097447499632835, 0.00915188156068325, 0.08031769096851349, -0.06920305639505386, 0.025711696594953537, -0.03449169546365738, -0.004230962134897709, 0.03110330179333687, -0.03932489454746246, -0.0038193962536752224, 0.008729858323931694, 0.02542133815586567, 0.025219740346074104, -0.07068778574466705, -0.006265968084335327, 0.036573395133018494, -0.033562853932380676, 0.019060052931308746, 0.07706043869256973, 0.003723768051713705, 0.08249539136886597, 0.06687690317630768, -0.03903471305966377, 0.0179483313113451, 0.048524584621191025, 0.003363821655511856, -0.05507383123040199, -0.0030750264413654804, -0.049622081220149994, 0.046383485198020935, 0.06762012094259262, 0.04610370844602585, 0.012820343486964703, -0.002102780155837536, 0.04265131801366806, 0.07844274491071701, 0.035010311752557755, -0.028197314590215683, 0.007446248549968004, -0.00264215050265193, 0.052228573709726334, 0.02000739425420761, -0.02942434512078762, 0.0575733445584774, -0.021980449557304382, 0.060458533465862274, -0.019802412018179893, 0.0008722275961190462, 0.09028110653162003, -0.017573973163962364, -0.011342355981469154, -0.04894710332155228, 0.0199197418987751, 0.04866810888051987, 0.03215787559747696, -0.0330347940325737, -0.021717580035328865, 0.08984266221523285, -0.012453781440854073, 0.07497424632310867, -0.02704739198088646, -0.019535593688488007, -0.05275541916489601, 0.08344034850597382, -0.014765340834856033, 0.02935190498828888, 0.05417492613196373, -0.01911962777376175, 0.002725937170907855, 0.049662813544273376, -0.00831863284111023, -0.03033076599240303, -0.0046044508926570415, 0.02294940873980522, 0.018770435824990273, 0.07313334196805954, 0.04560038074851036, 0.019683172926306725, -0.03573862090706825, 0.03534281253814697, 0.005160378757864237, 0.004109783098101616, -0.053474754095077515, -0.038738708943128586, -0.046832017600536346, 0.0032245712354779243, -0.05411072075366974, 0.029775680974125862, 0.041445229202508926, 0.014760669320821762, -0.024569181725382805, -0.05125458166003227, -0.04443560913205147, 0.058492083102464676, 0.0015446634497493505, -0.06178879365324974, 0.017225394025444984, -0.04538971930742264, -0.0017352254362776875, -0.03430584445595741, 0.07253222912549973, 0.07294446974992752, 0.04910614341497421, 0.054397571831941605, 0.06947460770606995, 0.004779057111591101, 0.02507004141807556, -0.039729610085487366, 0.04526698961853981, 0.0595211535692215, -0.010400005616247654, 0.06598613411188126, -0.005974166560918093, -0.009081713855266571, -0.030367311090230942, 0.0311973188072443, -0.02075221948325634, 0.003371788654476404, 0.06748371571302414, -0.03226584196090698, 0.04095999896526337, 0.07195442914962769, 0.05253826081752777, -0.057770490646362305, 0.07951048761606216, 0.0067175570875406265, -0.02077944204211235, 0.040990326553583145, -0.05688750371336937, -0.04784206300973892, 0.03305738791823387, 0.005215158686041832, -0.021946759894490242, -0.036899905651807785, 0.07453746348619461, 0.010303677059710026, 0.015906134620308876, -0.008802840486168861, 0.033256687223911285, -0.05258910730481148, -0.0620901957154274, 0.07439979165792465, -0.025434507057070732, 0.05925270915031433, 0.07800288498401642, 0.04056839272379875, -0.014647378586232662, -0.017340661957859993, -0.004915113560855389, -0.03563202545046806, -0.050594352185726166, 0.0150127112865448, 0.0033801933750510216, -0.0074060275219380856, -0.0565112829208374, 0.05337909981608391, 0.05101697891950607, -0.02289135381579399, -0.03496068716049194, 0.05878631770610809, 0.03258630260825157, 0.02538452111184597, 0.074665866792202, 0.04995676502585411, 0.06715532392263412, -0.02695055678486824, -0.029916297644376755, 0.03512327000498772, 0.022033551707863808, 0.013224431313574314, 0.014126905240118504, 0.06890600174665451, -0.022077033296227455, 0.012669730000197887, -0.025211524218320847, 0.045328591018915176, -0.050583790987730026, -0.0015643557999283075, 0.024743426591157913, 0.04555626958608627, -0.004023002926260233, -0.02087520994246006, -0.03037312626838684, -0.010277293622493744, 0.02391798049211502, -0.009660872630774975, -0.0053856512531638145, -0.04328639432787895, 0.07173589617013931], [-0.027037780731916428, -0.06330951303243637, -0.002398198936134577, 0.14967495203018188, 0.08212625980377197, 0.12349548935890198, 0.0643082708120346, 0.06786956638097763, -0.012763328850269318, -0.03256656974554062, 0.0851682722568512, 0.022970259189605713, 0.1188666969537735, 0.09444573521614075, 0.08344290405511856, 0.0520637072622776, 0.09861566126346588, 0.03747328370809555, -0.00665491446852684, -0.025914274156093597, 0.05426698178052902, 0.03692656755447388, 0.09391821920871735, 0.016686419025063515, -0.005141430534422398, 0.09148729592561722, 0.016127565875649452, 0.04718359559774399, -0.024497760459780693, -0.052175164222717285, -0.017643935978412628, 0.031168334186077118, -0.021419892087578773, -0.006989503279328346, 0.06400781124830246, 0.062057312577962875, -0.03799651190638542, 0.04503956809639931, -0.04342148080468178, 0.05065912380814552, 0.07066720724105835, -0.005777059122920036, -0.022952061146497726, -0.03776988387107849, 0.004110964946448803, 0.08329754322767258, 0.07229942083358765, 