{"type": "afterstate-value-mlp", "version": 1, "inputSize": 215, "layers": [{"weight": [[-0.003960241097956896, -0.01802184246480465, -0.10802789032459259, 0.0341641940176487, -0.013657216913998127, -0.008271057158708572, -0.031647175550460815, -0.0030969397630542517, -0.003749287221580744, 0.01512941438704729, -0.0730305090546608, -0.03600502759218216, 0.0059276968240737915, -0.12206858396530151, -0.09394397586584091, -0.013846779242157936, -0.009146054275333881, -0.036709975451231, -0.06090579554438591, -0.041893117129802704, -0.006831757724285126, -0.019976448267698288, -0.09599623084068298, -0.014229369349777699, -0.06745696067810059, -0.001944872085005045, -0.020820850506424904, 0.03094451129436493, -0.01995987817645073, 0.06153576821088791, -0.03333154693245888, -0.006844993680715561, -0.08300933241844177, 0.002107831183820963, -0.0615113191306591, 0.042812034487724304, -0.045036040246486664, 0.0009270003065466881, 0.04141249507665634, -0.005510179791599512, -0.04181370511651039, -0.08477849513292313, 0.0207959096878767, -0.04700709879398346, -0.048851002007722855, -0.0516696535050869, -0.015023987740278244, 0.03421225771307945, 0.009253820404410362, -0.028446929529309273, 0.006835941690951586, -0.0073625980876386166, -0.001198996789753437, 0.0010895817540585995, -0.013376734219491482, 0.00341401482000947, 0.01379637885838747, -0.01704292558133602, 0.015644146129488945, 0.04284312203526497, 0.02448725327849388, -0.007967757061123848, 0.0006284686969593167, -0.0746610164642334, -0.059897132217884064, -0.04512805864214897, 0.021582573652267456, 0.03860677033662796, -0.0459759384393692, 0.0246104933321476, -0.012800648808479309, 0.0566854402422905, -0.03543892130255699, -0.01969735510647297, 0.016156308352947235, 0.06496807187795639, 0.01007778663188219, -0.0032092926558107138, -0.03469309210777283, -0.00970232393592596, 0.047205664217472076, 0.0547957569360733, 0.01926794834434986, -0.02340555191040039, -0.03843392804265022, 0.02402721904218197, 0.048019103705883026, -0.013584771193563938, -0.013222252950072289, 0.015387688763439655, -0.019307972863316536, 0.01769971288740635, 0.024092910811305046, -0.013372207060456276, -0.0388060063123703, 0.015627939254045486, 0.0422818697988987, 0.04955247417092323, -0.0012970715761184692, 0.020418094471096992, -0.073603555560112, 0.08138200640678406, -0.001560950418934226, -0.061723578721284866, 0.008610012009739876, 0.04217923432588577, 0.013919162563979626, 0.06898278743028641, 0.016001049429178238, 0.12119948863983154, -0.05324769392609596, -0.06332927942276001, -0.011720922775566578, -0.04733843356370926, -0.031436193734407425, -0.08723072707653046, 0.008948371745646, 0.028432367369532585, 0.005093933083117008, -0.10327114909887314, -0.061409298330545425, -0.013844960369169712, 0.008605296723544598, 0.02034098468720913, 0.09048673510551453, -0.0668666884303093, 0.039327990263700485, 0.0001386578951496631, 0.09506481140851974, 0.040693797171115875, 0.029072359204292297, -0.0005419140798039734, -0.10827059298753738, -0.015773247927427292, -0.016294267028570175, -0.013607742264866829, -0.029799943789839745, 0.0629207119345665, -0.02928749844431877, -0.0031616862397640944, -0.058774061501026154, -0.14606991410255432, -0.21455532312393188, -0.14117170870304108, -0.015165170654654503, -0.00786435604095459, -0.06284147500991821, 0.05927389860153198, -0.07331230491399765, 0.024869579821825027, -0.12659350037574768, 0.003983361180871725, -0.26866036653518677, -0.06020047515630722, 0.04493457451462746, 0.021446438506245613, 0.06905833631753922, 0.10110758990049362, 0.043011512607336044, -0.014936383813619614, -0.0006108920206315815, -0.03348919376730919, 0.011986357159912586, 0.0009105994831770658, -0.017546573653817177, 0.10667954385280609, 0.12064231187105179, 0.056531380861997604, 0.10204259306192398, 0.07218536734580994, -0.01792682334780693, 0.03670501336455345, -0.03794717416167259, 0.11246709525585175, 0.030543478205800056, -0.007084270473569632, 0.03167128190398216, 0.06417333334684372, 0.03668370097875595, 0.024343185126781464, 0.06196940317749977, 0.04319082573056221, -0.030540945008397102, 0.03015897609293461, 0.04273596033453941, -0.01355491578578949, -0.08329381793737411, -0.015861626714468002, -0.06202680245041847, 0.031027885153889656, -0.050487782806158066, -0.0680861845612526, -0.05248933285474777, -0.04835548251867294, -0.026738585904240608, -0.02276601828634739, -0.08794903755187988, 0.07905513793230057, -0.06646934151649475, -0.0002676682488527149, 0.054982516914606094, 0.11288540065288544, 0.1410699188709259, 0.14989855885505676, 0.09789025038480759, 0.15519097447395325, 0.2076990157365799, -0.4065309762954712, 0.11680924892425537, 0.16615141928195953, 0.08089729398488998, 0.4920068383216858, -0.010498853400349617, 0.5298718810081482, 0.024993296712636948], [0.017514804378151894, -0.01653328351676464, 0.028126759454607964, 0.002204911084845662, -0.06967011839151382, 0.003610590472817421, -0.13944941759109497, 0.016763396561145782, 0.10378129780292511, 0.03268101066350937, -0.015467356890439987, 0.02331514097750187, 0.005772899836301804, -0.048619937151670456, -0.1634792983531952, -0.23296144604682922, -0.15142647922039032, -0.03843419626355171, 0.053359825164079666, 0.04714566096663475, -0.009514758363366127, -0.02023538202047348, -0.017864441499114037, -0.09951286762952805, -0.06204289570450783, -0.0871022641658783, -0.1542735993862152, -0.09469946473836899, -0.007387230638414621, 0.0009597617899999022, -0.03137651085853577, -0.05649225786328316, -0.03174828737974167, -0.03421272337436676, -0.03849978372454643, -0.04789077118039131, -0.07774964720010757, 0.0014232918620109558, -0.09532614052295685, 0.06974922120571136, -0.026756195351481438, -0.07520710676908493, -0.04172724112868309, -0.11850423365831375, -0.17175337672233582, -0.0926438495516777, -0.08088226616382599, -0.0188852921128273, -0.09302838146686554, 0.02521572820842266, -0.14481806755065918, -0.09938675165176392, -0.03169626370072365, -0.1293317973613739, -0.20265306532382965, -0.13869816064834595, -0.07326605170965195, -0.005352413281798363, -0.07837222516536713, -0.0959746465086937, -0.11041831970214844, -0.047822531312704086, -0.035500846803188324, -0.12169599533081055, -0.14104637503623962, -0.15992873907089233, -0.1986711323261261, -0.011042211204767227, -0.06722968816757202, 0.011075668036937714, -0.04355501011013985, -0.16787344217300415, -0.004737581592053175, -0.05467485636472702, -0.049020543694496155, -0.12380404770374298, -0.28286319971084595, 0.1653342992067337, 0.17361319065093994, -0.08858036994934082, -0.13673527538776398, -0.07075899839401245, 0.03219984099268913, -0.13367044925689697, -0.10000811517238617, 0.01266099140048027, -0.3300641179084778, 0.14236439764499664, 0.1272386759519577, 0.3337407410144806, -0.158834770321846, -0.23992715775966644, 0.012394535355269909, 0.08309783786535263, 0.21133314073085785, 0.050393812358379364, -0.01714203879237175, -0.04492194578051567, -0.1860632300376892, -0.25175341963768005, 0.04028650373220444, 0.18411444127559662, -0.46270039677619934, 0.10145426541566849, -0.0930030420422554, -0.2938839793205261, -0.043527837842702866, -0.001576700247824192, 0.05301862582564354, -0.12924513220787048, 0.3707152009010315, -0.23032493889331818, -0.004783933982253075, -0.09738748520612717, 0.06012408435344696, 0.17867343127727509, 0.09528155624866486, -0.17519335448741913, 0.2062234878540039, -0.18065562844276428, -0.10363446921110153, 0.07676492631435394, 0.09381627291440964, 0.11147945374250412, -0.1467706561088562, 0.09301044791936874, -0.023288099095225334, -0.01041620783507824, 0.08118563890457153, -0.0696556493639946, 0.03591734543442726, 0.09250197559595108, 0.062393918633461, 0.0019814639817923307, -0.02488476037979126, -0.06822492927312851, -0.09340373426675797, -0.059011053293943405, -0.011796611361205578, -0.01523195207118988, -0.059141140431165695, -0.0552985779941082, -0.06248372048139572, -0.08443275839090347, 0.0028753592632710934, 0.1514124870300293, 0.09201961755752563, 0.1355610340833664, -0.03657054901123047, -0.074069082736969, 0.04910251125693321, 0.013213342987000942, 0.044885072857141495, 0.13829156756401062, -0.008648388087749481, -0.0884113535284996, -0.03177734464406967, -0.23635774850845337, -0.011585168540477753, -0.005309683736413717, 0.0031418597791343927, -0.07002583146095276, -0.06746035069227219, 0.035079486668109894, -0.04178677871823311, -0.018326392397284508, 0.058328960090875626, 0.17312869429588318, -0.07945030182600021, 0.1454572230577469, -0.07106820493936539, 0.08450738340616226, -0.043158773332834244, -0.0023058883380144835, 0.014155380427837372, 0.018221762031316757, -0.013024825602769852, 0.05013703554868698, -0.11939825117588043, -0.0003507072979118675, -0.057139378041028976, -0.041633427143096924, -0.02220827527344227, -0.07757427543401718, 0.0670081153512001, 0.01955484040081501, -0.049126286059617996, 0.046098001301288605, 0.004190579056739807, 0.01649145968258381, -0.006413779687136412, 0.005794908385723829, -0.014996151439845562, 0.000495386659167707, 0.02971203438937664, -0.012764274142682552, -0.04034911468625069, 0.04206075146794319, 0.03910556063055992, -0.016321029514074326, 0.26484981179237366, -0.043666865676641464, -0.05220751464366913, -0.1362767517566681, -0.08432531356811523, -0.03393411636352539, -0.04982014372944832, 0.02763773500919342, 2.048307418823242, 0.16183225810527802, 0.24769574403762817, -0.03795740380883217, 0.028799045830965042, -2.053316831588745, 0.003992350772023201], [-0.054218631237745285, 0.009732105769217014, 0.04484964534640312, -0.044845834374427795, -0.07985185831785202, -0.10065820068120956, -0.10029052942991257, -0.06417591124773026, -0.07235341519117355, -0.04785652458667755, -0.06337679177522659, -0.03367263078689575, 0.010142636485397816, -0.29395684599876404, -0.1994425505399704, -0.20242221653461456, -0.015271506272256374, -0.04021371901035309, -0.12711185216903687, -0.1381455808877945, 0.005950353108346462, 0.11863867193460464, -0.061745934188365936, -0.04780836030840874, -0.17222543060779572, -0.029377466067671776, 0.12012781947851181, 0.0028159276116639376, 0.019604921340942383, -0.12964902818202972, -0.07313203066587448, 0.10398564487695694, -0.0666024312376976, 0.0701838880777359, -0.17796173691749573, -0.033454298973083496, 0.014496097341179848, 0.05062059685587883, -0.057238832116127014, -0.12290341407060623, -0.03275281563401222, 0.0479709692299366, -0.018176713958382607, -0.09759031981229782, -0.14636734127998352, -0.2251633256673813, -0.16550235450267792, 0.0007332019158639014, 0.043345559388399124, 0.18531236052513123, 0.0017390120774507523, -0.009278686717152596, 0.04233446344733238, 0.03006032668054104, -0.01811368018388748, -0.0533701591193676, -0.06785169243812561, 0.06213543191552162, 0.03372804820537567, 0.06915561109781265, 0.004140409640967846, -0.004790863487869501, 0.05567701533436775, -0.04255763441324234, -0.04427024722099304, -0.2208518534898758, 0.006037660874426365, 0.058086980134248734, 0.07086768746376038, -0.13486550748348236, -0.0495440810918808, 0.01519601047039032, 0.18939685821533203, -0.09392964094877243, -0.03457275778055191, -0.24454423785209656, 0.09955816715955734, 0.10568908601999283, -0.014319829642772675, -0.024689385667443275, 0.14768429100513458, 0.11987391114234924, 0.09545467793941498, 0.025788921862840652, -0.0746566653251648, -0.01978621445596218, -0.026608098298311234, -0.04367848485708237, 0.03385403752326965, -0.009801791980862617, -0.09001626819372177, 0.0872834101319313, 0.0172601155936718, 0.18236292898654938, -0.2940186858177185, -0.21941691637039185, 0.2211972326040268, -0.03708929196000099, 0.0020184791646897793, 0.1670263111591339, -0.06389394402503967, -0.04028918221592903, 0.32671207189559937, 0.2662961781024933, -0.08623310923576355, -0.006147398613393307, -0.08424820750951767, 0.005877665244042873, 0.06625091284513474, 0.1351458579301834, 0.04377429932355881, -0.012333494611084461, 0.13106676936149597, -0.098202645778656, -0.18536017835140228, -0.08757887780666351, -0.024122299626469612, -0.0132212545722723, -0.0470874086022377, 0.11714538186788559, -0.16205048561096191, 0.1004909873008728, -0.039771221578121185, -0.394898384809494, -0.06491130590438843, 0.03299728408455849, 0.16179652512073517, -0.027370920404791832, -0.04469528794288635, -0.12140560150146484, 0.03954305872321129, 0.09982890635728836, 0.03482441231608391, -0.06719079613685608, 0.13616107404232025, 0.09300010651350021, -0.09727061539888382, 0.2377900332212448, 0.1103070005774498, 0.05483929440379143, 0.03737955912947655, 0.09403436630964279, -0.09662012755870819, -0.0762115940451622, -0.2388864904642105, 0.13819123804569244, 0.06922557204961777, 0.13920539617538452, 0.14550691843032837, 0.1011577770113945, 0.033129025250673294, -0.0060809459537267685, 0.0014489651657640934, -0.04586195573210716, -0.06699100136756897, -0.025160636752843857, -0.08651362359523773, 0.05619403347373009, 0.060798272490501404, 0.06212961673736572, 0.004012010525912046, 0.03975013270974159, -0.04306461289525032, -0.20819362998008728, -0.09997561573982239, 0.06449605524539948, 0.010207301937043667, 0.03249518200755119, 0.06750287115573883, 0.04119314253330231, 0.05591222643852234, 0.0371706560254097, -0.04718529060482979, -0.1535380333662033, -0.14195828139781952, -0.02607719600200653, 0.004609391093254089, 0.06932380050420761, 0.12328386306762695, 0.07008515298366547, -0.005535810720175505, 0.03110988438129425, 0.007609340362250805, -0.07762426137924194, -0.08503258228302002, -0.015298854559659958, 0.08253016322851181, -0.034155067056417465, 0.016652731224894524, 0.059994522482156754, -0.03033907152712345, -0.026653895154595375, -0.016369685530662537, -0.1553536057472229, -0.02273634262382984, 0.05171351507306099, 0.023707931861281395, 0.08706249296665192, 0.07738100737333298, 0.08322151005268097, -0.008572724647819996, 0.05930923670530319, -0.03327639028429985, 0.13278135657310486, 0.06674317270517349, 0.11837514489889145, 0.10555490106344223, 0.12279292941093445, -1.6861215829849243, 0.10093455761671066, -0.29454612731933594, 0.13542360067367554, -0.021057046949863434, -0.7880039215087891, -0.02483753114938736], [0.02365630865097046, 0.09658133238554001, -0.06338464468717575, -0.15782350301742554, -0.009474010206758976, 0.0929609015583992, 0.03268717601895332, 0.008889779448509216, 0.016711024567484856, 0.06698432564735413, -0.13943250477313995, -0.06621740013360977, -0.24055223166942596, -0.16188669204711914, -0.09814789891242981, -0.05838160589337349, 0.020120680332183838, 0.006125392392277718, -0.06974417716264725, -0.014935117214918137, -0.11221132427453995, 0.10788673162460327, -0.0534452386200428, -0.1433786302804947, -0.1233464777469635, -0.02140778861939907, 0.019375339150428772, 0.04189090430736542, 0.011369243264198303, 0.0039011440239846706, 0.020429164171218872, 0.005437606945633888, -0.020243961364030838, 0.0414796881377697, -0.023588696494698524, -0.11702343821525574, -0.01569218374788761, -0.06973634660243988, 0.06953480839729309, -0.02237873151898384, -0.082216776907444, -0.1093636304140091, 0.03406716510653496, -0.03729558736085892, 0.04375326260924339, -0.06826327741146088, -0.02575545944273472, 0.0519389882683754, -0.0005574302631430328, -0.17173634469509125, 0.07456596940755844, -0.044002942740917206, 0.014391478151082993, 0.004747468512505293, -0.01793193258345127, -0.09991522133350372, -0.12762834131717682, 0.04434829577803612, -0.06443937122821808, -0.14436350762844086, 0.1734335869550705, -0.003812203649431467, 0.08402746170759201, 0.04786534234881401, -0.14866788685321808, -0.13995051383972168, -0.05622696503996849, -0.0018010110361501575, -0.18063700199127197, -0.08850061148405075, 0.08179661631584167, -0.05175092816352844, 0.06815240532159805, -0.004578894469887018, 0.01900021731853485, -0.07947749644517899, -0.08692996203899384, -0.13799023628234863, -0.06012019142508507, 0.10136842727661133, 0.11682931333780289, -0.015367959626019001, -0.0020844442769885063, -0.10897939652204514, -0.12290078401565552, 0.023923207074403763, -0.07133349031209946, -0.09619951248168945, 0.007891853339970112, -0.10592436790466309, -0.058727215975522995, 0.06879034638404846, 0.0017857808852568269, 0.0081118019297719, 0.1164839044213295, 0.11492389440536499, 0.015205582603812218, -0.1826813519001007, -0.1286458522081375, 0.1944822072982788, -0.49724146723747253, -0.15927757322788239, -0.003574369940906763, 0.07750961929559708, 0.05113934352993965, -0.050609290599823, -0.4530331790447235, -0.1382400095462799, -0.11355160176753998, 0.0004730204527731985, 0.25587743520736694, -0.3405594229698181, -0.27940693497657776, 0.004026244394481182, -0.18630710244178772, -0.08797995001077652, 0.03527745231986046, -0.0035870703868567944, -0.051804088056087494, -0.002693586517125368, -0.038313765078783035, -0.04533920809626579, -0.12990832328796387, 0.08759713172912598, -0.026133932173252106, 0.20951512455940247, -0.014535410329699516, 0.09465984255075455, 0.04247535020112991, -0.06517060846090317, 0.04434093087911606, -0.12196595221757889, -0.006577749736607075, 0.07991725951433182, 0.03487061336636543, -0.02198874019086361, -0.0069090803153812885, -0.09884879738092422, 0.05031147599220276, -0.0021562662441283464, -0.16330869495868683, 0.12626969814300537, 0.08133567124605179, 0.0012711986200883985, -0.027599893510341644, 0.02268204465508461, 0.03483818098902702, -0.0495331734418869, 0.05482449010014534, -0.07397526502609253, -0.038642920553684235, -0.013062664307653904, 0.012222480028867722, 0.094303198158741, 0.026091085746884346, -0.008045326918363571, 0.008256306871771812, -0.03089323081076145, -0.014849994331598282, 0.09109214693307877, 0.0027082806918770075, -0.010830898769199848, 0.04916306957602501, 0.11537256836891174, 0.03763201832771301, 0.0519096739590168, -0.012763192877173424, -0.01789308898150921, 0.07024720311164856, 0.0017170817591249943, 0.0359058752655983, 0.04011160880327225, 0.010957011952996254, 0.02519397810101509, -0.06675570458173752, 0.07685039937496185, -0.10312812775373459, -0.001366768847219646, 0.12728044390678406, 0.005904193501919508, -0.14448341727256775, 0.0734005719423294, 0.06436136364936829, -0.030492274090647697, 0.05257360264658928, -0.007546024862676859, -0.10492558032274246, 0.027585748583078384, 0.06502227485179901, -0.03442208468914032, -0.0008021696121431887, -0.07690021395683289, 0.06551506370306015, -0.07355121523141861, 0.021153539419174194, 0.05367613211274147, -0.19802704453468323, 0.020862096920609474, -0.05608826503157616, 0.031154457479715347, -0.3761269450187683, 0.004184905905276537, -0.03533218801021576, 0.04106296971440315, -0.00835113413631916, 0.012051573023200035, 0.08350355923175812, -0.021092357113957405, -0.15839320421218872, -0.05340901389718056, -0.0418245792388916, -0.7628896832466125, 0.011673977598547935, -2.773752212524414, 0.015920773148536682], [0.027458738535642624, -0.003484555520117283, -0.00264244363643229, 0.09898041188716888, -0.01914195530116558, -0.021023409441113472, -0.13794563710689545, -0.19007213413715363, -0.012588697485625744, 0.13654179871082306, 0.019555123522877693, 0.050848208367824554, -0.11015446484088898, 0.06538704037666321, 0.0690683126449585, 0.1816089004278183, -0.14874708652496338, -0.1006089523434639, -0.20368239283561707, -0.06014372035861015, -0.053184229880571365, -0.035639211535453796, -0.03493156284093857, 0.1383482664823532, 0.06561583280563354, 0.09373974800109863, -0.0542006641626358, 0.013737132772803307, 0.1015496701002121, 0.1163841113448143, 0.01843898743391037, -0.010736124590039253, -0.037236347794532776, 0.023582853376865387, 0.023103659972548485, -0.056683287024497986, -0.15644212067127228, -0.0789594054222107, -0.09233075380325317, -0.07469365745782852, 0.0743628591299057, 0.0495377853512764, 0.041364770382642746, 0.095307856798172, 0.019424796104431152, 0.029305558651685715, 0.0378960557281971, -0.11735038459300995, -0.0010779249714687467, -0.1088436171412468, -0.015769900754094124, -0.033680763095617294, -0.00443309685215354, -0.012894307263195515, 0.0993952676653862, -0.008302410133183002, 0.00017079219105653465, -0.09847649186849594, 0.03478234261274338, -0.1389332413673401, 0.0331035852432251, -0.015060221776366234, -0.00588669627904892, -0.001091924961656332, 0.0020181373693048954, 0.0011374581372365355, 0.07255205512046814, -0.06132298335433006, -0.015518919564783573, -0.0865599513053894, -0.012558144517242908, 0.013524573296308517, 0.07297176122665405, 0.06073523312807083, 0.029024483636021614, -0.010316482745110989, 0.007351922336965799, 0.03798963129520416, -0.006091800518333912, 0.005724207032471895, -0.009992504492402077, 0.08621685951948166, 0.043239809572696686, 0.04772072285413742, 0.036270081996917725, 0.02037160098552704, 0.01500040851533413, 0.018726613372564316, -0.05406123772263527, -0.16853651404380798, -0.09138758480548859, 0.03778769448399544, 0.06181180104613304, 0.055516306310892105, 0.09125474840402603, 0.06005559489130974, 0.038335490971803665, 0.03500087931752205, 0.09049291908740997, 0.02630419284105301, 0.1808837354183197, -0.0070703295059502125, 0.03695147857069969, -0.016454027965664864, 0.11681655794382095, 0.1063978374004364, 0.05862214043736458, 0.03139464929699898, 0.04947419464588165, 0.09611780941486359, 0.011337578296661377, 0.05644216388463974, 0.04229120910167694, -7.123376417439431e-05, 0.0663006454706192, 0.08910244703292847, 0.028866272419691086, -0.056121259927749634, 0.09713664650917053, -0.04697765037417412, -0.20294292271137238, -0.08973556756973267, -0.012417524121701717, 0.03570147231221199, 0.2174277901649475, -0.03365855664014816, -0.029954377561807632, 0.08729853481054306, 0.06608542054891586, 0.026159683242440224, 0.06133376061916351, 0.0355159267783165, 0.0539303757250309, 0.13325324654579163, 0.08752793818712234, 0.008981231600046158, 0.18663319945335388, 0.0798923671245575, 0.0023518195375800133, 0.04826270416378975, -0.0014855252811685205, 0.04144657030701637, 0.17882795631885529, 0.017853818833827972, 0.06762655079364777, 0.028281329199671745, 0.007122654002159834, 0.008415666408836842, 0.11309880763292313, 0.07135727256536484, 0.0888100117444992, -0.07228332757949829, -0.01073088962584734, 0.09318288415670395, 0.012795226648449898, 0.10032398998737335, 0.001173441531136632, 0.014806662686169147, 0.10505085438489914, 0.047568004578351974, 0.0961730033159256, -0.10901063680648804, -0.041415970772504807, 0.05600058659911156, 0.03890001401305199, 0.03600316122174263, 0.07483415305614471, -0.019115252420306206, 0.008715812116861343, 0.021971123293042183, -0.004224815871566534, -0.08815031498670578, -0.03418067842721939, -0.01289549469947815, -0.02261386066675186, 0.07924249768257141, 0.028930095955729485, 0.030145112425088882, -0.09076208621263504, 0.04057653248310089, 0.0014762317296117544, -0.06428949534893036, -0.02578321099281311, 0.09615662693977356, 0.1286352276802063, -0.01878903992474079, 0.15370957553386688, 0.035679154098033905, 0.1280902922153473, -0.011134334839880466, -0.06255940347909927, 0.04215535521507263, 0.004928683862090111, -0.10135369002819061, -0.06577681750059128, -0.02412400394678116, -0.11594883352518082, 0.01860513910651207, -0.058908551931381226, 0.034459780901670456, -0.05247500166296959, -0.016439544036984444, -0.12137756496667862, -0.05432218313217163, 0.007079696282744408, -0.01570531353354454, 0.018800297752022743, 0.02264411188662052, -0.6809914708137512, -0.07296241074800491, -0.1432705670595169, -0.31635794043540955, -0.025560446083545685, -0.24814410507678986, 0.01342636626213789], [0.0061043850146234035, 0.09079792350530624, 0.03981178253889084, -0.21538704633712769, -0.1542227864265442, -0.20346705615520477, 0.04105439782142639, 0.18047815561294556, 0.2143457680940628, -0.08199459314346313, 0.05735277384519577, 0.030406001955270767, -0.0498768612742424, -0.32462480664253235, -0.5273842215538025, -0.5475221872329712, -0.20427541434764862, -0.0340411551296711, 0.0448007695376873, -0.027222441509366035, 0.04864189401268959, -0.020679030567407608, -0.027926772832870483, -0.1456645280122757, 0.1916428953409195, -0.11722179502248764, -0.1142931580543518, -0.1259426772594452, -0.06052844226360321, -0.041017986834049225, -0.04331618547439575, -0.06779436022043228, -0.06926451623439789, -0.06534430384635925, 0.04417373239994049, -0.1102985143661499, -0.07914379239082336, -0.06890588253736496, -0.16553141176700592, 0.07449996471405029, -0.1282324492931366, -0.10268353670835495, -0.06784769147634506, -0.20621255040168762, -0.06507246941328049, -0.16241228580474854, -0.09922192990779877, -0.1443701535463333, -0.08312889188528061, -0.026998421177268028, 0.009499565698206425, -0.10853941738605499, -0.003369089448824525, -0.18327650427818298, 0.013769424520432949, -0.04750712960958481, -0.051896318793296814, -0.06777926534414291, -0.043159570544958115, 0.03966837376356125, -0.03596365824341774, 0.054168056696653366, -0.03409627079963684, -0.2440124750137329, 0.015069559216499329, -0.07847417145967484, -0.14126963913440704, -0.09930841624736786, 0.09745188802480698, 0.0515049509704113, -0.1111416295170784, -0.03753254562616348, -0.017694685608148575, -0.1837281435728073, -0.07231894135475159, -0.19308851659297943, -0.00802687183022499, -0.0135499881580472, 0.0028136910405009985, 0.018718035891652107, -0.024501103907823563, -0.17704235017299652, -0.09672434628009796, -0.021323302760720253, -0.03675552085042, -0.03730776160955429, 0.07854124903678894, -0.10057156533002853, -0.005935917608439922, -0.050296202301979065, -0.0679197907447815, 0.05032382160425186, -0.05128785967826843, -0.03699241578578949, -0.11289380490779877, -0.21876296401023865, -0.07252265512943268, -0.05245860666036606, 0.07666274160146713, -0.010826164856553078, 0.11461938172578812, 0.10907410085201263, 0.163071870803833, 0.04001658782362938, 0.09532655775547028, -0.00627897959202528, 0.014452710747718811, -0.13258613646030426, 0.08322450518608093, 0.06469335407018661, -0.11831406503915787, 0.0513429120182991, -0.19494149088859558, 0.028274495154619217, 0.03758932650089264, 0.08511707186698914, -0.08320636302232742, 0.004756998736411333, 0.06574598699808121, -0.001132360310293734, 0.016545385122299194, -0.08641435950994492, -0.1220703050494194, -0.021252917125821114, 0.002924207365140319, 0.1031259074807167, -0.14573262631893158, 0.07323199510574341, 0.024195965379476547, -0.05932068079710007, 0.13427112996578217, -0.20780043303966522, 0.1883467435836792, -0.1450544148683548, 0.16699324548244476, -0.09518633782863617, -0.16457967460155487, 0.007538931909948587, 0.09115280210971832, -0.0070329345762729645, 0.06323830783367157, 0.12498585879802704, -0.10254226624965668, 0.06005878001451492, -0.17895935475826263, 0.14989064633846283, -0.1314643770456314, 0.049784496426582336, 0.03645634278655052, -0.021728092804551125, -0.13378949463367462, -0.07862342149019241, 0.08452389389276505, 0.0010386104695498943, 0.01751311682164669, -0.016654549166560173, 0.27627795934677124, -0.1364108920097351, 0.0929379090666771, -0.09160532057285309, 0.07415854185819626, 0.06533651053905487, -0.06934056431055069, -0.022146183997392654, 0.09544922411441803, -0.007109086960554123, 0.03353568911552429, -0.05997209995985031, -0.04016058146953583, 0.04671700298786163, -0.02290543168783188, -0.04179440811276436, -0.004291232209652662, -0.001958383247256279, 0.034143898636102676, 0.05404892936348915, -0.04708300158381462, 0.1258673220872879, -0.08791645616292953, 0.002851563971489668, -0.005401125643402338, 0.007149226032197475, -0.0027697612531483173, -0.035740215331315994, -0.08467826247215271, -0.039842717349529266, -0.01571139320731163, -0.0039083040319383144, 0.004069024696946144, 0.01982821896672249, -0.0815693587064743, 0.052561938762664795, 0.028100311756134033, 0.08371280878782272, 0.04498545825481415, 0.023823248222470284, -0.03225993365049362, 0.02706386148929596, -0.011146253906190395, -0.013867654837667942, -0.16852660477161407, -0.050837233662605286, -0.023866213858127594, -0.003316518384963274, 0.024867773056030273, -0.059529975056648254, 5.7464552810415626e-05, 0.045269470661878586, 1.2756972312927246, -0.01560139749199152, 0.18654148280620575, 0.3125797510147095, 0.018306612968444824, 2.0011861324310303, 0.036125797778367996], [-0.1797093152999878, 0.007757305167615414, 0.06890921294689178, -0.06299076974391937, -0.14878687262535095, -0.08748875558376312, 0.0420355461537838, -0.03155408799648285, -0.07717292755842209, 0.009349633008241653, 0.003086622804403305, -0.14001232385635376, -0.027571367099881172, -0.1488928198814392, -0.16612009704113007, -0.3038117587566376, 0.14154116809368134, 0.021812520921230316, -0.1277584284543991, -0.12880288064479828, -0.04848858341574669, 0.12114906311035156, -0.05768130347132683, -0.0015374100767076015, -0.1923295110464096, -0.006249904166907072, 0.01575751043856144, -0.06691135466098785, -0.014650031924247742, 0.16989575326442719, -0.06699353456497192, -0.012114356271922588, -0.03946652263402939, -0.06417713314294815, -0.07000371068716049, -0.012697635218501091, -0.05514748767018318, 0.00990198738873005, -0.027498891577124596, 0.09732911735773087, 0.11264500021934509, -0.024858487769961357, 0.025496283546090126, -0.015977701172232628, -0.0632612407207489, -0.06453613191843033, -0.04698783531785011, -0.12002500891685486, -0.04967290163040161, 0.14604602754116058, -0.14647860825061798, 0.0005671624676324427, -0.07064512372016907, -0.04737657681107521, -0.11895434558391571, -0.13066931068897247, 0.033653754740953445, 0.0627794861793518, -0.08504162728786469, -0.029925905168056488, 0.06973008066415787, 0.08569000661373138, -0.055876705795526505, -0.08421733975410461, -0.2303168922662735, -0.09932027757167816, 0.03133831545710564, -0.060631170868873596, 0.06415080279111862, -0.08203200995922089, 0.04570978134870529, 0.0182497575879097, -0.07545182853937149, -0.0176628939807415, -0.08927931636571884, -0.1278301328420639, -0.09494386613368988, 0.09953512251377106, 0.043022096157073975, 0.03402148559689522, 0.2842155694961548, 0.06125777214765549, -0.1018800362944603, -0.15002329647541046, -0.09352079033851624, -0.2042747139930725, 0.07013650983572006, -0.10528218746185303, -0.02098172716796398, -0.018184496089816093, 0.2557372450828552, 0.08482600003480911, -0.051801860332489014, -0.00870317593216896, -0.13220000267028809, -0.2206682711839676, 0.057014644145965576, 0.022322429344058037, -0.07494886964559555, 0.010042239911854267, -0.17248141765594482, -0.022110946476459503, 0.20926329493522644, -0.09458113461732864, 0.12009347975254059, -0.010843105614185333, 0.3203970193862915, 0.07937189936637878, -0.019640373066067696, -0.10751642286777496, -0.1309274435043335, 0.037878941744565964, 0.06578171998262405, -0.1896849274635315, -0.10259158164262772, 0.022721881046891212, -0.1327091008424759, -0.03839418664574623, 0.14916683733463287, 0.17495374381542206, -0.027683252468705177, -0.06622513383626938, -0.07574804872274399, -0.003333093598484993, -0.0833108127117157, -0.062345121055841446, -0.15660597383975983, 0.20039358735084534, 0.07329190522432327, -0.09720640629529953, -0.04247812181711197, 0.035410746932029724, -0.19649545848369598, 0.2809964418411255, 0.11399432271718979, -0.09549151360988617, 0.07161429524421692, -0.14733849465847015, 0.01139015331864357, -0.0794224813580513, 0.06617526710033417, -0.007464091293513775, 0.03028854727745056, -0.06545814126729965, -0.15398763120174408, 0.11373584717512131, -0.03208562731742859, 0.05288458615541458, 0.16027824580669403, -0.0035646548494696617, -0.022686626762151718, -0.01410715188831091, 0.021042976528406143, -0.07228562980890274, 0.10381157696247101, -0.023589856922626495, 0.033540382981300354, -0.09594304114580154, -0.16940563917160034, 0.1649244874715805, -0.0018889569910243154, 0.20192816853523254, -0.04729250445961952, 0.07871644198894501, 0.04061355069279671, -0.013676198199391365, 0.00184523721691221, 0.16906367242336273, 0.021079959347844124, -0.09433604776859283, 0.08367028832435608, -0.13696938753128052, -0.07889401167631149, 0.11600635945796967, -0.013181337155401707, 0.11662773042917252, 0.0006964534986764193, -0.007901477627456188, -0.0625966489315033, 0.02382441610097885, 0.14748986065387726, 0.10525237768888474, 0.00874667800962925, -0.1555599719285965, -0.05624707043170929, -0.07142409682273865, -0.023211289197206497, 0.02594761550426483, -0.003130548167973757, -0.05693232640624046, 0.17959769070148468, -0.10346531867980957, -0.1179361343383789, 0.03809015825390816, -0.005459588952362537, 0.022664450109004974, 0.014562257565557957, -0.13065357506275177, -0.12213509529829025, -0.04594689607620239, -0.024340588599443436, -0.10020263493061066, -0.009493150748312473, -0.07628372311592102, -0.002567585790529847, -0.03988727182149887, -0.12699906527996063, -0.032182566821575165, 0.5947913527488708, -0.05319451913237572, 0.14151114225387573, -0.18932166695594788, 0.02265876904129982, -0.3242197334766388, -0.00548103591427207], [-0.025981994345784187, -0.021225307136774063, -0.12464589625597, -0.053018227219581604, 0.06761054694652557, 0.014071081764996052, 0.017737703397870064, 0.05952480062842369, -0.0006293224869295955, -0.05374683812260628, 0.014523866586387157, -0.02203289233148098, -0.05968017876148224, -0.04749557748436928, 0.014188714325428009, -0.030084852129220963, -0.0734623521566391, -0.05163256824016571, -0.03929905593395233, -0.03152253478765488, -0.016809554770588875, 0.006112334784120321, -0.01703755185008049, 1.8506070773582906e-06, -0.017821136862039566, -0.001092106569558382, -0.028214195743203163, -0.025458602234721184, 0.006748882122337818, -0.0013836316065862775, -0.007934657856822014, -0.03425287827849388, -0.06250632554292679, 0.04434286803007126, 0.022089747712016106, 0.02966722846031189, -0.03067372366786003, -0.007798209320753813, -0.05379663407802582, 0.014271039515733719, 0.0026124215219169855, -0.02861674316227436, -0.027536941692233086, -0.02039901167154312, -0.03865954652428627, 0.02837771736085415, -0.0553743802011013, -0.05786826089024544, -0.00481164176017046, -0.027202555909752846, 0.050673503428697586, -0.07138508558273315, -0.06901922821998596, 0.04755595698952675, 0.0015842048451304436, 0.016963569447398186, 0.011489765718579292, -0.023660894483327866, 0.016855889931321144, 0.0217529758810997, -0.0006300635868683457, -0.008035392500460148, -0.06272216886281967, -0.015604047104716301, -0.0158152524381876, -0.02436763420701027, 0.013981841504573822, -0.01455526053905487, 0.03401034697890282, 0.01761791668832302, 0.02775368094444275, -0.007409350480884314, -0.07262399792671204, -0.06005141884088516, 0.021424565464258194, -0.022267194464802742, 0.028578169643878937, 0.011404400691390038, -0.05729978531599045, 0.06745507568120956, -0.012677418999373913, -0.0036407283041626215, 0.018627051264047623, -0.06776788085699081, 0.02025611512362957, 0.009788588620722294, -0.05808955058455467, 0.009802223183214664, 0.012005130760371685, -0.009923878125846386, -0.02258305251598358, -0.015187420882284641, -0.03625497967004776, -0.058066919445991516, -0.01797041855752468, 0.02735474891960621, -0.009135718457400799, -0.0016943826340138912, 0.05689379200339317, 0.033386215567588806, -0.03114895708858967, -0.03316851332783699, -0.042935386300086975, -0.08680236339569092, 0.03539484739303589, 0.010909756645560265, -0.02795729786157608, -0.04614930599927902, -0.014408433809876442, 0.0048426068387925625, 0.11035285145044327, -0.05803066864609718, -0.011770069599151611, -0.03956952691078186, 0.060702040791511536, -0.05633561313152313, -0.05054581165313721, 0.017139380797743797, -0.06380998343229294, 0.006440044846385717, 0.04143697768449783, -0.00587060721591115, 0.08988592028617859, 0.017308736220002174, 0.05951707065105438, -0.041988518089056015, -0.011198851279914379, 0.04046124219894409, 0.12330441921949387, 0.13159209489822388, 0.09947096556425095, 0.06980981677770615, -0.08038134127855301, 0.020948423072695732, 0.06459087878465652, 0.14183099567890167, 0.03377613425254822, 0.22317641973495483, -0.11192534118890762, 0.0781409963965416, 0.018979568034410477, 0.0654538944363594, -0.04805586859583855, -0.03696640208363533, 0.03022042103111744, 0.09230884164571762, 0.03759796917438507, -0.00754228001460433, -0.10095346719026566, -0.06510704755783081, 0.11537681519985199, 0.024094732478260994, -0.1345147043466568, 0.02902822569012642, 0.07868580520153046, 0.04984789714217186, -0.027673721313476562, 0.06647960841655731, -0.07566577941179276, 0.07432042062282562, -0.006200211588293314, -0.07628937065601349, -0.09544789046049118, -0.056304339319467545, 0.08255875110626221, 0.06635463982820511, 0.04743620380759239, 0.01951305754482746, -0.016194360330700874, 0.017927533015608788, 0.07922014594078064, 0.029218081384897232, -0.06009306386113167, 0.01653912663459778, 0.0151768047362566, 0.022551383823156357, -0.052011072635650635, -0.004988773260265589, 0.02900954894721508, 0.062221795320510864, -0.018421098589897156, -0.10746176540851593, -0.11180713772773743, -0.03541318327188492, -0.053802717477083206, -0.06260403990745544, -0.023387013003230095, 0.008497870527207851, -0.0753507986664772, -0.09448812901973724, 0.04930838942527771, -0.04945056512951851, 0.03066215291619301, -0.006641927640885115, 0.005898778326809406, 0.048921991139650345, -0.03474172204732895, 0.050548020750284195, 0.006011607591062784, 0.01263350062072277, 0.0500488318502903, 0.023857098072767258, 0.11178506165742874, 0.03200152888894081, 0.12453274428844452, 0.026622885838150978, 0.0991620197892189, -0.29715436697006226, 0.3991040885448456, 0.10506995022296906, 0.1291259080171585, 0.35368791222572327, 0.033132974058389664, 0.7959895133972168, 0.024152331054210663], [-0.08751799166202545, 0.14360962808132172, -0.01419000793248415, -0.086922787129879, -0.2624692916870117, -0.20057599246501923, -0.14662279188632965, -0.13725024461746216, -0.06337442994117737, -0.0018110896926373243, -0.0895291194319725, 0.07053884863853455, 0.14891861379146576, -0.1234491616487503, -0.12179405242204666, -0.10278616100549698, -0.09829090535640717, 0.05172114819288254, -0.0048581501469016075, 0.008159481920301914, -0.05601482838392258, -0.0727221816778183, 0.01763938181102276, -0.11170323938131332, -0.11791015416383743, -0.07782410830259323, -0.01674521528184414, 0.01827382668852806, 0.07100916653871536, -0.032187387347221375, 0.12112505733966827, -0.11604763567447662, 0.08970623463392258, -0.03337034955620766, -0.13409078121185303, 0.07359272241592407, -0.1394510716199875, 0.02636447176337242, 0.039446838200092316, -0.03668834641575813, 0.030147239565849304, -0.194744274020195, 0.03501361981034279, -0.03285858780145645, -0.1445947289466858, -0.08748359233140945, -0.03314635530114174, -0.05914601311087608, -0.10665848106145859, 0.05644688755273819, -0.03692648559808731, 0.00652239378541708, -0.07976939529180527, -0.07868780940771103, -0.13476021587848663, -0.032818786799907684, 0.025984708219766617, -0.015111676417291164, 0.07332645356655121, 0.035109490156173706, -0.14438755810260773, -0.08213738352060318, 0.005799356382340193, -0.14135321974754333, -0.10597806423902512, 0.0638040229678154, -0.05863369628787041, -0.12586751580238342, -0.010847947560250759, 0.058965712785720825, 0.06429178267717361, -0.01561145018786192, 0.055127087980508804, -0.06405887007713318, -0.16283147037029266, -0.01563858427107334, -0.030456852167844772, -0.018553266301751137, -0.17302946746349335, -0.19495905935764313, -0.04947759956121445, -0.011052573099732399, 0.01718508079648018, -0.04040026664733887, -0.09042450040578842, 0.028145376592874527, -0.0751042366027832, -0.031452711671590805, -0.16428998112678528, -0.07855696231126785, -0.46453192830085754, 0.13652026653289795, 0.27597153186798096, 0.05117538943886757, -0.05758043751120567, 0.06485429406166077, -0.12493371963500977, -0.2211829274892807, -0.0213009025901556, -0.06251210719347, -0.14063887298107147, -0.3065647780895233, 0.19281497597694397, -0.16692465543746948, -0.14023606479167938, -0.2980106472969055, 0.03521890193223953, -0.34678563475608826, -0.0011537913233041763, -0.12254651635885239, 0.12827377021312714, 0.22410930693149567, 0.06813368946313858, 0.3888230621814728, -0.31181564927101135, -0.09134844690561295, 0.07934931665658951, 0.04532233253121376, -0.2365097850561142, 0.173773854970932, 0.04887247458100319, -0.1014430895447731, -0.21310311555862427, -0.16758771240711212, 0.07090985029935837, -0.005850163288414478, 0.09130493551492691, -0.08749407529830933, 0.09559133648872375, -0.10947514325380325, -0.08594370633363724, -0.004798489157110453, 0.01223024446517229, 0.22935152053833008, -0.09257969260215759, 0.17233014106750488, -0.23190639913082123, 0.10578829795122147, 0.2181389480829239, 0.0036249440163373947, 0.13399825990200043, -0.06602846086025238, 0.14651861786842346, -0.36442241072654724, 0.0806894600391388, 0.044851236045360565, 0.09422586113214493, -0.18854953348636627, 0.10445248335599899, -0.025663377717137337, 0.04586378112435341, -0.1975896954536438, 0.09867206960916519, 0.00873503740876913, -0.05638842284679413, -0.05137096717953682, 0.13520492613315582, -0.005169247277081013, -0.10726067423820496, 0.07629715651273727, -0.02958851307630539, 0.13741230964660645, -0.017783287912607193, 0.024689307436347008, -0.0038701784797012806, 0.12970954179763794, -0.08890801668167114, -0.02398071438074112, 0.017350472509860992, 0.08694054186344147, -0.013159530237317085, 0.036746617406606674, -0.09839364886283875, -0.05822459235787392, -0.03763961046934128, -0.011399766430258751, 0.001382560352794826, -0.0027021358255296946, 0.10042563080787659, -0.04899228736758232, 0.024376817047595978, -0.08828271925449371, 0.07095928490161896, 0.1847362071275711, 0.06442735344171524, 0.01732381246984005, 0.03369283303618431, 0.1660051792860031, -0.09929732978343964, -0.15767954289913177, -0.1579100489616394, 0.04449179768562317, -0.04982578381896019, 0.06256058812141418, -0.15834476053714752, -0.10738465189933777, -0.020905684679746628, -0.19216963648796082, -0.08766111731529236, 0.025859685614705086, -0.04663677141070366, 0.00987065490335226, -0.06140271946787834, -0.021303819492459297, 0.047986581921577454, -0.024006668478250504, -0.011171268299221992, 0.13412874937057495, 1.0222697257995605, -0.06057102978229523, 0.16535057127475739, -0.21791549026966095, -0.014552111737430096, 0.2691439986228943, -0.010077716782689095], [-0.01354032289236784, -0.06941284984350204, -0.06832423061132431, -0.028755413368344307, -0.02249765768647194, -0.06904947012662888, 0.007119894027709961, -0.03766002878546715, -0.02127852849662304, 0.01982685551047325, -0.11237312853336334, -0.06429678946733475, -0.0666680708527565, -0.16377510130405426, -0.0334395170211792, -0.05894669145345688, -0.17976094782352448, -0.0903109535574913, -0.0683349072933197, -0.06926345825195312, 0.001664206269197166, 0.054093681275844574, 0.0234169103205204, -0.11929993331432343, -0.09927915036678314, -0.09019731730222702, -0.1563677042722702, -0.025204643607139587, -0.07574702799320221, 0.006754240952432156, 0.012095754966139793, -0.02911318838596344, -0.04392823576927185, -0.0007924073142930865, -0.13156750798225403, 0.005436751991510391, -0.08555775135755539, -0.06817885488271713, -0.02980869449675083, -0.021118002012372017, -0.05260535329580307, -0.05326441675424576, -0.025904905050992966, -0.040623318403959274, -0.058151356875896454, 0.010652143508195877, -0.06379732489585876, -0.05387129262089729, -0.008106343448162079, 0.021313712000846863, 0.0002823553513735533, 0.04642537981271744, -0.017049061134457588, -0.03598325699567795, -0.07242680341005325, 0.07512137293815613, -0.0028218268416821957, -0.03847042843699455, -0.11103619635105133, 0.032377179712057114, -0.04044490307569504, -0.014322862029075623, -0.07434775680303574, -0.10797470808029175, -0.07320180535316467, 0.09522543102502823, 0.0035479923244565725, -0.016019530594348907, -0.004602425266057253, 0.04114631935954094, -0.05908612906932831, -0.031247084960341454, -0.07676675915718079, -0.05547051131725311, -0.10960517823696136, 0.041031207889318466, 0.1663510650396347, 0.001501327846199274, -0.04763280972838402, 0.021025730296969414, -0.011375893838703632, -0.03550659865140915, -0.08366762846708298, 0.04820719733834267, -0.08003577589988708, -0.03328225016593933, 0.0950303003191948, -0.002966966712847352, 0.09324350953102112, -0.024984389543533325, 0.17999476194381714, -0.07009053975343704, 0.0051218620501458645, -0.033441632986068726, -0.054114360362291336, 0.017124798148870468, 0.16050207614898682, -0.029757745563983917, 0.18245841562747955, 0.07284653931856155, 0.0021016662940382957, -0.008312392979860306, 0.10449732095003128, -0.019411206245422363, 0.26615750789642334, 0.14781206846237183, -0.052101980894804, 0.1734195351600647, 0.07606031000614166, -0.3258264660835266, -0.031246928498148918, -0.12641297280788422, 0.08801855146884918, 0.06577475368976593, -0.06237680837512016, 0.010934862308204174, -0.03643067181110382, 0.15297430753707886, 0.16993620991706848, -0.026938894763588905, 0.013539165258407593, 0.20463265478610992, 0.12836505472660065, 0.14787982404232025, -0.08082059025764465, 0.05761945620179176, -0.08101660758256912, 0.09845416247844696, -0.0032849516719579697, -0.041859664022922516, 0.12798281013965607, 0.0030966014601290226, 0.18838834762573242, 0.08215682208538055, 0.09503931552171707, -0.0752367153763771, -0.04555857554078102, -2.8582180675584823e-05, -0.00575245963409543, 0.031129073351621628, 0.03607426583766937, -0.034810520708560944, 0.050802573561668396, -0.0038895972538739443, 0.00610306253656745, 0.0733647495508194, -0.06347130239009857, 0.11860402673482895, -0.04078274220228195, -0.232076957821846, 0.03426980972290039, 0.16307710111141205, 0.20310090482234955, 0.11647357791662216, -0.03767276555299759, 0.11610318720340729, -0.03293999284505844, -0.09350766241550446, -0.00178018759470433, -0.17639940977096558, -0.02667044661939144, -0.016108054667711258, 0.09555233269929886, -0.017433665692806244, -0.0337815061211586, 0.015574367716908455, -0.03025830164551735, -0.01743072271347046, 0.06774410605430603, -0.10940896719694138, 0.08912201970815659, -0.0019393848488107324, 0.12970389425754547, 0.042470745742321014, -0.026542112231254578, 0.04475529119372368, -0.0721767395734787, 0.047710027545690536, 0.07733433693647385, -0.05509845167398453, -0.013376235961914062, 0.06437692791223526, -0.02510126121342182, -0.024787630885839462, 0.005603585857897997, -0.05189692601561546, 0.003380114445462823, -0.0981144830584526, 0.16570119559764862, -0.0803598016500473, -0.06032906845211983, 0.020128730684518814, -0.0831226035952568, 0.05936853587627411, -0.08138035982847214, -0.005324182566255331, 0.06954334676265717, -0.0083299670368433, 0.06591419875621796, -0.07039978355169296, -0.00543946772813797, -0.06939578801393509, -0.036568693816661835, -0.0395243838429451, -0.034916527569293976, 0.017006700858473778, 0.05980964004993439, 0.19535940885543823, -1.4672926664352417, -0.02624053694307804, -0.2428653985261917, -7.09879313944839e-05, 0.034249428659677505, 0.11430825293064117, 0.042252689599990845], [0.0017842553788796067, 0.032946184277534485, -0.14584866166114807, 0.044462982565164566, -0.02858302742242813, 0.016455939039587975, -0.00037550079287029803, 0.07532273232936859, -0.0019030533730983734, -0.04587343707680702, -3.1754261726746336e-05, -0.03210859000682831, -0.12239599972963333, -0.06702319532632828, -0.11486407369375229, 0.04919449985027313, 0.11276783794164658, -0.005913767497986555, -0.0956830084323883, -0.051049765199422836, 0.011453106068074703, -0.06064467877149582, -0.026165546849370003, -0.06391819566488266, -0.08631845563650131, -0.018057966604828835, -0.03406957909464836, -0.028552401810884476, -0.10131038725376129, -0.06076177582144737, -0.020385876297950745, -0.02191966399550438, -0.034047190099954605, -0.10795888304710388, -0.006301982328295708, 0.04185517132282257, -0.02144918031990528, 0.016534356400370598, 0.01491747796535492, -0.05380113050341606, -0.0380931980907917, -0.059496525675058365, -0.05012746527791023, -0.06967618316411972, -0.0038193108048290014, 0.05040803924202919, -0.05097803473472595, -0.024144474416971207, -0.027442358434200287, -0.12219022959470749, -0.07711001485586166, 0.031233832240104675, -0.006857308093458414, -0.04334966838359833, -0.012584376148879528, 0.06940580159425735, 0.027871213853359222, 0.01397564448416233, 0.03599666804075241, -0.1425114870071411, -0.08208372443914413, -0.0366118848323822, -0.024156615138053894, -0.10373477637767792, 0.034394193440675735, 0.05672340467572212, -0.022680386900901794, -0.010356858372688293, -0.07019496709108353, -0.14009153842926025, -0.07042790949344635, -0.014340936206281185, -0.0464918278157711, -0.0002530892670620233, 0.05511585995554924, -0.0027033095248043537, -0.03916804492473602, -0.030879653990268707, -0.030946964398026466, -0.08258353918790817, 0.09045500308275223, -0.04151713475584984, -0.01601308584213257, -0.029690483585000038, 0.005221459083259106, 0.029286641627550125, -0.09787989407777786, -0.09280885010957718, -0.05842641368508339, -0.12813891470432281, 0.006210827734321356, -0.009794344194233418, 0.006148115266114473, -0.07945062965154648, -0.0539090521633625, -0.014573843218386173, 0.003981678280979395, -0.02607949823141098, -0.1330823302268982, 0.06532535701990128, -0.036987241357564926, 0.0753353089094162, -0.008777265436947346, -0.026698220521211624, -0.051934864372015, -0.027042247354984283, -0.1380736082792282, -0.034568771719932556, -0.1266583949327469, 0.06976282596588135, -0.08068379014730453, -0.11003439128398895, -0.05943315103650093, -0.01908307708799839, -0.1804446578025818, 0.020717985928058624, -0.17254026234149933, 0.08616261929273605, 0.11610129475593567, 0.0552775040268898, 0.0579981803894043, -0.12934055924415588, -0.0689283013343811, -0.043141547590494156, -0.13906005024909973, -0.06326743215322495, -0.09656477719545364, -0.017694225534796715, -0.09263547509908676, 0.10950487852096558, 0.015466568060219288, -0.053868260234594345, -0.0667824000120163, 0.10929123312234879, -0.05346502736210823, 0.028470322489738464, 0.10573554784059525, -0.06245099753141403, -0.24451354146003723, -0.10252606123685837, 0.04307343065738678, -0.042392559349536896, -0.025537565350532532, 0.0429227314889431, 0.13361698389053345, 0.2105942666530609, 0.1368115246295929, 0.08686132729053497, -0.08313848078250885, -0.1038435846567154, -0.19398581981658936, 0.04865729436278343, 0.01970771700143814, 0.2019694596529007, -0.10674513876438141, 0.23715904355049133, 0.1093924343585968, -0.022220706567168236, 0.07279516011476517, -0.11178825050592422, -0.2571485936641693, -0.02581155113875866, 0.04900501295924187, 0.11558745056390762, -0.1437118649482727, 0.031929999589920044, 0.054043401032686234, -0.021724874153733253, 0.044221002608537674, 0.06186440959572792, 0.02418646216392517, -0.0027199944015592337, 0.050025153905153275, 0.2232908457517624, -0.1439596712589264, -0.07497522979974747, -0.012901123613119125, -0.1663716435432434, -0.03705451264977455, -0.056299857795238495, 0.08446016907691956, 0.015190758742392063, 0.11021748930215836, -0.025253839790821075, 0.24403777718544006, -0.035594597458839417, 0.09823837131261826, 0.14307467639446259, 0.06927953660488129, 0.1237608939409256, 0.11386044323444366, -0.05299198254942894, 0.03717293590307236, -0.08165916800498962, 0.1613483875989914, -0.021256566047668457, 0.0718725323677063, -0.027742555364966393, 0.1131153255701065, -0.08669116348028183, -0.044693708419799805, 0.21088097989559174, 0.2622889280319214, 0.10224499553442001, 0.18575921654701233, 0.23256410658359528, 0.12727001309394836, 0.30074378848075867, 0.11450318247079849, 0.19918887317180634, 0.025744689628481865, 0.33214837312698364, -0.02359160967171192, 0.6439637541770935, -0.034396395087242126], [-0.018662504851818085, -0.04132915660738945, -0.05231624096632004, -0.09507197886705399, 0.025976769626140594, -0.071014903485775, 0.02593369409441948, 0.040747955441474915, 0.016972849145531654, -0.016566656529903412, -0.019822681322693825, -0.04157111048698425, -0.061991482973098755, -0.06387303024530411, -0.029565362259745598, -0.021563703194260597, 0.03803737834095955, -0.020003022626042366, -0.021451814100146294, -0.07994020730257034, 0.0336872823536396, -0.05659768357872963, 0.016301831230521202, -0.01427635457366705, 0.01805441454052925, -0.020284831523895264, 0.023945903405547142, 0.011806642636656761, -0.09002082049846649, -0.06926275044679642, -0.009416146203875542, -0.03908613696694374, -0.04036048799753189, 0.013035195879638195, 0.010102197527885437, 0.04398740082979202, 0.009241707623004913, -0.023346543312072754, -0.02162300981581211, 0.04510568827390671, -0.004383249208331108, -0.024384984746575356, -0.011930318549275398, 0.0005261274636723101, 0.0095954779535532, 0.015799952670931816, -0.00420244550332427, 0.011960083618760109, 0.004326606169342995, -0.00616486044600606, -0.04866514727473259, 0.0030022116843611, 0.055494774132966995, 0.007739761844277382, 0.03270740434527397, 0.032456543296575546, 0.044120948761701584, 0.03554937243461609, 0.02640877291560173, 0.01721108704805374, -0.01655605435371399, -0.035934124141931534, 0.05003293603658676, 0.013534102588891983, 0.018211927264928818, -0.0004753792309202254, -0.015225923620164394, 0.00905489269644022, 0.04496699199080467, -0.005786359775811434, 0.030369054526090622, -0.007076134905219078, -0.011126204393804073, -0.005714468192309141, 0.006738365162163973, 0.009735839441418648, -0.03159790113568306, 0.014473608694970608, 0.03648523613810539, -0.008337867446243763, -0.09022236615419388, -0.01502848882228136, 0.09217315912246704, -0.03147262707352638, -0.038185447454452515, 0.031211497262120247, -0.02926548570394516, -0.0515652559697628, 0.028246181085705757, 0.04447347670793533, -0.022506099194288254, -0.0914471223950386, 0.014806150458753109, -0.05963199585676193, 0.033759936690330505, 0.0018773084739223123, -0.07066699117422104, -0.05825698748230934, 0.007288600783795118, -0.016583619639277458, -0.12206568568944931, -0.11599769443273544, -0.0830499604344368, -0.03554394841194153, -0.021965889260172844, 0.02317058853805065, -0.03538692370057106, -0.0524236224591732, -0.009182983078062534, 0.06045506149530411, 0.36378228664398193, 0.04139500483870506, -0.03751346468925476, -0.003769000293686986, -0.09225168079137802, -0.16367432475090027, -0.21768073737621307, -0.05690550059080124, -0.08181489259004593, -0.0253066997975111, -0.05237017571926117, 0.24755093455314636, 0.31271064281463623, 0.07207812368869781, 0.14947305619716644, 0.1653589904308319, 0.002939862897619605, 0.13115470111370087, -0.015559542924165726, -0.034653015434741974, -0.013722434639930725, -0.02312549762427807, -0.0396038182079792, 0.19500616192817688, 0.025520825758576393, 0.027400514110922813, -0.1742626130580902, 0.25170445442199707, -0.08528612554073334, 0.1731867492198944, -0.07333636283874512, 0.22543518245220184, -0.06674113869667053, -0.06889162212610245, -0.11678361147642136, -0.2140568494796753, -0.1833297163248062, -0.009981746785342693, -0.1789708286523819, -0.2550511956214905, 0.2958047091960907, 0.12922634184360504, 0.03900972753763199, 0.34384599328041077, 0.00722354045137763, 0.10127682983875275, -0.02035348303616047, 0.035751473158597946, 0.15546062588691711, 0.40151795744895935, -0.14930738508701324, -0.008539970964193344, -0.033206719905138016, -0.053474120795726776, 0.13074369728565216, 0.11380068212747574, 0.03288939222693443, -0.10560253262519836, 0.0023379847407341003, 0.06966837495565414, -0.10689888894557953, 0.13288454711437225, 0.06250323355197906, 0.05291945859789848, 0.0405820794403553, 0.08222329616546631, -0.01120354700833559, 0.044964779168367386, 0.005531235598027706, 0.13992884755134583, -0.38062649965286255, -0.1233871653676033, -0.11926618218421936, -0.06722288578748703, 0.05684393644332886, 0.01826845295727253, 0.05913902074098587, 0.051934387534856796, 0.01986083947122097, 0.11570411920547485, 0.1921597570180893, -0.005524375941604376, 0.05158271640539169, 0.2149040549993515, -0.15593820810317993, 0.08206349611282349, -0.008148718625307083, -0.07783110439777374, -0.008345558308064938, 0.053368981927633286, 0.1885998547077179, 0.006508586462587118, 0.010711314156651497, -0.08699353039264679, -0.07911340892314911, 0.0031733200885355473, 0.16837681829929352, 0.007313535548746586, 0.08999276906251907, 0.2060621827840805, 0.12249091267585754, 0.2946324050426483, 0.0014221658930182457, 0.486452579498291, 0.041298769414424896], [0.09835421293973923, 0.08289404958486557, 0.07422977685928345, -0.009759039618074894, -0.23403722047805786, -0.09363119304180145, -0.16604360938072205, -0.13119611144065857, -0.08718518167734146, -0.14417266845703125, -0.1042981967329979, -0.10558376461267471, -0.22345273196697235, -0.42127349972724915, 0.14434540271759033, -0.10384011268615723, -0.29026925563812256, -0.22816027700901031, -0.09499109536409378, -0.07409762591123581, -0.09629184007644653, -0.13855887949466705, -0.19164656102657318, -0.09690859168767929, -0.17798133194446564, -0.04323472082614899, -0.09795334190130234, -0.10872580856084824, 0.0029675508849322796, 0.03707456588745117, 0.08321119099855423, 0.017945202067494392, -0.03377427160739899, 0.032126639038324356, -0.018111692741513252, 0.25201696157455444, 0.16155420243740082, -0.10133795440196991, -0.0285797081887722, -0.07131151109933853, -0.11616131663322449, 0.014350931160151958, -0.01545096468180418, 0.09576864540576935, -0.028202446177601814, -0.018560683354735374, -0.1265372633934021, 0.06645321100950241, -0.0926506519317627, -0.028847400099039078, -0.07278794795274734, 0.0548127219080925, 0.03245167061686516, -0.14618945121765137, -0.05229741334915161, -0.09471067041158676, 0.10409389436244965, -0.011126295663416386, 0.08801873028278351, -0.09079986810684204, -0.1282283067703247, 0.025938335806131363, -0.023556174710392952, -0.07419553399085999, -0.05556853115558624, -0.11308354139328003, 0.015805119648575783, 0.04534813016653061, -0.07150130718946457, -0.04276088997721672, -0.018841125071048737, -0.050272468477487564, -0.06043773517012596, -0.013448982499539852, -0.065300352871418, -0.10417762398719788, -0.08567428588867188, -0.013107500970363617, -0.08402558416128159, -0.00709249172359705, 0.04992993175983429, 0.1540580540895462, 0.044832538813352585, -0.045178674161434174, -0.026642587035894394, -0.1033962219953537, -0.1557738482952118, -0.17798961699008942, -0.015343237668275833, 0.02106000855565071, -0.09286440163850784, 0.06445519626140594, 0.08981940150260925, -0.04686214029788971, -0.1689434051513672, -0.03574376180768013, -0.07314055413007736, -0.11855520308017731, 0.1280561089515686, -0.09040151536464691, -0.07389931380748749, -0.010051068849861622, -0.32492509484291077, 0.06691619753837585, -0.14060074090957642, 0.12970201671123505, 0.09384085983037949, 0.009798567742109299, -0.004868244752287865, 0.03492956981062889, -0.10120286047458649, -0.08720734715461731, 0.046582870185375214, 0.07067101448774338, 0.0100104920566082, -0.027232037857174873, -0.18302305042743683, -0.05344820022583008, 0.06117343530058861, 0.12296463549137115, 0.06661713868379593, -0.016576623544096947, -0.2718749940395355, 0.10794391483068466, -0.10094641149044037, -0.06309888511896133, 0.15657466650009155, -0.04600797966122627, 0.0878952145576477, -0.10088853538036346, -0.05372709408402443, 0.10146123915910721, 0.1423529088497162, -0.032592229545116425, -0.008121694438159466, 0.017638448625802994, 0.011802338063716888, -0.04241088032722473, -0.06687755882740021, 0.036881498992443085, -0.041958946734666824, 0.0578412264585495, 0.014238056726753712, -0.029602764174342155, -0.0032418605405837297, -0.06204555183649063, -0.04964333772659302, -0.000272074481472373, -0.0960657149553299, 0.05933171510696411, 0.00285096513107419, -0.0312640480697155, -0.0037238418590277433, 0.015681596472859383, -0.0014864903641864657, -0.07778144627809525, 0.015386668033897877, -0.06960031390190125, -0.04285705089569092, 0.0002609674702398479, -0.029206255450844765, 0.020281711593270302, 0.06298741698265076, 0.05815522000193596, 0.0628528967499733, 0.01615966483950615, 0.060003913938999176, -0.009796777740120888, 0.09236329048871994, 0.18968628346920013, -0.011878390796482563, -0.07296975702047348, 0.032954663038253784, -0.015226871706545353, 0.011813163757324219, -0.02773355320096016, 0.021750200539827347, -0.043588317930698395, -0.10649273544549942, 0.16223742067813873, 0.012016721069812775, 0.038323674350976944, -0.003980754408985376, 0.10347330570220947, 0.0037566341925412416, -0.12529678642749786, 0.03175932541489601, 0.015326914377510548, -0.14325621724128723, 0.1107921227812767, -0.02083735540509224, 0.023522665724158287, -0.02525407262146473, -0.04982193931937218, 0.017940450459718704, -0.051820095628499985, -0.03657843917608261, 0.0469190813601017, -0.0176331028342247, 0.09185535460710526, -0.02850434184074402, 0.16491249203681946, 0.001909024198539555, 0.07473855465650558, 0.008945113979279995, 0.03954583778977394, 0.1267874836921692, 0.022787993773818016, -1.5344868898391724, -0.020872216671705246, -0.22478510439395905, -0.2646940052509308, -0.028500879183411598, -1.7456603050231934, -0.04993697255849838], [0.0041524674743413925, -0.03342890366911888, -0.0686921700835228, -0.024497274309396744, 0.03557979688048363, -0.00508122006431222, -0.03433217108249664, 0.046639420092105865, 0.04156148433685303, 0.0036283819936215878, -0.00392255000770092, -0.005507089197635651, -0.07311635464429855, -0.07121992111206055, -0.008733781985938549, 0.01092932466417551, -0.011943057179450989, -0.043060075491666794, -0.061128728091716766, -0.010550178587436676, 0.045138824731111526, -0.05573742836713791, -0.003931662067770958, -0.030758878216147423, 0.006499049719423056, 0.040362805128097534, -0.050305526703596115, -0.019532518461346626, -0.02702956087887287, -0.018767978996038437, 0.0037401386070996523, 0.012172646820545197, -0.07245039939880371, 0.06332384049892426, -0.003982821945101023, 0.07004283368587494, -0.011630116030573845, -0.016465427353978157, 0.03083682246506214, -0.010430623777210712, -0.004493126180022955, -0.06929250806570053, 0.009528650902211666, 0.037427134811878204, -0.007297074422240257, 0.03162965923547745, -0.05845331400632858, 0.006163994316011667, 0.02581031620502472, 0.036273084580898285, -0.026580478996038437, -0.02243557944893837, 0.01798555627465248, 0.009364472702145576, 0.03746503219008446, 0.025967584922909737, -0.012887266464531422, 0.033351678401231766, -0.019655795767903328, 0.002013352233916521, -0.008455774746835232, -0.026268549263477325, 0.024902621284127235, 0.000389701162930578, -0.026220237836241722, 0.0010138184297829866, 0.0184507854282856, 0.029670583084225655, 0.025724610313773155, 0.03262476250529289, -0.020895246416330338, 0.02346501499414444, -0.005529205314815044, -0.05267370864748955, 0.04492697864770889, 0.03715020790696144, 0.05551740899682045, 0.016737619414925575, -0.01602201722562313, 0.05674987658858299, -0.0032705070916563272, -0.0005342669319361448, 0.040156830102205276, -0.06463748216629028, 0.03721072897315025, -0.023801738396286964, -0.031114662066102028, 0.01797020621597767, 0.035431571304798126, 0.04230193793773651, 0.09794093668460846, 0.02969701774418354, 0.0025216685608029366, -0.0198287945240736, 0.014633907936513424, 0.033316947519779205, -0.021250080317258835, -0.10361312329769135, 0.06126544997096062, -0.07977794855833054, -0.010079983621835709, 0.006040527019649744, -0.04370115324854851, -0.013036097399890423, 0.09535439312458038, 0.12508699297904968, 0.0449695810675621, -0.02644599787890911, 0.07977882772684097, 0.06868027150630951, 0.1057092696428299, -0.0023733549751341343, -0.070035420358181, 0.0062164305709302425, 0.1454630047082901, -0.13616997003555298, -0.04501551762223244, 0.011670357547700405, -0.035350166261196136, -0.07139009237289429, 0.03521029278635979, -0.008372067473828793, 0.07573474943637848, 0.06839046627283096, 0.051112111657857895, -0.03023528680205345, 0.04710853099822998, 0.13109642267227173, -0.04560508579015732, -0.04117225483059883, -0.011948107741773129, 0.008776170201599598, 0.044061724096536636, -0.00873782578855753, 0.08660773932933807, 0.028659962117671967, -0.08961652964353561, 0.26624882221221924, 0.001791176968254149, 0.06571302562952042, 0.2413697987794876, 0.03785449266433716, -0.21277163922786713, -0.02098291553556919, -0.019440561532974243, 0.07027962058782578, 0.02544153667986393, 0.02673240564763546, 0.09119372069835663, 0.1393572837114334, 0.16723015904426575, -0.001384463394060731, 0.12107714265584946, 0.07397635281085968, 0.13414327800273895, 0.1608896255493164, -0.011746861971914768, 0.0115785738453269, 0.09869948774576187, -0.0069219437427818775, -0.12399414926767349, 0.02030329778790474, -0.02723674662411213, -0.11803664267063141, 0.05155963450670242, 0.11047308892011642, 0.0621604323387146, -0.030775656923651695, -0.16573704779148102, -0.03976435586810112, 0.09098072350025177, 0.05757727473974228, 0.0716371163725853, -0.0110348891466856, -0.039939675480127335, 0.08137776702642441, -0.13066625595092773, 0.00010980556544382125, 0.03425835445523262, -0.07557690143585205, -0.08182089775800705, -0.053926870226860046, -0.06967287510633469, 0.010950851254165173, 0.06676787883043289, -0.0134119326248765, -0.006426868494600058, 0.026940222829580307, -0.11360075324773788, -0.026162410154938698, 0.007508969400078058, -0.01539405807852745, 0.12492571771144867, -0.014792005531489849, -0.006821576505899429, 0.0348624549806118, -0.10905151814222336, 0.011149630881845951, -0.04255575314164162, 0.023574823513627052, 0.04347336292266846, 0.0225983876734972, 0.15714000165462494, 0.010923078283667564, 0.04915100708603859, -0.17608214914798737, -0.08986596018075943, -0.4341200292110443, 0.2670935392379761, 0.24502016603946686, 0.1323280930519104, 0.4702865481376648, 0.020577818155288696, 0.5437119007110596, -0.015523749403655529], [-0.028966035693883896, 0.03771796077489853, 0.025057567283511162, 0.04987557604908943, -0.07764244079589844, -0.07099246978759766, -0.00308589986525476, 0.045673903077840805, 0.04241502285003662, -0.03323938325047493, 0.01163587998598814, 0.043100178241729736, 0.059288475662469864, 0.06403983384370804, 0.027118287980556488, -0.027377495542168617, 0.007883470505475998, -0.01729782111942768, -0.0613374337553978, -0.059288907796144485, 0.010312700644135475, 0.013955099508166313, 0.025754757225513458, 0.05963171645998955, -0.022354040294885635, -0.008441179990768433, 0.061698079109191895, 0.03465322032570839, 0.00265226187184453, -0.034265320748090744, 0.024479728192090988, -0.019024429842829704, -0.03299539163708687, 0.14242640137672424, 0.005349769257009029, 0.019374920055270195, -0.028087420389056206, -0.009198957122862339, -0.010748968459665775, -0.031442780047655106, 0.0021569279488176107, -0.01787460781633854, 0.04854878410696983, 0.12188094854354858, 0.06903169304132462, 0.0125955231487751, 0.06164856627583504, 0.027537226676940918, -0.012974505312740803, -0.06558339297771454, -0.00554156769067049, -0.031871117651462555, 0.04973543435335159, 0.08090723305940628, -0.025562983006238937, -0.013554496690630913, 0.04924137890338898, 0.03811844810843468, -0.020651008933782578, 0.0016649026656523347, 0.06288366764783859, -0.022255655378103256, 0.006872246507555246, 0.021395349875092506, -0.001801112899556756, -0.0070156557485461235, 0.06708934903144836, -0.0031449890229851007, 0.020147424191236496, 0.04496463015675545, -0.003383964067324996, 0.05059538036584854, 0.04116693511605263, 0.03877817466855049, 0.07563778012990952, 0.034328561276197433, -0.08446642011404037, -0.033406779170036316, -0.041490789502859116, -0.021784307435154915, 0.10347767919301987, -0.02398248389363289, 0.1352114975452423, 0.09810003638267517, -0.009557165205478668, 0.03251628577709198, -0.10385600477457047, -0.014688181690871716, -0.1004544198513031, -0.05609392747282982, -0.21053647994995117, -0.0070839738473296165, 0.10839885473251343, 0.09938281029462814, -0.005573193542659283, 0.12961037456989288, 0.015591076575219631, -0.012675521895289421, -0.07886852324008942, -0.1627926230430603, 0.039998169988393784, 0.002741357311606407, 0.20286275446414948, 0.23227183520793915, 0.12102163583040237, -0.13727621734142303, -0.10727432370185852, 0.06418117135763168, -0.07432850450277328, -0.06912391632795334, -0.13040626049041748, -0.28447362780570984, 0.2193119376897812, 0.2515481412410736, 0.14042624831199646, 0.08049163967370987, 0.03318178653717041, 0.09174373745918274, -0.0038080166559666395, 0.15905311703681946, -0.3281507194042206, 0.11965888738632202, -0.22458116710186005, -0.1091352254152298, -0.07381653785705566, -0.18220604956150055, 0.09301745146512985, 0.04980221018195152, 0.0672929435968399, -0.23573972284793854, -0.025630053132772446, 0.055652279406785965, -0.007636288646608591, -0.25921133160591125, -0.09117791056632996, 0.1759939044713974, -0.2210128754377365, 0.02305983565747738, -0.09329316765069962, -0.0996655747294426, -0.08566437661647797, -0.05455467104911804, -0.05332871153950691, 0.00899465475231409, -0.07623782753944397, 0.06441495567560196, -0.02191719226539135, 0.05752510949969292, -0.041425809264183044, -0.07169632613658905, -0.024846917018294334, -0.12051490694284439, -0.025924066081643105, -0.09732244163751602, -0.041661471128463745, 0.013574475422501564, -0.16227975487709045, -0.05349171906709671, -0.11500901728868484, -0.04311006888747215, -0.08321652561426163, -0.13987767696380615, -0.009238364174962044, -0.04221899062395096, -0.13863946497440338, -0.07856137305498123, -0.07037995010614395, -0.013581518083810806, -0.10068713873624802, -0.0038648471236228943, -0.046940941363573074, 0.029537202790379524, -0.09720554947853088, 0.20345710217952728, 0.13927751779556274, -0.041157323867082596, 0.0253873560577631, 0.012390357442200184, 0.07729758322238922, -0.05386064201593399, -0.03134338557720184, -0.03518852964043617, -0.042151179164648056, 0.041371122002601624, 0.009266088716685772, 0.08940514922142029, -0.03729390725493431, 0.04402761533856392, 0.13453125953674316, -0.02104360982775688, 0.06223645061254501, 0.015627862885594368, 0.06683114171028137, 0.07062799483537674, 0.023130737245082855, 0.11720266193151474, -0.018550392240285873, 0.011627349071204662, -0.012771176174283028, 0.06632834672927856, 0.35214704275131226, 0.22755004465579987, 0.38877779245376587, 0.3647446632385254, 0.3183656632900238, 0.09412401914596558, 0.37057945132255554, 0.14480876922607422, -0.16591203212738037, 0.15501943230628967, -0.013481339439749718, 0.5084827542304993, 0.03620108589529991, 0.7472628355026245, -0.016934679821133614], [-0.013776506297290325, -0.05513719841837883, 0.08482365310192108, -0.057709358632564545, -0.03219148889183998, -0.03637712448835373, 0.007718553766608238, -0.016967616975307465, -0.021282440051436424, 0.03368168696761131, 0.03761138767004013, -0.011098416522145271, -0.037616878747940063, -0.02782394550740719, 0.007570318412035704, 0.057666197419166565, 0.04178840294480324, 0.04659759998321533, -0.030458057299256325, -0.0550692155957222, 0.018223080784082413, 0.03751914203166962, -0.03413879871368408, 0.06637189537286758, -0.008359003812074661, 0.021163662895560265, 0.0035523895639926195, -0.028186718001961708, -0.044258002191782, -0.07157302647829056, 0.0016672948841005564, 0.008245604112744331, -0.011712711304426193, 0.08423824608325958, 0.008425824344158173, 0.12812663614749908, 0.04353904351592064, -0.007720756344497204, -0.02174820564687252, -0.0075421202927827835, 0.039660319685935974, 0.05698710307478905, -0.004759323783218861, 0.03417114168405533, -0.028136877343058586, 0.00922777596861124, -0.038169976323843, 0.0069600739516317844, -0.014020935632288456, -0.1336345374584198, -0.011375286616384983, -0.0069464268162846565, -0.031920332461595535, -0.03998662903904915, -0.011784037575125694, -0.12714561820030212, 0.01637640967965126, -0.019761472940444946, -0.08243698626756668, -0.18030036985874176, 0.0499236173927784, -0.0039320592768490314, -0.023128623142838478, -0.06486421078443527, -0.10629016906023026, -0.21711021661758423, -0.047112204134464264, -0.04940035939216614, -0.04067833721637726, 0.0013520675711333752, 0.02165946178138256, 0.020390888676047325, -0.025751546025276184, -0.11600562185049057, -0.19202663004398346, -0.17794494330883026, -0.048646342009305954, -0.029722796753048897, -0.052727799862623215, 0.03575489670038223, -0.019560538232326508, -0.02730594016611576, -0.03871305286884308, -0.1866532564163208, -0.07703971117734909, -0.12232705950737, 0.07723391056060791, -0.0318954661488533, 0.09210380166769028, 0.015016959980130196, -0.20883122086524963, 0.002154467161744833, 0.017972271889448166, -0.07904300093650818, -0.15325725078582764, -0.03245820850133896, -0.011287159286439419, -0.1771279126405716, 0.055543944239616394, 0.04935009032487869, -0.10566234588623047, -0.17750374972820282, 0.008947803638875484, 0.01697293296456337, -0.128899484872818, 0.044772714376449585, -0.01694723777472973, 0.14679045975208282, 0.015849871560931206, 0.036770038306713104, 0.09425093233585358, -0.008816096931695938, -0.1507892906665802, 0.1212221086025238, -0.03143066167831421, -0.020532969385385513, -0.13541609048843384, -0.05611807107925415, -0.036665864288806915, 0.031854793429374695, -0.1234838142991066, 0.11994212120771408, 0.05302286520600319, 0.1309942603111267, 0.035275429487228394, 0.3573767840862274, 0.18450218439102173, 0.137769415974617, 0.08368439227342606, -0.019032642245292664, 0.004067608620971441, 0.1902810037136078, -0.05350388213992119, 0.07423193752765656, 0.061999302357435226, -0.09980733692646027, 0.12768696248531342, 0.02954372763633728, -0.14508983492851257, 0.1321195363998413, 0.001761346124112606, -0.12023117393255234, 0.014006082899868488, -0.03286921605467796, 0.12684506177902222, -0.15850986540317535, -0.11537467688322067, -0.15655410289764404, 0.04370257258415222, -0.026613513007760048, 0.05157722532749176, 0.039971280843019485, 0.015352192334830761, 0.00945437140762806, 0.12896497547626495, 0.1981639564037323, 0.02438846416771412, 0.15623092651367188, -0.0921008437871933, -0.08157361298799515, -0.16163018345832825, 0.06005152687430382, 0.01666931062936783, 0.08596854656934738, -0.046208325773477554, -0.15024428069591522, 0.13722364604473114, -0.11801324039697647, 0.13048706948757172, 0.03940188139677048, 0.020135829225182533, -0.017697710543870926, 0.009463608264923096, -0.11686547100543976, -0.003913272172212601, -0.01018456369638443, 0.005671864841133356, 0.00831997487694025, 0.013729283586144447, 0.0014992441283538938, 0.06435951590538025, -0.07628510892391205, 0.014486858621239662, -0.05749281495809555, 0.05660294368863106, -0.02049664780497551, -0.0112947728484869, 0.07491741329431534, -0.056524716317653656, 0.02448633871972561, -0.008143062703311443, -0.018994173035025597, 0.0020072029437869787, -0.048460014164447784, -0.030905524268746376, 0.09081422537565231, 0.006305198185145855, 0.025234077125787735, 0.033931706100702286, -0.07484836131334305, -0.03245910629630089, -0.09603342413902283, -0.00665805209428072, -0.08796701580286026, -0.0553186759352684, -0.09069904685020447, 0.03276636824011803, 0.01733664609491825, 2.3431010246276855, -0.009227762930095196, 0.3243487477302551, 0.0246821790933609, -0.020772986114025116, 0.19756393134593964, 0.047235146164894104], [0.09827259927988052, 0.11647269874811172, 0.09517019242048264, -0.0435122475028038, -0.33125174045562744, -0.388361394405365, 0.05426233261823654, 0.025576317682862282, -0.03143264353275299, 0.02868514694273472, -0.02581625059247017, -0.02812957763671875, 0.03190416842699051, -0.05789177864789963, -0.330050528049469, -0.21758568286895752, 0.13862161338329315, 0.1176953911781311, 0.06049010902643204, 0.02627205103635788, -0.031136836856603622, 0.02715093083679676, -0.05549923703074455, 0.0031528491526842117, -0.027220498770475388, 0.04206487163901329, 0.15010204911231995, 0.08436113595962524, -0.01969013921916485, -0.025815080851316452, -0.009607566520571709, 0.013983691111207008, -0.036641113460063934, 0.026594657450914383, -0.02528674714267254, 0.07394776493310928, 0.017109351232647896, 0.06456481665372849, 0.10166572779417038, 0.0859229788184166, -0.04254428669810295, 0.009986328892409801, -0.006543575320392847, 0.03442011773586273, 0.02474880777299404, 0.026695339009165764, 0.04014396294951439, 0.054854802787303925, 0.09079385548830032, 0.008867436088621616, 0.033099088817834854, 0.028899427503347397, 0.04279233142733574, -0.012263525277376175, -0.015706848353147507, -0.01651698350906372, 0.024462036788463593, 0.06088685244321823, 0.039460208266973495, -0.03200170770287514, -0.0026725097559392452, 0.017688864842057228, 0.02190566062927246, -0.014830164611339569, -0.02404157444834709, -0.017497001215815544, 0.01571175828576088, 0.025633513927459717, 0.04973553866147995, -0.034973178058862686, -0.047905441373586655, -0.012436199933290482, 0.011687197722494602, 0.057997286319732666, 0.022524554282426834, -0.0280690249055624, 0.04576293006539345, 0.059073470532894135, -0.02715076133608818, 0.003711140714585781, -0.03610587492585182, 0.0014966509770601988, -0.07116295397281647, -0.07054106891155243, -0.029635250568389893, -0.022004129365086555, -0.028147364035248756, 0.029071446508169174, 0.07396893948316574, -0.008595861494541168, -0.0387871079146862, -0.03878743574023247, -0.08276451379060745, -0.06326426565647125, -0.05715823546051979, -0.028816720470786095, -0.03826582431793213, -0.03651510924100876, -0.01703568361699581, 0.04607807472348213, -0.03761040046811104, 0.045496974140405655, -0.0007462247158400714, -0.09062855690717697, 0.010756438598036766, -0.027184277772903442, 0.03857427090406418, -0.01570010557770729, -0.004341355990618467, 0.06875477731227875, 0.03527790307998657, 0.05820334702730179, 0.029888268560171127, -0.012843444012105465, 0.01460316963493824, -0.001030443119816482, -0.007982239127159119, 0.04431811720132828, -0.0027084380853921175, 0.07985879480838776, 0.010354988276958466, 0.028059855103492737, -0.039795882999897, 0.003214377909898758, -0.0695846825838089, -0.023897835984826088, -0.0255361869931221, 0.03663518279790878, 0.03111778385937214, 0.08488188683986664, 0.005653759930282831, -0.025064537301659584, -0.052221108227968216, 0.02040855959057808, -0.018681837245821953, 0.010319055989384651, -0.022132936865091324, -0.025622785091400146, 0.027218973264098167, 0.028194766491651535, -0.0608232282102108, 0.008913692086935043, -0.0381392166018486, -0.015767235308885574, 0.03264352306723595, -0.007596378680318594, -0.04476745054125786, 0.008479629643261433, -0.008608132600784302, -0.007310583256185055, -0.005862179212272167, -0.0005738046020269394, -0.022723345085978508, -0.04040805622935295, -0.04990837723016739, -0.08619625866413116, -0.028471767902374268, -0.010398232378065586, -0.010478494688868523, 0.006077385973185301, 0.04162757471203804, -0.02144525572657585, -0.025635577738285065, -0.0529545322060585, -0.08754654228687286, -0.09034920483827591, 0.03499341383576393, -0.03501461446285248, -0.015357153490185738, 0.044739119708538055, -0.003237114055082202, 0.01261840108782053, -0.08120041340589523, -0.06426877528429031, -0.05592966824769974, -0.024174155667424202, 0.03304684907197952, -0.022250643000006676, -0.02664211578667164, -0.03623257204890251, -0.05877199023962021, -0.010379127226769924, -0.0596393458545208, -0.041809044778347015, -0.09687517583370209, -0.05656197667121887, -0.04203702509403229, -0.07268102467060089, -0.02251449041068554, 0.04444199427962303, -0.05862825736403465, -0.06016422063112259, -0.02975294180214405, 0.00021232306607998908, 0.07384522259235382, 0.05906752124428749, 0.010258080437779427, 0.0348319448530674, 0.0057469881139695644, -0.11699036508798599, -0.27031928300857544, -0.047086212784051895, 0.05627534165978432, 0.1461045891046524, -0.27035605907440186, 0.024005528539419174, -0.0012589605757966638, -0.13847480714321136, 0.028046652674674988, -0.001058495487086475, 0.028092458844184875, 0.052476827055215836, 0.018736544996500015, 0.05940081924200058, 0.029933912679553032], [0.06948939710855484, 0.07018951326608658, -0.06930453330278397, -0.1660459190607071, -0.11504368484020233, 0.011490549892187119, 0.084954634308815, 0.061418335884809494, 0.06767376512289047, -0.06220822036266327, 0.02798735722899437, 0.03224063664674759, -0.04578564688563347, -0.13192330300807953, -0.16442669928073883, 0.0706317350268364, 0.08660204708576202, -0.045309893786907196, -0.025222713127732277, -0.09231926500797272, 0.022364448755979538, -0.008290044963359833, -0.08026616275310516, -0.19278377294540405, 0.14236819744110107, 0.11345501244068146, -0.0334923155605793, -0.053900111466646194, -0.07727327942848206, -0.05808338150382042, -0.02252267114818096, 0.026797596365213394, -0.06989035755395889, -0.13121283054351807, -0.05735467001795769, 0.16257640719413757, 0.0996868833899498, -0.028214851394295692, -0.002176778158172965, 0.033702999353408813, 0.10663120448589325, -0.05649696663022041, -0.06797464191913605, -0.00997939147055149, 0.06692183762788773, 0.23096369206905365, 0.21557360887527466, 0.08576838672161102, 0.08266915380954742, -0.01672344096004963, 0.035236284136772156, -0.0032996044028550386, 0.0148700550198555, -0.017735978588461876, 0.1634749174118042, 0.2523646056652069, 0.21014957129955292, 0.06890160590410233, 0.04763520509004593, 0.011333733797073364, -0.010225587524473667, 0.031989965587854385, -0.012601776979863644, -0.04064217954874039, 0.10350954532623291, 0.1707586646080017, 0.1149679571390152, -0.03229141607880592, 0.01762457564473152, 0.07972604036331177, 0.037692468613386154, 0.12914541363716125, -0.05633402243256569, -0.05224185436964035, 0.07541900128126144, 0.14633281528949738, 0.15151813626289368, 0.08619462698698044, 0.028395989909768105, -0.14694055914878845, 0.03490830212831497, 0.011992799118161201, -0.10464107245206833, -0.1003975197672844, 0.2350555956363678, 0.19274288415908813, 0.061766233295202255, 0.1563185602426529, -0.04385126754641533, -0.2585650384426117, 0.2696949243545532, 0.29427966475486755, -0.1799589842557907, -0.19890233874320984, 0.18027254939079285, 0.24766312539577484, -0.07360051572322845, -0.13264328241348267, -0.05475830286741257, -0.17751725018024445, -0.164652019739151, -0.09464268386363983, -0.35168081521987915, 0.0234296265989542, -0.27288490533828735, -0.26992738246917725, -0.18183591961860657, -0.12106948345899582, -0.07517313212156296, 0.18395382165908813, 0.21149800717830658, 0.08906248956918716, 0.36730754375457764, -0.32228827476501465, 0.07535498589277267, -0.014626705087721348, -0.31919437646865845, -0.0068916152231395245, 0.27200621366500854, 0.002401878358796239, -0.14891543984413147, 0.35428765416145325, -0.27448922395706177, -0.032910872250795364, -0.01279471255838871, 0.08729088306427002, -0.053317077457904816, 0.14097972214221954, 0.06642109900712967, -0.1257282942533493, 0.08610512316226959, -0.18168814480304718, -0.10564804822206497, -0.3344379961490631, 0.3001170754432678, -0.01266157440841198, 0.0037734981160610914, -0.1715105026960373, -0.03861390799283981, -0.15370208024978638, 0.06560806930065155, -0.23401710391044617, 0.0031841895543038845, -0.12171649187803268, 0.12681666016578674, -0.024579685181379318, 0.24608445167541504, -0.17696943879127502, 0.14282342791557312, 0.22777098417282104, -0.03842493146657944, 0.08261965215206146, 0.08939722180366516, -0.039284780621528625, 0.03822389617562294, -0.08463902771472931, -0.026301881298422813, 0.09407856315374374, -0.10259441286325455, -0.2635550796985626, 0.0492410808801651, -0.02793923020362854, -0.07996484637260437, 0.02597646601498127, -0.03255786746740341, -0.0529971644282341, -0.009504487738013268, 0.0031672799959778786, -0.01669498346745968, -0.065231554210186, -0.030219215899705887, -0.10465387254953384, 0.05257133021950722, 0.022663386538624763, 0.032111771404743195, 0.002426687628030777, 0.09078715741634369, -0.055556606501340866, -0.075494684278965, 0.042170435190200806, -0.017895594239234924, 0.06513410061597824, 0.0998176783323288, -0.016341108828783035, -0.06924011558294296, -0.029142161831259727, 0.07796037942171097, -0.15193164348602295, -0.09976312518119812, 0.09482768923044205, 0.014768085442483425, 0.028945930302143097, 0.028549445793032646, 0.0733196958899498, -0.018673909828066826, 0.12140265107154846, 0.020648052915930748, 0.06113603338599205, -0.037215374410152435, 0.029662348330020905, 0.023890741169452667, -0.03701147064566612, -0.09071489423513412, -0.001455382676795125, -0.08890430629253387, -0.07847575098276138, -0.18285992741584778, -0.05254450812935829, 1.7129632234573364, 0.017464129254221916, 0.24296154081821442, -0.06279496103525162, 0.013058298267424107, -0.008051462471485138, 0.029647057875990868], [0.018173232674598694, -0.05372808501124382, 0.10599473118782043, 0.11247355490922928, -0.11817013472318649, -0.05033230781555176, -0.0054518538527190685, 0.0174008347094059, -0.0018965029157698154, 0.07935269176959991, 0.11760963499546051, 0.045187756419181824, 0.13144688308238983, 0.07107708603143692, -0.24236439168453217, -0.0724325180053711, -0.17877039313316345, 0.05292211100459099, 0.055188413709402084, -0.007198890671133995, 0.014791972003877163, 0.02642033062875271, 0.13936133682727814, 0.12871786952018738, 0.05775609239935875, -0.03143882006406784, -0.07440179586410522, 0.06238866224884987, 0.0900343805551529, 0.07914015650749207, 0.15410058200359344, 0.10225148499011993, 0.06889013946056366, -0.003177021164447069, 0.13838253915309906, 0.03415726497769356, 0.0027063412126153708, 0.13233689963817596, 0.08342242985963821, 0.06966319680213928, 0.05827005207538605, 0.09797044843435287, 0.03389165177941322, 0.07016513496637344, -0.0483211986720562, -0.019157031551003456, 0.028311200439929962, -0.038496293127536774, 0.12695913016796112, 0.22449176013469696, 0.03639289364218712, 0.004382336977869272, -0.001672860118560493, 0.056741319596767426, -0.0037127372343093157, -0.11401940882205963, -0.01749519631266594, 0.06394166499376297, -0.007716902066022158, -0.013154273852705956, 0.048083774745464325, 0.04666191712021828, 0.017725668847560883, 0.08660239726305008, 0.03304627165198326, 0.03958547115325928, -0.11882181465625763, 0.03573736920952797, -0.020638223737478256, 0.04721552133560181, 0.1233346164226532, -0.022097686305642128, -0.0052704825066030025, -0.006051511503756046, -0.014003553427755833, -0.004091623704880476, -0.046633943915367126, -0.054144181311130524, -0.007372032850980759, -0.1617979109287262, 0.08852650970220566, 0.14164963364601135, -0.19542665779590607, 0.10983265191316605, 0.025356760248541832, 0.09712813794612885, -0.2985832691192627, 0.0015374262584373355, -0.1410910040140152, 0.06591092050075531, -0.09939436614513397, 0.14923883974552155, -0.017465312033891678, 0.15402422845363617, 0.15005072951316833, -0.10270337015390396, -0.2270849198102951, 0.22389936447143555, 0.025725260376930237, -0.03475268930196762, -0.233994722366333, 0.16780579090118408, 0.015107899904251099, 0.3645446002483368, 0.06445953994989395, -0.05560319498181343, 0.12511593103408813, -0.3153274953365326, 0.06300527602434158, 0.17954322695732117, 0.11928404122591019, 0.08807727694511414, -0.17060837149620056, -0.23080231249332428, 0.15477409958839417, 0.1733432561159134, 0.04808291420340538, -0.3168726861476898, -0.1505545675754547, 0.03210799768567085, 0.009786514565348625, -0.1155681163072586, 0.04136379808187485, 0.08652720600366592, -0.1013568565249443, -0.07834306359291077, 0.04012651741504669, -0.03831053152680397, -0.011540687642991543, 0.008033634163439274, 0.10851139575242996, -0.057065144181251526, -0.03470923379063606, -0.12932194769382477, 0.12206318974494934, -0.11423445492982864, 0.05624441057443619, -0.012187724933028221, 0.12979872524738312, -0.06015545129776001, -0.044651925563812256, 0.04791761562228203, 0.06368926167488098, 0.03442037105560303, 0.13688696920871735, -0.08330922573804855, 0.06550297886133194, -0.022541414946317673, -0.09340894222259521, -0.016256850212812424, 0.009400887414813042, 0.12798534333705902, 0.07011716067790985, -0.050771500915288925, -0.05374905839562416, -0.031419288367033005, -0.002870268188416958, -0.08474287390708923, 0.015073585323989391, 0.05087714269757271, -0.05794559791684151, -0.12106409668922424, -0.07906664162874222, -0.04211239889264107, 0.03988135606050491, 0.03381599485874176, 0.06496669352054596, 0.11524002999067307, 0.08926071971654892, -0.025135517120361328, 0.05240023508667946, -0.006118481513112783, 0.028039103373885155, 0.036701750010252, 0.01284186914563179, -0.014948087744414806, 0.06978357583284378, -0.13457170128822327, -0.060081418603658676, -0.1202569305896759, 0.028823884204030037, 0.012715076096355915, -0.019095564261078835, 0.004357247147709131, -0.0033012155909091234, -0.06516560167074203, 0.05708518996834755, -0.009235406294465065, 0.09004322439432144, -0.0053884536027908325, 0.05252252146601677, -0.05091492831707001, 0.010298489592969418, -0.018902940675616264, -0.059869434684515, 0.03892182931303978, 0.04917994514107704, 0.04211558401584625, -0.048018213361501694, -0.006163519807159901, -0.34523433446884155, -0.0791686475276947, -0.13205619156360626, -0.011286824941635132, -0.07060938328504562, -0.04611595347523689, -0.00479609239846468, -0.08749134093523026, 0.7868230938911438, -0.022537583485245705, 0.13462358713150024, 0.7348509430885315, 0.03274444118142128, 3.9432690143585205, 0.040601931512355804], [0.07361561805009842, 0.04045123606920242, 0.08163627982139587, -0.05431709811091423, 0.006235951092094183, -0.05895601585507393, 0.03256635367870331, -0.17857135832309723, -0.0872066393494606, -0.028036147356033325, 0.05280495434999466, 0.10494276881217957, 0.0012005605967715383, 0.016493583098053932, 0.23050136864185333, -0.4434487223625183, -0.011814789846539497, -0.03154583275318146, 0.005934366025030613, 0.029507184401154518, 0.042015232145786285, 2.563342968642246e-05, -0.16141940653324127, 0.07864460349082947, 0.15840253233909607, -0.15314100682735443, 0.09191115945577621, 0.14498402178287506, -0.03499253839254379, 0.036705367267131805, 0.04349202290177345, 0.006725924089550972, -0.08373500406742096, -0.08527377992868423, 0.059259653091430664, -0.021182050928473473, 0.033287081867456436, 0.09958828240633011, 0.027573835104703903, -0.004700670018792152, 0.007118686102330685, -0.15893888473510742, -0.043515149503946304, 0.04101567342877388, 0.05390837416052818, -0.05750204995274544, -0.09194678068161011, -0.06332984566688538, 0.0296630859375, -0.07570575922727585, 0.0678505077958107, 0.018185067921876907, 0.059518907219171524, 0.046435993164777756, 0.0833180621266365, -0.05874817818403244, -0.1014508605003357, 0.053760845214128494, 0.023048099130392075, -0.11621163785457611, 0.0022345080506056547, 0.023235872387886047, -0.11008796095848083, -0.04174985736608505, 0.009151440113782883, -0.04111473262310028, -0.07326270639896393, 0.026086539030075073, -0.00787037517875433, -0.01122718583792448, 0.008943237364292145, 0.07747172564268112, -0.011716887354850769, 0.02795681729912758, 0.080697201192379, -0.03374124690890312, -0.07439085096120834, -0.06588081270456314, -0.08083753287792206, 0.011296241544187069, 0.0454743430018425, 0.04210676997900009, 0.0009833838557824492, -0.028729461133480072, 0.04330457001924515, 0.05276980623602867, -0.015291480347514153, -0.10042036324739456, 0.031488168984651566, -0.030785435810685158, -0.15498825907707214, -0.012803209945559502, 0.02165677770972252, -0.04792318120598793, 0.08835550397634506, -0.02546662464737892, -0.06258752197027206, 0.12618647515773773, -0.12014001607894897, -0.11089116334915161, 0.028002716600894928, -0.11641465872526169, 0.0014803294325247407, -0.03201419860124588, -0.017949074506759644, 0.13261522352695465, -0.019669299945235252, 0.06572666764259338, -0.046979427337646484, 0.17020189762115479, -0.027254579588770866, 0.02697145938873291, 0.0809970423579216, 0.04388540983200073, 0.026149816811084747, -0.15925171971321106, 0.1291060745716095, -0.01313492376357317, 0.2148730754852295, -0.24913202226161957, 0.02979367971420288, 0.09937815368175507, 0.10146065801382065, -0.20251914858818054, -0.10099901258945465, -0.02584650181233883, -0.036333244293928146, -0.1868959367275238, -0.000325013737892732, -0.09604910016059875, 0.18127071857452393, 0.004960550460964441, 0.12092186510562897, 0.002955050440505147, 0.0772363692522049, 0.2190435230731964, -0.3106629550457001, 0.005310561042279005, 0.15427319705486298, -0.01672934554517269, -0.18121501803398132, -0.0956810936331749, -0.10721292346715927, 0.18554353713989258, -0.0025347399059683084, -0.07759176194667816, 0.10584691911935806, 0.1444394588470459, 0.05003529414534569, -0.06579743325710297, 0.12634983658790588, -0.005715053062886, -0.011176330968737602, -0.10773734748363495, 0.04609129577875137, -0.02758658304810524, 0.01849079132080078, -0.0010249566985294223, -0.05587528273463249, 0.09319838136434555, -0.0019245845032855868, 0.000923886604141444, 0.13367530703544617, -0.06385008245706558, 0.16115835309028625, 0.0680660828948021, -0.03792612999677658, 0.031621143221855164, -0.08751338720321655, 0.0745081678032875, 0.019959919154644012, -0.006052328273653984, -0.03559964522719383, 0.007659848313778639, -0.06060362607240677, -0.0488649420440197, 0.01268197875469923, -0.013217083178460598, -0.06402994692325592, -0.014167684130370617, -0.07455280423164368, 0.057706836611032486, 0.024718450382351875, -0.019160600379109383, 0.048223838210105896, -0.06849037110805511, 0.07628089934587479, -0.041632480919361115, -0.03261798247694969, 0.004266312811523676, 0.09825517982244492, 0.0017370866844430566, 0.11254604905843735, 0.0057354639284312725, -0.08035590499639511, -0.026643667370080948, -0.013196811079978943, -0.03905463218688965, -0.013399096205830574, 0.10183625668287277, -0.227403923869133, -0.08763986825942993, -0.1261092573404312, -0.06712126731872559, -0.0880124419927597, -0.12383846938610077, -0.10489275306463242, 0.062069084495306015, 0.3943118155002594, -0.1251765489578247, 0.1241624504327774, -0.1081022173166275, -0.01761687733232975, 1.39072847366333, -0.02887389436364174], [-0.0010640511754900217, -0.015000051818788052, -0.0038453852757811546, -0.03014359623193741, 0.04137571156024933, -0.01655561663210392, 0.0338062047958374, 0.048584360629320145, -0.009584826417267323, -0.049017999321222305, 0.01194058172404766, -0.019609864801168442, -0.009392378851771355, -0.019695153459906578, -0.008238272741436958, -0.010372422635555267, -0.01116678211838007, -0.046661376953125, -0.002099007600918412, -0.034073587507009506, -0.020237933844327927, -0.05303847789764404, -0.008924123831093311, 0.01802423782646656, 0.0575454905629158, 0.04782335087656975, -0.026161013171076775, 0.022363044321537018, -0.013421309180557728, 0.030834605917334557, -0.005949561949819326, -0.02055520936846733, -0.009549679234623909, 0.000976552430074662, 0.037387412041425705, 0.03422985225915909, 0.012089881114661694, 0.027944857254624367, -0.006423258688300848, -0.013553762808442116, 0.03747180104255676, 0.0015097756404429674, 0.0123299490660429, -0.032959479838609695, -0.007315230555832386, 0.018675735220313072, -0.01949833147227764, -0.017904797568917274, -0.023858988657593727, -0.05377793684601784, 0.06845148652791977, -0.04444747045636177, 0.01197179313749075, -0.01516291406005621, -0.00395230995491147, -0.012489051558077335, 0.04715314507484436, 0.04476692155003548, 0.01226507592946291, -0.06257738173007965, 0.018647288903594017, -0.03847541660070419, -0.05933298543095589, 0.008950430899858475, 0.01154698058962822, -0.0168753694742918, -0.010628788731992245, -0.014983898028731346, 0.026545114815235138, 0.03513060137629509, -0.006650418974459171, -0.04413274675607681, 0.006353024858981371, -0.04295378178358078, -0.034876953810453415, -0.03477935492992401, 0.04796914383769035, -2.995382783410605e-05, -0.04379625618457794, 0.035882871598005295, 0.059733740985393524, -0.050954680889844894, -0.03065810725092888, -0.033243291079998016, -0.04633826017379761, -0.002103334991261363, 0.010213143192231655, -0.007042472716420889, 0.032237421721220016, -0.05845190957188606, -0.05782921612262726, -0.026664478704333305, -0.02991601452231407, -0.01982876844704151, 0.011191773228347301, -0.07028777152299881, 0.03976473957300186, 0.012347906827926636, 0.00346185639500618, 0.009351924061775208, -0.06584452837705612, 0.033899031579494476, 0.028279827907681465, -0.09011337161064148, -0.10532516986131668, -0.07413627207279205, -0.0908200666308403, -0.05243237689137459, 0.021098164841532707, -0.037483569234609604, -0.19583573937416077, -0.16922198235988617, 0.052808649837970734, -0.030033307150006294, -0.022926723584532738, 0.032532721757888794, -0.10801397264003754, 0.10193196684122086, 0.016246426850557327, -0.10233302414417267, 0.07023309916257858, -0.389725923538208, 0.02306511066854, -0.025195814669132233, -0.05151082202792168, 0.04393242299556732, -0.12783220410346985, -0.16877791285514832, -0.17716464400291443, 0.02423570118844509, 0.11068893224000931, 0.06474391371011734, 0.08994840830564499, 0.22330676019191742, -0.025951554998755455, 0.1041848286986351, 0.11919979751110077, 0.01498076505959034, 0.07092385739088058, 0.03798983618617058, 0.03410350903868675, 0.10499263554811478, -0.015805097296833992, -0.047588422894477844, 0.0624530203640461, 0.04190683737397194, 0.06814201921224594, 0.14045028388500214, 0.04049692302942276, 0.04924613609910011, 0.05727121978998184, 0.045719508081674576, -0.08297126740217209, 0.06126317381858826, 0.08248933404684067, 0.023079441860318184, 0.042714476585388184, 0.13636437058448792, 0.07132470607757568, 0.11533768475055695, -0.031535554677248, -0.025157826021313667, 0.06403925269842148, 0.07152246683835983, -0.008298584260046482, 0.027502330020070076, 0.05130567401647568, 0.04363241419196129, 0.01197801809757948, 0.12319885939359665, 0.04271092638373375, -0.051700785756111145, 0.057369936257600784, 0.040264517068862915, -0.03891177102923393, -0.0061473841778934, 0.003275135764852166, 0.039229363203048706, 0.020832328125834465, 0.0025845011696219444, 0.03020087070763111, 0.037349771708250046, -0.08793085813522339, -0.022929809987545013, 0.03933147341012955, -0.014141504652798176, 0.003399580018594861, 0.012358373031020164, 0.02184872142970562, -0.1160469502210617, -0.09685655683279037, -0.033638179302215576, 0.09074441343545914, 0.007558756973594427, -0.015182804316282272, -0.05549000948667526, -0.026675183326005936, -0.026072390377521515, 0.04020880535244942, -0.07760243862867355, 0.021193822845816612, -0.02860383503139019, -0.0226320531219244, -0.09836024045944214, 0.006790252402424812, -0.05298442766070366, 0.10030051320791245, -0.05278496444225311, 0.7552604079246521, 0.10596063733100891, 0.25308194756507874, 0.14544972777366638, 0.030434146523475647, 0.6676732301712036, -0.02229904569685459], [0.040363047271966934, -9.328431042376906e-05, -0.1522502601146698, -0.006008343771100044, 0.05821297690272331, -0.03197799623012543, 0.021042637526988983, 0.07571662217378616, 0.0025342584121972322, -0.03739233687520027, -0.014480230398476124, -0.01428458746522665, -0.052078381180763245, -0.050102610141038895, -0.0463692769408226, -0.033386703580617905, -0.0406530424952507, -0.03588635474443436, -0.03633125126361847, 0.020312171429395676, -0.022427476942539215, -0.07807040214538574, -0.026978284120559692, -0.036381881684064865, 0.04721126705408096, 0.027605347335338593, -0.008667471818625927, 0.024297267198562622, 0.025845829397439957, 0.028356514871120453, 0.015604512766003609, -0.016391515731811523, -0.02487528696656227, -0.026306789368391037, -0.005026250146329403, -0.024062005802989006, -0.05968309938907623, -0.030446337535977364, -0.002719331532716751, -0.007975240238010883, 0.02688867785036564, -0.015823030844330788, -0.00889117643237114, -0.019700324162840843, 0.02043561078608036, 0.011670934967696667, -0.04470445588231087, -0.06419964134693146, -0.03549293801188469, 0.02936629392206669, 0.01999405026435852, 0.008344746194779873, 0.0105140944942832, 0.02544977143406868, 0.0038260400760918856, 0.055394988507032394, -0.043057143688201904, 0.004979151301085949, 0.015895327553153038, 0.009592536836862564, 0.08552812039852142, -0.014463740400969982, 0.0291669350117445, 0.0312464851886034, 0.012166551314294338, 0.05448906123638153, -0.022961657494306564, -0.04582792893052101, 