{"type": "afterstate-value-mlp", "version": 1, "inputSize": 215, "layers": [{"weight": [[-0.0034604466054588556, -0.0261982548981905, -0.07110796123743057, -0.007430226542055607, 0.058692026883363724, -0.0777067095041275, -0.020170878618955612, -0.0007533582393079996, 0.024193592369556427, 0.03066263347864151, -0.05277964100241661, -0.07071197032928467, -0.009691230952739716, 0.1195431500673294, -0.010874141938984394, -0.051301199942827225, 0.01853027567267418, -0.034070905297994614, -0.07896199077367783, -0.028937438502907753, -0.035510096698999405, -0.08224818110466003, -0.02201918326318264, 0.03354093059897423, -0.04996057599782944, -0.0993228480219841, -0.09010914713144302, 0.020924091339111328, 0.004306952469050884, 0.04309552535414696, -0.07743439078330994, -0.023971157148480415, -0.033080123364925385, 0.03278616443276405, -0.05476130545139313, -0.07724427431821823, 0.01094802562147379, 0.017447592690587044, 0.10715800523757935, 0.09127026051282883, -0.08765167742967606, -0.1467290073633194, 0.06067540869116783, 0.11760371178388596, 0.007680831011384726, -0.0418500117957592, -0.03694722428917885, -6.790499173803255e-05, 0.09976334869861603, 0.09858695417642593, 0.21958044171333313, -0.09023929387331009, -0.08187871426343918, 0.11309075355529785, -0.022051487118005753, -0.05992388725280762, 0.09857311099767685, 0.07550793141126633, 0.025639263913035393, 0.005847835913300514, -0.1608252078294754, -0.20306496322155, 0.05788803473114967, -0.1046876460313797, -0.14908595383167267, -0.10215649753808975, 0.13687707483768463, 0.1310897022485733, -0.13103733956813812, 0.16636280715465546, -0.1484592705965042, 0.08155637234449387, 0.34477534890174866, 0.1390002965927124, 0.10310985893011093, 0.2364795058965683, 0.06809096038341522, 0.1585235893726349, -0.21544943749904633, -0.1564445197582245, 0.013255173340439796, -0.18036867678165436, -0.0349055640399456, 0.14222100377082825, 0.05571216344833374, 0.0942123681306839, -0.05812447518110275, 0.13614380359649658, -0.0436871238052845, -0.13624128699302673, -0.03068649396300316, -0.1361275017261505, -0.23036029934883118, -0.18804936110973358, 0.05058005824685097, 0.004064803943037987, 0.3333331346511841, -0.030357716605067253, -0.10265224426984787, 0.04951819032430649, -0.09423640370368958, -0.08712008595466614, -0.11563235521316528, -0.01866072788834572, 0.11268433183431625, 0.08965481072664261, 0.15625816583633423, 0.13840942084789276, 0.048027850687503815, -0.0821702778339386, -0.001981459790840745, -0.14194154739379883, -0.3634721636772156, -0.1949455291032791, 0.05516882613301277, 0.05423824489116669, 0.01498565822839737, 0.08595938980579376, -0.05645451694726944, -0.07748622447252274, -0.017187725752592087, 0.052471280097961426, -0.25995227694511414, -0.09928826987743378, 0.06385230273008347, 0.12264346331357956, 0.17407049238681793, 0.18059146404266357, -0.06834762543439865, -0.0259126964956522, -0.05032459273934364, -0.1646743267774582, -0.22767987847328186, -0.13161157071590424, -0.016702786087989807, 0.25496259331703186, 0.1347174048423767, 0.15763011574745178, -0.02437409572303295, -0.06190114840865135, -0.2184998244047165, -0.23302775621414185, -0.2562198042869568, -0.1662645787000656, -0.05973346158862114, 0.0019566251430660486, 0.09175018966197968, 0.023213913664221764, -0.10799766331911087, -0.012229876592755318, 0.041981738060712814, 0.0384615994989872, -0.13134169578552246, -0.10893469303846359, 0.06365581601858139, 0.16796831786632538, 0.033457331359386444, 0.022583656013011932, 0.03533193841576576, 0.01570434868335724, 0.18052628636360168, 0.0027002522256225348, -0.017789622768759727, 0.03889311105012894, 0.003190454561263323, -0.013746088370680809, 0.04805418476462364, 0.03447689116001129, 0.09768029302358627, 0.0446014329791069, 0.07099000364542007, 0.012966998852789402, 0.061234116554260254, 0.07783246785402298, -0.08945909887552261, 0.04207084700465202, 0.006405323278158903, 0.050453685224056244, -0.06619265675544739, -0.06772306561470032, -0.05680975690484047, 0.11487169563770294, 0.004628949798643589, 0.014483693055808544, -0.08120527118444443, 0.05907886475324631, -0.016736820340156555, 0.00026399927446618676, -0.04501664265990257, 0.00934054795652628, -0.0006560874171555042, 0.03543338179588318, 0.014309357851743698, -0.0035731052048504353, -0.037044573575258255, 0.005227364134043455, 0.008657869882881641, 0.17012763023376465, 0.07903023064136505, 0.00369043811224401, 0.04987955838441849, 0.1623665690422058, 0.10300334542989731, 0.20254038274288177, 0.13560375571250916, 0.19031943380832672, 0.1662255972623825, -0.23463067412376404, -0.37556228041648865, 0.11509089916944504, -0.009527403861284256, 0.010404899716377258, -0.00444792490452528, -0.2985018789768219, 0.014319702051579952], [-0.02152390405535698, -0.033956415951251984, -0.10211662948131561, -0.04366680234670639, 0.003585932543501258, -0.1577782928943634, 0.0641874298453331, 0.024453116580843925, 0.03159099444746971, 0.017211245372891426, 0.02558404766023159, -0.03905798867344856, -0.09848709404468536, -0.13096226751804352, -0.32881706953048706, -0.3711133599281311, -0.22363945841789246, -0.09119657427072525, -0.04301121085882187, 0.05339624360203743, 0.005788516718894243, -0.019486187025904655, -0.08773674070835114, -0.25440746545791626, -0.11553693562746048, -0.09899752587080002, -0.10149481892585754, -0.010462131351232529, -0.007605283986777067, 0.1248781830072403, -0.0871565118432045, -0.11148887872695923, -0.2182874232530594, -0.2203443944454193, -0.15666629374027252, -0.20322053134441376, -0.1922571212053299, -0.027049394324421883, -0.19127537310123444, 0.07035904377698898, 0.06175779923796654, -0.21397319436073303, -0.20637699961662292, -0.3191966414451599, -0.00781296007335186, -0.39243650436401367, -0.04811154305934906, -0.03729277849197388, -0.20843878388404846, 0.14693208038806915, -0.029033994302153587, 0.035979095846414566, -0.1568971872329712, -0.22963592410087585, -0.08845385909080505, -0.47975626587867737, -0.031620047986507416, -0.048633873462677, -0.127186581492424, -0.08368024975061417, -0.04754522442817688, 0.20233458280563354, -0.08146290481090546, -0.006230038125067949, 0.21237069368362427, -0.1032491996884346, 0.04001417011022568, 0.2719554603099823, -0.10825474560260773, 0.02364967204630375, 0.12212996929883957, 0.08408588171005249, -0.029001494869589806, -0.17994138598442078, 0.07839938998222351, -0.17952963709831238, -0.10955314338207245, 0.1138223186135292, -0.0033405304420739412, -0.12198759615421295, 0.1052771806716919, -0.05885986238718033, 0.04296325892210007, -0.09140090644359589, 0.006105261389166117, -0.0627882108092308, -0.07740960270166397, 0.14074863493442535, 0.13497976958751678, 0.05359833687543869, -0.05968289449810982, 0.01825186051428318, 0.12466796487569809, 0.04390057176351547, -0.12673673033714294, 0.06220708042383194, -0.0013312374940142035, -0.06905078887939453, -0.01387948077172041, -0.1713222861289978, -0.10891029983758926, -0.023370686918497086, -0.20240342617034912, 0.017467375844717026, 0.031957171857357025, 0.013805191963911057, -0.03825720399618149, 0.0072615062817931175, -0.033605124801397324, 0.06854373216629028, -0.004494317341595888, 0.06182399019598961, -0.019280152395367622, -0.05784103274345398, -0.01485435850918293, -0.023834841325879097, 0.06343188881874084, 0.04721656069159508, -0.005054872017353773, -0.10188160091638565, -0.11758530139923096, 0.13534054160118103, -0.01386470440775156, 0.06069006398320198, -0.020360231399536133, -0.17832769453525543, -0.06533583998680115, 0.08883260935544968, 0.062241651117801666, 0.00479884585365653, -0.0749208927154541, 0.013684126548469067, 0.08263934403657913, -0.045657768845558167, 0.045132532715797424, 0.01072082668542862, -0.03450240194797516, -0.025021009147167206, 0.08989892154932022, -0.08738988637924194, -0.14166371524333954, -0.10954601317644119, 0.05581507831811905, 0.07803841680288315, 0.04122449830174446, -0.02669610269367695, 0.014277608133852482, 0.02712712436914444, 0.08879027515649796, -0.20358452200889587, -0.06903358548879623, 0.0040501924231648445, 0.05409415438771248, 0.11269745230674744, -0.006990863010287285, 0.023812001571059227, -0.029304007068276405, -0.07708874344825745, 0.11785471439361572, 0.04360540956258774, -0.14953918755054474, -0.02620954066514969, 0.11494795978069305, 0.062379248440265656, -0.1342381238937378, 0.062329065054655075, 0.04909152537584305, 0.14942730963230133, 0.004137254785746336, -0.0567668117582798, 0.009664385579526424, -0.15176960825920105, 0.032507333904504776, 0.08612289279699326, 0.0017030719900503755, 0.07017166912555695, -0.006874582264572382, 0.12778452038764954, -0.023100843653082848, 0.049526479095220566, -0.15046153962612152, 0.01747230626642704, 0.013425789773464203, -0.0452800989151001, 0.036368612200021744, -0.004097557161003351, -0.015651250258088112, -0.0933322086930275, -0.1038120836019516, -0.002159044612199068, -0.04124820977449417, 0.021178921684622765, -0.06111579388380051, 0.019661083817481995, 0.04741179570555687, -0.02010883204638958, -0.016338173300027847, -0.09178183972835541, -0.0815252959728241, 0.04117630049586296, -0.04629460349678993, -0.0401754155755043, 0.025701945647597313, -0.06387721747159958, -0.044718001037836075, -0.03290928155183792, 0.027598140761256218, -0.039425622671842575, 1.842667579650879, 0.10430942475795746, 0.18539054691791534, -0.03389623016119003, 0.01229329127818346, -2.1203150749206543, -0.00465762335807085], [-0.009930446743965149, 0.08327963948249817, 0.1927395612001419, -0.006444939412176609, 0.050526101142168045, -0.06022794172167778, -0.1031593605875969, -0.07206705212593079, -0.04606252163648605, 0.007037381641566753, 0.042896755039691925, 0.0338708870112896, 0.30327481031417847, -0.01449000183492899, -0.17852900922298431, 0.07146958261728287, 0.02231511101126671, -0.018479689955711365, -0.12119156867265701, -0.004729429259896278, -0.00707895727828145, 0.11222375184297562, 0.06288941949605942, 0.06197714805603027, -0.22214511036872864, 0.047367312014102936, 0.08776780962944031, -0.04923315346240997, -0.08438849449157715, -0.03399338200688362, 0.023572217673063278, 0.05074351653456688, -0.012075641192495823, -0.03845289349555969, -0.05572879686951637, -0.011408187448978424, -0.1444365531206131, 0.06164627522230148, 0.02178349159657955, 0.00776441115885973, 0.03821063041687012, -0.21831732988357544, -0.1145365983247757, -0.18783415853977203, -0.007548230700194836, 0.08984588831663132, -0.023859048262238503, -0.07932431995868683, 0.08750226348638535, 0.24019238352775574, 0.2547561824321747, 0.16991877555847168, -0.17209592461585999, -0.20629239082336426, -0.10310829430818558, -0.09007010608911514, -0.1792779117822647, -0.05998459458351135, 0.1287749856710434, 0.25162485241889954, 0.0891069769859314, 0.17655600607395172, 0.021406522020697594, -0.13508754968643188, -0.04478136822581291, -0.2959960401058197, -0.2845185697078705, -0.07785296440124512, -0.0003830829227808863, 0.09026579558849335, 0.07911310344934464, 0.12952254712581635, 0.031253937631845474, -0.19254973530769348, -0.4718279540538788, 0.0224309042096138, 0.02927648089826107, 0.22548264265060425, 0.006371265277266502, 0.029512137174606323, 0.04492878168821335, -0.06970594823360443, -0.08208868652582169, -0.04802820831537247, -0.13609163463115692, -0.08070218563079834, -0.09588859975337982, 0.0023786129895597696, 0.18039089441299438, 0.028446484357118607, 0.06921545416116714, 0.08497072011232376, 0.03419196605682373, 0.012573666870594025, 0.0570543073117733, -0.01573559083044529, 0.11947482824325562, 0.1191413477063179, 0.012601940892636776, 0.07916568219661713, 0.13591545820236206, 0.14894725382328033, -0.02929714135825634, 0.04423743486404419, -0.1265409141778946, -0.07847601175308228, 0.017098907381296158, -0.029758334159851074, 0.02757442183792591, -0.019636157900094986, 0.18054574728012085, 0.11836966872215271, 0.08039280772209167, -0.05205296725034714, -0.12897169589996338, -0.005542200058698654, -0.09686239808797836, 0.06885767728090286, -0.03032674640417099, -0.05481193959712982, 0.08844712376594543, 0.005956790875643492, -0.09491101652383804, -0.12193164229393005, -0.12586472928524017, -0.03054415062069893, -0.16162046790122986, 0.044658396393060684, 0.05618483945727348, -0.10459417849779129, 0.11896971613168716, 0.06334995478391647, 0.04973232001066208, -0.006514988839626312, 0.04693752899765968, -0.003888311330229044, -0.09364040195941925, 0.06512097269296646, 0.07285342365503311, -0.01250524539500475, 0.013362034223973751, -0.04123946651816368, -0.0017046938883140683, -0.059016577899456024, -0.06539496779441833, 0.023746885359287262, 0.13270309567451477, 0.006671955343335867, 0.1707642674446106, -0.026939408853650093, -0.0027236638125032187, -0.012713971547782421, -0.08545922487974167, -0.0915377140045166, -0.06919843703508377, -0.0828503966331482, 0.03313794732093811, -0.10883454233407974, 0.06277177482843399, 0.00732014374807477, -0.01840042509138584, -0.11315233260393143, -0.0782778263092041, -0.09458683431148529, -0.04082416743040085, -0.060497116297483444, 0.005677459295839071, -0.0459614135324955, -0.0377734899520874, 0.0495174303650856, -0.026409287005662918, 0.03986102342605591, -0.006473687943071127, -0.04656607285141945, 0.025841224938631058, 0.08085525780916214, -0.043171897530555725, 0.07535368204116821, 0.044656578451395035, 0.1833200603723526, -0.02186368778347969, -0.011874650605022907, -0.056330762803554535, 0.03618801757693291, -0.06465587764978409, 0.14069032669067383, 0.051081474870443344, 0.03465638309717178, 0.04926358163356781, -0.015692472457885742, 0.0034418783616274595, 0.03339662775397301, 0.02990359254181385, -0.10928256809711456, 0.031887419521808624, -0.12049353122711182, 0.10557707399129868, 0.07811848819255829, 0.0625365749001503, -0.010760709643363953, 0.000802079972345382, 0.08880899101495743, 0.03687082231044769, 0.11194586753845215, 0.16369764506816864, 0.08371731638908386, 0.14985793828964233, 0.026258215308189392, -1.5797059535980225, 0.014729101210832596, -0.19751310348510742, -0.472589910030365, -0.008925260975956917, -1.0648024082183838, -0.00854452047497034], [0.010051224380731583, 0.040960658341646194, -0.026840591803193092, -0.05938000977039337, -0.07304805517196655, 0.10430434346199036, -0.05845879390835762, -0.010712474584579468, -0.08857036381959915, -0.007960322313010693, -0.06742696464061737, -0.01205172948539257, -0.11092924326658249, -0.1475050002336502, -0.2740857005119324, -0.03568810969591141, -0.10732777416706085, -0.13959570229053497, -0.023976003751158714, -0.1163824126124382, -0.0778326764702797, 0.018320560455322266, -0.04659596085548401, -0.11170707643032074, -0.2073453962802887, -0.08763263374567032, -0.015660351142287254, -0.021051520481705666, 0.04454486072063446, 0.09605304151773453, 0.0012514604022726417, 0.012308227829635143, 0.021056286990642548, -0.0920167937874794, -0.15842431783676147, -0.1444339156150818, 0.0184051301330328, -0.033138882368803024, 0.046642325818538666, 0.048354487866163254, -0.10714089870452881, -0.04790828004479408, 0.08151517808437347, -0.22147288918495178, -0.19690430164337158, -0.06904042512178421, 0.07236027717590332, -0.0886114239692688, -0.08783888071775436, -0.0743720680475235, -0.05269365385174751, -0.07081463187932968, -0.035090360790491104, -0.17577283084392548, -0.07871149480342865, -0.04472208023071289, 0.03038185089826584, -0.028444059193134308, -0.11609671264886856, -0.14059922099113464, 0.06878668814897537, -0.018621345981955528, 0.020628923550248146, 0.012499266304075718, -0.1486378014087677, -0.022544095292687416, -0.00802543293684721, -0.10862179100513458, -0.05994286388158798, -0.2502879798412323, 0.0940096378326416, -0.11496911197900772, -0.10859277844429016, 0.22587932646274567, 0.05236300081014633, -0.028780300170183182, -0.19653046131134033, 0.002990049310028553, -0.0656653493642807, -0.02236250787973404, 0.0809214860200882, -0.28425440192222595, -0.22359757125377655, -0.08125733584165573, -0.12127045542001724, -0.3180355131626129, 0.04212535172700882, 0.19901075959205627, 0.05330345407128334, 0.18369364738464355, 0.023063991218805313, 0.001700274064205587, -0.026024911552667618, 0.25067150592803955, 0.08275767415761948, 0.031717702746391296, 0.11243250221014023, -0.005228379741311073, -0.1697264015674591, -0.016284259036183357, -0.16258147358894348, -0.24513308703899384, 0.1808089166879654, -0.012197599746286869, -0.20924824476242065, 0.04240137338638306, -0.10516086965799332, -0.1260906457901001, -0.06985657662153244, 0.01627178303897381, -0.11143618077039719, -0.10406667739152908, 0.04702771455049515, -0.10758095234632492, -0.08140771836042404, -0.004253972787410021, -0.10965432226657867, -0.03655599430203438, -0.20359720289707184, 0.00234144926071167, -0.10417448729276657, -0.18209531903266907, 0.04109895974397659, 0.017231391742825508, -0.14165827631950378, 0.05295095592737198, -0.0744122862815857, -0.008685071021318436, -0.09353252500295639, -0.2246222198009491, 0.045906879007816315, -0.17079056799411774, -0.0010046206880360842, 0.0051449863240122795, -0.16629283130168915, 0.04034597799181938, 0.03345460072159767, 0.06273430585861206, -0.09381495416164398, -0.1155349537730217, -0.08192046731710434, -0.026336243376135826, 0.040766067802906036, 0.0004807408549822867, -0.1139373704791069, 0.027043234556913376, 0.030497463420033455, 0.08854474872350693, 0.06437794864177704, -0.11747702211141586, 0.03918962925672531, -0.06360801309347153, 0.019767723977565765, -0.02901812642812729, -0.11206182837486267, -0.08836164325475693, 0.019918130710721016, 0.009151495061814785, -0.05482688173651695, -0.024808073416352272, 0.006256906781345606, -0.07641547173261642, 0.07018903642892838, -0.026962487027049065, 0.023506293073296547, 0.09438857436180115, 0.09948475658893585, 0.1440531462430954, 0.08093104511499405, 0.01793316751718521, 0.04056812822818756, -0.016095057129859924, -0.012350881472229958, 0.013575541786849499, -0.03118307702243328, 0.10612203180789948, 0.07179173827171326, 0.016632726415991783, 0.014225871302187443, -0.016413742676377296, 0.06916595250368118, -0.014187376946210861, 0.0852464884519577, -0.011957413516938686, -0.04306400939822197, 0.019223958253860474, -0.021266110241413116, 0.08428223431110382, 0.07562552392482758, -0.009107038378715515, -0.04505997151136398, 0.04961954429745674, 0.07761780917644501, 0.10931232571601868, 0.0010973775060847402, 0.04068514704704285, -0.09620476514101028, 0.09995981305837631, 0.08200756460428238, -0.029431376606225967, -0.13455598056316376, 0.011140686459839344, 0.05279602110385895, 0.04513183608651161, 0.0007633091299794614, 0.033902112394571304, -0.0035111624747514725, 0.001469980925321579, -0.3195745348930359, 0.000414700509281829, -0.05150234326720238, -0.269448459148407, 0.0049684373661875725, -2.587491273880005, -0.0038539073430001736], [-0.03842616826295853, 0.06711611896753311, -0.046146463602781296, 0.061193548142910004, 0.010170714929699898, 0.08577068150043488, -0.03635039180517197, -0.17520159482955933, -0.019847385585308075, 0.025132901966571808, -0.011524534784257412, 0.025356074795126915, -0.03259335458278656, 0.06437155604362488, 0.11807265877723694, 0.13840293884277344, -0.06197153031826019, -0.073968306183815, -0.08896355330944061, -0.05696915090084076, -0.0650710016489029, -0.003137816907837987, -0.045112743973731995, -0.016606444492936134, 0.04301219433546066, 0.06511513888835907, -0.0286983884871006, 0.015731610357761383, 0.07524506747722626, 0.07146979123353958, 0.08633406460285187, -0.014585350640118122, -0.0752720981836319, -0.035038817673921585, -0.021751295775175095, -0.03490644693374634, -0.12789684534072876, -0.011524162255227566, 0.004179240670055151, -0.030464617535471916, 0.055405836552381516, 0.07359138876199722, -0.04133367910981178, 0.05332770571112633, -0.0017733036074787378, -0.004755439702421427, -0.03972933813929558, -0.032826464623212814, 0.03503379970788956, -0.020082339644432068, 0.04823659732937813, 0.033748578280210495, 0.018486279994249344, 0.023738905787467957, 0.027549924328923225, -0.07533637434244156, -0.011757584288716316, 0.013752696104347706, 0.040964920073747635, -0.006601265165954828, 0.11868977546691895, 0.05348076671361923, 0.043650489300489426, 0.07540956139564514, 0.03242077678442001, 0.01992787793278694, 0.07453296333551407, 0.099608413875103, 0.07433050870895386, 0.04260219633579254, 0.042221907526254654, 0.1424998641014099, 0.09851896017789841, 0.10556096583604813, 0.0880691185593605, 0.04677693918347359, 0.07190822064876556, 0.058057382702827454, 0.02486640214920044, -0.002682874910533428, 0.06474509835243225, 0.060672830790281296, 0.00716047640889883, 0.0854424312710762, 0.08538149297237396, 0.10515831410884857, 0.1643885225057602, 0.11332795023918152, 0.044986117631196976, -0.019514117389917374, 0.0357353575527668, 0.07558197528123856, 0.06464579701423645, 0.09762775152921677, 0.10765870660543442, 0.12219181656837463, 0.09626593440771103, 0.09636261314153671, 0.10532679408788681, 0.02242472767829895, 0.13586454093456268, 0.01804768294095993, -0.016026083379983902, 0.10721363127231598, 0.1557057797908783, 0.09899412095546722, 0.08961006253957748, 0.12391459941864014, 0.0785888209939003, 0.05849471688270569, 0.06382382661104202, 0.12379902601242065, 0.0790284126996994, 0.038290128111839294, 0.06917796283960342, -0.00443982845172286, 0.029192399233579636, -0.019137071445584297, 0.10700997710227966, -0.023992514237761497, -0.05839772894978523, 0.051660120487213135, 0.08607054501771927, 0.12017664313316345, 0.06822627037763596, 0.010404507629573345, 0.05608725547790527, 0.07846720516681671, 0.06328067183494568, 0.0014692714903503656, 0.040017712861299515, 0.09293635934591293, 0.126128152012825, 0.15867915749549866, 0.04850006476044655, 0.05900546908378601, 0.09458193928003311, 0.07600691169500351, 0.09512444585561752, 0.03369782492518425, -0.010839756578207016, 0.07664088904857635, 0.16640304028987885, 0.09241671115159988, 0.12014871835708618, 0.06739059835672379, 0.04639965668320656, 0.024226590991020203, 0.08393972367048264, 0.0726134330034256, 0.09664581716060638, 0.0474487729370594, 0.1044217199087143, 0.1565314084291458, 0.09376127272844315, 0.11340577900409698, 0.11968085169792175, 0.08831140398979187, 0.10564204305410385, 0.013269683346152306, 0.03098725900053978, 0.02052856981754303, 0.031299713999032974, 0.06448114663362503, 0.048209670931100845, 0.006679042708128691, 0.07101263850927353, 0.05402279272675514, 0.07411502301692963, -0.03132430836558342, 0.03823985904455185, 0.02088797092437744, 0.03893106058239937, 0.04368413984775543, 0.06366237252950668, 0.020490845665335655, 0.044831711798906326, 0.06268656253814697, 0.006371860392391682, 0.01346861943602562, 0.02361983247101307, 0.028103508055210114, 0.008478842675685883, 0.04474766179919243, 0.048355843871831894, 0.035423193126916885, 0.05457732453942299, 0.010361670516431332, 0.0330137200653553, -0.007782182190567255, -0.029007136821746826, 0.05389609932899475, 0.0253634974360466, -0.021743427962064743, 0.012560412287712097, 0.02143671363592148, -0.07021965831518173, 0.012837882153689861, -0.10626823455095291, 0.057833585888147354, 0.06206793710589409, 0.028609750792384148, 0.023084407672286034, 0.02861323393881321, -0.04459491744637489, 0.01425403356552124, 0.06171434745192528, 0.19312238693237305, -1.0926934480667114, -0.040854379534721375, -0.10022363066673279, -0.582758903503418, -0.010735470801591873, -0.6484534740447998, 0.05508464574813843], [0.01702335849404335, 0.05099894478917122, 0.01266683079302311, -0.04284358769655228, -0.10979655385017395, -0.0776909664273262, -0.07318674772977829, 0.09819447249174118, 0.09595421701669693, -0.04769647493958473, 0.03723665699362755, -0.025692854076623917, -0.00841100886464119, -0.15286751091480255, -0.21785636246204376, -0.18994790315628052, -0.22557634115219116, -0.038924265652894974, -0.06883184611797333, 0.002443894511088729, -0.025042353197932243, -0.06431831419467926, -0.0006005463073961437, -0.15953761339187622, 0.05991554260253906, 0.0019013278651982546, -0.01761285401880741, -0.08483521640300751, 0.056066665798425674, 0.08594290912151337, -0.08248047530651093, -0.021421946585178375, -0.13980506360530853, -0.13946658372879028, -0.13470138609409332, -0.18171298503875732, -0.060596659779548645, -0.12309067696332932, -0.06410875916481018, 0.053686801344156265, -0.1544865369796753, -0.04405159130692482, -0.12902221083641052, -0.23897995054721832, -0.13560850918293, -0.14150556921958923, 0.04355042055249214, 0.033785752952098846, -0.18726058304309845, -0.15969213843345642, -0.11784821003675461, -0.0792447179555893, -0.1446995884180069, -0.04223514720797539, -0.20955827832221985, -0.11781331151723862, -0.3898167908191681, -0.2868015766143799, -0.10525735467672348, -0.2798433005809784, -0.15333916246891022, -0.18504461646080017, -0.10968606173992157, -0.10353535413742065, -0.1521558165550232, 0.07355798035860062, -0.20100130140781403, -0.17530079185962677, -0.1672183722257614, -0.1090397983789444, -0.06922552734613419, -0.07082349061965942, -0.12745293974876404, -0.12104348838329315, 0.017102619633078575, 0.12218158692121506, -0.13387440145015717, -0.06773412227630615, 0.02834581956267357, -0.18107779324054718, -0.0009560026228427887, 0.03881925344467163, -0.04249127209186554, -0.14418476819992065, -0.6183140873908997, -0.14259685575962067, -0.10055454820394516, 0.05289362370967865, -0.10307420790195465, 0.01406999584287405, -0.06420149654150009, 0.14240053296089172, 0.1590801477432251, 0.03608626499772072, -0.1215425506234169, -0.008561610244214535, 0.12118761241436005, -0.0901171937584877, 0.1845424622297287, -0.017137272283434868, -0.07140008360147476, -0.04296416789293289, -0.015879575163125992, 0.0870555117726326, -0.1688544601202011, 0.10599174350500107, 0.10001513361930847, -0.1250961720943451, 0.047975923866033554, -0.047521207481622696, -0.03605276718735695, 0.003446633694693446, -0.07347489893436432, 0.12184327095746994, -0.13196372985839844, 0.16126218438148499, -0.08201256394386292, 0.11091835051774979, -0.05105702206492424, 0.059960078448057175, -0.019676029682159424, -0.06619054824113846, -0.15825530886650085, 0.11611365526914597, -0.008963508531451225, 0.06746712327003479, -0.07336370646953583, 0.0787070021033287, 0.006307996343821287, 0.05880877003073692, 0.0692208856344223, 0.028722679242491722, 0.013854561373591423, 0.035272885113954544, 0.15073783695697784, 0.02019856497645378, 0.08955427259206772, 0.06162198632955551, -0.15676207840442657, -0.09344847500324249, -0.04256179928779602, -0.0606996975839138, 0.0565652921795845, 0.008047730661928654, 0.023076940327882767, 0.032672762870788574, 0.06816717237234116, -0.0385335236787796, 0.012214278802275658, -0.09185256063938141, 0.03896331787109375, -0.05713292211294174, 0.036519408226013184, -0.0784369558095932, 0.018989356234669685, 0.02415303885936737, -0.056321606040000916, -0.003423738991841674, -0.039643965661525726, -0.00012878190318588167, 0.014796811155974865, 0.12581846117973328, 0.058715157210826874, -0.03566328063607216, 0.03169553726911545, -0.030762655660510063, -0.019911756739020348, -0.022675441578030586, -0.10653373599052429, 0.15126004815101624, -0.0463663712143898, -0.05473870038986206, 0.09596186131238937, -0.06722572445869446, 0.005152156576514244, 0.01873902417719364, -0.014634916558861732, 0.19850578904151917, -0.0328323096036911, -0.06745675951242447, 0.022228995338082314, 0.0050086211413145065, -0.04592721164226532, -0.09732329100370407, 0.04927420988678932, 0.06813988834619522, -0.005417133215814829, -0.0909259244799614, 0.030899085104465485, 0.026786116883158684, -0.1124160885810852, 0.13578584790229797, -0.035432759672403336, 0.007909419015049934, -0.010164755396544933, 0.0151755316182971, 0.04952079802751541, -0.09996744245290756, 0.02892681583762169, -0.1221061423420906, -0.09093154966831207, -0.041402511298656464, -0.001477187848649919, -0.00788744818419218, -0.009682971052825451, -0.03492581471800804, -0.03889299929141998, 0.13963788747787476, 1.2095791101455688, -0.041245751082897186, 0.13140881061553955, 0.1539984941482544, 0.007626171223819256, 1.7992359399795532, 0.010152415372431278], [-0.08516229689121246, 0.05617789551615715, -0.08291511237621307, 0.02555857039988041, -0.17748083174228668, -0.0801299512386322, 0.07751709222793579, 0.02812173031270504, 0.010435066185891628, 0.06866400688886642, 0.0255258958786726, -0.08907891809940338, 0.0755138248205185, -0.1078963503241539, -0.1352820247411728, -0.2821013331413269, -0.09205613285303116, 0.030958788469433784, 0.06445860862731934, -0.03957885503768921, 0.01645367406308651, 0.06782283633947372, -0.03357516974210739, -0.14575733244419098, -0.18368332087993622, -0.033312804996967316, 0.06336510181427002, 0.05047112703323364, 0.05606020241975784, 0.04543108493089676, -0.09760069847106934, 0.022013071924448013, 0.006504533812403679, -0.15198808908462524, -0.01046597957611084, -0.13609948754310608, -0.03625308349728584, 0.09977468848228455, -0.04961331933736801, -0.03540671989321709, -0.022170638665556908, -0.03786700218915939, 0.05578077211976051, -0.054626643657684326, -0.16699552536010742, -0.2335841953754425, -0.04625558480620384, -0.12572091817855835, -0.10043532401323318, 0.07859032601118088, -0.2653159499168396, -0.21862156689167023, 0.05087938532233238, -0.07607211917638779, -0.2112390249967575, -0.16250652074813843, 0.05023188516497612, -0.06761431694030762, -0.10722732543945312, -0.06273690611124039, -0.006716481409966946, 0.06446994841098785, -0.02524895779788494, -0.2955576777458191, -0.1642361432313919, -0.11024198681116104, 0.15524418652057648, -0.1100761815905571, -0.21530643105506897, -0.29049718379974365, 0.008813725784420967, -0.0067218211479485035, -0.036111827939748764, -0.013474120758473873, 0.05359942093491554, -0.4218358099460602, 0.07212928682565689, 0.10858388990163803, -0.22502395510673523, 0.15825212001800537, -0.26833564043045044, -0.08530869334936142, -0.07653197646141052, 0.25022321939468384, 0.11128685623407364, -0.33898431062698364, -0.10137415677309036, -0.0829724594950676, -0.15336887538433075, 0.1406431496143341, -0.0699910894036293, -0.19387374818325043, -0.17054449021816254, 0.14275817573070526, -0.12233923375606537, -0.10559641569852829, -0.20969311892986298, -0.07497388869524002, -0.03314631059765816, 0.07206150144338608, 0.0631152093410492, 0.06087205186486244, -0.1685630828142166, 0.1756156086921692, 0.13013726472854614, -0.02588309347629547, 0.02848478965461254, -0.025317849591374397, 0.04725514352321625, -0.03544871136546135, -0.12428613007068634, 0.006232852581888437, 0.04181681573390961, -0.02903846465051174, -0.04982462152838707, -0.04389344900846481, -0.09881655871868134, -0.005488862749189138, 0.15956947207450867, 0.1275785267353058, 0.1024278774857521, 0.05997864529490471, -0.13821910321712494, -0.019231058657169342, -0.02800385281443596, -0.06342540681362152, 0.12016706168651581, 0.06088646128773689, -0.05569075793027878, -0.04803061857819557, 0.029142891988158226, -0.045329198241233826, 0.11215254664421082, 0.08408057689666748, -0.020491760224103928, 0.1070248931646347, 0.04875257611274719, -0.19890142977237701, 0.018612494692206383, -0.041748832911252975, -0.07867803424596786, 0.04875067621469498, 0.05742698907852173, -0.05676555261015892, 0.046633657068014145, 0.012981189414858818, -0.025942139327526093, 0.12028223276138306, 0.02758638933300972, -0.007076116744428873, 0.006563455332070589, 0.05369140952825546, 0.06937018036842346, 0.024528656154870987, 0.015604441054165363, -0.09145821630954742, -0.0223502479493618, -0.033268529921770096, -0.06101444363594055, 0.011471693404018879, -0.010371160693466663, 0.04562889039516449, 0.08435220271348953, -0.09869413822889328, -0.11879879981279373, 0.05308626592159271, -0.09877026081085205, 0.09665919095277786, -0.10996124148368835, 0.07274720072746277, -0.04378736391663551, -0.04002385959029198, 0.12342099100351334, -0.03939766436815262, 0.05190690606832504, 0.08286657929420471, -0.04485122486948967, 0.010201270692050457, -0.01530269905924797, -0.09918859601020813, -0.005927639547735453, 0.02323663793504238, 0.017490429803729057, 0.022894859313964844, 0.09821160137653351, -0.11167404800653458, -0.10558994114398956, 0.11181462556123734, 0.026337118819355965, 0.01956682838499546, 0.11077888309955597, 0.0970618948340416, -0.07143465429544449, -0.09779896587133408, -0.0984669178724289, 0.08554621040821075, 0.08838756382465363, -0.13138863444328308, -0.005149914417415857, -0.06796572357416153, -0.04006750136613846, -0.03327282518148422, -0.09939965605735779, 0.04705062136054039, -0.06530874222517014, -0.05000799149274826, -0.08135568350553513, 0.07761305570602417, 0.5439180135726929, -0.011857639998197556, 0.08243078738451004, 0.2312200367450714, 0.009646548889577389, 0.42812564969062805, -0.004601724445819855], [-0.0062646642327308655, 0.0736682340502739, -0.06202754005789757, -0.04535530507564545, 0.03778298571705818, 0.051725130528211594, 0.12490445375442505, -0.01742725633084774, -0.18951591849327087, -0.1225440576672554, 0.0033364305272698402, 0.06126515194773674, 0.07999545335769653, -0.10194548219442368, -0.09251677989959717, 0.011206159368157387, -0.03451283276081085, 0.005530340131372213, -0.09204470366239548, 0.00037912456900812685, -0.06420198827981949, -0.01598101481795311, 0.10328903794288635, -0.11953064799308777, -0.10359194874763489, -0.06845805794000626, 0.050514429807662964, 0.02286166325211525, 0.16647987067699432, 0.16234813630580902, 0.0054460992105305195, 0.05481605976819992, 0.07819721847772598, -0.2098531424999237, -0.09865361452102661, 0.07681228965520859, -0.12063878029584885, 0.11351655423641205, 0.06409383565187454, 0.16362027823925018, 0.03511086106300354, 0.09315536916255951, 0.05259859561920166, 0.04914253577589989, -0.1543961763381958, 0.004624691791832447, -0.15133868157863617, -0.0051539889536798, 0.19401344656944275, 0.19884352385997772, 0.11118938773870468, -0.035067249089479446, -0.007762818597257137, -0.04120570793747902, -0.19018322229385376, 0.08488961309194565, -0.10659956187009811, 0.0023795445449650288, -0.021526401862502098, 0.11396188288927078, -0.09137684851884842, -0.17997059226036072, -0.06359448283910751, 0.15282276272773743, 0.30853167176246643, 0.2670421004295349, -0.021655503660440445, 0.20317494869232178, 0.2377285659313202, 0.046524252742528915, -0.08898378908634186, -0.2599359154701233, 0.2553355097770691, 0.16977867484092712, 0.03882863372564316, 0.015634605661034584, 0.05247143283486366, -0.10864744335412979, 0.3134896755218506, 0.08123727887868881, 0.040043141692876816, -0.21522340178489685, 0.2445811629295349, 0.14368444681167603, 0.07781901955604553, 0.17237870395183563, 0.021341096609830856, 0.23763184249401093, -0.027288904413580894, 0.004962277598679066, 0.12446112185716629, -0.1130923256278038, -0.12771882116794586, 0.07895559817552567, -0.0663834661245346, 0.15450280904769897, -0.06639520078897476, 0.025665322318673134, -0.19333013892173767, -0.07887108623981476, 0.023845361545681953, -0.17414623498916626, 0.1042308434844017, 0.24771353602409363, -0.13348372280597687, -0.06539464741945267, -0.15192772448062897, 0.03325324133038521, 0.006685385014861822, -0.08301570266485214, -0.08710386604070663, -0.02414301596581936, -0.10931527614593506, -0.050785522907972336, -7.166248542489484e-05, -0.10485414415597916, -0.2806323766708374, 0.04678817838430405, -0.2273721843957901, -0.1929006278514862, 0.005881593097001314, 0.004484692122787237, -0.02967497706413269, -0.025494027882814407, -0.039581988006830215, -0.09062254428863525, -0.10265643149614334, -0.026070168241858482, -0.05305660516023636, -0.17639628052711487, 0.09783962368965149, 0.05327227711677551, -0.11134745180606842, 0.16741491854190826, 0.020761018618941307, 0.15506115555763245, -0.11225146055221558, 0.05539555102586746, 0.013941262848675251, -0.09593892842531204, 0.16176943480968475, 0.059230756014585495, -0.0035575844813138247, 0.05500882491469383, -0.016215166077017784, 0.03911646455526352, -0.016806745901703835, -0.04749618098139763, 0.08539490401744843, -0.07344678044319153, 0.09267715364694595, 0.0645519569516182, -0.03720218315720558, 0.030240951105952263, 0.059245821088552475, -0.03694848343729973, -0.06555182486772537, 0.044198643416166306, 0.027172010391950607, 0.003066651290282607, 0.000988126266747713, -0.033808089792728424, -0.09328637272119522, 0.008950558491051197, -0.06871215254068375, -0.06488608568906784, -0.10416287928819656, 0.05002383515238762, 0.02678961306810379, -0.07878423482179642, 0.12863509356975555, 0.08503786474466324, -0.04853970929980278, 0.08992215991020203, -0.0758623331785202, 0.08213120698928833, 0.0405997596681118, 0.02783355675637722, 0.04514994099736214, -0.06039869785308838, 0.0006846580072306097, -0.07943499088287354, -0.06464473903179169, -0.029613526538014412, -0.05730675533413887, 0.011595827527344227, -0.018988989293575287, -0.021538669243454933, 0.079260915517807, -0.040414005517959595, 0.07999854534864426, 0.017591848969459534, -0.0031928610987961292, -0.05067409202456474, -0.04967100918292999, 0.015278550796210766, -0.025656243786215782, -0.030539553612470627, 0.05592559650540352, 0.032729171216487885, 0.27162787318229675, 0.06449483335018158, 0.21188929677009583, -0.0008130128844641149, 0.10159491747617722, 0.1318090856075287, 0.1101333275437355, 0.31229367852211, -0.22713007032871246, 0.07719439268112183, 0.0009562799241393805, -0.15136805176734924, 0.013936483301222324, 0.2289961725473404, 0.0042610205709934235], [-0.020903682336211205, 0.06463093310594559, -0.05108925327658653, -0.08182507753372192, -0.16613687574863434, -0.24151599407196045, -0.05664125829935074, -0.06569524854421616, -0.027965521439909935, 0.03552919998764992, -0.03297014534473419, 0.05317215248942375, -0.0012557266745716333, -0.20466023683547974, -0.19488555192947388, -0.49936115741729736, 0.09389519691467285, 0.20110303163528442, 0.06666230410337448, -0.014747532084584236, -0.019226089119911194, -0.07448109984397888, -0.16441810131072998, -0.1728791743516922, -0.19075971841812134, -0.23346275091171265, -0.12307726591825485, 0.06769044697284698, -0.07765312492847443, -0.05525137111544609, 0.046170447021722794, -0.18088047206401825, -0.25925639271736145, -0.21367794275283813, -0.2527989149093628, -0.10461732745170593, -0.01718221604824066, 0.085645392537117, 0.043208926916122437, -0.06667090207338333, 0.021289709955453873, 0.023492025211453438, -0.2935962378978729, -0.13024316728115082, -0.2501140534877777, -0.09699524194002151, -0.09552372992038727, -0.001978142186999321, -0.03357013314962387, -0.05570897087454796, 0.0026677486021071672, 0.12460702657699585, -0.13269966840744019, -0.21982666850090027, 0.028251297771930695, 0.0034193256869912148, -0.08419705182313919, 0.0761173814535141, 0.14243051409721375, 0.008577285334467888, -0.0387321375310421, 0.049320485442876816, -0.04442917928099632, -0.1643814593553543, -0.07715561240911484, 0.07921361923217773, 0.10791552066802979, -0.042386844754219055, 0.06492941826581955, 0.01818469725549221, 0.07039767503738403, 0.14174512028694153, -0.11057968437671661, -0.15653379261493683, -0.02519146166741848, 0.011584953404963017, -0.10381493717432022, 0.2045435905456543, -0.06140277534723282, -0.10417226701974869, 0.1562454253435135, -0.10402253270149231, -0.15476903319358826, -0.07312454283237457, 0.0790633112192154, -0.2076418101787567, 0.05029148608446121, -0.06082778796553612, 0.04716653376817703, 0.07576750963926315, -0.1259758174419403, 0.23607318103313446, -0.024141674861311913, 0.13204392790794373, 0.0159470047801733, -0.008119525387883186, 0.1704828441143036, 0.07560425996780396, 0.16277925670146942, 0.10533225536346436, -0.021485863253474236, -0.019716208800673485, 0.03458401560783386, 0.07288871705532074, -0.06429710239171982, 0.033379532396793365, 0.08320533484220505, -0.04857873544096947, -0.06609223783016205, -0.016309738159179688, 0.06266827136278152, -0.04027774930000305, 0.041184041649103165, 0.06891626119613647, 0.01666538044810295, -0.04234851151704788, 0.015327283181250095, 0.01726708747446537, -0.16429080069065094, 0.1438661813735962, -0.01788625307381153, 0.026066122576594353, 0.06604216992855072, -0.07198888063430786, -0.007149887271225452, 0.049849264323711395, -0.0997689738869667, 0.01056148111820221, -0.022146403789520264, -0.038910944014787674, -0.006460839882493019, -0.12328335642814636, -0.015913179144263268, -0.03283904492855072, -0.012034740298986435, 0.028360454365611076, -0.03180995211005211, 0.05783170089125633, 0.10459011793136597, -0.08958655595779419, 0.09558567404747009, 0.05453820154070854, 0.013026038184762001, -0.08906441181898117, 0.1029806137084961, 0.048346489667892456, 0.09373634308576584, -0.09383558481931686, 0.016424687579274178, -0.06186706945300102, -0.08532266318798065, -0.05460595712065697, 0.026587435975670815, 0.018245432525873184, 0.06558320671319962, -0.056971725076436996, 0.18471258878707886, -0.06488585472106934, -0.041967034339904785, 0.10839542001485825, 0.07782220095396042, 0.05411827936768532, 0.043408364057540894, -0.0851144790649414, -0.0025029319804161787, 0.05018957331776619, 0.05067150294780731, 0.06292948871850967, -0.036348480731248856, -0.08100700378417969, 0.14104075729846954, -0.03420289605855942, 0.09406410902738571, -0.04338538274168968, -0.004072814714163542, 0.02723553590476513, -0.022092197090387344, -0.09730857610702515, 0.014511117711663246, 0.03837825730443001, -0.013213084079325199, -0.06009488180279732, 0.02511320821940899, 0.11541077494621277, 0.03852313384413719, -0.11804447323083878, -0.007493495475500822, -0.010890042409300804, 0.0003229692520108074, -0.03769589960575104, -0.07231741398572922, 0.07811498641967773, 0.039754319936037064, -0.030357323586940765, -0.12184494733810425, -0.0015646404353901744, -0.09758948534727097, -0.08784870058298111, -0.140085831284523, 0.08017120510339737, -0.09399783611297607, -0.037921465933322906, -0.0848788246512413, -0.005835742689669132, -0.11048568785190582, -0.04123251140117645, 0.015565497800707817, 0.058309104293584824, 1.2958104610443115, -0.01893242821097374, 0.15195710957050323, -0.05544925853610039, -0.006224783603101969, 0.7499207258224487, 0.0006453229580074549], [0.010004398413002491, -0.03335673734545708, -0.07820358872413635, -0.09947717189788818, -0.1593875139951706, -0.022930210456252098, -0.041234150528907776, 8.184190664906055e-05, -0.05190915986895561, 0.05439165607094765, -0.08086671680212021, -0.05060214549303055, -0.04383169487118721, 0.14592598378658295, -0.1516069769859314, -0.006664985790848732, -0.043973881751298904, -0.009929558262228966, -0.0337136909365654, 0.02859608642756939, -0.05790675804018974, -0.0039163739420473576, -0.04082237929105759, -0.0535493940114975, -0.18932875990867615, -0.2571128010749817, -0.10568369179964066, 0.026690790429711342, -0.07754687964916229, -0.0012158224126324058, -0.1047208309173584, -0.04013204947113991, -0.022514235228300095, -0.07766062766313553, -0.1809132993221283, -0.39910417795181274, -0.16436824202537537, -0.18468600511550903, 0.017083579674363136, -0.052144989371299744, -0.09073825180530548, -0.0066618537530303, -0.19418787956237793, -0.09856895357370377, -0.31967684626579285, -0.3268325924873352, -0.11639046669006348, -0.1338803619146347, 0.07869450002908707, -0.057393234223127365, 0.07735537737607956, 0.10169912874698639, -0.11714901030063629, -0.2643427848815918, -0.2760576605796814, -0.2957015335559845, -0.26226213574409485, -0.08976666629314423, -0.0025005140341818333, -0.003916087094694376, 0.04303516820073128, 0.04181886091828346, -0.3196568191051483, -0.36619505286216736, -0.02149713598191738, -0.10785883665084839, -0.07650236040353775, -0.01066596433520317, 0.04556602984666824, -0.005498453509062529, 0.0014153305673971772, -0.035026177763938904, -0.14858375489711761, -0.14812342822551727, -0.0024826405569911003, -0.02887985110282898, 0.05914430320262909, -0.035337697714567184, 0.009381534531712532, -0.08506067842245102, 0.01174149103462696, 0.09325505048036575, -0.09737515449523926, 0.03445587307214737, 0.05811648815870285, -0.08128584176301956, -0.11510080099105835, -0.008351054042577744, 0.11126704514026642, 0.003606475656852126, 0.1644778549671173, -0.028263265267014503, -0.01763867400586605, -0.0653456375002861, 0.033550720661878586, -0.03477834537625313, 0.03406713902950287, -0.05474145710468292, 0.08059617877006531, 0.13000428676605225, -0.017306366935372353, 0.0016715859528630972, -0.03279498219490051, 0.006183051969856024, 0.13306505978107452, -0.017177917063236237, 0.1571647822856903, -0.0004903254448436201, -0.02257271111011505, -0.014333957806229591, -0.11606213450431824, -0.05838782712817192, 0.12654899060726166, 0.05000634863972664, 0.06371866911649704, -0.026850111782550812, -0.04762500524520874, 0.011366254650056362, 0.1369052231311798, 0.22571980953216553, -0.027596764266490936, 0.09426381438970566, 0.12459801882505417, 0.16021841764450073, 0.013850078918039799, 0.08625590801239014, -0.05634545534849167, 0.04786476865410805, 0.08272089064121246, 0.043128736317157745, 0.02991524711251259, 0.05617520958185196, 0.17741012573242188, 0.04026187211275101, 0.07003222405910492, 0.15391726791858673, 0.07436733692884445, 0.04097798839211464, 0.04083609953522682, 0.0460357666015625, -0.060552362352609634, 0.027499135583639145, 0.11868257820606232, 0.037978339940309525, 0.01679477095603943, 0.05129305273294449, 0.06374706327915192, 0.033806122839450836, 0.023428361862897873, 0.02284870482981205, -0.009084432385861874, 0.0235560555011034, 0.1818074733018875, 0.023810701444745064, 0.0526258684694767, 0.057944405823946, 0.03456338122487068, -0.06500856578350067, 0.03030320443212986, 0.030119948089122772, -0.1113004982471466, -0.01733173243701458, 0.02494047023355961, 0.05497775226831436, -0.03767969831824303, 0.0011370418360456824, 0.006998765282332897, -0.03730270639061928, 0.026440899819135666, -0.03659014776349068, 0.052563849836587906, 0.04031071066856384, 0.14934790134429932, 0.09140460193157196, 0.0629592165350914, 0.051887352019548416, 0.03325871378183365, 0.09051726758480072, -0.04745971038937569, -0.04131898656487465, -0.030535252764821053, -0.0019887511152774096, 0.058988869190216064, 0.12458067387342453, -0.07143843173980713, 0.009944654069840908, -0.054436516016721725, -0.059637587517499924, -0.03361470624804497, -0.05172397568821907, -0.15905213356018066, 0.008725463412702084, -0.07191668450832367, -0.02681884914636612, -0.11072716116905212, -0.018254587426781654, -0.052460089325904846, -0.008277367800474167, -0.07593893259763718, -0.031211353838443756, 0.06623057276010513, -0.036132656037807465, 0.03287813439965248, 0.08954660594463348, -0.024753043428063393, 0.04145972803235054, -0.04639361798763275, 0.07325638085603714, -1.7428408861160278, -0.05549046769738197, -0.18964579701423645, -0.1902884542942047, 0.014355788938701153, -0.3506265878677368, 0.03236989304423332], [-0.03310079500079155, -0.015575350262224674, 0.00838982779532671, -0.030216354876756668, -0.1528431475162506, 0.03259506821632385, -0.14249970018863678, 0.02118409052491188, -0.05705992132425308, 0.004996744450181723, -0.05756283178925514, -0.0411701500415802, -0.0941409096121788, 0.2182016372680664, -0.029113398864865303, -0.06423438340425491, -0.0843174159526825, -0.013315650634467602, -0.08590041846036911, 0.01470183115452528, 0.008747231215238571, -0.054683804512023926, -0.05975838750600815, 0.05409669503569603, -0.15709802508354187, -0.06093433126807213, -0.08869478106498718, -0.03955255076289177, -0.006637683138251305, 0.006148764863610268, -0.04124707728624344, -0.025880374014377594, 0.0063824765384197235, -0.06712105870246887, -0.09873704612255096, -0.11401867866516113, -0.05239012837409973, -0.10885521024465561, -0.030532758682966232, 0.0018497233977541327, 0.11608581990003586, -0.025740308687090874, -0.03398961201310158, 0.12736739218235016, 0.020511122420430183, -0.18537960946559906, -0.17169249057769775, -0.1130712628364563, -0.13061989843845367, -0.10567708313465118, -0.19827084243297577, -0.2300184667110443, -0.04873255267739296, -0.08446095883846283, 0.18244673311710358, -0.19833599030971527, -0.27151015400886536, -0.171126589179039, -0.21626447141170502, -0.5113186240196228, -0.05762355402112007, -0.19839991629123688, -0.11608560383319855, -0.018567930907011032, -0.001569782616570592, -0.42267727851867676, -0.23918502032756805, -0.30038177967071533, -0.254141241312027, -0.18114641308784485, 0.008752101100981236, -0.04287879541516304, -0.27165845036506653, -0.057550955563783646, 0.05815062299370766, -0.25647297501564026, -0.31316229701042175, -0.30992063879966736, -0.025749903172254562, -0.05873376876115799, -0.16967973113059998, 0.18179576098918915, -0.0907537192106247, -0.025747891515493393, 0.05611902102828026, 0.011216670274734497, -0.40426015853881836, -0.03680657595396042, -0.1864469349384308, -0.02633616514503956, -0.12491858750581741, -0.07125650346279144, 0.08720406144857407, -0.07846085727214813, 0.017791058868169785, -0.1951444298028946, 0.042830344289541245, -0.008327079005539417, -0.17663811147212982, -0.12711374461650848, -0.2267010509967804, -0.16734689474105835, -0.07206279039382935, 0.1568138152360916, 0.12832102179527283, -0.11488299816846848, 0.15561681985855103, 0.08089795708656311, -0.12855513393878937, -0.07090103626251221, -0.15199944376945496, -0.2075725793838501, -0.013192111626267433, -0.008316430263221264, -0.005378518253564835, 0.007948855869472027, 0.13163618743419647, -0.11030744016170502, -0.18475310504436493, -0.14472754299640656, -0.20095917582511902, -0.1729280650615692, -0.0941133126616478, -0.061999332159757614, -0.08900604397058487, -0.07854270190000534, -0.0323149673640728, -0.052350014448165894, 0.10603190213441849, -0.04442049562931061, -0.14428886771202087, -0.1601082980632782, -0.09036093205213547, 0.0348551943898201, -0.05191808193922043, -0.13840548694133759, 0.05896121636033058, -0.05873361974954605, -0.18187712132930756, -0.0993654876947403, -0.05164269357919693, -0.12948353588581085, 0.044708024710416794, 0.022573288530111313, -0.084632009267807, 0.07253368943929672, 0.12756884098052979, 0.026067251339554787, -0.06477312743663788, -0.03851525858044624, -0.06710007786750793, -0.07226421684026718, -0.007877422496676445, 0.02993782050907612, -0.02989669144153595, 0.09672687947750092, 0.07925702631473541, -0.003711624536663294, -0.009616749361157417, -0.0826663002371788, -0.06144239753484726, -0.029189135879278183, 0.05401398614048958, -0.012742693535983562, -0.04785146936774254, -0.002920979866757989, 0.11701659113168716, -0.08250614255666733, 0.08354176580905914, 0.0019427028018981218, 0.10135453194379807, 0.08865958452224731, 0.029115937650203705, 0.1242358386516571, -0.07415562123060226, -0.04587077721953392, 0.06585978716611862, -0.08586917072534561, 0.09774027019739151, 0.005121879745274782, 0.01603887230157852, 0.12203510850667953, 0.09425468742847443, 0.013621772639453411, 0.14600802958011627, 0.06209048628807068, 0.05464497581124306, 0.09093783795833588, 0.014956998638808727, 0.06303533166646957, 0.011501801200211048, 0.019153665751218796, 0.06563539057970047, 0.001878382172435522, 0.08550039678812027, 0.09755393117666245, 0.11004342883825302, 0.0671144649386406, 0.04992196336388588, 0.0493130199611187, 0.20451980829238892, 0.33504682779312134, 0.27309852838516235, 0.35096678137779236, 0.25509846210479736, 0.25266948342323303, 0.22041411697864532, 0.5648232102394104, -0.4553411304950714, 0.14510054886341095, -0.029378725215792656, 0.16183142364025116, -0.010027417913079262, 0.6641017198562622, -0.007713095284998417], [0.0024714472237974405, -0.043630145490169525, -0.014180337078869343, -0.043598614633083344, -0.05921167507767677, -0.3198879063129425, 0.10997852683067322, 0.07148659974336624, -0.00942758284509182, 0.006327626295387745, -0.0009207181865349412, -0.030295932665467262, -0.07516789436340332, -0.2489505559206009, -0.11286717653274536, -0.10525110363960266, 0.16871319711208344, 0.16437479853630066, -0.009995521977543831, -0.021303750574588776, 0.04500028118491173, -0.04436283931136131, -0.04395362734794617, -0.2488267719745636, -0.14715203642845154, -0.06684233248233795, -0.010768038220703602, 0.0789814367890358, -0.035837408155202866, 0.016525110229849815, 0.015501567162573338, -0.08662790060043335, -0.11603979766368866, -0.2680700123310089, -0.07313311100006104, -0.11001226305961609, -0.03686538338661194, 0.07993184030056, 0.008421982638537884, 0.0201808400452137, -0.06674790382385254, -0.11677122861146927, -0.00906642060726881, -0.29807430505752563, 0.013757582753896713, -0.16910286247730255, -0.06567864120006561, 0.060892265290021896, -0.06183893233537674, 0.04947662726044655, -0.07094307988882065, -0.0250113345682621, 0.06873013079166412, -0.40823590755462646, -0.015665728598833084, -0.20524480938911438, 0.22245889902114868, -0.03772392496466637, -0.005475838202983141, -0.13216683268547058, -0.16803067922592163, 0.0038475056644529104, 0.1112738773226738, -0.13017356395721436, 0.2845073938369751, 0.002250304678454995, 0.05651543661952019, -0.19623404741287231, 0.19882236421108246, -0.18934156000614166, -0.4083443284034729, 0.11019603908061981, -0.18277999758720398, -0.25791311264038086, 0.43032872676849365, 0.06600814312696457, 0.0650208592414856, -0.2641957402229309, -0.2763437330722809, -0.2920457124710083, -0.03254109248518944, -0.10085802525281906, -0.23394769430160522, -0.3095843493938446, -0.03929205983877182, -0.05545166879892349, -0.058303896337747574, -0.22641785442829132, -0.222115159034729, -0.2920454144477844, -0.29073017835617065, -0.07192141562700272, -0.03392331674695015, -0.1927628070116043, -0.03854772821068764, -0.16632966697216034, -0.1546773463487625, -0.31179553270339966, -0.42510929703712463, -0.0014346166281029582, -0.218464657664299, -0.20029056072235107, -0.08847977221012115, -0.35127338767051697, -0.27468711137771606, -0.11430353671312332, -0.04132799431681633, -0.13214372098445892, -0.43961212038993835, -0.26117584109306335, -0.3017262816429138, -0.3437180817127228, -0.22115741670131683, -0.31454193592071533, -0.21771787106990814, -0.06075972691178322, -0.20706573128700256, -0.2554449141025543, -0.23432557284832, -0.13637064397335052, -0.0601348914206028, 0.06727493554353714, 0.030986251309514046, 0.03449347987771034, 0.11782844364643097, 0.01757851615548134, 0.04871109873056412, -0.04694843664765358, -0.10606860369443893, -0.13583256304264069, -0.010404190979897976, -0.04699597507715225, -0.059064529836177826, 0.09312403202056885, 0.06605862081050873, 0.05785601958632469, -0.1457754373550415, -0.10406632721424103, -0.03684278577566147, -0.020881205797195435, -0.0759180337190628, 0.02261180616915226, 0.06570949405431747, -0.010875414125621319, -0.10523428022861481, -0.13325916230678558, -0.12366263568401337, -0.07886915653944016, 0.019380802288651466, -0.12429165095090866, 0.059152115136384964, 0.18063676357269287, 0.10772810131311417, 0.033709410578012466, 0.06872224062681198, -0.05424128472805023, -0.044661134481430054, 0.009036111645400524, 0.2233341485261917, 0.17788931727409363, 0.0158334169536829, 0.11117028445005417, 0.06827100366353989, 0.08558196574449539, 0.10072599351406097, 0.08227591961622238, -0.10868030041456223, -0.06858445703983307, 0.11042028665542603, -0.027080340310931206, 0.10802572220563889, 0.1303941160440445, 0.02037244290113449, -0.014778668992221355, -0.006591381039470434, 0.06606043130159378, 0.06284566223621368, 0.010684359818696976, 0.10250372439622879, 0.13919895887374878, 0.003938815090805292, 0.009366600774228573, -0.019434137269854546, -0.05875144153833389, 0.060669299215078354, -0.0384882390499115, 0.03729143366217613, 0.007173698861151934, 0.12535646557807922, 0.08908577263355255, 0.16853827238082886, 0.15096594393253326, -0.03911970555782318, 0.18482697010040283, -0.005562709644436836, 0.07746435701847076, 0.09746463596820831, 0.1056860089302063, 0.0983482152223587, 0.18413521349430084, 0.1580127477645874, 0.10784956067800522, 0.13095097243785858, 0.017823444679379463, 0.20304004848003387, 0.2547408640384674, 0.11014058440923691, 0.0996059700846672, -0.33871540427207947, 0.14477503299713135, 0.014757891185581684, -0.001296799280680716, 0.0006059058359824121, 0.007399904076009989, 0.022768789902329445], [0.04063853994011879, 0.036980558186769485, -0.05130144581198692, -0.07089860737323761, -0.06440075486898422, -0.16840460896492004, -0.038616783916950226, -0.07026202976703644, -0.031047148630023003, -0.08234089612960815, -0.05178103223443031, 0.010016120970249176, -0.11096346378326416, -0.5272844433784485, 0.005059778690338135, -0.10349396616220474, -0.22238442301750183, -0.30025729537010193, -0.09546865522861481, -0.07203526794910431, -0.14838629961013794, 0.03673041984438896, -0.12130582332611084, -0.22259531915187836, -0.3193395435810089, -0.15404152870178223, -0.20087099075317383, -0.1642511934041977, -0.056505635380744934, -0.07745476067066193, -0.053478844463825226, -0.04873489588499069, -0.03953021019697189, -0.07946929335594177, -0.23829226195812225, -0.10806133598089218, -0.07517805695533752, -0.16873136162757874, -0.04987622797489166, -0.0615246519446373, -0.11559411138296127, -0.24709764122962952, -0.09457768499851227, -0.1189836785197258, -0.22859638929367065, -0.2135588377714157, -0.213119238615036, -0.08046996593475342, 0.013293507508933544, -0.0061067515052855015, -0.08697257936000824, -0.1324962079524994, 0.050901442766189575, -0.16980139911174774, -0.28408581018447876, -0.2226669043302536, -0.11018028855323792, 0.03714638575911522, 0.0914359912276268, -0.09752808511257172, 0.0018798215314745903, 0.06915614753961563, -0.012543998658657074, -0.09581591933965683, -0.16741248965263367, -0.10606901347637177, -0.0720394104719162, 0.0037388450000435114, 0.13505840301513672, 0.10435039550065994, -0.023438770323991776, 0.11958998441696167, 0.033220939338207245, -0.13998918235301971, -0.03392082452774048, -0.11021987348794937, -0.0035598697140812874, 0.10814544558525085, 0.03671885281801224, 0.06918465346097946, 0.0887540802359581, 0.06982884556055069, 0.022083045914769173, 0.07852330058813095, 0.04330930858850479, 0.21732836961746216, 0.009517227299511433, 0.06358006596565247, -0.017071649432182312, 0.24662283062934875, -0.06864292174577713, 0.010143562220036983, -0.07990746200084686, -0.08041755855083466, -0.05069389194250107, -0.0713297575712204, -0.060572318732738495, -0.004827500320971012, 0.12514637410640717, -0.020782949402928352, 0.061007190495729446, -0.08351659774780273, 0.05477107688784599, -0.09454429149627686, 0.08299019187688828, 0.015980549156665802, -0.018554389476776123, -0.04120340198278427, 0.011836295016109943, 0.14487077295780182, -0.010544538497924805, -0.022618165239691734, 0.0016080662608146667, -0.005132760852575302, 0.05028604343533516, -0.030110690742731094, 0.04707219824194908, -0.10453779995441437, -0.07553640753030777, 0.22734880447387695, -0.016059700399637222, 0.0032191257923841476, -0.015144857577979565, -0.017324255779385567, 0.012518917210400105, -0.008482846431434155, -0.019203675910830498, -0.06765057891607285, -0.09805667400360107, 0.23289786279201508, 0.005452483426779509, 0.05509426072239876, -0.016742883250117302, -0.03307598829269409, -0.05435410141944885, -0.03668131306767464, -0.024430841207504272, -0.02768847532570362, -0.0912179946899414, 0.24804045259952545, -0.0533142127096653, 0.03733094781637192, -0.030877890065312386, 0.013632269576191902, -0.0032955040223896503, -0.020714130252599716, -0.03793987259268761, -5.995393075863831e-05, -0.027920331805944443, 0.1549534797668457, -0.0345725379884243, -0.011263313703238964, -0.00974649004638195, -0.014603863470256329, -0.030688824132084846, 0.006393917836248875, 0.0034673421178013086, -0.016434911638498306, -0.06611938029527664, 0.16616381704807281, -0.004987956024706364, 0.023354824632406235, -0.020748736336827278, 0.012036966159939766, 0.0027134111151099205, -0.015411744825541973, 0.009504714049398899, 0.012235715053975582, -0.07285131514072418, 0.08042444288730621, 0.011056105606257915, 0.020099259912967682, 0.035158779472112656, -0.010528329759836197, -0.010230000130832195, -0.06000600382685661, 0.008559170179069042, 0.03175561502575874, -0.06887494027614594, 0.09556484967470169, -0.03025083802640438, -0.005113449413329363, -0.011336665600538254, -0.0313616581261158, -0.030912009999155998, -0.006037261337041855, -0.032636772841215134, -0.04926352575421333, -0.01880289800465107, 0.05873686820268631, -0.020985059440135956, 0.00608937069773674, 0.02772209793329239, 0.055226389318704605, -0.008609975688159466, 0.005463681649416685, 0.03009243868291378, 0.05986098572611809, -0.04420309513807297, 0.04784294590353966, -0.0036382123362272978, 0.3200439214706421, -0.0907168984413147, 0.08689624071121216, -0.020654069259762764, 0.18869523704051971, 0.2713737189769745, -0.07906151562929153, -1.333659291267395, 0.015551635064184666, -0.155359148979187, -0.44297072291374207, -0.012143004685640335, -1.6412256956100464, -0.018755419179797173], [0.006081838626414537, 0.024840420112013817, -0.20222455263137817, -0.16595713794231415, -0.07253118604421616, -0.11189256608486176, -0.17009946703910828, -0.057500891387462616, -0.050244659185409546, 0.027699949219822884, -0.0020066522993147373, 0.026696190237998962, -0.0647316426038742, -0.1914607584476471, -0.22465670108795166, -0.20447812974452972, -0.17915573716163635, -0.07428103685379028, -0.17011228203773499, -0.003538992488756776, 0.03367368131875992, -0.014787879772484303, -0.04690876603126526, -0.11636925488710403, -0.13853466510772705, -0.20413410663604736, -0.14654181897640228, -0.015704063698649406, -0.04760191589593887, -0.059606391936540604, -0.002431725151836872, 0.014283056370913982, 0.016390619799494743, -0.051341231912374496, -0.003477427875623107, -0.1620803326368332, -0.07913295179605484, -0.0319892056286335, -0.13088586926460266, -0.10094032436609268, 0.054036714136600494, -0.04768527299165726, 0.028259888291358948, 0.009638950228691101, 0.08466203510761261, -0.06923899799585342, 0.08492442965507507, -0.1149604469537735, -0.18225298821926117, 0.04473583400249481, -0.030356330797076225, -0.17912936210632324, 0.18328119814395905, 0.01689331606030464, 0.16998189687728882, 0.04829996079206467, 0.1792180836200714, 0.028561260551214218, 0.04306957125663757, -0.12447426468133926, 0.16449189186096191, -0.05392693728208542, 0.11681253463029861, 0.0018074559047818184, 0.2416096031665802, 0.10007917135953903, 0.1438376009464264, -0.05073154717683792, 0.06808415800333023, -0.012658796273171902, 0.024193936958909035, -0.05371473357081413, 0.025075210258364677, -0.0997871533036232, -0.18859656155109406, 0.2768455445766449, 0.11014710366725922, 0.03503746539354324, 0.021236395463347435, -0.19654126465320587, -0.09466444700956345, -0.08074039220809937, -0.062242019921541214, -0.19175374507904053, -0.037899184972047806, 0.050858281552791595, -0.009013260714709759, -0.015843722969293594, 0.05745493993163109, 0.17284522950649261, -0.0026031779125332832, 0.3411938548088074, -0.024202726781368256, -0.2997913658618927, 0.15711429715156555, 0.064935602247715, 0.009851336479187012, -0.10791600495576859, -0.014172473922371864, -0.060379620641469955, -0.1047954261302948, -0.005657597444951534, 0.027569351717829704, 0.013297966681420803, 0.03319183737039566, -0.12676528096199036, 0.025236977264285088, 0.012793194502592087, -0.2421170324087143, -0.137291818857193, -0.11404337733983994, -0.006916988641023636, -0.06509364396333694, -0.07756976038217545, -0.013120652176439762, -0.07918824255466461, -0.04294682666659355, -0.18386994302272797, -0.2525610029697418, 0.13317689299583435, -0.1349201798439026, -0.17599578201770782, -0.08927831798791885, -0.30695876479148865, -0.2027134895324707, -0.056947965174913406, -0.06537844985723495, -0.05062885954976082, -0.15765321254730225, -0.15095247328281403, -0.09877187013626099, -0.10725738108158112, -0.0856562927365303, -0.15886735916137695, -0.03205225244164467, -0.04543275758624077, 0.10589021444320679, -0.07217781990766525, -0.12813608348369598, -0.06255248934030533, 0.10063094645738602, -0.015938226133584976, -0.11734923720359802, 0.025377126410603523, -0.08220170438289642, 0.14424991607666016, 0.22869540750980377, 0.13953961431980133, -0.022628774866461754, -0.02081947773694992, 0.1080111563205719, 0.08605282753705978, -0.10682061314582825, -0.039382897317409515, -0.08730152249336243, -0.06226637586951256, 0.1648392528295517, 0.1332014948129654, 0.022813616320490837, -0.06573152542114258, 0.0647200495004654, 0.03238685056567192, -0.0017653675749897957, -0.12833288311958313, 0.04374152049422264, 0.04157315194606781, 0.056628983467817307, 0.004007190000265837, -0.08421099931001663, -0.12427520006895065, 0.08390042185783386, -0.0577520877122879, 0.029622483998537064, -0.0133252814412117, -0.06472282111644745, 0.019742771983146667, 0.11521130800247192, 0.10229431092739105, 0.011271935887634754, 0.024891739711165428, 0.06284035742282867, 0.08522583544254303, -0.05553475394845009, -0.11177951097488403, 0.15599070489406586, -0.019490575417876244, 0.006378095597028732, 0.07498463243246078, -0.01299453154206276, -0.026370977982878685, 0.04416852816939354, 0.19519701600074768, -0.01776120811700821, 0.08761630207300186, 0.05121107026934624, -0.0022919168695807457, 0.05940733477473259, -0.017561927437782288, 0.005075352266430855, 0.05885270982980728, 0.22236301004886627, 0.07866430282592773, 0.1093999445438385, -0.02638990432024002, 0.06585097312927246, 0.00022745066962670535, 0.0918666198849678, -1.1925257444381714, -0.42206284403800964, 0.13911093771457672, -0.018908416852355003, 0.009301508776843548, 0.008691716007888317, -0.1401180624961853, -0.020132072269916534], [-0.0015877342084422708, -0.05700340494513512, 0.12243227660655975, 0.1580670326948166, -0.20379304885864258, -0.07872124761343002, 0.010932683013379574, -0.18324625492095947, -0.009618229232728481, 0.007221033796668053, -0.0784597247838974, -0.11334884911775589, -0.0719740241765976, 0.14840716123580933, -0.02494535595178604, -0.20830762386322021, -0.03331797569990158, -0.03764742612838745, -0.11927228420972824, -0.04297449439764023, -0.020557140931487083, 0.038494739681482315, 0.04438953101634979, -0.07614012807607651, -0.19144268333911896, -0.16869817674160004, -0.26573339104652405, 0.059461768716573715, 0.04077430069446564, -0.01931752823293209, -0.05054592341184616, -0.08395961672067642, -0.11489089578390121, -0.15423695743083954, -0.14616692066192627, -0.32353660464286804, -0.125717431306839, -0.014939638786017895, 0.028266942128539085, -0.08717955648899078, -0.009144695475697517, 0.10813581943511963, -0.03458178788423538, -0.0977906659245491, -0.22418659925460815, -0.2717980146408081, -0.05593235790729523, -0.0028938320465385914, -0.043120428919792175, -0.002572430996224284, -0.1113695576786995, 0.000500542635563761, 0.00428784592077136, 0.030187778174877167, -0.19746118783950806, -0.06917303800582886, -0.026027750223875046, -0.02745557576417923, 0.03801310062408447, 0.08238831162452698, 0.060270100831985474, -0.056002937257289886, 0.0006433094968087971, 0.05870094522833824, -0.2381841391324997, -0.07491057366132736, 0.023854581639170647, 0.03683890774846077, 0.06357918679714203, 0.06381256878376007, 0.2316426783800125, -7.069454568409128e-06, 0.07092352956533432, 0.01766682229936123, -0.029505081474781036, -0.21687719225883484, -0.07486705482006073, -0.024646587669849396, 0.06788454204797745, 0.050036583095788956, 0.21643416583538055, 0.04810451343655586, 0.15232014656066895, 0.14217031002044678, 0.053269799798727036, 0.24469485878944397, 0.1328556090593338, 0.10155348479747772, 0.051495619118213654, -0.025528226047754288, -0.16255693137645721, 0.11736921221017838, 0.25159552693367004, 0.2763734459877014, 0.15629227459430695, 0.06045450270175934, 0.12970958650112152, 0.14425335824489594, 0.14691630005836487, 0.006992949638515711, 0.008177407085895538, -0.028855038806796074, 0.21614737808704376, 0.21876297891139984, -0.12511500716209412, 0.0963524654507637, 0.04571982100605965, -0.051364801824092865, 0.057388123124837875, -0.0481652207672596, -0.07591458410024643, 0.020874319598078728, 0.011823775246739388, 0.1443077027797699, 0.11267945915460587, 0.021101094782352448, -0.059639692306518555, 0.010857624001801014, 0.016368214040994644, 0.07987774908542633, -0.038695722818374634, -0.01919933781027794, -0.03971876576542854, -0.03389886021614075, 0.04512696713209152, 0.09736664593219757, -0.2418631762266159, -0.08641966432332993, 0.14030437171459198, -0.0026876688934862614, 0.012947299517691135, 0.04508158192038536, 0.040254198014736176, -0.042958736419677734, -0.026290317997336388, 0.01098660659044981, -0.07711128890514374, -0.04828140139579773, 0.0594516284763813, 0.019517432898283005, -0.011780638247728348, -0.021866120398044586, -0.022176245227456093, 0.05647991597652435, -0.02359391562640667, 0.06844335794448853, -0.08118804544210434, 0.039270441979169846, 0.07538069039583206, 0.10655194520950317, -0.006581949070096016, 0.0053733778186142445, -0.16334211826324463, -0.0037923899944871664, -0.01597515679895878, 0.035712044686079025, -0.0706547424197197, -0.054412927478551865, 0.12313437461853027, -0.0037410182412713766, -0.02591906301677227, -0.023026615381240845, 0.047609519213438034, -0.014654256403446198, -0.02450810745358467, 0.012782808393239975, -0.05283223092556, 0.08480334281921387, 0.012434643693268299, 0.09061392396688461, -0.02775563672184944, -0.025139259174466133, 0.03560122102499008, 0.06204129382967949, 0.06170137599110603, -0.017422908917069435, -0.019560737535357475, 0.009737677872180939, -0.040764305740594864, 0.04426179453730583, -0.009136311709880829, -0.0883869156241417, 0.005177333019673824, 0.02587090991437435, 0.04653715342283249, 0.020080775022506714, -0.043094389140605927, 0.004839952569454908, 0.05739491060376167, -0.04753803089261055, -0.08381830900907516, 0.036565348505973816, -0.005000654608011246, 0.003003486432135105, -0.011446437798440456, 0.028117742389440536, 0.025758953765034676, 0.016021328046917915, -0.014726143330335617, -0.0013166177086532116, 0.35333365201950073, 0.2669847309589386, 0.35312217473983765, 0.24757440388202667, 0.2423994541168213, 0.24264457821846008, 0.30178654193878174, 0.21418210864067078, -0.916923463344574, -0.01182170957326889, -0.06327700614929199, -0.12867283821105957, 0.015110227279365063, 0.10013095289468765, 0.0022059278562664986], [0.007589360699057579, -0.06931803375482559, 0.05321444943547249, -0.18477734923362732, -0.08471031486988068, -0.008242379873991013, 0.1780126839876175, 0.03403284028172493, -0.025925878435373306, -0.08440063148736954, 0.10678184777498245, 0.013775724917650223, -0.02075042575597763, -0.08411594480276108, -0.10964122414588928, 0.10853482782840729, 0.1356705129146576, 0.025358013808727264, -0.05432254076004028, -0.1197621077299118, -0.11046795547008514, 0.028423327952623367, 0.09052431583404541, 0.21312326192855835, 0.04714714363217354, 0.09081211686134338, -0.04060283303260803, -0.08652754127979279, 0.13734573125839233, -0.03774942457675934, -0.10234636068344116, 0.08143656700849533, -0.029565956443548203, 0.169036403298378, 0.10188525170087814, 0.1800818294286728, -0.03153827786445618, -0.07889901846647263, -0.1899944245815277, -0.051432445645332336, 0.03478308394551277, 0.22935499250888824, -0.01701238565146923, 0.15779946744441986, 0.13946464657783508, 0.060895662754774094, 0.049209754914045334, 0.046355415135622025, -0.011418629437685013, 0.048352327197790146, -0.09966836869716644, 0.18664300441741943, 0.043473996222019196, 0.45016080141067505, 0.02424774318933487, -0.08682191371917725, 0.12082071602344513, -0.09417228400707245, -0.048111241310834885, -0.08192472904920578, -0.21257375180721283, -0.15506790578365326, 0.029033944010734558, 0.06533879041671753, 0.09959807246923447, -0.20506422221660614, -0.0722951740026474, 0.10689202696084976, -0.011804714798927307, 0.06558878719806671, 0.042728520929813385, -0.07542146742343903, -0.02976076863706112, -0.096198171377182, -0.05438132584095001, 0.14899635314941406, -0.06909136474132538, 0.007739389315247536, -0.1852513551712036, 0.1718548834323883, 0.08221554011106491, -0.13059286773204803, -0.08209675550460815, -0.060685914009809494, -0.07809849828481674, 0.003999813925474882, -0.1457778364419937, -0.031506821513175964, 0.13116952776908875, 0.1609041541814804, -0.007634476292878389, 0.093937449157238, 0.04441335052251816, -0.06656134873628616, -0.2913210391998291, 0.15806293487548828, -0.10332588106393814, -0.21640200912952423, -0.002627783454954624, 0.023804882541298866, -0.2932785451412201, 0.03125672787427902, 0.14755746722221375, -0.07710438966751099, 0.09538676589727402, 0.03253323584794998, 0.03952110931277275, 0.05251971259713173, -0.004861649125814438, 0.005570643115788698, -0.0075195301324129105, -0.15282268822193146, -0.03132155165076256, 0.11044248938560486, -0.007877097465097904, 0.15886886417865753, -0.03489286080002785, -0.026646684855222702, -0.07246825844049454, 0.031799688935279846, 0.0036305298563092947, 0.006034485064446926, 0.03713548928499222, -0.08592473715543747, 0.008251787163317204, -0.04655152186751366, 0.069420225918293, -0.07532114535570145, 0.14591287076473236, 0.053233206272125244, -0.024527398869395256, -0.03260064870119095, -0.030758092179894447, 0.012952444143593311, 0.09203819185495377, -0.11484502255916595, 0.05041908100247383, 0.09592632949352264, -0.15273946523666382, 0.02103658765554428, 0.04329550638794899, -0.039832379668951035, -0.051934171468019485, -0.10228412598371506, 0.10250899195671082, -0.13853967189788818, -0.045468322932720184, 0.005273590330034494, 0.0286665391176939, -0.07432093471288681, -0.019489776343107224, 0.046046145260334015, -0.10615234822034836, 0.0877264067530632, 0.027683496475219727, 0.10876569151878357, -0.10389687865972519, 0.0016115551115944982, -0.18583397567272186, -0.018873976543545723, -0.07635718584060669, 0.05726855620741844, -0.08895199000835419, -0.09973647445440292, 0.0012726044515147805, -0.09146995842456818, 0.03254716470837593, 0.08242861926555634, -0.05263321474194527, 0.0853215828537941, 0.0499613918364048, 0.020880119875073433, 0.13819549977779388, 0.04179861396551132, 0.02605832740664482, 0.08776417374610901, -0.048587698489427567, -0.050114765763282776, -0.017027221620082855, -0.006673147901892662, 0.02319113165140152, -0.03706890344619751, 0.01579064503312111, 0.013675377704203129, 0.17553196847438812, 0.06940051168203354, -0.064676433801651, -0.010981309227645397, 0.06900157779455185, 0.022286396473646164, -0.038854122161865234, 0.013448378071188927, 0.006941915489733219, 0.0655565857887268, -0.052614886313676834, -0.024286875501275063, 0.0007719760178588331, -0.03125441074371338, -0.036207303404808044, -0.025871753692626953, 0.03104035183787346, -0.09137693792581558, -0.04420633986592293, -0.04840932786464691, -0.04089416190981865, -0.02608325332403183, -0.0847649872303009, 0.03057810105383396, 2.0584652423858643, 0.009823126718401909, 0.22741010785102844, -0.15785342454910278, -0.00878354161977768, -0.22345605492591858, 0.011386835016310215], [0.045698147267103195, 0.05045130103826523, 0.039494190365076065, -0.013257334008812904, -0.14467304944992065, -0.16332383453845978, 0.013612782582640648, 0.011903239414095879, -0.013158535584807396, -0.0022352642845362425, -0.0018791977781802416, -0.011472501792013645, 0.006877863314002752, -0.03249078243970871, -0.13175587356090546, -0.10215342044830322, 0.049760013818740845, 0.0506252646446228, 0.008592990227043629, -0.009810065850615501, -0.007595464121550322, 0.01020386815071106, -0.030381489545106888, -0.006326105445623398, -0.01615411788225174, -0.005359086208045483, 0.0473935566842556, 0.036814164370298386, -0.020868629217147827, -0.02948085032403469, -0.0017651371890679002, 0.04940211400389671, 0.0057862866669893265, -0.0015159538015723228, -0.028424693271517754, -0.03421739488840103, -0.017898818477988243, 0.022505158558487892, 0.02233063615858555, 0.015856264159083366, -0.0034845394548028708, 0.03194662928581238, 0.009310507215559483, -0.015165735967457294, -0.017780635505914688, -0.05614606291055679, -0.045437127351760864, 0.027202224358916283, 0.01609456166625023, 0.015611539594829082, 0.03159033879637718, -0.018277496099472046, 0.032046522945165634, -0.02147890441119671, -0.03355974704027176, -0.024697883054614067, -0.03170735016465187, 0.003421033965423703, 0.016659367829561234, -0.0008074940415099263, -0.005206431727856398, 0.016850994899868965, 0.045682329684495926, -0.02447478100657463, -0.029809433966875076, -0.019910993054509163, 0.018818935379385948, 0.0013268862385302782, 0.05360144376754761, -0.030500665307044983, -0.0382586270570755, -0.0067205303348600864, 0.04648059606552124, 0.0075868587009608746, -0.006370076909661293, 0.0019077436299994588, 0.032395947724580765, 0.017797525972127914, -0.034487657248973846, -0.1162320002913475, -0.039664287120103836, 0.019051052629947662, 0.024625202640891075, -0.0634300708770752, -0.0591604970395565, -0.061591967940330505, 0.006323189940303564, -0.1175498217344284, 0.019466057419776917, -0.08722911775112152, -0.15322989225387573, 0.01092026848345995, 0.12580907344818115, -0.05059949681162834, -0.08660928159952164, -0.15706965327262878, -0.13199317455291748, -0.07583602517843246, -0.051446348428726196, -0.04523024708032608, -0.13862508535385132, -0.14566367864608765, 0.08102419227361679, -0.08422906696796417, -0.24712462723255157, -0.1379878669977188, 0.03863118588924408, 0.014732550829648972, -0.019554931670427322, 0.048700928688049316, -0.012995690107345581, 0.05007476732134819, -0.06819272041320801, -0.017826035618782043, 0.04270591959357262, -0.055060435086488724, -0.12822537124156952, 0.05047965794801712, 0.03845876455307007, -0.08078740537166595, -0.05152583867311478, -0.010513203218579292, -0.2926172614097595, -0.09264618158340454, -0.032232630997896194, 0.015864985063672066, -0.11208981275558472, 0.006038924213498831, 0.008373386226594448, -0.0072763399221003056, 0.0420040600001812, 0.0667157769203186, -0.15033160150051117, -0.05885360762476921, 0.21143536269664764, -0.06376463919878006, 0.13782107830047607, 0.12387553602457047, 0.07578716427087784, 0.00021205896337050945, -0.0803644210100174, -0.05504503473639488, -0.22835463285446167, -0.20711982250213623, -0.11161168664693832, 0.04664206877350807, -0.12663739919662476, -0.039447199553251266, 0.05267312005162239, -0.06047288700938225, -0.11418034136295319, -0.03953712061047554, 0.038109615445137024, -0.08443845063447952, 0.06715748459100723, 0.007498208433389664, -0.04279395565390587, 0.09452556073665619, 0.14114505052566528, -0.06988058239221573, -0.07279188930988312, 0.04349781200289726, -0.06905052065849304, -0.08837918192148209, 0.043934471905231476, -0.055108677595853806, -0.0053434548899531364, -0.01790327951312065, 0.05450298637151718, -0.1225881576538086, 0.0288387443870306, 0.04847179725766182, 0.08999323844909668, -0.02205631695687771, -0.02848825976252556, 0.005943166092038155, -0.02490961365401745, 0.03254907950758934, -0.038981277495622635, 0.003852285211905837, 0.012927372008562088, 0.021002106368541718, -0.005854318384081125, -0.13126954436302185, 0.0553770586848259, 0.044624872505664825, -0.1417536735534668, 0.056198280304670334, 0.017043283209204674, -0.028241008520126343, -0.03539202734827995, 0.008729233406484127, 0.007032302673906088, -0.05080104246735573, -0.07194112986326218, 0.006711525842547417, -0.08748797327280045, 0.0029890809673815966, 0.0020395112223923206, -0.11151055991649628, -0.1807345747947693, 0.04453372210264206, -0.04097561165690422, -0.04337863624095917, 0.03105013817548752, -0.060856565833091736, -0.062255069613456726, -0.06987375766038895, 0.23018334805965424, -0.07914385199546814, 0.03136009722948074, 0.033781010657548904, 0.007793244440108538, 0.40134239196777344, -0.005825339816510677], [-0.05420924350619316, 0.07619539648294449, -0.07238592952489853, -0.22053614258766174, -0.18012458086013794, -0.24104101955890656, -0.16009585559368134, 0.12851102650165558, 0.08821085095405579, 0.013269876129925251, -0.019939957186579704, -0.05568332597613335, -0.0014947036979719996, -0.3044932782649994, -0.25079047679901123, -0.1738605946302414, 0.074305959045887, 0.09702154994010925, -0.002696064068004489, -0.0017310715047642589, -0.026890065521001816, 0.005253036506474018, -0.0664723664522171, -0.21702457964420319, -0.06393036246299744, -0.029292620718479156, -0.008577138185501099, -0.014533692970871925, -0.049569301307201385, -0.01476150844246149, -0.09937098622322083, 0.06804336607456207, -0.06709256023168564, -0.31389474868774414, -0.24033330380916595, 0.01767886057496071, 0.11348268389701843, -0.003255733521655202, -0.0009128233068622649, -0.03437289968132973, -0.002103555714711547, 0.02130422741174698, 0.050530608743429184, -0.28945618867874146, -0.14271321892738342, 0.03718491643667221, 0.08517780900001526, 0.05403666943311691, 0.04379604756832123, -0.05014201998710632, 0.1838880181312561, -0.07100117951631546, 0.12946951389312744, -0.2252521514892578, -0.07363056391477585, 0.1339731514453888, 0.14968274533748627, 0.003200995735824108, -0.006161455996334553, -0.019112862646579742, -0.06371264159679413, 0.22157803177833557, 0.20299074053764343, -0.5353480577468872, 0.16150078177452087, 0.10781948268413544, 0.06561753898859024, -0.044302813708782196, 0.012384476140141487, -0.08267588168382645, -0.0174887552857399, 0.12106876075267792, 0.01643018051981926, -0.12191231548786163, 0.1730865091085434, -0.036649443209171295, -0.041642848402261734, 0.09820473194122314, 0.3994846045970917, -0.10668055713176727, -0.25604841113090515, 0.03517824038863182, 0.05652372166514397, -0.08570009469985962, 0.20419523119926453, 0.14491884410381317, 0.03962703421711922, 0.260445237159729, 0.021402891725301743, 0.011788014322519302, 0.01245140191167593, 0.07767071574926376, -0.07075057178735733, -0.019176125526428223, 0.011788099072873592, 0.1419278085231781, -0.018807902932167053, -0.08562476933002472, 0.09528424590826035, 0.04575635865330696, -0.06846419721841812, -0.24374184012413025, -0.030174966901540756, 0.004441151861101389, -0.03446530923247337, 0.07194552570581436, -0.08707103878259659, 0.13842155039310455, 0.19697792828083038, 0.041335076093673706, 0.2529536485671997, 0.06058714911341667, 0.03554784506559372, -0.01942814327776432, -0.034013040363788605, -0.010638781823217869, -0.06924362480640411, 0.0907801166176796, -0.07685303688049316, -0.029075879603624344, -0.1542539745569229, 0.14300993084907532, -0.05030572786927223, -0.009160256944596767, 0.005053896456956863, -0.03678464889526367, -0.027882477268576622, 0.13910295069217682, -0.06967144459486008, -0.0356471911072731, -0.10977336764335632, -0.0717620924115181, 0.14592806994915009, -0.010765288956463337, 0.11858119815587997, -0.09502550214529037, 0.1371612846851349, -0.1551670879125595, -0.14902067184448242, 0.07215297967195511, -0.1455809473991394, -0.13621076941490173, -0.11723125725984573, 0.023148972541093826, 0.030025681480765343, -0.009449169971048832, -0.003180332249030471, -0.0885772705078125, 0.25228410959243774, 0.22476579248905182, 0.1082460954785347, 0.056865543127059937, -0.04993487522006035, 0.08297569304704666, 0.06030428037047386, -0.036494869738817215, 0.08019513636827469, -0.010998332872986794, -0.009658650495111942, -0.33237817883491516, -0.08103853464126587, 0.005851484835147858, -0.1022004634141922, 0.022516680881381035, -0.0011054195929318666, 0.0824914500117302, 0.03281472250819206, 0.1212742030620575, 0.004635221790522337, -0.02856837399303913, -0.11195749789476395, 0.07470864802598953, -0.014504378661513329, -0.029238861054182053, 0.03861419856548309, 0.06199760362505913, 0.028699997812509537, 0.10764749348163605, 0.03577535226941109, 0.03079363703727722, 0.018973104655742645, -0.07124069333076477, -0.02772434800863266, -0.05781225860118866, -0.08282157778739929, -0.050963789224624634, 0.08239754289388657, -0.019355852156877518, -0.009500985965132713, 0.0029220436699688435, 0.016812261193990707, 0.14974647760391235, 0.012231525033712387, 0.0591677762567997, -0.05227786675095558, 0.01408604346215725, -0.1168682649731636, 0.027309603989124298, 0.018941836431622505, -0.029181327670812607, -0.026416555047035217, -0.04402993246912956, -0.0009456496918573976, 0.0571993850171566, -0.03784596174955368, -0.08260266482830048, -0.08224913477897644, 0.0492476187646389, 1.5618550777435303, 0.045883022248744965, 0.18479056656360626, 0.08489104360342026, 0.005461348220705986, 0.090754933655262, 0.0170630794018507], [0.015318836085498333, -0.07714682817459106, 0.017011526972055435, -0.028999367728829384, -0.17926357686519623, -0.07783077657222748, -0.14378298819065094, 0.0008328215917572379, -0.046564579010009766, 0.11948667466640472, 0.10130792111158371, 0.03086782619357109, 0.12367001175880432, -0.2730863690376282, -0.3023011088371277, -0.19695690274238586, -0.22887878119945526, 0.11185157299041748, -0.05159957334399223, 6.542626215377823e-05, 0.018770979717373848, 0.029706669971346855, 0.05001632124185562, -0.110861636698246, -0.0518321767449379, -0.15684698522090912, -0.10481798648834229, 0.10623318701982498, -0.02619452215731144, -0.006440296769142151, 0.04131687059998512, 0.08807330578565598, -0.1804790049791336, -0.3186200261116028, -0.2648334205150604, -0.22296273708343506, -0.23584896326065063, 0.12323591113090515, -0.053541917353868484, 0.06519236415624619, 0.04129428043961525, 0.09272900223731995, -0.07335377484560013, -0.31869545578956604, -0.43658286333084106, -0.14503027498722076, -0.2746146023273468, 0.04134891927242279, -0.009188733994960785, -0.01494590938091278, -0.0787692442536354, 0.11093359440565109, 0.10961111634969711, -0.11206809431314468, -0.0338161401450634, -0.12778687477111816, -0.19329716265201569, -0.1669807732105255, -0.06883424520492554, 0.02301691100001335, 0.06561405956745148, -0.04552513360977173, 0.12031040340662003, -0.05571660399436951, -0.004565167240798473, -0.14327721297740936, -0.129278302192688, -0.2862663269042969, -0.03261332958936691, -0.08692160993814468, 0.016653236001729965, -0.10770449042320251, 0.03285083547234535, -0.03378405049443245, 0.03633524104952812, -0.10392910242080688, -0.11774948984384537, -0.047165676951408386, -0.062335897237062454, 0.03553309291601181, 0.026555318385362625, -0.03200123459100723, -0.04827949404716492, -0.03058425709605217, 0.04880958050489426, -0.06906569004058838, -0.00518841715529561, 0.002034493489190936, 0.017653489485383034, 0.0002854614285752177, 0.04905974492430687, 0.025244472548365593, 0.03525944799184799, 0.034859441220760345, 0.03411537781357765, -0.05191031098365784, 0.050296980887651443, -0.009411877952516079, 0.03735220432281494, 0.03655462712049484, -0.0007438147440552711, -0.028096802532672882, -0.05828869715332985, -0.03432001918554306, -0.02737693302333355, -0.03269375115633011, 0.03217489644885063, 0.029565008357167244, 0.03330996260046959, 0.03786161169409752, -0.0022860949393361807, 0.06690914183855057, -0.017568161711096764, -0.004374706652015448, 0.07144849747419357, 0.018638834357261658, 0.027655325829982758, -0.03389430046081543, -0.04873441532254219, -0.03954388201236725, -0.09051401168107986, 0.0344143882393837, -0.016066575422883034, 0.027193602174520493, -0.023494387045502663, -0.02158897928893566, 0.03334082290530205, 0.028138918802142143, -0.005795040633529425, 0.04777270555496216, -0.031251680105924606, 0.056723397225141525, -0.02637990564107895, -0.014018753543496132, -0.011892594397068024, 0.03383061662316322, -0.005744683090597391, -0.02502042055130005, 0.04760841280221939, -0.015505943447351456, -0.03249621018767357, 0.020248444750905037, -0.024907851591706276, 0.003824458923190832, 0.010609254240989685, 0.02009555883705616, -0.007484160363674164, -0.022315246984362602, 0.007144008297473192, -0.030515525490045547, -0.0210115946829319, -0.020230963826179504, 0.012369702570140362, 0.011419647373259068, -0.008483726531267166, 0.019321778789162636, -0.03199949115514755, 0.013239792548120022, 0.008451305329799652, 0.0184437558054924, 0.0044984775595366955, 0.02549123391509056, 0.007235672324895859, -0.005864112172275782, 0.01154765859246254, 0.02500450424849987, 0.010835636407136917, -0.04482455924153328, 0.02198033779859543, -0.033737022429704666, -0.013625548221170902, -0.02557642199099064, -0.02909141033887863, 0.01911156065762043, -0.0060289339162409306, 0.013618437573313713, 0.009169196709990501, 0.012467805296182632, 0.025066178292036057, 0.011191812343895435, 0.058641139417886734, 0.03897825628519058, 0.012052993290126324, -0.020070089027285576, -0.0029423637315630913, -0.00016084042727015913, -0.0009503212058916688, 0.010408911854028702, 0.020643169060349464, -0.015062971971929073, 0.023231493309140205, 0.007965960539877415, 0.013038167729973793, -0.013861367478966713, -0.011314261704683304, 0.01773485727608204, -0.018830686807632446, 0.045669082552194595, -0.030013542622327805, -0.03263852372765541, -0.5003030896186829, -0.060869019478559494, -0.07021631300449371, 0.03724745288491249, -0.019185421988368034, -0.06166068837046623, -0.020479589700698853, 0.006156113930046558, 0.6468549370765686, -0.1343165636062622, 0.07854299247264862, 1.034258484840393, 0.013808207586407661, 6.142425537109375, 0.012637428008019924], [0.025425618514418602, 0.00788351334631443, 0.03020305372774601, -0.09006629884243011, -0.02999713644385338, 0.03025433048605919, -0.07353950291872025, -0.052056506276130676, -0.1031329482793808, -0.0015017096884548664, 0.0381140373647213, 0.005557045806199312, -0.03366374969482422, -0.17397378385066986, -0.10292414575815201, -0.27785423398017883, -0.13008834421634674, 0.026691241189837456, 0.020402327179908752, 0.057209473103284836, -0.07035224139690399, -0.048205211758613586, -0.2775866985321045, -0.037230484187603, -0.059711165726184845, -0.2028658092021942, -0.06838738173246384, 0.05386597663164139, -0.002134170150384307, 0.00534671638160944, -0.03259015455842018, -0.016640815883874893, -0.11053065955638885, -0.16316823661327362, -0.12388547509908676, -0.02075243927538395, -0.04402204602956772, 0.10075533390045166, 0.05590024217963219, -0.029009003192186356, -0.004891461227089167, -0.0993136316537857, -0.0470651350915432, -0.0646154060959816, -0.07308357208967209, -0.09763743728399277, -0.2526923418045044, -0.03500886633992195, -0.018446823582053185, 0.018486207351088524, 0.06520295143127441, 0.027613231912255287, -0.04477953538298607, -0.03750893101096153, -0.06497101485729218, -0.07409568130970001, -0.17972996830940247, -0.28548645973205566, -0.07961639016866684, -0.06046442687511444, 0.02457825094461441, -0.02325299009680748, -0.16070739924907684, -0.10778237879276276, -0.23659157752990723, 0.15978264808654785, -0.03875308856368065, -0.09565380215644836, 0.013537425547838211, 0.11711190640926361, 0.06918541342020035, -0.040987011045217514, -0.0019145302940160036, -0.11096454411745071, -0.031075546517968178, -0.1715652048587799, -0.1841924637556076, 0.06218665838241577, 0.2572470009326935, -0.14120733737945557, 0.04632588475942612, 0.17127582430839539, -0.06857948005199432, -0.055496085435152054, -0.030617738142609596, 0.05349825695157051, -0.05152447894215584, -0.14122715592384338, 0.04865163937211037, -0.06715163588523865, -0.16399551928043365, 0.26177147030830383, -0.0216551274061203, -0.0735386535525322, 0.0909300148487091, -0.019008271396160126, -0.050031714141368866, 0.19201034307479858, -0.15295155346393585, 0.04953695833683014, -0.027209334075450897, 0.10305088013410568, 0.035478994250297546, -0.0030481067951768637, 0.10517217963933945, 0.0829402357339859, -0.07207274436950684, 0.04946668818593025, 0.0013179287780076265, -0.007441895082592964, 0.10288772732019424, -0.05781318619847298, 0.07376068085432053, 0.023163655772805214, 0.08610407263040543, 0.030095094814896584, 0.14107276499271393, -0.177509143948555, 0.0584862045943737, -0.10966069251298904, -0.06915488094091415, -0.08799823373556137, -0.14621153473854065, 0.04608262702822685, -0.01453440636396408, -0.04810067638754845, 0.04101391136646271, 0.11092372983694077, -0.04511743783950806, 0.04786583036184311, 0.06017393618822098, -0.04200245440006256, -0.10392465442419052, 0.06544215232133865, -0.08081060647964478, 0.062435075640678406, -0.10547935217618942, 0.028036683797836304, 0.0006994510185904801, 0.010449686087667942, -0.056893426924943924, 0.03716833516955376, 0.08574977517127991, -0.02719876356422901, -0.10418220609426498, -0.07984751462936401, -0.01496922131627798, 0.022797783836722374, 0.1313232034444809, -0.0590071938931942, 0.08855345100164413, 0.08387759327888489, 0.08751078695058823, -0.0612691193819046, 0.12037493288516998, -0.14582422375679016, -0.10156639665365219, -0.09375830739736557, -0.03897235170006752, -0.07383270561695099, -0.03797848895192146, -0.004938359372317791, -0.010872019454836845, -0.08084855228662491, 0.09388475865125656, -0.03706197813153267, 0.12582285702228546, 0.13655990362167358, -0.0414578877389431, 0.04140428826212883, -0.073723703622818, -0.01557126734405756, 0.15349353849887848, -0.14771291613578796, 0.04278166592121124, 0.011927125044167042, 0.09317944943904877, -0.09777166694402695, 0.16716358065605164, -0.02925148420035839, 0.06390122324228287, -0.11200344562530518, 0.06467156112194061, 0.014005046337842941, 0.03850492089986801, -0.0010748166823759675, 0.11295322328805923, 0.03248957544565201, 0.019072482362389565, 0.018759511411190033, 0.07217026501893997, -0.020222285762429237, 0.024503152817487717, -0.0175554770976305, 0.0018629416590556502, -0.04136596620082855, 0.03800635412335396, -0.03353662043809891, 0.05174244940280914, -0.090483658015728, -0.18330976366996765, -0.06171998754143715, -0.2247118353843689, 0.02515949122607708, -0.0351874940097332, -0.0563972182571888, -0.012931509874761105, 0.16452324390411377, 0.6997882723808289, -0.044154658913612366, 0.1099671721458435, 0.24123798310756683, -0.007366363424807787, 1.7060394287109375, -0.009539120830595493], [-0.010947385802865028, -0.05191497877240181, -0.021155403926968575, 0.0144529789686203, -0.05391775444149971, 0.08007514476776123, -0.08666229248046875, -0.19157558679580688, -0.10933606326580048, -0.024818899109959602, -0.014558120630681515, -0.02873486466705799, 0.043246179819107056, -0.0031576529145240784, -0.046714913100004196, -0.0010449971305206418, 0.07052262127399445, 0.07389470934867859, -0.044475164264440536, 0.035106360912323, 0.012084491550922394, -0.019612064585089684, 0.008022643625736237, 0.0883542075753212, 0.04437694326043129, 0.14690573513507843, 0.02580505609512329, 0.022256210446357727, 0.09298613667488098, 0.09370169043540955, -0.043186005204916, -0.0597723163664341, 0.09433720260858536, 0.14230957627296448, 0.09277564287185669, 0.24054385721683502, 0.09546127915382385, 0.12819641828536987, -0.023607978597283363, -0.05016297474503517, 0.051527705043554306, 0.10654785484075546, 0.1011219173669815, 0.09763061255216599, 0.09622149169445038, 0.1373291164636612, 0.08925458788871765, 0.23874028027057648, -0.08461151272058487, -0.03536103665828705, 0.2517366409301758, 0.3483080267906189, 0.0800158753991127, 0.04305451363325119, 0.1701992005109787, -0.002370973816141486, 0.10031914710998535, 0.2759864032268524, -0.07434818148612976, -0.1911255419254303, 0.20128221809864044, 0.04756292328238487, 0.24901223182678223, 0.0288076251745224, 0.10372158139944077, -0.14986656606197357, 0.10759658366441727, 0.11095651984214783, -0.14631450176239014, -0.2037157416343689, 0.20188415050506592, -0.019633373245596886, 0.15306083858013153, 0.11941677331924438, -0.211700439453125, -0.09433480352163315, 0.14744509756565094, 0.07882457971572876, 0.0009759872336871922, 0.042671386152505875, 0.007903777062892914, -0.21126487851142883, 0.04665045067667961, -0.43129149079322815, -0.1106448769569397, 0.10559312254190445, 0.09314057976007462, -0.1248989924788475, -0.003358234418556094, -0.00018646246462594718, -0.20299634337425232, -0.036986343562603, -0.09180057048797607, 0.21994784474372864, 0.06848251819610596, 0.1777038872241974, -0.035215284675359726, -0.14808928966522217, -0.1914166659116745, 0.29255425930023193, -0.23262062668800354, 0.11738177388906479, 0.0401504784822464, 0.003445751266553998, 0.010739989578723907, 0.12443793565034866, 0.10458503663539886, 0.011564514599740505, 0.028463885188102722, 0.024968095123767853, 0.09246014058589935, -0.06741168349981308, -0.02840316854417324, 0.09849197417497635, 0.057783517986536026, -0.009220649488270283, -0.182729110121727, 0.15891465544700623, -0.07285130023956299, 0.012358348816633224, -0.06516768783330917, 0.06643959134817123, -0.014641448855400085, 0.08320194482803345, -0.034823816269636154, 0.007458276581019163, -0.1520766168832779, -0.07791263610124588, -0.005632191430777311, -0.0446033738553524, 0.010418660007417202, 0.027108028531074524, 0.04190870001912117, 0.026975296437740326, 0.032667126506567, 0.16237875819206238, -0.103567935526371, 0.10544399917125702, 0.125403493642807, -0.12794838845729828, -0.06405036151409149, 0.1581486165523529, -0.0009661819785833359, 0.08489090204238892, 0.10743846744298935, 0.05663707107305527, -0.0038111512549221516, -0.00984986126422882, 0.09013137221336365, 0.10007217526435852, -0.0473688468337059, 0.1749885231256485, 0.06653439253568649, 0.09600795060396194, -0.09062261134386063, 0.017988692969083786, -0.05848626047372818, 0.09282739460468292, -0.025815393775701523, -0.023290380835533142, -0.09521540999412537, -0.04637260362505913, 0.07192330062389374, 0.06939920037984848, -0.016929376870393753, -0.03242725506424904, -0.0031049216631799936, 0.045347489416599274, -0.07347605377435684, -0.09692391753196716, 0.04961629584431648, 0.14345476031303406, 0.04508586600422859, -0.10330632328987122, -0.020921459421515465, 0.016948925331234932, 0.08750491589307785, -0.01635398156940937, 0.0453590489923954, 0.08224783837795258, -0.052955642342567444, 0.03180050104856491, 0.11504297703504562, 0.0720464289188385, 0.0816960483789444, 0.0497598834335804, -0.06812015175819397, 0.06659664958715439, -0.06770777702331543, -0.025054985657334328, 0.039521392434835434, 0.05618658289313316, -0.015519704669713974, 0.08789873123168945, -0.07959403097629547, -0.03613656014204025, -0.027817152440547943, 0.014901203103363514, -0.0023200700525194407, -0.019626867026090622, 0.016107240691781044, 0.01792321354150772, -0.06044107303023338, -0.0666433647274971, -0.060663480311632156, -0.07184477150440216, -0.016485650092363358, -0.0967070609331131, 0.9169650673866272, 0.025793613865971565, 0.17735719680786133, 0.10699104517698288, 0.012946066446602345, 0.35575422644615173, -0.004480044823139906], [0.03111296333372593, 0.01802927814424038, -0.09476008266210556, -0.07947996258735657, -0.11308562755584717, -0.038171522319316864, -0.1081123948097229, 0.04371881112456322, -0.0524919256567955, -0.006793052889406681, 0.005003331694751978, -0.10781121253967285, -0.12202592939138412, -0.3455241024494171, -0.26667356491088867, -0.2828209698200226, -0.08922454714775085, -0.009128781035542488, -0.057840634137392044, 0.04814152047038078, -0.07944837957620621, -0.15323390066623688, -0.05690551921725273, -0.1503337323665619, -0.13412244617938995, -0.23975911736488342, -0.16019274294376373, -0.01591474749147892, -0.007788420654833317, 0.016702929511666298, -0.10646651685237885, -0.08460598438978195, -0.05677907168865204, -0.1110362559556961, -0.20317816734313965, -0.22990870475769043, -0.30246812105178833, -0.11965711414813995, -0.014015751890838146, -0.10154196619987488, -0.022483646869659424, -0.02424364537000656, -0.16811208426952362, -0.2042815089225769, -0.3128272593021393, -0.37029513716697693, -0.19938282668590546, -0.07079572230577469, -0.04772224277257919, -0.16823412477970123, -0.11246401071548462, 0.08067634701728821, -0.11290257424116135, -0.11469351500272751, -0.13765542209148407, -0.034820277243852615, 0.015308125875890255, -0.009437590837478638, -0.0931779146194458, -0.20218703150749207, 0.24702604115009308, 0.06828171014785767, -0.2842833995819092, 0.03567417711019516, -0.14334551990032196, 0.03938620910048485, 0.025519048795104027, 0.057240936905145645, -0.05719490721821785, -0.0777735561132431, 0.029232453554868698, -0.044501688331365585, -0.04988965764641762, 0.072388656437397, -0.11213109642267227, -0.031174449250102043, -0.1850663423538208, 0.17371836304664612, 0.22347798943519592, -0.023486409336328506, -0.04296586290001869, 