{"type": "afterstate-value-mlp", "version": 1, "inputSize": 215, "layers": [{"weight": [[0.01804400607943535, -0.02522183209657669, 0.020010553300380707, -0.06530982255935669, -0.03323562815785408, -0.14561866223812103, -0.012659532949328423, -0.07893305271863937, -0.0598226822912693, 0.044086724519729614, -0.08920647948980331, -0.023351116105914116, -0.043620966374874115, -0.0947733074426651, -0.14209260046482086, -0.24425195157527924, -0.1250619739294052, -0.0691865012049675, -0.04101530462503433, -0.024873197078704834, -0.10394991934299469, -0.04271107539534569, -0.05351978540420532, -0.14188304543495178, -0.20799043774604797, -0.263874888420105, -0.18522068858146667, 0.05875881016254425, 0.0416572168469429, 0.05810633674263954, -0.11613346636295319, 0.0019891366828233004, -0.06302276253700256, -0.10361035168170929, -0.10236073285341263, -0.1885981559753418, 0.019276641309261322, 0.03612755984067917, 0.08057999610900879, 0.11222359538078308, -0.053704891353845596, -0.18648378551006317, 0.04165639728307724, 0.044671379029750824, -0.07717590034008026, -0.06136967986822128, -0.05373623967170715, 0.027000119909644127, 0.04100530222058296, 0.08571832627058029, 0.1831912100315094, 0.07706966996192932, -0.1481098234653473, 0.0849330946803093, 0.0030542961321771145, 0.008434606716036797, 0.09091268479824066, 0.09442298859357834, -0.013148327358067036, 0.0490783154964447, -0.06683666259050369, 0.031744249165058136, 0.056895628571510315, -0.07093365490436554, 0.025130875408649445, 0.018591081723570824, 0.07704028487205505, 0.10932976752519608, -0.0008637005230411887, 0.27762359380722046, 0.051198381930589676, 0.03131428360939026, 0.058227814733982086, 0.06983917951583862, 0.16418254375457764, 0.09688087552785873, -0.006285705137997866, 0.11093087494373322, 0.023422593250870705, 0.04143516719341278, 0.08560217171907425, -0.05287008732557297, -0.03523888438940048, 0.1576259285211563, 0.03204211965203285, 0.14381028711795807, 0.09835201501846313, 0.1153644248843193, 0.0955733135342598, 0.016931967809796333, 0.08906345069408417, 0.04073319211602211, -0.058880262076854706, -0.06113141030073166, 0.09890646487474442, 0.0636201798915863, 0.1633324772119522, 0.0347948893904686, -0.003530483692884445, 0.0424184575676918, 0.05616241320967674, -0.014298934489488602, -0.2115156352519989, 0.012065102346241474, -0.018034515902400017, 0.13467751443386078, 0.09759888052940369, 0.08594393730163574, -0.02681569755077362, 0.0374007523059845, 0.02122327871620655, -0.1263306587934494, -0.3233456313610077, -0.08183419704437256, 0.004127110354602337, 0.10856951028108597, 0.1511303037405014, 0.007663998752832413, -0.036914072930812836, -0.03083546832203865, -0.03015146590769291, -0.08212324976921082, -0.2631504535675049, -0.06519081443548203, 0.05870576202869415, 0.09843802452087402, 0.2426811307668686, 0.027604229748249054, -0.10065978020429611, -0.05497002601623535, -0.012105116620659828, -0.0986347571015358, -0.18090617656707764, -0.10245170444250107, 0.012536491267383099, 0.12484429031610489, 0.17423106729984283, 0.08145401626825333, -0.04069892689585686, -0.09953339397907257, -0.1364106684923172, -0.20608894526958466, -0.26842936873435974, -0.1682344526052475, -0.02034374326467514, 0.04923982545733452, 0.10273169726133347, 0.0411195307970047, -0.14048948884010315, -0.03993060812354088, -0.08823798596858978, 0.019027557224035263, -0.058885060250759125, -0.050758592784404755, 0.05750824883580208, 0.0670819878578186, 0.07920343428850174, 0.021552033722400665, 0.08365822583436966, -0.040491022169589996, 0.09418302029371262, 0.015254219062626362, -0.01082323957234621, -0.02578483521938324, -0.01725953444838524, -0.02613351307809353, 0.037576038390398026, 0.10751248151063919, 0.08856166154146194, -0.00047774784616194665, 0.05388712137937546, 0.051671452820301056, 0.011582761071622372, -0.045955024659633636, 0.018999403342604637, 0.0041706678457558155, 0.0020947970915585756, 0.08600655943155289, -0.024511689320206642, -0.05958286300301552, 0.005324860103428364, 0.019853701815009117, -0.012897809967398643, -0.07117997854948044, -0.0643032044172287, 0.027241501957178116, 0.053024064749479294, -0.007129159290343523, -0.017775345593690872, -0.035378217697143555, 0.09596250206232071, 0.08001071959733963, 0.04253818094730377, 0.017409861087799072, -0.009574076160788536, -0.10215510427951813, -0.029898053035140038, 0.06650634855031967, 0.033921483904123306, -0.03435177728533745, 0.019377410411834717, 0.11711578816175461, 0.10720967501401901, 0.1748712807893753, 0.19971869885921478, 0.19829852879047394, 0.1317770779132843, -0.08157231658697128, -0.47790148854255676, 0.11342255026102066, -0.026893125846982002, -0.0003569049877114594, -0.003054383210837841, -0.5260387063026428, 0.013673745095729828], [-0.009063671343028545, -0.02108844555914402, -0.07096027582883835, -0.04008067399263382, 0.023132989183068275, -0.11431978642940521, 0.04035155102610588, 0.006343183107674122, -0.004935620818287134, 0.011782191693782806, 0.02440912276506424, -0.03909370303153992, -0.01483260840177536, -0.005965676158666611, -0.29993829131126404, -0.3053003251552582, -0.13345931470394135, -0.06022287905216217, -0.05083991214632988, 0.01675189845263958, 0.01460027415305376, -0.006480153650045395, -0.10421594232320786, -0.2005705088376999, -0.10854817181825638, -0.14695222675800323, -0.02980491705238819, -0.06762475520372391, 0.004416709300130606, 0.1182769387960434, -0.1381688117980957, -0.04694073274731636, -0.18181845545768738, -0.20138400793075562, -0.14740490913391113, -0.22436228394508362, -0.1655280590057373, -0.005416319705545902, -0.16291426122188568, 0.051622722297906876, -0.014416777528822422, -0.02280174382030964, -0.1493483930826187, -0.17269910871982574, -0.20256178081035614, -0.2650723457336426, -0.11149706691503525, -0.10364292562007904, -0.23258265852928162, 0.14147256314754486, 0.054622210562229156, 0.08437370508909225, -0.09649180620908737, -0.1322958916425705, -0.20695297420024872, -0.27833425998687744, -0.06746180355548859, -0.025555547326803207, -0.20624348521232605, -0.1029667854309082, 0.018014801666140556, 0.07578891515731812, 0.034043338149785995, -0.01496545784175396, 0.09427691251039505, -0.12481612712144852, -0.02984975464642048, 0.17331193387508392, -0.10683931410312653, 0.029803819954395294, -0.07075372338294983, -0.07292143255472183, 0.06640034914016724, -0.1284121572971344, 0.03020056150853634, -0.10871458053588867, 0.0565730482339859, 0.08804494142532349, -0.04798988625407219, -0.09014757722616196, 0.06527507305145264, -0.007775566074997187, 0.02086983434855938, -0.057426366955041885, -0.024590155109763145, -0.014124925248324871, -0.13821746408939362, -0.012705937959253788, 0.04278932884335518, -0.040509115904569626, -0.00791175290942192, -0.025468215346336365, 0.11182687431573868, -0.010911253280937672, -0.062628373503685, -0.007947899401187897, 0.0064495331607759, -0.0593576617538929, -0.035231877118349075, -0.10317959636449814, 0.03326216712594032, 0.0008328366675414145, -0.05647451803088188, 0.020593328401446342, -0.0069754039868712425, 0.09076222777366638, -0.06611879914999008, 0.02874183841049671, 0.028579281643033028, -0.023982925340533257, 0.022919388487935066, 0.04924872890114784, -0.04727784916758537, 0.018266677856445312, -0.03266552463173866, 0.026268448680639267, 0.10069131851196289, 0.05030304193496704, -0.0700981467962265, -0.08951973915100098, -0.021540677174925804, 0.09146203845739365, -0.007536306977272034, 0.0030989618971943855, 0.07690063118934631, -0.045138776302337646, -0.07818082720041275, -0.04734302684664726, 0.0011966326273977757, 0.04444952681660652, -0.046380214393138885, -0.0399295873939991, 0.03576952964067459, -0.006402181461453438, 0.002093303482979536, 0.07378645241260529, 0.024647507816553116, 0.018214406445622444, 0.05160108953714371, -0.03802565857768059, -0.03674193471670151, 0.006960215047001839, 0.04697254300117493, -0.009347774088382721, 0.019418735057115555, -0.006842809729278088, 0.04076452553272247, 0.013434215448796749, 0.07290627807378769, -0.14646902680397034, 0.07200499624013901, 0.009472683072090149, 0.07365486025810242, -0.04487408325076103, -0.034347932785749435, -0.002184793120250106, 0.023822469636797905, -0.10659515112638474, -0.05270129069685936, 0.015128877945244312, -0.04172025993466377, 0.047957319766283035, 0.09771028161048889, -0.024062570184469223, -0.029268698766827583, 0.09457027167081833, 0.026006879284977913, 0.11908536404371262, -0.05982371047139168, -0.07819756120443344, 0.062189601361751556, -0.04121312499046326, 0.08559165149927139, 0.04373929649591446, 0.029499713331460953, 0.05480828136205673, 0.02349160984158516, 0.08244515210390091, -0.01058934722095728, 0.07431069761514664, -0.12245338410139084, -0.0033998419530689716, 0.06694044917821884, -0.009554918855428696, -0.025701431557536125, 0.03943096473813057, -0.046118251979351044, -0.04369385913014412, -0.011243154294788837, 0.08047313988208771, -0.031425196677446365, -0.09070131182670593, 0.05159604921936989, -0.01875239610671997, 0.01723140850663185, 0.07255072891712189, -0.02292279526591301, -0.09945125132799149, -0.09099777787923813, 0.028751030564308167, 0.024547550827264786, -0.01150247547775507, -0.04708336666226387, -0.08680585771799088, -0.018790358677506447, -0.04271957650780678, -0.038830630481243134, 0.017688779160380363, 1.4632283449172974, 0.0443524606525898, 0.1582082211971283, -0.005583960097283125, 0.009196731261909008, -1.3276541233062744, 0.0025508077815175056], [-0.026589568704366684, 0.06487993150949478, 0.06217879801988602, -0.009776834398508072, -0.011061436496675014, -0.0749531239271164, -0.09053730219602585, 0.011685180477797985, -0.04520091786980629, 0.004830517806112766, 0.03786737844347954, 0.0018279816722497344, 0.12214543670415878, -0.055512361228466034, -0.1555938422679901, -0.07223677635192871, -0.03344441577792168, -0.027641577646136284, -0.09366632997989655, -0.012454916723072529, -0.013591810129582882, 0.004874659702181816, -0.10046478360891342, 0.01056762970983982, -0.1281708925962448, -0.059406112879514694, -0.08737216144800186, -0.04608619585633278, -0.05984039232134819, -0.05136232450604439, 0.026856448501348495, -0.09676052629947662, -0.08773703873157501, -0.012569119222462177, -0.02611587755382061, -0.0536673367023468, -0.08220220357179642, 0.04217865318059921, -0.08462074398994446, -0.11259884387254715, -0.002639645943418145, -0.16038182377815247, -0.0515425018966198, -0.1507897973060608, -0.010621590539813042, 0.10299193859100342, -0.07506851851940155, -0.03297565504908562, 0.03297670930624008, 0.15185454487800598, 0.17303460836410522, 0.10834648460149765, -0.15930095314979553, -0.08374841511249542, -0.22144795954227448, 0.007948167622089386, -0.0930994302034378, -0.06288683414459229, 0.043059490621089935, 0.11453481763601303, 0.02063620276749134, 0.006736640818417072, -0.11595971137285233, -0.10084836184978485, 0.0517856627702713, -0.11211209744215012, -0.1833571493625641, -0.07323484867811203, -0.0569349080324173, 0.026666751131415367, 0.10531791299581528, 0.05792170390486717, 0.12677329778671265, -0.1260305941104889, -0.2478739470243454, -0.010882890783250332, -0.05764934793114662, 0.12030335515737534, 0.03447722643613815, 0.0438208244740963, 0.13143618404865265, 0.018477782607078552, 0.020589597523212433, 0.04740823060274124, -0.10396502166986465, 0.07034334540367126, -0.08520902693271637, -0.03437571972608566, 0.0871061161160469, 0.0019795296248048544, 0.12360735237598419, 0.041923630982637405, 0.06661037355661392, 0.020244551822543144, 0.024948908016085625, -0.07198016345500946, -0.06629569828510284, 0.04549171030521393, -0.0011011133901774883, 0.04359479621052742, 0.17525434494018555, 0.09677265584468842, 0.026036739349365234, -0.03848115727305412, -0.010413422249257565, -0.08274205029010773, -0.17342887818813324, 0.044738009572029114, -0.028111010789871216, 0.06353729218244553, 0.14416581392288208, 0.015895863994956017, 0.016789956018328667, -0.09150004386901855, -0.07339874655008316, -0.026609528809785843, -0.07264097034931183, 0.03755290061235428, -0.05228797346353531, -0.012533457949757576, 0.11798375844955444, 0.06815120577812195, -0.06152815371751785, -0.10650385916233063, -0.0671529695391655, -0.011593248695135117, -0.17956189811229706, -0.057767678052186966, -0.049640510231256485, 0.024496929720044136, 0.2105257511138916, 0.02754294127225876, -0.026471903547644615, -0.04997692629694939, -0.023536067456007004, 0.09715750813484192, -0.01423486415296793, 0.07008060067892075, 0.11204113811254501, 0.028620025143027306, 0.05650598928332329, 0.03921419382095337, -0.003963382449001074, -0.01633443310856819, -0.1285293698310852, 0.04612663388252258, 0.10437379032373428, -0.04776405915617943, 0.11585929244756699, 0.10312550514936447, -0.031984567642211914, -0.09064479917287827, -0.10016229748725891, -0.2036694586277008, -0.0885060504078865, -0.008183011785149574, 0.034340403974056244, -0.026860445737838745, 0.040185946971178055, 0.05887414515018463, 0.004697441589087248, -0.16145265102386475, -0.06148527190089226, -0.026487279683351517, -0.046637047082185745, -0.03765024617314339, -0.06992550194263458, 0.021259410306811333, 0.0045953597873449326, 0.07540147751569748, -0.04017794504761696, -0.053759340196847916, -0.04071575030684471, -0.00275601027533412, -0.04266634210944176, 0.01435653492808342, 0.02724209986627102, 0.08042538166046143, 0.042190127074718475, 0.11011192947626114, -0.0728740245103836, -0.011938508599996567, 0.012423336505889893, 0.017207028344273567, -0.062141332775354385, 0.07405216246843338, 0.10829904675483704, 0.020632129162549973, 0.04499518871307373, 0.018958058208227158, -0.08101008832454681, 0.0820605605840683, -0.0019058790057897568, -0.03879844397306442, -0.0272996723651886, -0.05967956781387329, 0.0683920830488205, 0.09918840229511261, 0.09661722928285599, -0.06057402119040489, 0.08377120643854141, 0.10013116151094437, 0.07922405004501343, 0.05987338721752167, 0.06157907098531723, 0.08044998347759247, 0.1443985104560852, -0.08643507957458496, -1.3476370573043823, 0.04695723205804825, -0.16627071797847748, -0.5099515318870544, -0.00613082479685545, -1.3196560144424438, -0.006403821986168623], [0.007111226208508015, 0.04529070854187012, -0.018196294084191322, -0.03794170916080475, -0.0673428401350975, 0.005718029569834471, -0.06087912619113922, -0.0077724764123559, -0.0720742717385292, -0.005619836505502462, -0.046470124274492264, 0.0070947520434856415, -0.08223043382167816, -0.12958498299121857, -0.20978540182113647, -0.1209990605711937, -0.09494370222091675, -0.10176938027143478, -0.024416672065854073, -0.09232325851917267, -0.0800948366522789, 0.007147074677050114, -0.03458770737051964, -0.07250985503196716, -0.17242425680160522, -0.16615334153175354, -0.06600354611873627, -0.023647606372833252, 0.006672104820609093, 0.04009104147553444, -0.03363749012351036, 0.0033080654684454203, -0.03668244183063507, -0.05643732473254204, -0.13280315697193146, -0.2229071408510208, -0.05653154104948044, -0.09519334882497787, 0.019251031801104546, 0.015351890586316586, -0.0914265364408493, -0.05530422553420067, 0.03401218727231026, -0.18253172934055328, -0.06930161267518997, -0.17558658123016357, 0.022091716527938843, -0.07829668372869492, -0.10084065049886703, -0.023892885074019432, -0.18945614993572235, -0.13805246353149414, -0.10258375853300095, -0.0595821775496006, -0.1307743638753891, 0.011134356260299683, -0.0022212076000869274, -0.15500032901763916, -0.055882010608911514, -0.1754419505596161, 0.13495054841041565, -0.07625117897987366, -0.12248958647251129, 0.03734307363629341, -0.20393460988998413, 0.062408026307821274, -0.0772518441081047, -0.14550189673900604, -0.11057854443788528, -0.20816874504089355, 0.18341557681560516, -0.1817038357257843, -0.1532628983259201, 0.25471457839012146, -0.004833705723285675, 0.046448465436697006, 0.010547054931521416, -0.08855919539928436, -0.14695872366428375, 0.07062431424856186, 0.1921437531709671, -0.3005372881889343, -0.05795149505138397, 0.03292660415172577, 0.007917615585029125, -0.09383679181337357, 0.025136224925518036, 0.05128343030810356, 0.06328029930591583, 0.11851122975349426, 0.11361744999885559, -0.1890663355588913, -0.012584594078361988, 0.11998928338289261, 0.036351803690195084, 0.17853499948978424, 0.1917503923177719, -0.014799161814153194, -0.09022458642721176, 0.0790005549788475, -0.03347162902355194, -0.4113543629646301, 0.13550175726413727, 0.05253511667251587, -0.05474065616726875, 0.16143834590911865, -0.02688930183649063, -0.07819122076034546, -0.02724873460829258, -0.07715119421482086, -0.048663388937711716, -0.2182139903306961, 0.04679756984114647, -0.05923926457762718, 0.06656866520643234, 0.05997690558433533, -0.03885545954108238, 0.08268292248249054, -0.12295439094305038, 0.027173370122909546, -0.09301325678825378, -0.28891706466674805, 0.1141880601644516, 0.07541421055793762, -0.1514337956905365, -0.02138318307697773, -0.06910698860883713, -0.00892764050513506, -0.10855802148580551, -0.10479866713285446, -0.04716448485851288, -0.35206106305122375, 0.11061367392539978, 0.02442283369600773, -0.040565669536590576, -0.039894819259643555, -0.0357365757226944, 0.031289730221033096, -0.08820603042840958, -0.12811140716075897, -0.04076569154858589, -0.06425147503614426, 0.0699574276804924, 0.046436820179224014, -0.05742466822266579, -0.006458934862166643, -0.0531194768846035, 0.06421487033367157, 0.08315803855657578, -0.004981623496860266, -0.10101838409900665, -0.00043832132359966636, -0.03559704124927521, 0.023320233449339867, -0.059045471251010895, -0.07011698931455612, -0.03714607283473015, -0.037874843925237656, -0.06749747693538666, 0.006182769779115915, 0.1755039244890213, 0.04449816048145294, 0.05857915058732033, -0.011877158656716347, -0.06923206150531769, -0.08008570224046707, 0.0816432535648346, 0.06681119650602341, -0.007854364812374115, -0.007286045700311661, 0.15174062550067902, 0.009741444140672684, 0.026102164760231972, -0.05922795459628105, 0.012975260615348816, 0.05420108884572983, -0.017207901924848557, -0.048265691846609116, 0.059556473046541214, -0.016526371240615845, 0.07351617515087128, 0.06775431334972382, 0.07158733904361725, 0.01796739362180233, -0.04629210755228996, -0.014265510253608227, 0.013235478661954403, 0.006132034119218588, 0.030854005366563797, -0.01652040332555771, 0.10324498265981674, -0.022333355620503426, 0.04386235773563385, 0.03675231337547302, 0.02516815811395645, 0.023299388587474823, 0.035618070513010025, 0.09239848703145981, 0.04878389462828636, 0.006969604175537825, -0.16218255460262299, 0.0036436745431274176, -0.037408534437417984, 0.21388652920722961, 0.014676464721560478, 0.0005892791668884456, -0.011846470646560192, 0.174502432346344, -0.42317548394203186, 0.0577092170715332, -0.05998152121901512, 0.07175601273775101, 0.0034984382800757885, -2.158827543258667, -0.0028242089319974184], [-0.015498843044042587, 0.04653859883546829, -0.0367136150598526, 0.05924029275774956, 0.03278321772813797, 0.06577669084072113, -0.04623754695057869, -0.0732647106051445, -0.013473846949636936, 0.019573228433728218, -0.012896602973341942, 0.008121278136968613, -0.05740828439593315, 0.02762017212808132, 0.10085900872945786, 0.11887075006961823, -0.03830995410680771, -0.0907103419303894, -0.08611692488193512, -0.04761333391070366, -0.04812389612197876, -0.011097421869635582, -0.029286401346325874, -0.034333933144807816, -0.009905326180160046, 0.02365962415933609, -0.0218165535479784, 0.024150006473064423, 0.05536960810422897, 0.0611935518682003, 0.07510718703269958, 0.0019710639026015997, -0.050186023116111755, -0.018985390663146973, -0.01672249659895897, -0.04690597951412201, -0.07086417824029922, 0.04351085051894188, 0.020466459915041924, 0.011148300021886826, 0.019823987036943436, 0.06345489621162415, 0.007896754890680313, 0.035344645380973816, -0.03454190120100975, -0.0012723213294520974, -0.03280108794569969, 0.013975974172353745, 0.03361793980002403, 0.0012511959066614509, 0.0681874230504036, 0.0628238171339035, 0.06245668977499008, 0.06138232722878456, 0.09334424138069153, 0.0016469013644382358, 0.0022052263375371695, -0.0008621703600510955, 0.03277970850467682, -0.017842408269643784, 0.1299159675836563, 0.02838541381061077, 0.02976849488914013, 0.07376819849014282, 0.03271327540278435, -0.00013441956252790987, 0.10513857752084732, 0.08833052217960358, 0.04199260473251343, 0.05415106192231178, 0.02745610848069191, 0.11363005638122559, 0.0726972222328186, 0.10504800081253052, 0.07738155871629715, 0.07524699717760086, 0.09230323880910873, 0.048037271946668625, 0.04857319965958595, -0.028392979875206947, 0.010725224390625954, 0.046658966690301895, 0.04151572659611702, 0.08971303701400757, 0.051439449191093445, 0.09187666326761246, 0.15264873206615448, 0.04182693362236023, 0.04569026455283165, -0.02073499746620655, 0.04027196019887924, 0.06419924646615982, 0.043098289519548416, 0.0648631677031517, 0.09800509363412857, 0.11605804413557053, 0.07963747531175613, 0.0584837906062603, 0.06841174513101578, -0.0021916874684393406, 0.09647123515605927, 0.014460595324635506, -3.064431075472385e-05, 0.05494115501642227, 0.09320133179426193, 0.09866488724946976, 0.09023480117321014, 0.12344714254140854, 0.03771055117249489, 0.039341580122709274, 0.04976629465818405, 0.09137653559446335, 0.04189686477184296, 0.02935163676738739, 0.017600199207663536, 0.00036485990858636796, 0.051558952778577805, 0.010316316969692707, 0.066155806183815, -0.025776542723178864, -0.04280175641179085, 0.026103457435965538, 0.0708485022187233, 0.08349069207906723, 0.022629965096712112, 0.023043569177389145, 0.06875114887952805, 0.04869331419467926, 0.07661944627761841, -0.012176991440355778, 0.0317448265850544, 0.07732554525136948, 0.05845247954130173, 0.09742816537618637, 0.031118107959628105, 0.05225198343396187, 0.09577883780002594, 0.06305057555437088, 0.058092858642339706, 0.025544673204421997, 0.001937726279720664, 0.06297563761472702, 0.13010066747665405, 0.033621978014707565, 0.10315335541963577, 0.08621329069137573, 0.07482459396123886, 0.05759092792868614, 0.06857223808765411, 0.03546630218625069, 0.05479652062058449, 0.07283468544483185, 0.09701339155435562, 0.1101687103509903, 0.08678270131349564, 0.09042488783597946, 0.0954618752002716, 0.04091334342956543, 0.10489071905612946, 0.0390920490026474, 0.054116833955049515, 0.05094893276691437, 0.04847707971930504, 0.05794800445437431, 0.03521318733692169, 0.028262900188565254, 0.07284875959157944, 0.03086567483842373, 0.05707802623510361, -0.022557757794857025, 0.03914923965930939, 0.02581901289522648, 0.0744367465376854, 0.06802644580602646, 0.058161016553640366, 0.05992269143462181, 0.05233082175254822, 0.03700430318713188, 0.051026880741119385, 0.0016080790665000677, 0.030549490824341774, 0.04493851959705353, 0.02719162032008171, 0.05849214643239975, 0.04440198466181755, 0.043919019401073456, 0.0655280128121376, 0.019694851711392403, 0.05718325823545456, 0.007194653153419495, -0.012505457736551762, 0.04487365484237671, 0.03807084262371063, -0.015077885240316391, 0.02228221297264099, 0.03763202950358391, -0.02485976740717888, 0.0007931470172479749, -0.02778533287346363, 0.06239994987845421, 0.13371481001377106, 0.019320441409945488, 0.05596026033163071, 0.05523247644305229, 0.05592762678861618, 0.036390457302331924, 0.06553667783737183, 0.23858623206615448, -1.0265836715698242, -0.039929457008838654, -0.08746041357517242, -0.6368566155433655, -0.007795472629368305, -0.542529821395874, 0.05374283716082573], [0.011680012568831444, 0.0632823184132576, -6.750236207153648e-05, -0.03657009080052376, -0.09171129763126373, -0.0639917328953743, -0.050385091453790665, 0.07342199236154556, 0.07118173688650131, -0.03531023487448692, 0.025675008073449135, -0.00658717006444931, -0.016332000494003296, -0.14480778574943542, -0.1782371699810028, -0.16897475719451904, -0.16410641372203827, -0.027164272964000702, -0.04711891710758209, 0.003856085240840912, -0.024782130494713783, -0.04126293584704399, -0.03260062634944916, -0.16219300031661987, -0.0014399962965399027, -0.04007311537861824, -0.04380268231034279, -0.06728855520486832, 0.015089921653270721, 0.05410618335008621, -0.10101732611656189, -0.04303250089287758, -0.10989291965961456, -0.10391636937856674, -0.13026684522628784, -0.18854530155658722, -0.10196604579687119, -0.10075976699590683, -0.1031067967414856, 0.005647057667374611, -0.09898300468921661, -0.08696174621582031, -0.09137086570262909, -0.19821466505527496, -0.1673824042081833, -0.16681087017059326, -0.009183689951896667, 0.009024904109537601, -0.10724830627441406, -0.18682347238063812, -0.0406784825026989, 0.185380756855011, -0.18075694143772125, -0.021440954878926277, -0.19359618425369263, 0.021547164767980576, -0.30044129490852356, -0.23343390226364136, 0.0165111031383276, -0.18582509458065033, -0.06507515162229538, 0.012329480610787868, -0.12216338515281677, -0.08427131175994873, -0.09550245106220245, 0.047091249376535416, -0.19014054536819458, -0.1303195059299469, 0.010932167991995811, -0.013707080855965614, -0.08673092722892761, -0.0881449431180954, 0.027887525036931038, -0.039333198219537735, -0.1025194302201271, 0.07785272598266602, -0.11148644983768463, -0.17922210693359375, 0.06470812857151031, 0.02876690775156021, 0.0626748725771904, 0.06480349600315094, 0.032368626445531845, -0.009610631503164768, -0.48417675495147705, -0.17427444458007812, -0.14548039436340332, 0.008997835218906403, -0.08482512831687927, 0.006351038813591003, 0.012511882930994034, 0.08397282660007477, 0.10939095169305801, 0.10817386209964752, -0.1477653533220291, 0.014345911331474781, 0.029469024389982224, -0.20422062277793884, -0.0359434075653553, -0.05694315582513809, -0.04529603570699692, 0.060826703906059265, -0.06427968293428421, 0.048599425703287125, -0.028553249314427376, -0.0021585815120488405, -0.02697600983083248, -0.16247394680976868, -0.12025763839483261, -0.057373106479644775, -0.03456312045454979, -0.01463588047772646, -0.05665929242968559, 0.07742119580507278, -0.09411749988794327, 0.10882427543401718, -0.11815197765827179, 0.031788647174835205, 0.034622304141521454, 0.09547124803066254, 0.01620689034461975, -0.043813906610012054, 0.004624736029654741, -0.03276706859469414, 0.015659121796488762, 0.039265088737010956, 0.03531326353549957, -0.013421108014881611, 0.022181248292326927, -0.06245071440935135, 0.056481167674064636, 0.008258560672402382, 0.009079609997570515, -0.06453102082014084, 0.05137338861823082, -0.01797068491578102, -0.012400969862937927, 0.02319941483438015, -0.045788154006004333, -0.07826021313667297, -0.1102379709482193, -0.08839938789606094, -0.07353004068136215, -0.00837685726583004, 0.02042495831847191, 0.08876620978116989, 0.0006317738443613052, 0.00839491467922926, 0.03208838030695915, 0.02832828089594841, -0.07892744243144989, -0.13900218904018402, 0.10958286374807358, -0.08189976960420609, -0.006980968173593283, 0.04691113904118538, -0.0678122341632843, 0.02209927886724472, -0.03302910551428795, -0.06670721620321274, -0.09501757472753525, 0.004521065391600132, -0.005405035801231861, -0.04787050560116768, 0.1061621606349945, 0.06581177562475204, -0.040401995182037354, -0.03889932110905647, -0.14727747440338135, 0.09551498293876648, -0.0894046500325203, -0.0030109004583209753, 0.058937083929777145, 0.004374399781227112, 0.01481825951486826, -0.04113495349884033, -0.03504021838307381, 0.13568776845932007, -0.10580755025148392, -0.0763794332742691, -0.121697336435318, -0.010560691356658936, -0.04282946512103081, -0.05643643066287041, 0.0012052021920681, 0.027628496289253235, 0.03197470307350159, 0.04811045527458191, 0.04020044952630997, 0.047539737075567245, 0.007419646717607975, 0.1288466602563858, -0.09285098314285278, 0.0043715666979551315, 0.02890920825302601, 0.0986919105052948, 0.003243457991629839, -0.1247498095035553, 0.007448924705386162, -0.07173735648393631, -0.09032781422138214, -0.06574048101902008, -0.016638418659567833, -0.042276471853256226, -0.03147992491722107, 0.03894077241420746, -0.03506264090538025, 0.017480287700891495, 0.7966587543487549, -0.051275674253702164, 0.077516570687294, 0.16438589990139008, 0.005497519858181477, 1.4719575643539429, -0.006048157345503569], [-0.052649032324552536, 0.0296136774122715, -0.0958881601691246, 0.03088437020778656, -0.1533970832824707, -0.05499099940061569, -6.893692625453696e-05, 0.029117073863744736, 0.010769338347017765, 0.04399101436138153, 0.03545577451586723, -0.04597877711057663, 0.06665610522031784, -0.0960717424750328, -0.1264389008283615, -0.20330622792243958, -0.10523684322834015, 0.013259336352348328, 0.051609426736831665, -0.030859749764204025, -0.023055875673890114, 0.0018523861654102802, -0.021246271207928658, -0.16203917562961578, -0.16553650796413422, -0.028566278517246246, -0.014231198467314243, 0.04195965826511383, 0.04574709013104439, 0.1178896352648735, -0.05910826101899147, 0.03563610836863518, 0.027273930609226227, -0.1568496972322464, 0.0009595385636202991, -0.1109672337770462, -0.12908467650413513, 0.043139033019542694, -0.03744901344180107, 0.01437742542475462, 0.02793276309967041, -0.07725229859352112, 0.0685935690999031, -0.010815780609846115, -0.14418992400169373, -0.24613109230995178, -0.10327920317649841, -0.20365583896636963, -0.05923572555184364, 0.11398192495107651, -0.28430527448654175, -0.18974678218364716, 0.03650074452161789, -0.05333574861288071, -0.06877908855676651, -0.09021339565515518, 0.13061796128749847, -0.1015220358967781, -0.05165022984147072, -0.02550230175256729, 0.12216568738222122, 0.09532240778207779, -0.13410305976867676, -0.15740357339382172, -0.1305118054151535, -0.11617249250411987, 0.061160530894994736, -0.1351197361946106, -0.02503005973994732, -0.028996290639042854, -0.0014240624150261283, 0.11365301162004471, 0.023447956889867783, 0.14190050959587097, -0.04428355023264885, -0.3374377191066742, -0.06135154888033867, 0.06658662855625153, -0.056552592664957047, 0.04381070286035538, -0.06403768062591553, -0.07759153097867966, -0.06462286412715912, 0.1998671144247055, 0.06974649429321289, -0.306795209646225, 0.0765608474612236, 0.014813503250479698, -0.05434177815914154, -0.01913922093808651, -0.04396505281329155, -0.08146047592163086, -0.06652693450450897, -0.06963042169809341, 0.09482715278863907, -0.16290678083896637, -0.021922165527939796, 0.0755346417427063, 0.029061803594231606, 0.01905207335948944, 0.03135930374264717, 0.09983766078948975, -0.05413467437028885, 0.09887952357530594, 0.04025307297706604, -0.083896704018116, 0.08235961198806763, -0.05847567692399025, -0.05472416803240776, -0.028877148404717445, -0.020191390067338943, -0.06950662285089493, -0.01767338439822197, -0.004187790211290121, -0.013667221181094646, -0.02493061125278473, -0.12535735964775085, 0.010212251916527748, 0.16029495000839233, 0.1502508670091629, 0.07485778629779816, 0.030552489683032036, -0.01919221319258213, -0.1006087064743042, -0.054602764546871185, -0.054098207503557205, 0.045312006026506424, 0.029524579644203186, -0.16293573379516602, -0.12324383109807968, -0.01604040153324604, -0.07721028476953506, 0.10133940726518631, 0.09178945422172546, 0.04344429448246956, 0.05492769181728363, -0.04082247242331505, -0.1833375096321106, -0.0415036603808403, -0.07289393991231918, -0.06539046764373779, -0.02189568430185318, 0.09049701690673828, -0.012619133107364178, 0.01319181639701128, 0.005295845214277506, -0.12600360810756683, 0.010962682776153088, -0.03516039997339249, 0.02460208348929882, -0.07079483568668365, 0.06505504995584488, 0.10392218828201294, -0.043310146778821945, 0.039560869336128235, -0.001913862768560648, -0.025200994685292244, -0.01873047463595867, -0.010761436074972153, -0.0410168394446373, 0.06508952379226685, 0.01493904646486044, 0.092486672103405, -0.07787603884935379, -0.07692275941371918, -0.06710702925920486, -0.12132042646408081, 0.0829496830701828, -0.024011611938476562, 0.08701999485492706, -0.024170929566025734, -0.11565965414047241, -0.023404845967888832, 0.0669860988855362, 0.059045035392045975, -0.007009247317910194, 0.014787591993808746, 0.06266298145055771, 0.0049811191856861115, -0.025134136900305748, 0.02170116826891899, -0.039909303188323975, 0.005002530291676521, 0.04770045727491379, 0.007476861588656902, -0.09349943697452545, -0.019546417519450188, 0.07523401081562042, -0.030633972957730293, -0.022691473364830017, 0.06403517723083496, 0.04305427148938179, 0.007665970362722874, 0.027920948341488838, -0.11033365875482559, 0.08670923113822937, 0.07168864458799362, -0.1748320758342743, -0.004574306774884462, -0.12154664844274521, -0.07069613039493561, 0.0017138103721663356, -0.07087115198373795, -0.09550726413726807, -0.0031073433347046375, 0.003825637511909008, -0.006428340449929237, -0.06749194860458374, 0.3559846580028534, -0.050376228988170624, 0.045900050550699234, 0.2050299495458603, 0.006706550717353821, 0.5954409241676331, -0.014119048602879047], [0.0029036772903054953, -0.006710221525281668, -0.0897076278924942, -0.014721257612109184, -0.05304936692118645, -0.04926643148064613, -0.015337683260440826, -0.01703725755214691, -0.14842726290225983, -0.09800125658512115, 0.00586604792624712, 0.0461423434317112, 0.0010433115530759096, -0.2124117761850357, -0.1728844791650772, -0.073977030813694, -0.15057776868343353, 0.012740785256028175, 0.020167984068393707, -0.030688699334859848, -0.04180137440562248, -0.12071774154901505, 0.07802826911211014, -0.18841154873371124, -0.15692828595638275, -0.16878265142440796, -0.02290957421064377, 0.038117967545986176, 0.1850704699754715, 0.19936752319335938, -0.03163470700383186, 0.11453953385353088, 0.08385857194662094, -0.2594163119792938, -0.08836718648672104, -0.06507940590381622, -0.019555525854229927, 0.10614893585443497, 0.041424546390771866, 0.28137636184692383, 0.16130252182483673, 0.14257806539535522, 0.027463845908641815, -0.07534213364124298, -0.24771064519882202, -0.07739255577325821, -0.0787811130285263, -0.0160620529204607, 0.0029553156346082687, 0.26611581444740295, 0.21936547756195068, 0.03659876063466072, -0.019933320581912994, -0.18451502919197083, -0.0024536834098398685, 0.011919810436666012, -0.03101266920566559, 0.0753842294216156, 0.00569490110501647, 0.16862767934799194, 0.19562628865242004, -0.07743696868419647, 0.023871231824159622, 0.1577138602733612, 0.1654626429080963, 0.12626810371875763, 0.10322792083024979, 0.09790096431970596, 0.14795251190662384, 0.16604448854923248, -0.050529126077890396, -0.06497606635093689, 0.14865750074386597, 0.115313820540905, -0.0044550541788339615, 0.12129051983356476, 0.17745676636695862, 0.0065097082406282425, 0.22762224078178406, 0.13915379345417023, -0.027271145954728127, -0.11256152391433716, 0.2554834187030792, 0.1243746280670166, 0.16583171486854553, -0.03006814420223236, 0.011766759678721428, 0.184698224067688, 0.06438883394002914, 0.12885330617427826, 0.012298813089728355, -0.1339237540960312, -0.006240972317755222, 0.03649280220270157, 0.06437788158655167, 0.01735449954867363, 0.0542532242834568, 0.0741269439458847, -0.06402858346700668, 0.02093319036066532, -0.09686675667762756, -0.13454897701740265, 0.04825695976614952, 0.17577508091926575, 0.050127968192100525, -0.06891030073165894, -0.07877422124147415, 0.1414674073457718, 0.18511539697647095, -0.004653181880712509, -0.022282330319285393, -0.1638130396604538, -0.14328855276107788, 0.02727523073554039, -0.0017331871204078197, -0.0022821552120149136, -0.14162535965442657, -0.04839256778359413, -0.04450012743473053, -0.03595384955406189, -0.13292400538921356, -0.28775930404663086, -0.1167890876531601, -0.08450663834810257, -0.09854083508253098, -0.12899786233901978, -0.10067728906869888, -0.11215681582689285, -0.03359181433916092, -0.13221149146556854, 0.05678600072860718, -0.047663699835538864, -0.012866262346506119, 0.1478068232536316, 0.02786843106150627, 0.09044194966554642, -0.034718871116638184, 0.04152236133813858, 0.03465424105525017, -0.1597520411014557, 0.04384390264749527, -0.001061989227309823, 0.01869276724755764, -0.021056335419416428, 0.036689694970846176, 0.04984806105494499, 0.07087020576000214, -0.07853624224662781, 0.019714979454874992, -0.10838665068149567, 0.03696141019463539, 0.042754579335451126, 0.02807057648897171, -0.03245025500655174, 0.023420419543981552, -0.04854197800159454, -0.03603145107626915, 0.039226822555065155, -0.025646712630987167, -0.119476318359375, 0.06301761418581009, 0.005140514578670263, -0.07873959839344025, -0.0011355062015354633, -0.10558071732521057, -0.06778864562511444, -0.09137076884508133, 0.07230723649263382, -0.0385257862508297, -0.04538976401090622, 0.08264968544244766, 0.046555012464523315, -0.030548347160220146, 0.008182385005056858, -0.013773342594504356, 0.002852885751053691, -0.03739702329039574, 0.0008484174031764269, 0.01053769700229168, 0.0079434709623456, -0.005185696762055159, -0.02624666877090931, -0.059526942670345306, 0.029494846239686012, 0.016577690839767456, 0.05136942118406296, 0.00592033751308918, 0.03480375185608864, -0.0435037761926651, 0.07687924802303314, 0.16273340582847595, -0.01952725648880005, -0.05392666533589363, -0.06428363919258118, -0.03074071556329727, 0.055960316210985184, -0.0030767573043704033, 0.08342890441417694, 0.05986456200480461, 0.06869225203990936, 0.17391051352024078, 0.1379380077123642, 0.2148776650428772, -0.006294491235166788, 0.11130811274051666, 0.2050345242023468, 0.07601511478424072, 0.24128545820713043, -0.19757728278636932, 0.08415203541517258, -0.0036792608443647623, -0.09834080934524536, 0.010608606971800327, 0.24062378704547882, 0.0021761497482657433], [0.00340871955268085, 0.036621470004320145, 0.02017979882657528, -0.06545519083738327, -0.11169865727424622, -0.18941950798034668, -0.09095430374145508, -0.0691731721162796, 0.008754748851060867, 0.02372235246002674, -0.03624718263745308, 0.04679001122713089, 0.04267174378037453, -0.25667908787727356, -0.22746679186820984, -0.5125605463981628, 0.08087992668151855, 0.08722558617591858, -0.005621674004942179, -0.052534639835357666, -0.01088196411728859, -0.04621981084346771, -0.1609681099653244, -0.1648901253938675, -0.1723003089427948, -0.26995810866355896, -0.005268709734082222, 0.02434488572180271, -0.17890965938568115, -0.08157626539468765, -0.012790500186383724, -0.05731649324297905, -0.24738915264606476, -0.25755029916763306, -0.23298518359661102, -0.28111618757247925, -0.017990868538618088, 0.09102430194616318, -0.131011500954628, -0.06496915966272354, 0.07312652468681335, 0.07435064762830734, -0.1744842380285263, -0.010762718506157398, -0.1412263661623001, -0.13489432632923126, -0.03959314897656441, -0.05298670753836632, -0.09575048834085464, -0.20991720259189606, 0.028438983485102654, 0.17811185121536255, -0.11969098448753357, -0.2688516676425934, 0.10984722524881363, 0.042618393898010254, 0.05504057556390762, -0.006358777172863483, 0.05139456316828728, -0.18651624023914337, 0.010441683232784271, -0.03718812018632889, -0.14375147223472595, -0.14090558886528015, -0.060652390122413635, 0.09195219725370407, 0.1802392601966858, -0.052866000682115555, 0.055135563015937805, -0.02430662326514721, 0.06694486737251282, -0.05283503606915474, 0.01491756271570921, -0.1514597237110138, 0.12435663491487503, 0.18113023042678833, -0.09280424565076828, 0.08569121360778809, 0.008688919246196747, 0.0034622284583747387, -0.006256085820496082, -0.11770663410425186, -0.08663467317819595, -0.015243728645145893, 0.0704287588596344, 0.0312785804271698, 0.059922121465206146, 0.022363891825079918, 0.0004432189743965864, 0.02222531847655773, -0.08293222635984421, 0.08928556740283966, 0.017940403893589973, 0.09697768837213516, -0.02771725319325924, 0.037099700421094894, 0.07259289920330048, 0.0012760587269440293, 0.032200075685977936, 0.010076836682856083, -0.007620346732437611, 0.02460787259042263, 0.09512834250926971, -0.013888887129724026, -0.020409496501088142, -0.021718787029385567, -0.03406864404678345, -0.04011808708310127, -0.051375873386859894, 0.010763739235699177, 0.06199191138148308, -0.03308195620775223, 0.01572450064122677, 0.04384949803352356, -0.05299970135092735, -0.04901101812720299, -0.06856013089418411, 0.05654328688979149, -0.05507791414856911, 0.1874866783618927, 0.06371498107910156, -0.030265813693404198, -0.00019015937868971378, 0.027111094444990158, 0.03029291145503521, 0.043893005698919296, -0.01634957455098629, 0.006051523145288229, -0.03815855830907822, 0.004227594472467899, 0.034807439893484116, -0.036222558468580246, 0.06490901112556458, 0.022174321115016937, 0.07394693791866302, 0.024985259398818016, -0.07185164839029312, 0.018662745133042336, 0.05657301843166351, -0.07394284009933472, 0.06501425057649612, 0.1222427487373352, -0.01766708865761757, -0.10718926042318344, 0.10379579663276672, 0.029380710795521736, 0.011823181994259357, -0.046594634652137756, 0.13546602427959442, -0.0015569599345326424, -0.01689702458679676, -0.04440110921859741, 0.09975715726613998, -0.037946105003356934, 0.05847109854221344, -0.00993583258241415, 0.13886933028697968, -0.09049491584300995, 0.046076104044914246, 0.06441531330347061, 0.02734334208071232, 0.05082392320036888, -0.0012987361988052726, -0.11884298920631409, 0.027155378833413124, 0.07348442822694778, 0.09305372089147568, 0.019631024450063705, 0.002356528537347913, -0.025946764275431633, 0.034229692071676254, 0.03780783712863922, 0.06250195950269699, 0.007013809401541948, -0.031956274062395096, 0.01664821431040764, 0.11687025427818298, -0.06626855581998825, -0.01426971796900034, -0.01388345193117857, -0.06713217496871948, 0.02311655506491661, -0.06179438903927803, -0.013536694459617138, -0.00255567510612309, -0.07030023634433746, 0.047005392611026764, 0.08378254622220993, 0.0066839843057096004, -0.0952998623251915, -0.13152603805065155, -0.0015885521424934268, -0.01749395951628685, -0.06268393248319626, -0.011310921981930733, -0.024589017033576965, -0.05570220202207565, -0.014177422970533371, -0.09609434008598328, 0.03377128019928932, -0.018762091174721718, -0.11817793548107147, -0.04417501389980316, -0.008496242575347424, -0.04436090588569641, -0.007730822078883648, -0.06955738365650177, 0.010889585129916668, 1.099878191947937, -0.015229073353111744, 0.12469416111707687, -0.03387419134378433, -0.004676503594964743, 0.6445747017860413, 0.0017978297546505928], [0.01516040787100792, -0.020767860114574432, -0.084591343998909, -0.1325359046459198, -0.21318601071834564, -0.08249621838331223, -0.041444119065999985, 0.033785950392484665, -0.029863497242331505, 0.04239974915981293, -0.08511802554130554, -0.051847055554389954, -0.12023510038852692, 0.010448520071804523, -0.35486456751823425, -0.08532243221998215, -0.10529443621635437, -0.010092810727655888, -0.07429351657629013, 0.008877758868038654, -0.04464882239699364, 0.02251327969133854, -0.05684245005249977, -0.14270000159740448, -0.3060184717178345, -0.2478361427783966, -0.10362432897090912, 0.016989633440971375, -0.10480216145515442, -0.00013786065392196178, -0.08341406285762787, -0.017718074843287468, -0.048308972269296646, -0.11973662674427032, -0.21704436838626862, -0.40530604124069214, -0.1945832073688507, -0.14253787696361542, -0.0065619200468063354, -0.04765750840306282, -0.09012897312641144, -0.025746524333953857, -0.18268705904483795, -0.11184843629598618, -0.25865310430526733, -0.3215932846069336, -0.16609133780002594, -0.04552618786692619, 0.02845899388194084, -0.03444860503077507, 0.039019983261823654, 0.05456102639436722, -0.09057224541902542, -0.18278853595256805, -0.17254258692264557, -0.20916439592838287, -0.19329363107681274, -0.07018410414457321, -0.005346821621060371, 0.00615410041064024, 0.026587950065732002, 0.03783946856856346, -0.227656751871109, -0.25204893946647644, 0.0048953876830637455, -0.12237982451915741, -0.07290267944335938, -0.006722898222506046, 0.021117467433214188, 0.0016793155809864402, -0.009373428300023079, -0.025017401203513145, -0.13249589502811432, -0.10225611925125122, 0.041433051228523254, -0.03932405635714531, 0.046443574130535126, -0.022605538368225098, 0.022982006892561913, -0.05010277405381203, -0.020361462607979774, 0.049932967871427536, -0.07770004868507385, -0.0033990477677434683, 0.043402299284935, -0.059142157435417175, -0.07451079040765762, -0.014739644713699818, 0.08312835544347763, -0.004475207068026066, 0.09414435923099518, -0.03401400148868561, -0.006886636838316917, -0.046990398317575455, 0.010264809243381023, -0.0481155626475811, 0.023226231336593628, -0.038226108998060226, 0.06000352278351784, 0.07133235037326813, 0.013769425451755524, 0.019025694578886032, -0.008798455819487572, 0.020765546709299088, 0.07692714035511017, -0.014742152765393257, 0.07564684748649597, -0.005098877940326929, -0.04051187261939049, -0.010078301653265953, -0.039007723331451416, -0.019060952588915825, 0.12214583158493042, 0.05237995833158493, 0.056760165840387344, -0.0221966914832592, -0.0400121808052063, 0.0073636979795992374, 0.09242811053991318, 0.18792177736759186, 0.0238898117095232, 0.10546638816595078, 0.1363070011138916, 0.13247810304164886, 0.04434318095445633, 0.06373628973960876, -0.0598219633102417, 0.031904950737953186, 0.06323932856321335, 0.07131050527095795, 0.1029026135802269, 0.08309760689735413, 0.17918619513511658, 0.08319052308797836, 0.05488425865769386, 0.1105145588517189, 0.07789020985364914, 0.08263667672872543, 0.052210450172424316, 0.049284134060144424, -0.0011035448405891657, 0.07525172084569931, 0.115876704454422, 0.06879796087741852, 0.04081479832530022, 0.03874778375029564, 0.05388307943940163, 0.06720513850450516, 0.059364043176174164, 0.029367642477154732, 0.03477167710661888, 0.07773412019014359, 0.14313942193984985, 0.05160493031144142, 0.06555815041065216, 0.041230328381061554, 0.04354768246412277, -0.01153640914708376, 0.06004120036959648, 0.058546338230371475, -0.0321541354060173, 0.021665027365088463, 0.057016968727111816, 0.06939437240362167, -0.015403210185468197, 0.04636359214782715, 0.04511459171772003, -0.01430355105549097, 0.02856609970331192, 0.00426762830466032, 0.06370911747217178, 0.00967402383685112, 0.1458940953016281, 0.07070329040288925, 0.08311719447374344, 0.06735134869813919, 0.02705487795174122, 0.0750633180141449, 0.0361601784825325, -0.013476468622684479, 0.011566591449081898, 0.047411613166332245, 0.07353036850690842, 0.1141585260629654, -0.026695773005485535, 0.047304365783929825, -0.02663196064531803, -0.05970397964119911, -0.015235831961035728, -0.02727602794766426, -0.055331937968730927, 0.009090776555240154, -0.012814718298614025, -0.027865920215845108, -0.09895016998052597, -0.022600261494517326, -0.04067838937044144, -0.001142176566645503, -0.034777674823999405, 0.001411658013239503, 0.1348249912261963, 0.009908090345561504, 0.09744268655776978, 0.044961098581552505, 0.01676313392817974, -0.01525820977985859, -0.03466683253645897, 0.052569612860679626, -1.4729859828948975, -0.016076859086751938, -0.14096342027187347, -0.31764283776283264, 0.010728823021054268, -0.6789937019348145, 0.04668690636754036], [-0.023004140704870224, -0.0006774290814064443, 0.014196494594216347, -0.03485678508877754, -0.16558626294136047, 0.004439528565853834, -0.1258455514907837, -0.0035100486129522324, -0.042818427085876465, 0.0035267453640699387, -0.042952537536621094, -0.023709923028945923, -0.025549739599227905, 0.1357893943786621, -0.021899767220020294, 0.024957768619060516, -0.034925635904073715, -0.021288176998496056, -0.062380433082580566, 0.010821100324392319, 0.0059973024763166904, -0.03825315088033676, -0.033447761088609695, -0.003256662515923381, -0.2457580864429474, 0.043962035328149796, -0.010417681187391281, -0.060905613005161285, -0.0050894031301140785, 0.0046004848554730415, -0.04253479838371277, -0.04045366123318672, 0.022924168035387993, -0.05067441239953041, -0.2083381861448288, -0.037663739174604416, 0.04296915978193283, -0.10118956118822098, -0.021999437361955643, -0.014788225293159485, 0.06262872368097305, -0.05886078625917435, -0.012421113438904285, -0.02715454250574112, -0.12465409934520721, -0.11705555021762848, -0.08495106548070908, -0.1594957858324051, -0.12426578998565674, -0.05445641651749611, -0.0696415975689888, -0.17570926249027252, -0.10478650033473969, -0.1187218725681305, 0.07448908686637878, -0.09557695686817169, -0.11811515688896179, -0.166290283203125, -0.17599529027938843, -0.3808039724826813, -0.09099994599819183, -0.10566302388906479, -0.03644418716430664, -0.024269217625260353, -0.17995212972164154, -0.013539844192564487, -0.1026281788945198, -0.16257010400295258, -0.17847603559494019, -0.15658293664455414, 0.026905031874775887, -0.06662306934595108, -0.17462444305419922, -0.10087279230356216, -0.17684032022953033, -0.07906268537044525, -0.23200440406799316, -0.03892020136117935, 0.03791138529777527, -0.05715639516711235, -0.1397085189819336, 0.16639193892478943, -0.036449186503887177, 0.05385495349764824, -0.03887514770030975, 0.028348810970783234, -0.28125160932540894, -0.03364169970154762, 0.08106788992881775, -0.10149630904197693, 0.007703579496592283, -0.10832493007183075, -0.06291771680116653, -0.19990287721157074, -0.11626087129116058, -0.1405482143163681, -0.07860558480024338, -0.006682176608592272, -0.0010501742362976074, -0.06746331602334976, -0.0690988302230835, -0.028350163251161575, -0.05560404062271118, 0.0255375187844038, -0.03837878257036209, 0.03547438234090805, -0.05473792180418968, -0.006138532888144255, -0.07666656374931335, -0.01196358259767294, -0.028032103553414345, -0.1598113477230072, 0.08663705736398697, 0.014264366589486599, -0.04126952588558197, -0.05538627877831459, 0.08408451080322266, -0.03444724157452583, -0.04132125526666641, -0.044524550437927246, -0.17111380398273468, -0.14444610476493835, -0.04849960654973984, -0.036374080926179886, -0.022352978587150574, -0.029075274243950844, 0.008444491773843765, -0.011031435802578926, -0.031447701156139374, -0.024654386565089226, -0.15295852720737457, -0.17048804461956024, -0.03695947304368019, 0.020664775744080544, -0.06457570940256119, -0.06951728463172913, -0.005794400814920664, -0.06599556654691696, -0.05487654730677605, -0.08641453832387924, -0.12134134769439697, -0.05576784908771515, 0.009182707406580448, 0.035727325826883316, -0.0047799269668757915, 0.00633888877928257, 0.023031942546367645, -0.009153157472610474, 0.012755985371768475, 0.006884534377604723, -0.12927544116973877, -0.07931496948003769, -0.0038624911103397608, -0.008553357794880867, -0.029713047668337822, 0.005731089506298304, -0.006330864038318396, -0.00802722666412592, -0.006054129917174578, -0.04085148125886917, -0.03507659584283829, 0.010327496565878391, -0.015394427813589573, -0.04480458423495293, -0.035012952983379364, -0.040177665650844574, 0.028143109753727913, -0.04310091957449913, 0.02841043658554554, -0.04532092437148094, -0.014559377916157246, 0.048014070838689804, -0.013360663317143917, 0.014555567875504494, -0.02579992264509201, 0.0012429989874362946, 0.0028351296205073595, -0.018703952431678772, 0.043527062982320786, -0.01589326374232769, -0.023953905329108238, 0.10624084621667862, 0.007771149277687073, -0.0006327799055725336, 0.04231352359056473, 0.04033702611923218, -0.0032971391920000315, 0.042821817100048065, 0.020258450880646706, 0.041607774794101715, 0.01585899293422699, -0.00523039186373353, 0.021801969036459923, 0.005458761937916279, 0.0529007762670517, 0.05282009765505791, 0.03280782699584961, 0.018876444548368454, 0.04878159984946251, 0.019973482936620712, 0.20790040493011475, 0.27217787504196167, 0.24351215362548828, 0.33773547410964966, 0.19853219389915466, 0.2427547574043274, 0.20913031697273254, 0.39567142724990845, -0.5249356627464294, 0.08171253651380539, -0.057758841663599014, 0.24981935322284698, -0.007087419740855694, 0.7438084483146667, -0.026862220838665962], [0.0017364476807415485, -0.056476421654224396, -0.02700253389775753, -0.009744062088429928, -0.0816386267542839, -0.3012322187423706, -0.00045614963164553046, 0.06345786154270172, -0.006507566198706627, 0.004779346287250519, -0.000676813127938658, -0.04675198718905449, -0.07861407101154327, -0.21391190588474274, -0.21884281933307648, -0.20580309629440308, 0.012509283609688282, 0.13205350935459137, -0.007055523805320263, 0.004208029247820377, 0.03844749927520752, -0.06353065371513367, -0.039239052683115005, -0.18185751140117645, -0.21091559529304504, -0.1533692628145218, -0.11041518300771713, 0.07357565313577652, -0.015295397490262985, 0.07445463538169861, 0.01605311594903469, -0.058811139315366745, -0.09697980433702469, -0.24842897057533264, -0.16264480352401733, -0.13959555327892303, -0.13336843252182007, 0.07929491996765137, 0.004665217362344265, 0.08095607161521912, -0.042664315551519394, -0.10584162175655365, -0.05806409940123558, -0.3082009255886078, -0.05891265347599983, -0.2549320161342621, -0.13825863599777222, 0.09814169257879257, -0.022421682253479958, 0.03508005663752556, 0.06954839825630188, -0.10216895490884781, -0.12312136590480804, -0.3413582742214203, -0.1888422966003418, -0.34783610701560974, 0.0742873027920723, 0.012378399260342121, -0.03860340267419815, -0.10756168514490128, -0.0075476206839084625, -0.05972085893154144, 0.06596264988183975, -0.09230361878871918, 0.07042206823825836, 0.01135136280208826, 0.07036564499139786, -0.1517965942621231, -0.09605836123228073, -0.023468805477023125, -0.12164339423179626, -0.09720856696367264, 0.04302414506673813, -0.10240489989519119, 0.17169755697250366, 0.17718608677387238, 0.24114900827407837, -0.055556148290634155, -0.29274773597717285, -0.29246214032173157, -0.1282004863023758, -0.24946972727775574, -0.02633201889693737, -0.1926468014717102, -0.12743747234344482, -0.07901834696531296, 0.05002507194876671, -0.09979496896266937, -0.025224806740880013, -0.12166262418031693, -0.11743654310703278, -0.10202870517969131, -0.06278503686189651, -0.20410725474357605, -0.04734920337796211, -0.05935046076774597, 0.0029811798594892025, -0.2975522577762604, -0.1299086958169937, 0.11735866218805313, -0.17539189755916595, -0.09430471807718277, -0.001084233052097261, -0.38407206535339355, -0.20625148713588715, -0.054510556161403656, -0.1032663956284523, -0.25194618105888367, -0.2637733221054077, 0.0010444576619192958, -0.2861802577972412, -0.3674220144748688, -0.20737989246845245, -0.3050665557384491, -0.2861194312572479, -0.2911417782306671, -0.250846266746521, -0.45522019267082214, -0.4223971962928772, -0.0967412143945694, -0.05303593724966049, -0.051924582570791245, -0.10332189500331879, -0.07817771285772324, 0.018883053213357925, -0.0133594311773777, 0.036303550004959106, -0.07015077769756317, -0.06746171414852142, -0.0679866224527359, 0.0010560565860942006, -0.06581994146108627, -0.05852167308330536, -0.012955532409250736, -0.0552627332508564, -0.042836710810661316, -0.0970933586359024, -0.08458592742681503, 0.024432038888335228, -0.05814747139811516, -0.03316379711031914, -0.003127644769847393, -0.0473615825176239, -0.06643196940422058, -0.09049703925848007, -0.1166045218706131, -0.08341573178768158, -0.09812779724597931, -0.0006214906461536884, -0.05123671144247055, 0.010574407875537872, 0.09333350509405136, 0.0665970966219902, -0.019264454022049904, 0.027161650359630585, -0.059323180466890335, 0.0007003950304351747, -0.0013018149184063077, 0.06186986342072487, 0.13932064175605774, 0.009075571782886982, 0.08258243650197983, -0.023577840998768806, 0.08495504409074783, 0.05195572227239609, 0.043854765594005585, -0.05653363838791847, -0.019834043458104134, 0.060736339539289474, -0.000859174644574523, 0.019446751102805138, 0.12988345324993134, -0.016132619231939316, -0.06810405850410461, 0.01638929173350334, 0.047171108424663544, 0.01032280270010233, 0.020517872646450996, 0.08100464940071106, 0.09137669950723648, -0.034368082880973816, 0.022318731993436813, -0.004040504805743694, 0.0014163384912535548, 0.07011841982603073, 0.02669069543480873, -0.006077409256249666, -0.006755593232810497, 0.0757564976811409, 0.09040901809930801, 0.1528613567352295, 0.09673207253217697, 0.04774713143706322, 0.14704599976539612, 0.028066454455256462, 0.09930489212274551, 0.07899194210767746, 0.0871472880244255, 0.09098049253225327, 0.14733833074569702, 0.15207383036613464, 0.1330227255821228, 0.2125435471534729, -0.02724202163517475, 0.22557707130908966, 0.2692699134349823, 0.18913158774375916, 0.18306535482406616, -0.17877602577209473, 0.13419003784656525, -0.0019696925301104784, 0.10166177898645401, 0.0004221559502184391, 0.13156332075595856, -0.004150738939642906], [0.05556901544332504, 0.04446940869092941, -0.06731132417917252, -0.061443544924259186, -0.0973232090473175, -0.22061552107334137, -0.07944124191999435, -0.06275272369384766, -0.02976115606725216, -0.05956367403268814, -0.0829363539814949, 0.001560562290251255, -0.10586466640233994, -0.4785034954547882, -0.023221641778945923, -0.25156739354133606, -0.19007520377635956, -0.2344793975353241, -0.012873709201812744, -0.0757976844906807, -0.14660890400409698, -0.052620191127061844, -0.12555167078971863, -0.2103956639766693, -0.30967357754707336, -0.1663159281015396, -0.15207304060459137, -0.08885472267866135, -0.00047896563773974776, -0.04174741730093956, 0.006916022393852472, 0.06108634173870087, -0.07624785602092743, -0.03747142106294632, -0.23183412849903107, -0.14970068633556366, -0.0563071109354496, -0.10755198448896408, -0.00800346676260233, -0.027553727850317955, -0.042740799486637115, -0.13017389178276062, -0.06049610674381256, -0.1853204071521759, -0.2238253951072693, -0.1552429497241974, -0.1821449249982834, -0.02717348374426365, 0.015351868234574795, -0.0020423964597284794, 0.06857060641050339, -0.004894199315458536, -0.002000060398131609, -0.08488821983337402, -0.15981721878051758, -0.06166281923651695, -0.013616136275231838, 0.048035383224487305, 0.06480078399181366, -0.0441494844853878, -0.027922915294766426, 0.0021278352942317724, -0.0024599889293313026, -0.03336227312684059, -0.059886034578084946, -0.06914867460727692, -0.05510754883289337, 0.01931643672287464, 0.06831255555152893, 0.07332795858383179, -0.07081357389688492, 0.005323639139533043, -0.006928607821464539, -0.02328234538435936, 0.10111745446920395, -0.011186257004737854, -0.0008451207540929317, 0.032224610447883606, 0.040229108184576035, 0.055022262036800385, -0.006887982599437237, -0.015581227838993073, 0.005692773498594761, 0.020747516304254532, -0.021899502724409103, 0.09059005230665207, -0.01431571040302515, -0.022463686764240265, 0.0015866471221670508, 0.18724195659160614, -0.03528856858611107, -0.03157883882522583, -0.052073657512664795, -0.04153526946902275, 0.02106691524386406, -0.05718226730823517, 0.04223690181970596, -0.06530039757490158, -0.018381528556346893, 0.04370450973510742, -0.0023000335786491632, -0.009696537628769875, 0.03130331635475159, -0.019663572311401367, -0.0059593147598207, 0.0587114617228508, -0.01833616942167282, -0.0490441769361496, -0.019650982692837715, 0.1953580528497696, 0.00805292371660471, -0.001076202024705708, -0.05809066444635391, 0.003537754761055112, -0.014819684438407421, 0.0049479445442557335, 0.0283807422965765, -0.02429603971540928, -0.12466417253017426, 0.24995145201683044, -0.03025435470044613, 0.026179499924182892, 0.008710897527635098, -0.03189161419868469, 0.02346884086728096, 0.001132456585764885, 0.006193630397319794, -0.05361465737223625, -0.14488674700260162, 0.2669701874256134, -0.019181085750460625, -0.006525411270558834, -0.001202929299324751, 0.01313699409365654, 0.010620460845530033, 0.00617282884195447, -0.00899634137749672, -0.01081416942179203, -0.12281563133001328, 0.183845654129982, -0.012185107916593552, 0.008770671673119068, -0.014925911091268063, -0.007827948778867722, -0.01883840560913086, -0.012632572092115879, -0.003768542315810919, -0.005609330255538225, -0.06188362464308739, 0.15826813876628876, 0.010069386102259159, 0.012371977791190147, -0.018499772995710373, -0.010298059321939945, 0.0027227408718317747, -0.006156425457447767, -0.008131477050483227, -0.02502538450062275, -0.07260110974311829, 0.13749024271965027, -0.029032619670033455, -0.007640676572918892, -0.02241778001189232, 0.005734944250434637, -0.013302925042808056, 0.0039027223829180002, -0.029899291694164276, 0.005882794037461281, -0.050002094358205795, 0.12129244208335876, 0.011480297893285751, -0.013062666170299053, 0.0005967079196125269, -0.0021048111375421286, -0.008097577840089798, 0.0053571914322674274, -0.009611349552869797, -0.020015859976410866, -0.04450957104563713, 0.052522942423820496, 0.002096320502460003, -0.027740711346268654, -0.019737500697374344, -0.01993662677705288, -0.04378379508852959, -0.014954975806176662, 0.00701482780277729, 0.004849227610975504, -0.04299303889274597, 0.05025022476911545, 0.0167250819504261, 0.02722994238138199, 0.019405756145715714, 0.01670050248503685, 0.004800561349838972, -0.0041160439141094685, -0.009390877559781075, 0.0521540567278862, -0.012369764968752861, 0.021606123074889183, -0.06756091862916946, 0.400136262178421, -0.09157121926546097, 0.059660591185092926, -0.10735326260328293, 0.3445373773574829, 0.19512489438056946, 0.006134737282991409, -1.2889163494110107, 0.0693374052643776, -0.14462028443813324, -0.3577827215194702, -0.009046444669365883, -1.4955161809921265, -0.01455647498369217], [-0.027593348175287247, 0.0010987126734107733, -0.14052629470825195, -0.1799081563949585, -0.14864377677440643, -0.21520131826400757, -0.16363480687141418, -0.04491225630044937, -0.055634789168834686, 0.016752872616052628, -0.025144577026367188, 0.04334701970219612, -0.07557281106710434, -0.2618342638015747, -0.44801783561706543, -0.43547677993774414, -0.29590895771980286, -0.06207345053553581, -0.13896267116069794, -0.007945021614432335, -0.04171375930309296, -0.011174856685101986, -0.059621620923280716, -0.12255095690488815, -0.3241112530231476, -0.3605537414550781, -0.18833069503307343, -0.03440925106406212, 0.010240552015602589, -0.010036448948085308, 0.0618092305958271, 0.08366306126117706, -0.11308114975690842, -0.05680041387677193, -0.07607529312372208, -0.2660161256790161, -0.1317548304796219, -0.0313524529337883, -0.022859815508127213, -0.005284853279590607, 0.10348038375377655, -0.027524426579475403, 0.03379719704389572, 0.011235437355935574, -0.03033178672194481, -0.15911546349525452, 0.03367830812931061, -0.1970350444316864, -0.1349530965089798, 0.046682000160217285, -0.009799002669751644, -0.09967122226953506, 0.10350093990564346, 0.03385062515735626, 0.049499474465847015, 0.05010523274540901, 0.17782624065876007, -0.06994990259408951, 0.05885932222008705, -0.10514463484287262, 0.12793779373168945, 0.002447584643959999, -0.05150849372148514, 0.049054186791181564, 0.07459910959005356, 0.14615915715694427, 0.18533606827259064, 0.06832458823919296, 0.12491901963949203, 0.13091400265693665, 0.13039886951446533, -0.13556472957134247, 0.03740465268492699, 0.01501524355262518, -0.07098045200109482, 0.24126191437244415, 0.26186129450798035, 0.04157528653740883, 0.15210603177547455, 0.00791215617209673, -0.036408331245183945, -0.021715236827731133, 0.05947813391685486, 0.14355437457561493, -0.002044504042714834, 0.13353118300437927, 0.09724007546901703, 0.16132456064224243, 0.17308150231838226, 0.1539296656847, -0.018269628286361694, 0.03441768139600754, 0.1342160552740097, 0.10461515188217163, 0.09715642780065536, 0.2058165967464447, 0.28191938996315, -0.08576589822769165, 0.14283232390880585, 0.055536214262247086, -0.12731175124645233, -0.07535552978515625, -0.017718680202960968, -0.006666789762675762, -0.01018183957785368, 0.08924269676208496, 0.077692411839962, 0.05576955899596214, 0.01248913910239935, 0.02039891853928566, -0.12629853188991547, -0.14498716592788696, 0.04462958127260208, -0.03540142998099327, -0.043676890432834625, -0.01833835057914257, 0.08420874923467636, -0.03979215770959854, -0.09024573117494583, 0.07414092868566513, -0.1508990377187729, -0.2560298442840576, -0.09110847860574722, -0.2973991632461548, -0.22800244390964508, -0.0892484039068222, -0.02765311487019062, -0.041481878608465195, -0.15639840066432953, -0.00017993392248172313, -0.03779274597764015, -0.0711364820599556, 0.016103167086839676, -0.009539799764752388, 0.0038962457329034805, 0.06282047927379608, 0.03500501438975334, -0.06411341577768326, -0.07947258651256561, -0.023752134293317795, 0.02259543165564537, 0.040498096495866776, 0.03404359146952629, 0.02469097264111042, -0.07208096235990524, 0.16588850319385529, 0.20375722646713257, 0.06870772689580917, -0.16942434012889862, -0.008187188766896725, 0.003170762676745653, 0.07325134426355362, -0.04512420669198036, 0.0358717180788517, 0.03199061006307602, -0.061136119067668915, 0.11594848334789276, 0.07337120920419693, 0.021178485825657845, -0.14148414134979248, 0.07993444800376892, 0.02437521517276764, 0.03773140534758568, 0.0038758779410272837, -0.042117130011320114, 0.007773153018206358, -0.025632871314883232, 0.06936920434236526, -0.0672755315899849, -0.16959603130817413, 0.0918828696012497, -0.021297700703144073, 0.06198815256357193, -0.01578078791499138, 0.03250518813729286, 0.06532297283411026, 0.05259893462061882, 0.05091886222362518, -0.03798748552799225, -0.06446970254182816, -0.02897591143846512, 0.0024323223624378443, 0.006969895679503679, -0.10800891369581223, 0.13164061307907104, 0.004132083151489496, -0.010636874474585056, 0.10704473406076431, -0.030704548582434654, 0.0013460187474265695, 0.052605755627155304, 0.12820476293563843, 0.05748328939080238, 0.012711076065897942, 0.00433233892545104, 0.021673714742064476, 0.051360439509153366, -0.009541315957903862, 0.05721121281385422, 0.047126028686761856, 0.17528370022773743, 0.028701644390821457, 0.05073678493499756, 0.22472919523715973, 0.06557439267635345, 0.032055266201496124, 0.08301776647567749, -0.7035666704177856, -0.44285815954208374, 0.13691346347332, -0.01807495579123497, 0.04666757583618164, 0.005955665837973356, -0.1172996237874031, -0.0009246633853763342], [0.0064008538611233234, -0.05455346032977104, 0.11450431495904922, 0.08740760385990143, -0.18311916291713715, -0.08592794090509415, 0.0048307697288692, -0.16286006569862366, -0.021803269162774086, 0.00361644197255373, -0.02342171221971512, -0.12278337776660919, -0.06577606499195099, 0.005788606591522694, -0.12796485424041748, -0.21082022786140442, 0.00863255187869072, -0.06996788084506989, -0.09706103056669235, -0.06435604393482208, -0.02812734618782997, -0.012945463880896568, 0.0019490630365908146, -0.15265142917633057, -0.2239285260438919, -0.2004418969154358, -0.21291093528270721, -0.04961283504962921, 0.055171579122543335, -0.00461163092404604, -0.00795549713075161, -0.03160968795418739, -0.16197557747364044, -0.13123318552970886, -0.16061773896217346, -0.24148136377334595, -0.0834040492773056, -0.04597163200378418, 0.03589200600981712, -0.05102226510643959, -0.03917594626545906, 0.05212468281388283, -0.0013803145848214626, -0.08141892403364182, -0.23913830518722534, -0.1905747354030609, -0.07636531442403793, -0.00028409017249941826, -0.05165693163871765, -0.0064478423446416855, -0.05594108626246452, -0.008720573037862778, 0.04461601376533508, 0.05553843826055527, -0.11155017465353012, 0.016055138781666756, 0.016502926126122475, -0.027052447199821472, 0.01470425445586443, 0.05348517745733261, 0.06314227730035782, -0.05151539668440819, -0.018523434177041054, 0.059460487216711044, -0.17894487082958221, -0.042182400822639465, 0.05131632462143898, 0.0424325093626976, 0.027416495606303215, 0.05625557899475098, 0.17581097781658173, 0.004367912653833628, 0.0390307754278183, 0.04009570553898811, 0.00043460066081024706, -0.12720735371112823, -0.0013962923549115658, 0.0031118441838771105, 0.08494672179222107, 0.009606240317225456, 0.12867583334445953, 0.023943519219756126, 0.12559723854064941, 0.11865857988595963, 0.014145691879093647, 0.18769578635692596, 0.12207505851984024, 0.0742722675204277, 0.046109821647405624, -0.041970428079366684, -0.088344506919384, 0.07929988205432892, 0.16942349076271057, 0.1692167967557907, 0.1180780678987503, 0.07077955454587936, 0.11222659051418304, 0.10566538572311401, 0.09970105439424515, -0.017002977430820465, 0.013297995552420616, -0.016963453963398933, 0.1533573716878891, 0.1440233588218689, -0.10138442367315292, 0.10050196945667267, 0.06034242734313011, -0.0009656889596953988, 0.02530076913535595, -0.023029696196317673, -0.037846412509679794, 0.012290867045521736, -0.0015504645416513085, 0.09733732789754868, 0.07004249840974808, 0.020516060292720795, -0.012687722221016884, 0.024584144353866577, 0.007631086744368076, 0.046973999589681625, -0.012929432094097137, -0.009919601492583752, -0.021538686007261276, -0.019277459010481834, 0.018856069073081017, 0.07248598337173462, -0.1282438039779663, -0.06666912138462067, 0.1150607243180275, -0.013906916603446007, 0.0017638274002820253, 0.039600200951099396, 0.012346005067229271, -0.043104544281959534, -0.016145523637533188, 0.025724591687321663, -0.01449405588209629, -0.015778113156557083, 0.04611411690711975, 0.007356733549386263, -0.0008783414959907532, 0.0012141427723690867, -0.012285727076232433, 0.03039274364709854, 0.012016849592328072, 0.08581267297267914, -0.02528022974729538, 0.06964889913797379, 0.0644952729344368, 0.06746847182512283, -0.026205014437437057, 0.03656005859375, -0.10857825726270676, 0.013323859311640263, 0.0039015980437397957, 0.027341363951563835, -0.03779471665620804, -0.03750239312648773, 0.10786380618810654, 0.01590018905699253, 0.010650361888110638, 0.01873941533267498, 0.051336437463760376, -0.001753545249812305, -0.02412347123026848, 5.763295848737471e-05, -0.03541852533817291, 0.045566100627183914, 0.01879378780722618, 0.07741964608430862, -0.013876675628125668, -0.0005712818820029497, 0.049905650317668915, 0.06580759584903717, 0.04874517768621445, 0.012504322454333305, -0.01059216819703579, 0.0009514536359347403, 0.0020498456433415413, 0.02835286408662796, -0.006854882929474115, -0.044052138924598694, 0.010519502684473991, 0.034150056540966034, 0.03315892815589905, 0.025347450748085976, -0.017120270058512688, 0.003488325048238039, 0.062285035848617554, -0.02739695832133293, -0.045571282505989075, 0.021423783153295517, 0.007838171906769276, -0.0057261232286691666, 0.0012665885733440518, 0.033162202686071396, 0.02765217050909996, 0.005817083641886711, 0.02377859689295292, 0.002618337981402874, 0.3446814715862274, 0.19214680790901184, 0.2976963520050049, 0.2450626641511917, 0.28154441714286804, 0.20899096131324768, 0.2467966228723526, 0.23914016783237457, -0.8686531186103821, -0.021157242357730865, -0.05560728907585144, -0.2316787838935852, 0.010947667993605137, 0.12185650318861008, 0.012968823313713074], [0.00244843028485775, -0.008538625203073025, -0.04667583480477333, -0.2350938469171524, -0.21552103757858276, -0.09004101157188416, 0.18750034272670746, -0.024390876293182373, -0.025783857330679893, -0.06282266974449158, 0.07800842076539993, 0.05588510259985924, -0.06568624079227448, -0.17142532765865326, -0.41207146644592285, -0.13315483927726746, 0.08238789439201355, 0.008026069961488247, -0.09791821241378784, -0.11411609500646591, -0.08913234621286392, 0.04409286007285118, -0.11411415040493011, 0.04125289246439934, -0.13562588393688202, -0.14934854209423065, -0.06964345276355743, -0.17480309307575226, 0.06141649931669235, -0.07972954958677292, -0.09592640399932861, 0.14276327192783356, -0.12562385201454163, 0.035718679428100586, -0.015339082106947899, -0.052104417234659195, -0.04219949245452881, 0.014051987789571285, -0.15763264894485474, 0.029667837545275688, -0.061001017689704895, 0.24103930592536926, -0.09124022722244263, -0.014407488517463207, 0.15420374274253845, -0.01432170532643795, -0.021908730268478394, -0.002175442408770323, -0.10843819379806519, 0.05590050294995308, -0.10448729246854782, 0.13362181186676025, -0.17395789921283722, 0.30872735381126404, -0.039932794868946075, 0.03661418706178665, 0.005268169566988945, 0.01414919551461935, 0.029446635395288467, 0.031569261103868484, -0.26228436827659607, -0.13965772092342377, -0.07536232471466064, -0.05709804594516754, -0.11439111828804016, 0.0751613974571228, -0.08437573164701462, 0.07543983310461044, 0.05390548333525658, 0.08722791075706482, 0.03986538574099541, 0.10679896920919418, 0.03305652365088463, 0.06629732251167297, -0.024493057280778885, 0.05567456781864166, -0.19807419180870056, 0.18058660626411438, -0.11952725052833557, 0.05324970930814743, 0.11973565816879272, -0.12362740933895111, -0.004292289726436138, 0.0668487474322319, -0.021634994074702263, -0.007327219471335411, -0.1087106242775917, 0.06395675987005234, 0.000735930516384542, 0.10500194132328033, 0.016376202926039696, 0.1578812450170517, -0.11487680673599243, 0.07770255208015442, -0.1556907445192337, 0.04184286668896675, -0.04020075872540474, 0.10537049919366837, -0.023862570524215698, 0.00982229970395565, -0.20077252388000488, 0.0972268357872963, 0.02738814428448677, 0.025810344144701958, 0.029517151415348053, 0.008460077457129955, 0.08071747422218323, 0.04311633110046387, -0.04673881083726883, -0.05181260406970978, 0.04567036032676697, -0.0457179993391037, -0.03917158022522926, -0.040220919996500015, 0.0438586100935936, -0.05694320425391197, -0.09059849381446838, 0.06981547921895981, -0.04052077233791351, -0.03706134855747223, -0.05809378996491432, 0.06347105652093887, -0.022677738219499588, -0.16748926043510437, -0.013338971883058548, -0.054518964141607285, 0.05155627802014351, -0.01947966404259205, 0.13190343976020813, 0.03976764902472496, -0.04634552076458931, -0.035615384578704834, 0.010726343840360641, 0.0089799202978611, 0.032629888504743576, -0.054615654051303864, 0.09419518709182739, -0.006384899839758873, -0.08426924794912338, -0.03954508528113365, -0.10568667203187943, -0.026246365159749985, -0.07425683736801147, -0.056364450603723526, 0.07216218113899231, -0.09688082337379456, 0.061161261051893234, -0.1070588156580925, 0.036043617874383926, 0.05840202048420906, 0.005989896133542061, 0.010135101154446602, -0.11585820466279984, 0.08716550469398499, -0.007395492400974035, 0.12455075979232788, -0.08445633947849274, 0.02027689479291439, -0.11698901653289795, -0.004751620348542929, -0.1123005598783493, 0.02370898798108101, -0.006017762236297131, -0.03913591057062149, -0.0029322258196771145, -0.0799897313117981, -0.014641867019236088, 0.04356691241264343, -0.03490022197365761, -0.007021505851298571, 0.10533291846513748, -0.11050250381231308, 0.06701196730136871, 0.038306161761283875, 0.07762297987937927, 0.019089313223958015, -0.03967219218611717, -0.12723539769649506, -0.04546232894062996, 0.03449957072734833, -0.00771532766520977, 0.04147665947675705, -0.07209296524524689, 0.05104513838887215, 0.06242600828409195, 0.04257224500179291, -0.09721913933753967, 0.058218516409397125, 0.09853784739971161, -0.027103066444396973, -0.019476689398288727, 0.03486055135726929, 0.015463019721210003, 0.025997580960392952, 0.019090402871370316, -0.016024067997932434, -0.05539131909608841, 0.0008324293303303421, -0.029221119359135628, 0.0047022500075399876, 0.018513008952140808, -0.07568120211362839, -0.058079563081264496, -0.03771388530731201, -0.002742136362940073, 0.006679946556687355, -0.10157178342342377, -0.08393561094999313, 1.5000704526901245, 0.03712721914052963, 0.17288872599601746, 0.03026551753282547, -0.006024535279721022, -0.03758788853883743, 0.0030282640364021063], [0.03345111757516861, 0.03600243106484413, 0.027734197676181793, -0.01110793650150299, -0.09949485212564468, -0.11718388646841049, 0.03319145366549492, 0.007895141839981079, -0.010061975568532944, -0.0015356679214164615, -0.0013652648776769638, -0.01046146173030138, -0.002901391126215458, -0.029121659696102142, -0.09174685180187225, -0.08806925266981125, 0.05903855338692665, 0.06185343116521835, 0.00588162150233984, -0.0068700676783919334, -0.005487284157425165, 0.007263869978487492, -0.029557086527347565, -0.009644607082009315, -0.01133695337921381, -0.013949080370366573, 0.05581434443593025, 0.03218438848853111, -0.014988632872700691, -0.02166278474032879, -0.007393810898065567, 0.013046372681856155, -0.018365314230322838, -0.020029112696647644, -0.021381143480539322, -0.03230373561382294, -0.014206544496119022, 0.027990512549877167, 0.015644840896129608, 0.015377623960375786, -0.014692799188196659, 0.0038394280709326267, -0.010553507134318352, -0.015830378979444504, -0.01220923475921154, -0.04527027904987335, -0.03449274227023125, -0.005986278411000967, 0.004014910664409399, 0.006501342169940472, 0.016734343022108078, -0.04003576561808586, -0.008965292945504189, -0.019908567890524864, -0.023177411407232285, -0.021859226748347282, -0.02721666358411312, -0.003368223085999489, -0.022843200713396072, -0.036727335304021835, -0.03675323724746704, 0.004483007360249758, 0.04193311929702759, -0.047668058425188065, -0.02175832912325859, -0.014209754765033722, 0.02289077825844288, -0.02011951617896557, 0.08597072958946228, -0.00814379844814539, 0.016741370782256126, 0.004736769013106823, -0.013992933556437492, -0.02470853179693222, -0.02439071051776409, -0.008039828389883041, 0.01039594691246748, 0.01333550363779068, 0.05227174609899521, -0.0010916158789768815, 0.002477638889104128, 0.10853307694196701, -0.008562061935663223, -0.10188708454370499, -0.061672456562519073, -0.04545808210968971, 0.009300492703914642, -0.05004015937447548, 0.13900335133075714, -0.03875966742634773, -0.034317534416913986, 0.05901991203427315, 0.08845716714859009, -0.036143768578767776, -0.09775462001562119, -0.1074034720659256, -0.08524180948734283, 0.013924623839557171, 0.0809200257062912, 0.00316869025118649, -0.0458967350423336, -0.03919936344027519, 0.14615975320339203, 0.08643598109483719, -0.1256106197834015, -0.0992472693324089, -0.04594236984848976, 0.04546897113323212, 0.003604224184527993, -0.024325814098119736, -0.014439831487834454, 0.17296934127807617, -0.025428542867302895, 0.002838027197867632, 0.041385550051927567, -0.047030478715896606, -0.08090180158615112, -0.005441906396299601, 0.023574678227305412, -0.06011337786912918, -0.030436217784881592, 0.01881726272404194, -0.10953105986118317, 0.041209761053323746, -0.005150675307959318, 0.09530341625213623, -0.049146827310323715, 0.03198762983083725, 0.01299087144434452, 0.028446543961763382, 0.06761334836483002, 0.10819116979837418, -0.058080755174160004, 0.004249610006809235, 0.16160863637924194, -0.06950804591178894, 0.09387166053056717, 0.045457445085048676, 0.10631749778985977, -0.06399919837713242, -0.027643712237477303, 0.03896254673600197, -0.05803423002362251, -0.049265287816524506, -0.012585471384227276, -0.013048214837908745, -0.026833565905690193, 0.03547918051481247, 0.09316375851631165, -0.11436709761619568, -0.05974413827061653, -0.02669968456029892, -0.013344934210181236, -0.034249965101480484, 0.04617074504494667, 0.04545726999640465, 0.04799289628863335, 0.10827142745256424, 0.1490577608346939, -0.09488853067159653, -0.006618211977183819, 0.05723511055111885, -0.07420217245817184, -0.06805307418107986, 0.04908325895667076, -0.09166073799133301, -0.04120885580778122, 0.03055604174733162, 0.012742388062179089, -0.17526595294475555, -0.051173970103263855, 0.026538506150245667, -0.02243185043334961, 0.04404052346944809, 0.02193908579647541, 0.017417483031749725, 0.041865404695272446, -0.04447745531797409, -0.07114563882350922, -0.19620288908481598, 0.030568595975637436, 0.0036029894836246967, -0.010012811981141567, -0.04499894380569458, 0.06812829524278641, 0.0007357821450568736, -0.11594362556934357, -0.01905645988881588, -0.004034420941025019, -0.10988709330558777, -0.026083029806613922, -0.004065328743308783, -0.010769473388791084, -0.02671273611485958, -0.036689694970846176, 0.005764281377196312, -0.08921083062887192, -0.05556453764438629, 0.027681967243552208, -0.0851898267865181, -0.129578098654747, -0.05151225998997688, -0.010725156404078007, -0.036238472908735275, 0.06166961044073105, 0.01629261113703251, -0.02937031351029873, -0.0794782042503357, 0.29336124658584595, -0.049474284052848816, 0.04686959087848663, 0.055448852479457855, 0.005553210619837046, 0.4565606713294983, 0.007397254463285208], [-0.0003039043222088367, 0.03458517789840698, -0.08421284705400467, -0.1544029712677002, -0.18324124813079834, -0.16968660056591034, -0.11559084802865982, 0.07876006513834, 0.07417651265859604, 0.00836531724780798, 0.018840661272406578, 0.007419190835207701, 0.05052317678928375, -0.23066185414791107, -0.30810287594795227, -0.10486751794815063, -0.05566420033574104, 0.031931452453136444, -0.05120738595724106, 0.020209966227412224, -0.03296569362282753, 0.06642429530620575, -0.038830261677503586, -0.23788481950759888, -0.09231948107481003, -0.05419335886836052, -0.10654546320438385, -0.05891409143805504, -0.04351896047592163, -0.043357811868190765, -0.10140953958034515, 0.05779736489057541, -0.09188520908355713, -0.36083918809890747, -0.19446906447410583, 0.001507433014921844, -0.018487203866243362, 0.039573896676301956, 0.03619557246565819, -0.08034157752990723, -0.0179809108376503, -0.05896816402673721, 0.03244510665535927, -0.32637155055999756, -0.13321374356746674, 0.004359768237918615, -0.1105034127831459, 0.09845335781574249, 0.0805920958518982, -0.0680030882358551, 0.0038338005542755127, -0.1740991324186325, 0.18743100762367249, -0.12898117303848267, -0.1900891810655594, -0.009823556989431381, 0.01251972746104002, 0.011027746833860874, 0.05007209628820419, -0.0032747797667980194, -0.17663736641407013, 0.15174371004104614, 0.23328447341918945, -0.2100384384393692, -0.14351339638233185, -0.04778342694044113, -0.010684954933822155, -0.009516165591776371, 0.0051066274754703045, -0.03197425976395607, 0.015061594545841217, -0.09896866232156754, -0.007689213380217552, -0.18520070612430573, 0.04459281638264656, -0.1354050636291504, -0.1189449280500412, 0.03276324272155762, 0.20674337446689606, -0.04167838394641876, -0.012401207350194454, -0.01587328314781189, -0.021779939532279968, -0.1504485160112381, -0.080501027405262, 0.029409753158688545, -0.006942573469132185, 0.18956047296524048, -0.002505542477592826, 0.030871940776705742, 0.04670828953385353, 0.004727332387119532, -0.06431980431079865, 0.051999371498823166, -0.03504336252808571, -0.023441847413778305, 0.007892170920968056, -0.019657950848340988, 0.09717721492052078, 0.028165018185973167, -0.09999145567417145, -0.24783532321453094, -0.04564816504716873, -0.016221463680267334, -0.010824375785887241, 0.09041572362184525, -0.09125697612762451, 0.1438373178243637, 0.2038240283727646, 0.12710541486740112, 0.16453306376934052, 0.054232317954301834, -0.030788371339440346, 0.03059878945350647, 0.07277755439281464, 0.15078537166118622, -0.062451981008052826, 0.12072965502738953, -0.05235162749886513, -0.04293941706418991, -0.08889710903167725, 0.12911084294319153, -0.008711251430213451, 0.018906457349658012, -0.035331886261701584, 0.00410891929641366, -0.04465906322002411, 0.1539621204137802, -0.10884285718202591, 0.010013261809945107, -0.005774700548499823, -0.04932621121406555, 0.10913503170013428, 0.01355359610170126, 0.007795251905918121, 0.01755329594016075, 0.029181819409132004, -0.010733750648796558, -0.009021138772368431, 0.06341810524463654, -0.007028533611446619, -0.11956822872161865, 0.00554050924256444, 0.02878928929567337, -0.055613718926906586, 0.0558558888733387, -0.013044466264545918, -0.1457742154598236, 0.17752136290073395, 0.12802979350090027, 0.05328773334622383, 0.05781969055533409, 0.034065164625644684, 0.00022611554595641792, -0.010747943073511124, -0.01976609230041504, -0.05858103185892105, -0.16495190560817719, 0.029099754989147186, -0.14330023527145386, -0.10210218280553818, -0.058814749121665955, -0.041014716029167175, 0.11458184570074081, 0.04161585494875908, 0.025456832721829414, 0.031040197238326073, 0.0601651668548584, 0.04042501375079155, -0.039082180708646774, -0.06487583369016647, 0.027448095381259918, 0.0776933878660202, 0.02327083982527256, 0.017674602568149567, 0.08775978535413742, 0.04741417244076729, 0.09665438532829285, 0.03928890824317932, 0.06771379709243774, 0.026474950835108757, -0.06480704993009567, 0.004631238058209419, 0.0028063571080565453, -0.048829831182956696, -0.03392892703413963, 0.05872923508286476, -0.027002034708857536, 0.028634727001190186, 0.013751622289419174, 0.029115110635757446, 0.04039638862013817, -0.030116252601146698, 0.031923867762088776, -0.11254892498254776, -0.018800804391503334, 0.06445963680744171, 0.0420103520154953, 0.029742497950792313, -0.09704753756523132, -0.03863678127527237, 0.009001849219202995, 0.019414952024817467, -0.00020241255697328597, -0.06635548174381256, -0.05398107320070267, -0.0880834087729454, 0.007813140749931335, 1.3720662593841553, 0.028072098270058632, 0.1598571389913559, 0.14015786349773407, 0.003991349134594202, 0.28902122378349304, 0.015911700204014778], [-0.0026968149468302727, -0.1512511521577835, 0.09236439317464828, -0.08157207816839218, -0.14229537546634674, -0.06452175974845886, -0.10614589601755142, -0.02537921816110611, -0.013050433248281479, 0.08728668838739395, 0.0770658478140831, -0.037824489176273346, 0.07503507286310196, -0.29240378737449646, -0.23743891716003418, -0.19244064390659332, -0.19999249279499054, 0.06670846790075302, -0.04686873033642769, -0.01583227515220642, 0.014533094130456448, -0.016070354729890823, 0.028416117653250694, -0.1278824508190155, -0.08011125773191452, -0.11386784166097641, -0.17012132704257965, 0.02518053539097309, -0.0324949212372303, 0.016451967880129814, 0.042613495141267776, -0.02974822372198105, -0.1528865545988083, -0.29869863390922546, -0.18876270949840546, -0.17171084880828857, -0.19141337275505066, 0.061354950070381165, -0.029959749430418015, 0.04837573319673538, 0.012540912255644798, 0.0019774148240685463, -0.033548448234796524, -0.16076429188251495, -0.2880433201789856, -0.20403461158275604, -0.3311905264854431, -0.01830996386706829, 0.05151969566941261, 0.045598652213811874, 0.02411120943725109, 0.037120163440704346, 0.025562426075339317, -0.06803452223539352, 0.018094956874847412, -0.02524118311703205, -0.029206663370132446, 0.0198361873626709, -0.006743218749761581, 0.005528471898287535, 0.005688108038157225, 0.003499274607747793, -0.007197119295597076, 0.044191572815179825, 0.026099499315023422, -0.014922116883099079, -0.02733529545366764, -0.034688010811805725, 0.0022567498963326216, 0.002731941407546401, 0.011427825316786766, -0.020967597141861916, 0.008345521055161953, -0.013532132841646671, 0.043750349432229996, 0.0040993657894432545, 0.01784173771739006, 0.02451995015144348, 0.001545412465929985, 0.004257206339389086, -0.032130297273397446, 0.014775861985981464, 0.010016155429184437, -0.023686232045292854, 0.021657122299075127, 0.021721523255109787, 0.0003166616370435804, 0.0008546226308681071, -0.004353984259068966, 0.015935217961668968, -0.013671851716935635, 0.03356845676898956, 0.009999209083616734, -0.009531334042549133, 0.005370704457163811, -0.01324294600635767, 0.013418538495898247, 0.001181642059236765, 0.015617343597114086, -0.017842266708612442, -0.01512108650058508, 0.015147866681218147, 0.006416324991732836, 0.008094705641269684, 0.006087156478315592, 0.004975494462996721, 0.0045474981889128685, 0.017491338774561882, -0.016956109553575516, -0.017832770943641663, 0.003994501195847988, -0.005625235848128796, 0.0031540128402411938, 0.0006221825024113059, -0.0018373084021732211, 0.01204738486558199, 0.006832075770944357, -0.013457298278808594, 0.01153989601880312, 0.002983346115797758, -0.010133950971066952, -0.014293269254267216, 0.01545755285769701, 0.002590462565422058, -0.016005976125597954, -0.0023119759280234575, 0.00015155297296587378, 0.004060328472405672, 0.020506519824266434, -0.005619880277663469, 0.0202794149518013, -0.005161128006875515, 0.020593643188476562, -0.00967078935354948, 0.0266621932387352, -0.00028123625088483095, 0.005589980166405439, 0.008604774251580238, 0.0006233524181880057, -0.005185153800994158, 0.01891355961561203, -0.0001791695540305227, -0.009959731251001358, -0.021238233894109726, 0.01508084312081337, -0.006910424213856459, 0.0015694878529757261, 0.009952975437045097, -0.0027406623121351004, 0.014671229757368565, 0.0005505246808752418, 0.0009711657767184079, 0.005738312844187021, -0.017283422872424126, 0.0030307043343782425, 0.0006016965489834547, -0.0023349528200924397, 0.01185001339763403, -0.012724635191261768, -0.005875362083315849, 0.008729325607419014, -0.008307299576699734, -0.002040051855146885, 0.0059220753610134125, 0.005612826440483332, 0.012044113129377365, -0.0015188780380412936, 0.000792649865616113, -0.009323556907474995, 0.0037554362788796425, -0.0029861535876989365, 0.022996265441179276, -0.007164400070905685, 0.021555108949542046, -0.010310946963727474, 0.011597038246691227, 0.0044941590167582035, 0.011636114679276943, -0.0028431068640202284, 0.027455860748887062, 0.019824210554361343, 0.005466151982545853, -0.015239207074046135, -0.006303797010332346, -0.006353090051561594, 0.009678470902144909, -0.010411525145173073, 0.003337573492899537, 0.02152695320546627, 0.0021671694703400135, -0.008199390955269337, -0.018400764092803, 0.02464979700744152, -0.006220359355211258, 0.008821739815175533, 0.012621890753507614, -0.005345361772924662, -0.008532894775271416, -0.008188305422663689, -0.025767598301172256, -0.4972139298915863, -0.04754424840211868, -0.040897756814956665, -0.00039257513708435, -0.026104867458343506, -0.04735932871699333, -0.025794388726353645, -0.009923030622303486, 0.4523719549179077, -0.14361919462680817, 0.05843638628721237, 0.9170403480529785, 0.010565848089754581, 6.4487199783325195, 0.011808128096163273], [0.0354035459458828, -0.007476601749658585, 0.08758573979139328, -0.029245788231492043, 0.06209929659962654, 0.0034913308918476105, -0.014646009542047977, -0.03335511311888695, -0.05413232371211052, -0.002658252837136388, 0.05872034654021263, 0.01185690239071846, -0.04030313715338707, -0.10240060836076736, -0.05027376487851143, -0.20244702696800232, -0.06592298299074173, 0.03813232481479645, 0.009561681188642979, 0.03191670775413513, 0.0786348208785057, 0.001700425986200571, -0.15125255286693573, -0.0094110406935215, -0.021867189556360245, -0.12816263735294342, -0.05128875747323036, 0.038744594901800156, 0.02251872979104519, -0.006260911002755165, 0.006869492121040821, -0.17660510540008545, -0.0749615803360939, -0.11919156461954117, -0.0870976522564888, 0.049950238317251205, 0.00799908209592104, 0.12718994915485382, -0.016398366540670395, -0.043793678283691406, 0.08614273369312286, -0.06437711417675018, -0.012871655635535717, -0.0959230288863182, 0.011115353554487228, 0.023679768666625023, -0.18169090151786804, 0.05872863531112671, 0.0013298580888658762, 0.0631859302520752, 0.16382254660129547, 0.10072122514247894, -0.017514223232865334, -0.026915831491351128, 0.03519096598029137, 0.03718996420502663, -0.1419280618429184, -0.08578208088874817, 0.03872188925743103, 0.019772741943597794, -0.048967596143484116, 0.04940715804696083, -0.08329668641090393, -0.09141639620065689, -0.17695540189743042, -0.026028314605355263, -0.060417793691158295, -0.0208679661154747, 0.07276096194982529, 0.10149490833282471, -0.10118328779935837, -0.01883562095463276, -0.05807264894247055, -0.10394368320703506, -0.11537004262208939, 0.055202916264534, -0.04539461433887482, 0.18755066394805908, 0.2701662480831146, 0.022765886038541794, -0.14795023202896118, 0.04274587705731392, -0.1215733140707016, -0.0908486396074295, -0.015207568183541298, 0.054946430027484894, 0.07932191342115402, 0.10256081819534302, 0.07384937256574631, -0.11527980864048004, -0.12853142619132996, 0.12499593198299408, 0.04666954278945923, -0.09812572598457336, 0.03421705216169357, -0.06130555272102356, -0.10333279520273209, 0.15320901572704315, -0.00023949670139700174, -0.06323279440402985, -0.0027194838039577007, 0.060720983892679214, 0.035456735640764236, -0.03641046583652496, 0.0029727467335760593, 0.043948203325271606, 0.0032634648960083723, 0.033494818955659866, -0.07966264337301254, -0.0024125142954289913, 0.1222393587231636, 0.043037258088588715, 0.1038111075758934, 0.026082292199134827, 0.07229958474636078, -0.033554911613464355, 0.11266152560710907, -0.13706929981708527, 0.007990770041942596, -0.053542610257864, -0.012961178086698055, -0.02983218804001808, -0.04945969581604004, 0.03021509200334549, 0.004446495324373245, 0.01097001414746046, 0.0809166207909584, 0.11651375889778137, -0.03231789544224739, 0.07346086204051971, 0.13694262504577637, 0.012409363873302937, 0.023481661453843117, 0.061800267547369, -0.019114667549729347, -0.011859946884214878, -0.07879864424467087, -0.002611743053421378, -0.05416717380285263, 0.01765960454940796, 0.020594114437699318, 0.04272537678480148, 0.012893703766167164, -0.002012276789173484, -0.047437410801649094, 0.0020624706521630287, 0.04366719722747803, 0.04434606805443764, 0.0190493855625391, -0.020689742639660835, 0.05223418027162552, 0.04350331798195839, 0.052546530961990356, -0.06013380363583565, 0.08126233518123627, -0.08333297073841095, -0.05354787036776543, -0.023788759484887123, 0.03278689086437225, -0.060721661895513535, 0.09438100457191467, 0.03254939243197441, 0.0030392115004360676, -0.08277418464422226, 0.03473356366157532, -0.11608712375164032, 0.11703571677207947, 0.07132134586572647, -0.035790830850601196, 0.11245996505022049, 0.010384777560830116, 0.0025436936412006617, 0.018160764127969742, -0.08544529974460602, 0.12820938229560852, 0.06594019383192062, 0.06714561581611633, -0.10426255315542221, 0.08858578652143478, -0.013513578101992607, 0.002603731118142605, -0.08985386788845062, 0.05828532204031944, -0.07306957989931107, 0.03134400397539139, -0.035493507981300354, 0.09180638939142227, -0.007528531830757856, -0.01236720196902752, 0.02737044356763363, 0.043746862560510635, 0.010247478261590004, -0.02764180488884449, 0.05789142847061157, -0.09168805927038193, -0.020030586048960686, -0.040026385337114334, 0.05094849690794945, 0.02404261939227581, -0.08827994018793106, -0.1716955602169037, -0.08169049024581909, -0.047106094658374786, -0.0708928033709526, -0.1280892938375473, -0.04426206648349762, 0.006229058839380741, 0.08890219777822495, 0.601228654384613, -0.0662887841463089, 0.09538086503744125, 0.2416970133781433, -0.005414669867604971, 1.7071189880371094, 0.003484595799818635], [0.012042832560837269, -0.016926515847444534, -0.10684230923652649, 0.001867269747890532, -0.021391507238149643, 0.08762353658676147, -0.06994111090898514, -0.0695691779255867, -0.03666243702173233, -0.002851806813850999, -0.012373465113341808, -0.03531308472156525, 0.11462794989347458, 0.07895243167877197, 0.033512700349092484, 0.0820702612400055, 0.11733986437320709, 0.09727641195058823, -0.02394421398639679, 0.032076578587293625, 0.03293966129422188, 0.029500562697649002, 0.017478812485933304, 0.12892884016036987, 0.10904387384653091, 0.17719294130802155, 0.0769827738404274, 0.07025530934333801, 0.1253923922777176, 0.08412905037403107, -0.0735602155327797, -0.0815223678946495, 0.10245715081691742, 0.16786015033721924, 0.12610140442848206, 0.21433815360069275, 0.038779959082603455, 0.12057964503765106, -0.051202550530433655, -0.06180046498775482, 0.030568156391382217, 0.07178556174039841, 0.09376579523086548, 0.1197076216340065, 0.11682023108005524, 0.13130678236484528, 0.06628859043121338, 0.13151146471500397, -0.07378867268562317, -0.17077672481536865, 0.15588988363742828, 0.236158549785614, 0.07954072207212448, 0.020421544089913368, 0.12419814616441727, 0.014260285533964634, 0.0869789570569992, 0.20084042847156525, -0.027648743242025375, -0.22307536005973816, 0.1175350621342659, 0.07374521344900131, 0.17551679909229279, -0.021004635840654373, 0.0696084052324295, 0.011065784841775894, 0.09004266560077667, 0.08324205875396729, -0.1308884173631668, -0.17113488912582397, 0.09218251705169678, 0.03024148941040039, 0.1845947504043579, 0.0833141878247261, -0.09473220258951187, 0.022816624492406845, 0.10569868236780167, 0.08365701884031296, 0.008358702063560486, -0.000766171608120203, 0.02100781910121441, -0.1652967780828476, 0.020073311403393745, -0.3098852038383484, -0.09331915527582169, 0.09667132794857025, 0.05884638428688049, 0.052828315645456314, -0.04350481182336807, 0.0400245375931263, -0.10020997375249863, -0.011916426941752434, -0.10576681047677994, 0.1335943192243576, 0.041724301874637604, 0.09818872064352036, -0.04057406634092331, -0.09120342135429382, -0.1761280596256256, 0.2826114296913147, -0.20179617404937744, 0.06620084494352341, 0.004853622056543827, -0.0016414971323683858, -0.0012738349614664912, 0.04931419715285301, 0.04663875699043274, 0.01291122566908598, 0.008971210569143295, 0.0046856338158249855, 0.022925201803445816, -0.033653758466243744, -0.039490390568971634, 0.08844030648469925, 0.06395620107650757, 0.007836200296878815, -0.09151691198348999, 0.12134414166212082, -0.05062217265367508, -0.0528474785387516, -0.07018283754587173, 0.0290477704256773, -0.06716500967741013, 0.005860009230673313, -0.025107676163315773, 0.01519117970019579, -0.06983518600463867, 0.008202367462217808, 0.027794912457466125, -0.04029182717204094, -0.02819499745965004, 0.053047142922878265, 0.030822493135929108, 0.03709894046187401, 0.02729582041501999, 0.1037212386727333, -0.06802085787057877, 0.05076786130666733, 0.057391587644815445, -0.07125157117843628, -0.0968833863735199, 0.06966786086559296, -0.028379712253808975, 0.05927209556102753, 0.048474594950675964, 0.04494692012667656, 0.021589098498225212, -0.013950677588582039, 0.03946175426244736, 0.09408096969127655, -0.08798699826002121, 0.06367309391498566, 0.008996265940368176, 0.07960322499275208, -0.08325119316577911, 0.043312691152095795, 0.00730947544798255, 0.033570174127817154, -0.02599196881055832, 0.0011869323207065463, -0.07276248186826706, -0.0401264950633049, 0.11839559674263, 0.043212976306676865, 0.02570030651986599, 0.02628042735159397, -0.0340186282992363, -0.008754899725317955, -0.05638173222541809, -0.06113496795296669, 0.03297078609466553, 0.07531347870826721, 0.05519847199320793, -0.053537674248218536, -0.001823344617150724, 0.026377368718385696, 0.0293698962777853, -0.04520460590720177, 0.046010952442884445, 0.033226579427719116, -0.037876326590776443, -0.028394529595971107, 0.06687059253454208, 0.04657343402504921, 0.11440601199865341, 0.020843563601374626, -0.09342437982559204, 0.040774811059236526, -0.025374792516231537, -0.03395935148000717, -0.017375532537698746, 0.03669895976781845, -0.10082301497459412, 0.06648571044206619, -0.04103165119886398, -0.05709559842944145, -0.04094511643052101, -0.04052599519491196, 0.04991406574845314, -0.047849390655756, 0.11140429973602295, -0.10280837118625641, -0.07822293043136597, -0.04993906989693642, -0.030339395627379417, -0.06915665417909622, -0.14952272176742554, -0.08021237701177597, 0.7527612447738647, -0.004981969017535448, 0.13557139039039612, 0.09970451146364212, 0.009849506430327892, 0.4584394693374634, -0.00957812275737524], [-0.0002371814480284229, 0.0034870989620685577, 0.0056933192536234856, -0.09135780483484268, -0.10984653979539871, -0.11889568716287613, -0.08412110805511475, -0.008371158502995968, -0.061181969940662384, -0.004932092968374491, -0.002865239279344678, -0.0663207545876503, -0.0715826153755188, -0.32556742429733276, -0.3723023235797882, -0.3167101740837097, -0.10463416576385498, 0.025142088532447815, -0.031134217977523804, 0.05737001448869705, -0.03569250553846359, -0.09026295691728592, -0.02535642310976982, -0.20132729411125183, -0.20017066597938538, -0.20327222347259521, -0.18631860613822937, 0.015226803719997406, 0.05170941725373268, 0.08659014850854874, -0.17162419855594635, -0.037744879722595215, -0.18731902539730072, -0.13543739914894104, -0.214211106300354, -0.14291620254516602, -0.2876432538032532, -0.020924275740981102, -0.06210607662796974, -0.044895850121974945, -0.134891077876091, 0.06546863913536072, -0.17367534339427948, -0.19724389910697937, -0.39483898878097534, -0.1737794280052185, -0.23359163105487823, 0.033027466386556625, -0.03019387274980545, -0.17056401073932648, -0.2587377429008484, 0.0785764828324318, -0.060836829245090485, -0.11758723109960556, -0.17468148469924927, -0.02507995255291462, -0.035094741731882095, 0.10766768455505371, -0.005186527036130428, -0.25505712628364563, -0.0338173545897007, 0.11710610240697861, -0.175859734416008, -0.03990429267287254, -0.02934938669204712, 