{"type": "afterstate-value-mlp", "version": 1, "inputSize": 215, "layers": [{"weight": [[0.01753302477300167, -0.024199869483709335, 0.030939457938075066, -0.07513904571533203, -0.019798491150140762, -0.1410331428050995, -0.015331970527768135, -0.07587479799985886, -0.05905526876449585, 0.04662003368139267, -0.07594586908817291, -0.02284441888332367, -0.042201802134513855, -0.09736061841249466, -0.1404140740633011, -0.2492123693227768, -0.1242167204618454, -0.06393469870090485, -0.03626338765025139, -0.023956960067152977, -0.09973777085542679, -0.02277200296521187, -0.051011823117733, -0.14429044723510742, -0.20679154992103577, -0.2740058898925781, -0.18409363925457, 0.033525265753269196, 0.027979854494333267, 0.03185435011982918, -0.10710671544075012, 0.04286225512623787, -0.0539037324488163, -0.11290033906698227, -0.10756947100162506, -0.18915680050849915, 0.0005860350793227553, 0.045259855687618256, 0.0829140916466713, 0.11352473497390747, -0.02347969077527523, -0.1838512122631073, 0.01109585352241993, -0.0022938798647373915, -0.09146090596914291, -0.04182452708482742, -0.06513390690088272, 0.010566787794232368, 0.0426006019115448, 0.06355845928192139, 0.17584528028964996, 0.08236996084451675, -0.17860502004623413, 0.07690589874982834, 0.01227962039411068, 0.011125266551971436, 0.0921223983168602, 0.09685947000980377, -0.005580596160143614, 0.0459141880273819, -0.08424503356218338, 0.03535928204655647, 0.01565038226544857, -0.08876470476388931, 0.009834116324782372, 0.022445425391197205, 0.0832030400633812, 0.1169109046459198, 0.01298183761537075, 0.2588733732700348, 0.04008070379495621, 0.04849379509687424, 0.07798315584659576, 0.05381398648023605, 0.1625954657793045, 0.10379335284233093, -0.0029366337694227695, 0.11299601197242737, 0.036312345415353775, 0.051438383758068085, 0.08940577507019043, -0.0469510480761528, -0.04497339949011803, 0.1710338145494461, 0.01941584423184395, 0.1545943319797516, 0.09967674314975739, 0.12498665601015091, 0.07745068520307541, 0.021020133048295975, 0.102265864610672, 0.029753927141427994, -0.06124277412891388, -0.07853421568870544, 0.07378427684307098, 0.09641285985708237, 0.1479170322418213, 0.056089818477630615, 0.029728945344686508, 0.03981825336813927, 0.031911205500364304, -0.03189336135983467, -0.18374446034431458, -0.007149190176278353, -0.016807740554213524, 0.17505894601345062, 0.09589934349060059, 0.06867692619562149, -0.013930772431194782, 0.05397571250796318, 0.011598728597164154, -0.14082778990268707, -0.29037582874298096, -0.07399680465459824, 0.019578631967306137, 0.15097451210021973, 0.16916508972644806, 0.02065308578312397, -0.05069936811923981, -0.024707525968551636, -0.037310533225536346, -0.09234452247619629, -0.24800948798656464, -0.0670224130153656, 0.06378356367349625, 0.11405694484710693, 0.2324061095714569, 0.06868556886911392, -0.10492423921823502, -0.05835508927702904, -0.03761882707476616, -0.12173023074865341, -0.186018705368042, -0.12645909190177917, 0.013145605102181435, 0.11722053587436676, 0.1655978560447693, 0.123435840010643, -0.018963579088449478, -0.09675154089927673, -0.14271381497383118, -0.21612386405467987, -0.2658153176307678, -0.15887600183486938, -0.04592772573232651, 0.03734787926077843, 0.10720553249120712, 0.03765760734677315, -0.12653733789920807, -0.041124969720840454, -0.0717834010720253, 0.005352565087378025, -0.05922586843371391, -0.05545353516936302, 0.025382347404956818, 0.04490324854850769, 0.08218826353549957, 0.021700728684663773, 0.08746927976608276, -0.04795844107866287, 0.07500658929347992, -0.01804494857788086, -0.024444203823804855, -0.03370528295636177, -0.032241612672805786, -0.03277949243783951, 0.0673828274011612, 0.09442122280597687, 0.05350833013653755, 0.0005581578006967902, 0.06660164892673492, 0.04169466346502304, -0.021226104348897934, -0.061084602028131485, 0.004381536040455103, -0.018003353849053383, 0.017238901928067207, 0.08754266798496246, -0.036347657442092896, -0.05299399793148041, -0.012938808649778366, 0.031482987105846405, -0.043762411922216415, -0.026091476902365685, -0.07590685784816742, 0.04161607101559639, 0.03750365599989891, 0.021383652463555336, -0.0028089825063943863, -0.007006015162914991, 0.10629365593194962, 0.05830274894833565, 0.02778155542910099, -0.010708076879382133, -0.0047269719652831554, -0.07766862958669662, -0.0045707146637141705, 0.07680444419384003, 0.011966783553361893, -0.026367517188191414, 0.07692010700702667, 0.14641405642032623, 0.05102532356977463, 0.20456047356128693, 0.16714440286159515, 0.168267622590065, 0.11573866009712219, -0.03228651359677315, -0.4935567080974579, 0.09696539491415024, -0.03005235083401203, -0.0442962646484375, -0.002928162459284067, -0.5211246013641357, 0.012547166086733341], [-0.008808180689811707, -0.020577464252710342, -0.06891912966966629, -0.04322086274623871, 0.021847082301974297, -0.11023193597793579, 0.037079714238643646, -0.009594560600817204, 0.0009645807440392673, 0.01149497926235199, 0.022775016725063324, -0.03807174041867256, -0.024594120681285858, -0.019824014976620674, -0.29419535398483276, -0.30773892998695374, -0.1370455026626587, -0.058053892105817795, -0.04370187222957611, 0.016261698678135872, 0.014010114595293999, -0.01866314373910427, -0.10087020695209503, -0.20347310602664948, -0.11831220984458923, -0.16163986921310425, -0.029864056035876274, -0.047178540378808975, 0.00935374852269888, 0.12070783972740173, -0.19167262315750122, -0.039656952023506165, -0.17809708416461945, -0.19865459203720093, -0.14288808405399323, -0.21680204570293427, -0.14899607002735138, 0.015571950003504753, -0.19717355072498322, 0.010895960032939911, -0.033414408564567566, -0.012702173553407192, -0.1268816888332367, -0.13749447464942932, -0.22441260516643524, -0.28000426292419434, -0.1026400625705719, -0.0892987921833992, -0.22803156077861786, 0.17772023379802704, 0.056082531809806824, 0.05830487236380577, -0.0630153939127922, -0.13827557861804962, -0.175664484500885, -0.28166788816452026, -0.04430593177676201, 0.002748435363173485, -0.13815094530582428, -0.07963123172521591, 0.041770100593566895, 0.08811125159263611, 0.04147385060787201, -0.011261709965765476, 0.11393623799085617, -0.1151835173368454, -0.00944839883595705, 0.15400876104831696, -0.08408887684345245, 0.043585360050201416, -0.08180408924818039, -0.055950455367565155, 0.057535503059625626, -0.13858406245708466, 0.01630733162164688, -0.07295990735292435, 0.07493284344673157, 0.06356790661811829, -0.04236534610390663, -0.06352653354406357, 0.0547834187746048, 0.00330726127140224, 0.018261253833770752, -0.03903486952185631, -0.017097551375627518, 0.016915246844291687, -0.08895667642354965, -0.021538902074098587, 0.04675934091210365, -0.013324066996574402, -0.03871850669384003, -0.04480453580617905, 0.10546359419822693, -0.00026266637723892927, -0.03946338966488838, 0.009105808101594448, 0.012706265784800053, -0.043063051998615265, -0.00988798588514328, -0.08803372830152512, 0.010393224656581879, -0.027218369767069817, -0.04452482610940933, 0.018572213128209114, 0.016489801928400993, 0.10713502019643784, -0.05244281888008118, 0.0294738058000803, 0.007633226457983255, -0.01927393302321434, 0.01729697361588478, 0.0285203754901886, -0.05327480658888817, 0.02205054648220539, -0.027950288727879524, 0.03256557509303093, 0.09082647413015366, 0.05337407812476158, -0.07237718254327774, -0.06352502852678299, -0.02023782581090927, 0.06269849836826324, -0.016501665115356445, 0.009081187658011913, 0.07358086854219437, -0.035180747509002686, -0.08235468715429306, -0.022267263382673264, 0.006510456558316946, 0.027330417186021805, -0.06763052940368652, -0.04318661242723465, 0.01866188645362854, 0.008820226415991783, -0.005144614726305008, 0.06518969684839249, 0.05259755998849869, 0.023490535095334053, 0.03197415918111801, -0.0377063974738121, -0.047191161662340164, -0.0004332915414124727, 0.016105905175209045, 0.0017457734793424606, 0.04755602404475212, 0.009374231100082397, 0.03489882871508598, 0.023310868069529533, 0.05212859809398651, -0.14589107036590576, 0.05856063589453697, 0.0010525676188990474, 0.060494352132081985, -0.02561614289879799, -0.00471575278788805, 0.021293403580784798, 0.01603654772043228, -0.07290995121002197, -0.052592188119888306, 0.026508372277021408, -0.045871198177337646, 0.04860900714993477, 0.10337070375680923, -0.0045768022537231445, -0.008531730622053146, 0.11334395408630371, -0.0018895306857302785, 0.10008330643177032, -0.05246046185493469, -0.07833000272512436, 0.0704984962940216, -0.057475801557302475, 0.06983307749032974, 0.07380274683237076, 0.027230018749833107, 0.06650841981172562, 0.02099747583270073, 0.07416590303182602, -0.01738884672522545, 0.05887290835380554, -0.12015392631292343, -0.03412149101495743, 0.04917123541235924, 0.02645821124315262, -0.04205191880464554, 0.06974267959594727, -0.05776340514421463, -0.06903659552335739, -0.020531313493847847, 0.06991139054298401, -0.02452661469578743, -0.09072539955377579, 0.05281469598412514, 0.007939055562019348, -0.011180151253938675, 0.09783592075109482, -0.06022774428129196, -0.09115595370531082, -0.10677706450223923, 0.04575595259666443, 0.04672425985336304, -0.04043436422944069, -0.042519956827163696, -0.06809313595294952, -0.02499661222100258, -0.05345546081662178, -0.0474567674100399, 0.015581922605633736, 1.4265187978744507, 0.035687100142240524, 0.15531639754772186, -0.009924528189003468, 0.00894124060869217, -1.3067187070846558, 0.004315997939556837], [-0.02556760609149933, 0.06283600628376007, 0.05763249844312668, -0.01019689068198204, -0.017225094139575958, -0.09401033073663712, -0.09163732826709747, 0.018371615558862686, -0.0403243824839592, 0.004702772479504347, 0.05062318220734596, 0.0017596427351236343, 0.0965530276298523, -0.06579219549894333, -0.16467247903347015, -0.09294935315847397, -0.05718766525387764, -0.007305289153009653, -0.08409290760755539, -0.011736161075532436, -0.012865737080574036, 0.016142982989549637, -0.11166234314441681, -0.0018434044905006886, -0.13691988587379456, -0.06916657835245132, -0.10029245167970657, -0.03753030672669411, -0.041433148086071014, -0.09956592321395874, 0.015462353825569153, -0.09926531463861465, -0.10374441742897034, -0.02084331028163433, -0.04232119023799896, -0.07113201916217804, -0.0493231937289238, 0.06797809153795242, -0.08643113821744919, -0.1306448131799698, 0.02371320314705372, -0.16358396410942078, -0.058794211596250534, -0.17573492228984833, -0.07581555098295212, 0.08677329868078232, -0.024973955005407333, 0.00956581812351942, 0.04415908083319664, 0.1255221664905548, 0.1904333233833313, 0.11452914029359818, -0.14332088828086853, -0.060544975101947784, -0.21717673540115356, -0.04686978831887245, -0.10849303007125854, -0.008124764077365398, 0.056561775505542755, 0.09857556968927383, 0.027573270723223686, 0.017600981518626213, -0.12735632061958313, -0.13430672883987427, 0.043123673647642136, -0.1883331537246704, -0.2030177116394043, -0.04559944197535515, -0.05093993619084358, 0.02844439260661602, 0.09254983812570572, 0.0679486021399498, 0.11619868129491806, -0.11258148401975632, -0.2171541005373001, 0.009026498533785343, -0.050313036888837814, 0.10943315923213959, 0.039115071296691895, 0.05849733576178551, 0.1348877251148224, 0.023882439360022545, -0.003574794391170144, 0.030365493148565292, -0.08527804166078568, 0.04608607664704323, -0.08823543041944504, -0.04823845252394676, 0.08247843384742737, 0.035804830491542816, 0.1475541740655899, 0.03227594122290611, 0.07651784271001816, 0.04847012832760811, 0.018713630735874176, -0.02506904862821102, -0.05247468128800392, 0.050246577709913254, 0.01536337286233902, 0.04406055063009262, 0.15408673882484436, 0.06958935409784317, 0.03618045523762703, -0.019331786781549454, -0.03238852694630623, -0.07007081061601639, -0.11610301584005356, 0.0310406181961298, -0.013661167584359646, 0.06482314318418503, 0.1520298570394516, 0.07493938505649567, 0.002940560458227992, -0.09480211138725281, -0.08829154074192047, -0.040887653827667236, -0.03906586393713951, 0.013690749183297157, -0.053712017834186554, -0.007525275927037001, 0.15116968750953674, 0.09109760075807571, -0.030792640522122383, -0.0493430495262146, -0.08414003998041153, -0.011121369898319244, -0.16432027518749237, -0.09210020303726196, -0.05946269631385803, 0.021952761337161064, 0.2263195961713791, 0.05303778871893883, -0.009366334415972233, -0.0377081036567688, -0.003913776949048042, 0.11598235368728638, -0.004851778969168663, 0.049758926033973694, 0.08732648193836212, 0.03816969320178032, 0.028648242354393005, 0.04154078662395477, -0.0013098421040922403, -0.042350731790065765, -0.12225364148616791, 0.039813533425331116, 0.08879150450229645, -0.014248712919652462, 0.12756428122520447, 0.1070086807012558, -0.040620554238557816, -0.07450749725103378, -0.11920318007469177, -0.1937783658504486, -0.05040816590189934, -0.006342445965856314, 0.04162435233592987, -0.02472132071852684, 0.046368762850761414, 0.06919366121292114, -0.013995397835969925, -0.15219567716121674, -0.04706006869673729, -0.030840298160910606, -0.02221335843205452, -0.010668691247701645, -0.05765615403652191, 0.032826345413923264, -0.004251193255186081, 0.09146445244550705, -0.03474393114447594, -0.050180841237306595, -0.02798614837229252, -0.026129046455025673, -0.011679467745125294, 0.0195417869836092, 0.05692189559340477, 0.07739333063364029, 0.02423727512359619, 0.09889470785856247, -0.06781875342130661, 0.03465578332543373, 0.01991548016667366, -0.01799636334180832, -0.03562081977725029, 0.05921215936541557, 0.10971979051828384, 0.04267142340540886, 0.029762040823698044, -0.017739132046699524, -0.07774028182029724, 0.054682597517967224, 0.01880907081067562, -0.05525822564959526, -0.022454073652625084, -0.0601065568625927, 0.09718145430088043, 0.098176009953022, 0.0816296637058258, -0.08340363949537277, 0.0733826532959938, 0.12459632009267807, 0.0764823779463768, 0.06772683560848236, 0.0679054707288742, 0.052262865006923676, 0.13782700896263123, -0.04662046208977699, -1.3249603509902954, 0.04938262328505516, -0.15861472487449646, -0.5667362809181213, -0.005875334143638611, -1.3394842147827148, -0.0010764996986836195], [0.006855735555291176, 0.04426874592900276, -0.017685312777757645, -0.03507765755057335, -0.0659949779510498, 0.005590284243226051, -0.05883520096540451, 0.0022608444560319185, -0.0700303465127945, -0.005492091178894043, -0.04544816166162491, 0.006839261390268803, -0.07987041771411896, -0.12036478519439697, -0.1971641182899475, -0.12025367468595505, -0.08330892771482468, -0.09234777092933655, -0.023416103795170784, -0.09027933329343796, -0.07805091142654419, 0.006891584023833275, -0.024890346452593803, -0.0637717992067337, -0.17925649881362915, -0.16988781094551086, -0.06515256315469742, -0.03519940376281738, 0.005275812465697527, 0.051828425377607346, -0.011414259672164917, -0.015187758952379227, -0.02911962755024433, -0.05040746554732323, -0.1361677497625351, -0.22736777365207672, -0.056475959718227386, -0.09004660695791245, 0.04577910155057907, 0.005746945738792419, -0.10561361908912659, -0.06189285218715668, 0.027572333812713623, -0.12692564725875854, -0.03855624049901962, -0.1867128163576126, 0.029948946088552475, -0.09104850888252258, -0.05634603276848793, 0.0051882010884583, -0.23066502809524536, -0.1571473330259323, -0.08151369541883469, -0.06178123503923416, -0.15316282212734222, -0.05453144758939743, 0.001063746283762157, -0.19610129296779633, -0.030849676579236984, -0.1332758069038391, 0.06002197042107582, -0.13102096319198608, -0.1673259735107422, 0.008760623633861542, -0.22106808423995972, -0.007796416990458965, -0.18264736235141754, -0.10781516134738922, -0.008053742349147797, -0.146365687251091, 0.13246120512485504, -0.25166329741477966, -0.13969537615776062, 0.2348463088274002, -0.04988641291856766, -0.046056684106588364, -0.045727893710136414, -0.08940385282039642, -0.09741207957267761, 0.1477491557598114, 0.09440839290618896, -0.343472957611084, -0.07450737059116364, 0.021331842988729477, 0.019431818276643753, -0.05611849203705788, -0.02355905808508396, -0.006940430495887995, 0.051189154386520386, 0.11883283406496048, 0.06745614856481552, -0.17378853261470795, 0.01787783019244671, 0.09826567023992538, 0.05500313267111778, 0.14670835435390472, 0.15665686130523682, -0.025270840153098106, -0.06507628411054611, 0.11069057136774063, -0.003286561695858836, -0.4142230451107025, 0.13855910301208496, 0.046072665601968765, -0.06024954840540886, 0.1752261370420456, -4.7156030632322654e-05, -0.08336760103702545, -0.05243125185370445, -0.025785105302929878, -0.0421089269220829, -0.2526523470878601, 0.002248068107292056, -0.016748733818531036, 0.055720437318086624, 0.05397089570760727, -0.03408060967922211, 0.11086549609899521, -0.107114776968956, 0.04990944638848305, -0.05660964176058769, -0.3206196427345276, 0.08960073441267014, 0.00958770141005516, -0.10945525765419006, 0.015528112649917603, -0.04311900585889816, 0.02317238785326481, -0.10513933002948761, -0.06755638122558594, -0.018032336607575417, -0.38793718814849854, 0.10991494357585907, 0.041774995625019073, -0.019201282411813736, -0.007241865154355764, 0.0306843351572752, 0.05553485080599785, -0.04611482843756676, -0.15045058727264404, -0.016903549432754517, -0.07292472571134567, 0.06225380301475525, 0.029172062873840332, -0.05077190697193146, 0.03248900547623634, -0.06613622605800629, 0.0581265464425087, 0.12374745309352875, 0.002378582488745451, -0.054626837372779846, -0.08572554588317871, -0.01360537949949503, 0.024713069200515747, -0.026643849909305573, -0.03188423439860344, -0.030435455963015556, -0.02818802185356617, -0.03321623057126999, -0.031131263822317123, 0.20264914631843567, 0.002450785832479596, 0.01828024350106716, 0.02055172808468342, -0.05908247083425522, -0.060220979154109955, 0.08953867852687836, 0.04125414043664932, 0.016978709027171135, -0.017301788553595543, 0.14006781578063965, 0.041251908987760544, 0.031151074916124344, -0.058967944234609604, 0.04285147041082382, 0.054051220417022705, 0.0017341581406071782, -0.10033507645130157, 0.0838075652718544, -0.025258656591176987, 0.07498695701360703, 0.08362893015146255, 0.05124326050281525, -0.01800192892551422, -0.014612832106649876, -0.021316487342119217, 0.0004117721109651029, 0.011253836564719677, 0.07090483605861664, -0.004433824680745602, 0.10625114291906357, 0.016867121681571007, 0.05676555633544922, -0.0367804691195488, 0.05014067515730858, 0.046675048768520355, 0.045702576637268066, 0.08765913546085358, 0.06843128800392151, 0.008279073983430862, -0.06228351220488548, -0.013571139425039291, -0.05990453436970711, 0.10674446076154709, 0.040762703865766525, 0.029109740629792213, 0.016275089234113693, 0.1784249246120453, -0.4449262320995331, 0.060520559549331665, -0.0592285580933094, 0.127360537648201, 0.003370692953467369, -2.0847020149230957, 0.0006326960865408182], [-0.01498786173760891, 0.04551663622260094, -0.027433861047029495, 0.05178713798522949, 0.02924874797463417, 0.061986956745386124, -0.037183139473199844, -0.07904990017414093, -0.015117766335606575, 0.023122359067201614, -0.002325712703168392, 0.00788068026304245, -0.054003600031137466, 0.018334107473492622, 0.09348473697900772, 0.10326162725687027, -0.04293171688914299, -0.10018228739500046, -0.08000645786523819, -0.04633045196533203, -0.0467485673725605, 0.006918426603078842, -0.02410871349275112, -0.022538132965564728, -0.0008487031445838511, 0.022544989362359047, -0.019392648711800575, -0.004991996567696333, 0.05028987303376198, 0.047619935125112534, 0.07535959035158157, 0.0017085219733417034, -0.059041827917099, -0.036808162927627563, -0.046239789575338364, -0.04141509160399437, -0.08506596833467484, 0.04928120970726013, 0.017009705305099487, 0.030231015756726265, 0.03994856774806976, 0.05437181890010834, 0.006327004171907902, 0.034323252737522125, -0.0411921925842762, 0.0069930716417729855, -0.04067796468734741, -0.0004923956585116684, 0.036340583115816116, 0.0006573160062544048, 0.05934761464595795, 0.06276802718639374, 0.06857462227344513, 0.07626966387033463, 0.09678563475608826, -0.0010045947274193168, 0.0010722337756305933, -0.011242736130952835, 0.024205688387155533, -0.012227960862219334, 0.12239676713943481, 0.030452953651547432, 0.025125890970230103, 0.06714599579572678, 0.043025821447372437, 0.002029379829764366, 0.0934581607580185, 0.0867839977145195, 0.04842652752995491, 0.04978160932660103, 0.031141730025410652, 0.11373713612556458, 0.07958805561065674, 0.1084078773856163, 0.07779495418071747, 0.06959130614995956, 0.07784441858530045, 0.04682217165827751, 0.04021814465522766, -0.02065621130168438, 0.009505962021648884, 0.04964045435190201, 0.03045399859547615, 0.07417881488800049, 0.0433148518204689, 0.0772162526845932, 0.14907430112361908, 0.039049677550792694, 0.03610082343220711, -0.019209669902920723, 0.035965677350759506, 0.06929370015859604, 0.04523925110697746, 0.052328284829854965, 0.08950251340866089, 0.10985036194324493, 0.07227206975221634, 0.05463434383273125, 0.06234506145119667, -0.005903971381485462, 0.08918546140193939, 0.018662353977560997, -0.0050987727008759975, 0.04903169721364975, 0.09151916205883026, 0.09134715050458908, 0.08579326421022415, 0.12455106526613235, 0.04245593398809433, 0.03529050201177597, 0.048182517290115356, 0.09079975634813309, 0.040684521198272705, 0.029192226007580757, 0.023476913571357727, 0.0013535389443859458, 0.0512172169983387, 0.009958093985915184, 0.06631769239902496, -0.021146303042769432, -0.03646818920969963, 0.02639416605234146, 0.06388495117425919, 0.08509417623281479, 0.021354064345359802, 0.034100864082574844, 0.06378967314958572, 0.04790196567773819, 0.07883913815021515, -0.01251835934817791, 0.036307547241449356, 0.07262277603149414, 0.05820498615503311, 0.09596651047468185, 0.03558924049139023, 0.049291614443063736, 0.09182017296552658, 0.058776840567588806, 0.06263769418001175, 0.02199891395866871, 0.005616714246571064, 0.061033204197883606, 0.1271260380744934, 0.03706509247422218, 0.0978664755821228, 0.08713582903146744, 0.07823725044727325, 0.05365855619311333, 0.07667768001556396, 0.03912969306111336, 0.05660573020577431, 0.06430545449256897, 0.09501475095748901, 0.1062210202217102, 0.08282151818275452, 0.09021339565515518, 0.09266912192106247, 0.04530044272542, 0.09951424598693848, 0.03805149719119072, 0.05265427008271217, 0.04826081544160843, 0.042677141726017, 0.055722881108522415, 0.04228285700082779, 0.02913503535091877, 0.07371613383293152, 0.03129430115222931, 0.05530090257525444, -0.022022265940904617, 0.03920590505003929, 0.029325639829039574, 0.06272806227207184, 0.06204474717378616, 0.05936295911669731, 0.05438192933797836, 0.054923176765441895, 0.04400927945971489, 0.05460188537836075, 0.004191654734313488, 0.02619742788374424, 0.04762326180934906, 0.019566213712096214, 0.06307398527860641, 0.04714072495698929, 0.046415701508522034, 0.060829538851976395, 0.021438777446746826, 0.057642869651317596, 0.011342852376401424, -0.010341394692659378, 0.040310338139534, 0.03330012410879135, -0.023936297744512558, 0.026658769696950912, 0.038463179022073746, -0.01381534244865179, 0.003035337198525667, -0.022492216899991035, 0.05428480729460716, 0.13323792815208435, 0.024556994438171387, 0.05822619050741196, 0.05824648216366768, 0.05963229760527611, 0.035957977175712585, 0.06344527006149292, 0.23245450854301453, -1.0278425216674805, -0.04449453949928284, -0.08780089020729065, -0.65688157081604, -0.007539981976151466, -0.5311334133148193, 0.0527832992374897], [0.011424521915614605, 0.06123839318752289, -6.550634134327993e-05, -0.0355481281876564, -0.08966737240552902, -0.06194780766963959, -0.048341166228055954, 0.07137806713581085, 0.0691378116607666, -0.03428827226161957, 0.02465304546058178, -0.0063316794112324715, -0.015821019187569618, -0.140719935297966, -0.1741493195295334, -0.16488690674304962, -0.16001856327056885, -0.026142310351133347, -0.04597499221563339, 0.0037283399142324924, -0.023760167881846428, -0.040240973234176636, -0.0315786637365818, -0.15810514986515045, -0.0014080599648877978, -0.039051152765750885, -0.04278071969747543, -0.0652446299791336, 0.014578940346837044, 0.0520622581243515, -0.09692947566509247, -0.04201053828001022, -0.10580506920814514, -0.09982851892709732, -0.12617899477481842, -0.1839347928762436, -0.09787819534540176, -0.09667191654443741, -0.09901894629001617, 0.0055193123407661915, -0.09489515423774719, -0.0849178209900856, -0.08932694047689438, -0.19003896415233612, -0.16329455375671387, -0.16272301971912384, -0.008928199298679829, 0.008769413456320763, -0.10316045582294464, -0.1827356219291687, -0.03965651988983154, 0.18129290640354156, -0.17666909098625183, -0.0209299735724926, -0.1864602267742157, 0.021036183461546898, -0.2922655940055847, -0.22525820136070251, 0.01600012183189392, -0.1817372441291809, -0.06303122639656067, 0.01181849930435419, -0.11802799999713898, -0.08222738653421402, -0.09110081940889359, 0.0459611602127552, -0.18473240733146667, -0.12623165547847748, 0.010676677338778973, -0.013196099549531937, -0.0846870020031929, -0.08610101789236069, 0.027029884979128838, -0.03821346163749695, -0.09690243005752563, 0.0758088007569313, -0.10739859938621521, -0.17513425648212433, 0.0626642033457756, 0.027744945138692856, 0.06097698584198952, 0.05867244303226471, 0.03401998057961464, -0.009314358234405518, -0.46782535314559937, -0.17017267644405365, -0.1413925439119339, 0.008742344565689564, -0.08278120309114456, 0.0060819825157523155, 0.010502736084163189, 0.08075995743274689, 0.10610432922840118, 0.10498491674661636, -0.14663510024547577, 0.015642652288079262, 0.028888393193483353, -0.196044921875, -0.034921444952487946, -0.0548362098634243, -0.0454527772963047, 0.05809265002608299, -0.062468595802783966, 0.044629860669374466, -0.02965068258345127, -0.0030526285991072655, -0.0364922434091568, -0.1584099978208542, -0.11702631413936615, -0.05384043604135513, -0.03558424860239029, -0.012564840726554394, -0.053065478801727295, 0.07139478623867035, -0.09592503309249878, 0.09696108102798462, -0.1251576542854309, 0.020305320620536804, 0.03174064680933952, 0.08979462832212448, 0.017807086929678917, -0.039983805269002914, 0.0012072210665792227, -0.03553599864244461, 0.011796395294368267, 0.03786992281675339, 0.031899601221084595, -0.020694872364401817, 0.014596025459468365, -0.06521065533161163, 0.05174452066421509, 0.010856406763195992, 0.013934195972979069, -0.06170471012592316, 0.0483955480158329, -0.017563000321388245, -0.01188366673886776, 0.01724579930305481, -0.05455154925584793, -0.07941114902496338, -0.10746249556541443, -0.08959629386663437, -0.0685163289308548, -0.007670859806239605, 0.017482969909906387, 0.08342359960079193, -0.004398250952363014, 0.00037868641084060073, 0.025204068049788475, 0.02230985276401043, -0.07251103222370148, -0.13742703199386597, 0.10459429025650024, -0.07737528532743454, -0.007207516115158796, 0.04209771752357483, -0.06922201812267303, 0.019052473828196526, -0.0319744348526001, -0.060233816504478455, -0.09356675297021866, 0.0008668055525049567, -0.006264762952923775, -0.04618513211607933, 0.09803591668605804, 0.058833956718444824, -0.04038256034255028, -0.040396105498075485, -0.14876392483711243, 0.09161165356636047, -0.08390145003795624, -0.004433699883520603, 0.05798353999853134, 0.005431052763015032, 0.010690837167203426, -0.04172813892364502, -0.036247190088033676, 0.13302449882030487, -0.1041969358921051, -0.07660228759050369, -0.11671295762062073, -0.007639268413186073, -0.0419502928853035, -0.05076119676232338, -0.002805795054882765, 0.023239431902766228, 0.030882010236382484, 0.04726073145866394, 0.03913814201951027, 0.044162530452013016, 0.004325004760175943, 0.12240621447563171, -0.09120206534862518, 0.004535099491477013, 0.025897316634655, 0.09311807155609131, 0.005709873046725988, -0.12062623351812363, 0.006532107014209032, -0.07027848064899445, -0.0882844626903534, -0.06441973149776459, -0.019196320325136185, -0.04145902022719383, -0.025859177112579346, 0.032987721264362335, -0.03340717777609825, 0.019138285890221596, 0.7646157145500183, -0.051671091467142105, 0.07388760894536972, 0.15493419766426086, 0.005369774531573057, 1.4323490858078003, -0.007684539537876844], [-0.050605107098817825, 0.028591714799404144, -0.09277515113353729, 0.022360490635037422, -0.14930923283100128, -0.04741724953055382, -6.69409055262804e-05, 0.02809511125087738, 0.010513847693800926, 0.042969051748514175, 0.03443381190299988, -0.044956814497709274, 0.0615575797855854, -0.10630884021520615, -0.1203027293086052, -0.18971912562847137, -0.09938039630651474, 0.01274835504591465, 0.049565501511096954, -0.02983778715133667, -0.022544894367456436, 0.001788324094377458, -0.022861698642373085, -0.16635192930698395, -0.1614486575126648, -0.02754431590437889, -0.009600881487131119, 0.04345529153943062, 0.05096244812011719, 0.11380178481340408, -0.049377407878637314, 0.03458332642912865, 0.03274280205368996, -0.16247983276844025, -8.384260581806302e-05, -0.10687938332557678, -0.11543472856283188, 0.045623309910297394, -0.028343629091978073, 0.02222049981355667, 0.037011463195085526, -0.07281587272882462, 0.06955576688051224, -0.03427073732018471, -0.12598390877246857, -0.23795539140701294, -0.0941053181886673, -0.1878274828195572, -0.015453783795237541, 0.12363382428884506, -0.2687557637691498, -0.15963248908519745, 0.019167957827448845, -0.023962995037436485, -0.024211250245571136, -0.08805332332849503, 0.13328947126865387, -0.12173169106245041, -0.031000543385744095, -0.018729159608483315, 0.10123012214899063, 0.08626211434602737, -0.1070338785648346, -0.11341413110494614, -0.1274828016757965, -0.11769254505634308, 0.10709165036678314, -0.15075203776359558, -0.0608978271484375, -0.01891225017607212, -0.0008025537244975567, 0.09511704742908478, 0.04596267640590668, 0.18503977358341217, -0.016882160678505898, -0.29202720522880554, -0.029240887612104416, 0.0765639916062355, -0.0581740066409111, 0.03230908885598183, -0.048952534794807434, -0.07793693244457245, -0.02519878000020981, 0.22599120438098907, 0.07833736389875412, -0.27867841720581055, 0.13346639275550842, 0.04788454994559288, -0.023056350648403168, -0.013854741118848324, -0.056874580681324005, -0.0596325658261776, -0.05853928625583649, -0.02992742508649826, 0.11870486289262772, -0.14679929614067078, 0.009034698829054832, 0.1056986153125763, 0.031432341784238815, 0.04821063578128815, 0.043309491127729416, 0.09827794134616852, -0.07568640261888504, 0.0964537039399147, 0.03708752244710922, -0.07830405235290527, 0.06928396224975586, -0.04661620035767555, -0.047594595700502396, -0.03351695463061333, 0.0003931918472517282, -0.08910272270441055, -0.02488492801785469, -0.02285917103290558, -0.02341693453490734, -0.03822211176156998, -0.08811742812395096, 0.013339446857571602, 0.14853231608867645, 0.15277770161628723, 0.0727107897400856, 0.028127186000347137, -0.013504788279533386, -0.1132388487458229, -0.07151426374912262, -0.054817501455545425, 0.0279164407402277, 0.02734997496008873, -0.16723182797431946, -0.12347271293401718, 0.0027205052319914103, -0.05680686607956886, 0.10216716676950455, 0.07549837976694107, 0.037382256239652634, 0.04135197773575783, -0.05009784176945686, -0.19163177907466888, -0.03657430410385132, -0.06213574483990669, -0.04486532136797905, 0.006108288653194904, 0.10423094034194946, -0.03076179139316082, -0.005885594058781862, -0.00897614099085331, -0.10719547420740128, -0.00293812807649374, -0.015338082797825336, 0.017329709604382515, -0.06348040699958801, 0.08067436516284943, 0.10946839302778244, -0.04696795716881752, 0.0331912599503994, 0.0012225265381857753, 0.008313433267176151, -0.018419358879327774, 0.017285535112023354, -0.02310371771454811, 0.06848397105932236, 0.029414046555757523, 0.0910581722855568, -0.07647836953401566, -0.08676370978355408, -0.08683641999959946, -0.07457764446735382, 0.07965445518493652, -0.0065750922076404095, 0.09763123095035553, -0.01791572757065296, -0.117479108273983, -0.007020193617790937, 0.06795518100261688, 0.05989314615726471, -0.018436521291732788, 0.018418435007333755, 0.08913569152355194, 0.017372051253914833, -0.013216804713010788, 0.03534216806292534, -0.02413005754351616, 0.014230035245418549, 0.06320692598819733, 0.024440908804535866, -0.07747775316238403, -0.030085010454058647, 0.08221464604139328, -0.011548180133104324, 0.005582722369581461, 0.08683174848556519, 0.06480101495981216, 0.016012949869036674, 0.048643823713064194, -0.08869260549545288, 0.0908583551645279, 0.07179553806781769, -0.1484774351119995, 0.012521219439804554, -0.10469456762075424, -0.06403304636478424, 0.024504145607352257, -0.07994164526462555, -0.06654854863882065, 0.00355106545612216, -0.022392569109797478, 0.013389336876571178, -0.07388801872730255, 0.36806708574295044, -0.035673268139362335, 0.05387444421648979, 0.24395526945590973, 0.006451060064136982, 0.6016436219215393, -0.005170365329831839], [0.0028398046270012856, -0.006454730872064829, -0.08135692775249481, -0.024093661457300186, -0.06323476135730743, -0.049215056002140045, -0.017231935635209084, -0.020588278770446777, -0.14628319442272186, -0.09110081940889359, 0.018568038940429688, 0.045118290930986404, 0.0013544774847105145, -0.20843684673309326, -0.1837802231311798, -0.09311744570732117, -0.15506911277770996, 0.009526285342872143, 0.023354794830083847, -0.029753316193819046, -0.04069314897060394, -0.09493964910507202, 0.07086833566427231, -0.18688875436782837, -0.16914422810077667, -0.19028447568416595, -0.026519091799855232, 0.011675083078444004, 0.16764266788959503, 0.16993486881256104, -0.02383229322731495, 0.12410741299390793, 0.09800485521554947, -0.2428249716758728, -0.11302828788757324, -0.07436976581811905, -0.03891698271036148, 0.10980398207902908, 0.041982121765613556, 0.28310245275497437, 0.1807100772857666, 0.10336672514677048, 0.009167286567389965, -0.10133038461208344, -0.2358192354440689, -0.0559069998562336, -0.09380997717380524, -0.04097513481974602, 0.0024239998310804367, 0.2434324473142624, 0.16484004259109497, 0.02090243622660637, -0.026381775736808777, -0.19090969860553741, 0.009916531853377819, 0.0052192918956279755, -0.034540463238954544, 0.06045946106314659, 0.021222373470664024, 0.17385974526405334, 0.18381431698799133, -0.08283323794603348, 0.014337056316435337, 0.15816208720207214, 0.15232504904270172, 0.10733401775360107, 0.09355030208826065, 0.09438138455152512, 0.14734050631523132, 0.16234232485294342, -0.07130333036184311, -0.03956877812743187, 0.15260197222232819, 0.09875116497278214, -0.003270036308094859, 0.11804980039596558, 0.179959237575531, 0.02589515410363674, 0.21663594245910645, 0.16147659718990326, -0.030353644862771034, -0.08141690492630005, 0.27040934562683105, 0.14327643811702728, 0.17708100378513336, 0.0242964755743742, 0.028287317603826523, 0.16528970003128052, 0.04088416323065758, 0.1252390295267105, 0.023014888167381287, -0.056046269834041595, 0.001149258459918201, 0.026959547773003578, 0.08690740913152695, 0.10499563068151474, 0.06346264481544495, 0.056481633335351944, -0.029177721589803696, -0.005718536674976349, -0.09939590841531754, -0.10047519207000732, 0.060497112572193146, 0.160531148314476, 0.08014173060655594, 6.1904261201561894e-06, -0.023598600178956985, 0.13683143258094788, 0.18657712638378143, 0.005569713655859232, -0.009028302505612373, -0.16571566462516785, -0.1538475900888443, 0.05491134524345398, 0.01481576357036829, 0.035672638565301895, -0.10505411028862, -0.01843416318297386, -0.087363101541996, -0.015679674223065376, -0.13688141107559204, -0.3047995865345001, -0.11640646308660507, -0.042414914816617966, -0.08242342621088028, -0.06580231338739395, -0.0469852089881897, -0.08393563330173492, -0.045200154185295105, -0.13123610615730286, 0.0596909336745739, -0.09250620007514954, 0.004661189392209053, 0.15660543739795685, 0.07157104462385178, 0.0717257633805275, 0.0080180699005723, 0.1050548329949379, 0.018263787031173706, -0.16513897478580475, 0.012314044870436192, -0.028509724885225296, 0.06559427827596664, -0.014922019094228745, 0.052872221916913986, 0.05965857580304146, 0.09111665189266205, -0.060564614832401276, 0.04573306813836098, -0.08850833028554916, 0.027315499261021614, -0.006976883392781019, 0.02400575764477253, -0.014294403605163097, 0.037311941385269165, -0.015208381228148937, -0.025077950209379196, 0.07168462872505188, -0.02242368459701538, -0.12285348027944565, 0.03812168538570404, -0.012175185605883598, -0.07905677706003189, 0.037507783621549606, -0.08644188195466995, -0.07079227268695831, -0.055485304445028305, 0.08644099533557892, -0.05893724039196968, -0.020531821995973587, 0.04779854044318199, 0.04390007629990578, -0.04044920578598976, 0.038898881524801254, 0.005903224926441908, -0.028209496289491653, 0.005787699017673731, -0.01198610756546259, 0.037445276975631714, -0.0023270323872566223, -0.02749362774193287, -0.00015683464880567044, -0.0742730051279068, 0.018163803964853287, 0.016029389575123787, 0.06879321485757828, -0.012125152163207531, 0.07177742570638657, -0.0172813031822443, 0.10624535381793976, 0.17061951756477356, -0.0039247483946383, -0.051188282668590546, -0.08764618635177612, -0.0012970509706065059, 0.07319880276918411, 0.018648622557520866, 0.08707263320684433, 0.01903543435037136, 0.07760967314243317, 0.1901436448097229, 0.10483188182115555, 0.20689870417118073, 0.05314129590988159, 0.11092358082532883, 0.18722841143608093, 0.05763740465044975, 0.23646855354309082, -0.2289629578590393, 0.0808437392115593, 0.0020328466780483723, -0.13926412165164948, 0.010353116318583488, 0.22185714542865753, 0.012945141643285751], [0.0032809742260724306, 0.03559950739145279, 0.020157603546977043, -0.059135571122169495, -0.10864067822694778, -0.18118789792060852, -0.08170919120311737, -0.06254822015762329, 0.02948683314025402, 0.027369553223252296, -0.03277350589632988, 0.04576410353183746, 0.05024116113781929, -0.24684160947799683, -0.2164449691772461, -0.5002157688140869, 0.08002515882253647, 0.08463290333747864, 0.01594913937151432, -0.050391629338264465, -0.0083948178216815, -0.05484895035624504, -0.14315953850746155, -0.15989995002746582, -0.1619984656572342, -0.2865354120731354, -0.006443633232265711, 0.031885776668787, -0.14221790432929993, -0.033795733004808426, -0.02579296939074993, -0.05723492056131363, -0.27686381340026855, -0.21137629449367523, -0.22205866873264313, -0.27648642659187317, -0.008748423308134079, 0.07981787621974945, -0.11877511441707611, -0.06929408013820648, 0.03461163491010666, 0.07566168904304504, -0.1888345330953598, 0.035631921142339706, -0.1444532722234726, -0.1529339998960495, -0.03125809133052826, -0.04271963983774185, -0.07070103287696838, -0.20478768646717072, 0.025990871712565422, 0.16005831956863403, -0.10510415583848953, -0.20860005915164948, 0.037042926996946335, 0.0414481982588768, 0.05021500959992409, 0.0352700799703598, 0.07894128561019897, -0.17605885863304138, 0.008426669053733349, -0.06315261125564575, -0.14038680493831635, -0.11180081963539124, -0.046466391533613205, 0.08185456693172455, 0.17074209451675415, -0.046516891568899155, 0.08175922930240631, -0.031563740223646164, 0.058576542884111404, -0.06900473684072495, -0.0011942933779209852, -0.15376366674900055, 0.11756738275289536, 0.18029697239398956, -0.09510038048028946, 0.06726782023906708, 0.02347150444984436, 0.0077265226282179356, -0.01635194569826126, -0.10659699141979218, -0.08129610121250153, -0.017182407900691032, 0.051963336765766144, 0.03389003127813339, 0.062248826026916504, 0.014748824760317802, 0.01114394050091505, 0.012999605387449265, -0.10102645307779312, 0.08518616855144501, 0.018536124378442764, 0.08229737728834152, -0.023900143802165985, 0.028727266937494278, 0.08002699911594391, -0.0007220457191579044, 0.039077278226614, 0.010720104910433292, -0.02333957515656948, 0.01277332752943039, 0.0880134105682373, -0.025993477553129196, -0.006582432892173529, -0.013471112586557865, -0.030593711882829666, -0.03333454206585884, -0.052111003547906876, -0.009947577491402626, 0.03424510732293129, -0.03185317665338516, 0.005418159533292055, 0.03803722560405731, -0.05075269192457199, -0.043416351079940796, -0.07459462434053421, 0.06421324610710144, -0.06721842288970947, 0.18678753077983856, 0.06384647637605667, -0.039103198796510696, -0.018625764176249504, 0.0026846283581107855, 0.043020099401474, 0.029497919604182243, -0.0426667146384716, 0.019839446991682053, -0.02768428809940815, 0.010781313292682171, 0.01816250942647457, -0.030164632946252823, 0.0625821128487587, 0.0065813190303742886, 0.061547089368104935, 0.02317563071846962, -0.054711081087589264, 0.033539410680532455, 0.04873010516166687, -0.0822235643863678, 0.05101786553859711, 0.10239572823047638, -0.024597041308879852, -0.09869299829006195, 0.1125316247344017, 0.023013953119516373, 0.012261184863746166, -0.04787541925907135, 0.11968039721250534, -0.0010438530007377267, -0.012367944233119488, -0.05437963083386421, 0.09316854178905487, -0.0334341861307621, 0.03973573073744774, 0.010516132228076458, 0.14122389256954193, -0.06586950272321701, 0.02507505752146244, 0.06551381200551987, 0.025130365043878555, 0.04443248361349106, -0.0034049591049551964, -0.09722258150577545, 0.03557388857007027, 0.07975056767463684, 0.0732879787683487, 0.011362165212631226, -0.00533559825271368, -0.0310230553150177, 0.026440447196364403, 0.019333183765411377, 0.06950177997350693, 0.025222977623343468, -0.022997528314590454, 0.02740653045475483, 0.12872564792633057, -0.056997306644916534, -0.012674333527684212, -0.028487812727689743, -0.06351132690906525, -0.0015056965639814734, -0.05579996109008789, 0.003746218280866742, -0.01342217531055212, -0.062476374208927155, 0.04615519195795059, 0.057477787137031555, 0.009990316815674305, -0.09891511499881744, -0.1280694603919983, -0.006165077444165945, 0.0018665827810764313, -0.017320452257990837, -0.03685254976153374, -0.027423547580838203, -0.09812374413013458, 0.008203189820051193, -0.09830489754676819, 0.035780634731054306, -0.020845258608460426, -0.12260354310274124, -0.015819137915968895, -0.022495035082101822, -0.05882607400417328, 0.01728062331676483, -0.09067872166633606, 0.027494283393025398, 1.0893745422363281, -0.017442720010876656, 0.12110339105129242, 0.002888887654989958, -0.004548758268356323, 0.6479782462120056, -0.0004906704998575151], [0.014649426564574242, -0.020256878808140755, -0.0808931514620781, -0.1431826800107956, -0.20898742973804474, -0.08215399831533432, -0.04168291389942169, 0.030228614807128906, -0.029990218579769135, 0.045396044850349426, -0.0753806084394455, -0.04980302229523659, -0.11626126617193222, 0.0020006599370390177, -0.3633318543434143, -0.0984906330704689, -0.10321667790412903, -0.014662164263427258, -0.06631896644830704, 0.008655953221023083, -0.04365596920251846, 0.0352766290307045, -0.05392717197537422, -0.14608970284461975, -0.32028210163116455, -0.26328957080841064, -0.10231488198041916, -0.00834600068628788, -0.11458021402359009, -0.02426929585635662, -0.07601652294397354, -0.014866610057651997, -0.042433977127075195, -0.13094398379325867, -0.22649723291397095, -0.39469113945961, -0.20490476489067078, -0.13187506794929504, -0.00663912296295166, -0.040326546877622604, -0.06307003647089005, -0.026620633900165558, -0.18496142327785492, -0.12762568891048431, -0.2624213695526123, -0.2981607913970947, -0.1751733422279358, -0.057848989963531494, 0.02408679947257042, -0.051430169492959976, 0.039675284177064896, 0.0570833757519722, -0.09464172273874283, -0.16708770394325256, -0.1659136414527893, -0.20923933386802673, -0.18703331053256989, -0.07283808290958405, -0.006487059406936169, 0.007795237936079502, 0.02614840678870678, 0.03787262365221977, -0.21369969844818115, -0.24571123719215393, 0.0011119614355266094, -0.1235981360077858, -0.06517098098993301, -0.006113532930612564, 0.01749221421778202, -0.0009702378883957863, -0.00042798000504262745, -0.026844743639230728, -0.1308109611272812, -0.0956834927201271, 0.03603353723883629, -0.04048570990562439, 0.04128832742571831, -0.02351267635822296, 0.012687996961176395, -0.04593801125884056, -0.02083433046936989, 0.035839349031448364, -0.07728086411952972, -0.0009206625400111079, 0.037202343344688416, -0.061820097267627716, -0.07676822692155838, -0.011600199155509472, 0.07843321561813354, -0.007862434722483158, 0.09377066791057587, -0.03889165818691254, -0.01080352533608675, -0.043234825134277344, 0.006243434268981218, -0.04418591782450676, 0.015340560115873814, -0.04562284052371979, 0.05741598457098007, 0.06566759198904037, 0.013670277781784534, 0.019770754501223564, -0.004121470730751753, 0.017070287838578224, 0.0740293487906456, -0.014438767917454243, 0.07235755026340485, -0.0038694737013429403, -0.04107427969574928, -0.009981571696698666, -0.03378370404243469, -0.016231408342719078, 0.10966703295707703, 0.054279591888189316, 0.05963818356394768, -0.016442719846963882, -0.03690990433096886, 0.007709916681051254, 0.09244734048843384, 0.18459364771842957, 0.022771209478378296, 0.10807130485773087, 0.1333591192960739, 0.13450314104557037, 0.04450691118836403, 0.0632225051522255, -0.044233761727809906, 0.03457505255937576, 0.05686653405427933, 0.07719244807958603, 0.10881748795509338, 0.07795535027980804, 0.1780625730752945, 0.08142389357089996, 0.07073913514614105, 0.1122574508190155, 0.06014512479305267, 0.08267661184072495, 0.043920546770095825, 0.05092509090900421, -0.002261818153783679, 0.06777434796094894, 0.11683071404695511, 0.05839992314577103, 0.03107752650976181, 0.03831598535180092, 0.061970192939043045, 0.06701865792274475, 0.06566056609153748, 0.03348622843623161, 0.031283751130104065, 0.07748401910066605, 0.13660484552383423, 0.05337926745414734, 0.07779300212860107, 0.02312588132917881, 0.04438066482543945, -0.021166205406188965, 0.06565802544355392, 0.0548560656607151, -0.041235268115997314, 0.014023280702531338, 0.04556206241250038, 0.06423657387495041, -0.009546195156872272, 0.04050649702548981, 0.07042913883924484, -0.0022503298241645098, 0.021968360990285873, 0.01074881013482809, 0.06277048587799072, 0.02609088085591793, 0.13771812617778778, 0.057984571903944016, 0.08457952737808228, 0.05778803676366806, 0.03610287606716156, 0.06972737610340118, 0.021810201928019524, 0.0026647462509572506, 0.011173494160175323, 0.06652308255434036, 0.0689619705080986, 0.09579548984766006, -0.01424818579107523, 0.03907918557524681, -0.028275536373257637, -0.02783973328769207, -0.01850673370063305, -0.016916608437895775, -0.05567555129528046, 0.00428485032171011, -0.013831129297614098, -0.06571322679519653, -0.07752242684364319, -0.009397802874445915, 0.00017454943736083806, -0.01615065336227417, -0.030356228351593018, -0.008878478780388832, 0.1312664896249771, 0.013704124838113785, 0.09769579023122787, 0.04848392680287361, 0.011111017316579819, -0.01160729955881834, -0.03558460995554924, 0.04859154298901558, -1.4553303718566895, -0.014287746511399746, -0.13774259388446808, -0.36621177196502686, 0.010473332367837429, -0.7014774084091187, 0.04616007208824158], [-0.022493159398436546, -0.0006614609155803919, 0.00408164132386446, -0.02497803047299385, -0.16003891825675964, 0.004311783239245415, -0.12175770103931427, -0.003382303286343813, -0.04179646447300911, 0.0033990000374615192, -0.04193057492375374, -0.023062728345394135, -0.029902707785367966, 0.12531766295433044, -0.005337974056601524, 0.026458891108632088, -0.03498217463493347, -0.020777195692062378, -0.060336507856845856, 0.01056560967117548, 0.005800593178719282, -0.037231188267469406, -0.03242579847574234, -0.0002308483381057158, -0.2375164031982422, 0.04227443039417267, -0.007996457628905773, -0.058861687779426575, -0.004961657803505659, 0.004472739528864622, -0.04151283577084541, -0.039431698620319366, 0.03100101463496685, -0.050823621451854706, -0.2000965029001236, -0.03664177656173706, 0.03208198398351669, -0.10049179196357727, -0.021488456055521965, -0.014277243986725807, 0.043414607644081116, -0.0743107944726944, -0.030807562172412872, -0.02704749070107937, -0.12437774986028671, -0.12294226139783859, -0.09171166270971298, -0.16189418733119965, -0.1198621466755867, -0.0524124912917614, -0.09351324290037155, -0.18118984997272491, -0.14425534009933472, -0.16430914402008057, 0.0637117549777031, -0.10234875977039337, -0.12214494496583939, -0.18207231163978577, -0.1965554654598236, -0.37021389603614807, -0.0849761813879013, -0.12249090522527695, -0.07357775419950485, -0.04096929728984833, -0.17930607497692108, 0.0015940406592562795, -0.09188612550497055, -0.20001797378063202, -0.17091773450374603, -0.16433119773864746, 0.006569822318851948, -0.09976998716592789, -0.15104125440120697, -0.06500816345214844, -0.2136119157075882, -0.0918470025062561, -0.18771448731422424, -0.00311864260584116, 0.016332728788256645, -0.01456630602478981, -0.1288502961397171, 0.23485547304153442, -0.025231357663869858, 0.07080966979265213, -0.0152629679068923, -0.007046964485198259, -0.32395997643470764, -0.058086179196834564, 0.09500271081924438, -0.04535462707281113, 0.02315760962665081, -0.00408953009173274, -0.07783960551023483, -0.23171260952949524, -0.003258185461163521, -0.2010307013988495, -0.140182226896286, -0.1447998583316803, 0.038243722170591354, -0.08660925924777985, -0.04181363806128502, -0.05835394561290741, -0.04654540866613388, 0.004483646247535944, 0.0684349536895752, 0.01862090453505516, -0.05401398986577988, -0.06994540989398956, -0.055533621460199356, 0.011545420624315739, -0.03073951043188572, -0.16842767596244812, 0.09193842113018036, 0.03536788374185562, -0.02294383943080902, -0.025707393884658813, 0.0196983702480793, -0.018804065883159637, -0.018702097237110138, -0.045145437121391296, -0.18272456526756287, -0.109402596950531, 0.025413796305656433, -0.01084422878921032, -0.03456621989607811, 0.001627883524633944, 0.016310513019561768, 0.014076527208089828, -0.014619916677474976, -0.03309891000390053, -0.14453251659870148, -0.1757228523492813, -0.09023025631904602, -0.007437262684106827, -0.02460661344230175, -0.07128646224737167, -0.012454814277589321, -0.010744165629148483, -0.05704239383339882, -0.07508204132318497, -0.11447983235120773, -0.094487264752388, 0.029632924124598503, 0.06040334701538086, 0.015174365602433681, 0.0013385573402047157, 0.0414728969335556, 0.011895757168531418, 0.030124954879283905, 0.005248688627034426, -0.10531718283891678, -0.117449089884758, -0.0009034993126988411, 0.017219457775354385, -0.04356871172785759, 0.0025437301956117153, -0.011410556733608246, 0.006999016273766756, -0.0065771713852882385, -0.04736868292093277, -0.0325065515935421, -0.006779617164283991, 0.007099556270986795, -0.03608481585979462, -0.034303560853004456, -0.031762365251779556, 0.01352635957300663, -0.04210814833641052, 0.03694998845458031, -0.049547940492630005, -0.015661373734474182, 0.0253670122474432, -0.016216488555073738, 0.022474274039268494, -0.03209633752703667, 0.002960087964311242, -0.0033170958049595356, -0.022949036210775375, 0.047429803758859634, -0.024352749809622765, -0.020212426781654358, 0.07443396747112274, 0.01566285453736782, 0.000902973348274827, 0.02899836376309395, 0.04549790173768997, 0.004217597655951977, 0.02632233127951622, 0.021372660994529724, 0.05755124241113663, 0.012625637464225292, -0.01364918239414692, 0.03012125752866268, 0.03593432158231735, 0.037814393639564514, 0.0502699613571167, 0.023098105564713478, 0.03332454711198807, 0.0333748534321785, 0.026427974924445152, 0.21235154569149017, 0.29194584488868713, 0.21761348843574524, 0.3397757411003113, 0.18872931599617004, 0.24580317735671997, 0.203737273812294, 0.3845045268535614, -0.49981003999710083, 0.08114496618509293, -0.0535137876868248, 0.26195859909057617, -0.006831929087638855, 0.7561246156692505, -0.024297185242176056], [0.0016725750174373388, -0.054432496428489685, -0.025980571284890175, -0.009488571435213089, -0.08264048397541046, -0.2777803838253021, 0.0005383322713896632, 0.06141393631696701, -0.006252075545489788, 0.004651600960642099, -0.0006608449621126056, -0.045730024576187134, -0.07657014578580856, -0.2057362049818039, -0.21940556168556213, -0.20112313330173492, 0.02837798185646534, 0.12796565890312195, -0.006800033152103424, 0.004080283921211958, 0.037425536662340164, -0.061486728489398956, -0.03821709007024765, -0.16702289879322052, -0.2112254947423935, -0.13954801857471466, -0.09056484699249268, 0.07153172791004181, -0.014784416183829308, 0.0724107101559639, 0.015542134642601013, -0.056767214089632034, -0.08274732530117035, -0.2357221394777298, -0.16601262986660004, -0.1287386268377304, -0.1121167242527008, 0.08388324081897736, 0.0045374720357358456, 0.0789121463894844, -0.05323656648397446, -0.125538170337677, -0.04689282178878784, -0.3370116353034973, -0.03036373108625412, -0.235284686088562, -0.10175264626741409, 0.09645020961761475, -0.021755894646048546, 0.0340580940246582, 0.06105737015604973, -0.1277201920747757, -0.08190656453371048, -0.329060435295105, -0.17021743953227997, -0.34112080931663513, 0.09559796750545502, 0.011667084880173206, -0.0601109117269516, -0.13369370996952057, -0.006302306894212961, -0.05079374089837074, 0.11008931696414948, -0.06832687556743622, 0.11260813474655151, -0.011861528269946575, 0.043108243495225906, -0.1145646795630455, -0.05966787785291672, -0.0403030589222908, -0.14693781733512878, -0.07250035554170609, 0.10805901139974594, -0.0799858421087265, 0.1762705296278, 0.1409628838300705, 0.2401498407125473, -0.02339589037001133, -0.3473884165287018, -0.2650914788246155, -0.14417621493339539, -0.2594078779220581, -0.010821536183357239, -0.2042127549648285, -0.12845779955387115, -0.11195921152830124, 0.00585699500516057, -0.08497469127178192, -0.024937618523836136, -0.1376355141401291, -0.1483888328075409, -0.15552832186222076, -0.09686895459890366, -0.13523352146148682, 0.0305086188018322, -0.10811201483011246, -0.1289740800857544, -0.31008219718933105, -0.10491064190864563, 0.11189407855272293, -0.1601828932762146, -0.09231998771429062, 0.039391275495290756, -0.29277998208999634, -0.15339958667755127, -0.06803762912750244, -0.13000443577766418, -0.28265535831451416, -0.299868643283844, -0.004086264409124851, -0.2689836919307709, -0.3751264810562134, -0.22373554110527039, -0.27674534916877747, -0.29789721965789795, -0.2993246614933014, -0.321043998003006, -0.41591548919677734, -0.3864710032939911, -0.10251165181398392, -0.00038581626722589135, -0.06222228705883026, -0.10571766644716263, -0.06548992544412613, 0.021163567900657654, 0.010411218740046024, 0.053452469408512115, -0.06636199355125427, -0.048163026571273804, -0.05901483818888664, 0.044832419604063034, -0.03496692702174187, -0.0665590688586235, 0.004005639813840389, -0.044339802116155624, -0.08157943189144135, -0.08447114378213882, -0.046656254678964615, -0.002867375500500202, -0.025947749614715576, -0.020444534718990326, -0.006271159742027521, -0.06319673359394073, -0.05796680226922035, -0.06580547988414764, -0.118780218064785, -0.07929039746522903, -0.07759478688240051, -0.006999722216278315, -0.04819813743233681, 0.03390650823712349, 0.055237576365470886, 0.052609529346227646, -0.012671486474573612, 0.04743397980928421, -0.04664015397429466, -0.014663171954452991, -0.01268662791699171, 0.04594964534044266, 0.13389132916927338, 0.01917899399995804, 0.07873798906803131, 0.010415202006697655, 0.08982190489768982, 0.050030577927827835, 0.04045668616890907, -0.04418458044528961, -0.017658863216638565, 0.059612929821014404, 0.0029790892731398344, 0.021266451105475426, 0.13087695837020874, 0.0023300861939787865, -0.046605926007032394, 0.012858795933425426, 0.04336732625961304, 0.013577038422226906, 0.0036417848896235228, 0.08751445263624191, 0.08728332817554474, -0.003056088462471962, 0.017918352037668228, 0.016820184886455536, -1.6068663171608932e-05, 0.09000752866268158, 0.027245964854955673, -0.0013086365070194006, -0.01938886195421219, 0.08369797468185425, 0.10700610280036926, 0.15163889527320862, 0.09883008897304535, 0.08037970215082169, 0.16523273289203644, 0.04165613278746605, 0.09831516444683075, 0.08655256032943726, 0.09161561727523804, 0.07434890419244766, 0.15357010066509247, 0.14830459654331207, 0.11826753616333008, 0.197037011384964, 0.023564917966723442, 0.23940347135066986, 0.274574339389801, 0.17844216525554657, 0.2004886418581009, -0.15488691627979279, 0.13820405304431915, 0.0056951940059661865, 0.11060455441474915, 0.0004061877843923867, 0.16389453411102295, 0.0019578824285417795], [0.05352509021759033, 0.04344744607806206, -0.0652673989534378, -0.06275270879268646, -0.08557020872831345, -0.206440731883049, -0.06515074521303177, -0.04797520115971565, -0.03067089058458805, -0.06213081628084183, -0.0813731998205185, 0.0014867252903059125, -0.10820356011390686, -0.46667933464050293, -0.022233355790376663, -0.23968364298343658, -0.17675288021564484, -0.2163158655166626, -0.013503015972673893, -0.07377225160598755, -0.14235518872737885, -0.03550774231553078, -0.12170292437076569, -0.1955578774213791, -0.3002776801586151, -0.15631510317325592, -0.14731211960315704, -0.08013592660427094, -0.012725133448839188, -0.06134853884577751, 0.017445553094148636, 0.048973459750413895, -0.04262841120362282, -0.017383264377713203, -0.2264183610677719, -0.13202965259552002, -0.04578055441379547, -0.0647227019071579, -0.0022485286463052034, -0.010712170042097569, 0.007815191522240639, -0.1284196525812149, -0.03641584515571594, -0.13970309495925903, -0.22066007554531097, -0.16756360232830048, -0.17201779782772064, -0.012900209054350853, 0.017297789454460144, 0.0022332589142024517, 0.07575660198926926, 0.02240266650915146, 0.018089376389980316, -0.06109397113323212, -0.12950830161571503, -0.09102832525968552, -0.027740173041820526, 0.04379572346806526, 0.07252680510282516, -0.026234732940793037, -0.056788865476846695, 0.019252922385931015, -0.01203487254679203, -0.028236601501703262, -0.05414138734340668, -0.03327460214495659, -0.023919977247714996, 0.018538743257522583, 0.08085301518440247, 0.08353599160909653, -0.07058820873498917, 0.004017334897071123, -0.002876865677535534, -0.013568087480962276, 0.07265409082174301, -0.03890274092555046, -0.006435140036046505, 0.04103865846991539, 0.042238637804985046, 0.07039192318916321, -9.673902241047472e-05, 0.027666805312037468, 0.008932908996939659, 0.018122397363185883, -0.018026944249868393, 0.05930188670754433, -0.029769791290163994, -0.02601507678627968, 0.007077367976307869, 0.17921124398708344, -0.02770485356450081, -0.01322086714208126, -0.04341208189725876, -0.039182137697935104, 0.0254958663135767, -0.08559867739677429, 0.03755917400121689, -0.07459376752376556, -0.022508133202791214, 0.06448215991258621, -0.016677355393767357, 0.008701781742274761, 0.030547039583325386, -0.01713685691356659, -0.005034329369664192, 0.060499157756567, -0.02210996299982071, -0.0750732496380806, -0.03721550479531288, 0.19758036732673645, 0.015595914795994759, -0.001799622317776084, -0.04874500259757042, 0.018795449286699295, -0.014968039467930794, -0.029065534472465515, 0.017018165439367294, -0.04802309349179268, -0.120284803211689, 0.25568410754203796, -0.011831577867269516, 0.008793685585260391, 0.02633018046617508, -0.012895647436380386, 0.0186441782861948, -0.011216654442250729, -0.00936613418161869, -0.05791259557008743, -0.13624568283557892, 0.24415910243988037, -0.009778582490980625, 0.010105878114700317, 0.004647576250135899, 0.0159811582416296, 0.014869626611471176, 0.0034868656657636166, -0.021251298487186432, -0.028003757819533348, -0.11051089316606522, 0.1917148232460022, -0.013913112692534924, 0.012277841567993164, -0.010971004143357277, -0.000560319924261421, -0.024638911709189415, 0.0002712263376452029, -0.013957249000668526, -0.017209554091095924, -0.06411564350128174, 0.1633489429950714, 0.010984078049659729, 0.009580272249877453, -0.00526813929900527, 0.003910047002136707, 0.017219191417098045, -0.028621595352888107, -0.011460625566542149, -0.024020927026867867, -0.07604546844959259, 0.13643518090248108, -0.034064240753650665, -0.010184184648096561, -0.016726771369576454, -0.006748773157596588, 0.00010239041148452088, -0.01469904650002718, -0.019146284088492393, 0.0025378393474966288, -0.06297963112592697, 0.13343632221221924, 0.003636167850345373, -0.004080904182046652, 0.006294083781540394, 4.0939215978141874e-05, 0.008777334354817867, -0.011469178833067417, -0.008564761839807034, -0.018408123403787613, -0.03823304548859596, 0.04956422373652458, -0.014961253851652145, -0.005813946016132832, -0.02212120033800602, -0.01963750272989273, -0.03325723111629486, -0.009623278863728046, -0.010008124634623528, 0.008161334320902824, -0.04642827436327934, 0.05650497227907181, 0.0033400694373995066, 0.018507080152630806, 0.0012158144963905215, -0.004238281399011612, 0.00899507012218237, 0.0007810632814653218, 0.02340226247906685, 0.018689757212996483, -0.012271738611161709, 0.015655970200896263, -0.047969039529561996, 0.38241395354270935, -0.09986842423677444, 0.05399002134799957, -0.10511510819196701, 0.3530687987804413, 0.18624994158744812, -0.02529921941459179, -1.2821766138076782, 0.06578195840120316, -0.1434658318758011, -0.37519896030426025, -0.008790954016149044, -1.4615994691848755, -0.0141393868252635], [-0.02657138556241989, 0.0010667763417586684, -0.13274113833904266, -0.1872999370098114, -0.14353613555431366, -0.20157495141029358, -0.1541673243045807, -0.046195682138204575, -0.055118728429079056, 0.012273766100406647, -0.03794098645448685, 0.04231655225157738, -0.07393455505371094, -0.25455811619758606, -0.4306949973106384, -0.42168310284614563, -0.27902477979660034, -0.05987522006034851, -0.13683606684207916, -0.007558409124612808, -0.03992217034101486, 0.007460198365151882, -0.05565173178911209, -0.12366722524166107, -0.3168290853500366, -0.34550660848617554, -0.1834954172372818, -0.0522133931517601, -0.005831229500472546, -0.03403184935450554, 0.06777544319629669, 0.08161262422800064, -0.09620488435029984, -0.06550178676843643, -0.07530849426984787, -0.2517118453979492, -0.13998615741729736, -0.017245525494217873, -0.015245974063873291, 0.001935253501869738, 0.13384896516799927, -0.04494699835777283, 0.02355557307600975, -0.002293985104188323, -0.0546223409473896, -0.13471274077892303, 0.022642437368631363, -0.19693046808242798, -0.13218726217746735, 0.031927064061164856, -0.00033928637276403606, -0.09543271362781525, 0.08381739258766174, 0.0576481968164444, 0.04801858216524124, 0.04018498212099075, 0.1723499298095703, -0.07074560970067978, 0.06212791055440903, -0.10646652430295944, 0.12314968556165695, -0.008658494800329208, -0.06900017708539963, 0.04423750564455986, 0.05871019884943962, 0.13353168964385986, 0.18848878145217896, 0.06348904222249985, 0.11489066481590271, 0.12398228049278259, 0.12531456351280212, -0.15959002077579498, 0.03336147591471672, 0.003210195107385516, -0.07971028238534927, 0.23605942726135254, 0.24939896166324615, 0.030791670083999634, 0.14230743050575256, 0.010345321148633957, -0.02385500632226467, 0.008151213638484478, 0.07492667436599731, 0.16199235618114471, -0.02417861297726631, 0.12874700129032135, 0.08113144338130951, 0.131618469953537, 0.151322141289711, 0.1667717546224594, 0.031085100024938583, 0.07349064201116562, 0.13703078031539917, 0.09126360714435577, 0.07635360956192017, 0.22662195563316345, 0.2792634963989258, -0.08213065564632416, 0.15453381836414337, 0.06765957921743393, -0.14551715552806854, -0.053569894284009933, -0.008814060129225254, -0.004986886400729418, -0.020169800147414207, 0.09798194468021393, 0.07430517673492432, 0.04726210609078407, 0.03611009940505028, 0.0524466298520565, -0.13717900216579437, -0.16705107688903809, 0.025848722085356712, 0.0017978062387555838, -0.0389496274292469, 0.02202562615275383, 0.07568086683750153, -0.008760363794863224, -0.06950164586305618, 0.09014593809843063, -0.14700721204280853, -0.2531178891658783, -0.09266349673271179, -0.24750344455242157, -0.2029399871826172, -0.05455407127737999, -0.009824891574680805, -0.035078100860118866, -0.12367397546768188, -0.006684882566332817, -0.03915674611926079, -0.09751597791910172, -0.004637702368199825, -0.013294326141476631, 0.05302134528756142, 0.059691764414310455, 0.037177134305238724, -0.02060161717236042, -0.05958344414830208, -0.017088068649172783, 0.01786850579082966, 0.02009386569261551, 0.025427861139178276, 0.03207888826727867, -0.06574241071939468, 0.16993126273155212, 0.20604431629180908, 0.07859957963228226, -0.12167995423078537, -0.0030644608195871115, 0.03447199612855911, 0.04054274037480354, -0.0399576835334301, 0.0445978082716465, 0.036758214235305786, -0.06759387999773026, 0.1229337751865387, 0.07576039433479309, 0.015044384635984898, -0.13949765264987946, 0.06869260221719742, 0.009424576535820961, 0.036340922117233276, 0.012847761623561382, -0.032735105603933334, 0.009339430369436741, 0.0018119002925232053, 0.05535026267170906, -0.06476854532957077, -0.14948813617229462, 0.08166944235563278, -0.003969240002334118, 0.048729024827480316, -0.016028808429837227, 0.03668922930955887, 0.06598377972841263, 0.04908137395977974, 0.06061927229166031, -0.03336624801158905, -0.053850702941417694, -0.013508640229701996, 0.009898914955556393, -0.007568060420453548, -0.08765945583581924, 0.12898048758506775, 0.005011359229683876, -0.0424206517636776, 0.15932738780975342, -0.013711060397326946, 0.038748931139707565, 0.0524456650018692, 0.10518036037683487, 0.033144913613796234, -0.005283258855342865, 0.031222566962242126, 0.04927120730280876, 0.10262955725193024, 0.011302138678729534, 0.0528520867228508, 0.06335295736789703, 0.1939094066619873, 0.0377068854868412, 0.00951835885643959, 0.25012749433517456, 0.057822100818157196, 0.008777356706559658, 0.09689109772443771, -0.6892722249031067, -0.4549753665924072, 0.13004250824451447, -0.014112957753241062, -0.01109298039227724, 0.005779774859547615, -0.15227265655994415, 0.006434949114918709], [0.006145363207906485, -0.05250953510403633, 0.11309907585382462, 0.0763012021780014, -0.18786345422267914, -0.08463701605796814, 0.008663268759846687, -0.1617114543914795, -0.0224703811109066, 0.007627619430422783, -0.017695914953947067, -0.11869076639413834, -0.06589808315038681, -0.0015291098970919847, -0.13420285284519196, -0.22126562893390656, 0.0012610418489202857, -0.07731619477272034, -0.09310737997293472, -0.06229541078209877, -0.027329422533512115, 0.0014660601736977696, 0.0017384531674906611, -0.1509743481874466, -0.22217637300491333, -0.20594659447669983, -0.20659638941287994, -0.0740506574511528, 0.04486367478966713, -0.018824594095349312, -0.0059554376639425755, -0.037431132048368454, -0.1568506360054016, -0.14114563167095184, -0.16317254304885864, -0.2336702048778534, -0.08949316293001175, -0.028764335438609123, 0.03674701601266861, -0.031552206724882126, -0.017544930800795555, 0.03424903750419617, -0.0042397379875183105, -0.07935822755098343, -0.2310117483139038, -0.16554377973079681, -0.08340506255626678, -0.004163067787885666, -0.04942997545003891, -0.0042908950708806515, -0.05916832759976387, -0.005913622677326202, 0.04182432219386101, 0.07175929099321365, -0.09377917647361755, 0.01038381364196539, 0.00895661860704422, -0.03688383847475052, 0.012089358642697334, 0.05718356743454933, 0.05654440075159073, -0.04652730002999306, -0.031142545863986015, 0.056525930762290955, -0.16356836259365082, -0.0412842258810997, 0.041911471635103226, 0.04201095923781395, 0.03374016657471657, 0.055958181619644165, 0.1722298264503479, 0.008219743147492409, 0.04239341989159584, 0.047716639935970306, 0.001714249374344945, -0.12528130412101746, -0.017173564061522484, 0.0006905485643073916, 0.07801862806081772, 0.014467976056039333, 0.11867012083530426, 0.02450319565832615, 0.11325158178806305, 0.10698005557060242, 0.011401736177504063, 0.17353785037994385, 0.11622767150402069, 0.06578709930181503, 0.0376010537147522, -0.039317935705184937, -0.09265728294849396, 0.08049820363521576, 0.16748926043510437, 0.1531483680009842, 0.11327584832906723, 0.06717520952224731, 0.09926452487707138, 0.09937185794115067, 0.09218542277812958, -0.016765080392360687, 0.00798915047198534, -0.012314178049564362, 0.14252227544784546, 0.13888320326805115, -0.09360048174858093, 0.09239565581083298, 0.059603944420814514, 0.0006634109886363149, 0.032390449196100235, -0.022105993703007698, -0.03658990561962128, 0.010824345983564854, -0.0021200389601290226, 0.09540979564189911, 0.07277744263410568, 0.01916459947824478, -0.011527114547789097, 0.02486184984445572, 0.011645473539829254, 0.051497720181941986, -0.0075150830671191216, -0.00956900604069233, -0.025810496881604195, -0.013279268518090248, 0.01751074753701687, 0.08206012845039368, -0.12558630108833313, -0.06320157647132874, 0.11453927308320999, -0.01394753810018301, 0.005723604466766119, 0.03663808852434158, 0.011008154600858688, -0.042859677225351334, -0.011308933608233929, 0.02381979301571846, -0.013313275761902332, -0.01790134608745575, 0.048467446118593216, 0.006999488454312086, 0.004242504481226206, 0.003580690361559391, -0.00952861551195383, 0.03160196170210838, 0.013039430603384972, 0.08592702448368073, -0.021343812346458435, 0.06659413129091263, 0.06730017066001892, 0.06955920159816742, -0.022715739905834198, 0.03298772871494293, -0.10313725471496582, 0.014729322865605354, 0.0006631131400354207, 0.026486312970519066, -0.03422677516937256, -0.03181188926100731, 0.10458069294691086, 0.015423913486301899, 0.012151312083005905, 0.018934067338705063, 0.04741181805729866, -0.002289591822773218, -0.01606670394539833, 0.003587877145037055, -0.030362118035554886, 0.04472785070538521, 0.01879291422665119, 0.07424710690975189, -0.013028743676841259, 0.003659449517726898, 0.0398830883204937, 0.05630681291222572, 0.048685017973184586, 0.01003791019320488, -0.007175508886575699, 0.007322252262383699, 0.005055238492786884, 0.028841599822044373, -0.010389190167188644, -0.041730739176273346, 0.00725122494623065, 0.03637475520372391, 0.03293342888355255, 0.029286378994584084, -0.01791774481534958, 0.0027202919591218233, 0.06109147518873215, -0.02381829358637333, -0.04283666983246803, 0.017149897292256355, 0.003919702488929033, -0.009732259437441826, 0.003752895165234804, 0.033385731279850006, 0.033454496413469315, 0.008382773958146572, 0.024449339136481285, -0.0002328851114725694, 0.339582234621048, 0.18657678365707397, 0.29461589455604553, 0.23751544952392578, 0.28401845693588257, 0.2066882848739624, 0.24196757376194, 0.24130801856517792, -0.8702515959739685, -0.0260724276304245, -0.056091174483299255, -0.24878594279289246, 0.010692177340388298, 0.12944428622722626, 0.01332633476704359], [0.0023845576215535402, -0.008283134549856186, -0.04664656147360802, -0.23120072484016418, -0.19593766331672668, -0.09370413422584534, 0.18671244382858276, -0.020344475284218788, -0.03148313984274864, -0.060778744518756866, 0.07596421241760254, 0.05384117737412453, -0.08502454310655594, -0.19199222326278687, -0.40471792221069336, -0.12770193815231323, 0.08303001523017883, 0.012691233307123184, -0.10054671764373779, -0.11242181062698364, -0.08709802478551865, 0.023007137700915337, -0.1106920838356018, 0.019133083522319794, -0.1428801268339157, -0.1508561670780182, -0.07518680393695831, -0.11576429009437561, 0.06883201003074646, -0.0574854277074337, -0.12523630261421204, 0.09244892001152039, -0.12870045006275177, 0.03494665026664734, 0.0013125702971592546, -0.05431349202990532, -0.010485800914466381, 0.04907521605491638, -0.14226597547531128, 0.016762861981987953, -0.1758863627910614, 0.2044753134250641, -0.13475027680397034, -0.03295933082699776, 0.13367702066898346, -0.035838983952999115, -0.014132412150502205, 0.02748413011431694, -0.12549139559268951, 0.12140687555074692, -0.1472068578004837, 0.08161203563213348, -0.1521184891462326, 0.2805978059768677, -0.06206441670656204, 0.0006440074648708105, -0.037992265075445175, -0.01232975721359253, -0.010699715465307236, 0.07432667165994644, -0.2283121645450592, -0.16523350775241852, -0.1122513860464096, -0.03243584930896759, -0.1454692929983139, 0.02118569053709507, -0.11368335038423538, 0.12494991719722748, 0.04639027640223503, 0.0797124058008194, 0.046278826892375946, 0.06627456098794937, 0.03231460228562355, 0.09337805211544037, -0.052471332252025604, -0.03585762530565262, -0.16799487173557281, 0.22557350993156433, -0.09751512110233307, 0.07369472831487656, 0.08454369008541107, -0.10935581475496292, -0.030538026243448257, 0.0853726789355278, -0.020069850608706474, -0.03394269943237305, -0.09352924674749374, 0.08584760129451752, -0.01041718665510416, 0.08299797773361206, -0.03852680325508118, 0.1283578872680664, -0.08471963554620743, 0.0757233053445816, -0.12401754409074783, 0.06474237143993378, -0.008869984187185764, 0.1007707342505455, -0.008929859846830368, 0.034972093999385834, -0.1897728145122528, 0.06746935844421387, 0.016703292727470398, 0.04382528364658356, 0.07304272055625916, 0.019289590418338776, 0.0668904036283493, 0.08060137182474136, -0.005629757884889841, -0.0035715815611183643, 0.03199533000588417, -0.038522373884916306, -0.014090599492192268, 0.012871215119957924, 0.048106566071510315, -0.01414327509701252, -0.08677154779434204, 0.08903186023235321, 0.003346669487655163, -0.014354360289871693, -0.02375059388577938, 0.07962930202484131, -0.01575673371553421, -0.15941573679447174, -0.0051621338352561, -0.03752801567316055, 0.07572022825479507, -0.008222758769989014, 0.13948768377304077, 0.07613502442836761, -0.014854966662824154, -0.035844042897224426, 0.012983678840100765, 0.021397320553660393, 0.02945692092180252, -0.06842836737632751, 0.12891820073127747, -0.023958371952176094, -0.061766158789396286, -0.039142537862062454, -0.07384362816810608, -0.020016249269247055, -0.10644770413637161, -0.05603215470910072, 0.09554700553417206, -0.08028852194547653, 0.06339705735445023, -0.06747443228960037, 0.039242085069417953, 0.030922332778573036, -0.034000933170318604, 0.03057136759161949, -0.111716628074646, 0.08327428996562958, 0.017362894490361214, 0.07508834451436996, -0.06772255152463913, 0.04988088458776474, -0.08849792182445526, 0.009746172465384007, -0.1041828915476799, 0.019974183291196823, -0.03467928245663643, -0.029895877465605736, 0.0028347570914775133, -0.09818582981824875, -0.030756907537579536, 0.05897972360253334, -0.0008479416137561202, -0.011523538269102573, 0.09139181673526764, -0.09451229870319366, 0.08951164036989212, 0.04686770960688591, 0.056990765035152435, 0.02217279002070427, -0.03722013160586357, -0.1272977888584137, -0.06859711557626724, 0.03760820999741554, 0.0015929159708321095, 0.004193251486867666, -0.036933884024620056, 0.027883244678378105, 0.0828997939825058, 0.04002167657017708, -0.08298904448747635, 0.008828485384583473, 0.04333896189928055, -0.03160134330391884, -0.02356596849858761, 0.027847204357385635, 0.005927644204348326, 0.012875013053417206, 0.006920548155903816, -0.02778930403292179, -0.04933388531208038, -0.005760956089943647, -0.026539193466305733, 0.043066322803497314, -0.023709172382950783, -0.08939474076032639, -0.04532909765839577, -0.03011315129697323, -0.03477923572063446, 0.03840622305870056, -0.06400957703590393, -0.017854517325758934, 1.4957860708236694, 0.03301997110247612, 0.17777618765830994, 0.007636378053575754, -0.005814209580421448, -0.06439326703548431, 0.007905865088105202], [0.032429154962301254, 0.034980468451976776, 0.026712235063314438, -0.0077647618018090725, -0.09540700167417526, -0.11309603601694107, 0.031973592936992645, 0.00763965118676424, -0.009806484915316105, -0.0014717952581122518, -0.001333328546024859, -0.010205971077084541, 0.0002486216544639319, -0.025012094527482986, -0.08568859100341797, -0.09098208695650101, 0.05246531218290329, 0.060449205338954926, 0.005742752458900213, -0.006614577025175095, -0.005359538830816746, 0.0063762660138309, -0.030237717553973198, -0.011593683622777462, -0.011081462725996971, -0.01839573308825493, 0.04503396898508072, 0.024309581145644188, -0.014477651566267014, -0.02115180343389511, -0.0017709268722683191, 0.011088605970144272, -0.01955692656338215, -0.021722720935940742, -0.020870162174105644, -0.03128177300095558, -0.023727070540189743, 0.023311590775847435, 0.01513385958969593, 0.014866642653942108, -0.0088694142177701, 0.002499721944332123, -0.010324680246412754, -0.014346842654049397, -0.011708500795066357, -0.044248316437006, -0.039242133498191833, -0.0050572059117257595, 0.0038871653378009796, 9.860770660452545e-05, 0.03725903108716011, -0.01944899559020996, -0.009986166842281818, -0.01653975434601307, -0.007632017135620117, -0.021348245441913605, -0.02786196582019329, -0.01585390605032444, -0.021971629932522774, -0.039770275354385376, -0.025462433695793152, 0.00041224545566365123, 0.027182916179299355, -0.046370990574359894, -0.006216750014573336, -0.013698773458600044, 0.04313257336616516, -0.0187118798494339, 0.03951076790690422, -0.004070267081260681, 0.04260297119617462, -0.02133174240589142, -0.03649330139160156, -0.03456180542707443, -0.027810338884592056, -0.003143450478091836, 0.03237670287489891, 0.023143427446484566, 0.01489340327680111, 0.005360524170100689, -0.022673891857266426, 0.09072472900152206, -0.030150026082992554, -0.1068977639079094, -0.06798748672008514, -0.011900299228727818, -0.010131736285984516, -0.071322962641716, 0.10954896360635757, 0.018937304615974426, -0.03891224414110184, 0.04375111684203148, 0.05284528434276581, -0.120743528008461, -0.13026948273181915, -0.09578179568052292, -0.10663492232561111, 0.047211479395627975, 0.07072430104017258, -0.00962737388908863, -0.02370445430278778, -0.011141268536448479, 0.09804164618253708, 0.06555873155593872, -0.11717087775468826, -0.09601956605911255, -0.04674399271607399, 0.04338284581899643, 0.01896500587463379, 0.0010277190012857318, -0.014935765415430069, 0.17179173231124878, -0.07593720406293869, 0.0016506719402968884, 0.02077256143093109, -0.03953760862350464, -0.04395541548728943, -0.017887521535158157, 0.03342476859688759, -0.05899598076939583, 0.0015785051509737968, 0.02041732147336006, -0.08961578458547592, 0.052821338176727295, 0.0005668787634931505, 0.0759248286485672, -0.045226432383060455, 0.03359539061784744, 0.03652498871088028, 0.0789709985256195, 0.08839401602745056, 0.10147131234407425, -0.04629499837756157, 0.006505562458187342, 0.14495235681533813, -0.07454264909029007, 0.07114935666322708, 0.03703023120760918, 0.11348671466112137, -0.027744628489017487, 0.006452867761254311, 0.033497609198093414, -0.06672593206167221, -0.0595749132335186, -0.021320831030607224, 0.004360999446362257, -0.03129710257053375, 0.030710244551301003, 0.09905483573675156, -0.09874798357486725, -0.04874135181307793, -0.047612618654966354, -0.035578545182943344, -0.026874393224716187, 0.026083895936608315, 0.05492958426475525, 0.050300076603889465, 0.09839482605457306, 0.15300053358078003, -0.11910372972488403, -0.0009777928935363889, 0.06480297446250916, -0.06309746950864792, -0.06217233091592789, 0.04372258111834526, -0.09273414313793182, -0.03598479926586151, 0.0006768834427930415, -0.003851795569062233, -0.18093426525592804, -0.08277945220470428, 0.024946844205260277, -0.03662673383951187, 0.06778073310852051, 0.02451944351196289, 0.026863478124141693, 0.056306689977645874, -0.06952112913131714, -0.05672316998243332, -0.19424398243427277, -0.0010803623590618372, 0.016126466915011406, -0.0024280992802232504, -0.037971414625644684, 0.06826640665531158, 0.006602659355849028, -0.09714843332767487, -0.013720931485295296, 0.01743003912270069, -0.12767894566059113, -0.053434714674949646, -0.0012897792039439082, 0.006291863974183798, -0.018014226108789444, -0.03270354121923447, -0.0013876024167984724, -0.07993514090776443, -0.04849081486463547, 0.02132171019911766, -0.08006510138511658, -0.09581317752599716, -0.022255482152104378, -0.015384027734398842, -0.05505619943141937, 0.023627186194062233, 0.026444846764206886, -0.025869010016322136, -0.06108443811535835, 0.29855838418006897, -0.045100804418325424, 0.0467364676296711, 0.04771812632679939, 0.005425465293228626, 0.41596582531929016, 0.006626750808209181], [-0.00029592023929581046, 0.03356321528553963, -0.08285485208034515, -0.15160268545150757, -0.18922840058803558, -0.16493800282478333, -0.10425149649381638, 0.07770316302776337, 0.073260597884655, 0.0041540744714438915, 0.016317032277584076, 0.007159512024372816, 0.04732463136315346, -0.219039648771286, -0.30862340331077576, -0.09045087546110153, -0.05406031757593155, 0.03197670727968216, -0.051151666790246964, 0.019551802426576614, -0.03207676112651825, 0.051552724093198776, -0.03741941228508949, -0.22927315533161163, -0.09812700003385544, -0.03954872488975525, -0.09932650625705719, -0.04821065813302994, -0.03431247919797897, -0.03086801804602146, -0.09700744599103928, 0.06446753442287445, -0.12383422255516052, -0.3554345369338989, -0.16637022793293, 0.004958596080541611, -0.011196405626833439, 0.025080343708395958, 0.029867863282561302, -0.07322333008050919, -0.047308772802352905, -0.05216970294713974, 0.0460110567510128, -0.252145916223526, -0.09770023822784424, -0.0017931524198502302, -0.11105065047740936, 0.09798089414834976, 0.06478025019168854, -0.07316195964813232, -0.022807948291301727, -0.1681664139032364, 0.22179235517978668, -0.10082347691059113, -0.1176472157239914, -0.009675043635070324, 0.00679263100028038, 0.028477715328335762, 0.05822080373764038, -0.017483364790678024, -0.19499947130680084, 0.1563209891319275, 0.2367166429758072, -0.19988425076007843, -0.11947355419397354, -0.006958717945963144, -0.018100231885910034, -0.005520045757293701, 0.011111678555607796, -0.016561120748519897, -0.006602687761187553, -0.09323907643556595, 0.03459338843822479, -0.16076137125492096, 0.03999375179409981, -0.10992635041475296, -0.11870558559894562, 0.02331090345978737, 0.202107772231102, -0.025873921811580658, -0.030410436913371086, -0.02359478361904621, 0.0001880355557659641, -0.1661183089017868, -0.10557177662849426, 0.06450465321540833, 0.008389283902943134, 0.1717545986175537, -0.023670664057135582, 0.028334656730294228, 0.027942242100834846, -0.007896441966295242, -0.06797551363706589, 0.02038070186972618, -0.045299772173166275, 0.00441114604473114, 0.002407998777925968, -0.023172525689005852, 0.07710383832454681, 0.013485914096236229, -0.07897193729877472, -0.24593569338321686, -0.042027611285448074, -0.023689163848757744, -0.00998830609023571, 0.08568933606147766, -0.11657080054283142, 0.12766611576080322, 0.19207581877708435, 0.1285584270954132, 0.16281954944133759, 0.04695456102490425, -0.03567448630928993, 0.006179766729474068, 0.0592958927154541, 0.14149054884910583, -0.06528802961111069, 0.1204591691493988, -0.08694582432508469, -0.027340488508343697, -0.07676824927330017, 0.12080074101686478, -0.020640697330236435, -0.0044000460766255856, -0.03390078991651535, 0.00047028702101670206, -0.025433458387851715, 0.16318805515766144, -0.09192033112049103, 0.010567190125584602, -0.015090475790202618, -0.045710671693086624, 0.1254545897245407, 0.015369883738458157, 0.006389659363776445, -0.0027014492079615593, 0.04588494077324867, 0.0003658258356153965, -0.00547812320291996, 0.05748438090085983, -0.025812549516558647, -0.11996284127235413, 0.013324933126568794, 0.029328124597668648, -0.06095972657203674, 0.046810001134872437, -0.04622861370444298, -0.13700026273727417, 0.16969990730285645, 0.10969725996255875, 0.03726816177368164, 0.04222307354211807, 0.03504898399114609, -0.007817055098712444, -0.030727092176675797, -0.003324225777760148, -0.07583924382925034, -0.16157500445842743, 0.02539815567433834, -0.1455535888671875, -0.10310517996549606, -0.03452099487185478, -0.02533932775259018, 0.11887581646442413, 0.015703896060585976, 0.036807581782341, -0.014590654522180557, 0.043938372284173965, 0.034092988818883896, -0.041419338434934616, -0.08427637070417404, 0.019973818212747574, 0.07181037217378616, 0.03677396476268768, 0.00674124900251627, 0.09020689129829407, 0.008955157361924648, 0.07334732264280319, 0.035044897347688675, 0.05128681659698486, 0.013394691981375217, -0.07021374255418777, 0.0019146316917613149, -0.0158673208206892, -0.06444393843412399, -0.04110193997621536, 0.0343940407037735, -0.07741396129131317, 0.03175688907504082, 0.003316217800602317, 0.008530804887413979, 0.03478936105966568, -0.021947123110294342, 0.037078503519296646, -0.1314564347267151, -0.05613991618156433, 0.033068422228097916, 0.043357763439416885, -0.0006849488127045333, -0.06834548711776733, -0.012348179705440998, 0.022660428658127785, -0.016068100929260254, 0.011477134190499783, -0.09067418426275253, -0.08534308522939682, -0.06926397234201431, 0.005480993539094925, 1.3365613222122192, 0.018095960840582848, 0.14906376600265503, 0.1488206684589386, 0.0038636038079857826, 0.26160502433776855, 0.008415346965193748], [-0.002632942283526063, -0.1471633017063141, 0.09031654894351959, -0.07984429597854614, -0.13820752501487732, -0.06247783452272415, -0.102058045566082, -0.03823819383978844, -0.011053291149437428, 0.0810721144080162, 0.07436322420835495, -0.03680252656340599, 0.07297057658433914, -0.2848598062992096, -0.22957907617092133, -0.19051210582256317, -0.1980639547109604, 0.04454078897833824, -0.04781641438603401, -0.01532336138188839, 0.01407662034034729, -0.031097812578082085, 0.027628082782030106, -0.12379460036754608, -0.07806733250617981, -0.10754676163196564, -0.1682819277048111, 0.02048187330365181, -0.04382934421300888, 0.029441900551319122, 0.0066138580441474915, -0.014612868428230286, -0.14773954451084137, -0.2857082784175873, -0.17062897980213165, -0.1549079567193985, -0.17173264920711517, 0.034196194261312485, -0.02777571603655815, 0.01618439145386219, -0.03535096347332001, 0.0011169345816597342, -0.0372997485101223, -0.08175203204154968, -0.2548248767852783, -0.1598583310842514, -0.2953549921512604, -0.04339311644434929, 0.012510501779615879, 0.0592520609498024, 0.0031525101512670517, -0.00501625519245863, -0.0016825748607516289, -0.05786515772342682, 0.036076322197914124, -0.029090987518429756, 0.0018949598306789994, -0.022319752722978592, -0.01976352371275425, -0.024645458906888962, -0.012389982119202614, -0.008766951970756054, 0.011569634079933167, 0.049376171082258224, 0.00017973213107325137, -0.057646121829748154, -0.02437973953783512, -0.018637651577591896, 0.004086272791028023, -0.013331367634236813, 0.012651988305151463, -0.01435315702110529, 0.011157833971083164, 0.0015202703652903438, 0.030584000051021576, -0.011220861226320267, -0.019808150827884674, 0.01640547811985016, -0.0013511180877685547, -0.014533516019582748, -0.03217815235257149, 0.0028789928182959557, -0.016159653663635254, -0.00289197638630867, -0.0026735281571745872, 0.0018490651855245233, 0.006360349245369434, 0.017327941954135895, 0.027941465377807617, -0.0035266620106995106, -0.017597071826457977, 0.030178312212228775, -0.005460703279823065, 0.012623503804206848, 0.0132539551705122, -0.026196753606200218, 0.004125634208321571, -0.0023708748631179333, 0.019599709659814835, -0.004848781507462263, 0.0022552756126970053, 0.006422588601708412, 0.0004593518970068544, -0.005230240989476442, 0.00697594927623868, -0.010361827909946442, 0.005293973721563816, 0.0020742735359817743, 0.001177276368252933, -0.006028689444065094, -0.003680494613945484, -0.004851116798818111, -0.0044922539964318275, 0.009165722876787186, -0.01168418861925602, -0.0025950022973120213, 0.012844507582485676, 0.00954670924693346, 0.006446871906518936, -0.004814543761312962, -0.011806282214820385, -0.0050712693482637405, 0.005875051952898502, 0.001016268040984869, -0.005582923535257578, 0.020150724798440933, -0.005185364279896021, 0.0005047329468652606, 0.012492474168539047, 0.009902466088533401, 0.001762990839779377, -0.006452774628996849, 0.00408522691577673, 0.005225774832069874, 0.00227067107334733, -0.00015334985801018775, 0.014476669952273369, 0.007411433849483728, 0.013785870745778084, -0.0020790142007172108, 0.010626453906297684, -0.0008337119361385703, -0.014715254306793213, 0.009036089293658733, 0.028567137196660042, 0.004163696430623531, 0.011580116115510464, -0.001172963296994567, -0.013648116029798985, 0.014367668889462948, 0.0060958899557590485, -0.007747781928628683, 0.006236495450139046, -0.012075715698301792, -0.011658946983516216, 0.014831780456006527, -0.007984224706888199, 0.0027939120773226023, -0.006032117176800966, 0.003757975995540619, 0.0009570200345478952, 0.002470721723511815, 0.010570457205176353, 0.009638474322855473, -0.002930776681751013, 0.010762265883386135, -0.015877950936555862, -0.011819086037576199, 0.009983271360397339, 0.0018742631655186415, 0.0031689994502812624, 0.010319375433027744, -0.010591994039714336, 0.030011916533112526, -0.006797213573008776, 0.013582167215645313, -0.003254542825743556, 0.0037978910841047764, 0.001636986155062914, 0.015468583442270756, 0.014264012686908245, -0.00045078678522258997, -0.008294115774333477, 0.004248590674251318, -0.01003963965922594, 0.009957288391888142, -0.00688478909432888, -0.011382355354726315, 0.00940660946071148, -0.004264394752681255, -0.008797802962362766, -0.015164409764111042, 0.03260292485356331, 0.035610631108284, 4.7839010221650824e-05, -0.008085427805781364, -0.020043907687067986, -0.0007097204797901213, -0.004473001696169376, -0.006234333850443363, -0.39531421661376953, -0.05120844766497612, -0.05533134937286377, 0.015643641352653503, -0.024757614359259605, -0.052221644669771194, -0.022863704711198807, -0.01217119675129652, 0.45618435740470886, -0.1413421779870987, 0.05766211077570915, 0.9353821873664856, 0.010310357436537743, 6.392755031585693, 0.01048419438302517], [0.03438158333301544, -0.007221111096441746, 0.09256671369075775, -0.025559471920132637, 0.02536524459719658, -0.041766438633203506, -0.010501391254365444, -0.029100555926561356, -0.04984467104077339, 0.0015702336095273495, 0.061277080327272415, 0.011540212668478489, -0.06711124628782272, -0.10494419932365417, -0.06864222139120102, -0.20671851933002472, -0.0654730349779129, 0.03548075631260872, 0.011990365572273731, 0.030904972925782204, 0.0762997418642044, -0.0191251952201128, -0.14772124588489532, -0.005881536286324263, -0.028530174866318703, -0.13281923532485962, -0.04696044325828552, 0.05988778546452522, 0.03685210645198822, 0.020460668951272964, -0.006968644447624683, -0.18336856365203857, -0.0832793265581131, -0.13281522691249847, -0.08915729820728302, 0.046613920480012894, 0.029367610812187195, 0.1138472929596901, -0.019028199836611748, -0.04989339038729668, 0.06203040853142738, -0.06499827653169632, -0.005615288857370615, -0.07372559607028961, 0.011437719687819481, 0.0023613376542925835, -0.1524880975484848, 0.06650198251008987, 0.004441001918166876, 0.07929863035678864, 0.15673384070396423, 0.077806755900383, 0.02613421157002449, -0.02677995339035988, 0.019011493772268295, 0.048001728951931, -0.12489151209592819, -0.07823114842176437, 0.032144345343112946, 0.01684851571917534, -0.0399591401219368, 0.046185094863176346, -0.06142817810177803, -0.06020018830895424, -0.13013146817684174, -0.004157112445682287, -0.06966701149940491, -0.01585564762353897, 0.07680944353342056, 0.10569785535335541, -0.09187448024749756, -0.019503144547343254, -0.04077178239822388, -0.08226246386766434, -0.07774527370929718, 0.05447863042354584, -0.04305681958794594, 0.18759910762310028, 0.27068987488746643, 0.024365903809666634, -0.12923336029052734, 0.06492773443460464, -0.10572061687707901, -0.08757815510034561, -0.00037924741627648473, 0.06036635488271713, 0.07873360812664032, 0.10223130136728287, 0.07322912663221359, -0.11505120247602463, -0.11138586699962616, 0.1439993679523468, 0.05563777685165405, -0.09145988523960114, 0.04256044328212738, -0.06350579857826233, -0.09642881155014038, 0.16166162490844727, 0.007009048946201801, -0.05160823091864586, 0.009353669360280037, 0.07103684544563293, 0.033004265278577805, -0.02263103798031807, 0.009931091219186783, 0.04770262911915779, 0.006339553743600845, 0.0282442644238472, -0.07296699285507202, 0.004285973496735096, 0.1176360696554184, 0.049623068422079086, 0.10765993595123291, 0.02424091473221779, 0.08290677517652512, -0.03735988214612007, 0.11586317420005798, -0.12511393427848816, 0.00564585579559207, -0.04658783972263336, -0.007010294124484062, -0.033381033688783646, -0.03833303228020668, 0.026573725044727325, 0.014618633314967155, 0.01764743961393833, 0.07797881215810776, 0.11781805753707886, -0.013973102904856205, 0.0684753879904747, 0.12793157994747162, 0.019157858565449715, 0.027920372784137726, 0.06858374178409576, -0.03208461403846741, -0.01113787293434143, -0.04978527873754501, 0.0012568802339956164, -0.036177072674036026, 0.020641712471842766, 0.03168470785021782, 0.0542895533144474, 0.02411067485809326, 0.020586581900715828, -0.03811865672469139, 0.003130880417302251, 0.03643035516142845, 0.04712861776351929, 0.012389842420816422, -0.026015130802989006, 0.06560507416725159, 0.045046355575323105, 0.06603649258613586, -0.054777320474386215, 0.06363774091005325, -0.05930842459201813, -0.04684232175350189, -0.007224115077406168, 0.022984430193901062, -0.056125737726688385, 0.10525533556938171, 0.03965821489691734, 0.016899799928069115, -0.07205577939748764, 0.03691161796450615, -0.10267606377601624, 0.09261158853769302, 0.06720897555351257, -0.02153751812875271, 0.10498768091201782, 0.018046682700514793, -0.015079190023243427, 0.021022645756602287, -0.0692022442817688, 0.11788112670183182, 0.07838515937328339, 0.050174780189991, -0.09167163074016571, 0.10310833901166916, -0.01637258194386959, 0.0031352699734270573, -0.09965208172798157, 0.0625196322798729, -0.04724540188908577, 0.023625798523426056, -0.021877452731132507, 0.08227182179689407, -0.027781788259744644, 0.005098504479974508, 0.0273640938103199, 0.04920834302902222, 0.01685331203043461, -0.01735212281346321, 0.08801965415477753, -0.10100281983613968, -0.027280163019895554, -0.07726670801639557, 0.07390458136796951, 0.034093666821718216, -0.0588533878326416, -0.1511135995388031, -0.07388745248317719, -0.04627865180373192, -0.0592275932431221, -0.12972797453403473, -0.05812965705990791, 0.005894501693546772, 0.08871327340602875, 0.6048406958580017, -0.05759472772479057, 0.09995464235544205, 0.3044472634792328, -0.0052869245409965515, 1.6923279762268066, 0.010468465276062489], [0.011625300161540508, -0.016415534541010857, -0.10540253669023514, 0.0094673540443182, -0.0210861936211586, 0.08739232271909714, -0.06541017442941666, -0.0636403039097786, -0.035107340663671494, 0.001369111705571413, -0.015849940478801727, -0.03429119288921356, 0.11970244348049164, 0.0835983082652092, 0.03873156011104584, 0.09707608819007874, 0.11899718642234802, 0.09787256270647049, -0.02283165603876114, 0.03112562745809555, 0.031937140971422195, 0.017736710608005524, 0.01802081987261772, 0.1297415792942047, 0.11079613864421844, 0.1930459886789322, 0.07788258790969849, 0.09169251471757889, 0.13795483112335205, 0.09337010234594345, -0.0803966075181961, -0.0939241349697113, 0.09361656755208969, 0.19201281666755676, 0.12912888824939728, 0.20946747064590454, 0.052802156656980515, 0.10643555223941803, -0.003979388624429703, -0.0629805475473404, -0.006801482755690813, 0.05512354150414467, 0.10418178141117096, 0.1375691443681717, 0.11839256435632706, 0.10790305584669113, 0.07650662213563919, 0.1623864322900772, -0.033474329859018326, -0.1602843999862671, 0.13845700025558472, 0.20886380970478058, 0.09777296334505081, 0.01832016371190548, 0.1118045225739479, 0.015466100536286831, 0.08303233981132507, 0.20229220390319824, -0.022644130513072014, -0.24287305772304535, 0.08640296757221222, 0.08462019264698029, 0.17358767986297607, -0.04485034570097923, 0.049439385533332825, 0.012233426794409752, 0.0977034866809845, 0.09435158967971802, -0.10939992964267731, -0.18263472616672516, 0.0631142109632492, 0.028603382408618927, 0.20766624808311462, 0.0741395428776741, -0.08623279631137848, 0.009888429194688797, 0.13341432809829712, 0.05957894027233124, -0.0008809581049717963, -0.010778459720313549, 0.008184593170881271, -0.14903892576694489, 0.05755174160003662, -0.26604533195495605, -0.05064861476421356, 0.08476356416940689, 0.07956477999687195, 0.04702550545334816, -0.08301444351673126, 0.027066361159086227, -0.08502162247896194, -0.02114635892212391, -0.07039810717105865, 0.1337360292673111, 0.050173502415418625, 0.07687486708164215, -0.03697599843144417, -0.08672256767749786, -0.17590437829494476, 0.27441081404685974, -0.2115645706653595, 0.045153480023145676, -0.003453749930486083, 0.020024951547384262, 0.01584286242723465, 0.058262769132852554, 0.06982789188623428, -0.007884372025728226, -0.00023778321337886155, -0.017011692747473717, 0.015404603444039822, -0.030520480126142502, -0.03544815257191658, 0.06666630506515503, 0.08178209513425827, 0.004654924385249615, -0.08178946375846863, 0.13111384212970734, -0.05136053264141083, -0.050413381308317184, -0.06044933944940567, 0.015262115746736526, -0.04603781923651695, 0.021484198048710823, -0.01184142753481865, 0.01598605141043663, -0.07566890865564346, 0.0026005562394857407, 0.0399760901927948, -0.02835722640156746, -0.026168983429670334, 0.05786217376589775, 0.02875058725476265, 0.04853048920631409, 0.024067189544439316, 0.09930978715419769, -0.0499325729906559, 0.055647216737270355, 0.0769374743103981, -0.05722913146018982, -0.08278761059045792, 0.07954155653715134, -0.048321329057216644, 0.05397903174161911, 0.07119787484407425, 0.03839797154068947, 0.026149805635213852, 0.014653893187642097, 0.03903947398066521, 0.09696395695209503, -0.0698658749461174, 0.09247976541519165, 0.012284177355468273, 0.08041498810052872, -0.07078004628419876, 0.0846150666475296, -0.009858053177595139, 0.027166957035660744, -0.021199429407715797, 0.006513796281069517, -0.04022597149014473, -0.046347830444574356, 0.12603536248207092, 0.06388715654611588, 0.030357716605067253, 0.03913647308945656, -0.05954999104142189, -0.030030108988285065, -0.030866606160998344, -0.06320084631443024, 0.02123934216797352, 0.044207554310560226, 0.07141715288162231, -0.02399543672800064, 0.013574326410889626, 0.05581197515130043, 0.022286098450422287, -0.047392189502716064, 0.07676205784082413, 0.018096402287483215, -0.03005463257431984, -0.06302548944950104, 0.07769036293029785, 0.0566035695374012, 0.10224510729312897, 0.03454629331827164, -0.08533889055252075, 0.022774070501327515, -0.012484941631555557, -0.025265738368034363, 0.0046297297812998295, 0.02294526807963848, -0.08075389266014099, 0.10682781785726547, -0.06824663281440735, -0.0535687580704689, -0.07071240991353989, -0.018632864579558372, 0.03630616143345833, -0.01777465082705021, 0.08979746699333191, -0.09087822586297989, -0.07999113947153091, -0.023721985518932343, -0.016679883003234863, -0.06442583352327347, -0.17242124676704407, -0.055210888385772705, 0.748860239982605, -0.007500680163502693, 0.1384604275226593, 0.11222603172063828, 0.009594015777111053, 0.46217119693756104, -0.00420514727011323], [-0.00022919736511539668, 0.0033593536354601383, 0.00022343701857607812, -0.07556646317243576, -0.09098093956708908, -0.1153041422367096, -0.08484853804111481, -0.008201690390706062, -0.05748014524579048, -0.007219599559903145, -0.0025849516969174147, -0.06427682936191559, -0.06823544204235077, -0.3114466667175293, -0.3547555208206177, -0.29957258701324463, -0.09925258904695511, 0.024676192551851273, -0.03440394252538681, 0.05530882626771927, -0.032632291316986084, -0.0995810329914093, -0.02420535497367382, -0.18753936886787415, -0.18438026309013367, -0.18617825210094452, -0.18127357959747314, 0.0362488254904747, 0.06416355818510056, 0.10689538717269897, -0.1615626960992813, -0.037633977830410004, -0.18748681247234344, -0.11800917983055115, -0.1974693089723587, -0.13788501918315887, -0.26514309644699097, -0.03011845238506794, -0.06246042251586914, -0.059028174728155136, -0.14732708036899567, 0.0687544047832489, -0.1589878499507904, -0.19055317342281342, -0.3668881356716156, -0.1870768964290619, -0.21558448672294617, 0.04249073937535286, -0.027370164170861244, -0.159527987241745, -0.24581532180309296, 0.07737874984741211, -0.06682755053043365, -0.1360524296760559, -0.18271847069263458, -0.017123432829976082, -0.03556140139698982, 0.10748417675495148, -0.00313044642098248, -0.2565886676311493, -0.030570242553949356, 0.11563841998577118, -0.17791996896266937, -0.03910401090979576, -0.02659081481397152, 0.09314636886119843, 