{"type": "afterstate-value-mlp", "version": 1, "inputSize": 215, "layers": [{"weight": [[-0.0030390566680580378, -0.008163186721503735, -0.043502327054739, -0.07403247058391571, -0.022565670311450958, -0.14313288033008575, -0.03611002862453461, -0.004831849131733179, 0.0003934034612029791, 0.026193391531705856, -0.05805705487728119, -0.046466272324323654, -0.0025169719010591507, -0.0017851509619504213, -0.11930891126394272, -0.16432005167007446, -0.043542154133319855, -0.017168203368782997, -0.06067853420972824, -0.03239967301487923, -0.04918604716658592, -0.03132598102092743, 0.01424210611730814, -0.007025676779448986, -0.1111457347869873, -0.1528618186712265, -0.14927303791046143, 0.0021986612118780613, 0.04906489700078964, 0.06281319260597229, -0.14317956566810608, -0.030993467196822166, 0.010253406129777431, -0.03252539038658142, -0.07210538536310196, -0.04887554422020912, 0.06762463599443436, -0.010133245959877968, 0.08410190045833588, 0.07999616861343384, -0.05578833818435669, -0.18379689753055573, 0.05887852981686592, 0.07001332938671112, -0.051180820912122726, -0.027443235740065575, -0.07710784673690796, 0.004159333650022745, 0.0071365712210536, 0.10220400243997574, 0.17616426944732666, 0.09233739227056503, -0.20872862637043, 0.12486829608678818, -0.039418961852788925, -0.03134695068001747, 0.1114855706691742, 0.08351558446884155, 0.03086065873503685, -0.02624652534723282, -0.16717587411403656, -0.013980887830257416, 0.025117794051766396, -0.16682812571525574, -0.0996832549571991, -0.046716056764125824, 0.08751191943883896, 0.12909583747386932, -0.0017980689881369472, 0.25016266107559204, -0.04652319476008415, 0.02212841436266899, 0.17517495155334473, 0.0031940562184900045, 0.16894200444221497, 0.152628093957901, -0.006062352564185858, 0.09740376472473145, -0.10299166291952133, -0.010349051095545292, 0.03166328743100166, -0.19015896320343018, -0.09571005403995514, 0.1956746131181717, 0.09539679437875748, 0.058347444981336594, -0.011456216685473919, 0.03931387513875961, 0.08926522731781006, -0.024416983127593994, 0.06727290153503418, -0.0030068359337747097, -0.2838309407234192, -0.1270129382610321, -0.002156878588721156, -0.01546812616288662, 0.16114675998687744, -0.04613921418786049, 0.004757646471261978, -0.0038899912033230066, 0.0031953020952641964, -0.10148265957832336, -0.23324672877788544, -0.028841201215982437, 0.05420105904340744, 0.12702304124832153, 0.11229856312274933, 0.16238881647586823, -0.03588986396789551, -0.07565619796514511, 0.02680334821343422, -0.07519429922103882, -0.3161945343017578, -0.12665410339832306, 0.00465812673792243, 0.14441294968128204, 0.08866696804761887, 0.12571251392364502, -0.026015352457761765, -0.015151206403970718, -0.024309474974870682, -0.07418300211429596, -0.2598370611667633, -0.05084738880395889, -0.0007535350741818547, 0.06366640329360962, 0.22463969886302948, 0.12739692628383636, -0.10456769168376923, -0.05174364522099495, -0.03297536447644234, -0.09770869463682175, -0.24769385159015656, -0.049953047186136246, 0.0029165165033191442, 0.17866076529026031, 0.09105467051267624, 0.10067721456289291, -0.01613740064203739, -0.13183383643627167, -0.19606967270374298, -0.276161789894104, -0.2403782606124878, -0.11051775515079498, -0.0231962688267231, 0.019825171679258347, 0.03273516893386841, -0.028694603592157364, -0.08628513664007187, 0.031415216624736786, -0.035821642726659775, 0.006928183138370514, -0.07075243443250656, -0.08656668663024902, 0.03620968386530876, 0.04295474290847778, 0.04807666689157486, 0.015496790409088135, 0.11856857687234879, -0.06600983440876007, 0.10185857862234116, 0.051259443163871765, -0.0034709605388343334, -0.019304916262626648, -0.03024842031300068, -0.061539892107248306, 0.047659143805503845, 0.06459897756576538, 0.12133783102035522, 0.05571035295724869, 0.006018618121743202, 0.09050245583057404, 0.027757033705711365, 0.015169440768659115, -0.023353472352027893, 0.06005898863077164, 0.08106886595487595, 0.06107266619801521, -0.05066961422562599, -0.009091128595173359, 0.06317824125289917, 0.10902949422597885, -0.06881912052631378, -0.040303077548742294, 0.007387648802250624, 0.006940588355064392, 0.031001495197415352, -0.032661404460668564, -0.03894960507750511, -0.05315428599715233, 0.07120199501514435, 0.13022427260875702, 0.06593986600637436, -0.020625395700335503, 0.0009800927946344018, 0.002955671167001128, -0.0472751222550869, 0.10168923437595367, 0.09152868390083313, -0.10190727561712265, 0.13170844316482544, 0.06365553289651871, 0.17611195147037506, 0.15253430604934692, 0.16704174876213074, 0.15284809470176697, 0.17504645884037018, -0.25412267446517944, -0.42964768409729004, 0.1256415992975235, -0.02007949911057949, -0.025301259011030197, -0.003763470333069563, -0.33242249488830566, 0.010781649500131607], [-0.018777724355459213, -0.02888752520084381, -0.08915136754512787, -0.011844602413475513, -0.0259519275277853, -0.11223004758358002, 0.06379811465740204, -0.009288953617215157, 0.02698531374335289, 0.014618540182709694, 0.021732550114393234, -0.03616857901215553, -0.006589170545339584, -0.00724654458463192, -0.27845582365989685, -0.2544458210468292, -0.18035843968391418, -0.08818449079990387, -0.04515683278441429, 0.05067593231797218, -0.014262514188885689, 0.005371193867176771, -0.052141159772872925, -0.22485803067684174, -0.07681024819612503, -0.08192383497953415, -0.06574943661689758, -0.012363777495920658, 0.019191984087228775, 0.16614392399787903, -0.08941445499658585, -0.07037681341171265, -0.15690042078495026, -0.21355105936527252, -0.11546177417039871, -0.16772939264774323, -0.15815867483615875, -0.030674582347273827, -0.18619388341903687, 0.06093655154109001, -0.01259776670485735, -0.16760608553886414, -0.23972220718860626, -0.25797879695892334, -0.1278422474861145, -0.3386487364768982, -0.051493920385837555, -0.09818128496408463, -0.16538919508457184, 0.13187752664089203, 0.06714044511318207, 0.05915560945868492, -0.13687454164028168, -0.21683599054813385, -0.15894392132759094, -0.4712120592594147, -0.11332269012928009, -0.10476499050855637, -0.13754822313785553, -0.12858952581882477, -0.012247896753251553, 0.12180854380130768, 0.03797919303178787, -0.07769368588924408, 0.1277277171611786, -0.1737227886915207, 0.05734162777662277, 0.18475790321826935, -0.1391584277153015, 0.05059250816702843, -0.06990312784910202, -0.049939386546611786, 0.0930977612733841, -0.11770087480545044, 0.06209726631641388, -0.24776019155979156, 0.10913456976413727, 0.1510864794254303, -0.002137308707460761, -0.104082852602005, 0.10081929713487625, -0.027710244059562683, 0.02738991752266884, -0.04002215713262558, -0.06667208671569824, -0.015710841864347458, -0.13773208856582642, 0.11155584454536438, 0.11662279814481735, -0.029265809804201126, -0.013345823623239994, -0.029393108561635017, 0.10157003998756409, 0.0673239529132843, -0.11737598478794098, 0.102668397128582, -0.021475141867995262, -0.08783614635467529, -0.06810439378023148, -0.1443382203578949, 0.04154476150870323, 0.07656673341989517, -0.11650074273347855, 0.023700252175331116, -0.015455210581421852, 0.05008585378527641, -0.03247876837849617, -0.018319914117455482, 0.035588424652814865, -0.03932228311896324, -0.006185827311128378, 0.02174071967601776, -0.06429442018270493, -0.030896689742803574, -0.02999333292245865, 0.05609498918056488, 0.15988312661647797, 0.041335929185152054, 0.04983701556921005, -0.060379624366760254, -0.05335145443677902, 0.09530860930681229, -0.011166045442223549, 0.005524816457182169, 0.06852670758962631, -0.12124338746070862, -0.16079358756542206, -0.031307902187108994, 0.041972819715738297, 0.06525523215532303, -0.05182018503546715, -0.06393567472696304, 0.03583546727895737, -0.0720815435051918, -0.08046585321426392, 0.038298334926366806, 0.04799964651465416, -0.003403964452445507, 0.09787370264530182, -0.014576002024114132, -0.014088344760239124, 0.005425328854471445, 0.02619399130344391, -0.09581591933965683, -0.030447479337453842, 0.007098361849784851, 0.04172031208872795, 0.023581715300679207, 0.08920831978321075, -0.17895181477069855, 0.04530101269483566, 0.05591409280896187, 0.11357296258211136, -0.037420179694890976, -0.04992061108350754, 0.01766873151063919, 0.03872276470065117, -0.14653371274471283, -0.0029272770043462515, -0.010164928622543812, -0.08897697180509567, 0.06064017117023468, 0.1349688023328781, -0.0424845851957798, -0.10308942943811417, 0.07846953719854355, 0.03630208224058151, 0.1426427662372589, -0.0020215476397424936, -0.1010596975684166, 0.0651170089840889, -0.1196669489145279, 0.10182036459445953, 0.05790243670344353, 0.006324511952698231, 0.0033211084082722664, 0.02395767904818058, 0.07034621387720108, 0.007335510104894638, 0.03718055412173271, -0.18723313510417938, -0.046325892210006714, 0.07276880741119385, 0.013962234370410442, -0.09167111665010452, -0.015461430884897709, -0.017709093168377876, -0.041887328028678894, -0.0028132291045039892, 0.12122109532356262, -0.012616604566574097, -0.002102232538163662, 0.0573149248957634, -0.01089535467326641, -0.03976418823003769, 0.01678190939128399, -0.05009972304105759, -0.15591464936733246, -0.07478959858417511, 0.06615116447210312, -0.03902547433972359, -0.05047879368066788, 0.014525662176311016, -0.04473038762807846, -0.018302464857697487, -0.03750702366232872, 0.00031013283296488225, -0.058134905993938446, 1.6610472202301025, 0.0696837455034256, 0.1667155772447586, -0.07816813141107559, 0.010672633536159992, -1.873095989227295, -0.004125216044485569], [-0.02104119397699833, 0.07145785540342331, 0.08197221159934998, 0.06424862891435623, 0.007163855712860823, -0.07031606137752533, -0.09268831461668015, 0.0015851702773943543, -0.054872237145900726, 0.005568468943238258, 0.06148112192749977, 0.0014104818692430854, 0.1548086404800415, 0.03191375359892845, -0.14232294261455536, -0.0016715709352865815, 0.009376294910907745, -0.010573970153927803, -0.08787097036838531, -0.009748818352818489, 0.023356111720204353, 0.04389258474111557, -0.015561395324766636, 0.0749238058924675, -0.13195675611495972, -0.02255408465862274, -0.030661217868328094, -0.003758407197892666, -0.027641594409942627, -0.022046620026230812, 0.008688168600201607, -0.07452751696109772, -0.06113603338599205, -0.024254372343420982, 0.004426410887390375, -0.006295287050306797, -0.05533144995570183, 0.045500747859478, 0.03079080767929554, -0.011291757225990295, -0.011978725902736187, -0.30318400263786316, -0.07752843201160431, -0.19866907596588135, 0.08266592770814896, 0.06802947074174881, 0.07325199246406555, -0.08043865859508514, 0.05421164259314537, 0.1914840191602707, 0.1797248274087906, 0.11975055932998657, -0.1443919986486435, -0.10679680109024048, -0.11390671133995056, -0.056790679693222046, -0.17169487476348877, -0.00825035385787487, 0.1458350419998169, 0.21060505509376526, 0.02352302335202694, 0.07450567930936813, -0.048449255526065826, -0.17582738399505615, 0.07603660225868225, -0.2681749761104584, -0.28568458557128906, -0.0863962173461914, -0.043168067932128906, 0.08596978336572647, 0.029274694621562958, 0.08083990961313248, 0.06057427451014519, -0.31249287724494934, -0.4344782531261444, 0.026719439774751663, -0.03265775367617607, 0.15097704529762268, 0.02219434082508087, 0.10612428933382034, 0.08658947050571442, -0.07778748124837875, -0.045487891882658005, -0.03979608416557312, -0.17952129244804382, 0.005460919812321663, -0.0678505003452301, -0.03223814070224762, 0.11785029619932175, 0.026806138455867767, 0.025602450594305992, -0.0022006244398653507, -0.04536144435405731, -0.11647628992795944, -0.08222628384828568, 0.0018472258234396577, -0.011258473619818687, -0.014520564116537571, 0.007649035658687353, 0.030973365530371666, 0.05857149884104729, 0.03307817503809929, -0.09620755165815353, -0.05261809378862381, -0.07826551049947739, -0.0579957440495491, -0.1017514169216156, -9.513775876257569e-05, 0.1073802262544632, 0.062194615602493286, 0.14818815886974335, 0.044765740633010864, 0.011303314007818699, 0.0015745240962132812, -0.13309839367866516, -0.09409461170434952, -0.059327639639377594, 0.08428715169429779, -0.04760853573679924, -0.04857358708977699, 0.1099817082285881, 0.03897843509912491, -0.07040908187627792, -0.12334743142127991, -0.10208799690008163, -0.03920336812734604, -0.10747813433408737, -0.016829682514071465, -0.02945389598608017, -0.010360685177147388, 0.21343520283699036, 0.05791768059134483, 0.0034685730934143066, -0.04945001378655434, 0.012280946597456932, 0.03657907247543335, 0.030152717605233192, 0.12939025461673737, 0.06622197479009628, 0.020292771980166435, 0.0245515126734972, 0.008086285553872585, -0.034763675183057785, -0.030050480738282204, -0.1418268382549286, -0.0293656587600708, 0.16122013330459595, 0.052315499633550644, 0.10936576873064041, 0.10801547765731812, -0.03785751760005951, -0.11775755882263184, -0.05791546776890755, -0.1670578420162201, -0.12800811231136322, -0.01964423805475235, 0.02697322517633438, -0.06224116310477257, 0.06059873476624489, 0.07116919010877609, -0.029506230726838112, -0.1667845994234085, -0.031789202243089676, -0.09088796377182007, -0.10567136853933334, -0.016234157606959343, 0.0688411071896553, 0.0035695943515747786, -0.02684471197426319, 0.0985344648361206, 0.019180044531822205, 0.0360635370016098, 0.0005240723839960992, -0.05502614378929138, 0.005958015099167824, 0.04580780491232872, -0.015009363181889057, 0.07833288609981537, 0.08862117677927017, 0.1319751888513565, -0.05811608210206032, 0.016082342714071274, -0.0188307985663414, 0.04072359576821327, -0.04152146354317665, 0.11248251050710678, 0.06340093165636063, -0.027369454503059387, 0.07849359512329102, 0.020094025880098343, 0.012875549495220184, -0.006976725067943335, -0.002471894957125187, -0.046314265578985214, 0.03268720582127571, -0.022214921191334724, 0.07347316294908524, 0.07317737489938736, 0.047980599105358124, -0.03890004754066467, -0.034091249108314514, 0.006460896693170071, 0.1086147278547287, 0.11206113547086716, 0.13133911788463593, 0.07892034202814102, 0.21115437150001526, -0.06889958679676056, -1.4940451383590698, 0.03816837817430496, -0.18698732554912567, -0.4586857557296753, -0.007548999041318893, -1.1698957681655884, -0.010216722264885902], [0.008587128482758999, 0.03510427474975586, -0.023599276319146156, -0.05088281258940697, -0.06162646785378456, 0.02527918666601181, -0.08304239064455032, -0.009248378686606884, -0.07659000158309937, -0.006798473186790943, -0.057410649955272675, -0.010431071743369102, -0.09737978130578995, -0.15345555543899536, -0.24958832561969757, -0.1460147202014923, -0.13418853282928467, -0.11837762594223022, -0.020734688267111778, -0.10049756616353989, -0.06611990928649902, 0.005927408114075661, -0.03765552490949631, -0.10126372426748276, -0.18608161807060242, -0.18315140902996063, -0.06242116168141365, -0.02939116209745407, 0.03112037666141987, 0.057446327060461044, -0.02170053869485855, 0.0011390349827706814, -0.015892941504716873, -0.0887099876999855, -0.17963290214538574, -0.20947636663913727, -0.03401743993163109, -0.08309243619441986, 0.028256548568606377, 0.03393350541591644, -0.07406514883041382, -0.048232197761535645, 0.05134883150458336, -0.24384845793247223, -0.14512620866298676, -0.16115747392177582, 0.03735116124153137, -0.10006193816661835, -0.08252901583909988, -0.03454027697443962, -0.11364145576953888, -0.13424669206142426, -0.10122423619031906, -0.08734813332557678, -0.20266616344451904, -0.14628271758556366, 0.004064283333718777, -0.09372132271528244, -0.060624562203884125, -0.22634455561637878, -0.04806941747665405, -0.020962554961442947, -0.13268058001995087, 0.025271674618124962, -0.20366191864013672, 0.0028981193900108337, -0.06981310248374939, -0.19811096787452698, -0.12904292345046997, -0.12847670912742615, 0.09947367012500763, -0.21972794830799103, -0.1911761462688446, 0.09752710908651352, 0.0321434885263443, 0.0006034377147443593, -0.08065026253461838, -0.06927705556154251, -0.12307970225811005, 0.09514123201370239, 0.09998708963394165, -0.348684698343277, -0.2095857709646225, -0.13758939504623413, -0.06023117154836655, -0.257808655500412, 0.12081843614578247, 0.06658332794904709, 0.020150765776634216, 0.16466256976127625, 0.1099560409784317, 0.10901801288127899, 0.07917101681232452, 0.20833419263362885, -0.051942188292741776, 0.21304388344287872, 0.2433471381664276, -0.010700010694563389, -0.13817733526229858, 0.035579849034547806, 0.02300848439335823, -0.2281413972377777, 0.22506418824195862, -0.006600602529942989, -0.20229372382164001, 0.139482781291008, -0.014855527319014072, -0.06501169502735138, 0.047384679317474365, -0.006635438185185194, 0.0003546118678059429, -0.12844257056713104, 0.13895617425441742, -0.040306802839040756, -0.00046028278302401304, 0.029378948733210564, -0.042707547545433044, 0.17103782296180725, -0.1383696347475052, 0.05025768280029297, -0.13890989124774933, -0.2861252725124359, 0.08882700651884079, 0.02758391574025154, -0.21977990865707397, -0.05603768303990364, -0.15698924660682678, 0.04349074885249138, -0.12470778822898865, -0.14824508130550385, -0.058660201728343964, -0.19281302392482758, 0.004121393896639347, 0.02111075073480606, -0.10181014984846115, -0.025279410183429718, -0.02944154478609562, -0.00907133985310793, -0.1356920301914215, -0.03223271667957306, -0.04762459546327591, -0.022216632962226868, -0.016696667298674583, 0.003456398844718933, -0.07212735712528229, 0.012204078957438469, -0.07991045713424683, 0.05754053592681885, 0.08721940964460373, -0.0417589396238327, -0.020786721259355545, -0.055953770875930786, 0.0500003844499588, 0.002598174847662449, -0.05617990717291832, -0.05078999325633049, -0.05730535089969635, -0.03590093180537224, -0.016171647235751152, -0.006086593959480524, 0.08149392902851105, -0.0004206743324175477, 0.016233187168836594, 0.0308360755443573, 0.04036310315132141, 0.027163757011294365, 0.024767151102423668, 0.12531886994838715, 0.04111422970890999, -0.05156480893492699, 0.08492143452167511, 0.037553608417510986, 0.055132996290922165, 0.04360887035727501, 0.03823474794626236, 0.031724825501441956, 0.04221663251519203, -0.012142966501414776, 0.015932120382785797, 0.0002639380982145667, 0.08592286705970764, -0.03169751912355423, 0.10100127011537552, -0.04218997433781624, -0.011915462091565132, -0.07634620368480682, -0.0014569879276677966, 0.04650399833917618, 0.0461343415081501, -0.038531482219696045, -0.010259981267154217, -0.0008135774987749755, 0.13322263956069946, 0.054113369435071945, 0.019720232114195824, 0.029647096991539, -0.03357767313718796, 0.1218729317188263, 0.08683869987726212, 0.019968092441558838, -0.13256853818893433, -0.05083117261528969, -0.048795245587825775, 0.1706962138414383, 0.009487089700996876, 0.10001048445701599, -0.004781725350767374, 0.1878746598958969, -0.31901293992996216, 0.05483240261673927, -0.0469050407409668, -0.07804711908102036, 0.004236389417201281, -2.2616782188415527, -4.19644384237472e-05], [-0.04327007755637169, 0.054530106484889984, -0.0686071440577507, 0.05144640803337097, 0.01191637571901083, 0.09919609874486923, -0.05287113040685654, -0.05999843776226044, -0.009777498431503773, 0.022167587652802467, -0.018340500071644783, -0.0005936455563642085, -0.03451006859540939, 0.04591643437743187, 0.12665916979312897, 0.12900657951831818, -0.028337663039565086, -0.11479716747999191, -0.08049935847520828, -0.033193524926900864, -0.060795921832323074, -0.012785087339580059, -0.027712902054190636, -0.014409862458705902, 0.02345818094909191, 0.080710768699646, -0.01117907464504242, 0.024224277585744858, 0.08268754929304123, 0.08711887896060944, 0.07488314062356949, 0.003024603007361293, -0.053966645151376724, -0.03240501135587692, -0.02971155382692814, -0.019370203837752342, -0.07830348610877991, -0.0040738023817539215, 0.016967974603176117, -0.0211768988519907, 0.06418474018573761, 0.06996146589517593, -0.027603518217802048, 0.019785841926932335, -0.038896381855010986, 0.029079709202051163, -0.05904344841837883, -0.015153915621340275, 0.05017095431685448, 0.018048172816634178, 0.059484004974365234, 0.06006713584065437, 0.04740505293011665, 0.039613276720047, 0.05173537880182266, -0.06764686852693558, -0.02239448018372059, 0.019878579303622246, 0.0386178158223629, 0.00023169246560428292, 0.15174931287765503, 0.06750704348087311, 0.04138174653053284, 0.05578964203596115, 0.03887304663658142, 0.02336808294057846, 0.07005447894334793, 0.10194414854049683, 0.0775182694196701, 0.05039157345890999, 0.03605850040912628, 0.11610625684261322, 0.09868071973323822, 0.11211434006690979, 0.10062303394079208, 0.06895151734352112, 0.09630917757749557, 0.052857834845781326, 0.048494357615709305, -0.02202499844133854, 0.03178822249174118, 0.03255891427397728, 0.037629563361406326, 0.10911146551370621, 0.07710868865251541, 0.11052928119897842, 0.15618716180324554, 0.059756454080343246, 0.0582318939268589, -0.0031814551912248135, 0.022699669003486633, 0.07849276065826416, 0.048299964517354965, 0.0810525193810463, 0.1150607019662857, 0.12510806322097778, 0.09250808507204056, 0.06706873327493668, 0.09042472392320633, 0.014874188229441643, 0.11691877990961075, 0.013778196647763252, 0.017365148290991783, 0.08814682811498642, 0.13657912611961365, 0.09603268653154373, 0.10784579813480377, 0.13738968968391418, 0.04974348098039627, 0.030337385833263397, 0.06125539168715477, 0.0935397818684578, 0.06792036443948746, 0.025627505034208298, 0.02563771791756153, 0.00462472764775157, 0.05700545758008957, -0.014737824909389019, 0.09358946979045868, -0.018100718036293983, -0.05546860024333, 0.04854379594326019, 0.09463074803352356, 0.10193249583244324, 0.028379444032907486, 0.022945145145058632, 0.05020695924758911, 0.05428028106689453, 0.07240995019674301, -0.012688983231782913, 0.03247932344675064, 0.09437253326177597, 0.09324651211500168, 0.12494122236967087, 0.046458225697278976, 0.05852340906858444, 0.08381181210279465, 0.060851797461509705, 0.08446338027715683, 0.04024236649274826, -0.01417335495352745, 0.06907311081886292, 0.16134469211101532, 0.05115417763590813, 0.11586558818817139, 0.0787726640701294, 0.06143692880868912, 0.045633118599653244, 0.08052818477153778, 0.04195617139339447, 0.07455027103424072, 0.06509383767843246, 0.09492785483598709, 0.13622941076755524, 0.09339350461959839, 0.09230272471904755, 0.10390771180391312, 0.06773574650287628, 0.106064572930336, 0.01620383746922016, 0.0397196002304554, 0.04433262720704079, 0.05296839401125908, 0.06741955131292343, 0.04183904826641083, 0.018015343695878983, 0.07942178100347519, 0.04538103565573692, 0.06249716877937317, -0.0248226597905159, 0.027630042284727097, 0.022426733747124672, 0.047414928674697876, 0.05886593833565712, 0.057502586394548416, 0.04230958968400955, 0.0564565546810627, 0.05871176719665527, 0.04480166733264923, 0.012814786285161972, 0.026636863127350807, 0.047342777252197266, 0.007715542335063219, 0.04425820708274841, 0.05544721335172653, 0.024920238181948662, 0.06056096777319908, 0.009314310736954212, 0.05266484618186951, -0.005568051710724831, -0.029025830328464508, 0.03800768032670021, 0.039773762226104736, -0.04161226749420166, 0.02958275005221367, 0.028846196830272675, -0.03724512457847595, 0.002237774897366762, -0.07087752223014832, 0.0500873439013958, 0.09239462018013, 0.011701051145792007, 0.03339870274066925, 0.03962596505880356, 0.022821195423603058, 0.02533719688653946, 0.06948147714138031, 0.20421308279037476, -1.0178643465042114, -0.03485802933573723, -0.08864250779151917, -0.6084575057029724, -0.00927137490361929, -0.5763770937919617, 0.055797092616558075], [0.014477625489234924, 0.04451631382107735, 0.011046173050999641, -0.03698720410466194, -0.10856643319129944, -0.07579895108938217, -0.061730485409498215, 0.08522921055555344, 0.08298895508050919, -0.04121384397149086, 0.03138027340173721, -0.02245153859257698, -0.007163309957832098, -0.15678314864635468, -0.19794654846191406, -0.19433538615703583, -0.19734036922454834, -0.03306788206100464, -0.05846431106328964, 0.002077870536595583, -0.021801037713885307, -0.05491756275296211, -0.013393957167863846, -0.18378303945064545, 0.000278667313978076, -0.061501648277044296, -0.06519065797328949, -0.07432310283184052, -0.0012857464607805014, 0.06227557733654976, -0.1047966405749321, -0.028368869796395302, -0.11796770244836807, -0.12677101790905, -0.1727149933576584, -0.24292241036891937, -0.10885093361139297, -0.11299706995487213, -0.1544959992170334, 0.03187985345721245, -0.1504024714231491, -0.03069917857646942, -0.11473452299833298, -0.21397905051708221, -0.21006622910499573, -0.25788548588752747, 0.021716825664043427, 0.01136382482945919, -0.1717522144317627, -0.22082790732383728, -0.04814574867486954, 0.21989083290100098, -0.10179135948419571, -0.0014118679100647569, -0.21209721267223358, 0.013422519899904728, -0.3293735682964325, -0.2710062265396118, -0.0012412213254719973, -0.2221318483352661, -0.14073620736598969, -0.0748601108789444, -0.06214584410190582, 0.029528506100177765, -0.14417456090450287, 0.0874769538640976, -0.19677549600601196, -0.15057696402072906, -0.048323459923267365, -0.012800934724509716, -0.09840286523103714, -0.25265857577323914, -0.052429426461458206, 0.009464135393500328, -0.14206673204898834, 0.080853670835495, -0.12182220071554184, -0.26441818475723267, 0.09171158075332642, -0.04155319556593895, -0.07698845118284225, -0.013103360310196877, 0.06563609093427658, -0.02885236218571663, -0.6321724057197571, -0.08644140511751175, -0.17478793859481812, -0.09247329831123352, -0.05223884433507919, 0.0823369100689888, -0.0662820041179657, 0.13374581933021545, 0.10285373032093048, 0.06642299145460129, -0.14099964499473572, 0.09088987857103348, 0.047806039452552795, -0.1809106320142746, 0.04985317587852478, -0.0630994364619255, 0.022280996665358543, 0.017540473490953445, -0.054149337112903595, 0.14535589516162872, -0.055112309753894806, 0.1249348521232605, 0.03225439041852951, -0.09568996727466583, 0.03862476721405983, -0.06676699221134186, 0.0035529418382793665, 0.026585830375552177, -0.11654318124055862, 0.1375390887260437, -0.10529327392578125, 0.052800510078668594, -0.0904572457075119, 0.06742425262928009, 0.012990592047572136, 0.07509995996952057, -0.0063976384699344635, -0.02192273549735546, -0.07299724966287613, -0.03924752026796341, -0.03831738233566284, 0.07617191225290298, -0.0021489374339580536, 0.0023989758919924498, 0.056292444467544556, -0.028799723833799362, 0.0992511436343193, 0.00708455266430974, 0.005609455052763224, -0.08482159674167633, 0.04109012708067894, -0.01380836870521307, -0.031449094414711, 0.08027705550193787, -0.10789181292057037, -0.15812146663665771, -0.05803512781858444, -0.08369801938533783, -0.0017111226916313171, -0.04115895926952362, 0.0577537901699543, 0.03447176516056061, 0.00022197408543433994, -0.027998825535178185, 0.002299831947311759, 0.012846612371504307, 0.026428699493408203, -0.04887442663311958, 0.07770412415266037, -0.07804440706968307, -0.027493631467223167, 0.006040803622454405, -0.04364766180515289, 0.060648005455732346, -0.049163851886987686, 0.03624682128429413, -0.003509337082505226, 0.11974164098501205, 0.054462406784296036, 0.02581864781677723, 0.1085040494799614, 0.00598209397867322, -0.03863333910703659, -0.07346167415380478, -0.14954175055027008, 0.18022428452968597, -0.09756715595722198, 0.03597943112254143, 0.12187423557043076, 0.051674507558345795, 0.028070956468582153, -0.04242146015167236, -0.012796586379408836, 0.2332897037267685, -0.08979781717061996, -0.14617948234081268, -0.05124402046203613, 0.04555274546146393, -0.03876752406358719, -0.03215780481696129, -0.007839209400117397, 0.03256148099899292, 0.013272990472614765, 0.07684124261140823, 0.010209718719124794, -0.007850054651498795, -0.03978665918111801, 0.16928082704544067, -0.05926254764199257, 0.014297082088887691, 0.0108382822945714, 0.047465208917856216, -0.04377460107207298, -0.10170257091522217, 0.031373005360364914, -0.09249012172222137, -0.033663295209407806, -0.048613157123327255, -0.07034297287464142, -0.013684353791177273, 0.030882472172379494, -0.052270323038101196, -0.03972486034035683, 0.05040355399250984, 0.9787463545799255, -0.05988992005586624, 0.10521620512008667, 0.15628348290920258, 0.006496111396700144, 1.6200671195983887, 0.007273152936249971], [-0.0734495297074318, 0.02109241858124733, -0.06467994302511215, 0.055842943489551544, -0.1722860336303711, -0.04540747031569481, 0.029070673510432243, 0.02185419574379921, 0.008677206933498383, 0.058338429778814316, 0.02629454992711544, -0.0963449478149414, 0.1110672578215599, -0.0901278406381607, -0.1494230329990387, -0.21461041271686554, -0.10403726994991302, -0.0017959701362997293, 0.05305018648505211, -0.024923451244831085, 0.02327466569840908, 0.05007714778184891, -0.025550609454512596, -0.12425196915864944, -0.17136381566524506, -0.015104501508176327, 0.0186287984251976, 0.06657090783119202, 0.0391925647854805, 0.07787183672189713, -0.08056091517210007, 0.0004771028470713645, -0.0001421043707523495, -0.19550399482250214, -0.026732606813311577, -0.11553743481636047, -0.11226075142621994, 0.06186027079820633, 0.004607645329087973, 0.017525605857372284, -0.018765980377793312, -0.08833242207765579, 0.023282602429389954, -0.021063270047307014, -0.17735078930854797, -0.21864278614521027, -0.12754134833812714, -0.1083865687251091, -0.006000607740134001, 0.17311345040798187, -0.4242003858089447, -0.11081298440694809, 0.012141555547714233, -0.09275040030479431, -0.17923814058303833, -0.16552211344242096, 0.08922235667705536, -0.02619137614965439, 0.0064701540395617485, 0.01567162573337555, 0.19459755718708038, 0.2829831838607788, -0.13452616333961487, -0.2058507800102234, -0.2263166904449463, -0.16153711080551147, 0.04617743194103241, -0.16102251410484314, -0.008223375305533409, -0.147096186876297, 0.07015512883663177, 0.19293010234832764, 0.11406759172677994, 0.12288908660411835, 0.005760943051427603, -0.33770108222961426, -0.1504598706960678, 0.14563533663749695, -0.03883613273501396, 0.21691404283046722, -0.29320627450942993, -0.20194213092327118, -0.06980130076408386, 0.3055584132671356, 0.20709553360939026, -0.30362483859062195, -0.019996289163827896, 0.06448571383953094, 0.0010078491177409887, 0.03000408038496971, -0.23106519877910614, -0.1964612603187561, -0.14404813945293427, 0.014939101412892342, 0.07966386526823044, -0.07826641947031021, -0.1440412551164627, 0.042284876108169556, -0.057506438344717026, -0.025563927367329597, 0.049339622259140015, 0.09838211536407471, -0.0749051570892334, 0.11089789122343063, 0.010639673098921776, -0.08193180710077286, 0.14593340456485748, -0.013849589973688126, -0.038239918649196625, -0.023313233628869057, -0.027558153495192528, 0.016148766502738, 0.08036033064126968, -0.04954887554049492, -0.1002449244260788, 0.014416438527405262, -0.15077471733093262, -0.0699717178940773, 0.16451473534107208, 0.1078077107667923, 0.15828204154968262, 0.059430308640003204, -0.04927825927734375, -0.14991600811481476, -0.024137750267982483, -0.05709197372198105, 0.12693612277507782, -0.007897968403995037, -0.06549578160047531, -0.12237469851970673, 0.029993614181876183, -0.11205581575632095, 0.10171103477478027, 0.08533119410276413, 0.030688878148794174, 0.10059715062379837, -0.05055252090096474, -0.10257743299007416, -0.04294105991721153, -0.05419478192925453, -0.09778077155351639, -0.078290194272995, 0.14660346508026123, 0.0022255093790590763, 0.09430485963821411, 0.03893701732158661, -0.05552050471305847, 0.016896259039640427, 0.011464903131127357, 0.04870535433292389, -0.03595630079507828, 0.016699964180588722, 0.1303585022687912, -0.0023746469523757696, -0.014016078785061836, -0.042060088366270065, -0.03204312548041344, 0.007682171184569597, -0.02590663731098175, -0.008372239768505096, 0.016495194286108017, 0.00535161979496479, 0.08383847028017044, -0.06629234552383423, -0.1346554458141327, 0.018500637263059616, -0.08053518086671829, 0.1049167737364769, -0.0431007519364357, 0.11350410431623459, -0.0144411725923419, -0.051990360021591187, 0.018521452322602272, 0.04507625102996826, 0.005430946592241526, 0.05240645632147789, -0.048353031277656555, 0.03963233530521393, 0.053735993802547455, -0.12956012785434723, 0.030089732259511948, -0.0521208830177784, 0.02576639875769615, 0.08504541963338852, -0.04743223264813423, -0.17212890088558197, -0.031003698706626892, 0.10002158582210541, 0.052621547132730484, 0.08936513960361481, 0.031120186671614647, 0.010142803192138672, -0.02491970732808113, -0.0033198476303368807, -0.07049804925918579, 0.09984036535024643, -0.0032561118714511395, -0.13255323469638824, 0.02708633989095688, -0.07010063529014587, -0.08155287057161331, -0.09822443872690201, 0.015505705028772354, -0.05890925973653793, 0.030795270577073097, -0.046008992940187454, -0.024751128628849983, 0.07334527373313904, 0.4533434808254242, -0.04638654738664627, 0.06829922646284103, 0.20930473506450653, 0.008182452991604805, 0.4824797213077545, -0.006138920783996582], [0.021074704825878143, 0.0402466244995594, -0.08679313957691193, -0.021809080615639687, 0.003739010076969862, 0.043059442192316055, 0.003663980634883046, -0.022890325635671616, -0.19265444576740265, -0.10463690012693405, 0.027631394565105438, 0.04650634154677391, 0.032905463129282, -0.1352294683456421, -0.07478246092796326, 0.008025293238461018, -0.1365717202425003, 0.023993708193302155, -0.015035849995911121, -0.005503261927515268, -0.04293384775519371, -0.015158421359956264, 0.10575225204229355, -0.034769121557474136, 0.014679258689284325, -0.06509199738502502, -0.012182969599962234, 0.013581769540905952, 0.17985689640045166, 0.18252648413181305, -0.05520305782556534, 0.06934499740600586, 0.09871671348810196, -0.1895202398300171, 0.03146902099251747, 0.06962468475103378, -0.09951432049274445, 0.09155073761940002, -0.00022685764997731894, 0.1564798653125763, 0.08274396508932114, 0.10036823898553848, 0.03023509867489338, -0.01612979732453823, -0.05355476960539818, -0.07076966762542725, -0.1442490518093109, -0.02468731813132763, 0.155033677816391, 0.22288669645786285, 0.07777515053749084, -0.03321690112352371, 0.038173504173755646, -0.15141019225120544, -0.0715973824262619, -0.022609718143939972, -0.02961527369916439, 0.03909438103437424, 0.0041754781268537045, 0.13195282220840454, 0.04087688773870468, -0.20399628579616547, 0.028097078204154968, 0.13251301646232605, 0.19229036569595337, 0.1597973108291626, -0.05524217337369919, 0.16466344892978668, 0.2070925533771515, 0.19888576865196228, -0.1628526747226715, -0.08656176924705505, 0.13732948899269104, 0.1150548979640007, -0.13693436980247498, 0.0012512666871771216, 0.06060226634144783, -0.15800726413726807, 0.336931973695755, 0.13517606258392334, 0.0022373581305146217, -0.281039834022522, 0.22390252351760864, 0.16030289232730865, 0.06582970917224884, 0.03629568591713905, 0.037016525864601135, 0.22154255211353302, 0.02423037588596344, 0.08542464673519135, 0.11821253597736359, -0.19016937911510468, -0.04620954021811485, 0.06350883096456528, -0.025953998789191246, -0.025776468217372894, -0.060531388968229294, -0.042348481714725494, -0.21487794816493988, -0.08171127736568451, -0.026490988209843636, -0.21860116720199585, 0.1294621229171753, 0.1581011861562729, -0.053000956773757935, -0.05901014059782028, -0.13792474567890167, 0.05719578638672829, 0.10889901220798492, -0.10460951179265976, -0.09654849022626877, -0.1172439381480217, -0.13714677095413208, -0.054426345974206924, -0.05722411349415779, -0.04890570044517517, -0.19298473000526428, -0.026679400354623795, -0.17733590304851532, -0.1808849722146988, 0.017033779993653297, -0.15870662033557892, -0.04986361414194107, -0.09418636560440063, -0.07042473554611206, -0.13272622227668762, -0.09780292212963104, -0.12576068937778473, -0.06667844951152802, -0.18073831498622894, 0.05939885228872299, -0.0319429449737072, -0.06896346062421799, 0.10387817025184631, 0.026140108704566956, 0.06227177008986473, -0.06795015931129456, 0.039375580847263336, 0.029702235013246536, -0.09980402141809464, 0.09386396408081055, 0.057898830622434616, -0.018423447385430336, -0.014947650954127312, 0.03461945801973343, 0.03963935375213623, -0.02338443696498871, -0.03476500138640404, 0.052859850227832794, -0.07548382878303528, 0.06546091288328171, 0.09618178755044937, -0.03224935382604599, -0.01859969273209572, 0.010322624817490578, -0.07537492364645004, -0.09980513900518417, 0.08783640712499619, 0.06474541127681732, -0.06693097203969955, 0.02904313988983631, -0.024390017613768578, -0.1195412278175354, 0.042085301131010056, -0.055951498448848724, -0.05178119242191315, -0.11855799704790115, 0.05177073925733566, 0.027334412559866905, -0.04908640310168266, 0.11768186837434769, 0.016174238175153732, -0.0024962301831692457, 0.05503561720252037, -0.010152230970561504, 0.014926144853234291, -0.004144262056797743, -0.006519262678921223, 0.04202226176857948, -0.013300025835633278, -0.02304188534617424, -0.08906090259552002, -0.04113366827368736, -0.004496749024838209, 0.028759818524122238, -0.0014331159181892872, -0.0002045557921519503, -0.001860842457972467, 0.026730051264166832, -0.003000983502715826, 0.11440038681030273, 0.0017616422846913338, 0.021392889320850372, -0.03098364546895027, 0.050679758191108704, 0.04664535075426102, 0.00853819865733385, -0.005957471206784248, 0.04231364279985428, 0.05237751826643944, 0.237566277384758, 0.1470731645822525, 0.1826968938112259, -0.014003231190145016, 0.1275358498096466, 0.18740501999855042, 0.05957146733999252, 0.24018366634845734, -0.19249345362186432, 0.09114881604909897, -0.006753312889486551, -0.1131298616528511, 0.012219357304275036, 0.30905961990356445, -0.005035941489040852], [-0.017975490540266037, 0.031241467222571373, 0.028785958886146545, -0.06097382307052612, -0.11345924437046051, -0.20638048648834229, -0.06396007537841797, -0.07325950264930725, -0.01500077173113823, 0.029395049437880516, -0.06294624507427216, 0.04111284017562866, 0.04995923489332199, -0.2671625316143036, -0.19594663381576538, -0.4964199662208557, 0.11692067980766296, 0.15630945563316345, 0.024353239685297012, -0.07107381522655487, -0.05170411989092827, -0.07841380685567856, -0.12788809835910797, -0.18878011405467987, -0.15128551423549652, -0.16642038524150848, -0.03394010663032532, 0.05501934513449669, -0.09717748314142227, -0.053319986909627914, 0.009125071577727795, -0.09458513557910919, -0.3021855354309082, -0.24857006967067719, -0.2030722051858902, -0.13334184885025024, 0.007280441932380199, 0.11084136366844177, -0.009447143413126469, -0.0682138055562973, 0.034463539719581604, 0.0906640961766243, -0.24564988911151886, -0.026097888126969337, -0.2092466950416565, -0.14451025426387787, -0.04100537672638893, -0.012070284225046635, -0.004781461786478758, -0.1720021367073059, 0.0718655213713646, 0.16546551883220673, -0.0928698256611824, -0.18092511594295502, 0.08899644017219543, 0.06717002391815186, -0.030076151713728905, 0.028104227036237717, 0.09904450923204422, -0.04953084886074066, 0.0766984075307846, 0.023961078375577927, -0.09056045114994049, -0.1545572578907013, -0.027144910767674446, 0.13304051756858826, 0.21837851405143738, -0.06136051192879677, 0.012524125166237354, 0.000504417228512466, 0.17791876196861267, 0.11012864112854004, -0.07860174775123596, -0.149234801530838, -0.035545714199543, 0.13162411749362946, -0.07528378069400787, 0.07295401394367218, -0.07216163724660873, -0.1426018476486206, 0.13643307983875275, -0.04542255029082298, -0.18018367886543274, -0.07889217138290405, 0.018514050170779228, -0.07253212481737137, 0.029855210334062576, -0.052527375519275665, 0.030517281964421272, 0.08723951131105423, -0.0905376598238945, 0.09082624316215515, -0.07322929054498672, 0.057781849056482315, 0.012995472177863121, 0.07252390682697296, 0.10721570253372192, 0.02954334393143654, 0.14801502227783203, 0.07564575970172882, 0.048846665769815445, -0.0245417021214962, 0.029771681874990463, 0.005171099677681923, -0.11431153118610382, -0.03922133520245552, -0.024217873811721802, -0.062088679522275925, -0.02274632640182972, -0.0015662778168916702, 0.09915126860141754, -0.09999486804008484, -0.010991550050675869, -0.022927891463041306, -0.10981407016515732, -0.041528984904289246, -0.05347694456577301, 0.04122377187013626, -0.10730376839637756, 0.13828909397125244, 0.03800831735134125, 0.01827000081539154, 0.056567151099443436, -0.03665487468242645, -0.024577410891652107, 0.04267624765634537, -0.08205162733793259, -0.016796719282865524, -0.030979977920651436, -0.02227827161550522, -0.0037921445909887552, -0.10049652308225632, 0.009833014570176601, -0.021261708810925484, 0.015953216701745987, -0.03331374004483223, -0.06701759994029999, 0.014392063952982426, 0.11472272127866745, -0.12512001395225525, 0.052971694618463516, 0.09083762019872665, 0.06472287327051163, -0.10065624117851257, 0.04924248158931732, 0.06351550668478012, 0.02508513256907463, -0.13806451857089996, 0.044993478804826736, -0.03605130687355995, -0.07527092099189758, -0.014058631844818592, 0.06877826154232025, -0.006268879398703575, -0.010486414656043053, -0.074591726064682, 0.12843437492847443, -0.10600736737251282, 0.036339931190013885, 0.12052763253450394, 0.003585484577342868, 0.04361714795231819, 0.0510936938226223, -0.15934130549430847, -0.07378913462162018, 0.151838019490242, 0.030352089554071426, 0.08375497162342072, -0.03260856121778488, -0.06367222219705582, 0.07081715762615204, 0.03977442532777786, 0.05488765612244606, -0.097781702876091, 0.04097055271267891, 0.011196631006896496, 0.10836481302976608, -0.17733359336853027, -0.029850933700799942, -0.024960296228528023, -0.020375320687890053, -0.01014731265604496, -0.009797844104468822, -0.030409447848796844, 0.044440411031246185, -0.10258716344833374, 0.06015276908874512, 0.015448090620338917, -0.0040007526986300945, -0.04088814929127693, -0.09044010192155838, 0.060863595455884933, 0.009178223088383675, -0.06697120517492294, -0.08911427110433578, -0.08202717453241348, -0.04274863004684448, -0.00861002691090107, -0.0661221444606781, 0.0032527856528759003, 0.001067370641976595, -0.0893607959151268, -0.08208603411912918, -0.0618835873901844, -0.09543092548847198, -0.0484638474881649, 0.029646025970578194, 0.05280199646949768, 1.166631817817688, -0.020917179062962532, 0.12480241060256958, -0.0027873748913407326, -0.005414454732090235, 0.6811150312423706, -0.010096799582242966], [0.012451773509383202, -0.051555242389440536, -0.12388136237859726, -0.13449464738368988, -0.2003917247056961, -0.051089558750391006, -0.10027291625738144, 0.03115180693566799, -0.06164957955479622, 0.047303441911935806, -0.07895106822252274, -0.0629999116063118, -0.11985871195793152, 0.08900967240333557, -0.2357105016708374, -0.028515415266156197, -0.06356928497552872, -0.007302781101316214, -0.08093526214361191, 0.020393680781126022, -0.022783707827329636, 0.02699039876461029, -0.04966682568192482, -0.05796041712164879, -0.18824945390224457, -0.20156978070735931, -0.09153686463832855, 0.044861748814582825, -0.08417100459337234, 0.013581646606326103, -0.08947443962097168, -0.04984763637185097, -0.027042750269174576, -0.06685580313205719, -0.1479146033525467, -0.39601415395736694, -0.2038552314043045, -0.18521714210510254, 0.01564568094909191, -0.053936079144477844, -0.06587662547826767, -0.013572950847446918, -0.1753692924976349, -0.09981588274240494, -0.2435033768415451, -0.3442138731479645, -0.15529823303222656, -0.09051540493965149, 0.05300242453813553, -0.0565863735973835, 0.04711592569947243, 0.08176938444375992, -0.11642254143953323, -0.20099325478076935, -0.18271365761756897, -0.2865581512451172, -0.20831161737442017, -0.06489129364490509, 0.006157213822007179, 0.010999497026205063, 0.041904889047145844, 0.029940543696284294, -0.2609507441520691, -0.31165313720703125, 0.017766090109944344, -0.12254887074232101, -0.10405535995960236, -0.013953985646367073, 0.05296832695603371, 0.009999101981520653, -0.008524870499968529, -0.0356258898973465, -0.1407594531774521, -0.12005403637886047, 0.02724490687251091, -0.03332028165459633, 0.0576975978910923, -0.02542688325047493, 0.02279832772910595, -0.057207200676202774, -0.02361888997256756, 0.07142093777656555, -0.09795588254928589, 0.004974196664988995, 0.04845041781663895, -0.07036353647708893, -0.10586059093475342, -0.0066389660350978374, 0.09336495399475098, -0.004326286260038614, 0.11321107298135757, -0.03732055425643921, 0.0014974265359342098, -0.06031601503491402, 0.011521655134856701, -0.03856820613145828, 0.0018441107822582126, -0.04818491265177727, 0.07377839088439941, 0.08756105601787567, -0.014940331690013409, 0.022579843178391457, -0.0036958761047571898, 0.0182401891797781, 0.08860339224338531, -0.005827707704156637, 0.10032383352518082, -0.016568150371313095, -0.052757274359464645, -0.021793561056256294, -0.0626218393445015, -0.023494964465498924, 0.13037951290607452, 0.051428597420454025, 0.05346068739891052, -0.02772541716694832, -0.05724583938717842, -0.00455341674387455, 0.11028923094272614, 0.1835968792438507, -0.008272725157439709, 0.09624394029378891, 0.1257532387971878, 0.13414733111858368, 0.01128275878727436, 0.06318756937980652, -0.06254107505083084, 0.028561193495988846, 0.052598681300878525, 0.06772247701883316, 0.08824921399354935, 0.07455930858850479, 0.17093788087368011, 0.06883277744054794, 0.05923357605934143, 0.11579492688179016, 0.07672669738531113, 0.07616076618432999, 0.03486766666173935, 0.054473403841257095, -0.030609408393502235, 0.05129396170377731, 0.1021880954504013, 0.06804205477237701, 0.03599885478615761, 0.026476455852389336, 0.06437429785728455, 0.05842312052845955, 0.05659374222159386, 0.026062797755002975, 0.02825232967734337, 0.06939896941184998, 0.12711147964000702, 0.013684652745723724, 0.053718451410532, 0.012998980470001698, 0.04812842234969139, -0.04393937066197395, 0.03897247090935707, 0.03750358521938324, -0.0730656161904335, 0.019435031339526176, 0.052679307758808136, 0.05550823360681534, -0.035211410373449326, -0.00935241486877203, 0.027232864871621132, -0.02359815128147602, 0.015473872423171997, 0.00026969288592226803, 0.04604077711701393, 0.027531182393431664, 0.13973233103752136, 0.06231357529759407, 0.08226244151592255, 0.0980561301112175, 0.039868783205747604, 0.08492410182952881, 0.01848118007183075, 0.004328272305428982, 0.017188824713230133, 0.03713316470384598, 0.02645704708993435, 0.11393027007579803, -0.050021879374980927, 0.045299626886844635, -0.06256330758333206, -0.08656415343284607, -0.023911556228995323, -0.06105876341462135, -0.10025911033153534, -0.025471339002251625, -0.03698858618736267, -0.053474508225917816, -0.09806934744119644, 0.002964452374726534, -0.036558911204338074, -0.04178030416369438, -0.09564293920993805, -0.026119019836187363, 0.11000760644674301, 0.01192742120474577, 0.04779564216732979, 0.06714659929275513, -0.020381473004817963, -0.021635999903082848, -0.03905922546982765, 0.07062308490276337, -1.6487936973571777, -0.03898611664772034, -0.1697486937046051, -0.2523512840270996, 0.012459789402782917, -0.39867541193962097, 0.03597886115312576], [-0.028243480250239372, -0.013300925493240356, 0.03478536382317543, -0.0367414765059948, -0.19687144458293915, 0.012325822375714779, -0.13394054770469666, -0.0042479997500777245, -0.04964543133974075, 0.004264696501195431, -0.04991364851593971, -0.02588598057627678, -0.011809216812252998, 0.15135234594345093, -0.04919194430112839, -0.002822787268087268, -0.056995511054992676, -0.04592962935566902, -0.07418765127658844, 0.012644344940781593, 0.007415476720780134, -0.05972033366560936, -0.03460089862346649, -0.02010428160429001, -0.2571983337402344, 0.012067284435033798, -0.015119483694434166, -0.07312886416912079, -0.005827354267239571, 0.005338435992598534, -0.04907817393541336, -0.04209726303815842, 0.037697307765483856, -0.07986484467983246, -0.18715758621692657, -0.07707931846380234, 0.0028544277884066105, -0.11439479142427444, -0.026003161445260048, 0.001586940255947411, 0.08558697253465652, -0.04447653144598007, -0.0019498689798638225, -0.0159589946269989, -0.04257279261946678, -0.10481278598308563, -0.1078820750117302, -0.17062677443027496, -0.11148785054683685, -0.09740801155567169, -0.127608060836792, -0.17731332778930664, -0.12135382741689682, -0.13405780494213104, 0.10798006504774094, -0.16828744113445282, -0.17889897525310516, -0.17761331796646118, -0.23264190554618835, -0.5094659924507141, -0.06938952952623367, -0.05070454254746437, -0.05904095619916916, -0.025637632235884666, -0.08479342609643936, -0.23763205111026764, -0.12477242201566696, -0.2320922315120697, -0.2359067052602768, -0.17498983442783356, 0.07360269874334335, 0.047869402915239334, -0.1976669579744339, -0.1105676144361496, -0.09782999753952026, -0.14503835141658783, -0.19956226646900177, -0.11928033083677292, 0.0495280846953392, -0.059587329626083374, -0.19829465448856354, 0.17885743081569672, -0.16452954709529877, 0.03011956438422203, 0.1072060614824295, 0.03748193010687828, -0.18802259862422943, 0.027049502357840538, 0.0011762059293687344, -0.0060235681012272835, -0.0610031820833683, -0.06245213374495506, -0.014197728596627712, -0.08706153184175491, -0.042865775525569916, -0.03668007627129555, -0.02082536369562149, -0.0527191236615181, -0.013749150559306145, -0.0402488186955452, -0.03349475562572479, -0.05859992280602455, -0.025557713583111763, 0.09346773475408554, 0.07615085691213608, -0.041217558085918427, 0.02434425801038742, 0.020968785509467125, -0.07736705988645554, 0.048577841371297836, -0.04117560386657715, -0.1866942048072815, 0.026208309456706047, -0.008082405664026737, -0.026933817192912102, 0.08436780422925949, 0.04954037070274353, -0.006977005861699581, -0.11721237003803253, -0.03242631256580353, -0.2287464290857315, -0.2002478688955307, -0.11243752390146255, -0.003016540315002203, -0.10354164987802505, -0.02303207293152809, -0.024732204154133797, -0.03307484835386276, -0.001107173622585833, -0.0287348460406065, -0.22054170072078705, -0.21240873634815216, -0.15175752341747284, -0.03265814483165741, -0.050829093903303146, -0.0778871402144432, -0.02250218763947487, -0.0644298791885376, -0.1628451943397522, -0.08556157350540161, -0.10227329283952713, -0.10341934859752655, 0.02069864794611931, 0.03439713642001152, -0.033991556614637375, 0.013505961745977402, 0.030581293627619743, -0.008307702839374542, -0.043807897716760635, -0.06409358978271484, -0.11961419135332108, -0.04339940845966339, 0.0369609110057354, 0.02113872393965721, -0.030242906883358955, 0.026090649887919426, -0.00506509467959404, -0.03289102762937546, -0.03315639868378639, -0.08657535165548325, -0.04364866390824318, -0.0032399436458945274, 0.039636556059122086, 0.001758611062541604, -0.03511695936322212, -0.03489944338798523, 0.04873239994049072, -0.07930350303649902, 0.058615539222955704, -0.023693928495049477, 0.043292414397001266, 0.08239270001649857, 0.03515617176890373, 0.08111250400543213, -0.04243829473853111, -0.027418658137321472, 0.024456094950437546, -0.07304099202156067, 0.06300633400678635, -0.005057726055383682, 0.009882823564112186, 0.15440568327903748, 0.09369929134845734, 0.005310697015374899, 0.112467922270298, 0.042524587363004684, 0.023465288802981377, 0.05419286713004112, -0.004745230544358492, 0.05326765403151512, 0.020806169137358665, 0.02452167123556137, 0.06734505295753479, 0.021914420649409294, 0.06870169192552567, 0.06722784042358398, 0.07799126207828522, 0.035780005156993866, 0.06064257025718689, 0.05776102468371391, 0.24932438135147095, 0.31511855125427246, 0.2500936985015869, 0.3166843354701996, 0.2704629600048065, 0.24183711409568787, 0.1849270761013031, 0.5080541968345642, -0.38845792412757874, 0.13659034669399261, -0.033549197018146515, 0.22273364663124084, -0.008563322015106678, 0.6789262294769287, -0.016702283173799515], [0.0021054232493042946, -0.03777376189827919, -0.012366214767098427, -0.0055551775731146336, -0.09611654281616211, -0.3429235816001892, 0.02082664519548416, 0.08638273924589157, -0.007963486947119236, 0.005517297424376011, -0.0007912602159194648, -0.025845276191830635, -0.06345512717962265, -0.20745034515857697, -0.26027730107307434, -0.2290775179862976, 0.07137513905763626, 0.1742727905511856, -0.008531426079571247, -0.018375558778643608, 0.038831327110528946, -0.038353245705366135, -0.01913389191031456, -0.22665120661258698, -0.24969467520713806, -0.1656113564968109, -0.06072721630334854, 0.1096416711807251, -0.030298268422484398, 0.014100667089223862, 0.01322714239358902, -0.049147412180900574, -0.09053535014390945, -0.28564417362213135, -0.20008757710456848, -0.1757674217224121, -0.11092139780521393, 0.0829753503203392, 0.007171540055423975, 0.017252648249268532, -0.05144555866718292, -0.11812129616737366, -0.0838029533624649, -0.3552916646003723, -0.09769172966480255, -0.30489981174468994, -0.1025284081697464, 0.1366451233625412, -0.04623500630259514, -0.020359180867671967, -0.017326723784208298, -0.07656221836805344, -0.061361685395240784, -0.3099944591522217, -0.14469082653522491, -0.45069077610969543, 0.11857181042432785, -0.026747459545731544, -0.06952067464590073, -0.22254133224487305, -0.23656068742275238, -0.015296835452318192, 0.007926829159259796, -0.019471347332000732, 0.15229660272598267, -0.06235724315047264, 0.06424150615930557, -0.15994608402252197, -0.0476507693529129, -0.1950773447751999, -0.48761436343193054, -0.06329823285341263, 0.15506400167942047, -0.19585637748241425, 0.36493781208992004, 0.08596093207597733, 0.20640701055526733, -0.0776292234659195, -0.26227131485939026, -0.3592023253440857, -0.17275597155094147, -0.3609222173690796, -0.11016015708446503, -0.12610690295696259, -0.05787651240825653, -0.036517318338155746, 0.11119680106639862, -0.002965424209833145, -0.0182951632887125, -0.24276992678642273, -0.281345397233963, -0.19636133313179016, -0.0010486782994121313, -0.1160082221031189, 0.06394963711500168, -0.17160333693027496, -0.12338367849588394, -0.42741361260414124, -0.19996465742588043, 0.05499294027686119, -0.26620087027549744, -0.10042925924062729, -0.12693414092063904, -0.3718608021736145, -0.15633033215999603, -0.18265919387340546, -0.142644003033638, -0.2673094570636749, -0.25041109323501587, -0.11080087721347809, -0.2421170324087143, -0.37305793166160583, -0.27031394839286804, -0.22452835738658905, -0.24493514001369476, -0.21338410675525665, -0.2593293786048889, -0.2468789964914322, -0.2908235490322113, -0.1539296805858612, 0.00427672965452075, -0.03086739033460617, -0.012901310808956623, -0.030326494947075844, 0.08546747267246246, -0.019246039912104607, 0.054695554077625275, -0.05219775810837746, -0.07335982471704483, -0.15542730689048767, -0.028506960719823837, -0.09664789587259293, -0.13182687759399414, 0.026620369404554367, -0.003104392671957612, -0.019107377156615257, -0.10140687227249146, -0.08241378515958786, -0.03451210632920265, -0.07464519143104553, -0.0895533487200737, -0.014301334507763386, -0.028272481635212898, -0.04934457689523697, -0.07496800273656845, -0.12667511403560638, -0.10507047921419144, -0.10696649551391602, 0.032045066356658936, -0.1104135662317276, 0.01865456812083721, 0.1284322738647461, 0.06324946135282516, -0.020428739488124847, 0.025492191314697266, -0.09253319352865219, -0.007175716571509838, -0.00613769656047225, 0.15679137408733368, 0.14576730132102966, -0.010264920070767403, 0.08031512051820755, 0.0029509286396205425, 0.06564892828464508, 0.09725413471460342, 0.07882601767778397, -0.08399617671966553, -0.0810004472732544, 0.06643083691596985, -0.013899516314268112, 0.07356047630310059, 0.11215710639953613, 0.038837987929582596, -0.088995561003685, 0.013713020831346512, 0.07808495312929153, 0.05573669821023941, -0.043293148279190063, 0.08450161665678024, 0.14563995599746704, -0.003269111504778266, -0.01411975547671318, -0.04205229878425598, -0.02231443114578724, 0.05959618464112282, -0.034924570471048355, 0.028833817690610886, -0.029711298644542694, 0.10068457573652267, 0.09196878224611282, 0.13561616837978363, 0.1345985382795334, -0.0008751097484491765, 0.1913054883480072, 0.013361363671720028, 0.10921274870634079, 0.08617404848337173, 0.08972319960594177, 0.14348351955413818, 0.14609761536121368, 0.20391127467155457, 0.08229829370975494, 0.14716646075248718, 0.02033616416156292, 0.19954293966293335, 0.3254253566265106, 0.09327871352434158, 0.16449767351150513, -0.2606629729270935, 0.13773474097251892, -0.001399601111188531, 0.03526993840932846, 0.0005143998423591256, 0.04570600390434265, 0.0010953100863844156], [0.034782156348228455, 0.031155630946159363, -0.04745513200759888, -0.02447943389415741, -0.11624085158109665, -0.23582927882671356, -0.07052178680896759, -0.07031555473804474, -0.04409267380833626, -0.07137089222669601, -0.05657597631216049, -0.004454675130546093, -0.09754578769207001, -0.4624534249305725, -0.010041266679763794, -0.23968113958835602, -0.21341314911842346, -0.2447795569896698, -0.04860140383243561, -0.06660817563533783, -0.1677485704421997, 0.014761206693947315, -0.0950113832950592, -0.15460160374641418, -0.2912437617778778, -0.12075445801019669, -0.1316174566745758, -0.12338138371706009, 0.003703091759234667, -0.031730540096759796, -0.023465506732463837, -0.004511076956987381, -0.06496647745370865, -0.03444581851363182, -0.21333803236484528, -0.07704091817140579, 0.03100736066699028, -0.14780429005622864, -0.036005835980176926, -0.03980214148759842, -0.09623535722494125, -0.22035080194473267, -0.10203606635332108, -0.16024847328662872, -0.18858011066913605, -0.23043791949748993, -0.22594305872917175, -0.05349874123930931, 0.0035181825514882803, -0.002475315472111106, 0.05220053717494011, -0.05870309844613075, 0.0635170191526413, -0.11605367064476013, -0.2186821550130844, -0.19344794750213623, -0.08016406744718552, 0.0609792023897171, 0.08536530286073685, -0.0512150339782238, 0.027861565351486206, 0.03486746549606323, 0.038433242589235306, -0.04504375904798508, -0.1484093964099884, -0.11375202238559723, -0.06480787694454193, 0.021052340045571327, 0.13470296561717987, 0.09252220392227173, -0.03057255409657955, 0.07051719725131989, 0.03943391144275665, -0.06415615975856781, 0.059768516570329666, -0.10667470097541809, 0.013561622239649296, 0.06451860815286636, 0.05081532150506973, 0.0542629212141037, 0.006949345115572214, 0.029873056337237358, 0.12616845965385437, 0.06289184838533401, -0.06097555160522461, 0.16713418066501617, -0.03351684659719467, 0.024005724117159843, 0.004010840784758329, 0.21597567200660706, -0.02223402075469494, -0.04450852423906326, 0.01241343468427658, -0.0790160521864891, -0.04821353778243065, -0.15852579474449158, 0.0430908203125, 0.0052621071226894855, 0.05080809444189072, 0.008151170797646046, 0.03601444140076637, -0.02654161863029003, 0.08777984976768494, -0.04793570935726166, 0.05396508798003197, 0.0007737784762866795, -0.005045789293944836, -0.05294211953878403, 0.02263798750936985, 0.19302517175674438, -0.005182838533073664, -0.028516001999378204, -0.05922822654247284, 0.02878127247095108, -0.028501685708761215, -0.077120341360569, 0.037439975887537, -0.08709893375635147, -0.08922851830720901, 0.18459640443325043, -0.030858371406793594, 0.025722011923789978, -0.002683894708752632, 0.024351509287953377, -0.03007579781115055, -0.02762826904654503, 0.003443126566708088, -0.07586748152971268, -0.13418352603912354, 0.22803199291229248, -0.0123597988858819, 0.016235966235399246, -0.015633229166269302, 0.0023156513925641775, -0.037952207028865814, -0.030639154836535454, 0.02524196356534958, -0.04374028742313385, -0.11206090450286865, 0.27188098430633545, -0.02834629826247692, 0.03299100324511528, -0.03577043488621712, 0.042354319244623184, 0.008463364094495773, -0.02630705013871193, 0.031793270260095596, -0.002948824781924486, -0.06606647372245789, 0.1631200611591339, -0.00560854934155941, 0.01779020205140114, 0.012411781586706638, -0.016181940212845802, -0.024252142757177353, -0.02333659864962101, 0.00952635146677494, -0.010693532414734364, -0.09193269163370132, 0.15505850315093994, -0.04651530086994171, -0.0008062528213486075, 0.028144536539912224, 0.028455212712287903, -0.010870522819459438, 0.0026008430868387222, -0.01166524924337864, -0.01996660977602005, -0.08038968592882156, 0.12453114986419678, -0.036897383630275726, 0.022423934191465378, 0.007092027459293604, 0.021097255870699883, 0.02548271045088768, -0.004334345459938049, 0.009139946661889553, -0.0006394035881385207, -0.05198045074939728, 0.10413778573274612, -0.016006365418434143, -0.0169795174151659, -0.03747206926345825, 0.006570409517735243, -0.01997305266559124, -0.019896402955055237, -0.0240089762955904, -0.03713925555348396, -0.044598568230867386, 0.019150450825691223, 0.01138924341648817, 0.002448954386636615, 0.047432053834199905, 0.012535009533166885, 0.012810076586902142, 0.01053986418992281, 0.019153499975800514, 0.044738348573446274, -0.03904902935028076, -0.01573590189218521, -0.08899252861738205, 0.4138399362564087, -0.06866659969091415, 0.09807558357715607, -0.13153362274169922, 0.29482725262641907, 0.22032257914543152, -0.07318107783794403, -1.3069922924041748, 0.04735709726810455, -0.14807257056236267, -0.4127183258533478, -0.010522346943616867, -1.5761990547180176, -0.015624442137777805], [0.005271509755402803, 0.02159910462796688, -0.18503078818321228, -0.14532221853733063, -0.07435307651758194, -0.18121863901615143, -0.20048539340496063, -0.02496630884706974, -0.043762028217315674, 0.024323370307683945, -0.012393848039209843, 0.023454874753952026, -0.10023833066225052, -0.22972413897514343, -0.3213116228580475, -0.25702422857284546, -0.2498851716518402, -0.05671476200222969, -0.15308620035648346, -0.004834469873458147, 0.03594411909580231, -0.009000785648822784, -0.10129190236330032, -0.09610722959041595, -0.10231626033782959, -0.23622877895832062, -0.18258638679981232, -0.024977905675768852, -0.005801809951663017, -0.019183175638318062, 0.05836116150021553, -0.019637510180473328, -0.07095441222190857, -0.043419115245342255, -0.005158086307346821, -0.08503486961126328, -0.07803825289011002, -0.03353588655591011, -0.07104069739580154, -0.03933976963162422, 0.11756957322359085, 0.01664413884282112, 0.014181332662701607, -0.018488626927137375, 0.03554220497608185, -0.08403345197439194, 0.011554675176739693, -0.19315573573112488, -0.11142418533563614, 0.05458821728825569, -0.07847125083208084, -0.13943181931972504, 0.11705226451158524, 0.013845879584550858, 0.11167839169502258, 0.04447221755981445, 0.21849936246871948, -0.0018383037531748414, 0.153139129281044, -0.05135326087474823, 0.09619850665330887, 0.09463698416948318, 0.13028565049171448, 0.04894960671663284, 0.11642993986606598, 0.15119902789592743, 0.19564653933048248, 0.08768241107463837, 0.19878529012203217, 0.19479142129421234, 0.04258039593696594, -0.040420353412628174, 0.182574063539505, 0.06838899105787277, -0.20478835701942444, 0.2402106374502182, 0.2955719530582428, 0.07661160826683044, 0.19247379899024963, 0.13249948620796204, -0.1453186571598053, -0.11554724723100662, 0.09905742853879929, 0.15182355046272278, -0.12125299125909805, 0.11741903424263, 0.1323680430650711, 0.146925687789917, 0.22515885531902313, 0.2610992193222046, -0.10848158597946167, 0.13786081969738007, 0.26548030972480774, -0.04780943691730499, 0.09410670399665833, 0.153812974691391, 0.16284915804862976, -0.16412903368473053, 0.11720171570777893, 0.05538436025381088, -0.20849816501140594, -0.07685218006372452, 0.0956297367811203, -0.05415621027350426, -0.0024947230704128742, 0.01071047130972147, 0.006012808531522751, -1.527456879557576e-05, -0.061026398092508316, -0.0926467552781105, -0.20969419181346893, -0.03827469423413277, 0.1391371637582779, -0.13490594923496246, -0.09060074388980865, -0.1608271449804306, -0.03097807988524437, -0.09109873324632645, -0.16091212630271912, 0.11061863601207733, -0.12053915858268738, -0.24047021567821503, -0.05827372893691063, -0.4088665843009949, -0.31563669443130493, -0.20541000366210938, -0.03646762669086456, -0.08984322845935822, -0.18158602714538574, -0.05120876803994179, -0.14541707932949066, -0.03829770162701607, -0.0046364557929337025, -0.052734632045030594, -0.03798441216349602, -0.003140784101560712, 0.06493514031171799, -0.10591436922550201, -0.03360455855727196, 0.004285339266061783, 0.0805804654955864, 0.06595922261476517, -0.03923504427075386, 0.05087455362081528, -0.10579406470060349, 0.13013029098510742, 0.2187705785036087, 0.015612886287271976, -0.1272834837436676, -0.047627583146095276, 0.05524863675236702, 0.01930122636258602, -0.1019010841846466, 0.004124160390347242, -0.08887118101119995, -0.05168357118964195, 0.12625114619731903, 0.162655308842659, 0.0054842764511704445, -0.10235399007797241, 0.11852362006902695, -0.01388911996036768, 0.008733054623007774, -0.01072376687079668, 0.01329000759869814, -0.021053502336144447, 0.007652169093489647, 0.05505717173218727, -0.08038617670536041, -0.16994576156139374, 0.03893833979964256, -0.0013919394696131349, 0.08213537186384201, -0.003475259291008115, 0.0402555987238884, -0.0031748113688081503, 0.08133956789970398, 0.06687936931848526, 0.007498371414840221, 0.021497977897524834, 0.05065178498625755, 0.06698594242334366, -0.02466481924057007, -0.07408007979393005, 0.10162675380706787, -0.05641655996441841, -0.01682802103459835, 0.04406234994530678, -0.06052515655755997, -0.043682705610990524, 0.034821026027202606, 0.13998593389987946, 0.02479209378361702, 0.0835481509566307, 0.06333115696907043, 0.029263343662023544, 0.09509976953268051, -0.04019064083695412, 0.046786434948444366, 0.0615152046084404, 0.30895912647247314, 0.05014213174581528, -0.04576176777482033, 0.04664040729403496, 0.0763075202703476, 0.00919927004724741, 0.1885349303483963, -1.0591421127319336, -0.4294990003108978, 0.18224532902240753, -0.020886000245809555, 0.16978035867214203, 0.0073738400824368, 0.10788329690694809, -0.014356185682117939], [-0.01552541647106409, -0.06124782934784889, 0.12198943644762039, 0.12596863508224487, -0.16569702327251434, -0.04840543121099472, 0.0588434562087059, -0.16172118484973907, -0.017260855063796043, 0.006000869907438755, -0.018504297360777855, -0.1385643184185028, -0.02437739633023739, 0.07719255983829498, -0.009379480965435505, -0.16528736054897308, 0.060406867414712906, -0.06809671968221664, -0.08060947060585022, -0.03893920034170151, -0.019318290054798126, -0.005921029485762119, 0.027159979566931725, -0.11670789867639542, -0.16625332832336426, -0.13294322788715363, -0.1742594987154007, -0.01264766976237297, 0.08155406266450882, 0.0029448855202645063, -0.03858581930398941, -0.05113387852907181, -0.16506235301494598, -0.14815640449523926, -0.13383689522743225, -0.21183784306049347, -0.060529422014951706, -0.06499714404344559, 0.00888231210410595, -0.09802757203578949, -0.020559078082442284, 0.05158073082566261, -0.06348127871751785, -0.12524102628231049, -0.2502994239330292, -0.22171136736869812, -0.08915352076292038, -0.02583765797317028, -0.0451323576271534, 0.0024694008752703667, -0.09272027760744095, -0.03725853189826012, 0.010172293521463871, 0.04645263031125069, -0.18485340476036072, -0.06496350467205048, -0.010813089087605476, -0.017098261043429375, 0.02728269062936306, 0.08087199926376343, 0.07769390940666199, -0.03738069906830788, -0.00832369364798069, 0.049729540944099426, -0.20121106505393982, -0.051911935210227966, -0.006855329964309931, 0.027420813217759132, 0.06554759293794632, 0.0486360527575016, 0.2042686939239502, -0.00654731597751379, 0.06414718925952911, 0.03539280593395233, 0.011038228869438171, -0.1783042997121811, -0.01246061734855175, -0.011930479668080807, 0.09278512001037598, 0.02730543538928032, 0.16344590485095978, 0.01943179965019226, 0.1568671464920044, 0.14261175692081451, 0.035533007234334946, 0.23003965616226196, 0.11844669282436371, 0.07887601107358932, 0.06669440865516663, -0.015228054486215115, -0.13717620074748993, 0.1030554249882698, 0.21560260653495789, 0.21693934500217438, 0.14654535055160522, 0.0675370991230011, 0.12242128700017929, 0.11668937653303146, 0.13051140308380127, -0.00225069560110569, 0.014149380847811699, -0.012581137008965015, 0.20344799757003784, 0.19192016124725342, -0.099549300968647, 0.11015589535236359, 0.06739684194326401, -0.020668134093284607, 0.029747657477855682, -0.060842663049697876, -0.03976394981145859, 0.01718219183385372, 0.02024955302476883, 0.11999347805976868, 0.0819639265537262, 0.026429591700434685, -0.020848631858825684, 0.008196487091481686, 0.009513100609183311, 0.06544937193393707, -0.025513922795653343, -0.0004480376956053078, -0.012593365274369717, -0.016530819237232208, 0.026443516835570335, 0.08852383494377136, -0.1995348036289215, -0.08506759256124496, 0.1252172440290451, -0.020116731524467468, -0.00106770487036556, 0.04569632187485695, 0.027578353881835938, -0.05144226551055908, -0.010764716193079948, 0.022159889340400696, -0.06061611324548721, -0.038368791341781616, 0.056578051298856735, 0.022565796971321106, -0.015718083828687668, -0.012731989845633507, -0.006991525646299124, 0.048450082540512085, 0.0029806785751134157, 0.06837306171655655, -0.055014029145240784, 0.05163901299238205, 0.07431308925151825, 0.07361971586942673, -0.019536782056093216, 0.022290784865617752, -0.1376655250787735, 0.014837483875453472, 0.00030225529917515814, 0.014641832560300827, -0.05127359554171562, -0.03125465288758278, 0.1065325140953064, -0.011027518659830093, -0.012521500699222088, -0.002419386524707079, 0.06498990952968597, -0.00525766983628273, -0.031162260100245476, -0.007536011282354593, -0.036221135407686234, 0.06872691214084625, 0.011507189832627773, 0.08471580594778061, -0.026375578716397285, -0.020921120420098305, 0.042093466967344284, 0.06537032872438431, 0.05210922285914421, -0.008128076791763306, -0.013605562970042229, 0.009746315889060497, -0.011983335018157959, 0.04086955264210701, -0.01210942491889, -0.061296287924051285, -0.0019903990905731916, 0.026945924386382103, 0.04137784615159035, 0.010176067240536213, -0.033141620457172394, -0.005896299611777067, 0.06588282436132431, -0.04138930141925812, -0.0667613223195076, 0.01989409700036049, 0.011064322665333748, -0.015431522391736507, 0.004323940258473158, 0.024289758875966072, 0.030011454597115517, 0.009380431845784187, 0.002390870125964284, -0.006905778776854277, 0.33964040875434875, 0.23342610895633698, 0.31987810134887695, 0.24716967344284058, 0.2777954041957855, 0.2249920815229416, 0.27869224548339844, 0.20847056806087494, -0.8532875180244446, -0.01028077770024538, -0.05518573895096779, -0.1847793012857437, 0.012897479347884655, 0.1288881003856659, 0.0074212802574038506], [-0.012857805006206036, -0.01924424059689045, -0.057978227734565735, -0.1526583731174469, -0.13728110492229462, -0.02166636288166046, 0.2119147628545761, 0.009918950498104095, -0.019119393080472946, -0.07268786430358887, 0.07467715442180634, 0.060316167771816254, -0.06302004307508469, -0.09019940346479416, -0.20086385309696198, 0.04749532788991928, 0.1390896439552307, -0.03789380565285683, -0.06622637808322906, -0.08824180066585541, -0.13691547513008118, 0.005017459392547607, 0.009465645998716354, 0.1426689475774765, 0.04621380567550659, 0.036856506019830704, 0.020319050177931786, -0.11688240617513657, 0.1013253927230835, -0.05086195841431618, -0.07483815401792526, 0.16123811900615692, -0.1585274040699005, 0.10414649546146393, 0.07701996713876724, 0.07728265225887299, -0.05231707543134689, -0.09632966667413712, -0.1662053018808365, -0.038676805794239044, 0.03981749713420868, 0.2551755905151367, -0.07521012425422668, 0.11357449740171432, 0.1335451751947403, 0.060164984315633774, 0.06577201187610626, 0.044467631727457047, -0.051377296447753906, -0.03235681727528572, -0.1540161818265915, 0.06316985189914703, -0.12322162091732025, 0.4353077709674835, -0.015829330310225487, -0.030949117615818977, 0.02008625864982605, -0.0445324182510376, 0.01199902594089508, -0.049719762057065964, -0.22644364833831787, -0.1759287416934967, -0.09830179810523987, -0.016106192022562027, -0.13973645865917206, -0.07718753069639206, -0.13896171748638153, 0.15423978865146637, -0.02482626773416996, 0.08187734335660934, 0.05791335180401802, 0.010204042308032513, 0.11466795951128006, 0.036840979009866714, -0.08312508463859558, 0.1424088180065155, -0.15771129727363586, 0.2836737334728241, -0.18511010706424713, 0.18142253160476685, 0.1413567066192627, -0.041208572685718536, 0.1577739715576172, 0.10975730419158936, 0.07431468367576599, 0.10256040841341019, -0.1877070665359497, 0.012332126498222351, -0.040993593633174896, 0.0707072913646698, 0.14027927815914154, 0.14976024627685547, -0.18383221328258514, 0.0034922240301966667, -0.3064746558666229, 0.06935878098011017, 0.008466427214443684, 0.04408664628863335, 0.00775002408772707, -0.07488074898719788, -0.29830703139305115, 0.05478863790631294, 0.04895389452576637, 0.018817655742168427, 0.13646647334098816, -0.05185723677277565, 0.015023915097117424, 0.0285696592181921, 0.0342828594148159, -0.014443601481616497, -0.0288038719445467, 0.020990436896681786, 0.044896200299263, 0.05202444642782211, 0.06773898005485535, 0.05981110781431198, -0.07874522358179092, 0.03634795546531677, 0.012197676114737988, -0.0007588506559841335, 0.009947621263563633, 0.05840826407074928, -0.06647920608520508, -0.18305595219135284, -0.06765830516815186, -0.0006981173064559698, 0.0503738597035408, 0.002721355529502034, 0.10548435896635056, 0.09665737301111221, -0.04115846008062363, -0.05301450192928314, -0.07276442646980286, -0.02914649248123169, 0.10551633685827255, -0.06910303235054016, 0.09381274878978729, 0.06917348504066467, -0.17986193299293518, -0.01765667460858822, -0.06890609860420227, -0.059106290340423584, -0.028265472501516342, -0.10165297985076904, 0.12400151789188385, -0.09293270111083984, 0.013322236947715282, -0.010238006711006165, 0.012079835869371891, 0.027088405564427376, -0.0682448223233223, 0.05588275194168091, -0.08477059006690979, 0.0691474974155426, -0.07116743922233582, 0.15163762867450714, -0.048154570162296295, 0.02634667418897152, -0.22113914787769318, 0.04420255869626999, -0.15621118247509003, 0.04354560002684593, -0.020150575786828995, -0.10408234596252441, 0.03738020732998848, -0.006496563088148832, 0.01169094629585743, 0.053689390420913696, -0.024938086047768593, 0.07887706905603409, 0.07727938145399094, -0.07676108181476593, 0.07098350673913956, -0.05072489753365517, 0.049569424241781235, -0.005845182575285435, -0.008264351636171341, -0.06932724267244339, -0.03602172061800957, 0.010792124085128307, -0.01736995205283165, -0.038834020495414734, -0.025702252984046936, 0.05115048214793205, 0.08029867708683014, 0.07873989641666412, -0.07178274542093277, 0.01764686405658722, 0.12522980570793152, -0.0156970527023077, -0.04934578388929367, 0.033634498715400696, -0.027201997116208076, 0.07558056712150574, -0.030995912849903107, -0.01691177487373352, -0.07947760820388794, -0.0006074414704926312, -0.03857763111591339, 0.012361545115709305, 0.011015322990715504, -0.0559457391500473, -0.0068403626792132854, -0.006535922642797232, -0.09013582020998001, -0.04521598294377327, -0.09196648746728897, -0.03927027806639671, 1.7792271375656128, 0.0454840324819088, 0.20025092363357544, -0.0691295713186264, -0.007442709524184465, -0.2903599143028259, 0.009343990124762058], [0.039354726672172546, 0.043968670070171356, 0.03363780677318573, -0.011636676266789436, -0.12218564003705978, -0.13989830017089844, 0.01199212484061718, 0.01028258167207241, -0.011537877842783928, -0.0018902114825323224, -0.001605797791853547, -0.009874654933810234, 0.0060494267381727695, -0.027735136449337006, -0.1124344989657402, -0.08918815851211548, 0.04327738285064697, 0.04414263367652893, 0.007299795746803284, -0.008345969952642918, -0.006475639995187521, 0.008739772252738476, -0.025902314111590385, -0.004883334040641785, -0.013791507109999657, -0.004627038259059191, 0.04091092571616173, 0.03808799758553505, -0.01794043742120266, -0.02532985620200634, -0.0015418275725096464, 0.04291948303580284, 0.0049759577959775925, -0.010876930318772793, -0.024766573682427406, -0.029083259403705597, -0.015134220011532307, 0.025993527844548225, 0.018596645444631577, 0.018329428508877754, -0.0030551184900105, 0.02728167548775673, 0.008478852920234203, -0.006256757769733667, -0.015045583248138428, -0.053047534078359604, -0.039158958941698074, 0.03025520034134388, 0.017236419022083282, 0.02127826027572155, 0.026984766125679016, -0.015418228693306446, 0.013298029080033302, -0.01824401319026947, -0.028590023517608643, -0.025722740218043327, -0.043268054723739624, 0.013492085039615631, -0.002441633027046919, 0.00249314121901989, -0.004474383778870106, 0.004168197978287935, 0.05602767691016197, -0.020891351625323296, -0.025520944967865944, -0.02126859501004219, -0.01239674910902977, -0.04925103485584259, 0.0695105567574501, -0.015676887705922127, -0.0356566496193409, -0.015912998467683792, 0.022758012637495995, -0.017139630392193794, -0.005559748038649559, 0.001624828320927918, 0.018243934959173203, 0.002233462408185005, -0.0183176938444376, -0.09971410036087036, -0.03706230968236923, -0.012779503129422665, 0.0038174015935510397, -0.06744136661291122, -0.050765737891197205, -0.052494268864393234, 0.003921528346836567, -0.0715910866856575, 0.052860841155052185, -0.09283499419689178, -0.16194719076156616, -0.06737387925386429, 0.05241701379418373, -0.06643693894147873, -0.07489651441574097, -0.13050533831119537, -0.10321417450904846, -0.008578604087233543, 0.007847779430449009, -0.06434305757284164, -0.0941699743270874, -0.14041352272033691, 0.07453063130378723, -0.021936874836683273, -0.13393931090831757, -0.21331395208835602, 0.05999771133065224, 0.0027406008448451757, 0.06026247516274452, -0.03951653093099594, 0.01255903858691454, 0.20712116360664368, -0.032743994146585464, -0.004045633599162102, -0.006125639658421278, -0.09367624670267105, -0.07507652044296265, 0.0672779306769371, 0.06610070168972015, -0.024326248094439507, 0.025376638397574425, -0.010791604407131672, -0.2071317434310913, -0.04519179090857506, -0.01599002070724964, 0.06918848305940628, 0.02074929140508175, 0.09941516071557999, 0.06028546020388603, 0.07297470420598984, 0.07691182941198349, 0.11485281586647034, -0.10831664502620697, -0.06929773092269897, 0.1932196468114853, -0.12062446027994156, 0.12290572375059128, 0.12734931707382202, 0.143255814909935, -0.011766907759010792, -0.038536183536052704, -0.008099201135337353, -0.21849305927753448, -0.04773474857211113, -0.011422771960496902, 0.015751436352729797, -0.07311798632144928, 0.001849111751653254, 0.06519843637943268, -0.11722128093242645, -0.12840965390205383, -0.06451839208602905, -0.046719763427972794, -0.037488922476768494, 0.06760017573833466, 0.031183091923594475, 0.059784453362226486, 0.09639927744865417, 0.14336708188056946, -0.09373995661735535, -0.04289151355624199, 0.012399183586239815, -0.03586168959736824, -0.055459845811128616, 0.04909488931298256, -0.038447268307209015, 0.0009697427740320563, 0.007257800083607435, 0.04320703074336052, -0.22691528499126434, -0.07542984932661057, 0.002069865819066763, 0.025388576090335846, 0.0371260792016983, -0.013731325045228004, 0.040023479610681534, 0.03006156161427498, -0.01546811405569315, -0.04795082286000252, -0.12165453284978867, 0.04692918807268143, -0.009794939309358597, 0.01062039565294981, -0.11478497087955475, 0.04282950982451439, 0.07178439944982529, -0.087588831782341, 0.012811395339667797, 0.004240198992192745, -0.11217939853668213, -0.013846521265804768, -0.03005996346473694, -0.04580997675657272, -0.0541737861931324, -0.03622917830944061, 0.015932461246848106, -0.10696814954280853, -0.03367660194635391, 0.045780111104249954, -0.05018634349107742, -0.0486161895096302, -0.07750517129898071, -0.03725907951593399, 0.009310071356594563, 0.015842610970139503, -0.006331993732601404, -0.06547091156244278, 0.0031516598537564278, 0.3373735547065735, -0.060027722269296646, 0.05147268995642662, 0.07183294743299484, 0.006656032055616379, 0.47743794322013855, 0.004770135972648859], [-0.051371533423662186, 0.026838216930627823, -0.13239769637584686, -0.21429434418678284, -0.2100287675857544, -0.19656994938850403, -0.14205747842788696, 0.10884173214435577, 0.09741035103797913, 0.012787478044629097, -0.025540566071867943, -0.04101009666919708, 0.05092640593647957, -0.278369277715683, -0.265644371509552, -0.11244195699691772, -0.015054658986628056, 0.04054677113890648, -0.0738198459148407, -0.00033580235322006047, -0.005572495516389608, 0.025770654901862144, -0.04838384687900543, -0.24610337615013123, -0.060361023992300034, -0.027388419955968857, -0.049726702272892, -0.028366543352603912, -0.11161242425441742, -0.03091953508555889, -0.12394324690103531, 0.1096993237733841, -0.06832782924175262, -0.3823596239089966, -0.22547386586666107, -0.01309262216091156, 0.06065109372138977, 0.010495920665562153, 0.005264341831207275, -0.06717592477798462, 0.004158951807767153, 0.02457994967699051, 0.05277908593416214, -0.37116289138793945, -0.21434803307056427, 0.009083217009902, 0.04886400327086449, 0.021434146910905838, 0.07288027554750443, -0.13674651086330414, 0.12119444459676743, -0.06931832432746887, 0.2151142954826355, -0.2069355845451355, -0.201103076338768, 0.0779639258980751, -0.01414010301232338, -0.02511633187532425, 0.003079409012570977, 0.024884499609470367, -0.13566549122333527, 0.21892976760864258, 0.23620030283927917, -0.38522401452064514, 0.053703732788562775, -0.06464441865682602, 0.03711486607789993, -0.009404482319951057, -0.022663023322820663, -0.06692773103713989, -0.14446192979812622, -0.11932939291000366, 0.021570513024926186, -0.1683548539876938, 0.03138594701886177, -0.30697065591812134, -0.1489557921886444, 0.08982046693563461, 0.24322250485420227, -0.09995514154434204, -0.1185348778963089, -0.0023238423746079206, -0.0276461374014616, -0.18997463583946228, -0.029538007453083992, 0.030985817313194275, -0.01978098601102829, 0.22034910321235657, 0.06442661583423615, 0.09433167427778244, 0.030569935217499733, 0.1462676078081131, 0.058815449476242065, 0.10024210810661316, -0.042887989431619644, -7.630593609064817e-05, -0.1551693081855774, -0.18724413216114044, 0.14648863673210144, -0.017307301983237267, -0.0911218598484993, -0.21002095937728882, 0.006095262710005045, -0.014947624877095222, -0.07463867217302322, 0.09848843514919281, -0.14145280420780182, 0.06318183243274689, 0.1864841878414154, 0.05703418701887131, 0.1416788548231125, 0.015906158834695816, -0.029677746817469597, -0.057261738926172256, -0.05048387870192528, 0.08960352092981339, -0.08944965153932571, 0.06842060387134552, -0.11360597610473633, -0.03526007756590843, -0.1336696296930313, 0.16458293795585632, 0.017232149839401245, 0.028872668743133545, -0.020407887175679207, -0.0007171187316998839, -0.11012079566717148, 0.13216006755828857, -0.18279901146888733, -0.0026440294459462166, -0.0179096981883049, -0.07324502617120743, 0.17215734720230103, 0.0018227394903078675, 0.00995716918259859, -0.0306897833943367, -0.03650648891925812, -0.12616415321826935, -0.10840386152267456, 0.00256602605804801, -0.010036364197731018, -0.08008382469415665, -0.019016876816749573, 0.07463105767965317, -0.06851788610219955, 0.04890565574169159, 0.012828260660171509, -0.14130288362503052, 0.18267452716827393, 0.17209386825561523, 0.05959801375865936, 0.10177642852067947, 0.0013156634522601962, 0.08279269933700562, 0.0564638152718544, -0.000455906440038234, -0.014302119612693787, -0.14628922939300537, 0.019622310996055603, -0.26138946413993835, -0.15401537716388702, -0.0660545602440834, -0.057154975831508636, 0.13540934026241302, 0.08416759222745895, 0.06823443621397018, 0.021017231047153473, 0.09350749105215073, 0.029014451429247856, -0.06630579382181168, -0.03997763246297836, 0.019347669556736946, 0.09525997936725616, 0.02054218389093876, 0.04798107221722603, 0.04473693668842316, -0.01693376712501049, 0.10642336308956146, 0.029036276042461395, 0.026911964640021324, -0.025471551343798637, -0.06866622716188431, 0.03713462874293327, -0.007063677068799734, -0.09514395147562027, -0.10078584402799606, 0.12839679419994354, -0.04769480228424072, -0.00933954119682312, 0.03269391879439354, 0.021941082552075386, 0.10921632498502731, -0.0390784814953804, 0.0381147637963295, -0.1199217215180397, 0.006201536860316992, -0.03911026194691658, 0.0699143186211586, 0.079875648021698, -0.062481727451086044, 0.10120858252048492, -0.11151542514562607, -0.005839284509420395, -0.0616578571498394, 0.005494819954037666, -0.08748132735490799, -0.04946959763765335, -0.00611415458843112, 1.4518725872039795, 0.032754085958004, 0.16177025437355042, 0.039875421673059464, 0.004729300271719694, 0.023178843781352043, 0.0070534320548176765], [0.00918413046747446, -0.11312758922576904, 0.10208677500486374, -0.06113491952419281, -0.15477214753627777, -0.07632897794246674, -0.1215180903673172, -0.031071200966835022, -0.030092759057879448, 0.10259052366018295, 0.05097689852118492, 0.016110735014081, 0.18231993913650513, -0.23616647720336914, -0.2656319737434387, -0.204231396317482, -0.20485971868038177, 0.06472620368003845, -0.05206255987286568, 0.002544978866353631, -0.0034945730585604906, -0.007518340367823839, 0.11397730559110641, -0.05766335874795914, -0.1006782129406929, -0.1260232925415039, -0.11273923516273499, 0.04290659725666046, -0.04169856011867523, 0.009431046433746815, 0.011225089430809021, 0.05994619056582451, -0.18082968890666962, -0.2926520109176636, -0.2358398586511612, -0.19092468917369843, -0.200484037399292, 0.04942227527499199, -0.05370882898569107, 0.06354709714651108, -0.013801214285194874, -0.05038285255432129, -0.09547685831785202, -0.2047421932220459, -0.3756672143936157, -0.10272524505853653, -0.26662635803222656, 0.04510950297117233, 0.055857330560684204, 0.08315739780664444, -0.028829539194703102, 0.07978513836860657, 0.05922935903072357, -0.17976252734661102, -0.01822560280561447, -0.029300032183527946, -0.15343590080738068, -0.18179111182689667, 0.011393753811717033, -0.10549294948577881, -0.019690677523612976, -0.055766623467206955, 0.05732245370745659, -0.02506868727505207, 0.03681571036577225, -0.052300531417131424, -0.07906454801559448, -0.24882827699184418, -0.06712408363819122, -0.001070491736754775, 0.06451655179262161, -0.054388049989938736, 0.05827799439430237, 0.007071149535477161, -0.006391873583197594, -0.05135282129049301, 0.01937055215239525, 0.04267187789082527, -0.039250943809747696, 0.03639047220349312, -0.009018804877996445, 0.06330206990242004, -0.03787258267402649, 0.002580175641924143, 0.01847776770591736, -0.028388986364006996, -0.01982242241501808, 0.01643792912364006, -0.027477674186229706, -0.018167022615671158, -0.05700386315584183, 0.04773541912436485, -0.01566982828080654, 0.043803632259368896, 0.03639506921172142, -0.02344345860183239, 0.017854120582342148, -0.02503095008432865, -0.01984965242445469, 0.02592507191002369, -0.03203113004565239, 0.006710900459438562, -0.020023899152874947, -0.014161543920636177, 0.025425264611840248, 0.010014157742261887, 0.017957214266061783, 0.029564395546913147, -0.005165049806237221, 0.012460675090551376, -0.01754920557141304, 0.03097916767001152, 0.008130942471325397, -0.0349799320101738, 0.02572167105972767, -0.007298971060663462, 0.004123785998672247, 0.023745398968458176, -0.0036228285171091557, 0.008076404221355915, -0.0023038052022457123, -0.02064000628888607, -0.01361125148832798, 0.010000398382544518, -0.05145896226167679, 0.0008884335984475911, 0.006698248442262411, 0.01824532449245453, 0.009434105828404427, 0.011584963649511337, 0.013232873752713203, 0.04713980108499527, 0.0043019442819058895, -0.0009241104125976562, 0.010966550558805466, -0.020022163167595863, -0.020352033898234367, -0.027215303853154182, -0.013413532637059689, -0.013985492289066315, -0.0005967929610051215, -0.0054495069198310375, -0.006728730164468288, 0.02266317792236805, 0.012485584244132042, -0.017587339505553246, 0.01397990807890892, -0.00709838792681694, 0.028131898492574692, 0.011936030350625515, -0.017406418919563293, 0.012768300250172615, 0.018320446833968163, 0.0034464318305253983, -0.045956097543239594, 0.021605001762509346, -0.01854196935892105, -0.007324555888772011, 0.02772245928645134, 0.018851960077881813, 0.008800839073956013, -0.002014304045587778, 0.03297590836882591, 0.0074282074347138405, 0.003787150839343667, 0.0447821281850338, 0.03039216808974743, -0.037545617669820786, -0.0012410456547513604, -0.021125029772520065, 0.002389507135376334, 0.008518176153302193, -0.013316677883267403, 0.0038640897255390882, -0.035374436527490616, 0.008338095620274544, 0.00759692769497633, 0.045411333441734314, 0.010073764249682426, 0.003948013763874769, -0.009262732230126858, -0.014390272088348866, 0.0338141992688179, 0.008790051564574242, 0.014819753356277943, 0.009517287835478783, 0.013333066366612911, 0.011202216148376465, 0.030276088044047356, 0.028114885091781616, 0.011986959725618362, -0.01441910956054926, 0.022262318059802055, 0.03323203697800636, -0.0355936624109745, 0.00848869327455759, -0.00959647074341774, -0.01283840648829937, -0.027019133791327477, -0.011906592175364494, -0.4398233890533447, -0.09224224835634232, -0.06284535676240921, 0.04699413850903511, -0.04157661274075508, -0.0637802928686142, -0.023829003795981407, 0.0006620811764150858, 0.4760144352912903, -0.16344961524009705, 0.061312224715948105, 0.9117020964622498, 0.012133840471506119, 6.475781440734863, 0.013084344565868378], [-0.013012656010687351, -0.019964560866355896, 0.03210379555821419, -0.08939728885889053, 0.07731222361326218, 0.089830182492733, -0.046065691858530045, -0.04592856019735336, -0.0643577128648758, 0.000669672735966742, 0.022997643798589706, 0.007627709768712521, -0.05802151560783386, -0.17174798250198364, 0.02009648084640503, -0.20112724602222443, -0.10633175820112228, -0.00041728312498889863, 0.01552253495901823, 0.02563181146979332, -0.06272967904806137, -0.06962756812572479, -0.23672567307949066, -0.084297314286232, 0.0020290249958634377, -0.14753733575344086, -0.02224782481789589, 0.03258578106760979, 0.019022151827812195, 0.025958027690649033, -0.10972701013088226, -0.1171804666519165, -0.1849607527256012, -0.17326898872852325, -0.07939384877681732, 0.022930746898055077, -0.062317971140146255, 0.0519905723631382, 0.008192514069378376, -0.030923843383789062, -0.010099711827933788, -0.0690198689699173, -0.09431573003530502, -0.029483569785952568, -0.12723185122013092, -0.07674404978752136, -0.2453235238790512, -0.004611570853739977, 0.024965807795524597, 0.06661630421876907, 0.08602326363325119, 0.06406380981206894, -0.02360515296459198, 0.028997838497161865, -0.0476432740688324, -0.060647472739219666, -0.26429688930511475, -0.21093909442424774, -0.023031463846564293, 0.04238663241267204, -0.011484676040709019, 0.08523775637149811, -0.11224348098039627, -0.028949689120054245, -0.19378364086151123, 0.09286707639694214, -0.19469310343265533, -0.06580618768930435, 0.013200124725699425, 0.11701636761426926, -0.0020188381895422935, -0.05984094738960266, 0.07456421107053757, -0.0890066996216774, -0.2542133331298828, -0.04631274193525314, -0.15335623919963837, 0.1125711053609848, 0.25976496934890747, -0.06798038631677628, -0.08933258801698685, 0.08670662343502045, -0.1068553775548935, -0.014841655269265175, -0.08891605585813522, -0.012263060547411442, 0.010396183468401432, -0.01678069308400154, 0.0792735144495964, -0.1342470347881317, -0.08744465559720993, 0.1471233069896698, 0.0532401017844677, -0.11752993613481522, 0.07492037862539291, -0.08526873588562012, -0.17479877173900604, 0.161550834774971, 0.0034567276015877724, -0.10906831920146942, 0.006231593433767557, 0.0866815447807312, 0.031662166118621826, -0.03316641226410866, 0.11297118663787842, 0.07034819573163986, -0.04191744327545166, 0.051225777715444565, -0.04977325722575188, -0.10667818039655685, 0.12244559824466705, 0.030237015336751938, 0.14890077710151672, 0.01874535344541073, 0.05962545797228813, -0.051225610077381134, 0.09724166989326477, -0.21615353226661682, 0.015427347272634506, -0.10680682957172394, -0.020043570548295975, -0.10331191122531891, -0.039386387914419174, 0.08293118327856064, -0.004461474716663361, 0.012444308958947659, 0.04512466490268707, 0.07554912567138672, -0.008140962570905685, 0.07929864525794983, 0.15123581886291504, -0.060439787805080414, -0.01348190102726221, 0.07457304745912552, -0.07158802449703217, -0.006097780074924231, -0.10105252265930176, -0.05971935763955116, -0.002205842873081565, 0.036684855818748474, 0.024453403428196907, 0.0023532097693532705, 0.07134725153446198, -0.003131512552499771, -0.10050099343061447, -0.02848157472908497, 0.05292049050331116, 0.008354592137038708, 0.07712918519973755, -0.04629690200090408, 0.09435456246137619, 0.058707986027002335, 0.0550672747194767, -0.07227111607789993, 0.09749235957860947, -0.0963706374168396, -0.06408485025167465, -0.04359343647956848, 0.08287590742111206, -0.07153162360191345, 0.10816413909196854, -0.05754817649722099, -0.06948285549879074, -0.12347632646560669, 0.05422701686620712, -0.09127331525087357, 0.1865314394235611, 0.07705523073673248, -0.015550702810287476, 0.07915467768907547, -0.012779206037521362, -0.07394161820411682, 0.03794903680682182, -0.12257763743400574, 0.1130899116396904, 0.018288498744368553, 0.08109253644943237, -0.12500762939453125, 0.12798282504081726, -0.07172179222106934, -0.005887173116207123, -0.09665964543819427, 0.1408315896987915, -0.037241388112306595, -0.0015183108625933528, -0.09202136844396591, 0.10067655891180038, -0.006047931499779224, -0.0383940115571022, 0.06530217826366425, 0.027969449758529663, -0.005223092157393694, 0.014497940428555012, 0.05168413370847702, -0.12344080954790115, -0.05198463797569275, 0.025412432849407196, 0.04313834756612778, 0.06911707669496536, -0.08923789858818054, -0.16298748552799225, -0.13854064047336578, -0.047272443771362305, -0.061189327389001846, -0.03337836265563965, -0.04051341116428375, -0.04649600014090538, 0.057099342346191406, 0.6613643169403076, -0.0663980171084404, 0.10124025493860245, 0.17432978749275208, -0.0063304114155471325, 1.6117092370986938, -0.008514657616615295], [-0.020438794046640396, -0.07346788048744202, -0.025285175070166588, 0.004896477330476046, -0.04747253656387329, 0.08533148467540741, -0.07208235561847687, -0.08320402354001999, -0.08336128294467926, -0.02170422486960888, -0.054973505437374115, -0.04136452078819275, 0.0963788628578186, 0.00960695743560791, -0.0320507287979126, 0.009768495336174965, 0.1144007220864296, 0.054559338837862015, -0.08757616579532623, 0.03758187219500542, 4.4638993131229654e-05, -0.006072437856346369, 0.004204228054732084, 0.1013811007142067, 0.061637092381715775, 0.1436183899641037, 0.05674862116575241, 0.03009413555264473, 0.07036188244819641, 0.04953886568546295, -0.05806685984134674, -0.07748749107122421, 0.06346378475427628, 0.12848034501075745, 0.10128922015428543, 0.1780664324760437, 0.03963867947459221, 0.12435919046401978, -0.03474469110369682, -0.050612907856702805, 0.03911668434739113, 0.12839703261852264, 0.08153174817562103, 0.13003423810005188, 0.10129586607217789, 0.1490829735994339, 0.09646451473236084, 0.19731645286083221, -0.060274943709373474, -0.07966849207878113, 0.2420302778482437, 0.3222549259662628, 0.1024138405919075, 0.03200334310531616, 0.1446646898984909, 0.0772780328989029, 0.09252600371837616, 0.24491630494594574, -0.09202578663825989, -0.24804985523223877, 0.1316947489976883, 0.1429014652967453, 0.19738098978996277, -0.006413459312170744, 0.12376777082681656, 0.011693178676068783, 0.13298723101615906, 0.11901175230741501, -0.1224493682384491, -0.2246769219636917, 0.10617197304964066, -0.05128892511129379, 0.1271326243877411, 0.11706846952438354, -0.10865721851587296, -0.03393154963850975, 0.1212335079908371, 0.12673330307006836, 0.023239756003022194, -0.033607371151447296, -0.005160209722816944, -0.24221447110176086, 0.03874452784657478, -0.36459410190582275, -0.10712185502052307, 0.09799016267061234, 0.09777462482452393, -0.05281032249331474, -0.019455818459391594, 0.02377144992351532, -0.13502559065818787, -0.021326739341020584, -0.09704738110303879, 0.18829293549060822, 0.054185785353183746, 0.09267616271972656, 0.006159491837024689, -0.10561875253915787, -0.1876211166381836, 0.28333011269569397, -0.21300716698169708, 0.04649268463253975, 0.03977130353450775, -0.021222325041890144, 0.03431455418467522, 0.05281158909201622, 0.07843918353319168, -0.0005461865221150219, 0.04353177547454834, 0.02627250738441944, 0.061319246888160706, -0.04868391901254654, -0.008115733973681927, 0.09449870139360428, 0.11529876291751862, 0.00272556534036994, -0.1683584749698639, 0.1326967179775238, -0.05135055258870125, 0.03044409677386284, -0.04186757653951645, 0.06929944455623627, -0.005305686499923468, 0.04093310236930847, -0.02682126685976982, -0.01325012557208538, -0.1363755464553833, -0.06876645982265472, -0.01701454259455204, -0.06700913608074188, -0.020546160638332367, 0.018493544310331345, 0.04252076894044876, 0.07104763388633728, 0.03369570150971413, 0.1272907257080078, -0.10438777506351471, 0.054595574736595154, 0.12603923678398132, -0.12984183430671692, -0.09226888418197632, 0.10444991290569305, -0.021936174482107162, 0.06881997734308243, 0.03930596262216568, 0.03726406395435333, -0.004961102269589901, -0.034793250262737274, 0.06333023309707642, 0.08893893659114838, -0.09420619159936905, 0.10738645493984222, -0.0012487253407016397, 0.0906829982995987, -0.06123904138803482, 0.0202641561627388, -0.07611378282308578, 0.05248784273862839, 0.024298422038555145, 0.021704474464058876, -0.0899590253829956, -0.027663730084896088, 0.10836677253246307, 0.05393510311841965, 0.02095654606819153, 0.03920089453458786, -0.02569619007408619, -0.028877511620521545, -0.08131860941648483, -0.10491558164358139, 0.04258670657873154, 0.12464636564254761, 0.06991079449653625, -0.09939566999673843, -0.05852209031581879, -0.06642401963472366, 0.032438185065984726, -0.01793486252427101, 0.026722561568021774, 0.028184114024043083, -0.06050668656826019, 0.0271806288510561, 0.1476314216852188, 0.03257663547992706, 0.07283706218004227, 0.04399377480149269, -0.074522465467453, 0.05526195093989372, -0.04707754775881767, -0.01305536087602377, 0.021020587533712387, 0.0707857757806778, -0.06035531684756279, 0.06492989510297775, -0.06327775865793228, -0.08409568667411804, -0.046002794057130814, -0.03654509782791138, 0.04081887751817703, -0.040515393018722534, 0.07333889603614807, -0.04756586253643036, -0.05984273552894592, -0.04812149703502655, -0.06362441927194595, -0.1229056566953659, -0.050741273909807205, -0.05264102295041084, 0.8364551663398743, -0.0029342893976718187, 0.15052814781665802, 0.08345232903957367, 0.011325408704578876, 0.27019202709198, -0.012257751077413559], [0.026564113795757294, 0.013316099531948566, -0.07366077601909637, -0.10480764508247375, -0.09222730994224548, -0.0776020884513855, -0.11906158179044724, 0.0406886488199234, -0.019644109532237053, -0.005670044105499983, -0.008933466859161854, -0.09589702636003494, -0.11143109202384949, -0.34717100858688354, -0.3251590132713318, -0.33843737840652466, -0.15177974104881287, -0.0020824014209210873, 0.002422552788630128, 0.04245305433869362, -0.07542362809181213, -0.12027706950902939, -0.06578170508146286, -0.17332963645458221, -0.20424474775791168, -0.23309271037578583, -0.15170753002166748, -0.0004875894810538739, 0.020633336156606674, 0.05552583560347557, -0.18002234399318695, -0.10528813302516937, -0.17632564902305603, -0.10510437190532684, -0.20717240869998932, -0.18774689733982086, -0.28932490944862366, -0.09430406242609024, -0.06048151105642319, -0.12148221582174301, -0.13670167326927185, 0.029602674767374992, -0.1770879030227661, -0.19233809411525726, -0.4211571216583252, -0.3451964557170868, -0.18074949085712433, -0.041042737662792206, -0.06207146868109703, -0.11043686419725418, -0.2245897501707077, 0.03223458677530289, 0.01727040857076645, -0.06913509219884872, -0.190543532371521, -0.034631431102752686, -0.09590468555688858, 0.04552410542964935, -0.023599721491336823, -0.25868991017341614, 0.05845758691430092, 0.18335755169391632, -0.21061329543590546, 0.004285484552383423, -0.13587215542793274, 0.07375547289848328, 0.003826199099421501, 0.031545691192150116, -0.0105101577937603, -0.11321283876895905, -0.042002856731414795, -0.11181984096765518, 0.019338224083185196, 0.18109817802906036, -0.061855364590883255, -0.06879480928182602, 