{"type": "afterstate-value-mlp", "version": 1, "inputSize": 215, "layers": [{"weight": [[0.01753302477300167, -0.024199869483709335, 0.030939457938075066, -0.07513904571533203, -0.01973109133541584, -0.14071516692638397, -0.015331970527768135, -0.07587479799985886, -0.05905526876449585, 0.04662003368139267, -0.07594586908817291, -0.02284441888332367, -0.042201802134513855, -0.09729335457086563, -0.14032426476478577, -0.2488843947649002, -0.12431532889604568, -0.06393469870090485, -0.03626338765025139, -0.023956960067152977, -0.09973777085542679, -0.02277200296521187, -0.051011823117733, -0.1441681981086731, -0.2066277116537094, -0.27398133277893066, -0.18423031270503998, 0.033525265753269196, 0.027979854494333267, 0.03185435011982918, -0.10710671544075012, 0.04286225512623787, -0.0539037324488163, -0.11277797818183899, -0.107383593916893, -0.18918968737125397, 0.0009250945295207202, 0.045259855687618256, 0.0829140916466713, 0.11352473497390747, -0.023890655487775803, -0.1838512122631073, 0.01109585352241993, -0.0021985904313623905, -0.09127404540777206, -0.04160856455564499, -0.06541997194290161, 0.010770393535494804, 0.0426006019115448, 0.06355845928192139, 0.17544227838516235, 0.08276858180761337, -0.17822428047657013, 0.0772939994931221, 0.012388414703309536, 0.011268939822912216, 0.09170489013195038, 0.09722103923559189, -0.005326209124177694, 0.045682769268751144, -0.08470291644334793, 0.03536920249462128, 0.015613644383847713, -0.08856640011072159, 0.009795521385967731, 0.021964181214571, 0.08259602636098862, 0.11652056127786636, 0.012695690616965294, 0.25859004259109497, 0.039682261645793915, 0.04839053750038147, 0.07768913358449936, 0.053341131657361984, 0.16237404942512512, 0.10325933247804642, -0.0031689449679106474, 0.11301826685667038, 0.03591234236955643, 0.05096640810370445, 0.08927800506353378, -0.047102924436330795, -0.04559721797704697, 0.1705603301525116, 0.01907646842300892, 0.15405204892158508, 0.09910523146390915, 0.12438767403364182, 0.07694163918495178, 0.020582687109708786, 0.10196681320667267, 0.029478181153535843, -0.06173189729452133, -0.0785946398973465, 0.07331757992506027, 0.09595201909542084, 0.14756405353546143, 0.05588199570775032, 0.0293838232755661, 0.03980964049696922, 0.031684137880802155, -0.03198491036891937, -0.18407024443149567, -0.0076477727852761745, -0.017110517248511314, 0.1751505434513092, 0.0955650731921196, 0.06866572797298431, -0.013998148031532764, 0.05366278439760208, 0.011404583230614662, -0.1406308114528656, -0.29075777530670166, -0.07467340677976608, 0.019227787852287292, 0.15104781091213226, 0.1691608875989914, 0.020702950656414032, -0.05073091760277748, -0.024667110294103622, -0.03762848302721977, -0.09270689636468887, -0.2477659434080124, -0.06734853982925415, 0.06369788199663162, 0.11394959688186646, 0.23218485713005066, 0.06876228004693985, -0.10512189567089081, -0.05874394252896309, -0.03788972273468971, -0.12186694890260696, -0.18616168200969696, -0.12669804692268372, 0.013352356851100922, 0.1174616888165474, 0.16555289924144745, 0.12359370291233063, -0.018788976594805717, -0.09723509848117828, -0.14315612614154816, -0.21612024307250977, -0.2659255862236023, -0.15907974541187286, -0.04613476246595383, 0.03741677105426788, 0.10720013827085495, 0.037656109780073166, -0.12685233354568481, -0.04158172383904457, -0.07188175618648529, 0.005092218983918428, -0.05947014316916466, -0.05561121925711632, 0.025359362363815308, 0.044675346463918686, 0.08172276616096497, 0.021505892276763916, 0.08700448274612427, -0.04842536151409149, 0.07474632561206818, -0.018318481743335724, -0.02480221353471279, -0.03386364504694939, -0.032405026257038116, -0.032964084297418594, 0.06696677953004837, 0.09432045370340347, 0.05321795120835304, 0.00027534784749150276, 0.06635812669992447, 0.04143720865249634, -0.02160799503326416, -0.06133135035634041, 0.0043638781644403934, -0.01816285401582718, 0.016812443733215332, 0.08739933371543884, -0.03667835891246796, -0.05328475683927536, -0.0131898308172822, 0.0312319528311491, -0.04404941573739052, -0.02636699192225933, -0.07595329731702805, 0.04150588437914848, 0.03718522936105728, 0.021143842488527298, -0.0030693896114826202, -0.007387148216366768, 0.10603263229131699, 0.05801615118980408, 0.027495957911014557, -0.011056618764996529, -0.005025570280849934, -0.07773789763450623, -0.004694111179560423, 0.07650848478078842, 0.011673622764647007, -0.02666001208126545, 0.07625098526477814, 0.14634530246257782, 0.05151711776852608, 0.2043474018573761, 0.16672317683696747, 0.16880515217781067, 0.11582779884338379, -0.03234293684363365, -0.4938439130783081, 0.09659764170646667, -0.030353818088769913, -0.0447692908346653, -0.002928162459284067, -0.5212029814720154, 0.012245237827301025], [-0.008808180689811707, -0.020577464252710342, -0.06891912966966629, -0.04322086274623871, 0.021847082301974297, -0.11023193597793579, 0.037079714238643646, -0.009594560600817204, 0.0009645807440392673, 0.01149497926235199, 0.022775016725063324, -0.03807174041867256, -0.024594120681285858, -0.019824014976620674, -0.29419535398483276, -0.30773892998695374, -0.1370455026626587, -0.058053892105817795, -0.04370187222957611, 0.016261698678135872, 0.014010114595293999, -0.01866314373910427, -0.10087020695209503, -0.20347310602664948, -0.11831220984458923, -0.16163986921310425, -0.029864056035876274, -0.047178540378808975, 0.00935374852269888, 0.12070783972740173, -0.19167262315750122, -0.039656952023506165, -0.17809708416461945, -0.19865459203720093, -0.14288808405399323, -0.21680204570293427, -0.14899607002735138, 0.015571950003504753, -0.19717355072498322, 0.010895960032939911, -0.033580534160137177, -0.012702173553407192, -0.12711331248283386, -0.1377260982990265, -0.22440996766090393, -0.2802322804927826, -0.1026400625705719, -0.0892987921833992, -0.22803156077861786, 0.17772023379802704, 0.056256718933582306, 0.057911913841962814, -0.06352224200963974, -0.13878239691257477, -0.1756618469953537, -0.28189048171043396, -0.04401390627026558, 0.002402908867225051, -0.1383177638053894, -0.0793735533952713, 0.042043592780828476, 0.08805181831121445, 0.041387878358364105, -0.011489378288388252, 0.1139911413192749, -0.11487840861082077, -0.008990536443889141, 0.1543644368648529, -0.08389043807983398, 0.043783873319625854, -0.08157150447368622, -0.05586504936218262, 0.057671669870615005, -0.13817699253559113, 0.016579246148467064, -0.07248851656913757, 0.07494954019784927, 0.06352665275335312, -0.04204047471284866, -0.06310810148715973, 0.05469005927443504, 0.0033603340853005648, 0.018925830721855164, -0.03846241533756256, -0.016651900485157967, 0.01739921048283577, -0.08837451040744781, -0.02094177156686783, 0.047305382788181305, -0.012741027399897575, -0.03833086043596268, -0.044715765863657, 0.10601885616779327, -5.687474549631588e-05, -0.03895419090986252, 0.009658241644501686, 0.012997758574783802, -0.04284104332327843, -0.009679791517555714, -0.08785483986139297, 0.01063678041100502, -0.027397125959396362, -0.04465955123305321, 0.019050586968660355, 0.016837259754538536, 0.10734157264232635, -0.05215020850300789, 0.02959742583334446, 0.007579757831990719, -0.01882537454366684, 0.017256541177630424, 0.028060391545295715, -0.05342405289411545, 0.0226060189306736, -0.02769259735941887, 0.03226851671934128, 0.09064910560846329, 0.0533924363553524, -0.07216832786798477, -0.06357769668102264, -0.020564323291182518, 0.06268313527107239, -0.016851024702191353, 0.009150714613497257, 0.07337725162506104, -0.03513380512595177, -0.08260515332221985, -0.02243894338607788, 0.006792191881686449, 0.027704108506441116, -0.06764345616102219, -0.04326234012842178, 0.018587518483400345, 0.00892068911343813, -0.005509270820766687, 0.06485716998577118, 0.05248191952705383, 0.023075802251696587, 0.03162726014852524, -0.03736948221921921, -0.04696578159928322, -0.0006174021400511265, 0.016038313508033752, 0.0018307095160707831, 0.04769185930490494, 0.009236129932105541, 0.03466428071260452, 0.02296203002333641, 0.052151549607515335, -0.14572760462760925, 0.058487556874752045, 0.0010623561684042215, 0.06049395725131035, -0.02563164010643959, -0.00470843305811286, 0.021324407309293747, 0.0161662008613348, -0.07305093854665756, -0.05239929258823395, 0.026692861691117287, -0.04589485749602318, 0.048609938472509384, 0.10347982496023178, -0.0046121845953166485, -0.008517741225659847, 0.11332231014966965, -0.0017828852869570255, 0.09998149424791336, -0.05246011167764664, -0.07836803048849106, 0.07046907395124435, -0.05748588591814041, 0.0698975920677185, 0.07380973547697067, 0.02733951434493065, 0.06649450212717056, 0.021161219105124474, 0.07400060445070267, -0.01739056035876274, 0.05877217650413513, -0.120172880589962, -0.034180931746959686, 0.04922341927886009, 0.026453562080860138, -0.041996069252491, 0.06967958807945251, -0.057745300233364105, -0.06911757588386536, -0.020551564171910286, 0.06988421082496643, -0.02459040842950344, -0.09074048697948456, 0.052894528955221176, 0.00795674603432417, -0.011153011582791805, 0.0976545661687851, -0.0602172426879406, -0.09116291254758835, -0.10678186267614365, 0.0457412488758564, 0.04686971753835678, -0.04038171097636223, -0.042927034199237823, -0.06789690256118774, -0.024674847722053528, -0.05394487455487251, -0.04738958925008774, 0.015311002731323242, 1.426547646522522, 0.0358385294675827, 0.15535219013690948, -0.009770234115421772, 0.00894124060869217, -1.306923508644104, 0.004352611489593983], [-0.02556760609149933, 0.06283600628376007, 0.05763249844312668, -0.01019689068198204, -0.017225094139575958, -0.09426335990428925, -0.09163732826709747, 0.018371615558862686, -0.0403243824839592, 0.004702772479504347, 0.05062318220734596, 0.0017596427351236343, 0.0965530276298523, -0.06585576385259628, -0.16473591327667236, -0.0932023823261261, -0.05744063854217529, -0.007305289153009653, -0.08409290760755539, -0.011736161075532436, -0.012865737080574036, 0.016142982989549637, -0.11172591149806976, -0.0019070146372541785, -0.13691988587379456, -0.06941960752010345, -0.10029245167970657, -0.03753030672669411, -0.041433148086071014, -0.09956592321395874, 0.015462353825569153, -0.09926531463861465, -0.10380961745977402, -0.02084331028163433, -0.04232119023799896, -0.07132936269044876, -0.04943624883890152, 0.06797809153795242, -0.08643113821744919, -0.1306448131799698, 0.02330038510262966, -0.16358396410942078, -0.058859389275312424, -0.17580004036426544, -0.07581555098295212, 0.08665675669908524, -0.02519289404153824, 0.0097024105489254, 0.04415908083319664, 0.1255221664905548, 0.19002659618854523, 0.11492586135864258, -0.14294151961803436, -0.0601634755730629, -0.21717673540115356, -0.04707355797290802, -0.10893085598945618, -0.007763465400785208, 0.05677226930856705, 0.09834235906600952, 0.027115827426314354, 0.01760646514594555, -0.12748689949512482, -0.13391578197479248, 0.043191149830818176, -0.18845197558403015, -0.20345981419086456, -0.04577145725488663, -0.051221441477537155, 0.028160737827420235, 0.09218346327543259, 0.06771043688058853, 0.11592298746109009, -0.11292176693677902, -0.2172982394695282, 0.00860623363405466, -0.05074595659971237, 0.1090736836194992, 0.038717351853847504, 0.05803537368774414, 0.13467387855052948, 0.023745097219944, -0.004166176076978445, 0.02993408590555191, -0.0850549042224884, 0.04562069848179817, -0.08850427716970444, -0.04862328991293907, 0.08199025690555573, 0.03536659851670265, 0.147410586476326, 0.03227667137980461, 0.07604172080755234, 0.048522863537073135, 0.018458465114235878, -0.024944625794887543, -0.05247337743639946, 0.05051283910870552, 0.015188084915280342, 0.043883033096790314, 0.1540040820837021, 0.06986561417579651, 0.03629515320062637, -0.01938602514564991, -0.03190292790532112, -0.06931421905755997, -0.11569134145975113, 0.03134940192103386, -0.013610254973173141, 0.06480822712182999, 0.15228387713432312, 0.07545128464698792, 0.003210473107174039, -0.09455164521932602, -0.08791016787290573, -0.04039203003048897, -0.038592368364334106, 0.013908971101045609, -0.05356849730014801, -0.007484845817089081, 0.15163500607013702, 0.09138372540473938, -0.030586479231715202, -0.04898473992943764, -0.08375164121389389, -0.01088666170835495, -0.16383494436740875, -0.09167595952749252, -0.059536464512348175, 0.02163451537489891, 0.22663408517837524, 0.05343933030962944, -0.009000579826533794, -0.03730171546339989, -0.0035521667450666428, 0.11637001484632492, -0.0046523092314600945, 0.05017074942588806, 0.08777609467506409, 0.03821117803454399, 0.02885032817721367, 0.04185778647661209, -0.0009553952841088176, -0.04191116243600845, -0.12215003371238708, 0.04017244651913643, 0.08898879587650299, -0.013944902457296848, 0.12793944776058197, 0.10726612061262131, -0.04031933471560478, -0.07422933727502823, -0.11892053484916687, -0.19341722130775452, -0.050480540841817856, -0.006054873112589121, 0.0418938584625721, -0.0244612880051136, 0.04663846269249916, 0.06948325783014297, -0.013734267093241215, -0.1519247144460678, -0.04667046293616295, -0.030473502352833748, -0.021877693012356758, -0.010329204611480236, -0.057361431419849396, 0.03266555443406105, -0.004000806715339422, 0.0917368158698082, -0.0344630628824234, -0.04992150515317917, -0.02776242047548294, -0.025836974382400513, -0.011545985005795956, 0.019887305796146393, 0.057182587683200836, 0.07774186134338379, 0.024496709927916527, 0.09922301769256592, -0.06755107641220093, 0.034931786358356476, 0.02013261429965496, -0.017738988623023033, -0.03574806824326515, 0.05959894508123398, 0.10998682677745819, 0.042928941547870636, 0.030181579291820526, -0.01743137277662754, -0.07743450254201889, 0.05494692921638489, 0.019143367186188698, -0.055017199367284775, -0.022172141820192337, -0.059777431190013885, 0.09703066200017929, 0.09844165295362473, 0.0818953812122345, -0.0831378698348999, 0.07347600907087326, 0.12456342577934265, 0.07640501856803894, 0.06789475679397583, 0.06788557767868042, 0.05275271087884903, 0.13785141706466675, -0.04632239788770676, -1.3247191905975342, 0.04958498477935791, -0.15834134817123413, -0.5666239261627197, -0.005875334143638611, -1.339111328125, -0.0007997230277396739], [0.006855735555291176, 0.04426874592900276, -0.017685312777757645, -0.03507765755057335, -0.0659949779510498, 0.005590284243226051, -0.05883520096540451, 0.0022608444560319185, -0.0700303465127945, -0.005492091178894043, -0.04544816166162491, 0.006839261390268803, -0.07987041771411896, -0.12036478519439697, -0.1971641182899475, -0.12025367468595505, -0.08330892771482468, -0.09234777092933655, -0.023416103795170784, -0.09027933329343796, -0.07805091142654419, 0.006891584023833275, -0.024890346452593803, -0.0637717992067337, -0.17941619455814362, -0.16988781094551086, -0.06515256315469742, -0.03519940376281738, 0.005275812465697527, 0.051828425377607346, -0.011414259672164917, -0.015187758952379227, -0.02911962755024433, -0.05040746554732323, -0.13632744550704956, -0.22736777365207672, -0.056475959718227386, -0.09004660695791245, 0.04577910155057907, 0.005746945738792419, -0.10551157593727112, -0.06189285218715668, 0.027572333812713623, -0.12692564725875854, -0.038716018199920654, -0.1867128163576126, 0.029948946088552475, -0.09104850888252258, -0.05634603276848793, 0.0051882010884583, -0.23058496415615082, -0.15700356662273407, -0.08151369541883469, -0.06178123503923416, -0.1533225178718567, -0.054451026022434235, 0.001063746283762157, -0.19610129296779633, -0.030849676579236984, -0.1332758069038391, 0.059914130717515945, -0.13087719678878784, -0.16718220710754395, 0.008841099217534065, -0.22122514247894287, -0.007538240402936935, -0.18298444151878357, -0.10815250128507614, -0.008336907252669334, -0.146365687251091, 0.13234877586364746, -0.25166329741477966, -0.13969537615776062, 0.23471985757350922, -0.04987045004963875, -0.04623113572597504, -0.04552874341607094, -0.08900518715381622, -0.09769515693187714, 0.1472274363040924, 0.09460100531578064, -0.343472957611084, -0.07486166805028915, 0.021183794364333153, 0.0195649154484272, -0.056266240775585175, -0.023821262642741203, -0.007425844669342041, 0.050748880952596664, 0.1183919832110405, 0.06696781516075134, -0.17405997216701508, 0.01736197993159294, 0.09788307547569275, 0.05482056736946106, 0.1463381052017212, 0.15663664042949677, -0.025491924956440926, -0.06544342637062073, 0.1107206866145134, -0.0036890197079628706, -0.4146006107330322, 0.138661190867424, 0.04574592411518097, -0.06043596193194389, 0.1750338077545166, -0.00012915857951156795, -0.08335806429386139, -0.052108198404312134, -0.026142822578549385, -0.042556267231702805, -0.2523316740989685, 0.0022038829047232866, -0.017219817265868187, 0.05541859567165375, 0.05435502156615257, -0.03410830721259117, 0.11078380793333054, -0.10726803541183472, 0.049649618566036224, -0.05677749216556549, -0.3209426701068878, 0.08989798277616501, 0.009353771805763245, -0.10931270569562912, 0.015418187715113163, -0.04319612681865692, 0.0229039303958416, -0.10543033480644226, -0.06789647042751312, -0.01838689111173153, -0.38817477226257324, 0.10973439365625381, 0.04149617254734039, -0.01869831793010235, -0.006800770293921232, 0.030548803508281708, 0.05550471320748329, -0.046147022396326065, -0.1508135050535202, -0.01720646396279335, -0.07308533787727356, 0.06205103173851967, 0.028889551758766174, -0.0508270338177681, 0.0325019396841526, -0.06628204137086868, 0.05807431414723396, 0.12334049493074417, 0.0019285728922113776, -0.054812416434288025, -0.08599303662776947, -0.013813596218824387, 0.02447195164859295, -0.02648656629025936, -0.032134540379047394, -0.030874403193593025, -0.02847599796950817, -0.03364739567041397, -0.03161512315273285, 0.20236124098300934, 0.0021556690335273743, 0.017847778275609016, 0.020312592387199402, -0.05930318310856819, -0.06048310920596123, 0.08912231773138046, 0.04146542772650719, 0.016698166728019714, -0.017628135159611702, 0.13981987535953522, 0.040958382189273834, 0.03080732747912407, -0.05922315642237663, 0.04285798594355583, 0.053790707141160965, 0.0013186541618779302, -0.10054568201303482, 0.08354918658733368, -0.02556818164885044, 0.07471781969070435, 0.08333424478769302, 0.05090876296162605, -0.018276646733283997, -0.014526902697980404, -0.02155560813844204, 0.0001011119966278784, 0.010960884392261505, 0.07047898322343826, -0.004743363708257675, 0.10592667013406754, 0.016585318371653557, 0.05629858002066612, -0.03702486306428909, 0.049828045070171356, 0.04641294851899147, 0.04582798108458519, 0.08740410208702087, 0.0681789219379425, 0.00801217369735241, -0.06256397068500519, -0.013881557621061802, -0.059264540672302246, 0.10630921274423599, 0.040348369628190994, 0.028976744040846825, 0.016382697969675064, 0.17858675122261047, -0.4451943039894104, 0.06019095331430435, -0.059497036039829254, 0.12694495916366577, 0.003370692953467369, -2.0850136280059814, 0.00036423123674467206], [-0.01498786173760891, 0.04551663622260094, -0.027433861047029495, 0.05178713798522949, 0.02931630238890648, 0.06227922812104225, -0.037256769835948944, -0.07904990017414093, -0.015117766335606575, 0.023122359067201614, -0.002325712703168392, 0.00788068026304245, -0.054003600031137466, 0.018431460484862328, 0.09343811124563217, 0.10360977053642273, -0.042817313224077225, -0.10018228739500046, -0.08000645786523819, -0.04633045196533203, -0.0467485673725605, 0.006918426603078842, -0.02404482290148735, -0.022570369765162468, -0.000858627783600241, 0.022736109793186188, -0.019530300050973892, -0.004991996567696333, 0.05028987303376198, 0.047619935125112534, 0.07535959035158157, 0.0017085219733417034, -0.05898025259375572, -0.03684326261281967, -0.04598705843091011, -0.04135774075984955, -0.08479510992765427, 0.04928120970726013, 0.017009705305099487, 0.030231015756726265, 0.039539892226457596, 0.05437181890010834, 0.006404902786016464, 0.03441745042800903, -0.04090835526585579, 0.007243611384183168, -0.04089381918311119, -0.0003053054097108543, 0.036340583115816116, 0.0006573160062544048, 0.058970436453819275, 0.06319042295217514, 0.06897345930337906, 0.07668200880289078, 0.09697991609573364, -0.0007725475588813424, 0.0006816508830524981, -0.010845431126654148, 0.024444853886961937, -0.012458606623113155, 0.12195729464292526, 0.03051016479730606, 0.025124723091721535, 0.06735032796859741, 0.04304388538002968, 0.0015998255694285035, 0.09287691116333008, 0.08641712367534637, 0.04816839098930359, 0.04953143373131752, 0.030781129375100136, 0.113661028444767, 0.07932403683662415, 0.10796397924423218, 0.07761470973491669, 0.06904825568199158, 0.07768797874450684, 0.0468631274998188, 0.03983684256672859, -0.02111361362040043, 0.009283477440476418, 0.04952910915017128, 0.029752418398857117, 0.0736466571688652, 0.04290755093097687, 0.07663504034280777, 0.14853963255882263, 0.03848869726061821, 0.03560474142432213, -0.019652212038636208, 0.03553525358438492, 0.06906185299158096, 0.04463747516274452, 0.05183205381035805, 0.08900225162506104, 0.10924969613552094, 0.07185247540473938, 0.054498862475156784, 0.062075451016426086, -0.005751370918005705, 0.08887554705142975, 0.01863425225019455, -0.0051346635445952415, 0.04849885031580925, 0.09119746834039688, 0.0911344662308693, 0.08554238826036453, 0.1244882270693779, 0.04278426617383957, 0.035269513726234436, 0.048285748809576035, 0.0912073627114296, 0.04062391445040703, 0.02885163575410843, 0.02333514392375946, 0.0015801303088665009, 0.05126779526472092, 0.009913298301398754, 0.066163569688797, -0.021216515451669693, -0.03618055209517479, 0.02654687501490116, 0.0641188994050026, 0.08489350229501724, 0.021122397854924202, 0.03374117240309715, 0.06375788152217865, 0.04791939631104469, 0.0784817636013031, -0.012945473194122314, 0.036463696509599686, 0.0728425607085228, 0.058539293706417084, 0.09600011259317398, 0.036044150590896606, 0.04959763586521149, 0.09188855439424515, 0.05890193209052086, 0.06284944713115692, 0.02185123786330223, 0.005560946185141802, 0.06134558096528053, 0.1273619383573532, 0.03718128800392151, 0.09771120548248291, 0.08727524429559708, 0.07856536656618118, 0.05387488752603531, 0.07650313526391983, 0.03903534635901451, 0.056692928075790405, 0.06414716690778732, 0.09495391696691513, 0.10626596212387085, 0.08279433846473694, 0.09003174304962158, 0.0924610048532486, 0.04551689326763153, 0.09935604780912399, 0.038026850670576096, 0.05262478440999985, 0.048227496445178986, 0.04283798113465309, 0.05578719824552536, 0.042150985449552536, 0.029048454016447067, 0.07356161624193192, 0.0311758890748024, 0.05520737171173096, -0.02189146727323532, 0.039162859320640564, 0.029290733858942986, 0.06268636137247086, 0.06198679283261299, 0.05931958928704262, 0.05442936718463898, 0.05482622608542442, 0.04399562627077103, 0.054337937384843826, 0.004221252165734768, 0.02621048130095005, 0.04773138463497162, 0.01958242990076542, 0.06302089989185333, 0.047027338296175, 0.04664296656847, 0.06079277768731117, 0.021458199247717857, 0.05772247165441513, 0.01115582324564457, -0.010300138033926487, 0.040248289704322815, 0.03350146859884262, -0.024288471788167953, 0.026614278554916382, 0.038753245025873184, -0.013800970278680325, 0.002918208483606577, -0.02272886224091053, 0.05418438836932182, 0.13339948654174805, 0.024381419643759727, 0.05826527625322342, 0.058274853974580765, 0.059550993144512177, 0.03621682897210121, 0.06313993036746979, 0.23279108107089996, -1.0279484987258911, -0.04456542432308197, -0.08785857260227203, -0.6569254398345947, -0.007539981976151466, -0.5309678316116333, 0.05273288115859032], [0.011424521915614605, 0.06123839318752289, -6.550634134327993e-05, -0.0355481281876564, -0.08966737240552902, -0.06194780766963959, -0.048341166228055954, 0.07137806713581085, 0.0691378116607666, -0.03428827226161957, 0.02465304546058178, -0.0063316794112324715, -0.015821019187569618, -0.140719935297966, -0.1741493195295334, -0.16488690674304962, -0.16001856327056885, -0.026142310351133347, -0.04597499221563339, 0.0037283399142324924, -0.023760167881846428, -0.040240973234176636, -0.0315786637365818, -0.15810514986515045, -0.0014080599648877978, -0.039051152765750885, -0.04278071969747543, -0.0652446299791336, 0.014578940346837044, 0.0520622581243515, -0.09692947566509247, -0.04201053828001022, -0.10580506920814514, -0.09982851892709732, -0.12617899477481842, -0.1839347928762436, -0.09787819534540176, -0.09667191654443741, -0.09901894629001617, 0.0055193123407661915, -0.09489515423774719, -0.0849178209900856, -0.08932694047689438, -0.19003896415233612, -0.16329455375671387, -0.16272301971912384, -0.008928199298679829, 0.008769413456320763, -0.10316045582294464, -0.1827356219291687, -0.03965651988983154, 0.18129290640354156, -0.17666909098625183, -0.0209299735724926, -0.1864602267742157, 0.021036183461546898, -0.2922655940055847, -0.22525820136070251, 0.01600012183189392, -0.1817372441291809, -0.06303122639656067, 0.01181849930435419, -0.11802799999713898, -0.08222738653421402, -0.09110081940889359, 0.0459611602127552, -0.18473240733146667, -0.12623165547847748, 0.010676677338778973, -0.013196099549531937, -0.0846870020031929, -0.08610101789236069, 0.027029884979128838, -0.03821346163749695, -0.09690243005752563, 0.0758088007569313, -0.10739859938621521, -0.17513425648212433, 0.0626642033457756, 0.027744945138692856, 0.06097698584198952, 0.05867244303226471, 0.03401998057961464, -0.009314358234405518, -0.46782535314559937, -0.17017267644405365, -0.1413925439119339, 0.008742344565689564, -0.08278120309114456, 0.0060819825157523155, 0.010502736084163189, 0.08075995743274689, 0.10610432922840118, 0.10498491674661636, -0.14663510024547577, 0.015642652288079262, 0.028888393193483353, -0.196044921875, -0.034921444952487946, -0.0548362098634243, -0.0454527772963047, 0.05809265002608299, -0.062468595802783966, 0.044629860669374466, -0.02965068258345127, -0.0030526285991072655, -0.0364922434091568, -0.1584099978208542, -0.11702631413936615, -0.05384043604135513, -0.03558424860239029, -0.012564840726554394, -0.053065478801727295, 0.07139478623867035, -0.09592503309249878, 0.09735676646232605, -0.12476188689470291, 0.020305320620536804, 0.03174107149243355, 0.08979491144418716, 0.017807086929678917, -0.039983805269002914, 0.0012072210665792227, -0.03553599864244461, 0.012192067690193653, 0.03826887160539627, 0.03229529783129692, -0.020694872364401817, 0.014596437104046345, -0.06521037220954895, 0.05174452066421509, 0.010856406763195992, 0.013799918815493584, -0.061541032046079636, 0.04878435656428337, -0.01716400682926178, -0.011484743095934391, 0.01728440821170807, -0.05460689961910248, -0.07898683845996857, -0.10746249556541443, -0.08973768353462219, -0.06849822402000427, -0.007540351245552301, 0.01749700866639614, 0.08351071923971176, -0.0042548892088234425, 0.0004105186089873314, 0.02565077133476734, 0.02275799959897995, -0.07251103222370148, -0.13756823539733887, 0.10447206348180771, -0.07729922235012054, -0.007078017573803663, 0.04207833856344223, -0.06871979683637619, 0.019204698503017426, -0.03152771666646004, -0.05977747589349747, -0.09364062547683716, 0.0012277840869501233, -0.005893454421311617, -0.04613253101706505, 0.0980631411075592, 0.058782484382390976, -0.040287598967552185, -0.04021495580673218, -0.14874519407749176, 0.09152955561876297, -0.0838673859834671, -0.004563023801892996, 0.058019790798425674, 0.005467930343002081, 0.011043271981179714, -0.04163927212357521, -0.03604821115732193, 0.13314297795295715, -0.10435622930526733, -0.07668520510196686, -0.11675914376974106, -0.0074917045421898365, -0.041822925209999084, -0.05079236999154091, -0.0027678166516125202, 0.0233070757240057, 0.030894789844751358, 0.04726911708712578, 0.03907471522688866, 0.04427124187350273, 0.004478137008845806, 0.12251593917608261, -0.09102731198072433, 0.0045621152967214584, 0.02600959502160549, 0.09322873502969742, 0.005707704462110996, -0.12061678618192673, 0.006550983991473913, -0.07026039808988571, -0.08802594244480133, -0.06404805183410645, -0.019651193171739578, -0.04164665937423706, -0.02549809217453003, 0.033072248101234436, -0.03376150503754616, 0.019474925473332405, 0.7647507190704346, -0.05152447894215584, 0.07400441914796829, 0.1551089733839035, 0.005369774531573057, 1.432450294494629, -0.007562878541648388], [-0.050605107098817825, 0.028591714799404144, -0.09277515113353729, 0.022360490635037422, -0.14930923283100128, -0.04741724953055382, -6.69409055262804e-05, 0.02809511125087738, 0.010513847693800926, 0.042969051748514175, 0.03443381190299988, -0.044956814497709274, 0.0615575797855854, -0.10630884021520615, -0.1203027293086052, -0.18971912562847137, -0.09938039630651474, 0.01274835504591465, 0.049565501511096954, -0.02983778715133667, -0.022544894367456436, 0.001788324094377458, -0.022861698642373085, -0.16635192930698395, -0.1614486575126648, -0.02754431590437889, -0.009600881487131119, 0.04345529153943062, 0.05096244812011719, 0.11380178481340408, -0.049377407878637314, 0.03458332642912865, 0.03274280205368996, -0.16247983276844025, -8.384260581806302e-05, -0.10687938332557678, -0.11543472856283188, 0.045623309910297394, -0.028343629091978073, 0.02222049981355667, 0.037011463195085526, -0.07281587272882462, 0.06955576688051224, -0.03426802530884743, -0.1259811967611313, -0.23795539140701294, -0.09388486295938492, -0.1878274828195572, -0.015453783795237541, 0.12363382428884506, -0.26824837923049927, -0.15983149409294128, 0.019167957827448845, -0.023962995037436485, -0.024208536371588707, -0.08805332332849503, 0.13372914493083954, -0.12178666144609451, -0.031167251989245415, -0.01900528185069561, 0.10175225883722305, 0.08660901337862015, -0.10660596191883087, -0.11341413110494614, -0.1272316724061966, -0.11769254505634308, 0.10752741992473602, -0.15082554519176483, -0.06078232079744339, -0.018701422959566116, -0.0003526764048729092, 0.09528441727161407, 0.046185452491045, 0.18545378744602203, -0.016555143520236015, -0.29179221391677856, -0.02879253216087818, 0.0768539234995842, -0.057929374277591705, 0.03267786651849747, -0.048472631722688675, -0.07752268761396408, -0.02475225366652012, 0.22640091180801392, 0.07870368659496307, -0.2782538831233978, 0.1337897926568985, 0.048173852264881134, -0.02275744080543518, -0.01353514101356268, -0.05652251094579697, -0.05919203162193298, -0.05810242518782616, -0.02980213612318039, 0.11896636337041855, -0.14645281434059143, 0.00924751628190279, 0.10595273226499557, 0.03183957561850548, 0.04855708032846451, 0.043401580303907394, 0.09801296144723892, -0.0753680020570755, 0.09697774052619934, 0.03727694973349571, -0.07851680368185043, 0.06957612931728363, -0.04662350192666054, -0.04712190479040146, -0.03333123028278351, 0.0008504351717419922, -0.0892595648765564, -0.024919960647821426, -0.022425705567002296, -0.02289913222193718, -0.037843506783246994, -0.08759657293558121, 0.01332179456949234, 0.1483323723077774, 0.15244677662849426, 0.07271862030029297, 0.028285855427384377, -0.013489440083503723, -0.11287365108728409, -0.0715760812163353, -0.05497346818447113, 0.028250358998775482, 0.026895705610513687, -0.16739876568317413, -0.12338302284479141, 0.0027652927674353123, -0.056661833077669144, 0.10245666652917862, 0.07583026587963104, 0.037092167884111404, 0.0410432294011116, -0.049680642783641815, -0.19218294322490692, -0.037140168249607086, -0.0620662160217762, -0.04485783725976944, 0.006126124877482653, 0.1044929251074791, -0.03041262924671173, -0.00599543284624815, -0.00932294875383377, -0.10694213211536407, -0.003285061800852418, -0.015079407952725887, 0.01767570525407791, -0.06388113647699356, 0.08091764152050018, 0.10973458737134933, -0.04667913168668747, 0.033129382878541946, 0.0014839506475254893, 0.008693188428878784, -0.018142592161893845, 0.017706062644720078, -0.022784557193517685, 0.06872639060020447, 0.029656868427991867, 0.091239333152771, -0.076126329600811, -0.08646489679813385, -0.08659474551677704, -0.07417865097522736, 0.07955467700958252, -0.006250913254916668, 0.09793508797883987, -0.017647944390773773, -0.11722728610038757, -0.006812449544668198, 0.06821185350418091, 0.0596771165728569, -0.018168028444051743, 0.018779829144477844, 0.08944131433963776, 0.01761072687804699, -0.01288384385406971, 0.035578902810811996, -0.023828480392694473, 0.01445941161364317, 0.06344569474458694, 0.02431766502559185, -0.0771770179271698, -0.029820488765835762, 0.08245376497507095, -0.011324018239974976, 0.005841806530952454, 0.08708307892084122, 0.06504293531179428, 0.016199205070734024, 0.048895105719566345, -0.08844882994890213, 0.09118983149528503, 0.07166776806116104, -0.1482364386320114, 0.01275359746068716, -0.10445372015237808, -0.06356142461299896, 0.02441943809390068, -0.08010733127593994, -0.06671787798404694, 0.003932011779397726, -0.022676175460219383, 0.01323484443128109, -0.07431410998106003, 0.3683069944381714, -0.035347238183021545, 0.05416305363178253, 0.24431319534778595, 0.006451060064136982, 0.6018421053886414, -0.004877227824181318], [0.0028398046270012856, -0.006454730872064829, -0.08135692775249481, -0.024093661457300186, -0.06316757947206497, -0.048892609775066376, -0.017231935635209084, -0.020588278770446777, -0.14628319442272186, -0.09110081940889359, 0.018568038940429688, 0.045118290930986404, 0.0013544774847105145, -0.2083698958158493, -0.18357238173484802, -0.09275013208389282, -0.15481656789779663, 0.009526285342872143, 0.023354794830083847, -0.029753316193819046, -0.04069314897060394, -0.09493964910507202, 0.07086833566427231, -0.18667972087860107, -0.1689223051071167, -0.18992644548416138, -0.026519091799855232, 0.011675083078444004, 0.16764266788959503, 0.16993486881256104, -0.02383229322731495, 0.12410741299390793, 0.09800485521554947, -0.2426159381866455, -0.1127815991640091, -0.0742405503988266, -0.03861459344625473, 0.10980398207902908, 0.041982121765613556, 0.28310245275497437, 0.18029938638210297, 0.10336672514677048, 0.009398121386766434, -0.10109196603298187, -0.23557162284851074, -0.05557998642325401, -0.0940932035446167, -0.04079681634902954, 0.0024239998310804367, 0.2434324473142624, 0.1644352227449417, 0.021299468353390694, -0.02587457373738289, -0.1903930902481079, 0.010058406740427017, 0.005525285378098488, -0.03489512577652931, 0.060817353427410126, 0.021460015326738358, 0.17362838983535767, 0.1833583563566208, -0.08282165229320526, 0.01439603976905346, 0.15844154357910156, 0.15228551626205444, 0.10685637593269348, 0.09294073283672333, 0.09399206191301346, 0.1470559984445572, 0.1620604395866394, -0.07170688360929489, -0.0396684855222702, 0.15239045023918152, 0.09836653620004654, -0.0034902417100965977, 0.11750680208206177, 0.17972204089164734, 0.025909941643476486, 0.2162361890077591, 0.16110607981681824, -0.030267678201198578, -0.08158951252698898, 0.26977574825286865, 0.14279493689537048, 0.17665298283100128, 0.023710941895842552, 0.027704237028956413, 0.16468006372451782, 0.04041646420955658, 0.12485808879137039, 0.02262374944984913, -0.05646290257573128, 0.000637831341009587, 0.02663477137684822, 0.08638682961463928, 0.10452070087194443, 0.0630163624882698, 0.056089211255311966, -0.029692865908145905, -0.005596489179879427, -0.09945131093263626, -0.10047897696495056, 0.060089971870183945, 0.15993651747703552, 0.0798613503575325, -6.68775464873761e-05, -0.023886175826191902, 0.13663899898529053, 0.18673580884933472, 0.005222114268690348, -0.009264420717954636, -0.1653422862291336, -0.15441232919692993, 0.054263513535261154, 0.01430794782936573, 0.0358322337269783, -0.10526364296674728, -0.01833714358508587, -0.08741837739944458, -0.015768831595778465, -0.13686293363571167, -0.30518287420272827, -0.11619534343481064, -0.042831458151340485, -0.0824909508228302, -0.0660712718963623, -0.04717731103301048, -0.08393776416778564, -0.04553145915269852, -0.13171057403087616, 0.059415582567453384, -0.0927412211894989, 0.004421618767082691, 0.15633805096149445, 0.07196544110774994, 0.07205482572317123, 0.007806385401636362, 0.105352483689785, 0.018447285518050194, -0.16555695235729218, 0.011976762674748898, -0.028647784143686295, 0.0653114765882492, -0.01517490390688181, 0.052564844489097595, 0.059749651700258255, 0.0910746231675148, -0.0603916235268116, 0.04534443840384483, -0.0889463797211647, 0.027300603687763214, -0.007325248792767525, 0.02365046739578247, -0.014588835649192333, 0.037198200821876526, -0.015606381930410862, -0.025574494153261185, 0.07151351869106293, -0.022968772798776627, -0.12328192591667175, 0.037844058126211166, -0.012465162202715874, -0.07939205318689346, 0.037236958742141724, -0.0868200734257698, -0.07111866027116776, -0.05594360828399658, 0.08644522726535797, -0.05927087366580963, -0.020768383517861366, 0.0475027821958065, 0.04363741725683212, -0.04080241918563843, 0.03857192397117615, 0.005784428212791681, -0.028481097891926765, 0.005336526315659285, -0.012176517397165298, 0.03708488494157791, -0.0025985168758779764, -0.02775922417640686, -0.00036570936208590865, -0.07459166646003723, 0.017832940444350243, 0.015963135287165642, 0.06860798597335815, -0.012444215826690197, 0.07157766819000244, -0.017595747485756874, 0.10589251667261124, 0.1703377366065979, -0.004222219344228506, -0.05141722038388252, -0.08806712925434113, -0.0016056838212534785, 0.07313121855258942, 0.018662570044398308, 0.08671768009662628, 0.018684647977352142, 0.07729552686214447, 0.1895291656255722, 0.10475275665521622, 0.20731213688850403, 0.05284719914197922, 0.11056578159332275, 0.18730048835277557, 0.0580659955739975, 0.23687244951725006, -0.22925418615341187, 0.08047280460596085, 0.0016802203608676791, -0.13964372873306274, 0.010353116318583488, 0.2215060591697693, 0.012585662305355072], [0.0032809742260724306, 0.03559950739145279, 0.020157603546977043, -0.059135571122169495, -0.10864067822694778, -0.18118789792060852, -0.08170919120311737, -0.06254822015762329, 0.02948683314025402, 0.027369553223252296, -0.03277350589632988, 0.04576410353183746, 0.05024116113781929, -0.24684160947799683, -0.2164449691772461, -0.5002157688140869, 0.07988846302032471, 0.08463290333747864, 0.01594913937151432, -0.050391629338264465, -0.0083948178216815, -0.05484895035624504, -0.14315953850746155, -0.15989995002746582, -0.1619984656572342, -0.2866711914539337, -0.006580696906894445, 0.031885776668787, -0.14221790432929993, -0.033795733004808426, -0.02579296939074993, -0.05723492056131363, -0.27686381340026855, -0.21137629449367523, -0.22205866873264313, -0.27666983008384705, -0.008611983619630337, 0.07981787621974945, -0.11877511441707611, -0.06929408013820648, 0.03502415493130684, 0.07566168904304504, -0.1888345330953598, 0.03568316623568535, -0.14440211653709412, -0.15281011164188385, -0.03114665113389492, -0.04258321598172188, -0.07070103287696838, -0.20478768646717072, 0.02652096003293991, 0.1598847359418869, -0.10510415583848953, -0.20865489542484283, 0.03688101842999458, 0.04156550019979477, 0.05066680535674095, 0.035252101719379425, 0.07913286238908768, -0.1758289337158203, 0.008954460732638836, -0.06280534714460373, -0.1400408148765564, -0.11158958077430725, -0.04607316851615906, 0.0822644755244255, 0.17142325639724731, -0.045998092740774155, 0.0821705162525177, -0.03116537630558014, 0.05905383825302124, -0.06872390955686569, -0.0007436436135321856, -0.15315987169742584, 0.1179681047797203, 0.18082301318645477, -0.09480737894773483, 0.06733100861310959, 0.02394075319170952, 0.008300389163196087, -0.01617424562573433, -0.10631654411554337, -0.08048448711633682, -0.016495050862431526, 0.05245150253176689, 0.034468017518520355, 0.06285887956619263, 0.01539655588567257, 0.011687171645462513, 0.013574602082371712, -0.1005343422293663, 0.0854346752166748, 0.019238468259572983, 0.08249251544475555, -0.0233538169413805, 0.029316721484065056, 0.08044841140508652, -0.00045567064080387354, 0.03934985399246216, 0.010991617105901241, -0.02295466512441635, 0.012737737968564034, 0.08800184726715088, -0.026017211377620697, -0.0061736381612718105, -0.013180768117308617, -0.03017258644104004, -0.03310087323188782, -0.051967378705739975, -0.009390292689204216, 0.03424158692359924, -0.03227829188108444, 0.0053301588632166386, 0.03837478533387184, -0.050787992775440216, -0.043544284999370575, -0.07489169389009476, 0.06449612975120544, -0.06680203974246979, 0.18697592616081238, 0.06353103369474411, -0.03910350427031517, -0.018885692581534386, 0.0027202065102756023, 0.04300260543823242, 0.029726620763540268, -0.04291607812047005, 0.019871512427926064, -0.02714640088379383, 0.011388927698135376, 0.01812015101313591, -0.030174460262060165, 0.0625113770365715, 0.006658402271568775, 0.06144163757562637, 0.023039983585476875, -0.054840728640556335, 0.03326749801635742, 0.048621416091918945, -0.08178667724132538, 0.051372379064559937, 0.10233770310878754, -0.02466864325106144, -0.09860461950302124, 0.11290868371725082, 0.023117268458008766, 0.011972567066550255, -0.04795348644256592, 0.11951655894517899, -0.0010373614495620131, -0.012176120653748512, -0.054490506649017334, 0.09312418103218079, -0.03356559947133064, 0.040009237825870514, 0.010449959896504879, 0.14115780591964722, -0.06601017713546753, 0.025005510076880455, 0.06550378352403641, 0.025087552145123482, 0.044392287731170654, -0.0036650702822953463, -0.09734740108251572, 0.03552825003862381, 0.07964149117469788, 0.07321910560131073, 0.011617124080657959, -0.005365094635635614, -0.031044606119394302, 0.026444125920534134, 0.01931365393102169, 0.06948010623455048, 0.02510650083422661, -0.022912435233592987, 0.02729921042919159, 0.12868794798851013, -0.05719951167702675, -0.012690356932580471, -0.028564097359776497, -0.0635560005903244, -0.0015171968843787909, -0.05582446977496147, 0.0036482650320976973, -0.013095528818666935, -0.06257843226194382, 0.04617130011320114, 0.057359401136636734, 0.009730375371873379, -0.09897726029157639, -0.12813431024551392, -0.006195776630192995, 0.0016870734980329871, -0.017399558797478676, -0.03682313114404678, -0.027605563402175903, -0.09777655452489853, 0.008094568736851215, -0.09831855446100235, 0.035749875009059906, -0.0205219779163599, -0.12241259962320328, -0.015802569687366486, -0.022538013756275177, -0.0587385892868042, 0.016732821241021156, -0.09073236584663391, 0.027382483705878258, 1.0894193649291992, -0.01730329543352127, 0.12117084860801697, 0.0028681675903499126, -0.004548758268356323, 0.64763343334198, -0.0004208272148389369], [0.014649426564574242, -0.020256878808140755, -0.0808931514620781, -0.1431826800107956, -0.2089204490184784, -0.08184917271137238, -0.04175646975636482, 0.030228614807128906, -0.029990218579769135, 0.045396044850349426, -0.0753806084394455, -0.04980302229523659, -0.11626126617193222, 0.002097004558891058, -0.3634049594402313, -0.09813395887613297, -0.1031232550740242, -0.014662164263427258, -0.06631896644830704, 0.008655953221023083, -0.04365596920251846, 0.0352766290307045, -0.053863707929849625, -0.1461457461118698, -0.3202954828739166, -0.2631128132343292, -0.10245206952095032, -0.00834600068628788, -0.11458021402359009, -0.02426929585635662, -0.07601652294397354, -0.014866610057651997, -0.042373839765787125, -0.13100264966487885, -0.2262614667415619, -0.3946453928947449, -0.2046327292919159, -0.13187506794929504, -0.00663912296295166, -0.040326546877622604, -0.063480906188488, -0.026620633900165558, -0.18488448858261108, -0.127537339925766, -0.26215988397598267, -0.297932505607605, -0.17545238137245178, -0.05768720805644989, 0.02408679947257042, -0.051430169492959976, 0.03927145525813103, 0.05747964233160019, -0.09423492848873138, -0.16666896641254425, -0.16573700308799744, -0.20902669429779053, -0.1874510943889618, -0.07248255610466003, -0.0062968190759420395, 0.007561973296105862, 0.02569493092596531, 0.037885624915361404, -0.21372249722480774, -0.2455175369977951, 0.0010702640283852816, -0.12407338619232178, -0.06577599048614502, -0.006507250480353832, 0.017199184745550156, -0.0012587136588990688, -0.0007856523734517395, -0.026942022144794464, -0.13110680878162384, -0.09615586698055267, 0.03581716865301132, -0.0410216860473156, 0.04104501008987427, -0.023488616570830345, 0.01228545606136322, -0.046410053968429565, -0.020930910483002663, 0.035725366324186325, -0.0780218243598938, -0.0015028881607577205, 0.036788538098335266, -0.06240234896540642, -0.07734217494726181, -0.012208729051053524, 0.07793313264846802, -0.008319761604070663, 0.09337355196475983, -0.039079513400793076, -0.011415133252739906, -0.04353700205683708, 0.005736656952649355, -0.044755663722753525, 0.014999876730144024, -0.04577706754207611, 0.057177964597940445, 0.06551286578178406, 0.013349599204957485, 0.019878871738910675, -0.004072857089340687, 0.016573552042245865, 0.07367916405200958, -0.01466098427772522, 0.07211180776357651, -0.003925792407244444, -0.041062988340854645, -0.010402422398328781, -0.03382166847586632, -0.015812503173947334, 0.10972117632627487, 0.05371236428618431, 0.059348978102207184, -0.01615982875227928, -0.03671054542064667, 0.007665625773370266, 0.0922088697552681, 0.18457016348838806, 0.02304663322865963, 0.10803255438804626, 0.13362300395965576, 0.1343296468257904, 0.04464602470397949, 0.06313513964414597, -0.044049814343452454, 0.034710995852947235, 0.05653015151619911, 0.07673869282007217, 0.10876984894275665, 0.07803991436958313, 0.17811165750026703, 0.08133203536272049, 0.07110097259283066, 0.11261226236820221, 0.06019590049982071, 0.08305278420448303, 0.04424935206770897, 0.05054091662168503, -0.0025304679293185472, 0.06795036047697067, 0.11687421053647995, 0.05834667384624481, 0.030891597270965576, 0.03848019242286682, 0.06216541677713394, 0.06729011982679367, 0.0655505359172821, 0.033241067081689835, 0.03130580112338066, 0.07737505435943604, 0.13651935756206512, 0.05338604003190994, 0.07779093086719513, 0.023040488362312317, 0.044111136347055435, -0.02111755684018135, 0.06539997458457947, 0.05459261313080788, -0.041322626173496246, 0.01393270306289196, 0.04546087235212326, 0.06427276879549026, -0.009596250019967556, 0.04047319293022156, 0.07018275558948517, -0.0022900851909071207, 0.02187390625476837, 0.010717428289353848, 0.0626981258392334, 0.02600848115980625, 0.13757237792015076, 0.05790703371167183, 0.0845324844121933, 0.057783257216215134, 0.03583362326025963, 0.06981147080659866, 0.021670885384082794, 0.0026719628367573023, 0.011096972972154617, 0.06648381799459457, 0.06884726136922836, 0.09570113569498062, -0.01431255228817463, 0.03918467462062836, -0.02840009517967701, -0.027856208384037018, -0.01855207420885563, -0.017023824155330658, -0.05570664629340172, 0.004185724072158337, -0.013930680230259895, -0.06588657200336456, -0.07763348519802094, -0.009233861230313778, 8.313346916111186e-05, -0.016260582953691483, -0.030470792204141617, -0.008966839872300625, 0.13116417825222015, 0.013558688573539257, 0.09788723289966583, 0.04847491905093193, 0.01081840693950653, -0.011119602248072624, -0.03574368357658386, 0.04890760779380798, -1.4554437398910522, -0.014530855230987072, -0.13786707818508148, -0.3664930462837219, 0.010473332367837429, -0.7012975215911865, 0.04603617638349533], [-0.022493159398436546, -0.0006614609155803919, 0.00408164132386446, -0.02497803047299385, -0.16003891825675964, 0.004311783239245415, -0.12175770103931427, -0.003382303286343813, -0.04179646447300911, 0.0033990000374615192, -0.04193057492375374, -0.023062728345394135, -0.029902707785367966, 0.12531766295433044, -0.005337974056601524, 0.026458891108632088, -0.03498217463493347, -0.020777195692062378, -0.060336507856845856, 0.01056560967117548, 0.005800593178719282, -0.037231188267469406, -0.03242579847574234, -0.0002308483381057158, -0.2375164031982422, 0.04227443039417267, -0.007996457628905773, -0.058861687779426575, -0.004961657803505659, 0.004472739528864622, -0.04151283577084541, -0.039431698620319366, 0.03100101463496685, -0.050823621451854706, -0.2000965029001236, -0.03664177656173706, 0.03208198398351669, -0.10049179196357727, -0.021488456055521965, -0.014277243986725807, 0.043414607644081116, -0.0743107944726944, -0.030807562172412872, -0.02704749070107937, -0.12437774986028671, -0.12294226139783859, -0.09171166270971298, -0.16189418733119965, -0.1198621466755867, -0.0524124912917614, -0.09351324290037155, -0.18118984997272491, -0.14425534009933472, -0.16430914402008057, 0.0637117549777031, -0.10234875977039337, -0.12214494496583939, -0.18207231163978577, -0.1965554654598236, -0.37021389603614807, -0.08477514237165451, -0.12249090522527695, -0.07357775419950485, -0.04096929728984833, -0.17930607497692108, 0.0015940406592562795, -0.09188612550497055, -0.20001797378063202, -0.17091773450374603, -0.16433119773864746, 0.006771019659936428, -0.09976998716592789, -0.15104125440120697, -0.06500816345214844, -0.2136119157075882, -0.0918470025062561, -0.18771448731422424, -0.00311864260584116, 0.016332728788256645, -0.01456630602478981, -0.12904363870620728, 0.2348659485578537, -0.025231357663869858, 0.07080966979265213, -0.0152629679068923, -0.006882152520120144, -0.32395997643470764, -0.058199454098939896, 0.09500271081924438, -0.0451926663517952, 0.02272617071866989, -0.0038616363890469074, -0.07782914489507675, -0.23207136988639832, -0.0027659223414957523, -0.20085301995277405, -0.14056628942489624, -0.14491283893585205, 0.03813807666301727, -0.08614745736122131, -0.04211125150322914, -0.057985808700323105, -0.04651130735874176, 0.004340639803558588, 0.0688517615199089, 0.019140496850013733, -0.05412949249148369, -0.07006343454122543, -0.055261336266994476, 0.012093035504221916, -0.03049694374203682, -0.16798366606235504, 0.0922548696398735, 0.03588312119245529, -0.022587165236473083, -0.025445621460676193, 0.019963478669524193, -0.018349410966038704, -0.01845690980553627, -0.04507271945476532, -0.1823202222585678, -0.1089206114411354, 0.025858191773295403, -0.010350968688726425, -0.03448671102523804, 0.0015293083852156997, 0.01664051041007042, 0.014497739262878895, -0.014478037133812904, -0.033083606511354446, -0.1440940499305725, -0.17528043687343597, -0.08964693546295166, -0.006866679526865482, -0.02409485913813114, -0.07086040079593658, -0.01225812453776598, -0.010510332882404327, -0.0567086897790432, -0.07478810846805573, -0.11421601474285126, -0.09397988021373749, 0.030058516189455986, 0.06086540222167969, 0.015453283675014973, 0.0017464363481849432, 0.041869573295116425, 0.012278451584279537, 0.030093928799033165, 0.0054978299885988235, -0.10508418083190918, -0.11728226393461227, -0.0008090614574030042, 0.017470858991146088, -0.04345081374049187, 0.0026416906621307135, -0.011316882446408272, 0.007397303357720375, -0.006381398532539606, -0.047119028866291046, -0.03230024501681328, -0.0065634408965706825, 0.007352421060204506, -0.03581870719790459, -0.03423985466361046, -0.03167949616909027, 0.01365858968347311, -0.04223668947815895, 0.03709666430950165, -0.04916094243526459, -0.01554786041378975, 0.025568047538399696, -0.016090037301182747, 0.022646890953183174, -0.032138071954250336, 0.003222877625375986, -0.003135829232633114, -0.022847991436719894, 0.047325413674116135, -0.024133669212460518, -0.02000894770026207, 0.07471571862697601, 0.015924885869026184, 0.001039237598888576, 0.029049016535282135, 0.045868903398513794, 0.004367610905319452, 0.026492947712540627, 0.021573133766651154, 0.05749710276722908, 0.012833942659199238, -0.013521326705813408, 0.030498841777443886, 0.035756222903728485, 0.037968385964632034, 0.05069825053215027, 0.023179123178124428, 0.03337238356471062, 0.0332924909889698, 0.02650168165564537, 0.2125885933637619, 0.29182738065719604, 0.2175748348236084, 0.3397436738014221, 0.1890084147453308, 0.2460995614528656, 0.2033458948135376, 0.38494277000427246, -0.49950242042541504, 0.0814494714140892, -0.053198471665382385, 0.2620832920074463, -0.006831929087638855, 0.756370484828949, -0.02398502454161644], [0.0016725750174373388, -0.054432496428489685, -0.025980571284890175, -0.009488571435213089, -0.08264048397541046, -0.2777803838253021, 0.0005383322713896632, 0.06141393631696701, -0.006252075545489788, 0.004651600960642099, -0.0006608449621126056, -0.045730024576187134, -0.07657014578580856, -0.2057362049818039, -0.21940556168556213, -0.20112313330173492, 0.02837798185646534, 0.12796565890312195, -0.006800033152103424, 0.004080283921211958, 0.037425536662340164, -0.061486728489398956, -0.03821709007024765, -0.16702289879322052, -0.2112254947423935, -0.13954801857471466, -0.09056484699249268, 0.07153172791004181, -0.014784416183829308, 0.0724107101559639, 0.015542134642601013, -0.056767214089632034, -0.08274732530117035, -0.2357221394777298, -0.16601262986660004, -0.1287386268377304, -0.1121167242527008, 0.08388324081897736, 0.0045374720357358456, 0.0789121463894844, -0.05323656648397446, -0.125538170337677, -0.04689282178878784, -0.3370116353034973, -0.03036373108625412, -0.235284686088562, -0.10175264626741409, 0.09645020961761475, -0.021755894646048546, 0.0340580940246582, 0.06105737015604973, -0.1277201920747757, -0.08190656453371048, -0.329060435295105, -0.17021743953227997, -0.34112080931663513, 0.09559796750545502, 0.011667084880173206, -0.0601109117269516, -0.13369370996952057, -0.006302306894212961, -0.05079374089837074, 0.11008931696414948, -0.06832687556743622, 0.11260813474655151, -0.011861528269946575, 0.043108243495225906, -0.1145646795630455, -0.05966787785291672, -0.0403030589222908, -0.14693781733512878, -0.07250035554170609, 0.10805901139974594, -0.0799858421087265, 0.1762705296278, 0.1405809074640274, 0.2401498407125473, -0.02339589037001133, -0.3473884165287018, -0.2650914788246155, -0.14470170438289642, -0.2594078779220581, -0.010821536183357239, -0.2042127549648285, -0.12883977591991425, -0.11234116554260254, 0.00585699500516057, -0.08508824557065964, -0.025334738194942474, -0.13757723569869995, -0.14885559678077698, -0.15583765506744385, -0.09689567238092422, -0.13523352146148682, 0.030169755220413208, -0.10857179760932922, -0.12859833240509033, -0.3101952373981476, -0.10534385591745377, 0.1119183897972107, -0.15994146466255188, -0.09216668456792831, 0.03961612656712532, -0.29323992133140564, -0.15388499200344086, -0.06843671947717667, -0.13001702725887299, -0.2827897369861603, -0.2993403971195221, -0.0038627719040960073, -0.2690196633338928, -0.3746812641620636, -0.22338762879371643, -0.2770596742630005, -0.298362135887146, -0.29878556728363037, -0.3210958242416382, -0.4159690737724304, -0.38676556944847107, -0.10251829773187637, -0.00014207998174242675, -0.062079329043626785, -0.1054200679063797, -0.06577228754758835, 0.021181728690862656, 0.010259010829031467, 0.0534602589905262, -0.06641267985105515, -0.04849866405129433, -0.05936354398727417, 0.04490438476204872, -0.0351625494658947, -0.06638581305742264, 0.0038543452974408865, -0.04368797689676285, -0.08101983368396759, -0.0847659483551979, -0.0465279184281826, -0.002548651536926627, -0.025869082659482956, -0.02024029940366745, -0.00630172761157155, -0.06305338442325592, -0.05803413689136505, -0.06557423621416092, -0.11843283474445343, -0.07907776534557343, -0.07732196152210236, -0.007317456882447004, -0.048361100256443024, 0.03412465378642082, 0.05504805967211723, 0.05255322530865669, -0.012726660817861557, 0.047826699912548065, -0.04683336615562439, -0.01490483433008194, -0.012647858820855618, 0.04550101235508919, 0.13379034399986267, 0.01907384768128395, 0.07865095138549805, 0.010395475663244724, 0.08962152153253555, 0.04985480383038521, 0.04027258977293968, -0.04443829134106636, -0.01748446188867092, 0.059287287294864655, 0.002858686028048396, 0.021137356758117676, 0.13078109920024872, 0.0023207427002489567, -0.04665488377213478, 0.012985097244381905, 0.0433536060154438, 0.013355628587305546, 0.003369517857208848, 0.08723624795675278, 0.08711159974336624, -0.003163648769259453, 0.017821509391069412, 0.01681169867515564, -0.00011916256335098296, 0.0902649313211441, 0.027239609509706497, -0.0013758420245721936, -0.01945754513144493, 0.08352090418338776, 0.10683029145002365, 0.15162548422813416, 0.09872204810380936, 0.08034457266330719, 0.1649159938097, 0.04158332943916321, 0.0983772948384285, 0.08684461563825607, 0.09144935011863708, 0.0740874782204628, 0.15341685712337494, 0.14857976138591766, 0.1181248128414154, 0.19719146192073822, 0.02327643148601055, 0.2394811362028122, 0.2745651304721832, 0.17818860709667206, 0.20105178654193878, -0.15499426424503326, 0.13809947669506073, 0.0056105139665305614, 0.11046411842107773, 0.0004061877843923867, 0.16383813321590424, 0.0018765426939353347], [0.05352509021759033, 0.04344744607806206, -0.0652673989534378, -0.06275270879268646, -0.08557020872831345, -0.206440731883049, -0.06515074521303177, -0.04797520115971565, -0.03067089058458805, -0.06213081628084183, -0.0813731998205185, 0.0014867252903059125, -0.10820356011390686, -0.46667933464050293, -0.022233355790376663, -0.23968364298343658, -0.17675288021564484, -0.2163158655166626, -0.013503015972673893, -0.07377225160598755, -0.14235518872737885, -0.03550774231553078, -0.12170292437076569, -0.1955578774213791, -0.3002776801586151, -0.15631510317325592, -0.14731211960315704, -0.08013592660427094, -0.012725133448839188, -0.06134853884577751, 0.017445553094148636, 0.048973459750413895, -0.04262841120362282, -0.017383264377713203, -0.2264183610677719, -0.13185688853263855, -0.04560748115181923, -0.0647227019071579, -0.0022485286463052034, -0.010712170042097569, 0.00740407407283783, -0.1284196525812149, -0.03641584515571594, -0.13970309495925903, -0.22066007554531097, -0.1673906445503235, -0.1722235083580017, -0.012785781174898148, 0.017297789454460144, 0.0022332589142024517, 0.07534988224506378, 0.022798413410782814, 0.0184687077999115, -0.06070533022284508, -0.12934435904026031, -0.09085561335086823, -0.028177157044410706, 0.04414566606283188, 0.0726943165063858, -0.026467010378837585, -0.05730624496936798, 0.01926714926958084, -0.012061923742294312, -0.02796485833823681, -0.05408448725938797, -0.03348259627819061, -0.02449764683842659, 0.018192073330283165, 0.08056344091892242, 0.08324713259935379, -0.0710039883852005, 0.00391431525349617, -0.0031800861470401287, -0.014040223322808743, 0.07237792760133743, -0.039409950375556946, -0.006589396856725216, 0.04105592146515846, 0.04183647036552429, 0.06994570791721344, -0.0003226871194783598, 0.02754286117851734, 0.008374855853617191, 0.017651034519076347, -0.018353981897234917, 0.05872933939099312, -0.03033372014760971, -0.026593655347824097, 0.006582494359463453, 0.17874430119991302, -0.028108395636081696, -0.0135490782558918, -0.04391846805810928, -0.03959883376955986, 0.025043878704309464, -0.08613502979278564, 0.03719537332653999, -0.0746878981590271, -0.02281065657734871, 0.06438600271940231, -0.016926711425185204, 0.008652160875499249, 0.0302906297147274, -0.017605062574148178, -0.005275143310427666, 0.06029558926820755, -0.022338861599564552, -0.07493622601032257, -0.03700781986117363, 0.19727838039398193, 0.015646571293473244, -0.001444516470655799, -0.048992712050676346, 0.018338767811655998, -0.014975085854530334, -0.02886679396033287, 0.01720496080815792, -0.04811874032020569, -0.12040258944034576, 0.2555539011955261, -0.011622843332588673, 0.00879406463354826, 0.026445863768458366, -0.013059701770544052, 0.018505742773413658, -0.01159509364515543, -0.009361050091683865, -0.05808666720986366, -0.1366395205259323, 0.24366304278373718, -0.009873561561107635, 0.010245826095342636, 0.004791422747075558, 0.015948139131069183, 0.015122604556381702, 0.0035877383779734373, -0.021316876634955406, -0.028002221137285233, -0.11060670763254166, 0.19143708050251007, -0.014169453643262386, 0.012407366186380386, -0.01096187811344862, -0.0005269550601951778, -0.02498795837163925, 0.00024161145847756416, -0.013813644647598267, -0.017302753403782845, -0.06423508375883102, 0.1631760597229004, 0.010856390930712223, 0.009362932294607162, -0.005467755254358053, 0.0038386795204132795, 0.016952596604824066, -0.02883038856089115, -0.011719731613993645, -0.02404550276696682, -0.07613508403301239, 0.13627542555332184, -0.03426732122898102, -0.010383130051195621, -0.016693884506821632, -0.006675654090940952, -4.389653622638434e-05, -0.01490353886038065, -0.019343331456184387, 0.0021832941565662622, -0.06307576596736908, 0.133488729596138, 0.003465458285063505, -0.004259058274328709, 0.0060389041900634766, -8.949236507760361e-05, 0.008592382073402405, -0.011547118425369263, -0.008738972246646881, -0.018368350341916084, -0.03852523863315582, 0.04954037070274353, -0.015110092237591743, -0.005824707914143801, -0.022281674668192863, -0.019816258922219276, -0.033609405159950256, -0.00949470978230238, -0.01021962333470583, 0.008099948987364769, -0.046371083706617355, 0.056218862533569336, 0.0032263188622891903, 0.01831606775522232, 0.0013130209408700466, -0.00462941313162446, 0.008786089718341827, 0.0010148370638489723, 0.02309204265475273, 0.018456438556313515, -0.012574145570397377, 0.015443568117916584, -0.04825219884514809, 0.38223904371261597, -0.10006517916917801, 0.05393489450216293, -0.105046845972538, 0.35346391797065735, 0.1860480159521103, -0.02505086176097393, -1.2824159860610962, 0.06552820652723312, -0.14366069436073303, -0.3754367530345917, -0.008790954016149044, -1.461522102355957, -0.014326576143503189], [-0.02657138556241989, 0.0010667763417586684, -0.13274113833904266, -0.1872999370098114, -0.14360325038433075, -0.20186978578567505, -0.1541673243045807, -0.046195682138204575, -0.055118728429079056, 0.012273766100406647, -0.03794098645448685, 0.04231655225157738, -0.07393455505371094, -0.2546248137950897, -0.4308977425098419, -0.4220343232154846, -0.2791500687599182, -0.05987522006034851, -0.13683606684207916, -0.007558409124612808, -0.03992217034101486, 0.007460198365151882, -0.05565173178911209, -0.12386006861925125, -0.31708866357803345, -0.34571948647499084, -0.18335764110088348, -0.0522133931517601, -0.005831229500472546, -0.03403184935450554, 0.06777544319629669, 0.08161262422800064, -0.09619353711605072, -0.06569463014602661, -0.07558993250131607, -0.25179117918014526, -0.1402425616979599, -0.017245525494217873, -0.015245974063873291, 0.001935253501869738, 0.13344040513038635, -0.04494699835777283, 0.023322299122810364, -0.002551225246861577, -0.05490430071949959, -0.13497820496559143, 0.022496594116091728, -0.19711339473724365, -0.13218726217746735, 0.031927064061164856, -0.000755748653318733, -0.09504683315753937, 0.08407015353441238, 0.057907745242118835, 0.047819484025239944, 0.039925239980220795, 0.17188963294029236, -0.07041291892528534, 0.06189633160829544, -0.10670110583305359, 0.12269338220357895, -0.008658095262944698, -0.0691530779004097, 0.044294022023677826, 0.058640867471694946, 0.13326869904994965, 0.18787287175655365, 0.06308913230895996, 0.1145925298333168, 0.123682402074337, 0.12495356798171997, -0.15969793498516083, 0.03293254226446152, 0.002607692265883088, -0.07994462549686432, 0.2355227917432785, 0.2491571307182312, 0.030799662694334984, 0.14190371334552765, 0.009868869557976723, -0.02394902892410755, 0.008010982535779476, 0.07426148653030396, 0.16147658228874207, -0.02460000477731228, 0.1281617134809494, 0.08054948598146439, 0.13100332021713257, 0.15082001686096191, 0.166328564286232, 0.03067358396947384, 0.07322683930397034, 0.1364952176809311, 0.09110654145479202, 0.07584557682275772, 0.22604870796203613, 0.27891841530799866, -0.08245575428009033, 0.15403257310390472, 0.06745963543653488, -0.14581836760044098, -0.053407251834869385, -0.008955206722021103, -0.005536569282412529, -0.020609693601727486, 0.09768718481063843, 0.0741213783621788, 0.047380052506923676, 0.036126721650362015, 0.05191314220428467, -0.1374838948249817, -0.16662146151065826, 0.025699827820062637, 0.0011423123069107533, -0.039440080523490906, 0.022053929045796394, 0.07570288330316544, -0.008980748243629932, -0.06987989693880081, 0.09008455276489258, -0.14701434969902039, -0.25339820981025696, -0.09237334132194519, -0.24785006046295166, -0.20312818884849548, -0.05485265702009201, -0.009739344008266926, -0.03515114635229111, -0.12415564060211182, -0.007212469819933176, -0.039461344480514526, -0.09763306379318237, -0.004884624388068914, -0.013553802855312824, 0.05327867344021797, 0.06003192067146301, 0.03735578432679176, -0.02037801593542099, -0.05944354459643364, -0.01764983870089054, 0.017372053116559982, 0.02003733068704605, 0.025181224569678307, 0.03183166682720184, -0.06615249812602997, 0.1697940081357956, 0.20613232254981995, 0.07862089574337006, -0.12197799980640411, -0.003518204903230071, 0.034218497574329376, 0.040230780839920044, -0.040256012231111526, 0.04435493052005768, 0.036588557064533234, -0.06786977499723434, 0.12248335778713226, 0.0755210667848587, 0.014588492922484875, -0.1399807184934616, 0.06839665025472641, 0.009112689644098282, 0.0359368622303009, 0.012665476649999619, -0.03298068046569824, 0.009104419499635696, 0.001389200915582478, 0.0552821159362793, -0.06504770368337631, -0.1497494876384735, 0.081392802298069, -0.004261182155460119, 0.04833760857582092, -0.016334112733602524, 0.03656717762351036, 0.06571776419878006, 0.04861453175544739, 0.060526397079229355, -0.033655256032943726, -0.054062508046627045, -0.013808476738631725, 0.009651734493672848, -0.007933838292956352, -0.08798236399888992, 0.12879863381385803, 0.0048317876644432545, -0.04275605455040932, 0.15906837582588196, -0.014026142656803131, 0.038447946310043335, 0.052167393267154694, 0.10488224774599075, 0.03275313600897789, -0.005589749198406935, 0.03089853934943676, 0.04912751168012619, 0.10241791605949402, 0.010990533046424389, 0.05256951227784157, 0.06306412816047668, 0.19378195703029633, 0.037789106369018555, 0.009641153737902641, 0.24983763694763184, 0.05751431733369827, 0.00852059293538332, 0.09691844880580902, -0.689016580581665, -0.45528444647789, 0.1296345591545105, -0.014459330588579178, -0.011436950415372849, 0.005779774859547615, -0.1521623432636261, 0.006084728520363569], [0.006145363207906485, -0.05250953510403633, 0.11309907585382462, 0.0763012021780014, -0.1877967119216919, -0.08436183631420135, 0.008589653298258781, -0.1617114543914795, -0.0224703811109066, 0.007627619430422783, -0.017695914953947067, -0.11869076639413834, -0.06589808315038681, -0.001433673081919551, -0.13421514630317688, -0.22093082964420319, 0.0013951623113825917, -0.07731619477272034, -0.09310737997293472, -0.06229541078209877, -0.027329422533512115, 0.0014660601736977696, 0.001802179147489369, -0.15097501873970032, -0.22219966351985931, -0.20574651658535004, -0.20673279464244843, -0.0740506574511528, 0.04486367478966713, -0.018824594095349312, -0.0059554376639425755, -0.037431132048368454, -0.15678831934928894, -0.1411498636007309, -0.16296932101249695, -0.23360486328601837, -0.08926159888505936, -0.028764335438609123, 0.03674701601266861, -0.031552206724882126, -0.017957627773284912, 0.03424903750419617, -0.004160585347563028, -0.07925243675708771, -0.2307775914669037, -0.16530807316303253, -0.08365671336650848, -0.004015635699033737, -0.04942997545003891, -0.0042908950708806515, -0.05956646800041199, -0.005508449859917164, 0.042228490114212036, 0.0721745640039444, -0.09361729025840759, 0.010633185505867004, 0.008542871102690697, -0.03652850538492203, 0.012160619720816612, 0.05694838985800743, 0.05609612166881561, -0.046485934406518936, -0.031135398894548416, 0.05672561377286911, -0.16360020637512207, -0.041742440313100815, 0.04132327437400818, 0.04163085296750069, 0.03345189243555069, 0.0556756854057312, 0.17186513543128967, 0.008131778798997402, 0.04210743308067322, 0.047255195677280426, 0.0015074715483933687, -0.12581655383110046, -0.017312806099653244, 0.0007166131981648505, 0.07762124389410019, 0.01398626621812582, 0.11841640621423721, 0.02438715659081936, 0.11252984404563904, 0.10642830282449722, 0.010977917350828648, 0.17295759916305542, 0.11568984389305115, 0.06522727757692337, 0.037090688943862915, -0.039778515696525574, -0.09308590739965439, 0.08027834445238113, 0.16686557233333588, 0.15264363586902618, 0.11277066171169281, 0.06656595319509506, 0.09884162247180939, 0.09924160689115524, 0.09190678596496582, -0.016621071845293045, 0.0077102091163396835, -0.012355995364487171, 0.1424870491027832, 0.13834132254123688, -0.09391525387763977, 0.09219130873680115, 0.059346843510866165, 0.0006186020327731967, 0.032733384519815445, -0.022108247503638268, -0.03646191209554672, 0.01122214738279581, -0.002171020256355405, 0.09511648118495941, 0.07263379544019699, 0.0193901639431715, -0.011502091772854328, 0.024843445047736168, 0.011526504531502724, 0.05143023282289505, -0.007213314529508352, -0.009371791034936905, -0.025566644966602325, -0.01347715687006712, 0.017282484099268913, 0.0816907063126564, -0.1256321370601654, -0.06315910071134567, 0.11420831084251404, -0.014362962916493416, 0.005928957834839821, 0.036873769015073776, 0.011374171823263168, -0.04281243681907654, -0.010835620574653149, 0.02414371818304062, -0.013262455351650715, -0.017762241885066032, 0.048691485077142715, 0.006921371445059776, 0.0042489273473620415, 0.003901555435732007, -0.009259483776986599, 0.03175537660717964, 0.012940512970089912, 0.08611378818750381, -0.021001720800995827, 0.06682642549276352, 0.06714504957199097, 0.06952181458473206, -0.0225767083466053, 0.03285090997815132, -0.1031871810555458, 0.014812272973358631, 0.0006815024535171688, 0.02631954476237297, -0.034407686442136765, -0.031561512500047684, 0.1044531762599945, 0.015460269525647163, 0.012156330980360508, 0.01894252374768257, 0.047608453780412674, -0.0022052661515772343, -0.016187630593776703, 0.0035139359533786774, -0.030493365600705147, 0.04463164135813713, 0.01870734989643097, 0.07441046088933945, -0.01306607574224472, 0.003668064484372735, 0.03987748175859451, 0.05630271136760712, 0.048662785440683365, 0.010135777294635773, -0.00721706822514534, 0.007313869893550873, 0.004799052607268095, 0.02888409234583378, -0.01035845372825861, -0.04161015897989273, 0.007338424678891897, 0.03636045381426811, 0.03288460895419121, 0.029523303732275963, -0.01790858618915081, 0.002787856850773096, 0.06119406595826149, -0.02398168109357357, -0.04275612533092499, 0.017125362530350685, 0.004166708327829838, -0.010065468028187752, 0.0037637415807694197, 0.03369330242276192, 0.033501289784908295, 0.008294242434203625, 0.024229835718870163, -0.0003093721461482346, 0.3397727906703949, 0.18640345335006714, 0.2946290373802185, 0.23755447566509247, 0.28401291370391846, 0.20695167779922485, 0.2416161745786667, 0.2416630983352661, -0.8703184723854065, -0.026079712435603142, -0.05610261857509613, -0.24877789616584778, 0.010692177340388298, 0.12963609397411346, 0.013321860693395138], [0.0023845576215535402, -0.008283134549856186, -0.04664656147360802, -0.23120072484016418, -0.19593766331672668, -0.09356050938367844, 0.18671244382858276, -0.020344475284218788, -0.03148313984274864, -0.060778744518756866, 0.07596421241760254, 0.05384117737412453, -0.08502454310655594, -0.19199222326278687, -0.40471792221069336, -0.12755857408046722, 0.08303001523017883, 0.012691233307123184, -0.10054671764373779, -0.11242181062698364, -0.08709802478551865, 0.023007137700915337, -0.1106920838356018, 0.01925581507384777, -0.1427372843027115, -0.15072983503341675, -0.07518680393695831, -0.11576429009437561, 0.06883201003074646, -0.0574854277074337, -0.12523630261421204, 0.09244892001152039, -0.12870045006275177, 0.03506933152675629, 0.0014821437653154135, -0.054186929017305374, -0.01027610246092081, 0.04907521605491638, -0.14226597547531128, 0.016762861981987953, -0.17609170079231262, 0.2044753134250641, -0.13475027680397034, -0.03296206146478653, 0.1338629126548767, -0.035487961024045944, -0.013922713696956635, 0.027693819254636765, -0.12549139559268951, 0.12140687555074692, -0.14673562347888947, 0.08122153580188751, -0.1521184891462326, 0.2805421054363251, -0.06187829747796059, 0.0008411966264247894, -0.03744189813733101, -0.012240396812558174, -0.010443269275128841, 0.07438071072101593, -0.2278686761856079, -0.16492441296577454, -0.11201880872249603, -0.0323222316801548, -0.14538218080997467, 0.021386578679084778, -0.11312169581651688, 0.12517096102237701, 0.04671775549650192, 0.08003360033035278, 0.046616602689027786, 0.06631015986204147, 0.032614510506391525, 0.09396769851446152, -0.05218508839607239, -0.03582717850804329, -0.16800881922245026, 0.2254454344511032, -0.09714670479297638, 0.07412435114383698, 0.08459926396608353, -0.10923048853874207, -0.02991887927055359, 0.08590274304151535, -0.019928764551877975, -0.03341544419527054, -0.09297218173742294, 0.08639046549797058, -0.009955205954611301, 0.08338557928800583, -0.03825780376791954, 0.12842655181884766, -0.08434952050447464, 0.07571657001972198, -0.12357348948717117, 0.065227210521698, -0.008698699995875359, 0.10100002586841583, -0.0084921196103096, 0.03513007611036301, -0.1897607147693634, 0.06742506474256516, 0.01683359593153, 0.04392277076840401, 0.07330318540334702, 0.01959700509905815, 0.06696684658527374, 0.0806494951248169, -0.0056427824310958385, -0.0031322084832936525, 0.031973257660865784, -0.038759466260671616, -0.013741201721131802, 0.013267782516777515, 0.04809776321053505, -0.014003786258399487, -0.08699951320886612, 0.08906298875808716, 0.0036760829389095306, -0.014322209171950817, -0.023962154984474182, 0.07990216463804245, -0.015832869336009026, -0.15955761075019836, -0.004943491891026497, -0.03739911690354347, 0.07560230791568756, -0.008353726007044315, 0.13978591561317444, 0.07643510401248932, -0.01450856402516365, -0.03586851432919502, 0.013065775856375694, 0.02138753980398178, 0.029606135562062263, -0.06838894635438919, 0.12855426967144012, -0.02393936924636364, -0.06154714152216911, -0.03868939355015755, -0.07337351888418198, -0.020119158551096916, -0.10632965713739395, -0.056030530482530594, 0.09582187235355377, -0.08008306473493576, 0.06343791633844376, -0.06728922575712204, 0.039408449083566666, 0.031200993806123734, -0.033768922090530396, 0.030762162059545517, -0.11156296730041504, 0.083355613052845, 0.017586443573236465, 0.07519559562206268, -0.06745531409978867, 0.04988125339150429, -0.08844881504774094, 0.010081020183861256, -0.1040416806936264, 0.020128481090068817, -0.034407250583171844, -0.03023372031748295, 0.0029140424448996782, -0.09807712584733963, -0.03049747832119465, 0.05915679410099983, -0.001063611125573516, -0.01177341490983963, 0.09152845293283463, -0.09436538815498352, 0.08977667987346649, 0.04702989012002945, 0.057283882051706314, 0.022275634109973907, -0.03693545237183571, -0.12774309515953064, -0.06842732429504395, 0.037337467074394226, 0.0017437170026823878, 0.003936996683478355, -0.03672235086560249, 0.028068993240594864, 0.08320493251085281, 0.03969932720065117, -0.08278285712003708, 0.008869159035384655, 0.04352136328816414, -0.03140314668416977, -0.023421281948685646, 0.028001712635159492, 0.006125858053565025, 0.013061960227787495, 0.007128067780286074, -0.028274917975068092, -0.049015119671821594, -0.005573711823672056, -0.02636810578405857, 0.04321577772498131, -0.02334723062813282, -0.08891920745372772, -0.04565933719277382, -0.029907573014497757, -0.034440748393535614, 0.03802300989627838, -0.06429364532232285, -0.017522037029266357, 1.4959230422973633, 0.03323594853281975, 0.1779603362083435, 0.007768663577735424, -0.005814209580421448, -0.06454562395811081, 0.008095641620457172], [0.032429154962301254, 0.034980468451976776, 0.026712235063314438, -0.0077647618018090725, -0.09540700167417526, -0.11309603601694107, 0.031973592936992645, 0.00763965118676424, -0.009806484915316105, -0.0014717952581122518, -0.001333328546024859, -0.010205971077084541, 0.0002486216544639319, -0.025012094527482986, -0.08568859100341797, -0.09098208695650101, 0.05246531218290329, 0.060449205338954926, 0.005742752458900213, -0.006614577025175095, -0.005359538830816746, 0.0063762660138309, -0.030237717553973198, -0.011593683622777462, -0.011081462725996971, -0.01839573308825493, 0.04503396898508072, 0.024309581145644188, -0.014477651566267014, -0.02115180343389511, -0.0017709268722683191, 0.011088605970144272, -0.01955692656338215, -0.021722720935940742, -0.020870162174105644, -0.03128177300095558, -0.023727070540189743, 0.023311590775847435, 0.01513385958969593, 0.014866642653942108, -0.0088694142177701, 0.002499721944332123, -0.010324680246412754, -0.014346842654049397, -0.011708500795066357, -0.044248316437006, -0.039242133498191833, -0.0050572059117257595, 0.0038871653378009796, 9.860770660452545e-05, 0.03725903108716011, -0.01944899559020996, -0.009986166842281818, -0.01653975434601307, -0.007632017135620117, -0.021348245441913605, -0.02786196582019329, -0.01585390605032444, -0.021971629932522774, -0.039770275354385376, -0.025462433695793152, 0.00041224545566365123, 0.027182916179299355, -0.046370990574359894, -0.006216750014573336, -0.013698773458600044, 0.04313257336616516, -0.0187118798494339, 0.03951076790690422, -0.004070267081260681, 0.04260297119617462, -0.02133174240589142, -0.03649330139160156, -0.03456180542707443, -0.027810338884592056, -0.003143450478091836, 0.03237670287489891, 0.023143427446484566, 0.01489340327680111, 0.005360524170100689, -0.022974984720349312, 0.09071224927902222, -0.030150026082992554, -0.1068977639079094, -0.06798748672008514, -0.011900299228727818, -0.010131736285984516, -0.071322962641716, 0.10954896360635757, 0.018937304615974426, -0.03921337053179741, 0.04373863711953163, 0.052775993943214417, -0.120743528008461, -0.13026948273181915, -0.09578179568052292, -0.10663492232561111, 0.046910353004932404, 0.07072430104017258, -0.00969434343278408, -0.024005547165870667, -0.011442368850111961, 0.09797243028879166, 0.06525759398937225, -0.11747201532125473, -0.09601956605911255, -0.04674399271607399, 0.04308171942830086, 0.018969235941767693, 0.0009607471874915063, -0.014845532365143299, 0.17188023030757904, -0.07600641995668411, 0.0016506719402968884, 0.020471468567848206, -0.03954039514064789, -0.0440225675702095, -0.017954494804143906, 0.03342900052666664, -0.05890572443604469, 0.00166687136515975, 0.020505676046013832, -0.08952746540307999, 0.0529097244143486, 0.0005711055127903819, 0.07585792988538742, -0.045060478150844574, 0.03368551284074783, 0.03661337494850159, 0.07906118035316467, 0.0884823352098465, 0.10155963152647018, -0.04620661213994026, 0.006593930535018444, 0.1450408548116684, -0.07455512881278992, 0.07123767584562302, 0.03712048754096031, 0.1135750338435173, -0.027654403820633888, 0.006452867761254311, 0.03358599543571472, -0.06663761287927628, -0.05948652699589729, -0.021232476457953453, 0.004449367523193359, -0.031208738684654236, 0.030798599123954773, 0.09914315491914749, -0.09865780174732208, -0.04874135181307793, -0.04752423241734505, -0.03549015894532204, -0.026786038652062416, 0.026071418076753616, 0.055017970502376556, 0.05028759688138962, 0.098483145236969, 0.1530890315771103, -0.1190154105424881, -0.000887555826921016, 0.06489129364490509, -0.06300915032625198, -0.06208394467830658, 0.043812837451696396, -0.09264582395553589, -0.03599727898836136, 0.0007652501226402819, -0.003763428656384349, -0.18084576725959778, -0.08268927037715912, 0.025035198777914047, -0.036538347601890564, 0.06786905229091644, 0.02460779808461666, 0.026951832696795464, 0.05639507621526718, -0.0694328099489212, -0.05663478374481201, -0.19425645470619202, -0.000991996144875884, 0.016214821487665176, -0.0023397323675453663, -0.037883028388023376, 0.06835472583770752, 0.0066928984597325325, -0.0970582515001297, -0.013632569462060928, 0.017417561262845993, -0.12769141793251038, -0.05344719439744949, -0.001201412989757955, 0.0063802320510149, -0.017925871536135674, -0.03261515498161316, -0.0012973658740520477, -0.07984495908021927, -0.04840242862701416, 0.02141006477177143, -0.07997678220272064, -0.09581317752599716, -0.022255482152104378, -0.015252051874995232, -0.05505619943141937, 0.023627186194062233, 0.026611031964421272, -0.02617369033396244, -0.06108443811535835, 0.29861778020858765, -0.04503237456083298, 0.0468001663684845, 0.04778500273823738, 0.005425465293228626, 0.4160289168357849, 0.006690967362374067], [-0.00029592023929581046, 0.03356321528553963, -0.08285485208034515, -0.15160268545150757, -0.18922840058803558, -0.164795383810997, -0.10425149649381638, 0.07770316302776337, 0.073260597884655, 0.0041540744714438915, 0.016317032277584076, 0.007159512024372816, 0.04732463136315346, -0.21897591650485992, -0.30855998396873474, -0.09030790627002716, -0.05419757217168808, 0.03197670727968216, -0.051151666790246964, 0.019551802426576614, -0.03207676112651825, 0.051552724093198776, -0.03735561668872833, -0.22920942306518555, -0.09812700003385544, -0.03955097496509552, -0.09946341812610626, -0.04821065813302994, -0.03431247919797897, -0.03086801804602146, -0.09700744599103928, 0.06446753442287445, -0.1237715482711792, -0.3554345369338989, -0.16637022793293, 0.004907873924821615, -0.01099945604801178, 0.025080343708395958, 0.029867863282561302, -0.07322333008050919, -0.04735800623893738, -0.05216970294713974, 0.04607370123267174, -0.25208356976509094, -0.09770023822784424, -0.0016044749645516276, -0.11097957193851471, 0.09817790240049362, 0.06478025019168854, -0.07316195964813232, -0.022975655272603035, -0.16827061772346497, 0.2217666506767273, -0.10087919235229492, -0.11781150847673416, -0.009553344920277596, 0.007029754109680653, 0.02872299961745739, 0.058466147631406784, -0.01742735132575035, -0.19492501020431519, 0.156124085187912, 0.23666073381900787, -0.1997694969177246, -0.11960198730230331, -0.006890413351356983, -0.017621587961912155, -0.0052654435858130455, 0.01129174791276455, -0.01644691452383995, -0.006633344572037458, -0.09325991570949554, 0.03490293398499489, -0.16042326390743256, 0.04023664817214012, -0.10959834605455399, -0.11872837692499161, 0.022938355803489685, 0.2023264467716217, -0.025678973644971848, -0.03047000989317894, -0.023521151393651962, 0.0006459798314608634, -0.16597609221935272, -0.10528325289487839, 0.06494519114494324, 0.008864613249897957, 0.17223596572875977, -0.02335992455482483, 0.028576554730534554, 0.028190981596708298, -0.007548678200691938, -0.06760755181312561, 0.020691435784101486, -0.04494434595108032, 0.00485825352370739, 0.0026419968344271183, -0.023235619068145752, 0.0771658718585968, 0.013409183360636234, -0.07877171039581299, -0.24587787687778473, -0.04163645952939987, -0.023240577429533005, -0.009859993122518063, 0.0858408585190773, -0.11627018451690674, 0.1276581883430481, 0.1919081211090088, 0.12891599535942078, 0.1629897952079773, 0.046869199723005295, -0.03528403490781784, 0.006706192158162594, 0.05948975309729576, 0.14130479097366333, -0.06522040069103241, 0.12035410106182098, -0.08682378381490707, -0.027201825752854347, -0.07668111473321915, 0.12110212445259094, -0.02047041244804859, -0.004177019465714693, -0.0340094119310379, 0.0005574919050559402, -0.025240937247872353, 0.16316817700862885, -0.09188514202833176, 0.010764305479824543, -0.014776072464883327, -0.04579167813062668, 0.12577365338802338, 0.015571895986795425, 0.006502820644527674, -0.0025584863033145666, 0.045985542237758636, 0.00022454862482845783, -0.005457055289298296, 0.05786044895648956, -0.025485031306743622, -0.12007489055395126, 0.013640383258461952, 0.0295100174844265, -0.06066305562853813, 0.04689321666955948, -0.045991480350494385, -0.13709008693695068, 0.170033261179924, 0.11010778695344925, 0.03733476996421814, 0.04253396764397621, 0.03539803996682167, -0.0075730206444859505, -0.030458319932222366, -0.0030467284377664328, -0.07548204064369202, -0.1613978147506714, 0.025593873113393784, -0.14511901140213013, -0.10283979773521423, -0.03424375504255295, -0.02490963041782379, 0.11883193999528885, 0.015956545248627663, 0.037043165415525436, -0.014248054474592209, 0.044075801968574524, 0.03411269560456276, -0.04140821844339371, -0.0840216726064682, 0.02024269290268421, 0.07221964746713638, 0.037078678607940674, 0.007076030597090721, 0.0904400646686554, 0.009338205680251122, 0.07319363951683044, 0.035306356847286224, 0.05122590437531471, 0.013660717755556107, -0.07019799947738647, 0.0022763877641409636, -0.015565721318125725, -0.0641714334487915, -0.04112536460161209, 0.03468458727002144, -0.0772293284535408, 0.03202188014984131, 0.0035671130754053593, 0.008775852620601654, 0.03505348041653633, -0.02159261889755726, 0.037386681884527206, -0.1311596930027008, -0.056268781423568726, 0.03337354212999344, 0.043658651411533356, -0.00042465917067602277, -0.06808014214038849, -0.012084722518920898, 0.02273756079375744, -0.01625906117260456, 0.011019933968782425, -0.09021489322185516, -0.08576131612062454, -0.06897425651550293, 0.005616806913167238, 1.3368587493896484, 0.018416384235024452, 0.1493358016014099, 0.1491851657629013, 0.0038636038079857826, 0.2619120180606842, 0.00868272501975298], [-0.002632942283526063, -0.1471633017063141, 0.09031654894351959, -0.07984429597854614, -0.13820752501487732, -0.06247783452272415, -0.102058045566082, -0.03823819383978844, -0.011053291149437428, 0.0810721144080162, 0.07436322420835495, -0.03680252656340599, 0.07297057658433914, -0.2848598062992096, -0.22957907617092133, -0.19051210582256317, -0.1980639547109604, 0.04454078897833824, -0.04781641438603401, -0.01532336138188839, 0.01407662034034729, -0.031097812578082085, 0.027628082782030106, -0.12379460036754608, -0.07806733250617981, -0.10754676163196564, -0.1682819277048111, 0.02048187330365181, -0.04382934421300888, 0.029441900551319122, 0.0066138580441474915, -0.014612868428230286, -0.14773954451084137, -0.2857082784175873, -0.17062897980213165, -0.1549079567193985, -0.17173264920711517, 0.034196194261312485, -0.02777571603655815, 0.01618439145386219, -0.035145651549100876, 0.0011169345816597342, -0.03753191977739334, -0.08198408782482147, -0.2548248767852783, -0.15978971123695374, -0.2953549921512604, -0.04339311644434929, 0.012510501779615879, 0.0592520609498024, 0.0028172614984214306, -0.0052645448595285416, -0.0018246494000777602, -0.05807938054203987, 0.03624054044485092, -0.02902211993932724, 0.0017279941821470857, -0.022430241107940674, -0.019930465146899223, -0.024645458906888962, -0.012195862829685211, -0.008995899930596352, 0.01138443686068058, 0.04923020675778389, 0.0005408722790889442, -0.05715402588248253, -0.02394041419029236, -0.018363963812589645, 0.004264319781213999, -0.013301089406013489, 0.012681885622441769, -0.014899702742695808, 0.010802015662193298, 0.0015302908141165972, 0.03080100566148758, -0.01089311670511961, -0.01992381364107132, 0.01605367101728916, -0.0009591613197699189, -0.014139882288873196, -0.032066889107227325, 0.0024166791699826717, -0.01586933247745037, -0.0026238993741571903, -0.002302970737218857, 0.002019766252487898, 0.006659904960542917, 0.017590319737792015, 0.028368452563881874, -0.0031842109747231007, -0.01716737076640129, 0.030515164136886597, -0.004838529508560896, 0.01321260817348957, 0.01361083798110485, -0.025753606110811234, 0.004177234135568142, -0.002659869147464633, 0.01964544877409935, -0.0050432742573320866, 0.0026598430704325438, 0.006408740766346455, 0.000704088422935456, -0.004662493243813515, 0.007172431331127882, -0.010225113481283188, 0.005577234085649252, 0.002023499459028244, 0.0007755234837532043, -0.006019939202815294, -0.003477418329566717, -0.00522172125056386, -0.004627965856343508, 0.009621630422770977, -0.011361739598214626, -0.0029649226926267147, 0.012773553840816021, 0.009447276592254639, 0.006291357334703207, -0.005027140025049448, -0.01183504331856966, -0.005146907642483711, 0.005569882690906525, 0.0010386703070253134, -0.0055994861759245396, 0.020179664716124535, -0.005243312567472458, 0.00046531084808520973, 0.012644490227103233, 0.010182925499975681, 0.001721415319480002, -0.006393958814442158, 0.003875310067087412, 0.00527987303212285, 0.0018203053623437881, -0.0005187627393752337, 0.014681068249046803, 0.007056458853185177, 0.013477116823196411, -0.0018350834725424647, 0.010723637416958809, -0.000859277555719018, -0.014765129424631596, 0.009085983037948608, 0.02861209586262703, 0.00387805188074708, 0.011437121778726578, -0.001458816579543054, -0.013634098693728447, 0.014562520198523998, 0.005918165668845177, -0.007669130340218544, 0.006237030029296875, -0.011986867524683475, -0.011714681051671505, 0.014976278878748417, -0.007705016061663628, 0.0026014549657702446, -0.005604020319879055, 0.003988349344581366, 0.00098570401314646, 0.0025516466703265905, 0.010705427266657352, 0.009772875346243382, -0.0029039594810456038, 0.010869042947888374, -0.015662798658013344, -0.012005213648080826, 0.010225062258541584, 0.0020225022453814745, 0.0031014480628073215, 0.01036914810538292, -0.010464194230735302, 0.030103547498583794, -0.006849462166428566, 0.0136337885633111, -0.0029845284298062325, 0.00383493909612298, 0.0017435207264497876, 0.01559353992342949, 0.014278952032327652, -0.0003425618342589587, -0.008160608820617199, 0.004307756200432777, -0.010074260644614697, 0.010006805881857872, -0.0068122949451208115, -0.011433030478656292, 0.009427307173609734, -0.004140898119658232, -0.008802968077361584, -0.015081624500453472, 0.03266512602567673, 0.035736504942178726, 0.0001478409394621849, -0.008128729648888111, -0.020192014053463936, -0.0006645426037721336, -0.004387163557112217, -0.006174400914460421, -0.395125150680542, -0.05132115259766579, -0.05551328510046005, 0.015727533027529716, -0.024499036371707916, -0.05258600786328316, -0.02260509692132473, -0.012757787480950356, 0.4561367332935333, -0.14119850099086761, 0.057707540690898895, 0.9356827139854431, 0.010310357436537743, 6.392834186553955, 0.010542362928390503], [0.03438158333301544, -0.007221111096441746, 0.09256671369075775, -0.025559471920132637, 0.025432588532567024, -0.041499391198158264, -0.010575040243566036, -0.029100555926561356, -0.04984467104077339, 0.0015702336095273495, 0.061277080327272415, 0.011540212668478489, -0.06711124628782272, -0.10485010594129562, -0.06863699108362198, -0.20638994872570038, -0.06533054262399673, 0.03548075631260872, 0.011990365572273731, 0.030904972925782204, 0.0762997418642044, -0.0191251952201128, -0.14765748381614685, -0.00586733827367425, -0.028489595279097557, -0.1326163411140442, -0.04709775745868683, 0.05988778546452522, 0.03685210645198822, 0.020460668951272964, -0.006968644447624683, -0.18336856365203857, -0.08321645110845566, -0.13280442357063293, -0.08891076594591141, 0.04668225720524788, 0.02962108515202999, 0.1138472929596901, -0.019028199836611748, -0.04989339038729668, 0.06244321167469025, -0.06499827653169632, -0.005533773452043533, -0.07360897958278656, 0.01171017438173294, 0.0026273762341588736, -0.15234819054603577, 0.06671134382486343, 0.004441001918166876, 0.07929863035678864, 0.15714579820632935, 0.07741647213697433, 0.025781571865081787, -0.027144329622387886, 0.019242998212575912, 0.04825812950730324, -0.12443388253450394, -0.07856792956590652, 0.03239760547876358, 0.01707833632826805, -0.03950315713882446, 0.0461755208671093, -0.06137150153517723, -0.06035208702087402, -0.13007007539272308, -0.0037173135206103325, -0.06905835121870041, -0.015465373173356056, 0.07710468769073486, 0.10599037259817123, -0.09151509404182434, -0.019402576610445976, -0.040434736758470535, -0.08175262063741684, -0.07752007991075516, 0.05500983074307442, -0.042818449437618256, 0.1875813752412796, 0.2710931897163391, 0.02484683133661747, -0.12910035252571106, 0.06505136936903, -0.10518410056829453, -0.08719475567340851, 3.35685872414615e-05, 0.06093921884894371, 0.07931271195411682, 0.10284330695867538, 0.07372807711362839, -0.11458593606948853, -0.11097592115402222, 0.1441536843776703, 0.056048434227705, -0.09131497144699097, 0.043051499873399734, -0.06294894963502884, -0.09609927982091904, 0.16181401908397675, 0.007245219312608242, -0.05142323672771454, 0.009697138331830502, 0.07092227786779404, 0.032927144318819046, -0.022163784131407738, 0.010259632021188736, 0.04789989814162254, 0.006576532498002052, 0.028291424736380577, -0.07293753325939178, 0.00474531902000308, 0.11770588159561157, 0.049215830862522125, 0.10758064687252045, 0.024802429601550102, 0.0831773430109024, -0.037660371512174606, 0.11566220223903656, -0.12506674230098724, 0.005888449493795633, -0.04655037075281143, -0.007262496277689934, -0.03333473578095436, -0.03859173506498337, 0.02671094797551632, 0.014411373063921928, 0.017696451395750046, 0.0777871236205101, 0.11766617000102997, -0.013639234937727451, 0.06893349438905716, 0.12799440324306488, 0.019071657210588455, 0.027886465191841125, 0.06867024302482605, -0.03240875154733658, -0.011478681117296219, -0.04978852719068527, 0.0008605603943578899, -0.03651292622089386, 0.021042339503765106, 0.0319785550236702, 0.05413554981350899, 0.0240876916795969, 0.020647548139095306, -0.03794282674789429, 0.0029893615283071995, 0.036318980157375336, 0.046867821365594864, 0.012482300400733948, -0.025754382833838463, 0.06559904664754868, 0.04513651505112648, 0.06608013808727264, -0.05478861182928085, 0.06364841759204865, -0.05925602465867996, -0.04658414050936699, -0.007244648411870003, 0.02325444109737873, -0.05583032965660095, 0.10534138232469559, 0.03976009413599968, 0.017028698697686195, -0.07210665196180344, 0.03691529110074043, -0.10266876220703125, 0.09283947199583054, 0.06720943748950958, -0.02144835703074932, 0.10505778342485428, 0.018104882910847664, -0.0149983586743474, 0.021174071356654167, -0.06914273649454117, 0.11793501675128937, 0.07838679850101471, 0.05044659227132797, -0.09177818149328232, 0.10319900512695312, -0.01636497490108013, 0.003216081764549017, -0.09959788620471954, 0.06264496594667435, -0.04715951159596443, 0.023718003183603287, -0.0219417717307806, 0.0823952928185463, -0.0277703907340765, 0.005154814571142197, 0.027444494888186455, 0.04925135150551796, 0.016941865906119347, -0.017205441370606422, 0.08812548965215683, -0.10088373720645905, -0.02737654373049736, -0.07715462148189545, 0.07399026304483414, 0.034180935472249985, -0.05876775085926056, -0.15095502138137817, -0.07372072339057922, -0.0464828722178936, -0.05924205854535103, -0.12938518822193146, -0.05863598734140396, 0.0059951781295239925, 0.08844203501939774, 0.6049519777297974, -0.05733804404735565, 0.10007565468549728, 0.3047696352005005, -0.0052869245409965515, 1.6921496391296387, 0.01059040892869234], [0.011625300161540508, -0.016415534541010857, -0.10540253669023514, 0.0094673540443182, -0.021146833896636963, 0.0870949998497963, -0.06533759832382202, -0.0636403039097786, -0.035107340663671494, 0.001369111705571413, -0.015849940478801727, -0.03429119288921356, 0.11970244348049164, 0.08350876718759537, 0.038805991411209106, 0.09672516584396362, 0.11889339983463287, 0.09787256270647049, -0.02283165603876114, 0.03112562745809555, 0.031937140971422195, 0.017736710608005524, 0.01796424202620983, 0.12979866564273834, 0.11102113127708435, 0.1928616166114807, 0.07803428173065186, 0.09169251471757889, 0.13795483112335205, 0.09337010234594345, -0.0803966075181961, -0.0939241349697113, 0.09356242418289185, 0.19207258522510529, 0.12920799851417542, 0.20941895246505737, 0.05267881602048874, 0.10643555223941803, -0.003979388624429703, -0.0629805475473404, -0.0063912030309438705, 0.05512354150414467, 0.10409305989742279, 0.13746604323387146, 0.11845491826534271, 0.10778400301933289, 0.07679292559623718, 0.1624184399843216, -0.033474329859018326, -0.1602843999862671, 0.1388673186302185, 0.20846706628799438, 0.09735945612192154, 0.017899449914693832, 0.11191126704216003, 0.0152308763936162, 0.08344919234514236, 0.2019447386264801, -0.022478803992271423, -0.2426380217075348, 0.08685166388750076, 0.08459881693124771, 0.17363077402114868, -0.045011378824710846, 0.04948659986257553, 0.012703818269073963, 0.09830860048532486, 0.09474185109138489, -0.109111487865448, -0.18234749138355255, 0.06346360594034195, 0.028700165450572968, 0.2079942226409912, 0.07464144378900528, -0.08601032197475433, 0.01043002400547266, 0.13367311656475067, 0.05956561863422394, -0.0004849539836868644, -0.010328592732548714, 0.008187858387827873, -0.14889560639858246, 0.05806149169802666, -0.26568177342414856, -0.050247639417648315, 0.08535491675138474, 0.08014481514692307, 0.04764349013566971, -0.08254304528236389, 0.027506936341524124, -0.08467724919319153, -0.020999666303396225, -0.07001343369483948, 0.13349193334579468, 0.05067671462893486, 0.07742546498775482, -0.03667847439646721, -0.0864776223897934, -0.17569230496883392, 0.27473825216293335, -0.21134315431118011, 0.044980138540267944, -0.0035921407397836447, 0.02046065405011177, 0.0162053145468235, 0.05850086733698845, 0.07015085965394974, -0.0077450876124203205, -0.00011067868035752326, -0.016469838097691536, 0.015421467833220959, -0.03098512627184391, -0.035611335188150406, 0.0672575905919075, 0.08210008591413498, 0.004404474049806595, -0.08200899511575699, 0.1311144381761551, -0.05117574706673622, -0.05047420412302017, -0.06075887009501457, 0.015272224321961403, -0.046367041766643524, 0.021571246907114983, -0.01214576791971922, 0.015920691192150116, -0.0759846568107605, 0.0023598559200763702, 0.04019276797771454, -0.028028013184666634, -0.02616927959024906, 0.0578470341861248, 0.028780994936823845, 0.04864043369889259, 0.023762812837958336, 0.09899154305458069, -0.04998581111431122, 0.05515504255890846, 0.07656329870223999, -0.05694181099534035, -0.08258192986249924, 0.07945862412452698, -0.04833105579018593, 0.05410377308726311, 0.07127419114112854, 0.03823466971516609, 0.026023419573903084, 0.014294618740677834, 0.03902069479227066, 0.09712303429841995, -0.06997887790203094, 0.09247923642396927, 0.01229050848633051, 0.08041249215602875, -0.07075594365596771, 0.08458008617162704, -0.009770315140485764, 0.027052031829953194, -0.0209969449788332, 0.006712235976010561, -0.04022664576768875, -0.04636143147945404, 0.12616732716560364, 0.06392251700162888, 0.030316639691591263, 0.03910292685031891, -0.05944490805268288, -0.030165426433086395, -0.0308249332010746, -0.06314826011657715, 0.021248403936624527, 0.04419635236263275, 0.07149859517812729, -0.023983491584658623, 0.013597660697996616, 0.05581454560160637, 0.022438043728470802, -0.047524530440568924, 0.07672429829835892, 0.01807929389178753, -0.030039554461836815, -0.0630209818482399, 0.07774211466312408, 0.05661582574248314, 0.10222942382097244, 0.03457695245742798, -0.08531875163316727, 0.022684812545776367, -0.012480281293392181, -0.025308996438980103, 0.004596155136823654, 0.022918259724974632, -0.08066478371620178, 0.10681776702404022, -0.06824855506420135, -0.053690798580646515, -0.0706523060798645, -0.018620729446411133, 0.03626653924584389, -0.017791923135519028, 0.09001569449901581, -0.09072072058916092, -0.08028814196586609, -0.023630782961845398, -0.016370169818401337, -0.06502233445644379, -0.17236824333667755, -0.05552336573600769, 0.7488787770271301, -0.0073164370842278, 0.13851873576641083, 0.11242992430925369, 0.009594015777111053, 0.4619511663913727, -0.004141450393944979], [-0.00022919736511539668, 0.0033593536354601383, 0.00022343701857607812, -0.07556646317243576, -0.09098093956708908, -0.1153041422367096, -0.08484853804111481, -0.008201690390706062, -0.05748014524579048, -0.007219599559903145, -0.0025849516969174147, -0.06427682936191559, -0.06823544204235077, -0.3114466667175293, -0.3547555208206177, -0.29957258701324463, -0.09925258904695511, 0.024676192551851273, -0.03440394252538681, 0.05530882626771927, -0.032632291316986084, -0.0995810329914093, -0.02420535497367382, -0.18766115605831146, -0.18438026309013367, -0.18617825210094452, -0.18127357959747314, 0.0362488254904747, 0.06416355818510056, 0.10689538717269897, -0.1615626960992813, -0.037633977830410004, -0.18748681247234344, -0.11813107132911682, -0.19759109616279602, -0.13774940371513367, -0.26527923345565796, -0.03011845238506794, -0.06246042251586914, -0.059028174728155136, -0.14691637456417084, 0.0687544047832489, -0.1589878499507904, -0.19060368835926056, -0.3670136034488678, -0.1872977763414383, -0.2152983546257019, 0.04235430434346199, -0.027370164170861244, -0.159527987241745, -0.2454061061143875, 0.07698386162519455, -0.06720741093158722, -0.13644249737262726, -0.18262286484241486, -0.01733775995671749, -0.03520578518509865, 0.10712992399930954, -0.0033348228316754103, -0.25635766983032227, -0.03011516109108925, 0.11563017964363098, -0.17784422636032104, -0.03924406319856644, -0.026543380692601204, 0.09362192451953888, 0.02275221049785614, 