{"type": "afterstate-value-mlp", "version": 1, "inputSize": 215, "layers": [{"weight": [[-0.009014265611767769, -0.10244346410036087, -0.013014737516641617, 0.10496369749307632, 0.02847466990351677, 0.07215788215398788, -0.005032648332417011, -0.06062183156609535, -0.020876722410321236, 0.04857192933559418, -0.0046247029677033424, 0.011341245844960213, 0.12465653568506241, 0.07938113808631897, 0.06583983451128006, 0.14177267253398895, 0.10156189650297165, 0.04925326257944107, -0.07148978114128113, -0.05413399636745453, -0.02086593024432659, 0.051728058606386185, -0.0362623929977417, 0.13095717132091522, 0.06558142602443695, 0.05986177176237106, 0.036774642765522, 0.032388005405664444, 0.024191593751311302, 0.052734605967998505, -0.026605745777487755, 0.07747237384319305, -0.034996382892131805, -0.03295862674713135, 0.03461366146802902, 0.08943034708499908, -0.008719034492969513, 0.047589752823114395, 0.03605500981211662, -0.023402094841003418, -0.0505000576376915, -0.03078797645866871, 0.08245525509119034, -0.0016778463032096624, -0.026741692796349525, -0.033547788858413696, 0.053273845463991165, 0.06207718327641487, 0.07287595421075821, 0.012589101679623127, -0.02297273650765419, 0.06132950261235237, 0.07686672359704971, 0.0030487028416246176, 0.05417098104953766, 0.06890910118818283, 0.0326930396258831, -0.036629632115364075, 0.027702786028385162, 0.028299693018198013, -0.0030384398996829987, 0.04518434405326843, 0.04535527154803276, -0.03335000202059746, -0.01709100976586342, -0.03983323648571968, 0.01876927725970745, 0.05184438079595566, -0.041876643896102905, 0.06334798038005829, -0.029610052704811096, 0.07754184305667877, -0.0013097819173708558, 0.03835076093673706, 0.06188652664422989, 0.08511663228273392, 0.00986153818666935, 0.006757378578186035, 0.0016416352009400725, -0.04975156486034393, 0.003735257312655449, 0.061682891100645065, -0.04703431949019432, 0.057828545570373535, -0.03371695056557655, 0.03976011648774147, 0.07982870191335678, -0.04651599004864693, 0.016728723421692848, 0.03265715017914772, -0.020510010421276093, 0.010369359515607357, 0.0427524670958519, 0.06056145951151848, -0.035606175661087036, -0.006337771192193031, -0.016589045524597168, 0.057143356651067734, -0.04648367315530777, -0.05325743183493614, -0.005677638575434685, 0.030440909788012505, -0.008681674487888813, -0.04685802385210991, 0.03889705613255501, 0.07925790548324585, 0.03472541272640228, 0.07787691801786423, 0.02381194569170475, -0.017920373007655144, 0.012656038627028465, 0.019150787964463234, 0.01937848888337612, -0.014314337633550167, 0.00742894783616066, -0.053690191358327866, 0.05831063166260719, -0.016918189823627472, 0.06473652273416519, -0.038603369146585464, -0.008804122917354107, 0.008666161447763443, 0.014669965952634811, 0.06358934193849564, 0.018181798979640007, 0.004616018384695053, 0.052662089467048645, -0.009790833108127117, 0.04808022081851959, 0.055821072310209274, 0.017787395045161247, 0.029126934707164764, -0.014339873567223549, -0.02606632001698017, -0.004093721974641085, 0.06832005828619003, -0.05769461393356323, 0.051159780472517014, -0.004267851822078228, -0.0004151787725277245, -0.039409566670656204, 0.04116951674222946, 0.07445179671049118, 0.014120960608124733, -0.013621165417134762, 0.014202949590981007, -0.013367385603487492, 0.054061852395534515, -0.018764320760965347, 0.08023878931999207, -0.02824966236948967, 0.05675549432635307, -0.025021912530064583, -0.004543909803032875, 0.051071539521217346, 0.0012170171830803156, 0.0002960661076940596, 0.03389216586947441, 0.02504551038146019, -0.04605413228273392, 0.0361284539103508, -0.032721083611249924, 0.01464561466127634, 0.007873659022152424, 0.019671671092510223, 0.03763168305158615, 0.039035242050886154, -0.03255964815616608, 0.05734293907880783, -0.05087193101644516, -0.05283629521727562, 0.05777515098452568, -0.04210459068417549, 0.06187574565410614, -0.0035673307720571756, -0.0488094799220562, -0.00847241934388876, 0.009290359914302826, 0.05284995213150978, 0.022593650966882706, 0.07395116984844208, 0.0384654775261879, -0.014646274968981743, -0.014088940806686878, 0.07205240428447723, -0.048611655831336975, -0.0461854413151741, -0.017351485788822174, -0.02988894283771515, 0.03586036339402199, -0.04439487308263779, -0.055712733417749405, -0.05977744609117508, -0.020092278718948364, -0.052863769233226776, 0.04412742331624031, -0.011193112470209599, 0.07573812454938889, 0.006640210747718811, 0.07491910457611084, -0.014845430850982666, -0.003230653004720807, 0.05982096120715141, 0.08266324549913406, 0.05641811341047287, 0.008485580794513226, 0.0006214187014847994, 0.04265045374631882, -0.03836054727435112, 0.04529058188199997, 0.05781157314777374, 0.06842722743749619, -0.01731191761791706, 0.06923484802246094, 0.07378967851400375], [0.005802729167044163, -0.10709565132856369, 0.02187694050371647, 0.0557837039232254, 0.11924409121274948, 0.16685131192207336, -0.06357507407665253, 0.014654602855443954, 0.03711547702550888, -0.004778674338012934, -0.005820038728415966, 0.06700959801673889, 0.09016455709934235, 0.06985745579004288, 0.09037953615188599, 0.0430118627846241, 0.09826260060071945, 0.029583686962723732, 0.00947696901857853, -0.056712422519922256, 0.0037491810508072376, 0.040844593197107315, 0.09001591056585312, 0.007481773849576712, 0.07703086733818054, 0.11308067291975021, -0.01702173240482807, -0.07430069148540497, 0.046247899532318115, 0.01891600899398327, 0.06493349373340607, 0.01763671264052391, -0.02543649636209011, -0.013369215652346611, 0.06615564227104187, -0.03220772370696068, -0.03328332677483559, 0.019512541592121124, -0.03241150826215744, -0.057946451008319855, 0.024650996550917625, -0.005901906173676252, 0.07030460238456726, 0.013214034959673882, -0.009814012795686722, 0.06905205547809601, -0.03474528342485428, -0.03341769427061081, -0.0069430130533874035, 0.05353369191288948, -0.026491228491067886, -0.0486215278506279, -0.015588393434882164, -0.004487916827201843, -0.03900846466422081, 0.06926721334457397, 0.014774537645280361, -0.023508884012699127, 0.028507567942142487, -0.05194452032446861, 0.05162707716226578, 0.05714215338230133, 0.02087610401213169, 0.04929116368293762, 0.007227505091577768, -0.031155893579125404, 0.0023841839283704758, 0.03189714998006821, 0.0654253289103508, -0.06581177562475204, 0.02643953450024128, 0.057149846106767654, -0.001140827196650207, -0.0053421068005263805, 0.031578682363033295, -0.019772015511989594, 0.04590606689453125, 0.020518964156508446, 0.05645289644598961, 0.01743905246257782, 0.024043556302785873, 0.033898890018463135, 0.020195484161376953, 0.04636399820446968, -0.061492886394262314, 0.07371541112661362, 0.0018670561257749796, -0.010873240418732166, 0.036053407937288284, 0.01301936898380518, 0.09528815001249313, 0.046001676470041275, 0.04549045115709305, 0.03237422555685043, 0.05975594371557236, 0.04466686397790909, 0.04083872213959694, 0.015297823585569859, -0.013493330217897892, -0.05848033353686333, 0.0771418958902359, -0.048600442707538605, -0.04344263672828674, 0.044283438473939896, -0.03157080337405205, 0.06687753647565842, 0.015549701638519764, 0.04349897429347038, 0.06375720351934433, 0.05255752429366112, -0.0009110540268011391, -0.010889758355915546, 0.059717319905757904, -0.042053356766700745, 0.05328066274523735, 0.05926654860377312, 0.02743806503713131, -0.01826251856982708, -0.011033320799469948, -0.0328199602663517, 0.04158519580960274, 0.05432981997728348, 0.04471806809306145, 0.04273220896720886, -0.027302460744976997, 0.05094336345791817, 0.06948235630989075, -0.03584722802042961, -0.03616500645875931, -0.050568170845508575, 0.05159933865070343, -0.022842809557914734, 0.00026392770814709365, 0.009059094823896885, -0.03312715142965317, 0.03499165549874306, 0.02628558874130249, -0.057274769991636276, 0.029067369177937508, -0.021094534546136856, -0.02152892015874386, -0.012263860553503036, -0.033436745405197144, -0.005561813712120056, 0.017065051943063736, 0.012871135026216507, -0.020626025274395943, 0.05272215977311134, 0.038522981107234955, -0.005869949236512184, -0.01939605176448822, -0.044649191200733185, 0.064747653901577, -0.009886704385280609, -0.029449746012687683, -0.039804428815841675, 0.05777651444077492, -0.03637916222214699, -0.04273437708616257, -0.007385084871202707, -0.018939848989248276, -0.050104252994060516, 0.0076944176107645035, 0.007229923736304045, 4.7085242840694264e-05, -0.04288831725716591, 0.057984158396720886, 0.005424291826784611, 0.06733009219169617, 0.03275442123413086, 0.0545181967318058, 0.0009938236325979233, 0.009870088659226894, -0.037570852786302567, 0.05256456509232521, -0.01873593218624592, 0.04643856734037399, 0.06938080489635468, 0.0013675907393917441, 0.009625634178519249, -0.024271782487630844, 0.0013539224164560437, 0.05992241948843002, 0.0354434959590435, -0.032379377633333206, -0.04400652274489403, 0.020992130041122437, -0.01184875424951315, -0.0006672297022305429, -0.05963797867298126, 0.01902351900935173, -0.05556494742631912, 0.060975201427936554, -0.022697171196341515, 0.01628086529672146, -0.030111875385046005, 0.012416242621839046, 0.06451616436243057, -0.05761707201600075, 0.045690182596445084, 0.040226660668849945, 0.015844255685806274, -0.0505092479288578, -0.035925328731536865, 0.017904799431562424, 0.01109398901462555, 0.05722852796316147, 0.018103593960404396, -0.0410076342523098, 0.06089102476835251, -0.00809181947261095, -0.06308764219284058, 0.04748643562197685, -0.008291826583445072, 0.014630830846726894], [0.07030423730611801, 0.06414219737052917, -0.0454508513212204, -0.12502452731132507, -0.13403184711933136, -0.08161409944295883, 0.007974009960889816, -0.012776163406670094, 0.004330920986831188, -0.0028890229295939207, -0.08871529251337051, -0.08010585606098175, -0.11987397819757462, -0.1619666963815689, -0.19245964288711548, -0.12033342570066452, -0.07284637540578842, -0.09310226142406464, -0.029648372903466225, -0.049086663872003555, 0.0010861490154638886, 0.05881722643971443, 0.04659883677959442, -0.08893496543169022, -0.12623231112957, -0.0990646630525589, 0.028227219358086586, 0.04603203386068344, 0.009198233485221863, -0.018060103058815002, 0.03143242374062538, 0.063431017100811, 0.09177744388580322, 0.0780806690454483, -0.008192136883735657, 0.09581983834505081, 0.006819413509219885, 0.08094529062509537, -0.008758706040680408, 0.023489028215408325, 0.06700848042964935, -0.012227979488670826, 0.009850791655480862, 0.0572982095181942, 0.03646097704768181, -0.004788561258465052, -0.06207377836108208, 0.04025965556502342, 0.04093547165393829, 0.02928905561566353, 0.04825998842716217, 0.09149446338415146, 0.06997077912092209, 0.07455670833587646, 0.01685962826013565, -0.012330969795584679, 0.06323705613613129, 0.04980460926890373, 0.0394035279750824, 0.009194104000926018, -0.03057211823761463, -0.029148519039154053, 0.024774989113211632, 0.08424045145511627, 0.037671420723199844, -0.022646252065896988, -0.03588125854730606, 0.05383668467402458, 0.04383527860045433, -0.060317788273096085, 0.026261357590556145, 0.08761821687221527, 0.0067090680822730064, 0.01567869260907173, 0.0492059625685215, -0.07697229087352753, -0.012374157086014748, 0.044182274490594864, 0.0021415373776108027, -0.015079427510499954, 0.004123582970350981, 0.0799972340464592, 0.01035447046160698, -0.01334562711417675, -0.03295191749930382, 0.06375620514154434, 0.008035833016037941, -0.03056848794221878, -0.04773833602666855, -0.024128563702106476, -0.003553384682163596, -0.004536042921245098, 0.006146972067654133, 0.04514872282743454, 0.005668626166880131, -0.027051636949181557, 0.059381287544965744, 0.061140961945056915, 0.01201585028320551, 0.050515349954366684, 0.06463237851858139, -0.006522314622998238, 0.0010587135329842567, 0.024121973663568497, 0.04721538722515106, -0.017022131010890007, 0.03140655905008316, 0.05684102326631546, 0.04535449296236038, -0.05860080569982529, -0.02153882011771202, 0.06243154779076576, -0.022345738485455513, 0.010273505002260208, 0.016455145552754402, -0.0428924523293972, 0.04421766474843025, -0.039414264261722565, 0.06320199370384216, -0.08142268657684326, -0.013187919743359089, -0.0003423876769375056, 0.00694505637511611, 0.0702449232339859, -0.04584123194217682, 0.07033231854438782, 0.05077603831887245, -0.04483030363917351, -0.0008196507696993649, -0.05258975550532341, 0.018142087385058403, -0.024440081790089607, 0.009482563473284245, 0.016858072951436043, -0.02254338562488556, 0.05128466710448265, 0.00019009699462912977, -0.03627252206206322, 0.004894166253507137, -0.005362229887396097, -0.022847434505820274, 0.025422651320695877, -0.02725672535598278, 0.06421400606632233, -0.016892509534955025, -0.047665681689977646, 0.021339574828743935, 0.03332686424255371, 0.053103938698768616, -0.010213312692940235, 0.06595634669065475, -0.05575954541563988, -0.03986777737736702, -0.05151700600981712, -0.008118103258311749, -0.002344318898394704, 0.008113812655210495, 0.020986631512641907, -0.02666357532143593, 0.058197908103466034, 0.02539033815264702, 0.011149642057716846, -0.020626386627554893, -0.05597100034356117, 0.06565705686807632, -0.05099623650312424, 0.033070631325244904, -0.05090795084834099, -0.032175373286008835, 0.0007109790458343923, 0.030632898211479187, -0.09233449399471283, -0.0653410404920578, 0.022929992526769638, -0.05665863677859306, -0.019937369972467422, 0.07106649875640869, 0.035325292497873306, -0.021512078121304512, -0.021456759423017502, -0.05653512477874756, -0.0064365193247795105, -0.026618871837854385, 0.02040134370326996, -0.07360494881868362, 0.03917660936713219, 0.0665142610669136, 0.004694623872637749, -0.02473856881260872, -0.06117280572652817, -0.007173895835876465, -0.053983401507139206, 0.011067265644669533, 0.004763700533658266, -0.03232238441705704, 0.047629255801439285, 0.008025825023651123, 0.013560613617300987, 0.05951063334941864, 0.06055225804448128, -0.06782186776399612, 0.08741094172000885, -0.06811964511871338, -0.021940356120467186, -0.012712270021438599, 0.010624144226312637, 0.0761786699295044, 0.047672320157289505, -0.02763567678630352, 0.015090040862560272, -0.06655529141426086, -0.021865855902433395, -0.03472157567739487, 0.0009144023642875254, -0.03887243568897247], [0.07226373255252838, -0.008430806919932365, -0.05029195919632912, -0.07532903552055359, -0.096800796687603, -0.008661367930471897, 0.11188410967588425, -0.024477288126945496, -0.036501601338386536, 0.0562291257083416, -0.07725896686315536, -0.08994326740503311, -0.13750867545604706, -0.14486753940582275, -0.13001251220703125, -0.12500610947608948, 0.026314375922083855, 0.022655028849840164, -0.040475063025951385, 0.015884099528193474, -0.03251398727297783, 0.09015873819589615, 0.024925053119659424, -0.07124640047550201, -0.024606356397271156, 0.05364218354225159, -0.044655971229076385, 0.04872388765215874, -0.01979656331241131, -0.06504788249731064, -0.004764600191265345, 0.05463475361466408, 0.08352778106927872, 0.06159772723913193, -0.06812143325805664, -0.03915200009942055, 0.009899638593196869, -0.08128582686185837, 0.0728590190410614, -0.01372508518397808, -0.058819517493247986, -0.011795020662248135, 0.0767059251666069, -0.020975999534130096, -0.0012492781970649958, -0.06495925039052963, 0.04097757861018181, 0.05978279560804367, 0.05995248630642891, -0.032276712357997894, 0.04937652871012688, 0.05346309393644333, 0.06302817910909653, 0.06461196392774582, 0.022751515731215477, -0.05079958587884903, -0.06502392143011093, 0.044711265712976456, -0.06854958087205887, -0.054342180490493774, 0.08914264291524887, 0.07609837502241135, 0.07156343758106232, 0.07111097127199173, -0.05647124722599983, 0.016617190092802048, -0.016366636380553246, -0.02982277236878872, -0.02556328848004341, -0.009898895397782326, -0.03250869736075401, 0.05007435008883476, 0.004471938591450453, 0.02359333634376526, -0.00324519956484437, -0.012446577660739422, -0.01037634164094925, 0.00456960080191493, 0.05161787569522858, 0.06112547963857651, -0.018999120220541954, -0.010289860889315605, -0.029693853110074997, -0.03346912935376167, 0.01715078577399254, -0.02818375639617443, -0.04248170554637909, 0.06204335764050484, 0.05103493854403496, -0.024493252858519554, -0.09210780262947083, 0.06621522456407547, -0.018785914406180382, 0.010888312011957169, 0.034095846116542816, 0.03803178295493126, -0.008519620634615421, 0.056394875049591064, 0.0702044814825058, 0.07526925206184387, 0.039420321583747864, 0.00939750112593174, 0.02689315937459469, -0.014181886799633503, 0.033779047429561615, 0.0013978083152323961, -0.01492776907980442, 0.07488805800676346, 0.039143312722444534, 0.05491671711206436, -0.03194482997059822, -0.017882708460092545, -0.049293190240859985, -0.010818958282470703, 0.060792770236730576, -0.018574871122837067, 0.044664666056632996, -0.01523140724748373, -0.014673353172838688, -0.046091336756944656, 0.08971328288316727, 0.05222826451063156, 0.0057059344835579395, -0.02219945378601551, -0.01758985035121441, -0.04747987911105156, -0.03019121289253235, 0.07981543987989426, -0.03709306940436363, 0.04608222097158432, -0.016741324216127396, 0.007180373650044203, -0.019859585911035538, -0.06145580857992172, 0.07204798609018326, -0.01325934287160635, 0.033376339823007584, 0.0006543245981447399, 0.033350929617881775, 0.04459089785814285, -0.04575517773628235, -0.0037385246250778437, -0.043026406317949295, -0.0008416369091719389, 0.009744160808622837, -0.008356637321412563, 0.023370010778307915, 0.02183529920876026, 0.04056823253631592, 0.03600770980119705, -0.030137402936816216, 0.03627903014421463, -0.05713745951652527, 0.0038774271961301565, -0.0275986697524786, -0.04625128582119942, -0.008281138725578785, -0.02583441697061062, 0.036536406725645065, -0.03303603082895279, 0.03970450907945633, -0.04239530488848686, -0.08035106211900711, 0.025257909670472145, -0.026113323867321014, 0.02052871696650982, -0.003411190817132592, 0.07070040702819824, -0.03406044840812683, -0.02691219374537468, 0.02132357284426689, -0.07754635810852051, 0.04702789708971977, 0.06910133361816406, -0.030541136860847473, 0.0070563508197665215, -0.035903897136449814, -0.06387612223625183, -0.050912823528051376, 0.02429663948714733, 0.0454271174967289, -0.007433101534843445, -0.06395423412322998, 0.042321380227804184, 0.059045109897851944, 0.04805104807019234, -0.06260218471288681, -0.0498577319085598, 0.057372286915779114, -0.004244482610374689, 0.05068616941571236, -0.016869543120265007, 0.004969424102455378, 0.0021848108153790236, -0.00798999797552824, 0.006824944633990526, -0.0007397289155051112, -0.005321163218468428, -0.041621726006269455, 0.013378545641899109, -0.04401525482535362, 0.04036201164126396, -0.005681912414729595, 0.06610583513975143, -0.0011241957545280457, 0.08061143755912781, 0.006692934315651655, -0.021373096853494644, -0.02800973877310753, -0.05959416180849075, 0.018083393573760986, 0.012056621722877026, 0.019249694421887398, 0.004390726797282696, 0.039342790842056274], [-0.06338093429803848, 0.0012493935646489263, 0.046573396772146225, 0.008817004971206188, 0.027774753049016, -0.0653596892952919, -0.06137988716363907, -0.06202466040849686, -0.06184826046228409, 0.02451266534626484, -0.012838650494813919, -0.0021676926407963037, 0.020928233861923218, 0.012165428139269352, 0.015229999087750912, 0.014636268839240074, -0.04025308042764664, -0.013523619621992111, 0.039657581597566605, -0.018629558384418488, 0.015493560582399368, -0.07323843240737915, -0.0655425563454628, 0.03369458019733429, 0.020360061898827553, -0.0028269647154957056, 0.03498974069952965, -0.036475226283073425, -0.05884945020079613, 0.06122831627726555, 0.020307011902332306, -0.01088495273143053, 0.03811230510473251, 0.0036250653211027384, -0.010795710608363152, 0.0037448531948029995, -0.06991180032491684, -0.06515585631132126, 0.0062720198184251785, -0.05162547528743744, 0.008257375098764896, -0.026458824053406715, -0.007228710222989321, 0.01474974025040865, -0.06394924968481064, -0.019867179915308952, -0.0510939359664917, 0.012486914172768593, -0.018832487985491753, -0.061434634029865265, 0.04492073878645897, -0.009752684272825718, -0.038432568311691284, -0.014423537068068981, 0.04518720135092735, 0.038650620728731155, 0.054552968591451645, 0.057746585458517075, 0.05603593960404396, -0.055947788059711456, 0.04600588232278824, 0.002978614764288068, 0.03615843504667282, -0.0729544386267662, -0.07348385453224182, 0.015280472114682198, 0.025969430804252625, -0.0578591451048851, 0.029530063271522522, -0.033849455416202545, -0.0003901344898622483, 0.008965542539954185, -0.004182611592113972, 0.03828670084476471, -0.007632850669324398, 0.009431200101971626, 0.04542098566889763, -0.06708954274654388, 0.05309835821390152, 0.05026891082525253, 0.02716521918773651, -0.04435883089900017, -0.03742440789937973, 0.05105319991707802, -0.00825360044836998, -0.00667728204280138, 0.042503032833337784, -0.06711670011281967, -0.06710789352655411, -0.018523553386330605, -0.028051111847162247, -0.003513893811032176, 0.04504511505365372, 0.028208618983626366, 0.052585843950510025, 0.017907120287418365, -0.02599993348121643, 0.01953071914613247, 0.06146051734685898, 0.05710350722074509, 0.02594377100467682, -0.02146892249584198, -0.027589235454797745, -0.03938104584813118, -0.050158143043518066, 0.02947142720222473, -0.006967821624130011, 0.030626043677330017, 0.041216593235731125, -0.05967318266630173, -0.03251492604613304, -0.058082230389118195, 0.00017120511620305479, -0.06669354438781738, 0.054833490401506424, 0.018040506169199944, 0.025543151423335075, -0.056432679295539856, -0.015437014400959015, -0.00023666607739869505, -0.06425203382968903, -0.028362436220049858, 0.019456272944808006, 0.05224796384572983, -0.05496497079730034, 0.03441786393523216, -0.01684253290295601, -0.04194849729537964, -0.060369838029146194, -0.01597023382782936, 0.0695701465010643, 0.029443461447954178, -0.05573400482535362, -0.05240439251065254, 0.036394793540239334, -0.020544584840536118, -0.025203347206115723, 0.04129352048039436, 0.04258788004517555, -0.009500804357230663, 0.022709250450134277, -0.027338135987520218, -0.026604212820529938, 0.0375310480594635, 0.03526918217539787, -0.06974945962429047, 0.03192858025431633, -0.03124462254345417, -0.00997033342719078, -0.06577243655920029, 0.04333119839429855, 0.020729217678308487, -0.006126158405095339, -0.010902895592153072, 0.03456158936023712, -0.02925712801516056, 0.007830915972590446, -0.05004069209098816, -0.06150506064295769, -0.054676786065101624, -0.00524628721177578, 0.04182976856827736, -0.06544465571641922, -0.010264449752867222, 0.058732032775878906, 0.03160855919122696, 0.00908861868083477, -0.02625095285475254, -0.032545801252126694, -0.001701532513834536, -0.016273805871605873, -0.02251594141125679, 0.019993603229522705, -0.04743743687868118, 0.010669426061213017, -0.021899133920669556, -0.06812534481287003, -0.009641083888709545, -0.04828447476029396, -0.0664430558681488, 0.0065118493512272835, 0.019859394058585167, -0.010682075284421444, 0.014032822102308273, -0.06578631699085236, 0.009798293933272362, 0.026967473328113556, 0.016543716192245483, 0.0383424237370491, -0.00980583019554615, -0.057558078318834305, -0.06941502541303635, 0.0450676754117012, -0.01764778234064579, 0.05178583040833473, -0.018683282658457756, 0.04147433489561081, 0.0014541444834321737, -0.05213864520192146, 0.059878334403038025, 0.08074243366718292, 0.03878404200077057, -0.015766995027661324, -0.0339108482003212, 0.0002250299439765513, -0.03788401186466217, 0.03136606141924858, 0.014652962796390057, -0.004362299107015133, 0.0602695494890213, 0.011294102296233177, -0.07131295651197433, -0.04214511811733246, 0.012999116443097591, -0.019079037010669708], [0.01933075301349163, -0.07027843594551086, 0.03800587356090546, 0.08123717457056046, 0.1488567739725113, 0.10238633304834366, -0.014843093231320381, 0.011691058054566383, 0.06215924397110939, -0.024349309504032135, 0.07230457663536072, 0.03629424050450325, 0.10341653972864151, 0.10926802456378937, 0.1011921837925911, 0.04966919869184494, 0.029362427070736885, 0.017515143379569054, -0.003478884929791093, 0.0199107825756073, 0.001906425692141056, 0.0016860924661159515, 0.03764678165316582, 0.12081880867481232, 0.12337523698806763, 0.10107430815696716, -0.01097248587757349, 0.05318741127848625, 0.04803696647286415, -0.03437177091836929, 0.04421115294098854, 0.0034197468776255846, 0.004989709239453077, 0.0005784117965959013, 0.0007278448319993913, -0.02477131597697735, 0.025428907945752144, -0.05541997775435448, 0.03585384041070938, 0.007978148758411407, -0.05886333808302879, 0.009550611488521099, 0.0064544882625341415, 0.009277645498514175, -0.01824995130300522, -0.015251497738063335, 0.050396233797073364, -0.03396080061793327, 0.07444509863853455, 0.05270514637231827, 0.012134690769016743, -0.032388146966695786, 0.06677152961492538, -0.06667190790176392, -0.06677071750164032, 0.04656841978430748, 0.06139133498072624, 0.03610945865511894, -0.039248187094926834, -4.808142693946138e-05, 0.048041701316833496, 0.07375504821538925, -0.03521570935845375, -0.062243249267339706, 0.0033603771589696407, 0.015938766300678253, -0.029033076018095016, 0.027503428980708122, 0.030214879661798477, -0.019260698929429054, -0.03756580129265785, 0.021531052887439728, -0.002071346854791045, 0.08114749938249588, 0.026930300518870354, 0.016194090247154236, -0.01564348302781582, 0.027217747643589973, 0.0024251544382423162, 0.0120426956564188, -0.02948211133480072, 0.02921081706881523, -0.0018188798567280173, 0.018601424992084503, -0.049149032682180405, 0.042442306876182556, 0.03982945904135704, -0.007121814414858818, -0.041440218687057495, -0.03366668149828911, -0.023345032706856728, -0.017863940447568893, 0.06057504937052727, 0.02348378300666809, -0.02195868268609047, 0.06019631773233414, 0.025892185047268867, 0.049215562641620636, 0.055684901773929596, -0.03589724004268646, 0.04268694296479225, -0.04256833717226982, 0.06711147725582123, 0.04437923803925514, -0.0664677768945694, -0.00907941348850727, -0.026442447677254677, -0.015324808657169342, 0.025727039203047752, 0.014356864616274834, 0.07609517127275467, -0.004935383331030607, 0.028072381392121315, -0.05656803771853447, 0.01813112013041973, 0.00813530944287777, -0.0514209158718586, 0.022693859413266182, 0.04378467798233032, -0.02472270466387272, -0.06204897165298462, 0.01884671300649643, 0.025554021820425987, 0.02541171945631504, -0.018045976758003235, -0.046551547944545746, 0.015257335267961025, -0.055318258702754974, 0.023088106885552406, 0.020312877371907234, 0.05488656088709831, -0.015639768913388252, -0.05562051013112068, 0.04275922477245331, 0.04198525473475456, -0.05051610246300697, 0.004820273723453283, -0.0075481850653886795, -0.020871054381132126, 0.0424562431871891, 0.006726246792823076, 0.05905686318874359, 0.025860344991087914, -0.061149273067712784, 0.02544901892542839, -0.030489761382341385, -0.06770465523004532, 0.03978901356458664, 0.04543813690543175, 0.05229191854596138, -0.024068793281912804, 0.02442396618425846, 0.0049890270456671715, 0.04869119077920914, 0.04497130587697029, -0.027803931385278702, 0.05932474136352539, 0.05514618754386902, 0.038301609456539154, -0.05744500458240509, -0.05325083062052727, 0.0029814369045197964, -0.006628489587455988, -0.03447091951966286, 0.038241129368543625, -0.05505260452628136, 0.024592000991106033, 0.03522283583879471, -0.039478689432144165, 0.06728162616491318, -0.04326285421848297, 0.036951638758182526, -0.061828549951314926, -0.059977639466524124, 0.026725955307483673, -0.06539063900709152, 0.01768987812101841, 0.06555525213479996, 0.06251060962677002, -0.03691757842898369, -0.021106673404574394, -0.07763403654098511, 0.01712730899453163, -0.030225137248635292, 0.00508771650493145, -0.059195224195718765, 0.0019075330346822739, -0.040570858865976334, -0.010831138119101524, 0.05416543409228325, -0.055626481771469116, -0.04853416979312897, 0.057775553315877914, 0.06442994624376297, 0.015790877863764763, 0.015922611579298973, -0.006685702595859766, 0.04627254977822304, -0.04050798341631889, -0.025922495871782303, -0.0020665626507252455, -0.025140471756458282, -0.014910509809851646, -0.03357838839292526, -0.005435298662632704, 0.05004804581403732, -0.06517678499221802, 0.004933217074722052, 0.03523075580596924, 0.04728231579065323, -0.018487999215722084, -0.059081535786390305, 0.03018702194094658, -0.025408359244465828, 0.05842648446559906], [0.017189767211675644, 0.022243410348892212, 0.11464174091815948, 0.0723356306552887, 0.08485905826091766, 0.12924492359161377, 0.02582560107111931, -0.014919768087565899, 0.03792257606983185, -0.058089327067136765, 0.05063019320368767, 0.012708148919045925, 0.11119291186332703, 0.08933485299348831, 0.0977589339017868, 0.17203159630298615, 0.05324199050664902, 0.04586832970380783, 0.03668623045086861, -0.0162249393761158, -0.015998605638742447, 0.06798908859491348, 0.09780808538198471, 0.060786087065935135, 0.10080576688051224, 0.09931735694408417, -0.008122628554701805, 0.016129599884152412, 0.015002421103417873, 0.03878151252865791, -0.011784106492996216, 0.003286628518253565, -0.007060667034238577, -0.030920954421162605, 0.03147543966770172, 0.08711137622594833, -0.026138417422771454, 0.008983002975583076, 0.04015417397022247, -0.02239043265581131, 0.005309380125254393, -0.03466389700770378, 0.08525681495666504, 0.07730576395988464, -0.025305723771452904, 0.04798269644379616, 0.047639910131692886, 0.0443250946700573, -0.02754140831530094, 0.01695609651505947, -0.023069677874445915, 0.046671684831380844, 0.033956944942474365, -0.0013118175556883216, 0.03211747854948044, 0.05156094953417778, 0.008713768795132637, -0.002229187171906233, -0.07035069167613983, 0.019514717161655426, -0.0719858929514885, 0.04322093725204468, -0.014610626734793186, -0.004837069194763899, -0.048594143241643906, 0.10708694905042648, -0.009547057561576366, -0.0546354278922081, -0.038227103650569916, -0.07807929068803787, -0.0639270544052124, -0.07026257365942001, 0.06005547568202019, -0.0021662642247974873, -0.009947589598596096, -0.05945751070976257, 0.03271767869591713, 0.06799750030040741, 0.06547980010509491, 0.00191772251855582, -0.006650122348219156, -0.04860660061240196, 0.02266845293343067, 0.06321706622838974, 0.03007614240050316, -0.009626024402678013, 0.0034311094786971807, -0.024887552484869957, 0.05104830861091614, -0.009936551563441753, 0.0732654258608818, -0.013371882028877735, -0.05381925404071808, 0.06447972357273102, 0.02154731936752796, -0.07985848933458328, -0.007239770609885454, 0.022297227755188942, -0.026138411834836006, -0.00262532290071249, -0.01003141701221466, 0.03573223203420639, -0.010852592997252941, -0.020317276939749718, 0.05038765072822571, -0.07611876726150513, 0.05423681437969208, -0.03500761464238167, 0.041921466588974, -0.009294847026467323, -0.047300808131694794, 0.07008235156536102, -0.03487786278128624, -0.0029207526240497828, -0.029625767841935158, -0.01993202045559883, 0.060753416270017624, 0.024299662560224533, -0.04617195948958397, 0.00032146027660928667, -0.01131554413586855, 0.012514280155301094, 0.015729203820228577, -0.07340647280216217, -0.05187908187508583, 0.045452218502759933, 0.010893324390053749, -0.0642160028219223, 0.017367249354720116, -0.02998090162873268, 0.028956903144717216, 0.051426686346530914, -0.07894058525562286, -0.0823260024189949, 0.03667158633470535, -0.05133633315563202, -0.05100434273481369, 0.006046625319868326, 0.07016953825950623, -0.05778411403298378, -0.025072958320379257, -0.021161286160349846, -0.0841851532459259, -0.0023000615183264017, -0.05984269827604294, 0.024232804775238037, 0.01148691214621067, -0.07699625939130783, -0.028893519192934036, -0.015828924253582954, 0.027697574347257614, 0.008381110616028309, -0.0007108135614544153, 0.043510884046554565, 0.03516922518610954, -0.05900948494672775, 0.060640934854745865, -0.01757670007646084, -0.03212933987379074, 0.01406328845769167, -0.0061713713221251965, 0.02999643050134182, -0.01223701797425747, 0.04634121432900429, 0.052593328058719635, -0.03004857525229454, -0.0061444067396223545, -0.011385283432900906, -0.06473033875226974, -0.014381235465407372, 0.024816280230879784, -0.037464480847120285, -0.05520709231495857, 0.04139416292309761, 0.025445343926548958, -0.04955974593758583, -0.07196752727031708, -0.04547097533941269, -0.029518401250243187, 0.023257611319422722, -0.024099688977003098, 0.011057133786380291, -0.02653883583843708, -0.05499594658613205, -0.0033490245696157217, -0.05556908994913101, 0.026275798678398132, 0.027574148029088974, -0.027874644845724106, -0.013244863599538803, 0.020357955247163773, 0.04069959372282028, 0.06770896911621094, 0.0628201961517334, 0.05259448289871216, 0.010190524160861969, -0.07169556617736816, -0.061089497059583664, 0.04907103627920151, 0.028140734881162643, 0.04781199246644974, -0.1010572612285614, -0.046839967370033264, 0.02493317238986492, 0.0315726213157177, 0.006408368702977896, 0.022524626925587654, 0.03112618252635002, 0.039666853845119476, 0.012662786059081554, 0.017840495333075523, 7.117997301975265e-05, 0.03736279159784317, 0.01173687819391489, -0.0004945355467498302], [-0.04813705012202263, -0.05206834152340889, -0.031146792694926262, 0.010326947085559368, 0.0782647505402565, 0.10982896387577057, 0.06469575315713882, 0.026217356324195862, -0.013034704141318798, -0.06551207602024078, 0.09751974791288376, 0.04035079851746559, 0.07732796669006348, 0.07289140671491623, 0.12275820970535278, 0.05961468070745468, 0.023844249546527863, 0.019787058234214783, -0.0028113892767578363, 0.005144755821675062, -0.05015698820352554, 0.08155543357133865, 0.03377307951450348, 0.08653309941291809, -0.00034498015884310007, 0.03188786283135414, 0.03496178239583969, -0.005117201711982489, 0.0934988409280777, -0.0032771427650004625, 0.025508446618914604, 0.028592031449079514, 0.018703514710068703, 0.05732825770974159, 0.07242199033498764, 0.026185398921370506, 0.026871664449572563, 0.053132351487874985, -0.05288145691156387, 0.049434032291173935, -0.01782846264541149, 0.030551213771104813, 0.028950393199920654, -0.03797720745205879, -0.05103141814470291, 0.06373172998428345, 0.01647852174937725, -0.04540133848786354, 0.05613540858030319, -0.028995048254728317, 0.05366533622145653, -0.03395650163292885, -0.03001326136291027, 0.05178583040833473, 0.02832195907831192, 0.07489603757858276, 0.05632968246936798, 0.0066635506227612495, 0.049779023975133896, 0.010597373358905315, -0.02198554202914238, 0.06061149388551712, -0.03009120002388954, 0.044039420783519745, 0.0048095849342644215, -0.0028927717357873917, 0.06275232881307602, -0.019991042092442513, 0.05919458717107773, 0.027326110750436783, 0.049528516829013824, 0.017264867201447487, -0.032398320734500885, 0.004424658603966236, 0.04692905396223068, -0.041708651930093765, 0.08882537484169006, 0.053201742470264435, -0.03242665156722069, 0.06268692016601562, -0.03871028125286102, 0.005233055911958218, -0.009749099612236023, -0.022561119869351387, 0.06546495109796524, 0.04249643161892891, -0.04700205847620964, 0.06958458572626114, 0.06514590978622437, 0.053445495665073395, 0.013848945498466492, 0.04277003929018974, -0.05104643851518631, -0.019327852874994278, -0.021444939076900482, 0.05089104548096657, -0.023270022124052048, 0.04964348301291466, 0.07549891620874405, 0.0681537613272667, 0.03718189522624016, 0.007333411369472742, -0.018350305035710335, -0.04479244351387024, 0.007368552032858133, 0.01967827044427395, 0.021725915372371674, 0.017280926927924156, -0.013060553930699825, -0.024511786177754402, -0.011085327714681625, 0.04597872123122215, 0.07419268786907196, -0.03100016340613365, 0.052692316472530365, 0.06497923284769058, -0.01210110541433096, 0.002895346377044916, 0.03371148928999901, 0.035914961248636246, -0.028192248195409775, 0.04088984429836273, 0.012569825164973736, -0.016392843797802925, 0.023531567305326462, -0.00015329220332205296, 0.03831227123737335, 0.014806389808654785, 0.06374793499708176, 0.051061224192380905, 0.04335956647992134, 0.05138300731778145, 0.0065184286795556545, 0.058469243347644806, 0.0639641135931015, 0.018437424674630165, 0.04832543432712555, 0.07323698699474335, -0.02817405015230179, -0.046062976121902466, 0.0728648453950882, -0.015242192894220352, 0.040013331919908524, -0.058044273406267166, 0.039188820868730545, -0.017335742712020874, 0.018522417172789574, -0.021299120038747787, -0.019495338201522827, -0.047177646309137344, 0.07558398693799973, 0.03133969381451607, 0.0036412563640624285, -0.006406119093298912, 0.007874082773923874, 0.037366922944784164, -0.05991315096616745, 0.07401042431592941, 0.013426548801362514, 0.060922857373952866, 0.026817524805665016, -0.03582273796200752, 0.021016309037804604, -0.0424279123544693, 0.04435564577579498, 0.028026191517710686, 0.06116091459989548, 0.0061941067688167095, 0.034163523465394974, -0.042358558624982834, 0.014565661549568176, 0.06437592208385468, -0.011840145103633404, 0.07275978475809097, -0.025096047669649124, -0.002508812351152301, -0.008461431600153446, 0.018915673717856407, 0.001332776271738112, 0.07055499404668808, -0.007583369966596365, -0.04905613884329796, -0.043966490775346756, -0.045084986835718155, -0.0023447952698916197, -0.05733824893832207, 0.023508436977863312, 0.0006799713592045009, -0.008280238136649132, -0.06108560413122177, 0.06484740972518921, -0.014319083653390408, 0.055771488696336746, -0.023250818252563477, 0.012510343454778194, 0.03852084279060364, 0.0344986692070961, 0.04323609173297882, 0.03659677505493164, 0.05112525075674057, 0.024449538439512253, 0.038458630442619324, -0.049459315836429596, -0.036557476967573166, 0.04447869583964348, 0.01124558225274086, -0.014769774861633778, 0.0371118038892746, 0.0552668534219265, -0.03104201704263687, 0.025279272347688675, -0.016068480908870697, 0.054641157388687134, 0.07170567661523819, 0.07608897238969803], [-0.03635573014616966, -0.07966332137584686, -0.03685764595866203, 0.052607931196689606, 0.10671444237232208, 0.11087360233068466, -0.029844101518392563, -0.0645119771361351, -0.058105647563934326, -0.06015486642718315, 0.006735285744071007, 0.046341367065906525, 0.12992915511131287, 0.13057279586791992, 0.12653332948684692, 0.15845634043216705, 0.06440282613039017, 0.1171196699142456, -0.038212552666664124, 0.027628449723124504, -0.0020325256045907736, 0.017390448600053787, 0.10893132537603378, 0.0011824453249573708, -0.0010075196623802185, 0.05013074353337288, 0.05117947980761528, -0.018489671871066093, 0.03366311639547348, -0.0005779845523647964, 0.07075444608926773, 0.012774664908647537, -0.057556554675102234, -0.001451431424356997, 0.025869281962513924, 0.02776043489575386, -0.031551577150821686, 0.0010238545946776867, 0.047801461070775986, -0.04498632624745369, 0.025371428579092026, -0.023307684808969498, 0.05291436240077019, 0.00023666041670367122, -0.009662157855927944, -0.004040378145873547, 0.029956717044115067, 0.054879143834114075, 0.012497848831117153, 0.0530843511223793, 0.04423600062727928, 0.0024374595377594233, -0.02165607176721096, -0.0820266380906105, -0.03743552789092064, 0.03290305659174919, 0.040334366261959076, 0.013911205343902111, 0.06699780374765396, -0.0005321912467479706, -0.054544996470212936, -0.01695043407380581, -0.028399502858519554, -0.021579744294285774, 0.03232527896761894, 0.06092911586165428, 0.058797843754291534, 0.0030296416953206062, 0.05009927973151207, -0.039197299629449844, 0.025372711941599846, -0.06723190099000931, 0.10379377007484436, -0.00013001912157051265, 0.008076866157352924, 0.0582798607647419, 0.049544911831617355, -0.03644682094454765, -0.06060090288519859, -0.007960316725075245, -0.027461837977170944, 0.012541469186544418, -0.04318367317318916, 0.019603170454502106, 0.027584195137023926, 0.06188558414578438, 0.0382881760597229, 0.050320763140916824, 0.038390886038541794, -0.003670673118904233, 0.029106630012392998, 0.02061484195291996, 0.0417129285633564, 0.025457335636019707, 0.04326178878545761, -0.003484062384814024, 0.022371215745806694, -0.02488584816455841, -0.009235842153429985, -0.07416936010122299, -0.07643206417560577, -0.014208979904651642, -0.054194435477256775, -0.02596433274447918, -0.00630424078553915, -0.04200179874897003, -0.018412310630083084, 0.03626987710595131, 0.0628829076886177, -0.00761982798576355, -0.061036985367536545, 0.01232677511870861, 0.07592663168907166, 0.025668809190392494, -0.04266015812754631, 0.04899046942591667, -0.03845589607954025, -0.006205958779901266, 0.05561831220984459, 0.037057600915431976, -0.007646511308848858, -0.026373667642474174, 0.040994103997945786, 0.0085059255361557, -0.04978994280099869, 0.004263938404619694, 0.03956720605492592, -0.04954852536320686, 0.03846258670091629, -0.018812457099556923, -0.016019107773900032, 0.006736094132065773, 0.0350198969244957, -0.009720144793391228, -0.06918482482433319, 0.031773027032613754, -0.04313822090625763, 0.04326077550649643, 0.010447231121361256, 0.01755259558558464, -0.029542434960603714, 0.0009305433486588299, 0.07699772715568542, 0.06344287842512131, 0.008057222701609135, -0.011593002825975418, 0.013891546986997128, -0.022303178906440735, -0.0471741184592247, 0.05722438544034958, 0.027555080130696297, -0.033204156905412674, 0.032776400446891785, 0.007975026033818722, -0.039577681571245193, -0.05755603685975075, 0.0612870454788208, 0.0466301366686821, 0.025728806853294373, 0.004364617634564638, -0.025600198656320572, -0.029393231496214867, -0.04137320816516876, -0.04798054322600365, -0.06873913109302521, -0.03932028263807297, 0.0245970506221056, -0.008438588120043278, -0.029968176037073135, -0.049992673099040985, -0.05222659185528755, -0.03079458884894848, 0.012248776853084564, -0.059459369629621506, -0.023732904344797134, -0.0452708825469017, -0.011969112791121006, 0.026971306651830673, -0.008691170252859592, 0.017954405397176743, -0.04185674339532852, 0.026886167004704475, 0.01316986046731472, 0.030105192214250565, 0.048979658633470535, 0.07265013456344604, -0.008430421352386475, 0.03132335841655731, -0.03736932575702667, -0.01140128169208765, -0.05184972658753395, 0.013122791424393654, 0.034255415201187134, -0.03578299656510353, -0.07171760499477386, 0.009411456994712353, 0.009614999406039715, -0.03414812311530113, 0.01304667443037033, 0.020312272012233734, 0.06220097839832306, 0.0030582693871110678, -0.04286368936300278, 0.011960765346884727, -0.057044778019189835, 0.017809348180890083, -0.010601813904941082, -0.047728344798088074, 0.01421240996569395, 0.0032757220324128866, -0.004391304217278957, 0.059307344257831573, -0.023994581773877144, -0.013238326646387577, 0.003956539556384087], [0.0193122997879982, -0.018087735399603844, -0.02529989928007126, -0.05738065391778946, -0.07726863026618958, -0.15056006610393524, 0.08086781948804855, -0.02512454055249691, 0.05266980826854706, 0.05390424653887749, -0.10687699913978577, -0.03956063836812973, -0.05905105546116829, -0.16221582889556885, -0.10040359944105148, -0.08345134556293488, -0.08656966686248779, -0.030210847035050392, -0.011758130975067616, -0.058110762387514114, 0.006795634049922228, 0.08708535879850388, 0.052818670868873596, -0.1207672655582428, -0.03858667239546776, -0.06242482736706734, -0.030075183138251305, -0.015178777277469635, -0.031479962170124054, 0.023702096194028854, -0.044417958706617355, -0.0382477231323719, 0.019963672384619713, -0.01878986693918705, -0.026163507252931595, 0.04604053124785423, 0.04729778692126274, -0.022412627935409546, 0.0066518280655145645, -0.06498898565769196, -0.017804071307182312, -0.022355476394295692, -0.008359374478459358, 0.0637604370713234, -0.02648082561790943, 0.05676386132836342, 0.06763453036546707, 0.049817364662885666, 0.05917823687195778, -0.02107265219092369, 0.052032582461833954, 0.09035558998584747, 0.014252708293497562, -0.022612083703279495, -0.02391226775944233, 0.0018047407502308488, 0.065032459795475, 0.0549168661236763, -0.062467802315950394, 0.05022183433175087, -0.008115340955555439, -0.040120355784893036, -0.04369823634624481, -0.002712351270020008, -5.819756188429892e-05, 0.052159104496240616, -0.040035925805568695, -0.029465334489941597, 0.02123870886862278, 0.005902287550270557, 0.08556249737739563, 0.030559049919247627, 0.020142177119851112, 0.0001418522442691028, 0.058871880173683167, -0.032364677637815475, -0.001205776701681316, 0.035941675305366516, -0.03229453042149544, 0.012293720617890358, -0.011551088653504848, 0.015120099298655987, 0.024956457316875458, 0.0001814380957512185, 0.05753801763057709, -0.01912822015583515, 0.08403551578521729, -0.03154592588543892, 0.06412540376186371, 0.0114835100248456, -0.023113416507840157, -0.06089149788022041, 0.07872739434242249, -0.05826985463500023, 0.07160628587007523, 0.040049128234386444, 0.035652659833431244, 0.023605680093169212, 0.03063974529504776, 0.003669275203719735, 0.012122376821935177, 0.04236482083797455, 0.05517658218741417, 0.07749826461076736, -0.02459455467760563, -0.03676833584904671, 0.032900795340538025, 0.00818907655775547, 0.0591726154088974, 0.05653030052781105, -0.004650326911360025, 0.07507173717021942, 0.056667957454919815, 0.014912203885614872, 0.07998649030923843, -0.02553291618824005, -0.057813528925180435, 0.0216386616230011, -0.02426508441567421, -0.0711439996957779, 0.03125477209687233, -0.0017841389635577798, 0.004045979119837284, 0.08367586135864258, -0.04534958675503731, 0.01681007258594036, 0.039462000131607056, 0.024717513471841812, 0.01954718679189682, 0.009625297039747238, 0.06343191862106323, -0.02885412983596325, -0.025842463597655296, 0.05295490100979805, 0.0001601454132469371, 0.07747144997119904, 0.011413422413170338, -0.044204894453287125, 0.011744260787963867, -0.07297736406326294, 0.054280124604701996, 0.03809681534767151, 0.0310883279889822, -0.03803519532084465, -0.009660495445132256, -0.02410207688808441, -0.04349849000573158, -0.0015607115346938372, 0.005087658762931824, -0.06274787336587906, 0.03809856250882149, 0.06061682850122452, 0.013878921046853065, -0.015535084530711174, 0.04754799231886864, 0.003915696404874325, 0.003647544654086232, -0.0238642618060112, -0.07151447981595993, 0.013818135485053062, -0.01718556508421898, -0.0354415662586689, 0.07024432718753815, -0.02396520785987377, 0.06961013376712799, 0.04908916726708412, -0.011056549847126007, -0.07885215431451797, 0.00416555255651474, -0.048363909125328064, -0.01414361409842968, 0.06974666565656662, -0.026531709358096123, 0.026614435017108917, -0.03242519125342369, 0.05204467102885246, 0.04573625698685646, -0.02343079075217247, 0.0491010956466198, -0.018318772315979004, -0.02874288149178028, -0.05424823239445686, -0.02644108049571514, 0.07776360213756561, -0.04208347201347351, -0.03802209347486496, -0.027653684839606285, -0.02007998898625374, 0.05718611925840378, -0.04649094492197037, -0.031371522694826126, -0.05995945259928703, 0.00912576261907816, 0.0689045861363411, -0.048224542289972305, 0.004613631870597601, -0.019991887733340263, -0.07623840123414993, 0.006140803452581167, -0.005137717351317406, -0.10473538935184479, 0.04946296289563179, 0.09282903373241425, 0.0457552932202816, -0.06292236596345901, 0.05922254920005798, -0.044530339539051056, -0.01155761256814003, -0.026973916217684746, 0.06656752526760101, 0.019625915214419365, -0.03516853600740433, 0.056479562073946, 0.08237088471651077, 0.06911860406398773], [0.0069224839098751545, -0.024905992671847343, 0.047990940511226654, 0.10623671114444733, 0.01821681298315525, 0.11436480283737183, -0.04166065901517868, -0.06533649563789368, -0.005419074557721615, 0.04275573045015335, 0.050178203731775284, -0.006402268540114164, 0.008916561491787434, 0.0895276889204979, 0.1679469645023346, 0.14071282744407654, 0.12693360447883606, 0.0582980215549469, -0.05067851021885872, -0.01332781556993723, 0.011474719271063805, -0.013513538986444473, 0.1019381657242775, 0.1294831782579422, 0.00578420702368021, 0.05506220459938049, 0.07017501443624496, -0.0027020988054573536, 0.002248884178698063, -0.014492267742753029, -0.009423901326954365, 0.0231378935277462, 0.023403223603963852, -0.04672810062766075, 0.0665128231048584, 0.03787841275334358, 0.03071507252752781, 0.07271011173725128, 0.0709661990404129, -0.051950644701719284, -0.012866047210991383, 0.03487497195601463, 0.016420012339949608, 0.04551469907164574, -0.014080407097935677, 0.053146105259656906, -0.011148175224661827, -0.033732108771800995, 0.017668893560767174, -0.00038734512054361403, -0.04770594835281372, 0.0731545090675354, 0.05476728454232216, -0.03984451666474342, -0.022122440859675407, 0.06998317688703537, 0.04362783208489418, 0.012868175283074379, 0.06963640451431274, -0.06521983444690704, -0.010345901362597942, -0.002788905054330826, 0.06404875218868256, -0.062492404133081436, 0.027811532840132713, 0.08009837567806244, -0.007949269376695156, -0.0008475992945022881, -0.03947693854570389, -0.04243728891015053, -0.020017942413687706, -0.009814076125621796, 0.042332280427217484, 0.07395637780427933, 0.06352829188108444, -0.04707442969083786, 0.027014171704649925, -0.020917346701025963, 0.08068256825208664, -0.041146788746118546, 0.04975992068648338, 0.03098212368786335, 0.039153870195150375, -0.016248119994997978, -0.01751849614083767, 0.0335051566362381, 0.04836076870560646, 0.01369366142898798, 0.06167024374008179, 0.049984440207481384, 0.08491071313619614, 0.06692622601985931, 0.04153379425406456, -0.03035610169172287, -0.008623386733233929, 0.029094519093632698, 0.03621503338217735, -0.019219325855374336, -0.040693122893571854, 0.030888283625245094, 0.035543084144592285, -0.003499621292576194, 0.05552268400788307, -0.027015311643481255, 0.06268627196550369, 0.0623585544526577, 0.022841420024633408, 0.03973451629281044, 0.02561841905117035, 0.01584932953119278, -0.02751855179667473, -0.025290653109550476, -0.0392598994076252, 0.07881985604763031, -0.0011168948840349913, 0.008103408850729465, 0.03735993802547455, -0.016515132039785385, 0.03073774091899395, 0.004054716322571039, -0.033541686832904816, 0.03553721308708191, 0.07323762774467468, -0.04011010751128197, 0.064551442861557, 0.016479337587952614, -0.04253511503338814, 0.07386091351509094, -0.05322509631514549, 0.031073570251464844, 0.06643445044755936, -0.010189713910222054, -0.059542328119277954, 0.07729862630367279, -0.03746333345770836, 0.002145184203982353, 0.011276495642960072, 0.01801653578877449, 0.0044110543094575405, 0.03881099820137024, 0.06088290736079216, -0.004741905257105827, -0.05021911486983299, -0.023620521649718285, 0.0179117601364851, 0.041013699024915695, 0.07451131194829941, 0.06456086784601212, -0.026662195101380348, -0.04191963002085686, 0.010411855764687061, -0.002593499142676592, 0.011204877868294716, 0.03361700847744942, 0.035312771797180176, 0.056019604206085205, -0.05207372084259987, 0.06479514390230179, 0.012407992035150528, -0.03830641135573387, 0.007975569926202297, -0.027573639526963234, 0.05324514955282211, 0.01596379280090332, 0.02169789932668209, 0.05896564573049545, -0.005647487472742796, -0.042924780398607254, 0.03944210708141327, -0.03468860313296318, -0.011305755004286766, 0.06258925795555115, 0.049541786313056946, 0.0021010886412113905, -0.015467611141502857, -0.05594555288553238, -0.018863044679164886, 0.07244864851236343, 0.05221204087138176, -0.03738100454211235, 0.00018533537513576448, -0.00036050009657628834, -0.053159214556217194, 0.020562486723065376, 0.07139740139245987, 0.009355524554848671, -0.025338387116789818, 0.02845609374344349, -0.004948965739458799, 0.05299874022603035, 0.03641236200928688, -0.010770479217171669, -0.03312791883945465, -0.027815531939268112, 0.020466426387429237, 0.03500194847583771, 0.05450034886598587, 0.07243601977825165, 0.05796768143773079, 0.04239331930875778, 0.02459225058555603, 0.02553737722337246, -0.030114315450191498, 0.04496369510889053, 0.03687998652458191, 0.005251000169664621, -0.04290880635380745, 0.011880162172019482, 0.012749887071549892, 0.0432625487446785, -0.03665489703416824, -0.013506016694009304, -0.03890088200569153, -0.029609479010105133, -0.04605112224817276], [-0.049290016293525696, -0.10421323776245117, -0.012492531910538673, 0.04418158158659935, 0.13005097210407257, 0.07329826056957245, 0.03695578873157501, 0.002677732380107045, 0.04171285405755043, 0.04473842307925224, 0.014246921055018902, 0.00032338310847990215, 0.04119761288166046, 0.08111356198787689, 0.13821156322956085, 0.15182121098041534, 0.13803689181804657, 0.028178730979561806, 0.061446040868759155, -0.05173679068684578, 0.052558042109012604, -0.029120121151208878, 0.0997617244720459, 0.086263507604599, 0.11543700844049454, 0.04511372745037079, 0.08009693771600723, 0.056068599224090576, -0.02646687440574169, -0.01685526594519615, 0.008730722591280937, -0.005895271431654692, -0.025915827602148056, -0.04825299605727196, 0.10331707447767258, 0.06149647384881973, 0.04135948792099953, -0.021364789456129074, 0.005007665604352951, 0.03576642647385597, -0.05467570200562477, -0.0028832443058490753, 0.0026317110750824213, 0.0016889383550733328, -0.019519347697496414, 0.007419542409479618, 0.015556342899799347, 0.0013126750709488988, 0.02605092152953148, -0.0005802152445539832, -0.021198760718107224, 0.04057907685637474, 0.04121648520231247, -0.007307425606995821, 0.028756119310855865, 0.06632129102945328, 0.06758937239646912, 0.038121387362480164, 0.006729914806783199, -0.020476872101426125, -0.03846840560436249, -0.024259651079773903, 0.06878878176212311, 0.015518276020884514, 0.013768278062343597, 0.015066195279359818, -0.025832954794168472, 0.040653396397829056, 0.03432803228497505, -0.054751794785261154, 0.04038342088460922, 0.00829704012721777, 0.03021322377026081, 0.06714731454849243, 0.060269687324762344, -0.017652420327067375, -0.007511654403060675, 0.022114217281341553, 0.08400992304086685, -0.036020249128341675, 0.0006510252715088427, -0.019341401755809784, 0.07667402178049088, 0.021549323573708534, -0.042177047580480576, 0.07660386711359024, -0.010654271580278873, -0.01602955162525177, 0.0470074787735939, 0.053431883454322815, 0.004563448950648308, 0.005537469405680895, 0.03700753673911095, -0.03722919896245003, 0.039366550743579865, 0.02448244020342827, -0.02635381370782852, 0.017563844099640846, -0.028469011187553406, 0.02495301514863968, -0.009750215336680412, 0.028611773625016212, 0.01990281045436859, 0.03421735763549805, -0.05548382177948952, 0.011789652518928051, -0.005800922401249409, -0.052523981779813766, -0.04985901340842247, -0.04563931003212929, -0.03612111508846283, 0.022292865440249443, 0.053780291229486465, 0.019508175551891327, 0.0691525861620903, -0.005482892971485853, -0.014077290892601013, -0.007194808684289455, 0.04470491409301758, -0.009371655993163586, 0.0665922611951828, 0.07464990019798279, 0.07120029628276825, -0.05806611850857735, -0.008934960700571537, 0.07320656627416611, 0.05372238904237747, -0.048731472343206406, 0.05966208502650261, -0.0071703107096254826, 0.014328201301395893, 0.003484004409983754, -0.036556586623191833, -0.04293616861104965, 0.014630944468080997, -0.01844196952879429, 0.031243272125720978, -0.037572167813777924, -0.044861119240522385, -0.043446339666843414, 0.04500381276011467, 0.06151033565402031, -0.04479099065065384, -0.014840678311884403, 0.06615001708269119, 0.058827370405197144, -0.05522410199046135, 0.00958631094545126, 0.006492420099675655, -0.007547343615442514, 0.07805439084768295, 0.039168015122413635, 0.017198482528328896, -0.006178169045597315, -0.014252693392336369, 0.08210615813732147, 0.06644561886787415, 0.07603883743286133, 0.03825105354189873, 0.04236382991075516, -0.05827949941158295, -0.0537162683904171, 0.04978948459029198, -0.05053370073437691, -0.0490662083029747, 0.05253656581044197, -0.05929054319858551, 0.04683564230799675, -0.023770779371261597, -0.01780528947710991, 0.018169423565268517, 0.06771739572286606, -0.004592095036059618, -0.019302155822515488, -0.02369314804673195, 0.07354537397623062, -0.04434990882873535, 0.035103656351566315, -0.04737730696797371, -0.021804984658956528, -0.021132037043571472, 0.011969666928052902, -0.03925609216094017, 0.004731308668851852, -0.04591115564107895, 0.05662508308887482, 0.015534537844359875, -0.06272761523723602, 0.0037610994186252356, 0.018411697819828987, 0.04591157287359238, 0.04422646015882492, 0.05833522230386734, 0.06472968310117722, -0.04627128317952156, 0.041431739926338196, -0.024595335125923157, -0.015983425080776215, 0.025904333218932152, 0.061907246708869934, 0.04064569249749184, -0.030523501336574554, 1.813911148929037e-05, 0.08189224451780319, -0.04357370734214783, -0.029120448976755142, -0.04925971478223801, 0.017291594296693802, -0.0009615133749321103, 0.04888426885008812, 0.0863170176744461, 0.006815709639340639, 0.0023451626766473055, 0.029389936476945877, 0.05347919464111328], [0.077674500644207, 0.05736907571554184, -0.02677668072283268, -0.030210576951503754, -0.14936773478984833, -0.07458894699811935, 0.05617383122444153, 0.019424758851528168, -0.049442388117313385, -0.03175036981701851, 0.0541861355304718, -0.009994934312999249, -0.015163980424404144, -0.18653985857963562, -0.0853484570980072, -0.12603797018527985, -0.1081705167889595, 0.041590332984924316, 0.022595008835196495, 0.006785101257264614, -0.044651977717876434, -0.023415639996528625, -0.02119961380958557, -0.03875996172428131, -0.0332413874566555, -0.006312006618827581, -0.04332011565566063, -0.018046531826257706, 0.018863994628190994, -0.0022079618647694588, 0.029415298253297806, 0.002157688606530428, 0.03797609359025955, 0.03490777686238289, -0.05683443695306778, -0.10434481501579285, 0.01482713408768177, -0.029134495183825493, 0.02592230588197708, 0.006053606513887644, 0.005954105872660875, 0.0512167364358902, -0.0262278001755476, 0.05097614973783493, 0.020093649625778198, 0.000701491953805089, -0.015460465103387833, 0.06105760112404823, -0.005351666361093521, 0.0006896108970977366, 0.05823538079857826, -0.04182904586195946, -0.020283250138163567, 0.08341117203235626, -0.026996802538633347, -0.060103639960289, 0.05713745206594467, 0.08891169726848602, 0.06500910222530365, 0.06109947711229324, -0.024565529078245163, -0.06612939387559891, -0.05392951890826225, 0.09611555933952332, -0.04392533376812935, 0.05815628916025162, -0.0556328222155571, 0.07875984162092209, -0.0026934719644486904, 0.07937292754650116, 0.05264033004641533, -0.007937826216220856, -0.04433349147439003, 0.021437834948301315, -0.059003036469221115, 0.03628487139940262, 0.006158537697046995, 0.035419151186943054, 0.057223014533519745, 0.0031544999219477177, -0.003840239252895117, -0.018684817478060722, 0.05441354960203171, -0.05356528237462044, 0.015948090702295303, 0.04969106987118721, 0.026359913870692253, -0.04409680515527725, 0.018100695684552193, 0.06276203691959381, -0.031248264014720917, -0.011660510674118996, 0.04761241003870964, -0.009847651235759258, -0.04960586503148079, -0.009354673326015472, 0.044014982879161835, -0.01944277063012123, 0.03442024812102318, -0.015263989567756653, -0.059600915759801865, 0.03192983195185661, 0.03426164761185646, 0.05666825547814369, -0.04272604361176491, -0.03943765535950661, 0.02017759531736374, 0.056127239018678665, 0.03414209559559822, 0.02590859867632389, 0.03727078065276146, -0.02711980976164341, 0.001367852557450533, 0.0306132510304451, 0.02120831422507763, 0.04484548792243004, -0.047881122678518295, -0.020515093579888344, 0.023139746859669685, -0.017077550292015076, -0.05422324687242508, 0.018711598590016365, -0.024808362126350403, 0.04761296138167381, -0.024678407236933708, 0.042587004601955414, 0.06645845621824265, 0.047406356781721115, 0.0157256331294775, -0.04532342776656151, -0.003376911161467433, -0.047096990048885345, 0.01881813257932663, 0.004624202847480774, -0.07577890902757645, -0.026894258335232735, 0.05114069581031799, -0.06821259111166, 0.04284844920039177, 0.017915284261107445, 0.004525522235780954, 0.03066619485616684, 0.03844349831342697, -0.006284522358328104, 0.0033955059479922056, -0.04934132844209671, 0.02623545005917549, 0.037211403250694275, 0.018660208210349083, 0.005423651542514563, 0.054322194308042526, 0.05043872818350792, 0.021924199536442757, 0.06085941940546036, -0.061165712773799896, -0.008430597372353077, 0.02427605353295803, -0.052498649805784225, -0.01828499510884285, 0.06694604456424713, 0.0005305605591274798, 0.014921918511390686, 0.0521625392138958, -0.04823965206742287, 0.05086232349276543, 0.044661469757556915, 0.05091685429215431, 0.004553165752440691, 0.032669149339199066, -0.05467154085636139, 0.0011064806021749973, 0.01793641597032547, -0.009554225951433182, 0.03548761457204819, -0.005579112097620964, -0.06970224529504776, -0.055462419986724854, 0.006543389055877924, -0.010689638555049896, 0.04612697660923004, 0.06576187908649445, -0.03696815297007561, -0.03206154331564903, 0.06189500913023949, 0.028084861114621162, -0.07268688827753067, 0.021681562066078186, -0.02067628689110279, -0.010792888700962067, -0.015748953446745872, -0.019074613228440285, 0.023629775270819664, 0.028522267937660217, 0.05089692398905754, 0.05156382918357849, -0.06385059654712677, 0.0263998843729496, -0.0036180750466883183, 0.045954588800668716, 0.0513957217335701, -0.03128036484122276, -0.021160844713449478, 0.02968280389904976, 0.01871994510293007, -0.001617644215002656, 0.011087054386734962, -0.022196348756551743, -0.008194101974368095, -0.023038329556584358, 0.015578126534819603, 0.014363300055265427, -0.012623213231563568, -0.046993814408779144, 0.019084589555859566, -0.06789089739322662], [-0.0014443969121202826, -0.10381272435188293, -0.0022054240107536316, 0.12469470500946045, 0.1210390105843544, 0.06164553016424179, -0.02548322267830372, -0.004300212487578392, 0.048253364861011505, 0.06682423502206802, 0.06377629190683365, 0.07361742854118347, 0.035735223442316055, 0.07586203515529633, 0.14238891005516052, 0.0805235207080841, 0.01850837655365467, 0.02050403691828251, -0.05169830843806267, 0.045787595212459564, 0.0708252564072609, -0.016383681446313858, 0.07583672553300858, 0.07049054652452469, 0.08912890404462814, 0.11029797792434692, -0.026258056983351707, -0.030139073729515076, 0.0299637783318758, -0.027900470420718193, 0.0436776801943779, 0.09102806448936462, -0.05819131061434746, 0.045080073177814484, 0.050564996898174286, 0.08344032615423203, 0.026041721925139427, 0.015418335795402527, 0.030441833660006523, -0.04283670336008072, -0.03069872036576271, -0.022529708221554756, 0.04751596227288246, 0.05536965653300285, -0.05127107724547386, 0.049059927463531494, -0.04651499167084694, 0.010982349514961243, 0.08056393265724182, 0.07437527179718018, -0.021155625581741333, 0.009791008196771145, 0.024579759687185287, -0.006278512999415398, 0.04547717049717903, 0.07031512260437012, -0.014375176280736923, 0.03610537573695183, -0.025844229385256767, -0.0020443436224013567, -0.03657768666744232, 0.0005485656438395381, 0.08064669370651245, 0.06433241814374924, -0.0363464392721653, 0.048418670892715454, 0.02442997694015503, 0.0057228016667068005, 0.03213602304458618, 0.01762266829609871, -0.03346284478902817, 0.027359040454030037, 0.022038202732801437, -0.016319800168275833, 0.08643300831317902, 0.02112780511379242, 0.08201929181814194, 0.02571159042418003, 0.05033577233552933, 0.015644501894712448, -0.026176054030656815, -0.02835823968052864, -0.0007622559787705541, -0.0417887344956398, 0.06901296973228455, -0.010541615076363087, -0.02256336249411106, 0.024962594732642174, 0.0311522725969553, 0.02108599618077278, 0.05903463065624237, 0.01553265005350113, 0.004002360627055168, 0.03943061828613281, -0.00643699336796999, 0.07788845151662827, -0.010425286367535591, -0.04609066992998123, -0.009071359410881996, 0.03745903819799423, 0.0390901044011116, 0.07472559064626694, 0.005334231071174145, 0.016723381355404854, -0.056287337094545364, 0.06889249384403229, 0.035432543605566025, 0.0031495513394474983, 0.07717873901128769, 0.017608555033802986, -0.05217955633997917, 0.08256728947162628, 0.032188013195991516, -0.04429019242525101, 0.024476638063788414, -0.04301844537258148, 0.041678737848997116, 0.07614794373512268, 0.05815655365586281, -0.02059943974018097, -0.01555683370679617, -0.03129567205905914, -0.05006254091858864, 0.04301471635699272, -0.009675023145973682, 0.015749722719192505, 0.0004177034134045243, 0.0558956116437912, -0.02232937701046467, -0.03879158943891525, -0.007787959184497595, -0.011411445215344429, 0.028562959283590317, 0.007567753084003925, 0.05260816588997841, 0.06024501100182533, -0.034593962132930756, 0.00146480742841959, 0.013148970901966095, 0.0011422474635764956, 0.024798674508929253, -0.05122004449367523, -0.01533885020762682, 0.041753750294446945, -0.008698183111846447, -0.014100257307291031, -0.049373410642147064, 0.011670520529150963, -0.0091552147641778, 0.07874057441949844, 0.06602022051811218, 0.0028947435785084963, 0.05513955280184746, -0.03605898097157478, 0.07469261437654495, -0.000794102787040174, -0.012074579484760761, 0.047619692981243134, -0.04971013963222504, 0.038585882633924484, 0.023833375424146652, 0.021256571635603905, -0.016908107325434685, 0.0566934235394001, 0.001045161159709096, 0.06234876066446304, -0.009364495985209942, -0.04785997420549393, -0.045997701585292816, -0.00014071169425733387, 0.011469276621937752, 0.053221963346004486, 0.025386177003383636, 0.03698863834142685, 0.07263027876615524, 0.029370075091719627, -0.0017106736777350307, 0.006390891503542662, -0.00812668725848198, -0.04550332948565483, -0.010392630472779274, -0.034474506974220276, -0.004666257183998823, 0.028779271990060806, 0.043846890330314636, -0.007509294431656599, 0.07287518680095673, 0.041041817516088486, -0.05256272479891777, -0.060899969190359116, -0.02465602196753025, 0.021536804735660553, 0.050954628735780716, -0.03953953832387924, -0.019874071702361107, 0.04054215922951698, -0.04355746880173683, -0.029829084873199463, 0.032096121460199356, 0.07388400286436081, 0.03041335567831993, 0.06510710716247559, -0.021576862782239914, -0.027315307408571243, -0.034600336104631424, -0.044675543904304504, -0.056679677218198776, -0.0007682816940359771, 0.04960353672504425, 0.07364346086978912, 0.07038293778896332, -0.002517371904104948, 0.03393075615167618, 0.025038156658411026, -0.014869045466184616], [-0.002461471827700734, -0.00234679551795125, 0.01665741391479969, 0.07114065438508987, 0.009774877689778805, 0.02776784636080265, 0.009449501521885395, 0.05249635875225067, 0.03860468789935112, 0.003258901182562113, 0.09899792820215225, 0.08149457722902298, 0.0787416622042656, 0.15020926296710968, 0.11040772497653961, 0.07625236362218857, 0.023305540904402733, 0.014902215451002121, -0.03882678225636482, 0.005851102527230978, -0.030419010668992996, 0.04431956633925438, 0.024993617087602615, 0.07941538840532303, 0.015262754634022713, 0.006932026240974665, 0.08203931152820587, -0.009616565890610218, 0.06398887187242508, -0.02873888798058033, 0.060345251113176346, 0.013840633444488049, -0.0569494254887104, 0.055586982518434525, -0.01384720765054226, 0.0856827050447464, -0.019446557387709618, -0.015236176550388336, -0.03087950311601162, -0.0644187331199646, 0.030231397598981857, 0.020736422389745712, 0.061716850847005844, 0.08618006855249405, 0.06599394232034683, 0.08676324039697647, 0.07470118999481201, 0.0044748978689312935, -0.02726316824555397, -0.03358558937907219, -0.025300683453679085, 0.017479175701737404, 0.07753659784793854, 0.034974079579114914, -0.051208220422267914, 0.05663616210222244, 0.048627376556396484, 0.00862976536154747, 0.06568532437086105, -0.011018377728760242, 0.028954561799764633, 0.005901294760406017, -0.0352301225066185, 0.012685208581387997, -0.02510015107691288, -0.009464528411626816, 0.0013237993698567152, -0.020437784492969513, 0.06807585060596466, 0.018591854721307755, -0.03038042038679123, 0.08045125007629395, 0.016481349244713783, -0.01604708842933178, 0.07890235632658005, 0.026990732178092003, -0.009818662889301777, 0.023651616647839546, 0.03418188542127609, 0.033802200108766556, 0.046463318169116974, -0.03294934332370758, 0.08244827389717102, 0.046852827072143555, -0.008347705937922001, 0.03841200843453407, -0.044134803116321564, 0.005854354705661535, 0.0034868603106588125, 0.010730634443461895, 0.08709684014320374, 0.000750946463085711, -0.023928161710500717, 0.029305770993232727, -0.04505500569939613, -0.052943769842386246, -0.020379871129989624, -0.04633708298206329, 0.054270897060632706, -0.048951033502817154, 0.00424146605655551, -0.04918107017874718, 0.07083053141832352, 0.01156010851264, 0.05755847692489624, -0.051542434841394424, -0.010148322209715843, 0.07492412626743317, -0.024679893627762794, 0.05590718984603882, 0.01951063983142376, 0.0407944917678833, 0.0011708383681252599, 0.013828502036631107, -0.02900693751871586, 0.04215405508875847, 0.07661344110965729, 0.05000075325369835, 0.039945632219314575, 0.06398386508226395, 0.04570545628666878, 0.01492201630026102, -0.03206225857138634, 0.07456069439649582, 0.0018805279396474361, -0.026868319138884544, 0.03357542306184769, 0.01738428883254528, 0.02860233187675476, -0.029860222712159157, 0.013065823353827, -0.012368574738502502, -0.044228311628103256, -0.04090871289372444, -0.027777332812547684, -0.00039768332499079406, -0.014275643043220043, -0.026514753699302673, 0.004310160409659147, 0.0043068015947937965, 0.05953534319996834, 0.0027733927126973867, -0.05349845811724663, -0.03350856155157089, 0.06945695728063583, 0.07391656935214996, 0.05604267492890358, 0.03437398374080658, 0.03882325813174248, -0.03435070067644119, -0.024045387282967567, -0.04462476819753647, 0.03090212494134903, 0.01290515623986721, 0.0009262373205274343, -0.03699009492993355, -0.007658588234335184, 0.033919256180524826, -0.0014193449169397354, 0.025148779153823853, -0.011710438877344131, 0.04746623337268829, -0.02316376566886902, 0.04967501759529114, -0.017089618369936943, 0.002126589184626937, 0.016439152881503105, -0.03388600051403046, 0.023049823939800262, 0.008473750203847885, 0.04655466601252556, 0.05567315220832825, -0.005439805798232555, 0.023036440834403038, 0.004418590571731329, -0.005930986721068621, 0.03223055601119995, 0.016623958945274353, 0.027048584073781967, -0.02347881719470024, 0.02341563068330288, -0.03317592293024063, 0.011109065264463425, 0.06699062138795853, -0.0016266049351543188, 0.05708351358771324, -0.043077170848846436, 0.034741587936878204, 0.057045046240091324, 0.0573866032063961, 0.03673677146434784, -0.04903361201286316, 0.06708506494760513, -0.009287839755415916, 0.04699455201625824, 0.05481280758976936, 0.0015678285853937268, 0.02008276991546154, 0.07535691559314728, 0.016926536336541176, -0.0030670366249978542, 0.031468186527490616, -0.0437261238694191, 0.05221167206764221, -0.05688384547829628, -0.03801041096448898, -0.016829412430524826, 0.01899556815624237, -0.02118026651442051, 0.05797461420297623, -0.014147425070405006, 0.038883231580257416, 0.05969187989830971, 0.06594899296760559, -0.0035575381480157375], [-0.03433285281062126, -0.07571890205144882, 0.07828828692436218, 0.08187639713287354, 0.09673719853162766, 0.10993434488773346, 0.028542838990688324, -0.02395782433450222, -0.047638874500989914, -0.023240791633725166, 0.07441848516464233, 0.04129593446850777, 0.11390437930822372, 0.10279782861471176, 0.14718356728553772, 0.13665159046649933, 0.11782413721084595, 0.03784365579485893, -0.06856293231248856, -0.049417644739151, 0.02749941684305668, 0.07929686456918716, 0.00048521245480515063, 0.0998760387301445, 0.024723665788769722, 0.07786945253610611, 0.09122506529092789, -0.02156670019030571, 0.07079904526472092, 0.03864177316427231, 0.07171845436096191, 0.04435717687010765, -0.018795911222696304, 0.022472864016890526, 0.060495637357234955, 0.07647083699703217, 0.05830319970846176, 0.0032001198269426823, 0.07268814742565155, 0.005889748688787222, -0.04168540611863136, 0.06390772014856339, 0.038732025772333145, 0.03459413722157478, 0.059958819299936295, 0.07376889884471893, -0.016052493825554848, 0.007751454133540392, 0.07680695503950119, 0.049522142857313156, -0.021616382524371147, 0.021854044869542122, -0.05492759495973587, -0.023112723603844643, 0.048169493675231934, -0.017525922507047653, -0.02075311169028282, -0.009561168029904366, -0.0020276231225579977, -0.058223627507686615, 0.019891131669282913, 0.07626049965620041, -0.009062424302101135, -0.008354835212230682, -0.01575031876564026, 0.05646442994475365, -0.002784860786050558, 0.032384730875492096, 0.05054241046309471, -0.01924453116953373, -0.044362835586071014, -0.026619501411914825, -0.005410492420196533, 0.004334873054176569, -0.03655290603637695, -0.03212208300828934, 0.02438945695757866, -0.018536709249019623, 0.05525641143321991, 0.022192342206835747, -0.05282779410481453, 0.03323157876729965, 0.05243408679962158, 0.0834471732378006, 0.039292264729738235, -0.008071600459516048, 0.029047731310129166, 0.037984974682331085, 0.06174132972955704, -2.8735390515066683e-05, -0.015634821727871895, 0.017485979944467545, 0.0012440878199413419, -0.016751708462834358, 0.046085529029369354, 0.07694719731807709, 0.07048135250806808, -0.01882566511631012, -0.0033585093915462494, -0.04220132902264595, -0.009790278039872646, -0.048784077167510986, -0.037516944110393524, -0.037448883056640625, 0.011887059547007084, 0.04652203619480133, 0.016133705154061317, -0.007238175719976425, -0.0166630856692791, -0.004509947262704372, -0.05075361579656601, 0.02302464097738266, 0.05387379229068756, 0.023315228521823883, 0.006622208282351494, 0.022198554128408432, 0.06833092868328094, -0.02599452994763851, -0.041015081107616425, 0.09246406704187393, -0.05048150569200516, 0.011740664951503277, -0.012121441774070263, 0.01856156252324581, 0.009241389110684395, 0.025052610784769058, -0.006442811340093613, 0.003418526379391551, 0.060063064098358154, 0.04235975444316864, 0.0025118067860603333, -0.023828884586691856, 0.009751561097800732, 0.06102926656603813, -0.04750503972172737, 0.04254349321126938, 0.003110036253929138, 0.015157313086092472, -0.03252449259161949, 0.0719035267829895, -0.002970790257677436, 0.016467399895191193, -0.052481506019830704, -0.06325642764568329, 0.02016800083220005, 0.038587599992752075, 0.0044245123863220215, -0.04703173786401749, -0.028151703998446465, -0.04941410943865776, -0.042307380586862564, -0.0018082755850628018, -0.005263037979602814, 0.0697941854596138, -0.013899378478527069, 0.02225366234779358, 0.05824027210474014, 0.009776096791028976, 0.01916283555328846, 0.003311993321403861, 0.0086362948641181, -0.017613010480999947, 0.05116543546319008, 0.05807013437151909, 0.026621980592608452, 0.05637554079294205, -0.015098504722118378, -0.05650937184691429, 0.0566926933825016, 0.08047966659069061, -0.04265948385000229, 0.022776052355766296, 0.03665781021118164, -0.04461364820599556, -0.0567227341234684, -0.013395750895142555, 0.040655240416526794, -0.03741136193275452, 0.05834435299038887, -0.03522392734885216, 0.02766314335167408, 0.010215007700026035, -0.014410879462957382, 0.013685853220522404, 0.0038463803939521313, 0.05384024605154991, 0.012582048773765564, -0.02102666161954403, -0.047497693449258804, 0.04290592670440674, 0.0290895514190197, 0.06971960514783859, -0.038756027817726135, 0.028444908559322357, -0.022002387791872025, 0.048983942717313766, -0.02918252721428871, -0.011135825887322426, -0.04381868988275528, -0.037576884031295776, 0.07231269031763077, -0.026017118245363235, 0.06955912709236145, -0.010864020325243473, 0.04224739968776703, -0.009808659553527832, -0.010240121744573116, 0.047061000019311905, 0.03525887802243233, -0.018302658572793007, 0.03252905607223511, -0.02103193663060665, -0.03425011783838272, 0.05760353058576584, 0.05804996192455292], [0.04087252542376518, 0.012813062407076359, -0.028019694611430168, -0.0039212764240801334, -0.03482304513454437, -0.0021140798926353455, 0.027189385145902634, -0.04137852415442467, -0.004629537463188171, 0.03173382580280304, 0.00048634278937242925, -0.04315624386072159, 0.04844793304800987, 0.017747117206454277, 0.013626367785036564, -1.5449450074811466e-05, -0.0038852845318615437, 0.03319007158279419, 0.036203015595674515, 0.05344961956143379, -0.00818548072129488, -0.0022655948996543884, -0.01629648171365261, 0.005847708787769079, -0.02570595219731331, 0.03310920298099518, -0.022810328751802444, 0.023856889456510544, -0.024888502433896065, -0.03671645000576973, -0.024708164855837822, -0.020624712109565735, -0.02912493422627449, -0.031468819826841354, -0.02415357530117035, 0.030351119115948677, -0.011315133422613144, 0.004084059502929449, -0.06022435054183006, -0.028453372418880463, 0.010554607026278973, 0.03747253492474556, 0.04649494215846062, 0.012398757971823215, 0.060095783323049545, 0.029842687770724297, 0.0418701171875, -0.044199857860803604, -0.012963799759745598, 0.041855499148368835, 0.05636589229106903, 0.05251239985227585, 0.019697869196534157, -0.052233077585697174, -0.03608807921409607, -0.041562650352716446, 0.000272080214926973, -0.014048628509044647, -0.02880924567580223, -0.02266370877623558, 0.022837717086076736, -0.00866612233221531, 0.05679674446582794, 0.008517488837242126, 0.0048733483999967575, -0.057981666177511215, -0.04291814565658569, -0.0014259300660341978, 0.0263513270765543, -0.0397467203438282, -0.06804191321134567, -0.04160016402602196, -0.001119257416576147, 0.056566108018159866, 0.017857568338513374, -0.006728052627295256, 0.05348699167370796, 0.005608288571238518, -0.021230101585388184, 0.04997536912560463, -0.044747672975063324, 0.022392354905605316, -0.02304035611450672, -0.06521926075220108, -0.014451572671532631, 0.023161496967077255, 0.02244292013347149, -0.034173693507909775, 0.008197464048862457, -0.025723237544298172, -0.07254961878061295, -0.03155966475605965, -0.03541392832994461, 0.014615016058087349, -0.0679793655872345, -0.03525617718696594, -0.013258525170385838, -0.06485703587532043, -0.042320575565099716, 0.009719769470393658, -0.0588376447558403, -0.0010498930932953954, -0.025773392990231514, -0.06283429265022278, 0.02061399072408676, 0.019788771867752075, 0.05985047295689583, -0.04236486926674843, 0.009355602785944939, -0.06612808257341385, 0.06827504932880402, -0.04767049103975296, -0.015257283113896847, -0.008988493122160435, -0.012330501340329647, -0.04341986030340195, 0.041889701038599014, 0.04453900828957558, 0.035403456538915634, -0.026442905887961388, 0.022682497277855873, 0.05576346069574356, 0.0036468866746872663, 0.05297234281897545, -0.0105319544672966, -0.009848315268754959, -0.012720312923192978, 0.019016407430171967, -0.00776171637699008, -0.024123026058077812, -0.036713410168886185, -0.04438400641083717, 0.02592477947473526, 0.019802125170826912, 0.05034388601779938, 0.025716165080666542, -0.013361375778913498, -0.04003589227795601, 0.051091890782117844, 0.005477878265082836, -0.03838275745511055, 0.026502355933189392, -0.04979747161269188, -0.06368106603622437, 0.02618703432381153, 0.04368165507912636, -0.052101392298936844, -0.04120415449142456, 0.006245552562177181, -0.04463280737400055, -0.006269676610827446, 0.012407150119543076, -0.007696965709328651, 0.002049120841547847, 0.00902851764112711, -0.06908953189849854, 0.02749698981642723, 0.026859167963266373, 0.05203068256378174, -0.024103248491883278, 0.012292103841900826, -0.049338653683662415, -0.04415873438119888, -0.022211967036128044, -0.008106269873678684, -0.028727592900395393, 0.039091017097234726, 0.03136751800775528, 0.03821263089776039, 0.038039740175008774, -0.051696762442588806, -0.06281229853630066, -0.031690336763858795, -0.052549708634614944, 0.023517373949289322, -0.06784117221832275, -0.018036089837551117, -0.047152165323495865, -0.06855521351099014, -0.06862961500883102, -0.038608722388744354, 0.00980496034026146, -0.046685297042131424, -0.06170952320098877, -0.006095964461565018, 0.005945646669715643, -0.05248818174004555, -0.01798408105969429, -0.00818960927426815, 0.041352882981300354, 0.01766141690313816, 0.0012704237597063184, -0.0013819490559399128, 0.000884584616869688, 0.00059249356854707, 0.040040794759988785, -0.06448282301425934, -0.02170444279909134, -0.057988978922367096, -0.04466547444462776, -0.05017914995551109, -0.06423010677099228, -0.06464014202356339, 0.05943668633699417, -0.029901348054409027, -0.021466434001922607, -0.01402320433408022, 0.016312798485159874, 0.021636730059981346, -0.0031691070180386305, 0.03723181039094925, 0.05974803864955902, 0.030893998220562935, 0.04902302846312523, 0.05499269440770149], [0.0856928825378418, 0.022915050387382507, 0.021223273128271103, 0.0727185308933258, 0.06503082066774368, 0.048130180686712265, 0.05582655593752861, -0.051934558898210526, -0.057224616408348083, 0.042425982654094696, 0.06846896559000015, 0.09067955613136292, 0.13206420838832855, 0.0821063220500946, 0.0785086378455162, 0.07905449718236923, 0.10132203251123428, 0.03986077010631561, -0.004593712277710438, -0.05614175647497177, 0.04941236227750778, 0.07612033933401108, 0.04262726381421089, 0.010001313872635365, 0.1282014101743698, 0.1121983453631401, 0.008096213452517986, 0.045220814645290375, 0.07328058034181595, -0.006809706799685955, 0.022296752780675888, 0.033996473997831345, -0.04833146557211876, 0.019957829266786575, 0.06083044782280922, 0.021438349038362503, 0.03199794143438339, -0.005368637386709452, -0.0007176132057793438, -0.015362031757831573, 0.05355198681354523, 0.025947164744138718, 0.04197018966078758, 0.07989773899316788, -0.015480746515095234, 0.06454054266214371, 0.0892685204744339, 0.06616690009832382, -0.022155357524752617, 0.00996406190097332, 0.02897314727306366, -0.047668639570474625, -0.01789918914437294, -0.015715589746832848, 0.04999199137091637, 0.07495889067649841, 0.06566410511732101, -0.03262687474489212, 0.06566872447729111, -0.025393204763531685, -0.06207319349050522, 0.016849271953105927, 0.031345196068286896, -0.009353552013635635, 0.06359255313873291, -0.01800340600311756, 0.04578430950641632, -0.00141415954567492, 0.05718259885907173, -0.002154632704332471, 0.03667570650577545, 0.07540576905012131, 0.030217936262488365, -0.017233531922101974, -0.020262284204363823, -0.02140987478196621, 0.041019849479198456, 0.06986821442842484, 0.08460674434900284, -0.03906722739338875, -0.026112601161003113, 0.0336366631090641, -0.04540424048900604, 0.05319571495056152, 0.057096224278211594, 0.01364677120000124, -0.0025365573819726706, -0.030794963240623474, 0.062396664172410965, 0.011470982804894447, 0.08756593614816666, -0.04912766441702843, -0.03927513211965561, -0.010277596302330494, -0.03586341068148613, 0.01063019409775734, 0.008100016973912716, 0.07222380489110947, 0.06302399933338165, -0.03529788553714752, 0.055211812257766724, 0.061704471707344055, 0.07761503756046295, 0.06062693148851395, -0.01653970777988434, -0.011292217299342155, 0.06736381351947784, 0.035957273095846176, 0.026657260954380035, 0.0049167959950864315, 0.07020705193281174, 0.06562363356351852, -0.00012934388360008597, -0.03498857095837593, -0.004412256181240082, 0.06885611265897751, 0.060654688626527786, -0.03774257376790047, 0.008786555379629135, 0.06226056441664696, -0.04993068799376488, 0.039731696248054504, 0.023332079872488976, -0.010581905953586102, 0.07561773806810379, -0.025209056213498116, 0.05745909363031387, -0.004660839680582285, 0.03135379031300545, -0.005035834852606058, -0.010617449879646301, 0.07330942898988724, 0.055652230978012085, 0.06590032577514648, 0.049987271428108215, -0.007006513886153698, 0.040577515959739685, -0.05029512941837311, 0.013241784647107124, -0.04372420907020569, 0.04409050568938255, -0.01921572908759117, 0.053018804639577866, -0.04362249746918678, -0.02837095409631729, -0.027656009420752525, -0.05322426185011864, -9.260742081096396e-05, 0.05103860795497894, 0.037692807614803314, -0.038689304143190384, 0.06148962676525116, -0.03839835897088051, 0.04981799051165581, 0.05787546932697296, -0.009152964688837528, 0.02083454839885235, 0.04458492621779442, -0.028443286195397377, -0.00015624272054992616, -0.039847422391176224, -0.057037997990846634, 0.05530284717679024, -0.0024688143748790026, 0.0069163222797214985, -0.016664624214172363, -0.009836177341639996, -0.0004712780355475843, -0.02810005471110344, -0.015474830754101276, 0.0016350519144907594, -0.04168163612484932, -0.049747709184885025, -0.019970210269093513, 0.022300684824585915, 0.053542353212833405, 0.06637278944253922, -0.024648070335388184, 0.016733160242438316, 0.017497453838586807, 0.00854712724685669, 0.036679837852716446, 0.04169594123959541, 0.030432581901550293, 0.06904737651348114, -0.05106699839234352, 0.03233153000473976, -0.021265976130962372, -0.010105444118380547, 0.01065358892083168, -0.018581537529826164, -0.010491815395653248, -0.03173386678099632, 0.0397629514336586, 0.025917747989296913, -0.03693780675530434, -0.02985735982656479, 0.042352162301540375, 0.030738431960344315, -0.024654507637023926, 0.037047918885946274, -0.008384477347135544, -0.04815211892127991, -0.014634865336120129, 0.07081317156553268, 0.0168624147772789, -0.044574785977602005, 0.017794199287891388, 0.039642684161663055, -0.015530706383287907, -0.007413215469568968, -0.0476154200732708, 0.021530216559767723, -0.0008180062868632376, 0.03771793097257614], [0.004193442407995462, -0.04650891199707985, 0.0913020670413971, 0.10403254628181458, 0.15013591945171356, 0.10491437464952469, 0.005823677871376276, 0.07099947333335876, -0.026136528700590134, 0.0002723488141782582, 0.08970646560192108, 0.029080228880047798, 0.12712310254573822, 0.1866823434829712, 0.06689847260713577, 0.18171873688697815, 0.052367717027664185, 0.10546094179153442, 0.03561701998114586, -0.035926152020692825, -0.042068127542734146, 0.03281020373106003, 0.13378465175628662, 0.1346243917942047, 0.1438143402338028, 0.0945359468460083, 0.0017979932017624378, 0.03837234899401665, -0.006755833514034748, 0.07838954776525497, 0.08956728875637054, 0.005863069090992212, 0.00724394153803587, 0.025621868669986725, 0.12146660685539246, 0.08829046040773392, 0.05417296662926674, 0.0398508757352829, 0.07216297090053558, -0.011240294203162193, 0.044568441808223724, 0.028786975890398026, 0.08894173055887222, 0.05237819626927376, -0.03218555077910423, 0.03543277457356453, 0.05903080850839615, -0.05520356073975563, 0.05973684415221214, -0.03419657424092293, -0.02517813816666603, 0.008311728946864605, -0.014223899692296982, -0.04358785226941109, 0.01492002047598362, 0.04313073307275772, 0.029765231534838676, -0.069588303565979, -0.020690789446234703, -0.08640141785144806, -0.04496696591377258, 0.012049741111695766, 0.02939850650727749, 0.021031929180026054, 0.07121022790670395, 0.045297056436538696, -0.023696426302194595, 0.012454196810722351, 0.02038091979920864, -0.10551466792821884, -0.06353840231895447, 0.014747912995517254, 0.05205270275473595, -0.05856698751449585, 0.00023775509907864034, 0.04527397081255913, 0.04612945392727852, 0.02821311354637146, 0.008811893872916698, -0.038346339017152786, -0.01976645551621914, 0.04592905193567276, -0.04159460589289665, -0.02739606238901615, -0.07068099081516266, 0.02236480638384819, -0.03614969179034233, 0.010076557286083698, -0.026279263198375702, 0.02382650598883629, 0.019283365458250046, 0.062332771718502045, 0.055974170565605164, -0.016829950734972954, 0.012894341722130775, -0.06328863650560379, -0.0034618484787642956, -0.020831340923905373, 0.060752835124731064, -0.0033039746340364218, -0.06776313483715057, -0.03777555003762245, -0.056008510291576385, -0.029323743656277657, 0.04945340007543564, -0.0865706130862236, -0.02052800916135311, -0.019562724977731705, 0.039830032736063004, -0.0019497653702273965, 0.05393088608980179, -0.05503575876355171, -0.027741001918911934, 0.013878871686756611, 0.05173944681882858, 0.0239351075142622, -0.03310001268982887, -0.06657622009515762, -0.05094241723418236, -0.005072916392236948, 0.046810463070869446, -0.010073032230138779, 0.06976435333490372, -0.0283163134008646, 0.0018851120257750154, -0.006276911124587059, 0.05919601023197174, -0.018382171168923378, 0.032875146716833115, 0.02180890366435051, -0.07024675607681274, -0.02046065963804722, -0.01898067630827427, -0.04187837243080139, -0.02169610932469368, -0.05242361128330231, 0.036709994077682495, -0.009683489799499512, 0.01815677434206009, -0.03335919603705406, -0.048574723303318024, 0.015869203954935074, -0.010435380041599274, -0.09053155779838562, 0.043810486793518066, -0.07540179789066315, -0.07590747624635696, 0.03708552569150925, 0.07312697917222977, -0.025397280231118202, 0.006798337213695049, 0.051155947148799896, -0.02119881473481655, -0.050387509167194366, -0.039746060967445374, -0.018976453691720963, -0.05549514666199684, 0.005691830068826675, -0.005813176278024912, 0.028462275862693787, 0.055769264698028564, -0.06397166103124619, 0.010515393689274788, 0.023088615387678146, -0.04291440546512604, -0.05476197600364685, -0.004432474263012409, 0.02442699857056141, 0.03781434893608093, -0.0033621788024902344, 0.046620924025774, 0.032781410962343216, 0.024594763293862343, 0.05661673843860626, -0.04441825672984123, -0.038005318492650986, -0.006335975136607885, 0.04111211374402046, -0.026108140125870705, -0.02906370908021927, 0.02989756315946579, -0.08069617301225662, -0.016337556764483452, -0.018498113378882408, 0.030158333480358124, -0.005411818623542786, -0.011159158311784267, 0.002352573676034808, -0.06000876799225807, -0.07234089076519012, 0.036733146756887436, -0.005981579888612032, 0.0685136616230011, 0.06738719344139099, -0.035417113453149796, -0.05445834994316101, -0.014871788211166859, 0.029455650597810745, 0.005120592191815376, -0.05201815813779831, 0.035718124359846115, 0.016796790063381195, 0.030377963557839394, -0.015976682305336, 0.04869958013296127, -0.0902557224035263, -0.009552311152219772, -0.008183094672858715, -0.01617598347365856, -0.05428534373641014, -0.007173813413828611, 0.036331284791231155, 0.05399302765727043, 0.020999183878302574, 0.04539644345641136], [0.052712179720401764, 0.04325665906071663, -0.07354601472616196, 0.03167188912630081, 0.04421556740999222, -0.02814948558807373, 0.0005834973999299109, -0.02270534634590149, 0.020376237109303474, -0.0033063560258597136, -0.05553651601076126, -0.028979431837797165, 0.0009537098812870681, -0.04021747037768364, -0.06543844193220139, -0.07580135762691498, -0.11047258228063583, 0.01339009776711464, -0.034291431307792664, -0.022305667400360107, 0.0208608228713274, -0.07113640010356903, -0.05408409610390663, 0.05124618485569954, 0.04034504294395447, -0.011837734840810299, 0.03021492250263691, -0.030234191566705704, -0.04756801202893257, -0.058410413563251495, -0.0069260443560779095, 0.02836092747747898, 0.022123102098703384, 0.024649864062666893, 0.061750344932079315, 0.03680921718478203, -0.05818702653050423, 0.0448433980345726, 0.01939317211508751, 0.03069308027625084, -0.01039548683911562, -0.05570701137185097, -0.0028114269953221083, 0.016727618873119354, 0.03410755842924118, -0.03169587627053261, -0.061211004853248596, -0.0774337649345398, 0.032305821776390076, -0.0656946524977684, 0.0035008168779313564, 0.053703419864177704, 0.007099676877260208, -0.02659476362168789, -0.05947684869170189, -0.015831906348466873, 0.027518082410097122, 0.03610336035490036, -0.03314424678683281, -0.027175437659025192, 0.00660206563770771, 0.05745193734765053, -0.050429992377758026, 0.027081822976469994, -0.04356042668223381, 0.008456097915768623, -0.06558364629745483, 0.04936842620372772, -0.049255214631557465, -0.001864151330664754, -0.05201601982116699, 0.03574001416563988, 0.021083347499370575, -0.001220835605636239, -0.021418241783976555, -0.0068381112068891525, -0.04442400112748146, -0.04388963803648949, 0.007825953885912895, 0.0068586100824177265, -0.010569891892373562, 0.02579498291015625, 0.015516766346991062, -0.048508863896131516, 0.013594234362244606, -0.05335142835974693, -0.010325055569410324, 0.005453982390463352, -0.055218685418367386, -0.02771679311990738, -0.04788968339562416, 0.0182598028331995, 0.01172019075602293, -0.01931816153228283, -0.0008387151174247265, -0.07549078017473221, -0.06412776559591293, 0.04838746786117554, 0.04086995869874954, -0.04805383458733559, -0.06657291203737259, 0.030064014717936516, 0.028839655220508575, -0.06395868211984634, 0.012247652746737003, -0.04371577501296997, -0.05646895989775658, -0.0727248266339302, 0.045540351420640945, 0.04680267348885536, 0.055135007947683334, 0.026878375560045242, -0.01599438115954399, -0.02794208563864231, 0.03713924065232277, -0.07430481910705566, 0.00959368422627449, -0.001481366460211575, 0.002401363104581833, 0.026225360110402107, 0.05295804142951965, 0.006843177601695061, 0.05121132731437683, 0.02514786832034588, 0.03307957947254181, 0.050517186522483826, 0.04710107669234276, 0.04570496454834938, 0.05556514114141464, -0.013070063665509224, 0.0049396296963095665, 0.06355240195989609, 0.05475972220301628, 0.02633839100599289, -0.02084634080529213, 0.03874153643846512, -0.04615088179707527, -0.03021339885890484, -0.06378250569105148, 0.026970157399773598, 0.011972741223871708, 0.056694213300943375, 0.06267360597848892, -0.049216367304325104, 0.05624449625611305, -0.0017035406781360507, -0.000693588808644563, 0.007545613218098879, -0.056227754801511765, 0.037819184362888336, 0.024979399517178535, 0.0005163747700862586, 0.06377077847719193, 0.013948068022727966, -0.06950701773166656, 0.04023214802145958, 0.045765794813632965, -0.02862025983631611, -0.031144702807068825, 0.0030903026927262545, 0.03821217268705368, -0.04429144039750099, -0.016469541937112808, -0.036438312381505966, 0.043021585792303085, 0.006523563992232084, -0.039122361689805984, -0.03318865969777107, -0.0680057629942894, -0.051621317863464355, -0.05915488302707672, 0.014614991843700409, 0.015400517731904984, 0.008699794299900532, 0.02712789550423622, -0.06601344794034958, 0.05824526399374008, -0.022698810324072838, 0.022846996784210205, 0.027495859190821648, -0.03400476649403572, 0.026132846251130104, -0.06769352406263351, 0.021185528486967087, -0.009328939020633698, 0.009406710974872112, -0.06055725738406181, 0.02118292823433876, -0.06347733736038208, 0.016963712871074677, 0.04725651815533638, 0.027829676866531372, 0.03837497904896736, 0.0023893462494015694, 0.03431195765733719, -0.055870041251182556, 0.00432263407856226, -0.01200090441852808, 0.03863776475191116, 0.058649349957704544, 0.03747671842575073, -0.05427929759025574, -0.05787995457649231, -0.10223088413476944, -0.012753837741911411, -0.011073876172304153, -0.07254547625780106, -0.047388069331645966, -0.07367479801177979, 0.04464929178357124, 0.03682393208146095, -0.03369748219847679, -0.029047766700387, -0.030348453670740128, -0.054134298115968704], [-0.04166305437684059, -0.06958548724651337, 0.09227006137371063, 0.026611264795064926, 0.132302924990654, 0.12042845785617828, 0.06901216506958008, 0.035317301750183105, -0.039364442229270935, -0.05564943328499794, 0.031428199261426926, 0.01872972771525383, 0.06695836782455444, 0.06799487769603729, 0.1328645944595337, 0.1243010014295578, 0.1129530519247055, -0.005023990757763386, 0.039879050105810165, -0.0023051102180033922, -0.05597987025976181, -0.03814585879445076, 0.006068510469049215, 0.10460976511240005, 0.11571940779685974, 0.10101103037595749, 0.006572196260094643, 0.04195026680827141, 0.03430236876010895, 0.0745745301246643, -0.01629764400422573, 0.007112286519259214, 0.015559070743620396, -0.030490817502141, 0.06709825992584229, 0.04780358076095581, 0.052030887454748154, 0.055307064205408096, -0.00480103911831975, 0.018580351024866104, 0.010189171880483627, 0.03413674235343933, 0.06397662311792374, -0.04188588261604309, -0.05471010133624077, 0.010807784274220467, 0.000527108262758702, -0.03647448495030403, 0.02260049618780613, 0.01186769362539053, 0.081207275390625, -0.04455927386879921, 0.02479972504079342, -0.055226802825927734, -0.005982119124382734, -0.002605966292321682, 0.07415617257356644, 0.06300152838230133, 0.009734101593494415, -0.07603497803211212, 0.01677262783050537, -0.04309291020035744, -0.03053060546517372, 0.05640024319291115, 0.02044544368982315, -0.02147466130554676, -0.023679513484239578, -0.019389357417821884, 0.03743497282266617, 0.042985424399375916, 0.019338231533765793, -0.056821659207344055, 0.08760243654251099, 0.02119424380362034, -0.035524990409612656, -0.03653016686439514, -0.003174412064254284, -0.008755989372730255, -0.0279358122497797, 0.0332045778632164, 0.06436588615179062, 0.00800672173500061, -0.02897067554295063, 0.04383332282304764, -0.05803507938981056, 0.0382530614733696, -0.04459685459733009, 0.017814742401242256, 0.06919597089290619, 0.0026890209410339594, 0.05252749100327492, 0.053620345890522, -0.0484054759144783, 0.036077409982681274, 0.042439743876457214, 0.008167575113475323, 0.04184946045279503, 0.05925111845135689, -0.004586013965308666, -0.02613873779773712, 0.04463207349181175, 0.05365804210305214, 0.0383719876408577, 0.031264711171388626, -0.03974616900086403, -0.007467607967555523, -0.04091248661279678, -0.0004133756156079471, -0.017160899937152863, 0.00039783655665814877, 0.06921440362930298, 0.023791801184415817, 0.08459734916687012, -0.018856670707464218, 0.04149951785802841, 0.031206276267766953, -0.009692109189927578, 0.04303387179970741, 0.029988182708621025, -0.018129458650946617, -0.02389715053141117, -0.044063348323106766, 0.03424127399921417, 0.02636830508708954, 0.05814458429813385, 0.04777991771697998, 0.017521362751722336, -0.04512352496385574, 0.019914602860808372, 0.030967338010668755, 0.05065587908029556, 0.04884792119264603, 0.06719736754894257, -0.027680808678269386, 0.014185775071382523, 0.06343376636505127, -0.0352826826274395, 0.06393761187791824, -0.03783700615167618, 0.012892060913145542, 0.03869392350316048, -0.044380318373441696, 0.032728660851716995, -0.03302673250436783, -0.01656094193458557, -0.02110462449491024, 0.02867141179740429, 0.0378030426800251, -0.0366971381008625, -0.004663514439016581, -0.030559252947568893, 0.008481909520924091, -0.0209681186825037, -0.057713739573955536, 0.03037717193365097, -0.049043893814086914, 0.027568504214286804, 0.02857011929154396, -0.01149052381515503, 0.05422224476933479, -0.062169838696718216, -0.05283263325691223, 0.07302477955818176, 0.017014406621456146, -0.027852319180965424, 0.06808120757341385, 0.0053294384852051735, -0.029535213485360146, 0.0255119651556015, 0.03407639265060425, 0.015122073702514172, 0.06477934122085571, 0.012120083905756474, 0.01387480366975069, -0.05795377865433693, 0.07652585208415985, 0.06878488510847092, 0.005296514369547367, 0.07332563400268555, 0.05035996437072754, 0.0037426126655191183, -0.003722028573974967, -0.014859612099826336, 0.01532680168747902, -0.027242954820394516, -0.005539190489798784, -0.002460622927173972, -0.05893111974000931, -0.016766630113124847, -0.04041392728686333, -0.044263795018196106, 0.014160165563225746, 0.03653886914253235, 0.01829947717487812, -0.04545560106635094, -0.01196370180696249, -0.05714433640241623, -0.041009098291397095, 0.011632632464170456, -0.03137502819299698, 0.04925023764371872, 0.024490270763635635, -0.046715784817934036, 0.08474787324666977, 0.007905106991529465, -0.03630583733320236, 0.05808424949645996, 0.0010018961038440466, 0.014253095723688602, 0.036288972944021225, 0.051908884197473526, 0.01450560986995697, 0.05018305033445358, 0.03916124254465103, -0.044123660773038864], [0.009406808763742447, 0.001505666528828442, -0.015862315893173218, 0.08162105828523636, 0.0944427028298378, 0.09452936053276062, 0.023608379065990448, -0.02967730350792408, -0.04877912998199463, 0.010842188261449337, 0.011660818941891193, 0.08007809519767761, 0.08690263330936432, 0.0930681824684143, 0.07610800117254257, 0.0986577719449997, 0.07415423542261124, 0.05683350935578346, -0.009629128500819206, 0.05784771963953972, -0.04181823134422302, -0.0281725712120533, 0.0011612337548285723, 0.11077871173620224, 0.11423822492361069, 0.029108798131346703, 0.05576658248901367, 0.049017246812582016, 0.0891389399766922, 0.005005975719541311, 0.00875730812549591, 0.028781360015273094, 0.01971760019659996, -0.021448565647006035, 0.046522509306669235, -0.025217438116669655, -0.028792167082428932, 0.006289713550359011, -0.03830821067094803, 0.05866718664765358, 0.026111232116818428, 0.029560459777712822, 0.044506050646305084, 