{"type": "afterstate-value-mlp", "version": 1, "inputSize": 215, "layers": [{"weight": [[-0.04781303554773331, -0.18121664226055145, -0.05737757310271263, 0.035627301782369614, -0.14892087876796722, 0.04849427938461304, 0.05477343499660492, 0.039977122098207474, -0.13918070495128632, -0.025255577638745308, 0.027093106880784035, 0.021036341786384583, -0.045062217861413956, -0.05847858637571335, -0.1832665652036667, -0.2307584434747696, -0.04681158810853958, -0.02552817203104496, 0.017369071021676064, -0.24021245539188385, 0.019704829901456833, 0.011862126179039478, 0.0951617956161499, 0.11638306826353073, -0.11122899502515793, -0.13530629873275757, 0.06266158819198608, 0.017100626602768898, 0.06844031065702438, -0.18291282653808594, -0.004926253110170364, 0.14052914083003998, 0.13041627407073975, -0.04838339611887932, 0.02994496561586857, -0.09899306297302246, -0.1523093581199646, -0.053068652749061584, -0.04662477970123291, -0.11225239932537079, -0.0513928085565567, 0.033588722348213196, 0.021172156557440758, -0.008083047345280647, 0.06338338553905487, -0.07295533269643784, -0.14616362750530243, -0.11549779772758484, -0.060374706983566284, -0.15704530477523804, -0.08574480563402176, -0.017777131870388985, -0.08854683488607407, -0.010675034485757351, 0.04393946751952171, -0.024217838421463966, 0.030252275988459587, -0.03706877678632736, -0.00982608087360859, 0.0010362095199525356, -0.013170093297958374, -0.1940934956073761, -0.03738856688141823, -0.004252297803759575, 0.048694681376218796, -0.007222580723464489, -0.004108887165784836, -0.04221097379922867, -0.0047063035890460014, 0.16314391791820526, 0.14518985152244568, -0.086362324655056, 0.05228370055556297, 0.09150811284780502, 0.09047771990299225, 0.10897291451692581, -0.021132884547114372, 0.031038658693432808, 0.023662135004997253, -0.031242353841662407, -0.05783549323678017, 0.0020915234927088022, -0.041866153478622437, 0.061863988637924194, 0.010663795284926891, 0.10857708007097244, 0.134122833609581, -0.0725303366780281, -0.06872877478599548, 0.012112372554838657, -0.013201428577303886, -0.03849693015217781, -0.08975157886743546, 0.07477284222841263, -0.13074946403503418, 0.000815248757135123, 0.06989394128322601, 0.08560987561941147, -0.007505083456635475, 0.09042633324861526, 0.031770821660757065, 0.03230928257107735, -0.11422793567180634, 0.016518931835889816, -0.04063228517770767, -0.0746159553527832, 0.020100649446249008, 0.023905279114842415, 0.08262915909290314, -0.02190883457660675, 0.018437879160046577, -0.04028981178998947, -0.08057878911495209, -0.10959461331367493, -0.053392697125673294, 0.0029112985357642174, 0.07146280258893967, 0.09618238359689713, 0.07039156556129456, -0.017945095896720886, 0.011227007955312729, -0.142740398645401, -0.06945251673460007, -0.07051557302474976, 0.030731454491615295, -0.06413864344358444, -0.014761736616492271, 0.07797011733055115, -0.1515524834394455, -0.0369115024805069, 0.03194786608219147, -0.04918079078197479, 0.10226869583129883, -0.06332145631313324, 0.01196054182946682, 0.058453891426324844, -0.04655921459197998, -0.062709279358387, -0.00683428393676877, 0.10017843544483185, -0.015983037650585175, -0.00529098603874445, -0.0009403080330230296, 0.017299436032772064, -0.216705322265625, -0.02842787466943264, 0.02562768943607807, -0.010180891491472721, 0.04957718029618263, 0.01990819163620472, 0.0038775720167905092, 0.053605593740940094, 0.024690376594662666, -0.04745170474052429, -0.1951548159122467, -0.054571546614170074, 0.010918655432760715, 0.044164612889289856, 0.09617206454277039, 0.0702996701002121, -0.013529731892049313, 0.017422737553715706, 0.09432381391525269, 0.05994778126478195, 0.037177667021751404, 0.005631961394101381, -0.02918374165892601, 0.004688135348260403, -0.03893836587667465, -0.08774924278259277, -0.01832369901239872, -0.03332417085766792, 0.035383936017751694, 0.0026206341572105885, -0.0983000248670578, 0.0421772375702858, -0.01562091801315546, -0.04454889893531799, -0.05482977628707886, -0.09410499781370163, -0.022341212257742882, -0.07769118994474411, 0.05367438867688179, -0.03842996060848236, -0.01427413523197174, 0.01940874569118023, 0.06808502972126007, 0.13302147388458252, -0.04615450277924538, -0.07170478254556656, 0.06037727743387222, -0.039197180420160294, 0.0459737554192543, -0.00026336402515880764, 0.07355596870183945, -0.026966184377670288, -0.08663519471883774, -0.07274536043405533, -0.03551306575536728, 0.033942703157663345, 0.000626213732175529, 0.0543392151594162, -0.027337469160556793, 0.017823845148086548, -0.04057508707046509, 0.05849545821547508, 0.0868447795510292, -0.06201967969536781, 0.23692381381988525, -0.020512549206614494, 0.14402949810028076, -0.08215609192848206, -0.03815104439854622, 0.011504442431032658, 0.01467923540621996], [0.06582492589950562, 0.018900498747825623, 0.05811512842774391, 0.07548816502094269, -0.013261468149721622, -0.014415011741220951, -0.0036135222762823105, 0.029644882306456566, 0.0055517456494271755, 0.0384671613574028, -0.004425742197781801, 0.057448823004961014, 0.037568286061286926, 0.08404242247343063, 0.024545185267925262, 0.07627959549427032, 0.12331341952085495, 0.09634646773338318, 0.03761168196797371, 0.028875036165118217, 0.016067635267972946, 0.015100626274943352, 0.08977936208248138, 0.11727647483348846, 0.04782011732459068, 0.03163592144846916, 0.02588779665529728, 0.021021099761128426, -0.0030119353905320168, -0.03671436384320259, 0.030963566154241562, 0.06428098678588867, -0.004998053889721632, 0.0176747627556324, 0.09842299669981003, 0.025852328166365623, 0.07662738859653473, 0.05735695734620094, 0.04594815522432327, -0.02549940161406994, 0.015020648017525673, -0.0027284203097224236, 0.05304604396224022, 0.06848911941051483, 0.012343460693955421, 0.04929498955607414, 0.026166249066591263, 0.07216137647628784, -0.009376149624586105, 0.013723795302212238, 0.09356392920017242, 0.089940145611763, 0.013214470818638802, 0.03994716331362724, 0.039102744311094284, 0.046253930777311325, 0.04169081151485443, 0.0648588091135025, -0.004542493261396885, 0.021323535591363907, 0.06740192323923111, -0.0016131348675116897, 0.05224260687828064, 0.0786237046122551, -0.006087697576731443, 0.0038104900158941746, 0.022187313064932823, -0.008272210136055946, 0.05738193541765213, 0.03833400458097458, 0.059460822492837906, 0.03595559298992157, -0.019648855552077293, 0.06878466159105301, 0.004301924258470535, 0.057938408106565475, 0.09716718643903732, 0.02393927052617073, -0.04325777292251587, 0.08156151324510574, 0.06658587604761124, 0.023448778316378593, 0.013211548328399658, 0.0904833972454071, 0.018907882273197174, 0.04618800804018974, 0.017456237226724625, 0.08650625497102737, 0.022901399061083794, 0.057484645396471024, 0.0005598851712420583, 0.061301201581954956, 0.059756357222795486, 0.014318588189780712, 0.060680173337459564, -0.019087916240096092, 0.05705953389406204, 0.05194902420043945, 0.04025506600737572, 0.030728159472346306, -0.07964731007814407, 0.06562398374080658, 0.08643046021461487, 0.06452488899230957, 0.01417465042322874, 0.07260023057460785, 0.039751384407281876, 0.06095048785209656, 0.03910857066512108, 0.07441569864749908, -0.002195452805608511, 0.04026239365339279, -0.026794739067554474, 0.07371833175420761, 0.037770967930555344, 0.07975471019744873, -0.011939512565732002, -0.005078379064798355, 0.08921794593334198, -0.004733712878078222, 0.007473635952919722, -0.025676026940345764, 0.0475974902510643, 0.009361641481518745, 0.03894563391804695, 0.024722890928387642, 0.05907575041055679, 0.08296788483858109, 0.06877415627241135, 0.03129417821764946, -0.052003681659698486, 0.011250718496739864, 0.043325550854206085, -0.014753726311028004, 0.025803955271840096, 0.027016522362828255, 0.039786871522665024, 0.04468923807144165, 0.06862929463386536, 0.03016868233680725, 0.007462828885763884, 0.037912383675575256, 0.06646129488945007, 0.03493977710604668, 0.05090731382369995, 0.039800968021154404, 0.06607178598642349, 0.04984063655138016, 0.0756295695900917, 0.041450656950473785, -0.0355602391064167, -0.011010395362973213, -0.019957393407821655, 0.019258584827184677, 0.04076855629682541, -0.029234224930405617, 0.02269052527844906, -0.033883970230817795, 0.08045770972967148, 0.0348256416618824, -0.014261647127568722, -0.02312295325100422, 0.07806866616010666, -0.024559292942285538, 0.04456786811351776, 0.0675407126545906, 0.06429502367973328, 0.0322539396584034, 0.06470881402492523, 0.12227886915206909, -0.0032370572444051504, -0.026676006615161896, -0.008278395980596542, -0.014625193551182747, -0.037442952394485474, -0.016701051965355873, -0.03658495843410492, 0.005333209875971079, 0.025157375261187553, -0.03615478426218033, 0.033911120146512985, 0.06000426039099693, -0.009547627530992031, -0.034382469952106476, -0.023760614916682243, -0.01896427571773529, -0.01988438330590725, 0.08652669191360474, -0.010819850489497185, -0.027207039296627045, -0.022329941391944885, 0.09329087287187576, 0.06696909666061401, 0.07763628661632538, 0.017134401947259903, -0.023152273148298264, 0.07908597588539124, -0.03512653708457947, 0.006230131722986698, 0.018800534307956696, 0.042550064623355865, 0.030521756038069725, 0.19148878753185272, 0.04198446124792099, -0.04777590557932854, 0.05584774538874626, 0.05604908615350723, -0.11455311626195908, 0.12457340955734253, 0.005185442976653576, 0.07308073341846466, 0.04596560448408127, -0.02003319561481476, 0.15044713020324707, -0.003174874698743224], [0.07978314161300659, -0.005221934989094734, 0.06557600200176239, -0.029338307678699493, -0.019148722290992737, 0.061098624020814896, -0.00038018927443772554, -0.024336958304047585, 0.04466637223958969, -0.019297808408737183, 0.05648781731724739, 0.11421255767345428, 0.19721567630767822, 0.1165817454457283, -0.04426159709692001, -0.11992108821868896, 0.10988066345453262, 0.07032377272844315, -0.10676896572113037, -0.2192976027727127, 0.07343154400587082, 0.012215934693813324, 0.17768822610378265, 0.12487190216779709, 0.14440324902534485, 0.0610308013856411, 0.02943013235926628, -0.03839918598532677, -0.04734089598059654, -0.08410073816776276, 0.022153595462441444, 0.12746325135231018, -0.011083780787885189, 0.15538835525512695, 0.21090301871299744, 0.11629585176706314, -0.07564941793680191, -0.11647408455610275, -0.0495903305709362, 0.005434259306639433, -0.1405906081199646, -0.040364935994148254, 0.16289454698562622, 0.14005731046199799, 0.021472826600074768, -0.06718418002128601, 0.00168553926050663, -0.11126970499753952, -0.05559049919247627, 0.06546635925769806, 0.017126180231571198, -0.06721117347478867, -0.13680002093315125, -0.049689214676618576, 0.052555013447999954, 0.03850105404853821, 0.08590887486934662, -0.003504724008962512, 0.01296517439186573, -0.08005045354366302, -0.05237915739417076, -0.052989453077316284, -0.026314765214920044, -0.13948681950569153, -0.09456812590360641, 0.10763151943683624, -0.013190226629376411, -0.048255156725645065, 0.011123966425657272, -0.03158067911863327, 0.02420944534242153, -0.04876022785902023, 0.10377231240272522, -0.0010666088201105595, 0.04469091445207596, 0.06756673008203506, 0.08148596435785294, -0.06914284825325012, 0.04396798089146614, -0.03636154532432556, -0.045465946197509766, -0.030726412311196327, 0.052101533859968185, 0.0818670243024826, 0.03390822559595108, -0.023680491372942924, -0.08665573596954346, 0.07842978835105896, 0.07630138844251633, -0.025524210184812546, 0.14323019981384277, -0.08719263225793839, 0.04314717277884483, 0.05396197736263275, 0.02290884405374527, -0.040796246379613876, 0.0533343106508255, 0.0860268846154213, -0.0217451062053442, -0.0346391424536705, 0.01803879253566265, -0.11789174377918243, -0.07507205754518509, -0.004025214817374945, -0.062477726489305496, 0.004666722379624844, 0.044697798788547516, -0.038928400725126266, -0.028909292072057724, -0.03835804760456085, 0.06299658864736557, 0.006066781003028154, 0.05163324624300003, -0.05987946316599846, 0.030692217871546745, -0.0614405982196331, -0.02987390197813511, -0.03052525594830513, -0.02162604220211506, -0.0609293170273304, -0.07891519367694855, -0.044443827122449875, -0.02439514920115471, -0.060400720685720444, -0.04784645140171051, -0.04955682530999184, 0.018393121659755707, -0.014139635488390923, 0.003715683240443468, -0.07533197849988937, 0.010726691223680973, -0.05382271856069565, -0.05094820261001587, -0.02398698404431343, 0.01760558970272541, -0.019763775169849396, 0.0429411344230175, 0.007215381599962711, -0.02158653736114502, 0.030584752559661865, -0.052458517253398895, 0.05309448018670082, 0.024942610412836075, -0.061357878148555756, -0.018042493611574173, -0.003366639371961355, -0.010661953128874302, 0.01695699617266655, -0.031896136701107025, -0.009971554391086102, -0.012904713861644268, 0.0033433535136282444, -0.02321733348071575, -0.0058105578646063805, -0.0917406678199768, 0.015656212344765663, -0.06251485645771027, -0.039725176990032196, -0.08558032661676407, -0.025333940982818604, -0.006905605085194111, -0.10957828164100647, 0.003594780107960105, -0.1153796911239624, -0.0778503268957138, 0.011722358874976635, -0.04556412622332573, 0.012206539511680603, 0.002202186267822981, -0.09756745398044586, -0.08717408776283264, -0.027910307049751282, 0.008081291802227497, -0.07892270386219025, 0.08179455250501633, -0.09230214357376099, -0.009421289898455143, -0.07062436640262604, -0.08085788041353226, -0.12186574935913086, -0.02181795984506607, -0.03950851038098335, 0.010451280511915684, -0.18656906485557556, -0.05159197375178337, 0.07277262955904007, -0.07172349095344543, -0.0022412375546991825, -0.029982812702655792, -0.02561359852552414, 0.06939604133367538, 0.02188628911972046, -0.10384496301412582, -0.038153275847435, -0.023239511996507645, -0.004903142806142569, 0.0162472203373909, 0.012366634793579578, -0.06417322903871536, 0.01448096428066492, 0.2631044387817383, -0.039607878774404526, -0.15705789625644684, -0.09553883969783783, -0.19427843391895294, -0.0631103515625, 0.030911877751350403, -0.0005757932085543871, 0.06782875955104828, -0.013406690210103989, 0.006056508515030146, -0.127937451004982, -0.03782711923122406, -0.12423111498355865, -0.0708039328455925], [0.0887250080704689, -0.04704046994447708, 0.07080812752246857, -0.032334741204977036, -0.08979037404060364, -0.028201723471283913, -0.002739399205893278, -0.009209859184920788, 0.008840103633701801, 0.009916688315570354, 0.017958467826247215, -0.011708077974617481, 0.10023591667413712, -0.032585110515356064, -0.12025482207536697, -0.023445598781108856, 0.0387011282145977, -0.027745768427848816, 0.04523497447371483, -0.0296822227537632, -0.0438530296087265, 0.06362450122833252, 0.1328168660402298, 0.04874240607023239, 0.01588740199804306, 0.009782202541828156, 0.03316885605454445, 0.08783532679080963, -0.018051935359835625, 0.07108151912689209, -0.005282225087285042, 0.07498598098754883, -0.00829184427857399, -0.001822629477828741, 0.07182727754116058, 0.04144338518381119, -0.009974620305001736, -0.03240033984184265, 0.00011094882938778028, -0.018204208463430405, -0.005033302120864391, -0.010097460821270943, 0.0040785400196909904, 0.0049533117562532425, 0.0064340028911828995, 0.04919041320681572, 0.061825115233659744, 0.037573426961898804, 0.029165947809815407, 0.0375530980527401, 0.02829406037926674, 0.007746698334813118, -0.02701461687684059, 0.05169117450714111, -0.0012648351257666945, 0.05767029523849487, 0.023653997108340263, 0.05447336286306381, -0.010728900320827961, -0.0394984595477581, 0.07973282039165497, -0.008696622215211391, 0.047839995473623276, 0.0508442223072052, 0.06737256050109863, 0.008275489322841167, 0.04550982266664505, 0.030462678521871567, 0.07421410828828812, 0.07525473088026047, -0.02852778695523739, -0.023653101176023483, 0.014375604689121246, 0.014752564951777458, 0.09253427386283875, 0.08072415739297867, 0.016840171068906784, -0.017389852553606033, 0.030107906088232994, 0.0067649721167981625, -0.015115521848201752, 0.07325715571641922, -0.0189322829246521, 0.0782049298286438, 0.044517986476421356, -0.012976130470633507, 0.044991180300712585, 0.06441899389028549, 0.008104591630399227, -0.01166501920670271, -0.004578892607241869, -0.029928693547844887, -0.018848957493901253, 0.015546313486993313, 0.008954980410635471, -0.019985275343060493, 0.07005131989717484, 0.026318354532122612, -0.07438226044178009, -0.14083416759967804, 0.009489554911851883, 0.033527884632349014, -0.05306028574705124, 0.047119006514549255, 0.054308611899614334, 0.09440071880817413, 0.08623576164245605, -0.034413471817970276, 0.06690217554569244, -0.05888960883021355, 0.029300754889845848, 0.14328721165657043, 0.05600561201572418, 0.022521456703543663, 0.028715290129184723, 0.055242396891117096, 0.015927482396364212, -0.04046248644590378, -0.04396408423781395, -0.04243766888976097, -0.04396665468811989, 0.04593092203140259, -0.013744812458753586, -0.026268914341926575, 0.04398423060774803, -0.051991309970617294, -0.05546208843588829, 0.03324637934565544, 0.021454934030771255, 0.07255018502473831, 0.003939872607588768, -0.024285027757287025, 0.014395738951861858, 0.04983029142022133, -0.07757186144590378, 0.07640368491411209, -0.013757407665252686, -0.05650302395224571, 0.12689979374408722, 0.06283243745565414, -0.023887518793344498, 0.04235142469406128, 0.018649794161319733, -0.06219189986586571, -0.0216703861951828, -0.058160580694675446, 0.010842288844287395, -0.0003296382201369852, -0.08223476260900497, 0.08203747868537903, 0.011475278995931149, 0.012243615463376045, -0.08311630040407181, -0.049874115735292435, -0.015358400531113148, -0.019824547693133354, -0.052778277546167374, -0.003882851218804717, -0.07289070636034012, 0.07811401784420013, -0.034469909965991974, 0.055804457515478134, 0.058368127793073654, -0.10062453150749207, 0.047715384513139725, -0.0052177319303154945, 0.016213510185480118, -0.04657392576336861, 0.05008435249328613, 0.09296385198831558, 0.013141477480530739, -0.08600012958049774, -0.05060875043272972, -0.03711778670549393, 0.022846713662147522, 0.09588158130645752, -0.08179254829883575, -0.009375449270009995, -0.02788858488202095, 0.017248256132006645, -0.06867154687643051, -0.026895254850387573, 0.10311143845319748, 0.04330581799149513, 0.01714533567428589, -0.029548047110438347, 0.07761308550834656, 0.04044347628951073, -0.060636311769485474, -0.06279955804347992, 0.02273058332502842, 0.011583737097680569, 0.07895968109369278, -0.05498037487268448, -0.04453045129776001, -0.08231371641159058, 0.05769256502389908, -0.0390661396086216, 0.025146767497062683, -0.016429509967565536, -0.06700841337442398, 0.11469792574644089, -0.02484566904604435, 0.08425191044807434, 0.11664147675037384, 0.08270280063152313, -0.013092740438878536, -0.10267660021781921, 0.17826440930366516, 0.06989883631467819, 0.08302624523639679, 0.09845118224620819, 0.045748982578516006, 0.21540242433547974, 0.06346628069877625], [0.01606769487261772, -0.02008473128080368, 0.1875700056552887, 0.07186593860387802, 0.13608364760875702, 0.09999889880418777, -0.01048410777002573, -0.12379574030637741, -0.018769217655062675, -0.06664486229419708, 0.061954621225595474, -0.017149968072772026, 0.14240996539592743, 0.09039013832807541, 0.2123219072818756, 0.11984899640083313, -0.014243043027818203, -0.08793450891971588, -0.11083760857582092, 0.012709103524684906, 0.1487077921628952, -0.01142578199505806, 0.1955617219209671, 0.14109700918197632, -0.0052740732207894325, 0.1497538685798645, 0.07568833231925964, -0.06902705878019333, -0.09534379094839096, -0.1114683523774147, 0.06026586890220642, 0.004497140180319548, 0.057068340480327606, 0.05559740960597992, 0.17937713861465454, 0.038546476513147354, 0.05789927765727043, 0.012300537899136543, -0.012377828359603882, -0.02999468520283699, -0.11412131041288376, -0.04255705326795578, 0.002695475472137332, 0.030903929844498634, 0.016435718163847923, -0.010834629647433758, -0.021856077015399933, 0.04374447092413902, -0.0066452184692025185, -0.06274425238370895, -0.032409023493528366, -0.04685123264789581, 0.004289284814149141, 0.03020959347486496, 0.0714685246348381, -0.004452862776815891, 0.09160096198320389, 0.04792070761322975, 0.11563722044229507, 0.13227578997612, 0.025936659425497055, -0.03628060966730118, -0.06253267079591751, 0.0988616943359375, 0.11706973612308502, 0.012355070561170578, 0.0497700572013855, -0.006301080342382193, 0.07378263771533966, 0.08780769258737564, -0.06039515137672424, -0.02246777154505253, -0.04979374632239342, -0.04529646784067154, 0.07506030797958374, -0.023862596601247787, 0.0038696667179465294, 0.0032426367979496717, -0.002785015618428588, 0.06081651151180267, -0.10324934124946594, 0.033453021198511124, 0.016679726541042328, 0.0560760460793972, -0.04996098205447197, -0.03047911264002323, -0.0740056112408638, 0.012242067605257034, 0.12198462337255478, 0.06474421918392181, -0.036944203078746796, -0.0726822018623352, -0.057499200105667114, -0.1300801783800125, 0.08086000382900238, 0.09526371210813522, -0.10866285115480423, 0.006900074891746044, 0.062140367925167084, -0.002785127144306898, 0.05555899813771248, -0.03374851867556572, -0.04809423163533211, 0.0898156464099884, -0.0007132333121262491, 0.06507842242717743, -0.04269406944513321, 0.023503802716732025, 0.18510571122169495, -0.03270687907934189, -0.01325911469757557, -0.0069607216864824295, -0.12383899092674255, -0.00464066443964839, 0.06436135619878769, -0.01968405954539776, 0.18064646422863007, 0.04061904549598694, 0.05881647765636444, 0.11622922122478485, -0.0135496836155653, 0.013856916688382626, -0.044119372963905334, -0.03286373242735863, 0.0307060144841671, -0.0842682421207428, 0.04615945369005203, 0.13143199682235718, -0.02355910837650299, 0.01473320834338665, -0.06739301234483719, -0.02626170590519905, -0.03948230296373367, -0.10576411336660385, -0.025714898481965065, -0.05859966203570366, 0.05666918307542801, -0.08008529990911484, -0.004578837659209967, -0.07903095334768295, 0.060493625700473785, -0.1307390034198761, -0.07452043890953064, -0.005985652562230825, 0.034050971269607544, -0.031642377376556396, -0.05071994662284851, -0.15027761459350586, -0.0696517676115036, -0.02540779858827591, -0.009476788341999054, -0.08942113816738129, -0.025766616687178612, -0.022250648587942123, -0.14264412224292755, -0.0022541352082043886, 0.01589065231382847, -0.04001905024051666, -0.02092888019979, 0.0057931807823479176, -0.08759154379367828, 0.04056417569518089, 0.01205697376281023, 0.05534753203392029, 0.03136485815048218, -0.07321962714195251, -0.0725773274898529, 0.022930653765797615, -0.008157726377248764, -0.038083769381046295, 0.026364199817180634, 0.02865087240934372, 0.035913120955228806, 0.07025142014026642, -0.05972502753138542, -0.13610945641994476, -0.013119838200509548, -0.039112553000450134, -0.02858716808259487, -0.00040032019023783505, 0.004288678523153067, 0.07648632675409317, -0.06952811032533646, -0.0984606072306633, 0.09231293201446533, 0.005291852168738842, -0.06420892477035522, -0.0025069103576242924, -0.02521999180316925, -0.07953139394521713, -0.1543634533882141, -0.061106517910957336, 0.0288894921541214, 0.0017513027414679527, 0.09078750014305115, 0.0076416488736867905, 0.03165115788578987, 0.058310750871896744, -0.004488444421440363, -0.010101411491632462, -0.03608667850494385, 0.018719129264354706, -0.0358460359275341, 0.004194215405732393, 0.08675374835729599, 0.024823877960443497, -0.05901014432311058, 0.0600866973400116, 0.02862786501646042, 0.0650533065199852, 0.04223781079053879, 0.06237370893359184, -0.008503224700689316, 0.023829158395528793, 0.06155412644147873], [0.09324495494365692, -0.03344883397221565, 0.06361333280801773, 0.03210340440273285, -0.08134588599205017, -0.07043039798736572, 0.047547828406095505, 0.08640307188034058, -0.014535000547766685, -0.03404010087251663, -0.0238649845123291, 0.005175683181732893, 0.053080108016729355, -0.11689968407154083, -0.07495415955781937, -0.04833284765481949, -0.0004190685576759279, 0.06211701035499573, -0.047450024634599686, 0.058013103902339935, -0.022127266973257065, -0.032586418092250824, 0.05265600606799126, 0.041684869676828384, -0.01840932108461857, -0.04342247545719147, 0.07864212989807129, 0.010738924145698547, 0.106168732047081, 0.002354028169065714, 0.03503310680389404, -0.006945253815501928, -0.03892143815755844, -0.07193644344806671, 0.023627959191799164, -0.007001639809459448, -0.09448910504579544, -0.024976244196295738, -0.03231131657958031, 0.011340011842548847, 0.041020628064870834, -0.06212456151843071, -0.009161755442619324, -0.02282148413360119, -0.024452324956655502, -0.02014814503490925, 0.0068604229018092155, 0.03660716116428375, -0.024642299860715866, -0.020715881139039993, 0.07856816053390503, -0.03645152226090431, -0.020995082333683968, -0.04532315954566002, -0.08858607709407806, -0.062304675579071045, -0.010874532163143158, -0.00475773261860013, 0.058825381100177765, -0.02450721338391304, 0.018753234297037125, 0.027817968279123306, 0.014019072987139225, -0.03343558311462402, -0.0075923060066998005, -0.009198548272252083, -0.034143246710300446, 0.015096872113645077, -0.050658028572797775, 0.004635727033019066, 0.05201828479766846, -0.019509535282850266, 0.04094065725803375, 0.02075589820742607, -0.062375959008932114, -0.011934812180697918, 0.005801387131214142, 0.0434868223965168, 0.051413752138614655, -0.04489660635590553, -0.009623464196920395, -0.06846464425325394, 0.03286292031407356, 0.04089977964758873, 0.022028006613254547, -0.012700347229838371, 0.008729513734579086, 0.035501766949892044, -0.02009253390133381, -0.0032789630349725485, -0.020802466198801994, 0.04961194470524788, 0.04251401871442795, -0.029572179540991783, -0.020887253805994987, 0.06544433534145355, 0.052726130932569504, -0.002210638951510191, -0.05685297027230263, 0.004436425399035215, -0.0498523935675621, 0.06394831091165543, -0.05293016880750656, -0.0014058841625228524, 0.023981649428606033, -0.06656653434038162, 0.0018829446053132415, -0.00019688323664013296, 0.05843617394566536, -0.027462197467684746, -0.051590994000434875, 0.09754115343093872, 0.012745716609060764, -0.031256698071956635, -0.0037215272895991802, 0.07434485852718353, -0.033703941851854324, -0.011262721382081509, -0.03528701141476631, 0.045925918966531754, -0.003188949776813388, 0.03591165691614151, 0.03162211552262306, -0.005288054700940847, 0.023030254989862442, 0.021140780299901962, -0.025302158668637276, 0.07968120276927948, 0.003792084287852049, -0.014210311695933342, -0.0673234611749649, 0.040374379605054855, 0.07088146358728409, 0.03580423444509506, 0.027808114886283875, -0.027952494099736214, 0.09802742302417755, 0.051027148962020874, -0.03387021645903587, 0.011532162316143513, 0.05581182986497879, -0.0077526322565972805, 0.027782995253801346, 0.038647040724754333, 0.02381342463195324, -0.012947955168783665, 0.05507133901119232, 0.08077210932970047, 0.0007530951406806707, 0.011924481019377708, 0.002224795753136277, 0.021659284830093384, -0.010571129620075226, 0.08823544532060623, 0.04864013195037842, 0.06150659918785095, 0.040090303868055344, 0.1033761277794838, 0.06837582588195801, -0.015975894406437874, -0.010319303721189499, 0.011697452515363693, -0.03795715421438217, 0.02696303091943264, 0.0837308019399643, 0.09028279036283493, 0.002544722054153681, 0.027077777311205864, -0.008889337070286274, 0.05173835903406143, -0.05578235909342766, -0.02928301878273487, 0.003792484989389777, -0.03539813309907913, 0.011590526439249516, 0.06952079385519028, 0.07088445127010345, 0.014659957960247993, 0.009095413610339165, -0.05741351097822189, 0.0031394679099321365, 0.083659827709198, 0.038000382483005524, 0.021090764552354813, 0.08466081321239471, 0.07103762775659561, 0.04074804112315178, 0.048826914280653, 0.06309907883405685, 0.021249819546937943, 0.029225993901491165, 0.038401782512664795, 0.04119998961687088, -0.009721696376800537, 0.0033301354851573706, -0.00558097381144762, -0.008507998660206795, -0.042139288038015366, -0.0185546837747097, -0.039028141647577286, 0.08301082998514175, 0.0231279619038105, 0.04445904865860939, 0.12553660571575165, 0.038392070680856705, 0.09279796481132507, 0.04690706357359886, -0.11752641946077347, 0.21855270862579346, 0.05348912626504898, 0.15589289367198944, 0.144235759973526, 0.06437832862138748, 0.21877187490463257, -0.004006553906947374], [-0.02389608882367611, -0.19883383810520172, -0.08282730728387833, -0.12381613999605179, 0.004089950583875179, 0.02617245353758335, -0.088973268866539, -0.06567317992448807, -0.011775211431086063, -0.024811813607811928, -0.03118334710597992, -0.05371104180812836, -0.197098046541214, -0.2245718389749527, -0.18131734430789948, -0.08586695045232773, -0.08485739678144455, -0.04814192280173302, -0.0988679751753807, -0.024588018655776978, -0.020316455513238907, -0.042234912514686584, -0.19273805618286133, -0.17953599989414215, -0.17962892353534698, 0.028925158083438873, -0.18032264709472656, -0.021976104006171227, -0.021921100094914436, 0.018517136573791504, 0.09522996842861176, 0.08944454789161682, 0.014027466997504234, -0.004290292505174875, -0.11140056699514389, 0.020506644621491432, -0.07286965847015381, -0.1064940020442009, 0.05421518534421921, -0.007968459278345108, -0.008471166715025902, 0.08093450963497162, 0.08440863341093063, 0.0635475292801857, 0.03532114624977112, -0.08505462110042572, -0.05250820890069008, -0.20581215620040894, -0.06375014781951904, -0.03250835835933685, 0.10733255743980408, 0.07074931263923645, 0.025965766981244087, -0.09602636098861694, 0.024942148476839066, 0.057764194905757904, -0.03940906375646591, 0.01206035166978836, -0.00793852936476469, 0.09155404567718506, -0.005126561503857374, -0.03047470934689045, -0.011763770133256912, -0.03136046975851059, 0.06792663782835007, 0.05021839588880539, -0.06960754096508026, -0.03443591296672821, -0.08396598696708679, -0.018339194357395172, -0.08606341481208801, -0.015573996119201183, 0.07044940441846848, -0.0199503805488348, -0.048396915197372437, 0.018587831407785416, 0.008148256689310074, -0.007358247879892588, 0.09133737534284592, -0.014622495509684086, -0.06249326840043068, 0.032142411917448044, -0.09558970481157303, 0.08278027921915054, 0.06957916170358658, 0.010983454994857311, -0.015828007832169533, -0.07156945019960403, 0.05540328845381737, 0.1280623823404312, -0.13087774813175201, -0.07690022140741348, -0.08232618868350983, -0.05110500752925873, 0.020839592441916466, -0.03866998106241226, 0.0944337472319603, 0.07372694462537766, 0.09745775908231735, -0.07913447916507721, -0.007191707380115986, -0.0889083743095398, -0.007909673266112804, -0.02475772425532341, 0.0667179524898529, -0.02285081520676613, 0.13171017169952393, -0.012889607809484005, 0.04312393069267273, -0.015639036893844604, -0.04014693945646286, -0.13161776959896088, -0.059611860662698746, -0.08340612053871155, 0.09012003988027573, -0.06558673083782196, -0.03357579559087753, 0.11339732259511948, 0.07839685678482056, -0.03431544452905655, -0.16791725158691406, -0.08891413360834122, -0.127772256731987, 0.01727570779621601, -0.06418166309595108, -0.04167408496141434, 0.039164334535598755, 0.03556152805685997, 0.020410068333148956, 0.05808108299970627, -0.12610983848571777, -0.07177991420030594, -0.13848863542079926, 0.01771622523665428, -0.04905163496732712, 0.09679973125457764, 0.0329805351793766, -0.023025687783956528, 0.05599723756313324, -0.007862360216677189, 0.07865298539400101, -0.03616895154118538, 0.02339315414428711, -0.028503943234682083, -0.05641414597630501, 0.061615657061338425, -0.008392879739403725, 0.026339860633015633, 0.017162049189209938, 0.044370345771312714, 0.03401538357138634, -0.014629287645220757, 0.02130104787647724, -0.0027756227646023035, 0.09936701506376266, 0.03517085686326027, 0.02934698760509491, 0.12032914161682129, 0.013046770356595516, -0.0007816327270120382, -0.015443498268723488, -0.10654352605342865, 0.015966495499014854, 0.0017223777249455452, 0.0119797233492136, -0.005202578846365213, -0.00988430343568325, -0.03001089207828045, -0.0025617119390517473, -0.0375165119767189, -0.08258317410945892, -0.20453184843063354, -0.02806861884891987, -0.024638520553708076, 0.020967649295926094, 0.015192298218607903, 0.01013502199202776, 0.007929213345050812, 0.021405812352895737, 0.0780114158987999, -0.016697820276021957, -0.02832212671637535, -0.05505445599555969, 0.0030423339921981096, 0.054061148315668106, 0.10475162416696548, 0.11225567013025284, 0.028316106647253036, 0.021875550970435143, -0.023058034479618073, 0.03558730334043503, -0.044564273208379745, -0.06618068367242813, 0.043952424079179764, -0.02176831103861332, 0.022875206544995308, -0.0009520131861791015, -0.06822755932807922, -0.04634835943579674, -0.009471292607486248, 0.013461277820169926, -0.012663879431784153, 0.023303022608160973, -0.004514514468610287, -0.020067015662789345, -0.05360392853617668, 0.016274267807602882, 0.21073301136493683, -0.28023114800453186, -0.017736731097102165, -0.07070348411798477, -0.14128170907497406, -0.037160806357860565, -0.2851104140281677, -0.03742518275976181], [0.1305915266275406, 0.044090140610933304, 0.052572596818208694, 0.03998827934265137, -0.008125361986458302, -0.007653301116079092, 0.057761337608098984, 0.061600685119628906, 0.010250043123960495, -0.057147130370140076, 0.006790433544665575, -0.016276247799396515, 0.0646233856678009, 0.013032343238592148, 0.07210157066583633, 0.017162062227725983, 0.06469089537858963, 0.018307680264115334, -0.03941549360752106, -0.04902288690209389, 0.017254306003451347, -0.044323474168777466, 0.14914682507514954, 0.14201302826404572, 0.08427003771066666, 0.11790107935667038, 0.11027111113071442, 0.061510100960731506, 0.03951090946793556, -0.10023471713066101, 0.08376533538103104, 0.07814124971628189, 0.0893467590212822, 0.03656535595655441, 0.028111666440963745, 0.07581444829702377, 0.08511751145124435, 0.08053451031446457, 0.037133943289518356, 0.028488989919424057, 0.07689499109983444, 0.04017757251858711, 0.013697330839931965, -0.015793554484844208, 0.07842124253511429, 0.07874257862567902, 0.05692293867468834, 0.020553002133965492, -0.046413470059633255, -0.04264785721898079, -0.011204719543457031, 0.06132543832063675, 0.07719576358795166, 0.057634416967630386, 0.0946694016456604, 0.04481751099228859, 0.15153633058071136, 0.10433107614517212, 0.057801246643066406, -0.08011654764413834, -0.012345518916845322, 0.06615816801786423, 0.0020112807396799326, 0.09960629045963287, 0.07062172144651413, 0.11694846302270889, 0.10342788696289062, 0.04864726588129997, 0.05253196507692337, -0.04036447033286095, -0.023888196796178818, 0.09325981885194778, 0.023224951699376106, 0.02946198172867298, 0.108917236328125, 0.11501862108707428, 0.06514865159988403, 0.08863608539104462, 0.018795257434248924, -0.026090268045663834, -0.020388541743159294, 0.0008884030394256115, 0.02422468736767769, 0.08064329624176025, 0.05551694333553314, 0.13445702195167542, 0.11910317093133926, 0.09824725985527039, -0.0048886858858168125, -0.04424215108156204, 0.04051610454916954, -0.059804465621709824, 0.058068323880434036, -0.011128848418593407, 0.05333436280488968, 0.11356741189956665, 0.09730669111013412, 0.0233989879488945, 0.08466821163892746, 0.014959575608372688, 0.037742096930742264, 0.06386972218751907, 0.017637843266129494, 0.029230419546365738, 0.05888960510492325, 0.09901459515094757, 0.019842926412820816, 0.05135895311832428, 0.060233816504478455, 0.06280504167079926, -0.07998056709766388, -0.12247353792190552, -0.020409781485795975, 0.12821002304553986, -0.006720897741615772, 0.024007556959986687, 0.047670651227235794, -0.007693148218095303, 0.015041678212583065, 0.037851814180612564, 0.014035362750291824, 0.06395226716995239, -0.08121240139007568, 0.029183218255639076, 0.08513438701629639, -0.07533677667379379, -0.05053676664829254, 0.05052831396460533, -0.09985538572072983, -0.060476191341876984, 0.09392070025205612, 0.03708520904183388, 0.016910362988710403, 0.07913519442081451, -0.09614825993776321, -0.049939971417188644, -0.026329150423407555, -0.12305982410907745, 0.02238190546631813, 0.09057751297950745, -0.048984114080667496, 0.043889544904232025, -0.0863042026758194, -0.03620735928416252, -0.033359456807374954, 0.10269297659397125, -0.05367424339056015, 0.000188416859600693, 0.11440732330083847, 0.020188940688967705, 0.06503426283597946, 0.03750450164079666, -0.08308189362287521, 0.04202650859951973, 0.0922468975186348, -0.10684756189584732, 0.02034640498459339, 0.09405152499675751, 0.013078740797936916, -0.050779614597558975, 0.10748239606618881, -0.06003529578447342, -0.13057492673397064, 0.00591211998835206, 0.055160462856292725, -0.05236039683222771, 0.10709884017705917, 0.03222564607858658, -0.20186974108219147, -0.02533164620399475, -0.04563801363110542, 0.05169897899031639, 0.021028632298111916, -0.051494378596544266, -0.09972648322582245, -0.018710173666477203, -0.0715077668428421, 0.06694816797971725, 0.01962534710764885, -0.00016058101027738303, 0.046831585466861725, -0.07307972759008408, 0.029569635167717934, 0.03807665407657623, -0.0678434744477272, 0.025076866149902344, -0.06328213214874268, 0.022327803075313568, -0.10483360290527344, 0.11242885887622833, -0.10583481937646866, 0.019167231395840645, 0.019598331302404404, 0.04046139121055603, 0.04524769261479378, -0.007750087417662144, -0.004911506548523903, 0.031153198331594467, -0.0699327141046524, 0.04014681279659271, 0.06436559557914734, -0.01344289444386959, 0.019584404304623604, -0.02033924125134945, -0.02120938152074814, -0.03015546128153801, 0.08132366836071014, -0.1086893230676651, 0.2676942050457001, -0.0023238719440996647, 0.09022995084524155, -0.024869685992598534, -0.041894059628248215, 0.18747837841510773, 0.06265129894018173], [-0.012785159051418304, 0.0661245808005333, 0.09168636053800583, -0.009120730683207512, 0.06857158243656158, -0.020086685195565224, 0.07354613393545151, -0.10799767076969147, -0.041495539247989655, -0.09207149595022202, 0.07194948941469193, 0.04695942625403404, 0.14243631064891815, 0.07563114911317825, 0.11828944832086563, 0.10624805837869644, 0.14789395034313202, 0.06524002552032471, 0.014402939938008785, -0.08546239882707596, -0.03957992419600487, 0.03045596554875374, 0.12691296637058258, 0.10427984595298767, 0.12574192881584167, 0.020437652245163918, 0.07211823016405106, 0.04295562207698822, -0.018642954528331757, 0.01450743805617094, 0.10412860661745071, -0.042051102966070175, 0.0055434610694646835, 0.0006268641445785761, 0.10421635955572128, 0.05060413107275963, -0.08502143621444702, -0.06569479405879974, -0.020022474229335785, -0.0731174647808075, 0.021098122000694275, -0.0838313177227974, -0.09695230424404144, -0.04395877942442894, 0.032831933349370956, 0.030334753915667534, -0.041755449026823044, -0.10379964858293533, 0.0960516631603241, -0.10485285520553589, -0.04940519109368324, -0.08996376395225525, -0.034674420952796936, -0.03320509195327759, -0.06625613570213318, 0.013672922737896442, -0.04338851198554039, -0.012134077027440071, 0.06981606036424637, -0.0818728506565094, 0.00031487864907830954, -0.0023395433090627193, 0.0029227740596979856, -0.05133123695850372, -0.006040191277861595, 0.00781591422855854, -0.07594270259141922, -0.09671099483966827, 0.07433221489191055, -0.04528868943452835, -0.06249833479523659, -0.12202361226081848, 0.07132726162672043, 0.006156679708510637, 0.02741040475666523, -0.029366467148065567, 0.001633422914892435, 0.008014974184334278, -0.006605534814298153, -0.07369930297136307, -0.003098374232649803, 0.04155638441443443, -0.08344690501689911, -0.004309781827032566, -0.07051333785057068, -0.0463433563709259, -0.053817786276340485, -0.006136325653642416, -0.005901590920984745, -0.047412268817424774, -0.057300638407468796, -0.03230610117316246, -0.010459929704666138, -0.0487760454416275, 0.047120556235313416, -0.00738521246239543, -0.1109447032213211, 0.023448538035154343, -0.09827513247728348, -0.03109833411872387, 0.10909105837345123, 0.05349651724100113, -0.03351737558841705, 0.01652703806757927, 0.14774267375469208, -0.013349559158086777, 0.03553558140993118, -0.07011339068412781, 0.019320717081427574, 0.09053048491477966, 0.010724665597081184, 0.023909876123070717, 0.11486946046352386, 0.08662480115890503, 0.08780006319284439, -0.019575241953134537, 0.023130949586629868, -0.05732571333646774, 0.04727243259549141, -0.07391514629125595, -0.04591699689626694, -0.073716901242733, 0.021900543943047523, 0.034784913063049316, -0.05918697640299797, -0.07071712613105774, -0.044983990490436554, -0.047340646386146545, -0.032593581825494766, 0.0890783742070198, -0.02213086001574993, -0.05786630138754845, -0.07240106165409088, -0.05250367522239685, 0.0008342492510564625, -0.04025832936167717, -0.02513829804956913, -0.07932411879301071, -0.057358719408512115, -0.03293940797448158, -0.07041662931442261, 0.08664663881063461, -0.022232288494706154, -0.12144307047128677, 0.04313289374113083, 0.018240416422486305, -0.041311122477054596, -0.023893633857369423, -0.03416562080383301, 0.04156927019357681, 0.12984071671962738, -0.0485956147313118, -0.00711145019158721, 0.014744202606379986, 0.03601823002099991, -0.01643376238644123, 0.0657079666852951, 0.02814457379281521, -0.10155223309993744, 0.09029495716094971, -0.0541817806661129, -0.00037519537727348506, -0.00861256755888462, 0.041365846991539, 0.08905597776174545, -0.15782566368579865, -0.08626719564199448, 0.005257815588265657, -0.14097292721271515, 0.012206600047647953, -0.14349567890167236, -0.010286622680723667, 0.07119639962911606, -0.02753220498561859, 0.06895942986011505, -0.13165712356567383, 0.06825732439756393, 0.01409077737480402, 0.10326879471540451, -0.0019657649099826813, 0.1470719277858734, -0.0013083075173199177, 0.014222733676433563, -0.16244849562644958, 0.017606209963560104, -0.011220946907997131, -0.1319345086812973, 0.1007254421710968, 0.06903748214244843, -0.023753462359309196, 0.03721229359507561, -0.06780239194631577, 0.10108920931816101, 0.012866399250924587, 0.031743403524160385, -0.014676742255687714, 0.10523191839456558, 0.0469852089881897, -0.022185416892170906, -0.058272555470466614, 0.018799541518092155, -0.02343624085187912, -0.00806333776563406, 0.014612850733101368, 0.0010486328974366188, 0.022781074047088623, 0.012267925776541233, 0.03088519535958767, 0.05348982289433479, -0.049757879227399826, 0.008868306875228882, 0.03849157691001892, -0.015059316530823708, 0.057684119790792465, -0.061716288328170776], [0.06598597764968872, 0.050794150680303574, 0.020898783579468727, -0.07201918959617615, 0.060757268220186234, -0.027560550719499588, -0.008555312640964985, 0.03346985578536987, -0.022228315472602844, 0.05322280898690224, 0.05418221279978752, -0.002182006137445569, 0.06877332925796509, -0.025880996137857437, 0.038309916853904724, 0.05463780462741852, 0.02751513198018074, 0.07246692478656769, 0.07057742774486542, 0.13225716352462769, -0.020432552322745323, -0.008288080804049969, 0.1152997761964798, -0.0022910928819328547, 0.00827136542648077, -0.007516010198742151, 0.09780605137348175, 0.05605241656303406, 0.046687524765729904, 0.08796403557062149, 0.04909985512495041, 0.0180242620408535, -0.004769685212522745, 0.0021580455359071493, -0.029731832444667816, -0.04492975026369095, -0.03302939981222153, 0.06452067196369171, -0.048675231635570526, 0.03000667504966259, 0.003346705576404929, 0.053322091698646545, -0.045213326811790466, 0.0024520913138985634, -0.021432699635624886, 0.01869818940758705, 0.004750012885779142, 0.007077138405293226, -0.03452364355325699, 0.0548710934817791, -0.04055425524711609, 0.019445566460490227, 0.04385486617684364, -0.02342405542731285, -0.07836157828569412, 0.00280211353674531, -0.023364536464214325, -0.04116837680339813, 0.02430569753050804, 0.04134753346443176, 0.001393354032188654, 0.02085285633802414, 0.02224285528063774, -0.015347068198025227, 0.011441361159086227, -0.03537270799279213, 0.04958117753267288, -0.01708531379699707, 0.041474245488643646, 0.01407083310186863, -0.015781881287693977, -0.006681257393211126, 0.04716432839632034, 0.016595112159848213, -0.0636635422706604, -0.04844551533460617, 0.04855199530720711, -0.04793451726436615, -0.003912494983524084, -0.03172943741083145, -0.036270249634981155, 0.02625112421810627, -0.008764342404901981, 0.019040698185563087, 0.03522760048508644, -0.007985306903719902, 0.009425953030586243, -0.034955330193042755, -0.023029053583741188, 0.01565387472510338, 0.0011067033046856523, 0.002275938168168068, -0.015419459901750088, 0.016472047194838524, 0.014270700514316559, -0.012237336486577988, 0.01932343654334545, -0.04082389920949936, 0.02761453203856945, -0.02991972677409649, -0.03885284811258316, 0.028124075382947922, -0.004981643054634333, 0.04043268412351608, 0.03733525425195694, 0.053906239569187164, 0.03564798831939697, -0.041598785668611526, 0.05355922505259514, -0.015826933085918427, -0.01974312961101532, 0.05340426787734032, 0.04955995827913284, -0.0613895058631897, 0.03615928441286087, 0.05667363479733467, 0.009228196926414967, -0.02513877861201763, -0.003811861854046583, 0.0064790332689881325, -0.022664815187454224, 0.06654728949069977, -0.014804967679083347, 0.04477196931838989, 0.004014747682958841, 0.04595743492245674, -0.004731753841042519, 0.0564679354429245, -0.010210465639829636, -0.05316711589694023, -0.009547676891088486, 0.06575511395931244, -0.007128291297703981, 0.05885220319032669, 0.04754117503762245, -0.04391803964972496, -0.008871622383594513, 0.07744304835796356, -0.025777025148272514, -0.03501223027706146, -0.010283583775162697, 0.08460605144500732, 0.049941033124923706, -0.02887277491390705, 0.00034646879066713154, 0.06586866825819016, 0.022682001814246178, 0.0971035435795784, 0.06881597638130188, 0.03461159020662308, 0.076106496155262, -0.038225989788770676, 0.03345086798071861, 0.01288155373185873, 0.024110760539770126, 0.07206353545188904, 0.07418593019247055, 0.04734594374895096, 0.020461520180106163, 0.022292034700512886, -0.01704341359436512, -0.034517280757427216, -0.019163591787219048, -0.005677441135048866, 0.00725514767691493, -0.03516793251037598, 0.012242208234965801, 0.08228982985019684, 0.02949455752968788, 0.07693982124328613, -0.022523492574691772, -0.00822239276021719, 0.0058029633946716785, 0.05196038633584976, -0.027484772726893425, -0.004439762327820063, -0.020323364064097404, 0.07098338752985, 0.05353355035185814, 0.013148939236998558, -0.05284827947616577, 0.03603266924619675, 0.032159458845853806, 0.026767266914248466, -0.03574559837579727, 0.036934394389390945, 0.020323697477579117, 0.014608267694711685, -0.007605942897498608, -0.019956709817051888, 0.0629672184586525, 0.02018389105796814, -0.009157550521194935, -0.013559110462665558, 0.015050564892590046, 0.07387550175189972, 0.03568711504340172, -0.037119343876838684, 0.041077908128499985, 0.04415321722626686, -0.0015782203990966082, 0.03934655338525772, -0.007321365177631378, 0.12220919132232666, 0.16147075593471527, 0.03771794214844704, 0.138083353638649, -0.1154547706246376, 0.3030710518360138, 0.1140274852514267, 0.13535766303539276, 0.14888261258602142, 0.026502808555960655, 0.32293063402175903, 0.07267091423273087], [0.14255571365356445, 0.05620329827070236, 0.053554877638816833, 0.1333748996257782, 0.14075320959091187, -0.20102174580097198, -0.005191757343709469, -0.047771964222192764, -0.03981081396341324, -0.056770581752061844, 0.16344614326953888, 0.045144371688365936, 0.007702456787228584, -0.207331582903862, 0.02629144862294197, 0.017816554754972458, -0.19638541340827942, -0.158887580037117, 0.002445672173053026, -0.08962466567754745, 0.11700819432735443, 0.04187585040926933, 0.039111848920583725, 0.14229457080364227, 0.18128064274787903, 0.02983386628329754, 0.05386117100715637, 0.030892502516508102, 0.01388460397720337, -0.0509919710457325, 0.04683763533830643, 0.07735717296600342, 0.08935638517141342, -0.0012854778906330466, 0.06012900546193123, 0.12953096628189087, -0.14656737446784973, -0.10322504490613937, -0.064372718334198, -0.20195387303829193, 0.06390506029129028, -0.07748740911483765, 0.012073078192770481, -0.0021525942720472813, 0.015206259675323963, 0.2667953670024872, 0.07770909368991852, -0.028892915695905685, 0.07156478613615036, 0.017576375976204872, 0.03000141866505146, 0.05551643297076225, -0.03750189021229744, 0.03630051761865616, -0.005651982966810465, 0.03173346444964409, -0.02282446250319481, 0.07690635323524475, 0.06956897675991058, 0.08195092529058456, 0.19638805091381073, 0.11233263462781906, 0.06510970741510391, 0.10985330492258072, -0.11886449158191681, 0.07954705506563187, 0.06626347452402115, 0.06774898618459702, -0.07339556515216827, -0.04311412572860718, 0.04208153858780861, 0.019950352609157562, -0.07784445583820343, 0.09181461483240128, 0.02154664881527424, -0.017779985442757607, 0.08945910632610321, 0.0646127313375473, 0.12028003484010696, -0.05436774343252182, 0.0561109222471714, 0.02078959159553051, -0.05136400833725929, -0.01313114445656538, -0.053790222853422165, 0.051150184124708176, -0.1095031350851059, -0.09617771208286285, -0.006220086943358183, 0.03071717359125614, -0.08167274296283722, 0.01909870095551014, -0.005658553447574377, -0.0391019806265831, -0.04515570402145386, -0.03536515682935715, -0.0444762147963047, -0.04404406622052193, 0.053598493337631226, -0.06248590350151062, -0.0004337699501775205, 0.03208974748849869, 0.02513688988983631, -0.036246154457330704, -0.08411723375320435, -0.06575711071491241, -0.06306152790784836, -0.0584840252995491, -0.05638670548796654, -0.08837346732616425, 0.04024447128176689, -0.06155478209257126, -0.12007612735033035, 0.01859874650835991, -0.06455311179161072, -0.06591489911079407, -0.0030439705587923527, 0.05781988054513931, 0.17911560833454132, 0.0819292664527893, 0.09632674604654312, 0.03239227086305618, -0.13247807323932648, 0.007177690975368023, -0.06196973845362663, -0.020818622782826424, 0.019420091062784195, 0.02604108490049839, 0.13296981155872345, 0.07815728336572647, -0.012360264547169209, -0.12804332375526428, 0.07097713649272919, 0.012035282328724861, -0.022842032834887505, -0.06506375968456268, 0.01035628654062748, -0.00044082646491006017, 0.011407645419239998, -0.03792383521795273, 0.035029612481594086, -0.02084864117205143, -0.015757296234369278, 0.02548878639936447, -0.09271156042814255, -0.10797250270843506, -0.03140783682465553, 0.03562761843204498, 0.07769545167684555, -0.12222412973642349, -0.04829367250204086, -0.08958273380994797, -0.016602836549282074, -0.026370588690042496, 0.0031295674853026867, 0.0464022234082222, -0.0621911957859993, -0.08821199834346771, 0.01171126589179039, -0.00225121364928782, -0.0743713527917862, 0.03289147466421127, 0.008810405619442463, -0.08405973762273788, 0.0520588718354702, 0.06430500000715256, -0.02721364237368107, -0.15607139468193054, -0.04768907278776169, -0.05135997012257576, -0.027987057343125343, 0.05501803010702133, -0.06874161213636398, -0.02344987727701664, -0.10164231061935425, 0.0024513055104762316, 0.0033149183727800846, 0.02563370019197464, -0.061000823974609375, -0.038289088755846024, -0.0865744799375534, -0.10053803026676178, -0.1194240152835846, -0.09316012263298035, -0.06256475299596786, -0.04474881663918495, -0.06335297971963882, -0.14118589460849762, -0.013530753552913666, 0.006721074692904949, 0.05493249371647835, 0.048696938902139664, -0.007002240978181362, -0.010841673240065575, 0.01623678207397461, 0.037004511803388596, 0.11711666733026505, 0.007991986349225044, 0.03406482934951782, 0.08368594199419022, 0.042145900428295135, -0.05186855047941208, 0.03682086616754532, 0.08971864730119705, 0.12220374494791031, 0.032366570085287094, 0.055456846952438354, -0.06976278126239777, 0.011693917214870453, 0.0654265508055687, -0.031981103122234344, 0.013952276669442654, 0.0019087685504928231, 0.041563041508197784, -0.056651219725608826], [0.03701913729310036, -0.24461062252521515, -0.16657568514347076, 0.2594378888607025, 0.12757323682308197, 0.09229159355163574, -0.0706457793712616, 0.03913583979010582, 0.03981310501694679, 0.07850412279367447, 0.11164209991693497, 0.1940816193819046, 0.03746899589896202, 0.04128141701221466, 0.3488052487373352, 0.2142736166715622, 0.13993676006793976, 0.033653222024440765, -0.08350608497858047, -0.07076983898878098, 0.039230089634656906, 0.1294916272163391, 0.25648123025894165, 0.3296939432621002, 0.20869652926921844, 0.21310803294181824, 0.04808437451720238, -0.04975859820842743, 0.11807979643344879, -0.08194474875926971, 0.13135826587677002, 0.08907661586999893, 0.14641480147838593, 0.09281212836503983, 0.15077194571495056, 0.12269372493028641, 0.07160236686468124, 0.15374572575092316, 0.007429730147123337, 0.07064006477594376, 0.023191507905721664, 0.01902991719543934, 0.11461896449327469, 0.0781656801700592, 0.11212997138500214, 0.16926757991313934, 0.059170231223106384, -0.01534770056605339, 0.07630279660224915, 0.08230765163898468, -0.03484022989869118, 0.14285054802894592, 0.02031402476131916, 0.1148289293050766, 0.16014985740184784, 0.08621873706579208, 0.05964557081460953, 0.07529592514038086, 0.062059320509433746, 0.09524751454591751, 0.12937027215957642, 0.07045143097639084, 0.031942520290613174, 0.13592952489852905, 0.10371720045804977, 0.08592519909143448, 0.053363628685474396, 0.0364544615149498, 0.029795611277222633, 0.07327885180711746, 0.0871281772851944, -9.025470353662968e-05, 0.0321526937186718, 0.007886206731200218, 0.10395924746990204, 0.1047956794500351, 0.043077826499938965, 0.0281970277428627, -0.005856479983776808, 0.021626964211463928, 0.029415300115942955, 0.06536289304494858, 0.00824445579200983, 0.04645185545086861, 0.007305868901312351, 0.08170141279697418, 0.02000300958752632, 0.046058911830186844, 0.034675490111112595, -0.003507539164274931, -0.011103538796305656, 0.016434071585536003, 0.03911655768752098, 0.06924784183502197, 0.043481215834617615, 0.08414749056100845, 0.0607488676905632, -0.04407045245170593, 0.04415201023221016, 0.06695285439491272, -0.018421750515699387, 0.010092475451529026, 0.05573616921901703, 0.052783817052841187, 0.020366288721561432, 0.07757933437824249, 0.10195336490869522, 0.06899711489677429, -0.029647843912243843, 0.07356351613998413, 0.04477183148264885, 0.001672973856329918, 0.03415583819150925, 0.03474859520792961, -0.001470637507736683, 0.043021854013204575, 0.0038768260274082422, 0.022060053423047066, 0.06919077038764954, 0.02904408983886242, 0.08781519532203674, -0.00495887640863657, 0.05062466859817505, 0.017317576333880424, 0.024073611944913864, 0.007760769221931696, 0.012365194968879223, -0.0065376474522054195, 0.021283671259880066, -0.014136189594864845, -0.040621738880872726, -0.011424827389419079, -0.028010927140712738, 0.051070909947156906, 0.03945683687925339, 0.010100530460476875, 0.05282494053244591, 0.0005138806882314384, -0.012820139527320862, -0.00550678139552474, -0.016929449513554573, 0.05029385909438133, -0.010014436207711697, -0.0077760485000908375, -0.02959032915532589, 0.011397028341889381, 0.06206126883625984, -0.013809621334075928, 0.015165533870458603, -0.01992611587047577, 0.034587714821100235, 0.023511122912168503, 0.030764508992433548, 0.02678678184747696, 0.05556761473417282, 0.02088402956724167, 0.02924273908138275, 0.04944921284914017, -0.027908572927117348, 0.05460206791758537, -0.022901738062500954, 0.07423286139965057, 0.007534163072705269, -0.048042286187410355, -0.001567665720358491, -0.010940587148070335, -0.0017835471080616117, 0.01146666705608368, -0.0178823284804821, -0.013235128484666348, -0.003967095632106066, -0.048055339604616165, 0.023287540301680565, 0.03755418211221695, 0.006821372080594301, 0.05334840714931488, 0.01203641202300787, 0.02407069317996502, 0.03473474830389023, 0.043738920241594315, -0.03068961389362812, -0.031191833317279816, -0.06888176500797272, 0.011591857299208641, -0.022921370342373848, -0.005390525329858065, 0.036492954939603806, -0.02134610339999199, -0.022028254345059395, -0.024330036714673042, 0.02945488877594471, 0.05647031590342522, 0.06676375865936279, 0.025566784664988518, 0.009728689678013325, -0.05366583541035652, -0.03436283767223358, 0.0018681831425055861, -0.011998358182609081, 0.01637260988354683, -0.0025034775026142597, -0.03792259469628334, -0.0440804660320282, -0.017979493364691734, -0.014769361354410648, -0.046562064439058304, -0.036779794842004776, -0.01010852586477995, -0.11958489567041397, -0.06793686747550964, -0.03256690502166748, -0.043095383793115616, 0.023578200489282608, -0.09650801122188568, 0.029650840908288956], [0.033944740891456604, 0.018277091905474663, 0.06062432378530502, 0.008440523408353329, -0.013182166963815689, 0.014899827539920807, -0.019585784524679184, -0.05975630506873131, -0.01701236329972744, 0.003500071121379733, 0.12134231626987457, 0.0030247801914811134, 0.00553189916536212, 0.11791746318340302, 0.0934385359287262, 0.20539599657058716, 0.013139610178768635, -0.0017515188083052635, -0.0974109023809433, 0.018288979306817055, 0.01471779216080904, -0.018639471381902695, 0.045132823288440704, 0.1821938008069992, 0.22483135759830475, 0.24196742475032806, 0.0437750406563282, 0.05002688243985176, -0.05414319783449173, -0.04116109758615494, -0.017277976498007774, 0.013983746990561485, 0.05863308161497116, 0.03800344839692116, 0.08193348348140717, 0.1498735398054123, 0.07168348133563995, 0.07698632031679153, 0.049178723245859146, 0.019975116476416588, 0.0842394232749939, 0.07783243060112, 0.19593922793865204, 0.14690856635570526, 0.15419021248817444, 0.20208244025707245, 0.2337377518415451, 0.1140809878706932, 0.0021013852674514055, 0.13153570890426636, 0.10480358451604843, 0.07905425131320953, 0.13019558787345886, 0.1677834689617157, 0.2199513167142868, 0.10136020928621292, 0.20459601283073425, 0.08977100253105164, 0.09083044528961182, 0.12041456997394562, 0.02410595677793026, 0.052345484495162964, 0.1842750459909439, 0.19923514127731323, 0.1251307725906372, 0.11206457018852234, 0.236941859126091, 0.14035801589488983, 0.059599924832582474, 0.025068016722798347, 0.011586823500692844, 0.07778482884168625, 0.11363407224416733, 0.09802601486444473, 0.15923015773296356, 0.1878724992275238, 0.14612612128257751, 0.06521560251712799, -0.0314209945499897, 0.02958308905363083, 0.05818238854408264, 0.1298564076423645, 0.20491044223308563, 0.19546212255954742, 0.1462341547012329, 0.17728058993816376, 0.11751995235681534, 0.010065373033285141, 0.06031574308872223, -0.04294300079345703, 0.07805681228637695, -0.013430044986307621, 0.05094732344150543, 0.13639391958713531, 0.09877663105726242, 0.15998336672782898, 0.0529608391225338, 0.07527750730514526, -0.018363287672400475, 0.06231202185153961, 0.09361449629068375, 0.0989457368850708, 0.05914917215704918, 0.13279569149017334, 0.14640435576438904, 0.19669002294540405, 0.07697230577468872, 0.06384851783514023, -0.050895024091005325, 0.04783230647444725, 0.031317345798015594, 0.12498240917921066, 0.015166888944804668, -0.03403061255812645, 0.16671068966388702, 0.05296710133552551, 0.02857334166765213, 0.06352724879980087, 0.05335553362965584, -0.09680294990539551, 0.01121736690402031, -0.03631270304322243, 0.002093365415930748, 0.06412120163440704, 0.18075962364673615, 0.06756279617547989, 0.03693690150976181, 0.06066293269395828, 0.10298620909452438, -0.02571616880595684, 0.042938221246004105, 0.05331261083483696, 0.050195518881082535, 0.03955516964197159, 0.07086867839097977, 0.18754634261131287, 0.0823599100112915, 0.001107442774809897, 0.11998109519481659, 0.053749796003103256, -0.0015798314707353711, 0.09293005615472794, 0.09483423829078674, -0.029119789600372314, -0.046858981251716614, 0.054653242230415344, -0.005280130542814732, 0.020687881857156754, 0.11121836304664612, 0.003927506040781736, 0.051564473658800125, 0.08228016644716263, 0.026536237448453903, -0.01915036514401436, -0.011987247504293919, 0.08377064019441605, -0.0197287630289793, 0.02034851163625717, -0.09751277416944504, 0.036765024065971375, -0.053178273141384125, 0.013622797094285488, 0.001790030742995441, -0.09248478710651398, -0.04859990254044533, -0.03449732065200806, 0.0629224106669426, -0.005501748528331518, -0.05861354246735573, 0.06935331225395203, 0.04783082753419876, -0.06576642394065857, -0.011477830819785595, -0.02478536032140255, -0.0368737056851387, -0.014387385919690132, 0.05428766831755638, 0.025933604687452316, -0.07794947177171707, -0.019795555621385574, 0.032224420458078384, -0.06845273077487946, -0.011146849021315575, 0.050546031445264816, -0.04806157574057579, -0.01608813926577568, -0.1058434396982193, 0.094447061419487, -0.030871497467160225, -0.13233743607997894, -0.014698016457259655, 0.09058646857738495, -0.017013486474752426, -0.05299634113907814, 0.1568698137998581, -0.08812591433525085, -0.008243683725595474, 0.05349311605095863, 0.0777580738067627, 0.007861507125198841, -0.1291615068912506, -0.115564726293087, -0.10258603096008301, -0.027279438450932503, 0.0256333127617836, -0.06092106178402901, -0.07216613739728928, 0.004483346827328205, 0.0637732744216919, 0.03392399474978447, 0.15274307131767273, 0.008905421011149883, -0.014092043042182922, 0.1174163892865181, 0.05637742206454277], [-0.08038045465946198, -0.2506357729434967, -0.09589937329292297, -0.25411200523376465, 0.08289778232574463, -0.05292023345828056, 0.09499802440404892, -0.056990765035152435, -0.0073292190209031105, -0.1391964554786682, 0.036528799682855606, 0.0513460598886013, 0.12645725905895233, -0.21196293830871582, -0.3534238636493683, -0.20148712396621704, 0.14840008318424225, 0.15106673538684845, -0.013067989610135555, 0.07672165334224701, 0.0829903855919838, 0.09384813159704208, 0.030572008341550827, -0.11296065151691437, -0.05854373425245285, 0.015017851255834103, 0.012763203121721745, -0.22311794757843018, -0.1764565408229828, -0.1349901258945465, 0.047991909086704254, -0.05486598610877991, -0.13483166694641113, -0.12746043503284454, -0.09148039668798447, -0.06875029951334, -0.04544106870889664, -0.05066707730293274, -0.21468591690063477, -0.25128212571144104, 0.17224395275115967, -0.053885988891124725, -0.010394960641860962, -0.02303449437022209, -0.08276471495628357, -0.11818300932645798, -0.08446568250656128, 0.15255708992481232, -0.04438428953289986, -0.025891026481986046, -0.09331212937831879, -0.005365387536585331, -0.04856955260038376, 0.04401544854044914, -0.08300293236970901, 0.010871319100260735, -0.05071591958403587, 0.004958801437169313, -0.05221094191074371, 0.032161109149456024, 0.05514170974493027, 0.026809804141521454, -0.09223761409521103, 0.03308078274130821, -0.07330671697854996, -0.047884806990623474, -0.12106682360172272, -0.020086582750082016, -0.020103532820940018, 0.05275332182645798, -0.1466616690158844, 0.029386332258582115, -0.0606854148209095, -0.04416588321328163, 0.06894630193710327, 0.030095580965280533, 0.08494552969932556, 0.03643201291561127, 0.06025717407464981, 0.04051775485277176, -0.038380157202482224, -0.0315733402967453, 0.012309227138757706, -0.04315667599439621, -0.03327622264623642, 0.023593563586473465, -0.02789969928562641, -0.0565359927713871, -0.013075137510895729, 0.04077812284231186, 0.03253410384058952, -0.06819823384284973, 0.04640213027596474, -0.011196154169738293, 0.021211259067058563, 0.048970770090818405, 0.09847921878099442, -0.0020575334783643484, -0.053825218230485916, 0.039926834404468536, 0.008328606374561787, -0.05601547658443451, -0.005877753719687462, -0.04428030550479889, 0.020491398870944977, 0.01359955221414566, 0.06424502283334732, -0.010654249228537083, -0.11925831437110901, -0.05941034480929375, 0.08940543979406357, 0.009510507807135582, 0.014992267824709415, 0.045535482466220856, 0.04115333780646324, 0.027809256687760353, 0.043741077184677124, -0.024711206555366516, 0.011860858649015427, 0.046684179455041885, 0.019496196880936623, -0.06920746713876724, -0.03199329227209091, -0.03966677561402321, 0.10481636226177216, 0.02330843359231949, -0.028951318934559822, -0.025465454906225204, 0.009288824163377285, 0.06728966534137726, -0.058047547936439514, 0.06283628940582275, -0.03938286378979683, -0.018864812329411507, 0.005166192073374987, -0.14128147065639496, 0.11818782240152359, -0.023856017738580704, -0.031398095190525055, 0.033596865832805634, -0.05551308020949364, 0.04327972233295441, 0.06699685007333755, 0.06804949045181274, 0.021574273705482483, 0.06498952209949493, 0.014877239242196083, 0.0015433654189109802, 0.13315452635288239, 0.025207936763763428, 0.0436498299241066, 0.1297539919614792, 0.02970372512936592, -0.04842614755034447, 0.04072999954223633, 0.09053093940019608, 0.07102002203464508, -0.021200573071837425, -0.05802067369222641, 0.05160307139158249, -0.03642076253890991, -0.0036703527439385653, -0.051185768097639084, 0.052518900483846664, -0.02933472953736782, 0.058089181780815125, -0.04497115686535835, -0.09538345783948898, -0.04822731390595436, -0.05369992181658745, 0.06995796412229538, 0.039572395384311676, -0.12455704063177109, -0.0013491010759025812, -0.06412695348262787, 0.013326735235750675, -0.033258505165576935, -0.08504655212163925, 0.03942475467920303, -0.03233633190393448, 0.015680382028222084, 0.003266250714659691, -0.06158430501818657, -0.06510802358388901, -0.000899106846190989, 0.03955627605319023, -0.1034972295165062, -0.022946549579501152, -0.0477803498506546, -0.037098366767168045, -0.046684324741363525, -0.033990733325481415, 0.058811310678720474, -0.07357334345579147, -0.06099746376276016, 0.06466636061668396, -0.004737033508718014, -0.0995667353272438, -0.0498640313744545, -0.022419653832912445, -0.07370351254940033, 0.02525954879820347, -0.013790624216198921, -0.03843199089169502, 0.01987650990486145, -0.01791442185640335, -0.05464445799589157, -0.18259865045547485, 0.16222715377807617, 0.05091983452439308, 0.08286485821008682, -0.04285931959748268, -0.05895662307739258, 0.04522786661982536, 0.012886734679341316], [-0.08946479856967926, -0.010608009062707424, -0.04397539794445038, -0.07486099749803543, -0.1409302055835724, -0.1361037790775299, -0.05414849519729614, 0.047414544969797134, -0.01280084066092968, -0.07710392028093338, -0.018434714525938034, -0.009454642422497272, -0.28393813967704773, -0.15883052349090576, -0.08985520154237747, -0.19123688340187073, -0.07916124910116196, -0.015509537421166897, -0.0722484141588211, -0.10515996813774109, 0.04130905866622925, 0.09045903384685516, -0.1134769544005394, -0.19830673933029175, -0.1095644012093544, -0.17730377614498138, -0.15766048431396484, 0.014520550146698952, -0.07109418511390686, -0.08053625375032425, 0.13866789638996124, 0.02670546993613243, 0.028910145163536072, -0.13403066992759705, -0.06622248888015747, -0.07775553315877914, -0.09872425347566605, 0.013309766538441181, -0.009245798923075199, -0.1426708847284317, -0.04085439071059227, -0.10429767519235611, -0.0223543643951416, -0.08950402587652206, -0.029412483796477318, -0.021612973883748055, -0.08692310750484467, -0.025228941813111305, -0.039387043565511703, -0.12775486707687378, -0.07727012783288956, -0.03882025554776192, -0.1178520917892456, -0.10571514815092087, -0.11671163141727448, -0.021262463182210922, -0.11361029744148254, -0.09502770751714706, -0.11405353993177414, -0.038733407855033875, -0.0312575064599514, 0.023358309641480446, -0.03971350938081741, 0.02181876078248024, -0.05916554480791092, 0.01388959214091301, -0.05393604934215546, 0.04763474687933922, -0.015792319551110268, -0.015486788004636765, 0.134347066283226, 0.0255475752055645, -0.0370602048933506, -0.08301123976707458, 0.012511160224676132, -0.026221193373203278, -0.016899438574910164, 0.014565529301762581, -0.05280835181474686, -0.06767477840185165, -0.04928570240736008, -0.0697965994477272, -0.03671853989362717, 0.012661978602409363, 0.0651739165186882, -0.05924065783619881, 0.0032845332752913237, -0.03574199229478836, 0.0577043779194355, -0.027570974081754684, -0.047589827328920364, 0.04888047277927399, 0.0022423379123210907, -0.05071398243308067, -0.020477278158068657, -0.02509218454360962, 0.03791945055127144, -0.055673208087682724, 0.06825372576713562, -0.04438553377985954, -0.0608416311442852, 0.00373449781909585, -0.02890092134475708, -0.04990600794553757, 0.029187727719545364, 0.05789513885974884, -0.10495587438344955, 0.03749915212392807, -0.0030973972752690315, 0.01763962395489216, 0.013480610214173794, -0.07096204906702042, 0.06909004598855972, -0.013218016363680363, -0.034704338759183884, -0.028061216697096825, 0.007401378359645605, -0.01461048424243927, -0.0640779435634613, 0.08081045746803284, -0.034194063395261765, -0.016189733520150185, -0.04137420654296875, -0.061740610748529434, 0.003974124789237976, -0.00877052079886198, -0.05143836513161659, 0.024723554030060768, -0.003206412075087428, 0.06676819175481796, -0.016947543248534203, 0.06897382438182831, 0.027952535077929497, -0.025282952934503555, -0.07477012276649475, -0.0034878691658377647, -0.031920358538627625, -0.023694150149822235, -0.027288861572742462, 0.05056334659457207, 0.03497149422764778, -0.01911749318242073, 0.05426386371254921, -0.09153503179550171, 0.061746060848236084, -0.028805863112211227, -0.040732916444540024, 0.038305461406707764, -0.030110154300928116, 0.007577225565910339, -0.09959929436445236, 0.04235871136188507, 0.038153935223817825, -0.03499016910791397, 0.019515691325068474, 0.007647818420082331, -0.025172898545861244, 0.025000007823109627, -0.04750874266028404, 0.043142206966876984, 0.03367432579398155, -0.010351316072046757, 0.053880251944065094, 0.019139695912599564, 0.02552986890077591, 0.035465724766254425, -0.025913933292031288, 0.004270026460289955, -0.04566377401351929, 0.058035820722579956, 0.039011698216199875, 0.03971751406788826, 0.023758934810757637, 0.01345247495919466, -0.013043036684393883, 0.05606604740023613, -0.013558898121118546, 0.04472352936863899, 0.05833984166383743, 0.08153962343931198, 0.049358125776052475, 0.022975603118538857, 0.10922159999608994, 0.06921891123056412, 0.03061874769628048, 0.038459278643131256, -0.03192509710788727, 0.05143790692090988, 0.014166966080665588, 0.022458011284470558, -0.07383587956428528, -0.08135304600000381, 0.039748720824718475, 0.025907348841428757, -0.0067305113188922405, 0.06753868609666824, 0.006608149036765099, -0.0016608027508482337, -0.0656147450208664, 0.020514002069830894, -0.14567536115646362, -0.029441973194479942, 0.027767110615968704, 0.0505683571100235, 0.04607585072517395, 0.008786732330918312, -0.03824155405163765, 0.13136328756809235, -0.31311169266700745, -0.06262979656457901, -0.15103912353515625, -0.026542717590928078, 0.055949680507183075, -0.43667492270469666, -0.0185787845402956], [-0.05165674909949303, -0.02224033698439598, -0.1219896450638771, 0.0022221633698791265, -0.0836256593465805, 0.0702596977353096, -0.00355274579487741, -0.1007886603474617, -0.07760528475046158, -0.05382165312767029, -0.10690160095691681, -0.010310330428183079, -0.02589353360235691, 0.031132373958826065, 0.07448339462280273, 0.06785701215267181, 0.11055951565504074, 0.004723287187516689, -0.0490502268075943, -0.11550641804933548, 0.05335715040564537, -0.06014646217226982, -0.0913761630654335, 0.06348734349012375, 0.04103895649313927, 0.06801851838827133, 0.05512036383152008, 0.12350957840681076, 0.054007068276405334, -0.09637951105833054, 0.030205724760890007, 0.044547926634550095, 0.0012871678918600082, -0.006085406057536602, 0.037577543407678604, 0.05773879215121269, 0.03158959001302719, 0.12986217439174652, -0.0065451012924313545, 0.04235634580254555, -0.006360944360494614, 0.02420715242624283, 0.09176063537597656, 0.005820074118673801, 0.021104946732521057, 0.053774796426296234, 0.050997987389564514, 0.011374574154615402, 0.03932122513651848, -0.03539608418941498, -0.41348904371261597, -0.1410815417766571, 0.024406621232628822, 0.055669598281383514, -0.08906381577253342, 0.05902472883462906, 0.07824879139661789, 0.0655617043375969, -0.04193927347660065, -0.03416365012526512, -0.04000743851065636, 0.013126152567565441, 0.08948390930891037, 0.05577123165130615, -0.06313859671354294, -0.0385664701461792, 0.044151004403829575, 0.05712970346212387, -0.046031396836042404, 0.01685888133943081, -0.003843073733150959, -0.041281938552856445, 0.05344735458493233, 0.08726482838392258, -0.037813279777765274, 0.08353425562381744, 0.10266905277967453, 0.004559224937111139, 0.0699150562286377, -0.04523108899593353, -0.12784095108509064, -0.0823359489440918, -0.15026310086250305, -0.007064026780426502, -0.06859713047742844, -0.025515537708997726, 0.07319644838571548, 0.1146901473402977, 0.032783184200525284, -0.07181774079799652, 0.03456801921129227, -0.04392779991030693, -0.12242294102907181, -0.09054024517536163, -0.10052519291639328, -0.15424422919750214, -0.051428962498903275, 0.06834486126899719, -0.05590134114027023, -0.12368916720151901, -0.04068158194422722, -0.036602530628442764, -0.04321771860122681, 0.03631982579827309, 0.0256152655929327, -0.11076268553733826, -0.13059066236019135, -0.00684404605999589, -0.06503825634717941, -0.054969362914562225, -0.06372249126434326, -0.023380553349852562, -0.07740436494350433, -0.04741876199841499, -0.034410327672958374, -0.0914960578083992, 0.07142578065395355, 0.03943329304456711, -0.08439751714468002, -0.2318532019853592, 0.0007959517533890903, 0.05367674306035042, -0.028236163780093193, -0.09848149120807648, -0.022581756114959717, -0.12746191024780273, 0.1327880620956421, 0.03132358193397522, -0.021328629925847054, -0.14582335948944092, 0.02047794498503208, 0.001570592517964542, 0.02025444805622101, 0.05982401594519615, 0.060255423188209534, 0.0019337672274559736, 0.05936678871512413, 0.05251636356115341, -0.11126487702131271, 0.07402870059013367, 0.09746614843606949, 0.08071020245552063, -0.006274702958762646, -0.036074329167604446, -0.08024559170007706, 0.008084934204816818, -0.028009098023176193, 0.02941557765007019, 0.043773602694272995, -0.041106466203927994, 0.08048420399427414, -0.040768664330244064, -0.06202320381999016, -0.04138101264834404, -0.023595644161105156, 0.040953200310468674, -0.06990416347980499, 0.05481591075658798, -0.10893088579177856, 0.04369617998600006, 0.03806178271770477, -0.06562498956918716, 0.033861398696899414, -0.023982500657439232, 0.0503305159509182, 0.025317521765828133, -0.029938437044620514, 0.06314979493618011, -0.09541887789964676, 0.048063404858112335, 0.06851037591695786, -0.12642861902713776, -0.045956749469041824, 0.019285446032881737, -0.02947085164487362, -0.041872285306453705, -0.03217017650604248, -0.04471761733293533, -0.04819035530090332, -0.05497888848185539, -0.055474523454904556, -0.13079147040843964, 0.007290304638445377, -0.07750657200813293, -0.035428550094366074, 0.032129984349012375, -0.08289456367492676, 0.03836624696850777, -0.06024622917175293, 0.06150652468204498, 0.116452157497406, -0.05706605687737465, 0.03696899488568306, 0.008302461355924606, -0.011764734983444214, 0.025028541684150696, 0.06390486657619476, -0.05686291679739952, 0.03603038564324379, -0.07485153526067734, 0.03986378759145737, -0.03513341024518013, -0.25281718373298645, 0.0772271379828453, 0.07506457716226578, -0.20050843060016632, -0.028965452685952187, 0.13868317008018494, -0.003945700824260712, 0.06919024139642715, 0.05500619858503342, 0.09072292596101761, 0.05782106891274452, -0.004884232766926289, -0.06403927505016327], [0.1185590848326683, -0.0351330004632473, -0.031567495316267014, 0.049381278455257416, 0.030816150829195976, 0.052530281245708466, -0.023523550480604172, 0.014607956632971764, 0.007965177297592163, -0.06419272720813751, 0.010325800627470016, 0.06401772052049637, 0.0623595267534256, -0.020718872547149658, 0.04139474034309387, 0.003542396705597639, 0.05123576521873474, 0.03773866966366768, 0.03679066151380539, 0.031497370451688766, 0.02420203574001789, 0.04405045881867409, 0.060865823179483414, 0.05291793867945671, 0.004166713450103998, -0.03274504467844963, 0.06817814707756042, 0.017823338508605957, 0.01537125650793314, 0.09926385432481766, 0.03534398600459099, 0.039312154054641724, 0.04621311277151108, 0.025948526337742805, 0.04555247724056244, -0.001817334326915443, 0.0004750170628540218, -0.02792182005941868, 0.010603909380733967, 0.0639171376824379, 0.06137078255414963, -0.07072979211807251, -0.03422197327017784, -0.06124193221330643, -0.07269471883773804, -0.00857635959982872, -0.0032704102341085672, 0.017987022176384926, 0.0019942952785640955, 0.07815387099981308, 0.06355760991573334, 0.022432580590248108, -0.011043175123631954, -0.06259394437074661, -0.06294714659452438, 0.03425877168774605, -0.034563206136226654, 0.05463723838329315, 0.04270702973008156, -0.00937622133642435, 0.04966595023870468, -0.029956679791212082, -0.03604307025671005, 0.055453378707170486, -0.037771113216876984, 0.005891385488212109, 0.05100865289568901, 0.00596886919811368, -0.02147758938372135, -0.0001236423704540357, -0.06783956289291382, 0.006547701545059681, 0.01127084344625473, 0.034875236451625824, -0.006650320254266262, -0.015001988969743252, 0.051414646208286285, 0.0021413606591522694, -0.02288180962204933, 0.06286754459142685, -0.040293268859386444, 0.03306017816066742, 0.042413488030433655, 0.030953407287597656, 0.013970544561743736, 0.054342467337846756, 0.031104136258363724, -0.01354757696390152, 0.024589447304606438, 0.04677007719874382, 0.0028003889601677656, -0.027248069643974304, 0.003470155643299222, 0.014210555702447891, -0.047031715512275696, -0.023475851863622665, 0.07806914299726486, -0.0104374960064888, 0.017548054456710815, 0.02402442693710327, -0.003292550565674901, -0.023905955255031586, 0.04158668592572212, -0.020468484610319138, 0.011530179530382156, 0.023882867768406868, 0.06670935451984406, 0.008166673593223095, -0.025304319337010384, 0.08380798250436783, -0.0517471581697464, 0.06414961814880371, 0.016152771189808846, 0.015558017417788506, -0.011144480668008327, -0.04095080494880676, -0.005143231246620417, -0.03411351516842842, -0.010046504437923431, 0.04962225258350372, -0.04652579501271248, 0.0033960649743676186, 0.002998879412189126, 0.029224693775177002, -0.018698671832680702, -0.05268328636884689, -0.042882997542619705, 0.04526166617870331, -0.019582707434892654, -0.062428396195173264, -0.007625004276633263, 0.07448738813400269, 0.0850382074713707, -0.03060796484351158, 0.06439998745918274, -0.015316605567932129, 0.0326809324324131, 0.00781297404319048, -0.018836503848433495, -0.06726936995983124, 0.08168007433414459, -0.01237639132887125, 0.03678680956363678, 0.03085869550704956, 0.04052043333649635, 0.08983045071363449, 0.060735974460840225, 0.004592134617269039, -0.010976247489452362, 0.03399978205561638, 0.09813837707042694, 0.013849820010364056, 0.0752018615603447, 0.02948463335633278, -0.029745252802968025, 0.0644795224070549, 0.07582017034292221, 0.030919207260012627, 0.04443754628300667, -0.06247374042868614, 0.05316923186182976, 0.04101723060011864, -0.024926230311393738, 0.07848012447357178, 0.07885909825563431, 0.0654633566737175, 0.05882216617465019, 0.07692421972751617, -0.051575493067502975, 0.07817172259092331, 0.029768159613013268, 0.029979802668094635, -0.0036104132886976004, 0.04975508525967598, 0.028301429003477097, 0.019588526338338852, 0.014611097052693367, -0.022852448746562004, 0.012088846415281296, -0.040111854672431946, -0.04451295733451843, 0.008170723915100098, 0.01192411221563816, 0.05804785341024399, 0.037281207740306854, 0.03670676052570343, -0.0011581738945096731, 0.041409190744161606, -0.020846083760261536, 0.026741208508610725, 0.03447534888982773, 0.015857502818107605, 0.05840387940406799, 0.05943901091814041, 0.0021762617398053408, 0.004234530031681061, -0.009104462340474129, -0.03445401042699814, 0.00312332552857697, -0.04500561207532883, 0.09031124413013458, 0.026150399819016457, 0.015973487868905067, 0.050566885620355606, 0.10052327811717987, 0.03296240046620369, 0.10784026980400085, -0.06986172497272491, 0.29207178950309753, 0.04545414820313454, 0.17612488567829132, 0.08154767751693726, -0.026129893958568573, 0.24558334052562714, 0.03649304062128067], [0.10496609658002853, 0.021847916767001152, 0.0260362196713686, -0.052793946117162704, -0.059250593185424805, 0.058447375893592834, 0.1776980608701706, 0.014589512720704079, -0.03601750731468201, -0.10059919208288193, 0.19173835217952728, 0.21279284358024597, 0.035054516047239304, -0.04855664446949959, -0.04917726293206215, -0.029649604111909866, 0.25333476066589355, 0.15460732579231262, -0.011595136485993862, -0.041417934000492096, 0.020377768203616142, 0.09420047700405121, 0.21252059936523438, 0.04772340506315231, 0.07660476118326187, 0.09129474312067032, 0.25083479285240173, 0.053367070853710175, 0.011005166918039322, -0.14803875982761383, 0.1481885015964508, 0.08533258736133575, 0.1720041185617447, 0.1154032051563263, 0.15472351014614105, 0.057341065257787704, 0.0845494270324707, 0.123811736702919, 0.024574145674705505, -0.04259181395173073, 0.10610280185937881, 0.06485873460769653, 0.02735680714249611, 0.03286537155508995, 0.04236733168363571, 0.2308415174484253, 0.21231187880039215, 0.039647866040468216, 0.05034015327692032, -0.043791741132736206, 0.027891604229807854, 0.0126838069409132, 0.023215193301439285, 0.10513551533222198, 0.11428473144769669, 0.04545382037758827, 0.13840124011039734, 0.1340028941631317, 0.07068777829408646, -0.04360673949122429, 0.08461139351129532, 0.13683512806892395, 0.05713675171136856, 0.06459765881299973, 0.08412721008062363, 0.15057942271232605, 0.05504031479358673, 0.08238102495670319, -0.0025390975642949343, -0.06149720773100853, 0.07873121649026871, 0.10217408090829849, 0.056863199919462204, 0.07121922820806503, 0.08321532607078552, 0.08491095155477524, 0.08026435971260071, 0.010944124311208725, -0.03658290579915047, -0.14250905811786652, -0.029056288301944733, 0.07355762273073196, 0.05443466082215309, 0.1587253212928772, -0.036186493933200836, 0.15273244678974152, 0.029573092237114906, 0.13868975639343262, 0.05818164721131325, -0.006926287896931171, 0.15116360783576965, 0.04510197415947914, 0.07848334312438965, 0.04714219272136688, 0.0408831425011158, 0.07943640649318695, 0.025443008169531822, 0.03767014294862747, 0.07899130135774612, 0.14589373767375946, -0.006727069150656462, 0.04261975735425949, 0.0957508236169815, 0.046013254672288895, 0.06711714714765549, -0.028901906684041023, 0.038104962557554245, -0.025084618479013443, -0.016881665214896202, -0.0946468859910965, -0.08083374798297882, 0.04866925626993179, -0.014220391400158405, 0.035433489829301834, -0.002477960428223014, 0.11270642280578613, 0.04294370859861374, -0.026086673140525818, -0.0014437584904953837, -0.04372607544064522, 0.008992448449134827, 0.016423724591732025, 0.05336818844079971, 0.06365924328565598, 0.022836405783891678, 0.01411731168627739, -0.0069628083147108555, -0.05548335239291191, -0.07747399806976318, -0.0683237686753273, -0.06796437501907349, 0.04737226665019989, 0.1394876092672348, -0.028541913256049156, -0.029003214091062546, -0.03378010541200638, -0.025701094418764114, 0.02448001131415367, 0.01899138279259205, 0.05200823396444321, -0.1349048614501953, 0.0123142683878541, -0.06080659478902817, 0.007037209812551737, -0.011329540982842445, -0.056660186499357224, -0.07672565430402756, 0.050999466329813004, 0.07681266963481903, 0.013985690660774708, -0.0018188836984336376, -0.09243551641702652, -0.03533555194735527, 0.011162799783051014, -0.08128023147583008, -0.02527734823524952, 0.08680588006973267, 0.14814350008964539, -0.11068367213010788, 0.01349450834095478, 0.023412341251969337, 0.03624298423528671, 0.0564379021525383, -0.13392136991024017, 0.08275695145130157, 0.07633496075868607, 0.0496404767036438, -0.0018865256570279598, 0.013878178782761097, 0.06505782157182693, 0.03595336526632309, -0.03363850340247154, -0.08583639562129974, 0.06280714273452759, -0.034931428730487823, 0.04289526864886284, -0.10198693722486496, -0.07335233688354492, 0.01654665544629097, -0.017005639150738716, -0.007663269527256489, -0.055537763983011246, 0.02047150395810604, 0.0029344852082431316, -0.07033605873584747, 0.0636330395936966, 0.013961915858089924, -0.03721672296524048, 0.04398014396429062, 0.0036318479105830193, -0.023887289687991142, 0.07856641709804535, -0.018653281033039093, 0.018806088715791702, 0.028317522257566452, -0.035573169589042664, -0.1049906387925148, 0.05178249999880791, -0.0727681890130043, -0.015426942147314548, -0.002610189374536276, -0.08431030809879303, 0.0063634226098656654, -0.030197955667972565, -0.05268045887351036, -0.019132310524582863, -0.037861790508031845, -0.08261902630329132, 0.2624233067035675, -0.04360949248075485, 0.16226406395435333, -0.12116574496030807, -0.05801091715693474, 0.11770745366811752, 0.07907234132289886], [-0.07466114312410355, 0.0627235695719719, 0.039184678345918655, -0.24333512783050537, -0.14206565916538239, -0.04351891204714775, -0.019054163247346878, -0.02531985566020012, -0.0850813165307045, 0.005654861684888601, 0.05658910050988197, 0.026900844648480415, 0.10243529081344604, 0.00615653907880187, -0.2950285077095032, -0.08490654081106186, 0.21651063859462738, 0.14105252921581268, 0.16343726217746735, 0.14994750916957855, 0.05562872067093849, 0.09521980583667755, 0.11970376968383789, 0.11748948693275452, -0.0341244637966156, 0.11440375447273254, 0.07943467050790787, 0.04227789118885994, 0.10620884597301483, 0.1313372552394867, -0.1888657659292221, -0.05775357782840729, 0.13181960582733154, 0.13180802762508392, -0.041923340409994125, 0.017483703792095184, -0.058024000376462936, 0.042808786034584045, 0.07115047425031662, 0.10515303164720535, 0.11687736958265305, 0.11037153005599976, -0.034587305039167404, 0.08290722221136093, 0.04791527986526489, -0.044737350195646286, -0.001189964939840138, 0.0938258096575737, 0.008337771520018578, 0.03794645890593529, -0.26133573055267334, -0.05332916975021362, 0.12939144670963287, -0.040172673761844635, -0.050629857927560806, 0.07965961843729019, 0.0014984599547460675, -0.029425185173749924, -0.017915204167366028, 0.004248215816915035, -0.05411418154835701, 0.06682710349559784, 0.09484820812940598, 0.07316331565380096, -0.04298850893974304, 0.0007562499376945198, 0.007413582410663366, 0.038841623812913895, -0.0007009784458205104, -0.05968896299600601, -0.04394274950027466, -0.046152640134096146, -0.013317170552909374, -0.048532649874687195, 0.02650441974401474, -0.02698451839387417, -0.012551991268992424, 0.01714479550719261, -0.05047416687011719, -0.021015500649809837, 0.009634220041334629, -0.1077137440443039, -0.007033791858702898, -0.064303457736969, -0.011868341825902462, -0.013780875131487846, -0.037410859018564224, 0.028045358136296272, -0.006033038254827261, -0.05504389479756355, 0.06139789894223213, 0.02374390698969364, 0.05960085242986679, -0.062420643866062164, -0.11623615771532059, 0.0316334031522274, -0.022774897515773773, 0.06508304923772812, -0.07806768268346786, -0.1276027262210846, -0.03088073432445526, 0.04139765352010727, -0.030256737023591995, 0.00562260439619422, -0.04774779453873634, -0.00837396178394556, -0.05602358654141426, -0.10721895098686218, -0.09065991640090942, -0.03598016873002052, -0.1040433943271637, -0.13045832514762878, -0.07611314952373505, -0.04820002242922783, -0.0698169469833374, 0.009476889856159687, 0.004542025737464428, -0.05139083042740822, -0.03182848542928696, -0.09155707061290741, -0.09276973456144333, -0.08447983115911484, 0.04831452667713165, 0.001113560632802546, 0.018807293847203255, 0.05061015859246254, 0.008642300963401794, -0.07527492195367813, -0.0935523733496666, 0.006585987750440836, -0.07316748052835464, 0.012279964052140713, 0.06941428035497665, -0.11993303149938583, 0.08539505302906036, -0.04525487497448921, -0.11420458555221558, 0.016852721571922302, -0.034235596656799316, -0.07932931184768677, 0.06807901710271835, -0.03935063257813454, -0.037225816398859024, -0.14314649999141693, 0.0179954394698143, -0.012825395911931992, -0.017157288268208504, 0.017858019098639488, -0.07895376533269882, -0.030476002022624016, 0.02516012080013752, -0.06947817653417587, -0.03507453575730324, -0.07503476738929749, -0.044322673231363297, -0.0143419299274683, 0.05550122633576393, -0.007156383246183395, -0.03884522616863251, -0.05204269662499428, -0.017636068165302277, 0.006635384168475866, -0.1007058173418045, 0.046418074518442154, -0.042115502059459686, 0.06974732130765915, -0.00855099968612194, 0.04160669445991516, 0.009728031232953072, 0.06841310858726501, -0.0522349551320076, -0.08015786856412888, -0.21482275426387787, -0.0032291323877871037, 0.020362282171845436, -0.06172224134206772, -0.025445403531193733, -0.03281235694885254, -0.05114448070526123, 0.02792033553123474, 0.05313672125339508, 0.010164275765419006, -0.0239841490983963, -0.031359151005744934, 0.05899105593562126, -0.04027557745575905, 0.036150556057691574, 0.0840371772646904, -0.03945863991975784, -0.12084541469812393, 0.09925193339586258, -0.039826586842536926, -0.09493573009967804, -0.007406141608953476, -0.042325373739004135, -0.0823381245136261, 0.05338290333747864, -0.023692002519965172, -0.05040936544537544, 0.026094039902091026, 0.21182136237621307, -0.14380000531673431, -0.26398757100105286, 0.20730960369110107, 0.11024826020002365, 0.15273579955101013, -0.25060734152793884, -0.01102933194488287, -0.11933980882167816, 0.0016945505049079657, 0.009847708977758884, 0.03331838175654411, -0.05265811085700989, -0.030667250975966454, 0.012678687460720539], [0.046906765550374985, 0.016754230484366417, 0.15085865557193756, 0.05302600935101509, -0.07900017499923706, 0.013502108864486217, -0.07052461057901382, -0.03786701336503029, -0.06600877642631531, 0.060924213379621506, 0.12349509447813034, -0.0036551046650856733, 0.11581485718488693, 0.0313602052628994, -0.004326270427554846, -0.06189524754881859, 0.14299727976322174, 0.10927990078926086, -0.03024408407509327, 0.016433745622634888, -0.07176291942596436, 0.1035505011677742, 0.13266299664974213, 0.02447771094739437, -0.014153855852782726, -0.0069570643827319145, 0.12834002077579498, 0.10652214288711548, 0.0032053824979811907, -0.05299245938658714, 0.11183419823646545, 0.05899154767394066, -0.00984911434352398, 0.08980070054531097, -0.0032890550792217255, -0.029881766065955162, 0.04732242226600647, 0.016618013381958008, -0.009224846959114075, -0.05486873909831047, 0.06503990292549133, -0.024562230333685875, 0.05556090921163559, 0.060281239449977875, 0.033302295953035355, 0.04825897514820099, 0.11692821234464645, 0.03310461714863777, 0.009148851968348026, 0.010237162932753563, -0.00312149990350008, 0.10732181370258331, -0.028810786083340645, 0.01637367345392704, -0.007645050995051861, 0.06633055955171585, 0.049247413873672485, 0.0008421642705798149, 0.02185160666704178, -0.04813222959637642, 0.20028071105480194, 0.0008305662777274847, -0.018554817885160446, -0.008658165112137794, 0.07443762570619583, -0.0023680953308939934, 0.07161211967468262, 0.05614558234810829, -0.03881359100341797, 0.04390493780374527, 0.13975144922733307, 0.11240428686141968, 0.0028364071622490883, 0.11618291586637497, 0.041907183825969696, 0.007706940174102783, -0.006565887480974197, 0.08883339911699295, 0.005120584741234779, 0.07676532119512558, 0.10571147501468658, 0.046268876641988754, 0.13518962264060974, 0.15088322758674622, 0.03157060220837593, 0.13291624188423157, 0.11812552064657211, -0.027019361034035683, 0.009608898311853409, 0.11546947062015533, 0.12273422628641129, 0.10915642231702805, 0.06064603105187416, 0.059919875115156174, 0.07859636098146439, 0.033278971910476685, 0.03935611993074417, 0.015275589190423489, -0.07687820494174957, 0.04422026500105858, 0.09295888245105743, 0.0148460129275918, 0.13661158084869385, 0.02859828807413578, 0.08698327094316483, 0.1285993605852127, 0.015750883147120476, 0.03522150591015816, 0.03980358690023422, 0.04866577312350273, -0.0793866515159607, 0.018026165664196014, 0.09726893156766891, 0.09465283900499344, 0.06037138029932976, -0.020059358328580856, 0.09393800050020218, -0.023059213533997536, 0.07975544780492783, 0.05144749581813812, 0.04475169628858566, -0.029829954728484154, 0.07955256849527359, -0.009283162653446198, 0.03772662580013275, 0.015072163194417953, 0.061101481318473816, -0.014690736308693886, -0.021160244941711426, 0.0461987629532814, 0.03179758042097092, 0.033276088535785675, 0.09396939724683762, 0.028528276830911636, 0.031970441341400146, 0.13067473471164703, 0.03585440292954445, -0.023364633321762085, 0.10872408002614975, 0.06652258336544037, -0.01526221539825201, 0.05543605983257294, 0.11068300902843475, 0.013084820471704006, 0.06680228561162949, 0.029934152960777283, -0.012644588015973568, -0.011475687846541405, 0.093761146068573, -0.0023440185468643904, 0.009065791964530945, 0.1299980729818344, 0.08124842494726181, -0.006370890885591507, -0.06474398821592331, -0.018808241933584213, 0.020586635917425156, -0.0353139266371727, 0.0138007253408432, 0.08424878865480423, 0.05602716654539108, -0.03829779848456383, 0.11667605489492416, 0.012502714060246944, 0.15119309723377228, -0.00031667022267356515, -0.02893226593732834, -0.006889352574944496, 0.022852588444948196, 0.11924339830875397, 0.024335453286767006, 0.09989048540592194, 0.03419329598546028, 0.007081677671521902, 0.1258140504360199, 0.08769837021827698, -0.049298811703920364, 0.007392703555524349, 0.05615727975964546, 0.06891589611768723, 0.048221807926893234, 0.07193808257579803, 0.07426562160253525, 0.025516459718346596, -0.06076400727033615, 0.04295610636472702, 0.05592435970902443, 0.04596006125211716, 0.031163131818175316, 0.04896054044365883, 0.09945128858089447, 0.11313985288143158, 0.03566262871026993, 0.02103717066347599, -0.052543409168720245, -0.04652181640267372, 0.10283175110816956, 0.01421036384999752, 0.025697676464915276, 0.03008010983467102, 0.07909132540225983, -0.05699785426259041, 0.08098170906305313, -0.007758656982332468, -0.1322903037071228, -0.001204530824907124, -0.025068707764148712, 0.06952297687530518, 0.13025030493736267, 0.06751204282045364, 0.11971662193536758, -0.058071088045835495, 0.01496986486017704, 0.09119541198015213, 0.1035899966955185], [0.01927676983177662, -0.06172046437859535, 0.03615953028202057, 0.002395951421931386, -0.14591804146766663, -0.09098241478204727, -0.16942238807678223, -0.05433284118771553, 0.023021185770630836, 0.0888204351067543, 0.09254279732704163, -0.11687426269054413, -0.0027404343709349632, 0.13127413392066956, 0.02219155803322792, -0.09916791319847107, 0.019046731293201447, -0.1119159460067749, -0.28243330121040344, -0.04402105137705803, 0.03900306671857834, 0.06802140921354294, 0.1703721284866333, -0.06549908220767975, -0.19640961289405823, -0.07928751409053802, 0.03290548920631409, -0.05605567246675491, -0.07182155549526215, -0.016880715265870094, 0.13241544365882874, 0.04831923171877861, 0.09135283529758453, -0.024314571171998978, 0.06265847384929657, -0.018171602860093117, -0.15911607444286346, -0.01138259470462799, -0.010019082576036453, -0.1967277228832245, 0.017526688054203987, 0.0033005683217197657, 0.15338948369026184, 0.09701956808567047, 0.012652291916310787, -0.08271361142396927, 0.17848530411720276, 0.006792802829295397, 0.04510953649878502, 0.0021339242812246084, -0.02368631586432457, 0.015531634911894798, 0.044614169746637344, 0.03643312305212021, 0.006964597385376692, 0.0705973282456398, -0.05328177288174629, 0.05231057479977608, -0.12784110009670258, -0.32702794671058655, -0.06259150058031082, 0.09904858469963074, 0.08088330924510956, 0.029310883954167366, 0.04877143353223801, 0.20731183886528015, 0.030690843239426613, 0.10716671496629715, -0.043811067938804626, -0.156834676861763, -0.0752064660191536, -0.1179707795381546, -0.031463634222745895, 0.04862599074840546, 0.05292462557554245, 0.07792545109987259, -0.03591267764568329, 0.13730672001838684, 0.11989425122737885, -0.013593222014605999, -0.08123383671045303, -0.053090713918209076, -0.035826537758111954, 0.15299297869205475, -0.06294123828411102, -0.020178863778710365, -0.09315340220928192, -0.040402188897132874, 0.05628105252981186, 0.0793423131108284, 0.18945415318012238, 0.03620928153395653, -0.019433459267020226, 0.12264397740364075, 0.04097067192196846, 0.16555564105510712, -0.02034793607890606, -0.009510252624750137, 0.04939001798629761, 0.03854804113507271, 0.041672319173812866, 0.01966681145131588, 0.04624689742922783, -0.010591116733849049, -0.025689315050840378, 0.16933412849903107, -0.05370239540934563, -0.0067372811026871204, -0.012595828622579575, -0.06186312437057495, 0.05169333890080452, -0.053734179586172104, -0.01849600113928318, 0.09477143734693527, 0.029413698241114616, -0.07343832403421402, -0.11125093698501587, -0.10015310347080231, -0.13180941343307495, -0.1551235020160675, -0.012474613264203072, 0.034318942576646805, -0.10254330188035965, -0.06912864744663239, -0.012319843284785748, 0.0083855502307415, 0.013192594051361084, 0.001984416274353862, -0.15352465212345123, -0.06454228609800339, -0.09466243535280228, -0.040713828057050705, 0.02520771138370037, -0.015812896192073822, -0.01229431014508009, -0.011455785483121872, 0.008407529443502426, 0.08224256336688995, 0.04894476383924484, -0.07565359026193619, 0.03000197932124138, -0.0827159434556961, -0.04130750149488449, -0.057535234838724136, 0.08630712330341339, 0.0531638003885746, 0.03403668850660324, -0.03397701680660248, -0.12051710486412048, -0.00960612390190363, -0.027255989611148834, -0.07115960866212845, -0.07381267845630646, -0.05832818150520325, -0.0425136536359787, -0.118373341858387, -0.08722054213285446, 0.015002268366515636, 0.02623913250863552, -0.051860809326171875, 0.12598899006843567, 0.05074894055724144, 0.04330310970544815, 0.027305912226438522, 0.037153683602809906, 0.027999741956591606, -0.059503816068172455, -0.023791003972291946, -0.01849876157939434, 0.0117819057777524, -0.09230796992778778, -0.06449371576309204, -0.022999132052063942, 0.14914178848266602, 0.07983170449733734, 0.004548471886664629, 0.029489485546946526, -0.0028996351175010204, 0.004798626061528921, -0.06286972761154175, 0.058539409190416336, 0.02592412382364273, 0.019394779577851295, -0.10341345518827438, -0.004064997658133507, 0.0030244910158216953, -0.030817247927188873, 0.0865151435136795, 0.0466153658926487, 0.07251798361539841, -0.03192543983459473, 0.00973935704678297, 0.06722410023212433, -0.03311546519398689, 0.008151279762387276, -0.02285626158118248, 0.01825532503426075, 0.08395553380250931, -0.0709599032998085, -0.118531234562397, -0.030658099800348282, 0.009342660196125507, 0.04716607928276062, 0.04595081880688667, -0.09931973367929459, 0.02240893989801407, -0.06380299478769302, 0.27370163798332214, 0.15146732330322266, -0.055377621203660965, 0.08514618128538132, -0.03747713565826416, -0.02671579271554947, 0.02854100614786148, -0.020015640184283257], [-0.04229871183633804, -0.06594102084636688, -0.0913715735077858, -0.06924933940172195, 0.001745907124131918, -0.09679494053125381, 0.004685265943408012, 0.09512442350387573, 0.08345667272806168, -0.051286082714796066, -0.07109587639570236, -0.14403454959392548, -0.20597118139266968, -0.21770073473453522, 0.16842471063137054, -0.11521933972835541, -0.0034608468413352966, 0.10103343427181244, 0.035757482051849365, -0.1409144401550293, 0.0886724516749382, 0.019680917263031006, -0.10644472390413284, -0.10518016666173935, -0.020140331238508224, -0.029226137325167656, -0.0821206346154213, 0.16176237165927887, 0.006373507436364889, -0.010298475623130798, -0.029546331614255905, -0.03946412727236748, -0.01557275839149952, -0.0139171052724123, 0.03525539115071297, -0.019679879769682884, -0.059252701699733734, -0.0018873527878895402, -0.037226371467113495, 0.028177272528409958, -0.016828127205371857, -0.18649815022945404, -0.2101890742778778, 0.15471845865249634, 0.07733309268951416, 0.1387876570224762, -0.01166462805122137, 0.13480529189109802, 0.0038581467233598232, -0.020322339609265327, -0.14709576964378357, -0.07758913189172745, 0.010650651529431343, 0.011892075650393963, 0.0802421122789383, 0.027857890352606773, 0.061439406126737595, 0.07997333258390427, 0.06540950387716293, -0.01715737022459507, -0.03950085863471031, -0.08462772518396378, 0.10317619144916534, 0.07117456197738647, 0.004911065101623535, 0.08697713166475296, 0.12025386095046997, 0.10592038184404373, 0.03505134582519531, 0.02366018481552601, 0.13729175925254822, -0.002275069709867239, 