{"type": "afterstate-value-mlp", "version": 1, "inputSize": 215, "layers": [{"weight": [[0.0662015751004219, 0.054556574672460556, 0.017616285011172295, -0.14517658948898315, 0.0240572951734066, -0.1607154756784439, -0.06905826926231384, 0.041459765285253525, -0.0034390699584037066, -0.04044386371970177, -0.062415219843387604, 0.016007879748940468, -0.17905250191688538, -0.204983189702034, -0.12530933320522308, -0.1637279987335205, 0.023987578228116035, -0.02355005033314228, -0.022451333701610565, -0.0790574848651886, 0.041871577501297, 0.05950072407722473, -0.11596579104661942, -0.19743162393569946, -0.08549562096595764, -0.15344999730587006, 0.08575163781642914, 0.00934645626693964, -0.01850072294473648, -0.018330218270421028, 0.003169159172102809, 0.01738409325480461, -0.0009852355578914285, 0.022850364446640015, -0.0473841167986393, -0.10559114068746567, -0.019284680485725403, -0.1120855063199997, -0.028503747656941414, -0.052653372287750244, 0.004790946841239929, -0.08843587338924408, 0.025201428681612015, 0.037928808480501175, 0.0662785992026329, -0.017702076584100723, 0.04301900789141655, 0.024372654035687447, -0.07481339573860168, -0.040910765528678894, -0.05828964710235596, 0.026960289105772972, 0.04411395266652107, 0.012019596062600613, -0.04909180477261543, -0.03612907975912094, 0.08923584967851639, 0.04660358652472496, -0.043469712138175964, -0.05329969897866249, -0.039451468735933304, -0.008188142441213131, -0.041184183210134506, 0.027820464223623276, 0.06441503018140793, -0.11671321839094162, -0.01666027307510376, 0.07571890205144882, -0.0773017555475235, -0.15272347629070282, -0.06923972070217133, -0.0153780123218894, -0.0320466123521328, -0.06389086693525314, 0.030887745320796967, -0.09193558245897293, -0.016475282609462738, -0.059338249266147614, -0.049919214099645615, -0.06511785089969635, 0.00520490063354373, -0.016499314457178116, -0.05600973963737488, -0.07686398178339005, 0.08748769015073776, 0.041277822107076645, -0.03572707250714302, -0.013801167719066143, -0.06211598217487335, -0.05578841641545296, 0.017575344070792198, 0.03573842719197273, -0.013253913260996342, 0.02411196380853653, 0.002007643925026059, 0.029081445187330246, 0.058973997831344604, 0.023443596437573433, -0.006176060996949673, -0.046255938708782196, -0.13791348040103912, -0.0683721974492073, 0.00941841583698988, -0.00113679189234972, 0.01689651980996132, -0.019398877397179604, 0.06237160041928291, 0.11838039010763168, 0.05401243641972542, -0.017905287444591522, 0.033078718930482864, 0.044263340532779694, -0.0050481767393648624, -0.059965163469314575, 0.03785691782832146, 0.09593527019023895, -0.03896554931998253, -0.029596814885735512, 0.0033621718175709248, -0.14859721064567566, -0.021131226792931557, -0.10648950934410095, -0.0149256382137537, -0.026989324018359184, -0.03404833376407623, 0.06877438724040985, -0.026817986741662025, -0.04132840037345886, -0.025072524324059486, -0.03585045784711838, -0.059928860515356064, -0.11649565398693085, -0.014247817918658257, 0.06060086935758591, 0.0585428923368454, -0.045411646366119385, -0.08087393641471863, 0.0036208690144121647, -0.015812579542398453, -0.017277784645557404, -0.0918736532330513, -0.051936276257038116, -0.008728476241230965, -0.12573105096817017, 0.021731629967689514, -0.02458440139889717, 0.041520413011312485, 0.024268794804811478, -0.002464551944285631, 0.035626862198114395, 0.018501322716474533, 0.028283825144171715, -0.1080714538693428, -0.05973503738641739, 0.12490233778953552, 0.058036599308252335, -0.0009108622325584292, -0.07173170894384384, -0.06740725785493851, 0.014635550789535046, -0.05990058556199074, -0.002007613191381097, -0.0012399565894156694, -0.0503702387213707, 0.044126614928245544, -0.017229808494448662, -0.04319019615650177, -0.06033611297607422, -0.03270326927304268, -0.023267831653356552, 0.06803924590349197, -0.013254811987280846, -0.004772501066327095, -0.09700100123882294, -0.010177127085626125, 0.051665134727954865, -0.03513023257255554, -0.02119683474302292, -0.06670143455266953, 0.016734875738620758, 0.013159142807126045, 0.07663244754076004, -0.020114216953516006, 0.05187836289405823, 0.04160667583346367, 0.020435186102986336, 0.03178999572992325, 0.0019502455834299326, 0.025336220860481262, -0.06055915355682373, -0.012839145958423615, -0.039570607244968414, 0.06637004762887955, 0.04799778759479523, -0.015190096572041512, 0.05792475491762161, 0.07936527580022812, 0.08679486811161041, -0.051257241517305374, -0.02713683992624283, 0.12301257997751236, 0.025369567796587944, -0.026685280725359917, 0.021668920293450356, 0.03605895861983299, 0.006189890671521425, 0.05637912452220917, -0.013305678963661194, -0.1196150928735733, 0.0479557104408741, 0.0024021726567298174, -0.06373290717601776, -0.04839092865586281, -0.17377611994743347, -0.04499669745564461], [0.0232784915715456, -0.08947186917066574, -0.07955685257911682, -0.1173190101981163, -0.09420400857925415, 0.09133974462747574, 0.04412402957677841, -0.012596656568348408, 0.10182812809944153, -0.030538029968738556, 0.19773003458976746, -0.089873306453228, -0.06135209649801254, -0.00963527336716652, -0.002474780660122633, -0.007054934278130531, -0.14424939453601837, -0.015594917349517345, -0.18024767935276031, -0.19196517765522003, 0.054961975663900375, -0.08655556291341782, -0.15843874216079712, -0.10741760581731796, 0.06902270019054413, 0.049821652472019196, 0.07746682316064835, 0.11579088121652603, -0.09756200015544891, -0.035013679414987564, -0.11584940552711487, 0.03344414010643959, 0.09132234752178192, 0.06797471642494202, 0.05687818303704262, 0.027661394327878952, 0.03623993322253227, 0.15513832867145538, 0.11612541973590851, -0.049479737877845764, 0.1398574411869049, -0.001124110771343112, -0.030145134776830673, 0.015640458092093468, 0.061992496252059937, 0.13287915289402008, 0.05994779244065285, 0.09179128706455231, 0.06153838708996773, -0.058852504938840866, -0.09029622375965118, 0.02807026356458664, 0.016710182651877403, -0.013030638918280602, 0.0156764704734087, 0.02093156799674034, 0.13620109856128693, 0.09904693812131882, 0.061858732253313065, 0.0004964917316101491, 0.00603839848190546, 0.0086435591802001, 0.02858102135360241, 0.08912482112646103, 0.030104685574769974, -0.013972634449601173, 0.0722203180193901, 0.05681107938289642, -0.03324107453227043, -0.1467047482728958, -0.005722853355109692, -0.002110874280333519, 0.1277777999639511, 0.08454661071300507, 0.092795230448246, 0.02732136845588684, 0.11595165729522705, -0.009849433787167072, 0.07259750366210938, -0.008805557154119015, -0.08581260591745377, 0.016159797087311745, 0.07072252780199051, 0.09593266993761063, -0.06884337216615677, -0.13109681010246277, 0.026118019595742226, -0.1008419618010521, 0.07578921318054199, 0.07868458330631256, -0.130196675658226, 0.0082430150359869, 0.0893278643488884, 0.033402521163225174, -0.04056883603334427, -0.13179901242256165, -0.00538260443136096, 0.040849585086107254, 0.06211329996585846, 0.01742602325975895, -0.043862272053956985, -0.01129393931478262, 0.020793020725250244, -0.0077416799031198025, -0.002941339509561658, -0.10902346670627594, 0.07323665916919708, 0.019540028646588326, -0.03515738248825073, -0.07380975782871246, 0.015575059689581394, -0.1131938099861145, -0.022144870832562447, 0.0044944752007722855, 0.011551575735211372, -0.0012302580289542675, 0.01041555218398571, -0.04556597024202347, 0.12349440902471542, -0.08075723052024841, 0.06834470480680466, 0.026154031977057457, -0.04053118824958801, -0.03419947624206543, 0.058811504393815994, 0.038678646087646484, -0.06695764511823654, 0.05589832365512848, 0.036054257303476334, -0.07348239421844482, 0.12406065315008163, -0.05991778150200844, -0.06757151335477829, -0.07574161887168884, 0.02066403441131115, -0.09214216470718384, 0.04540962353348732, -0.12889742851257324, -0.07099136710166931, -0.005084044765681028, -0.006948035676032305, 0.013035514391958714, -0.051767073571681976, -0.02581552043557167, -0.08642306923866272, 0.04504761844873428, 0.08429988473653793, -0.031664952635765076, 0.023245980963110924, -0.014403275214135647, 0.004333385266363621, -0.07665682584047318, -0.11687822639942169, 0.01644301787018776, 0.059823740273714066, 0.025178302079439163, -0.011566038243472576, 0.00011415972403483465, -0.023012401536107063, -0.09954896569252014, 0.011278881691396236, 0.00864686630666256, -0.008451439440250397, 0.0381445437669754, 0.017439888790249825, 0.030768664553761482, -0.04972727596759796, -0.03384804353117943, 0.03023318201303482, -0.09688950330018997, 0.012405422516167164, -0.042376112192869186, -0.05504089221358299, -0.014745103195309639, -0.0652022585272789, 0.08912042528390884, -0.03820061311125755, -0.13999074697494507, 0.06073747202754021, 0.012701352126896381, 0.0062937550246715546, 0.051752980798482895, -0.0021861055865883827, 0.0588269978761673, -0.06721508502960205, -0.06369592994451523, -0.010943320579826832, 0.016168417409062386, -0.07859021425247192, 0.08752807229757309, -0.023342378437519073, -0.0522858202457428, -0.05344760790467262, 0.09698481857776642, -0.05805615708231926, 0.07210785150527954, 0.018812842667102814, -0.02551305666565895, -0.11792045831680298, 0.05890122056007385, 0.0637950524687767, 0.02828555554151535, -0.026477621868252754, -0.10730864107608795, -0.010914078913629055, -0.028332388028502464, -0.06411115825176239, 0.11402285844087601, 0.03285122662782669, -0.00883486308157444, 0.08856543153524399, 0.13119138777256012, 0.06560003012418747, 0.0731220468878746, 0.016588697209954262], [0.016216659918427467, 0.05649358034133911, 0.10850641131401062, 0.037187423557043076, 0.0057693906128406525, 0.02306623011827469, 0.015139715746045113, 0.020303867757320404, -0.047455109655857086, 0.008539272472262383, 0.11438117176294327, 0.03627896308898926, 0.13995584845542908, 0.046745896339416504, -0.020865313708782196, 0.07386517524719238, 0.07723164558410645, 0.0783790573477745, 0.07778074592351913, 0.1348280906677246, -0.010263714008033276, -0.012282315641641617, 0.04149419441819191, 0.05011582747101784, 0.0016594957560300827, -0.005143133457750082, -0.051755473017692566, -0.04327238351106644, 0.03779451176524162, -0.02863513119518757, 0.09020011872053146, -0.05026055499911308, 0.08684422075748444, -0.013542810454964638, 0.07993479818105698, 0.061844825744628906, -0.03282211348414421, 0.07151730358600616, 0.03691064566373825, -0.009157709777355194, -0.015386493876576424, 0.045631326735019684, -0.0001944749674294144, -0.005704193841665983, 0.04888436943292618, -0.056233227252960205, -0.023302920162677765, -0.014097913168370724, 0.03494245186448097, 0.07427976280450821, 0.07785580307245255, 0.013857739046216011, 0.03433756157755852, 0.03907346725463867, -0.03905570134520531, -0.04524736851453781, 0.056824684143066406, -0.01892435923218727, 0.07096555083990097, 0.04912740737199783, 0.050537317991256714, 0.010584976524114609, -0.013308613561093807, 0.061653491109609604, 0.043746739625930786, -0.012929779477417469, 0.0662553608417511, 0.011905957013368607, 0.0571247823536396, -0.05254839360713959, 0.028754180297255516, 0.07324428856372833, 0.030625581741333008, 0.06528323888778687, 0.0668417438864708, 0.024423489347100258, 0.08515943586826324, -0.005333615001291037, 0.03658907860517502, -0.019482461735606194, -0.04681287705898285, 0.002766255522146821, -0.005184795707464218, 0.05254514142870903, 0.06686972826719284, 0.01248325128108263, 0.04681301489472389, -0.01738480105996132, 0.031960826367139816, -0.016200613230466843, 0.054153554141521454, -0.033294957131147385, 0.07365983724594116, 0.026293175294995308, -0.013480069115757942, -0.03341103345155716, -0.03316040709614754, -0.024280155077576637, -0.015884490683674812, -0.00711017195135355, 0.06865280866622925, 0.011010424233973026, 0.04581495001912117, 0.07296408712863922, 0.06688166409730911, -0.037836119532585144, -0.009958130307495594, 0.06741243600845337, -0.007001201622188091, 0.04247573763132095, -0.0286968145519495, 0.06532580405473709, -0.031098589301109314, -0.0005209988448768854, 0.004844593349844217, 0.00970099400728941, 0.06238739565014839, 0.03827005624771118, 0.05501219630241394, -0.06686538457870483, 0.060960620641708374, -0.06122588738799095, 0.019971318542957306, -0.03064444661140442, 0.06324125081300735, -0.027574805542826653, -0.03763280436396599, 0.0639914721250534, -0.017135698348283768, 0.0063455915078520775, -0.019647328183054924, 0.032597098499536514, -0.009294142946600914, -0.02846972830593586, 0.04405737295746803, -0.0070991478860378265, 0.015257216989994049, -0.03339441865682602, 0.046089187264442444, 0.04408460110425949, -0.0292449202388525, 0.039370909333229065, 0.03754999861121178, 0.0003408482298254967, 0.015153826214373112, 0.03206103667616844, 0.03583574667572975, 0.07780502736568451, -0.013700542971491814, 0.029063113033771515, 0.06262275576591492, 0.029461368918418884, -0.05055239424109459, -0.008425199426710606, 0.016915615648031235, -0.023332394659519196, 0.01144615188241005, -0.028715765103697777, 0.0484057180583477, 0.03684871271252632, 0.013909048400819302, 0.01167960837483406, 0.010047121904790401, -0.025137590244412422, 0.01348635833710432, 0.005703809671103954, 0.0758998841047287, 0.020422378554940224, -0.05636654421687126, 0.04967601224780083, 0.009401262737810612, 0.04525107145309448, -0.008979536592960358, 0.0210703294724226, -0.019984962418675423, 0.06664226204156876, -0.00027494359528645873, -0.02736147679388523, 0.049566738307476044, -0.027937952429056168, -0.020711418241262436, 0.03775031119585037, -0.005280209705233574, -0.056270163506269455, -0.05289340019226074, 0.10081454366445541, -0.02293212339282036, 0.03612258657813072, 0.045400846749544144, 0.011021818965673447, -0.0069671617820858955, -0.01050750631839037, -0.050044283270835876, 0.02729267068207264, 0.06445284187793732, 0.07002302259206772, 0.0025063161738216877, 0.061887942254543304, 0.04260292276740074, -0.04355965927243233, 0.044575970619916916, 0.0926445797085762, 0.0550115630030632, 0.13394789397716522, 0.08909273147583008, 0.05358784645795822, 0.00342774111777544, -0.11417675018310547, 0.2812247574329376, 0.08447888493537903, 0.17004910111427307, 0.09542177617549896, -0.022739078849554062, 0.2711763083934784, -0.006659365724772215], [0.1830189973115921, -0.25571897625923157, 0.1632796823978424, -0.034493494778871536, -0.25200971961021423, 0.24853041768074036, 0.07388542592525482, -0.05464615300297737, 0.05937191843986511, 0.029436854645609856, -0.10678692162036896, 0.030018620193004608, 0.11781159788370132, 0.192052960395813, 0.06263509392738342, 0.3918423354625702, 0.010435538366436958, -0.10823503881692886, 0.07361848652362823, -0.04818318039178848, -0.1270236372947693, 0.031441885977983475, 0.015591837465763092, 0.13978087902069092, 0.006054833997040987, 0.07453591376543045, -0.006904054898768663, -0.15229715406894684, 0.06690116226673126, -0.010945629328489304, 0.07144670188426971, 0.09578109532594681, 0.016333546489477158, 0.03489761799573898, -0.0704570785164833, -0.07189721614122391, 0.024639548733830452, -0.01990562491118908, 0.09924391657114029, -0.018965156748890877, -0.03044789284467697, -0.004413124639540911, 0.05142040178179741, 0.10357357561588287, -0.04956195503473282, 0.04462529346346855, 0.09806817024946213, -0.019889941439032555, -0.06630396097898483, 0.036756131798028946, 0.06754927337169647, 0.0216787401586771, 0.005483337678015232, 0.021174632012844086, 0.04218504577875137, 0.046015720814466476, 0.18440134823322296, 0.0568864606320858, 0.12211179733276367, 0.00876762717962265, 0.027497773990035057, 0.039973486214876175, 0.08795637637376785, 0.03138022869825363, 0.00979628600180149, 0.07641173154115677, 0.0893850326538086, 0.05644665285944939, 0.04148269444704056, 0.09913171082735062, 0.026818344369530678, 0.013034912757575512, 0.0972580835223198, -0.07574456930160522, 0.10913283377885818, 0.04529327526688576, 0.09414095431566238, 0.05061675235629082, 0.060327351093292236, 0.002510471036657691, 0.04043025150895119, 0.07861307263374329, -0.0287309642881155, 0.017227470874786377, -0.025042235851287842, 0.05546453967690468, 0.060433272272348404, 0.014315682463347912, 0.03942443057894707, -0.02681129425764084, 0.11166784912347794, -0.043320510536432266, -0.015931975096464157, 0.08378016948699951, 0.09591302275657654, -0.05593309551477432, 0.0027272948063910007, 0.052441418170928955, -0.006413133814930916, 0.005325350910425186, 0.05285770073533058, 0.037737417966127396, -0.009193193167448044, 0.04859446361660957, 0.06720978021621704, -0.018678490072488785, 0.07039713859558105, 0.02655697427690029, -0.001325844437815249, -0.027530649676918983, 0.022646622732281685, 0.08146755397319794, 0.04850158840417862, 0.006952044554054737, 0.1505776196718216, 0.01874418929219246, -0.026849625632166862, -0.0021455034147948027, 0.004175915848463774, -0.057930681854486465, 0.11178752034902573, 0.02853255160152912, -0.013349013403058052, -0.05542001128196716, -0.012202486395835876, 0.08491695672273636, 0.03278641030192375, 0.06723561137914658, -0.03635258227586746, -0.017575737088918686, -0.017885003238916397, 0.020861918106675148, 0.011408992111682892, 0.03937934711575508, -0.04094669967889786, 0.04183943569660187, 0.06842320412397385, 0.07909661531448364, 0.028423834592103958, -0.018348459154367447, 0.00774381123483181, -0.0703015848994255, 0.009818123653531075, 0.03782891109585762, 0.0004369229427538812, 0.024916822090744972, -0.021507497876882553, 0.017985869199037552, -0.025747308507561684, 0.02255430817604065, 0.04041806235909462, -0.030320318415760994, -0.05538198724389076, 0.01583942212164402, 0.03085709549486637, -0.007806207984685898, -0.014581580646336079, 0.04694213345646858, -0.08117914944887161, 0.05503352731466293, 0.04422420635819435, -0.06272111088037491, 0.03900136798620224, 0.0036419727839529514, -0.05341530591249466, -0.0008094373624771833, 0.04544888809323311, 0.0381135530769825, 0.031972888857126236, 0.04958759620785713, -0.03429762274026871, 0.0735301673412323, 0.06157759204506874, 0.030028928071260452, 0.026036947965621948, -0.011044403538107872, -0.03647785633802414, 0.006239645648747683, 0.022984758019447327, 0.004226988181471825, 0.057299625128507614, -0.0529649443924427, 0.011804649606347084, 0.03668282553553581, -0.05207246541976929, -0.0712207555770874, -0.028948962688446045, 0.02569527179002762, -0.09216085076332092, -0.03783833235502243, 0.05163849890232086, 0.15255527198314667, 0.016273673623800278, -0.028918668627738953, -0.026182621717453003, 0.07893135398626328, -0.041185785084962845, 0.00033399235690012574, -0.05196773633360863, -0.004026505164802074, -0.05618061497807503, 0.010567010380327702, -0.01552689727395773, 0.009329380467534065, -0.007621927186846733, 0.04283636808395386, -0.037518732249736786, 0.2259027063846588, -0.19423705339431763, -0.07165509462356567, -0.13319769501686096, -0.07755991071462631, 0.0006067966460250318, -0.13717137277126312, -0.0017514047212898731], [-0.009509368799626827, -0.0010928278788924217, 0.070477694272995, -0.12016523629426956, -0.13178673386573792, -0.042414914816617966, -0.048822175711393356, -0.0390913225710392, -0.047211747616529465, 0.006560546346008778, 0.014741496182978153, -0.01738431677222252, 0.023173341527581215, -0.15299449861049652, -0.13557584583759308, -0.08950960636138916, -0.03865942731499672, -0.03940221294760704, -0.07224501669406891, -0.004097397904843092, -0.007255355827510357, -0.03146064281463623, -0.0006451266817748547, 0.0033628903329372406, -0.11749790608882904, -0.054320089519023895, -0.09029874205589294, -0.03876263275742531, 0.08527526259422302, 0.0506405383348465, 0.1298200488090515, 0.044117119163274765, -0.01070436928421259, -0.04732871428132057, -0.03553806245326996, -0.038747288286685944, 0.01880643144249916, -0.05053785443305969, -0.07576501369476318, -0.09367935359477997, 0.032345000654459, 0.05000729486346245, -0.0032349114771932364, -0.0002196161512983963, -0.013499848544597626, -0.023037079721689224, 0.04409131035208702, -0.035926125943660736, -0.08019819855690002, -0.0504712276160717, 0.08062508702278137, -0.02790980227291584, -0.07114361971616745, 0.054542481899261475, 0.02779771201312542, -0.04493394494056702, -0.04820054769515991, -0.03603295609354973, 0.02212454006075859, 0.05166887864470482, -0.05364824831485748, 0.004034282173961401, 0.04913622513413429, -0.01196946483105421, 0.009865990839898586, 0.0030682929791510105, 0.037962205708026886, -0.045271486043930054, 0.059904322028160095, 0.12765905261039734, 0.07054418325424194, 0.031304895877838135, -0.022494297474622726, 0.06410131603479385, 0.01929475925862789, -0.014462404884397984, 0.02536950446665287, 0.0035676572006195784, -0.0008283546776510775, 0.030720718204975128, 0.05033783242106438, -0.008729854598641396, 0.04929409921169281, -0.01772097498178482, 0.022035827860236168, 0.05884949490427971, 0.08309410512447357, 0.03300222381949425, 0.0012350567849352956, 0.12109100818634033, -0.02717183344066143, 0.07192900031805038, -0.02447495050728321, -0.021080641075968742, 0.0760793536901474, -0.043675508350133896, 0.043990105390548706, -0.02464674413204193, -0.028038837015628815, -0.05258551985025406, -0.023512521758675575, 0.07936936616897583, -0.0023138809483498335, 0.0310622900724411, 0.08717957139015198, 0.0398910790681839, 0.06949040293693542, 0.06401681900024414, 0.012427479028701782, -0.013663490302860737, 0.10891515016555786, 0.032510824501514435, 0.03533903509378433, -0.014557677321135998, 0.013966652564704418, 0.04115593433380127, 0.011837605386972427, -0.005011207889765501, 0.1131083071231842, -0.06390576809644699, 0.035022035241127014, -0.01483698096126318, 0.07913168519735336, 0.06646761298179626, -0.012255268171429634, 0.08613421022891998, 0.057423185557127, 0.028103318065404892, 0.012956470251083374, -0.02183956652879715, 0.07171366363763809, 0.07150363177061081, 0.08885657042264938, 0.01972232013940811, 0.0844963788986206, 0.08965495228767395, -0.021275408565998077, -0.009399980306625366, -0.015065975487232208, 0.010469594039022923, 0.03710423409938812, 0.01374383457005024, 0.03482891246676445, 0.0011838051723316312, 0.048816978931427, 0.0021202857606112957, 0.10445519536733627, 0.10070556402206421, 0.04896034672856331, -0.009794266894459724, -0.0066053858026862144, -0.008645126596093178, 0.05003207176923752, -0.03304467350244522, 0.060923393815755844, 0.05128461867570877, -0.042309653013944626, 0.08572349697351456, 0.0067916312254965305, 0.08179312199354172, -0.005697173066437244, 0.07895825058221817, 0.024879954755306244, 0.055449243634939194, 0.02765559032559395, -0.012850937433540821, 0.02479819767177105, 0.012738732621073723, -0.06188855320215225, 0.03511630371212959, 0.0038307756185531616, 0.08730427920818329, 0.04333826154470444, 0.011763243936002254, 0.02483546920120716, 0.0253509022295475, 0.029778163880109787, 0.08273793756961823, 0.06292527914047241, 0.029731744900345802, 0.022117257118225098, 0.08755289018154144, 0.007252509705722332, 0.04124882072210312, 0.030429357662796974, 0.039327457547187805, 0.05710165947675705, 0.06789477914571762, 0.06738453358411789, 0.05411233752965927, 0.04802475497126579, 0.005694416351616383, 0.0554017573595047, 0.03902708739042282, -0.003488181857392192, 0.06573153287172318, 0.02807391807436943, -0.044977329671382904, 0.04982827603816986, 0.022639919072389603, 0.024346044287085533, 0.00893209408968687, -0.053015779703855515, 0.10508700460195541, 0.06502984464168549, 0.020774783566594124, 0.1073678657412529, -0.2069185972213745, 0.308660626411438, 0.09969044476747513, 0.08121643215417862, 0.1607673317193985, -0.05426652729511261, 0.25608885288238525, 0.057510994374752045], [0.029734814539551735, -0.0014127768808975816, -0.02012534998357296, 0.006930483505129814, 0.08006144315004349, 0.11974399536848068, 0.13806316256523132, 0.14396603405475616, -0.16082586348056793, 0.04602210968732834, 0.020566541701555252, 0.10257517546415329, 0.034996774047613144, 0.08909768611192703, 0.1398358792066574, 0.2396961748600006, 0.17597469687461853, 0.1311853528022766, 0.09862853586673737, 0.03735695779323578, 0.008110524155199528, -0.024139463901519775, 0.06733570247888565, 0.26819607615470886, 0.141285702586174, 0.25394368171691895, 0.04020560532808304, 0.046690378338098526, -0.08096200227737427, -0.04056377336382866, -0.10655670613050461, 0.054234184324741364, 0.12309645116329193, 0.14681680500507355, 0.13620974123477936, 0.22109001874923706, -0.024301761761307716, 0.14369791746139526, 0.17995160818099976, 0.03287339210510254, 0.13241633772850037, 0.14889445900917053, 0.11339183151721954, 0.10016771405935287, 0.03471459448337555, 0.12795418500900269, 0.05389287695288658, 0.1363149732351303, 0.14976388216018677, 0.09359005093574524, 0.052415091544389725, 0.06444042176008224, 0.09027928858995438, 0.11174523085355759, 0.10075149685144424, 0.17077717185020447, 0.1372266411781311, 0.10555940866470337, 0.09617500007152557, 0.03737044706940651, 0.00915513839572668, 0.025957075878977776, 0.10141563415527344, 0.06349249184131622, 0.10583547502756119, 0.07887054979801178, 0.06618643552064896, 0.0896017774939537, 0.028678564354777336, -0.07096555083990097, -0.12772223353385925, 0.06539905816316605, 0.0805487111210823, 0.20160971581935883, 0.006585156545042992, 0.1092122346162796, 0.08453778177499771, 0.12182684987783432, 0.02913997508585453, 0.022874362766742706, 0.0040260497480630875, 0.11033138632774353, 0.0462895967066288, 0.19059930741786957, -0.07759753614664078, -0.0145247932523489, 0.02185586653649807, 0.07846427708864212, 0.09131081402301788, 0.0268477201461792, 0.011020571924746037, 0.034754980355501175, 0.0780811607837677, 0.037051111459732056, 0.076121486723423, 0.0853731706738472, 0.08359653502702713, -0.01136428490281105, 0.04320603609085083, 0.044013310223817825, -0.04971577599644661, 0.11213374882936478, 0.09484508633613586, 0.025517672300338745, 0.02185436338186264, 0.03303547203540802, -0.021237090229988098, 0.02016182616353035, 0.018611984327435493, -0.02556004375219345, 0.04078228399157524, -0.02099975384771824, 0.044315531849861145, 0.005931364372372627, -0.01704990677535534, 0.04049445316195488, 0.02819717302918434, 0.019860535860061646, -0.018952714279294014, 0.011835325509309769, 0.11650168150663376, -0.02400597371160984, -0.04247662425041199, -0.018916072323918343, 0.011529859155416489, 0.10791820287704468, -0.01713317446410656, 0.04370123893022537, -0.06869510561227798, -0.028168071061372757, 0.02462364174425602, 0.0030027099419385195, 0.04783650115132332, 0.014741180464625359, 0.03401356562972069, -0.0300674457103014, 0.010154793970286846, -0.013845889829099178, -0.017129825428128242, 0.044904422014951706, -0.001657132524996996, 0.017799396067857742, -0.001075690845027566, -0.0073876031674444675, 0.01375716831535101, 0.02036333456635475, -0.11672370880842209, 0.005348958075046539, 0.1002102941274643, 0.07399730384349823, -0.022493503987789154, -0.002733611036092043, -0.014357063919305801, 0.04763048514723778, 0.11403185874223709, 0.003782199928537011, 0.04827066883444786, 0.05865100398659706, 0.008113168179988861, -0.05887139216065407, 0.10403341054916382, 0.05416348949074745, -0.014413789846003056, -0.04644675552845001, 0.08858340233564377, 0.01619461551308632, 0.018717149272561073, 0.06647732853889465, 0.016729531809687614, -0.05879172682762146, -0.03769208490848541, -0.004150418099015951, -0.025940066203475, 0.060453154146671295, 0.018321776762604713, -0.04002469778060913, 0.017164917662739754, 0.03584640473127365, -0.036972858011722565, 0.037945039570331573, -0.047632236033678055, -0.08413563668727875, -0.0031419170554727316, 0.06102856621146202, -0.051778413355350494, 0.013718312606215477, -0.09313967823982239, 0.02058098465204239, -0.053024210035800934, -0.09081251919269562, 0.08962143212556839, 0.023709632456302643, 0.0022426974028348923, -0.09836879372596741, 0.021923327818512917, -0.021969471126794815, 0.05274011939764023, 0.0636671632528305, -0.01422673836350441, -0.07057449221611023, -0.06964673101902008, -0.06856372952461243, -0.09323275089263916, -0.0876854732632637, -0.05056596174836159, -0.15554913878440857, -0.05794011801481247, 0.09991941601037979, -0.025021247565746307, -0.08052876591682434, -0.013151489198207855, -0.09608085453510284, 0.038490939885377884, 0.12563304603099823, 0.03890347480773926], [0.07581793516874313, -0.009941360913217068, 0.04272300377488136, 0.003174575511366129, 0.009857242926955223, -0.027726992964744568, 0.029786327853798866, 0.07177914679050446, -0.044397983700037, 0.002172788605093956, 0.12347213178873062, 0.07005102187395096, 0.05999366194009781, -0.052759844809770584, -0.05778152123093605, -0.09309480339288712, -0.07119254022836685, 0.02533147856593132, -0.0405118465423584, -0.03604832664132118, 0.07761761546134949, -0.011313681490719318, 0.06339093297719955, 0.059450775384902954, -0.045685142278671265, -0.021952152252197266, 0.03274744749069214, -0.03180460259318352, 0.02450692467391491, -0.03346753120422363, 0.13731291890144348, -0.0085974195972085, 0.041958387941122055, -0.022277645766735077, -0.0477563850581646, -0.01130844559520483, -0.017208198085427284, -0.038890935480594635, -0.08324696123600006, -0.0807582437992096, -0.025124339386820793, 0.06083787977695465, -0.01504585426300764, 0.040920622646808624, -0.01307298056781292, -0.025824012234807014, 0.059269748628139496, 0.04782504588365555, -0.020586272701621056, -0.0568060539662838, -0.054652564227581024, -0.009831897914409637, -0.035219453275203705, 0.04150289669632912, -0.0900033488869667, -0.0002413631445961073, 0.05501265078783035, -0.04063768684864044, -0.02990698255598545, 0.059438299387693405, 0.027332419529557228, 0.06732738018035889, 0.06485337764024734, 0.06690177321434021, 0.03851664066314697, 0.048223625868558884, 0.08757559210062027, 0.03487700968980789, -0.05751379206776619, 0.0687929168343544, 0.11508341133594513, -0.030446335673332214, 0.03806447237730026, -0.0233178548514843, -0.00016781043086666614, -0.00025115610333159566, -0.03975639119744301, -0.006940723862498999, 0.030458634719252586, -0.013965453021228313, 0.029102390632033348, 0.017534971237182617, 0.009107190184295177, 0.04697718843817711, 0.03881974145770073, 0.06436637043952942, 0.054621823132038116, 0.029342172667384148, 0.02422848343849182, 0.03745565190911293, -0.013628029264509678, 0.04072944447398186, -0.002937723184004426, -0.03792693093419075, 0.08283805102109909, 0.05079074203968048, 0.028405271470546722, -0.017809893935918808, -0.029803236946463585, -0.0742698386311531, -0.017917681485414505, -0.017426934093236923, -0.0228293314576149, 0.10185904055833817, 0.00036098825512453914, 0.04466921463608742, 0.04692726954817772, 0.08452937006950378, -0.01390568632632494, -0.06237342581152916, 0.042534854263067245, -0.04504982382059097, 0.016964999958872795, 0.000677666044794023, -0.035834405571222305, 0.07892875373363495, 0.03593961521983147, -0.000723795616067946, 0.004423781763762236, 0.0012922147288918495, -0.0791153535246849, -0.054323550313711166, 0.036961570382118225, -0.01684861071407795, -0.031345680356025696, 0.001652382081374526, 0.06054732948541641, 0.07754151523113251, 0.05605101212859154, -0.07654742151498795, 0.024832788854837418, -0.045759014785289764, -0.07167013734579086, -0.06360945105552673, 0.052254945039749146, 0.09422288089990616, 0.05854368582367897, -0.04666414484381676, 0.05218052119016647, -0.06278910487890244, 0.020871290937066078, -0.04057871922850609, 0.04400910064578056, -0.009169687516987324, 0.06541376560926437, -0.0584351010620594, 0.0712975338101387, 0.0938710942864418, 0.06308048963546753, 0.06717265397310257, -0.06297919899225235, -0.02362229861319065, 0.0002573407255113125, -0.055518291890621185, 0.0542156957089901, -0.042319998145103455, 0.02312958426773548, -0.003959656227380037, 0.07805001735687256, -0.06502146273851395, 0.05951976403594017, 0.021978242322802544, 0.026109591126441956, -0.04174056649208069, 0.02298356406390667, -0.06424220651388168, -0.01047942228615284, 0.054870378226041794, -0.02473670244216919, 0.028530245646834373, -0.03150024637579918, -0.030442889779806137, 0.016222860664129257, 0.025890395045280457, 0.056795116513967514, 0.017726633697748184, 0.01808972842991352, 0.026320382952690125, -0.049151744693517685, 0.00027581414906308055, 0.010202041827142239, 0.02167971432209015, -7.237826503114775e-05, -0.015271665528416634, 0.008190205320715904, 0.08303568512201309, 0.08210986107587814, 0.09782666712999344, 0.07250689715147018, 0.01835140399634838, 0.021524889394640923, -0.038280658423900604, -0.017558054998517036, 0.059786710888147354, 0.0026493980549275875, -0.0224149189889431, 0.042688023298978806, -0.04542660340666771, 0.02037963829934597, 0.031253546476364136, 0.10088866204023361, 0.02038382925093174, 0.11477655172348022, 0.09301735460758209, 0.010237306356430054, 0.11531628668308258, 0.026837263256311417, -0.08573903143405914, 0.17532096803188324, 0.05542631447315216, 0.03654879704117775, 0.17003777623176575, -0.006452235393226147, 0.10410629212856293, -0.0005987093900330365], [0.18730567395687103, -0.04657623544335365, 0.033433735370635986, 0.01625630259513855, -0.05553210899233818, 0.12384674698114395, 0.04905824735760689, -0.05815538763999939, -0.0355508029460907, -0.038491640239953995, 0.005203331355005503, 0.11954430490732193, 0.07810476422309875, 0.05289256200194359, 0.16464537382125854, 0.2145192176103592, 0.035233497619628906, 0.023728208616375923, 0.008485249243676662, 0.015532929450273514, -0.03135799616575241, 0.07877528667449951, -0.009812654927372932, 0.02230987511575222, 0.05563291907310486, 0.00896428618580103, -0.03930774703621864, -0.09986340254545212, -0.060034941881895065, -0.0662216916680336, -0.11837323755025864, 0.06920479238033295, -0.05504446476697922, 0.0005235215649008751, -0.00963488221168518, 0.12491694837808609, 0.052071209996938705, -0.034054700285196304, 0.04794672131538391, 0.0053979321382939816, 0.04790272191166878, 0.03391147404909134, 0.05250582844018936, -0.019317490980029106, -0.07665754854679108, 0.11603635549545288, 0.08308801800012589, -0.06646179407835007, 0.03776133432984352, 0.02208046242594719, -0.044169701635837555, 0.007932456210255623, -0.009391148574650288, -0.04137428104877472, -0.04617574065923691, 0.06588971614837646, 0.08090943843126297, 0.0681612491607666, 0.04664715379476547, -0.06775522977113724, 0.08581218868494034, -0.10559351742267609, -0.004954555071890354, -0.07198009639978409, -0.09527517855167389, 0.10670413076877594, 0.07589662075042725, 0.00791726540774107, 0.01910211145877838, 0.02947637066245079, -0.07038990408182144, 0.03874332830309868, 0.0010261876741424203, 0.031879723072052, 0.03037252090871334, 0.02144738659262657, 0.07798511534929276, 0.026397619396448135, -0.09982823580503464, -0.038053881376981735, 0.12545163929462433, -0.058577634394168854, -0.056315090507268906, 0.010797913186252117, -0.111199751496315, -0.07248083502054214, 0.04938390105962753, 0.010942121036350727, 0.0349372997879982, -0.046455156058073044, 0.05327337235212326, -0.16811445355415344, -0.10394087433815002, 0.039358437061309814, 0.04162238910794258, 0.07878220826387405, 0.10087401419878006, -0.010057746432721615, 0.027753759175539017, 0.08425801247358322, 0.055537234991788864, 0.013806506991386414, -0.03770987689495087, -0.09336221218109131, 0.03241816163063049, -0.10179521143436432, 0.04355112090706825, 0.022183846682310104, 0.08826097100973129, 0.110493965446949, 0.02768690325319767, -0.004008376970887184, -0.007570044603198767, -0.05867019295692444, -0.008243486285209656, 0.017976565286517143, 0.04185953736305237, -0.04192008450627327, 0.004359439946711063, 0.0169513076543808, -0.022166579961776733, -0.029727937653660774, 0.04868265613913536, -0.07349555194377899, -0.10463853925466537, -0.1292870044708252, -0.08133914321660995, 0.09230226278305054, 0.020390687510371208, -0.050931960344314575, -0.05783075839281082, 0.022869883105158806, -0.01611044630408287, 0.025509007275104523, 0.038495030254125595, -0.08391372859477997, -0.05335771664977074, -0.07696647197008133, 0.03170029819011688, 0.009959696792066097, 0.06748016923666, -0.10869169235229492, -0.03327801823616028, 0.0978059470653534, 0.014984415844082832, 0.005378458648920059, 0.02227279357612133, 0.007823160849511623, -0.09118862450122833, 0.012303208000957966, 0.013384345918893814, -0.10659129172563553, 0.009061343967914581, 0.12194764614105225, 0.026939166709780693, 0.006906165741384029, 0.09128251671791077, 0.033970221877098083, 0.06642108410596848, -0.009726938791573048, 0.06992670893669128, 0.049920644611120224, -0.07524264603853226, 0.037424977868795395, -0.021025246009230614, -0.16151778399944305, 0.017630640417337418, -0.066056989133358, 0.036563940346241, -0.04425915330648422, 0.09146962314844131, -0.09772344678640366, -0.07354540377855301, 0.07537813484668732, 0.05313298851251602, -0.004616705700755119, 0.00422078650444746, -0.0685119777917862, -0.033543460071086884, 0.020501472055912018, -0.0008090327610261738, -0.054703470319509506, -0.08353686332702637, 0.0023348028771579266, 0.03585619106888771, -0.05654105916619301, -0.004478860180824995, -0.006372326053678989, -0.015351769514381886, 0.04578263312578201, 0.05302630737423897, 0.03841733559966087, -0.01085865218192339, 0.04654313623905182, -0.0829545259475708, 0.023051386699080467, 0.053966499865055084, -0.09335292130708694, -0.07546042650938034, -0.05834241583943367, -0.07055319845676422, -0.01489126868546009, -0.005015596281737089, -0.06314560770988464, 0.021773800253868103, 0.0060218460857868195, -0.06212620809674263, -0.11705199629068375, -0.03195502981543541, 0.026427526026964188, 0.03689887374639511, -0.08371396362781525, -0.0465015172958374, -0.07840172946453094, -0.034231774508953094], [-0.08196406811475754, 0.08005396276712418, 0.06192672997713089, -0.005976059008389711, -0.04718805477023125, -0.14607320725917816, 0.04979115352034569, 0.020707981660962105, 0.02046704664826393, -0.065643310546875, 0.05961635708808899, -0.03837854042649269, -0.049935441464185715, -0.04619430750608444, -0.13671976327896118, -0.142442986369133, 0.004004343878477812, 0.04325864091515541, -0.013874895870685577, 0.0028643144760280848, 0.06416139751672745, -0.051389824599027634, -0.013690791092813015, -0.0504697747528553, -0.05842761695384979, -0.04666280001401901, -0.05083796754479408, 0.05260465666651726, 0.10686290264129639, 0.058009762316942215, 0.07736116647720337, 0.014357315376400948, 0.001598832313902676, -0.08487849682569504, 0.037409331649541855, 0.007676656823605299, -0.05553117021918297, -0.05000126734375954, -0.029938282445073128, -0.07141505181789398, -0.01559543889015913, 0.0033237263560295105, -0.06295543164014816, -0.033096883445978165, -0.018224874511361122, 0.07025188952684402, 0.015377659350633621, 0.021615566685795784, -0.02207179181277752, -0.08078506588935852, -0.013594157993793488, -0.0402824692428112, -0.03244510665535927, -0.03709574043750763, -0.0036719043273478746, 0.012667517177760601, 0.044334087520837784, 0.05106121674180031, -0.04246934503316879, 0.07852884382009506, -0.007926407270133495, 0.062269292771816254, 0.04205353930592537, -0.05747473984956741, -0.03377038240432739, -0.00809908751398325, -0.056171711534261703, 0.00873375404626131, 0.013857511803507805, 0.049488093703985214, -0.00032997873495332897, 0.03693004697561264, 0.014663931913673878, 0.031124288216233253, -0.06215684488415718, -0.019663963466882706, -0.059813547879457474, 0.03689831867814064, 0.09278441965579987, -0.03609006851911545, -0.04040336236357689, 0.02879287116229534, -0.021741334348917007, 0.022248560562729836, -0.028311872854828835, 0.028296055272221565, 0.029689423739910126, 0.0317455530166626, 0.008967883884906769, -0.0059678759425878525, 0.03864262253046036, 0.009454424493014812, -0.01598597690463066, -0.028390176594257355, 0.031379733234643936, -0.019319113343954086, 0.04868445172905922, 0.04407414048910141, 0.05971592292189598, -0.03645186871290207, 0.005560585763305426, 0.008939619176089764, -0.017927857115864754, -0.03532683849334717, 0.0024675275199115276, 0.0832814872264862, -0.02222640998661518, 0.03326288238167763, 0.005968445912003517, 0.02179519645869732, 0.09660407900810242, 0.03622116148471832, 0.00787952821701765, 0.01610693521797657, -0.04625179246068001, 0.03660864382982254, 0.05189867690205574, 0.045816387981176376, 0.014580619521439075, -0.03912527859210968, -0.002946545137092471, 0.016052603721618652, 0.005572143942117691, 0.01514357328414917, -0.010947476141154766, 0.005608672741800547, 0.03211306780576706, 0.09034113585948944, 0.050293512642383575, 0.059637509286403656, 0.033452488481998444, 0.05942343547940254, 0.00042388594010844827, -0.05253132805228233, 0.003252298105508089, 0.004920462612062693, -0.04275256767868996, 0.014725401997566223, 0.004740490112453699, 0.020086152479052544, -0.026600703597068787, 0.0719221755862236, 0.08835463225841522, 0.05837821587920189, 0.08784438669681549, -0.04927517846226692, 0.02588016912341118, 0.03481961786746979, 0.028939316049218178, 0.08603745698928833, 0.07497361302375793, 0.043905604630708694, 0.008493642322719097, -0.004802885465323925, 0.01413798052817583, 0.09158950299024582, -0.03759201616048813, 0.02415028214454651, 0.021400662139058113, -0.021452199667692184, 0.06445181369781494, 0.04862210154533386, -0.009182706475257874, 0.04600991681218147, -0.05194200947880745, -0.018354149535298347, 0.05671679601073265, 0.06849952787160873, 0.06558723002672195, 0.024760087952017784, 0.08613180369138718, 0.07158900797367096, 0.06223903223872185, -0.007300013210624456, 0.0372321717441082, 0.039985291659832, 0.0874052569270134, -0.02273748815059662, 0.003144390881061554, 0.049758002161979675, 0.08715254068374634, 0.07651842385530472, 0.0021445094607770443, 0.03921759873628616, 0.08213911950588226, 0.012694290839135647, 0.010231872089207172, 0.04308140277862549, 0.03350606933236122, -0.02093624323606491, -0.047739651054143906, 0.055108021944761276, 0.0020192782394587994, 0.01040723454207182, 0.021380864083766937, 0.06908808648586273, 0.027550632134079933, -0.02979399636387825, 0.09166757017374039, 0.029976539313793182, 0.002718362957239151, 0.023451820015907288, -0.008318387903273106, 0.16240960359573364, 0.07557878643274307, 0.03452213108539581, 0.09210313856601715, -0.19324320554733276, 0.29092270135879517, 0.08450405299663544, 0.17073529958724976, 0.16284145414829254, -0.018315389752388, 0.14026768505573273, 0.021440688520669937], [0.040266308933496475, 0.011596843600273132, -0.08287109434604645, -0.0787905752658844, -0.0949123203754425, -0.1060461476445198, -0.14395689964294434, -0.0991247370839119, -0.012299098074436188, -0.028988292440772057, 0.013106622733175755, -0.09350082278251648, -0.09747843444347382, -0.12475363165140152, -0.192277193069458, -0.15014536678791046, -0.018865082412958145, -0.022880010306835175, -0.03269422799348831, -0.10724928230047226, 0.07476717233657837, -0.0191434808075428, -0.12262233346700668, 0.007092257961630821, 0.0714355856180191, -0.009435550309717655, 0.0029183384031057358, 0.08428879827260971, 0.10296426713466644, -0.013299999758601189, -0.08560846745967865, -0.08370913565158844, 0.022806111723184586, 0.13738209009170532, 0.12987671792507172, 0.030937550589442253, 0.11091764271259308, 0.0124187171459198, -0.005861600860953331, -0.05516322702169418, 0.09478755295276642, -0.042407695204019547, -0.03535819053649902, -0.05358196049928665, 0.05764389410614967, 0.06956971436738968, 0.032599788159132004, -0.015456516295671463, 0.09544412791728973, -0.004125585313886404, 0.0810169130563736, 0.04198282212018967, 0.03673063591122627, 0.023677172139286995, 0.0639692097902298, 0.03234158456325531, 0.0004718092386610806, -0.07528982311487198, -0.017914947122335434, 0.1463051438331604, 0.010310540907084942, -0.035773102194070816, 0.013692920096218586, 0.03805596008896828, -0.0022331885993480682, -0.035058919340372086, -0.03306857869029045, 0.038474004715681076, -0.012088822200894356, -0.008281037211418152, 0.0010958623606711626, 0.0031031419057399035, -0.01884169690310955, -0.018309878185391426, -0.0008753678412176669, -0.09951785951852798, 0.021731464192271233, -0.031094029545783997, 0.03976135700941086, -0.0009186655515804887, -0.039066147059202194, -0.026049921289086342, -0.059900082647800446, 0.06304331123828888, -0.021993421018123627, 0.010023711249232292, -0.002878434956073761, -0.03060283325612545, 0.015767011791467667, -0.03855111449956894, 0.003969169221818447, -0.03980898857116699, 0.02545802667737007, -0.01896042376756668, -0.044592179358005524, -0.014132537879049778, 0.05083516612648964, -0.07894407957792282, -0.0579710453748703, 0.06317842751741409, -0.07519824802875519, -0.017870774492621422, -0.02364080771803856, -0.0053003160282969475, -0.06136760860681534, 0.0685741975903511, -0.014574995264410973, -0.021135015413165092, -0.015304602682590485, 0.030990857630968094, -0.0521213598549366, -0.0848640725016594, 0.012008591555058956, -0.022124096751213074, 0.034993674606084824, -0.017040662467479706, -0.012340296991169453, 0.020222090184688568, -0.009010915644466877, 0.01356815081089735, -0.021835992112755775, 0.00853031501173973, 0.06253957748413086, -0.015571079216897488, -0.0008188755018636584, 0.03112015686929226, -0.0020099005196243525, -0.052324794232845306, 0.03340640664100647, -0.09956846386194229, 0.01563776656985283, 0.03975256159901619, -0.007610867265611887, -0.009066889062523842, -0.061839498579502106, -0.07538886368274689, -0.06193763017654419, -0.0011271055554971099, -0.04678342118859291, -0.005895167123526335, 0.026184765622019768, -0.015422726050019264, -0.02678833156824112, -0.036866143345832825, 0.0011840035440400243, -0.08045237511396408, 0.021115582436323166, -0.026551449671387672, 0.010074060410261154, -0.039548359811306, 0.05673343315720558, 0.0024025985039770603, 0.0015480854781344533, 0.04770880937576294, -0.009219551458954811, -0.03877680376172066, 0.01876090280711651, -0.007912592962384224, -0.04020816087722778, 0.026441797614097595, -0.07379341870546341, -0.030771953985095024, -0.008043487556278706, -0.05987866595387459, -0.07551807910203934, -0.04165390506386757, -0.02235948108136654, 0.06786845624446869, -0.04773697257041931, 0.09122850000858307, -0.05915883183479309, 0.01570211350917816, -0.029141150414943695, 0.07367033511400223, -0.008770470507442951, 0.002952772891148925, -0.0902383103966713, -0.016179846599698067, -0.1258675754070282, -0.00977396871894598, -0.10573750734329224, 0.02321818843483925, -0.02536552958190441, 0.005534363444894552, 0.014880361966788769, -0.1024550199508667, 0.0020652422681450844, -0.035677921026945114, 0.006062101572751999, -0.03509651497006416, -0.08168346434831619, -0.03805892914533615, 0.04805287346243858, -0.032867103815078735, 0.02021629922091961, -0.023727288469672203, -0.11111918091773987, 0.06515627354383469, 0.0818292424082756, 0.020909875631332397, -0.06719092279672623, 0.08838773518800735, -0.12608572840690613, 0.11755148321390152, 0.07532522827386856, 0.06287113577127457, -0.00731284637004137, -0.1421501487493515, -0.07047253102064133, -0.04483787342905998, -0.0737181305885315, 0.03689494729042053, 0.05817967280745506, 0.04537644609808922, 0.007008134853094816], [-0.08339439332485199, 0.07587102055549622, 0.11726704239845276, 0.031963884830474854, -0.03463345021009445, 0.07713594287633896, 0.11885017156600952, -0.0135485315695405, 0.029333865270018578, 0.03327441215515137, 0.046374350786209106, 0.04872209206223488, 0.036337096244096756, 0.013104181736707687, 0.0844779759645462, 0.042978350073099136, 0.06208587437868118, -0.009019690565764904, 0.057094037532806396, 0.16507166624069214, 0.00884750671684742, 0.06220601126551628, -0.009456570260226727, 0.061035722494125366, -0.046451255679130554, 0.04134785011410713, -0.00027994762058369815, -0.013392866589128971, -0.03140139579772949, -0.08242712169885635, 0.04529888927936554, 0.018036628141999245, 0.0660988911986351, -0.06115901097655296, -0.014652709476649761, 0.0007915575406514108, 3.5636883694678545e-05, 0.008824641816318035, -0.057195574045181274, 0.026421695947647095, -0.031161857768893242, 0.07821570336818695, -0.03582039475440979, -0.03163408860564232, -0.011933074332773685, 0.009868662804365158, -0.04764903336763382, 0.04598704352974892, -0.02189607359468937, -0.02316455729305744, -0.012587668374180794, -0.05106125771999359, -0.06154182180762291, -0.058960918337106705, 0.006967837456613779, 0.014050684869289398, -0.04427153989672661, -0.011546178720891476, 0.06507249921560287, -0.00887088943272829, -0.021685421466827393, 0.006215810775756836, -0.021705808117985725, 0.012079192325472832, -0.028919793665409088, -0.024863088503479958, -0.02521958202123642, 0.003925190307199955, 0.08119113743305206, -0.01791929267346859, 0.03106343373656273, 0.01576421596109867, -0.003510371083393693, 0.030147021636366844, -0.05064558610320091, 0.0062865824438631535, -0.0005437591462396085, 0.04973974823951721, -0.0010869768448174, 0.05346975475549698, 0.0002518818946555257, -0.0531713031232357, -0.04517111927270889, 0.06168626621365547, -0.02852090820670128, 0.06379181146621704, 0.031199699267745018, 0.06555512547492981, 0.055000390857458115, 0.0018788112793117762, -0.04542817547917366, 0.05416378378868103, 0.003632208099588752, 0.015182425267994404, 0.033310070633888245, 0.0017949026077985764, 0.0017142873257398605, -0.011257605627179146, 0.02925906516611576, -0.04931197687983513, 0.009524277411401272, 0.09676815569400787, 0.04615097492933273, 0.08895355463027954, 0.04416511952877045, 0.034611139446496964, -0.028956929221749306, -0.00044484675163403153, -0.04502326622605324, -0.006956435739994049, 0.007833875715732574, 0.05102865770459175, 0.0633741095662117, 0.08973324298858643, 0.03384034335613251, 0.05838180333375931, -0.07408563047647476, -0.027789471670985222, 0.02444777637720108, -0.05837779864668846, -0.053054023534059525, 0.029345035552978516, 0.04078371077775955, 0.0522543340921402, 0.06633125245571136, 0.05305110290646553, -0.027517106384038925, 0.043715305626392365, 0.013197195716202259, 0.0020107170566916466, 0.000964558741543442, -0.038277529180049896, 0.022903479635715485, -0.03703479841351509, -0.023952489718794823, 0.05514271929860115, -0.015003380365669727, -0.06221731752157211, -0.06158584728837013, -0.05057359114289284, 0.04943406954407692, 0.06288950145244598, 0.0476018562912941, -0.022676024585962296, -0.015266438014805317, 0.015405076555907726, -0.08114193379878998, 0.0664743110537529, -0.054129041731357574, -0.11462707817554474, 0.005973840598016977, -0.017431672662496567, -0.017845099791884422, -0.005825493484735489, 0.1135341227054596, -0.00017208758799824864, 0.012133851647377014, 0.004280020482838154, 0.014635471627116203, 0.044059012085199356, -0.023627545684576035, -0.001729483250528574, 0.0767631009221077, 0.09359169751405716, 0.07173662632703781, 0.006518444046378136, 0.03858528658747673, -0.04591326415538788, 0.0197262242436409, 0.012526281177997589, -0.02787558175623417, -0.02534695342183113, -0.05156112462282181, 0.031515758484601974, -0.016356676816940308, -0.08304155617952347, -0.040377940982580185, 0.059300344437360764, -0.04467937722802162, 0.01486361213028431, 0.08181179314851761, -0.06690914183855057, 0.026047777384519577, -0.05091799423098564, -0.07281462103128433, -0.025195473805069923, 0.04616615176200867, 0.06746751070022583, -0.08447834849357605, -0.05736585706472397, -0.008230503648519516, -0.05435750633478165, -0.03822510689496994, 0.01232652273029089, 0.01295100711286068, 0.0667865127325058, -0.03833764046430588, 0.044172849506139755, -0.01284713763743639, 0.0011878468794748187, 0.0020095144864171743, 0.04385459050536156, 0.08336373418569565, 0.040787529200315475, -0.04485742747783661, -0.06912705302238464, -0.005726934410631657, -0.24807365238666534, 0.23226819932460785, 0.08713539689779282, 0.1365485042333603, 0.08032166957855225, 0.05612005665898323, 0.12209353595972061, 0.03451721370220184], [0.03280205279588699, -0.0274293664842844, 0.08716639876365662, 0.05709147825837135, 0.03793508931994438, 0.035602640360593796, 0.09407186508178711, 0.05605193227529526, -0.045322488993406296, 0.03824979439377785, 0.13955286145210266, 0.08905085176229477, 0.06253194063901901, 0.09606330096721649, 0.07795388251543045, 0.08375310897827148, 0.03397122398018837, 0.08672713488340378, -0.020707719027996063, 0.07954847067594528, -0.0488358698785305, 0.054068002849817276, 0.0409531407058239, 0.024303972721099854, -0.0036818236112594604, 0.02524358406662941, 0.022569740191102028, -0.0573158785700798, 0.07299407571554184, -0.07115244120359421, 0.09783570468425751, 0.03314760699868202, -0.0016468307003378868, -0.03444337844848633, 0.030586758628487587, -0.024585114791989326, -0.01895638182759285, 0.03757696971297264, 0.056126341223716736, -0.004965739790350199, -0.031071387231349945, 0.04836231470108032, 0.07552720606327057, 0.029837850481271744, -0.007176957093179226, -0.01959141530096531, -0.005641138646751642, 0.012997257523238659, -0.02044578455388546, 0.01932072639465332, 0.04795471206307411, -0.005143127404153347, -0.011048377491533756, 0.04865281656384468, 0.0812307670712471, 0.02502497099339962, 0.019252603873610497, 0.012886828742921352, 0.08252391964197159, -0.03992196545004845, 0.028617504984140396, 0.03805135563015938, -0.02805476263165474, 0.013280302286148071, 0.03270136937499046, -0.03311580792069435, 0.07828298956155777, 0.039150286465883255, -0.004542035050690174, -0.05892186611890793, 0.024726511910557747, 0.06833367794752121, -0.050658971071243286, 0.030217334628105164, -0.023152614012360573, 0.04205813631415367, 0.013963249512016773, -0.008806710131466389, -0.03246897831559181, 0.006912363227456808, 0.05215482413768768, 0.07772521674633026, -0.013062362559139729, 0.005612464621663094, 0.022485511377453804, -0.013196258805692196, 0.05899202078580856, 0.00989858340471983, 0.032788366079330444, -0.008678157813847065, -0.06839778274297714, -0.012209408916532993, 0.01217561960220337, -0.05174478888511658, 0.10890576243400574, 0.057526614516973495, 0.04041920602321625, 0.06709125638008118, 0.024733373895287514, 0.030464619398117065, 0.05568013712763786, -0.00021207774989306927, 0.053301259875297546, 0.006232181563973427, 0.07695550471544266, 0.07709785550832748, 0.04055790975689888, 0.05310337617993355, -0.002933385083451867, 0.03311091661453247, -0.033050619065761566, 0.060328733175992966, 0.016536632552742958, 0.05954362824559212, 0.07887548208236694, -0.0015076162526383996, -0.025048628449440002, 0.015781531110405922, 0.05478358641266823, -0.026502419263124466, -0.02487201988697052, 0.01851952075958252, -0.02804761566221714, 0.05108363553881645, -0.02317064255475998, 0.012741927057504654, 0.03336713835597038, -0.047620128840208054, -0.006124012637883425, -0.047680050134658813, -0.017109712585806847, 0.06756801158189774, 0.04544277861714363, 0.07974667847156525, 0.0567820742726326, 0.03963407501578331, 0.05698488652706146, -0.0015721777454018593, 0.044936321675777435, -0.04374810308218002, 0.0023374948650598526, 0.0042190635576844215, -0.01544970367103815, 0.061940327286720276, 0.017684556543827057, 0.05346912518143654, 0.012698331847786903, 0.06988207995891571, 0.05351622775197029, -0.047499265521764755, 0.02894473448395729, 0.051989831030368805, 0.05853412672877312, 0.015020031481981277, 0.07747781276702881, 0.0649118646979332, -0.038657646626234055, -0.047128915786743164, -0.0009587453096173704, -0.03012140281498432, 0.010444706305861473, 0.02109510824084282, 0.031134413555264473, -0.03586185351014137, 0.0692906305193901, 0.05595863610506058, 0.06340714544057846, -0.02596583403646946, 0.016610857099294662, 0.025730988010764122, 0.03232724964618683, 0.04069357365369797, 0.0371960811316967, 0.04586975276470184, 0.05199243128299713, 0.023549921810626984, -0.030110260471701622, 0.009327717125415802, 0.06930366158485413, 0.015439808368682861, 0.04124898836016655, 0.0753537118434906, 0.011665879748761654, 0.03484639152884483, -0.03919805586338043, 0.05158593878149986, -0.02644413709640503, 0.059100136160850525, -0.01661098562180996, 0.013724113814532757, -0.023032616823911667, -0.03201010823249817, 0.040163423866033554, -0.021036582067608833, 0.012646997347474098, -0.012140758335590363, 0.02753540873527527, 0.03884062543511391, -0.03422119468450546, 0.06894585490226746, 0.021153589710593224, 0.05673016235232353, 0.059783417731523514, 0.060946084558963776, -0.015156744979321957, -0.029491640627384186, 0.04700635373592377, -0.06460577249526978, 0.23612383008003235, 0.08855695277452469, 0.1415168195962906, 0.059875138103961945, -0.04472503438591957, 0.23496726155281067, 0.051051050424575806], [0.026395373046398163, 0.05798320099711418, -0.02002726122736931, 0.007381250616163015, -0.034258775413036346, -0.07376757264137268, 0.054345425218343735, 0.020535724237561226, -0.007264591753482819, -0.020971223711967468, 0.005570774432271719, 0.04399465024471283, 0.004124811384826899, -0.07022587954998016, -0.06177351996302605, -0.0026448462158441544, -0.0319942831993103, 0.010247374884784222, -0.045677319169044495, 0.0700509175658226, -0.026470964774489403, 0.047490496188402176, 0.06468649208545685, -0.03989900276064873, 0.003070309292525053, -0.04454243183135986, 0.019435489550232887, 0.04353393241763115, 0.024364439770579338, 0.046539485454559326, 0.03512941300868988, -0.052149757742881775, -0.018533898517489433, -0.07023073732852936, -0.013637833297252655, -0.05834553390741348, -0.06638126820325851, -0.02848810888826847, 0.011038833297789097, -0.06312981247901917, -0.04381701350212097, 0.051530949771404266, 0.033585987985134125, -0.046664610505104065, -0.003639813279733062, -0.03241657465696335, -0.06536645442247391, -0.0012177038006484509, 0.008128500543534756, 0.05849858745932579, 0.026435017585754395, 0.004369016271084547, 0.03638848662376404, 0.051288362592458725, 0.010337195359170437, -4.4555592467077076e-05, 0.06334877014160156, -0.023159628733992577, 0.09765847772359848, -0.01558403018862009, -0.011396453715860844, -0.011258333921432495, 0.04708148166537285, 0.011730192229151726, 0.05021808296442032, 0.013877402059733868, -0.027452070266008377, -0.027397414669394493, 0.05131157115101814, 0.015185690484941006, -0.01268648449331522, -0.02810564450919628, 0.019730713218450546, 0.026300357654690742, -0.0427638404071331, 0.053131017833948135, -0.019572924822568893, -0.03543482720851898, -0.022483278065919876, 0.009020796976983547, -0.022398587316274643, -0.025741659104824066, 0.08780974894762039, 0.05619543790817261, 0.09091788530349731, 0.04175799340009689, 0.05248574912548065, 0.030494743958115578, -0.0027868279721587896, 0.0006292351754382253, -0.0415780283510685, 0.03678765520453453, 0.07472983747720718, -0.03570180386304855, 0.08703277260065079, 0.060738641768693924, -0.005143582820892334, 0.08842666447162628, -0.04040636867284775, -0.014512847177684307, 0.047163333743810654, 0.11319581419229507, 0.017222285270690918, 0.03680728003382683, 0.04637181758880615, -0.035609107464551926, -0.020314060151576996, 0.026014987379312515, -0.02280355989933014, -0.023055417463183403, 0.06904572248458862, -0.016315601766109467, 0.00690795760601759, 0.07693859934806824, 0.006521782837808132, 0.10759124904870987, -0.010683689266443253, 0.015583359636366367, 0.0020136390812695026, -0.021901898086071014, -0.03024931252002716, -0.031494274735450745, 0.07849092781543732, -0.044285234063863754, 0.05382309854030609, -0.00500152911990881, 0.030827609822154045, 0.030686024576425552, 0.03645050525665283, -0.021530654281377792, 0.01811780408024788, -0.00026901354431174695, -0.010475548915565014, -0.0064687966369092464, 0.08892658352851868, 0.02655140496790409, -0.027664754539728165, -0.040143318474292755, 0.0426444485783577, 0.009936894290149212, 0.03195425495505333, 0.06630910933017731, 0.020416991785168648, -0.0024981882888823748, 0.08865353465080261, -0.03829539939761162, 0.0870605856180191, 0.013668067753314972, -0.037620462477207184, 0.03635954111814499, 0.07515741139650345, -0.02714778296649456, 0.021380702033638954, -0.0009602820500731468, 0.03713564947247505, -0.014085249975323677, -0.0025680833496153355, -0.013625986874103546, 0.021623793989419937, 0.05055101960897446, -0.04100906848907471, -0.0028986295219510794, 0.0652470588684082, 0.013068536296486855, 0.04115987569093704, 0.0744330957531929, 0.0002079338300973177, -0.013518308289349079, 0.007223207503557205, 0.026313960552215576, -0.007785583846271038, 0.06337228417396545, 0.0030763500835746527, 0.003099505789577961, 0.06193087249994278, -0.01444066409021616, 0.0828905776143074, 0.021075638011097908, -0.02540009282529354, 0.020179104059934616, 0.03949536383152008, 0.01552733313292265, -0.05137421563267708, 0.027664337307214737, -0.03501996397972107, 0.03060966171324253, 0.056322574615478516, 0.09152832627296448, 0.008365899324417114, -0.01971668191254139, 0.058148302137851715, 0.05534912645816803, 0.06803563982248306, 0.040398288518190384, 0.0015416487585753202, 0.07147499918937683, 0.030376151204109192, 0.0541909895837307, 0.048219237476587296, 0.022107968106865883, 0.04207298904657364, 0.011831763200461864, 0.01943855918943882, 0.103267602622509, 0.025160515680909157, 0.0737682357430458, 0.029600122943520546, -0.13644197583198547, 0.2269512414932251, 0.0180889330804348, 0.1454666256904602, 0.11148172616958618, -0.03896871954202652, 0.20446524024009705, 0.0074284616857767105], [0.04124707356095314, 0.1040484681725502, 0.13687780499458313, 0.06490647047758102, 0.05741356313228607, 0.08593902736902237, 0.1695723533630371, 0.07065226882696152, -0.03912780433893204, 0.047443486750125885, 0.07718710601329803, 0.10134262591600418, 0.20190384984016418, 0.03077070042490959, 0.13106301426887512, 0.08601124584674835, 0.08466028422117233, 0.055247195065021515, 0.15918521583080292, 0.17373067140579224, 0.006302281748503447, 0.02917804941534996, 0.17235220968723297, 0.17302051186561584, 0.18319056928157806, 0.16820988059043884, 0.020148474723100662, -0.008999384939670563, 0.05478942394256592, -0.05399713292717934, -0.05271318554878235, 0.1626402884721756, 0.15182527899742126, 0.10079628974199295, 0.15358608961105347, 0.12399905174970627, 0.041497644037008286, 0.10345771163702011, 0.17493878304958344, -0.1163002997636795, 0.028148991987109184, 0.17834390699863434, 0.08216483145952225, 0.1654731035232544, -0.009105795994400978, 0.04942721500992775, 0.09587899595499039, -0.012435337528586388, -0.017694756388664246, -0.034297823905944824, -0.06867869198322296, 0.0637829452753067, 0.08108778297901154, 0.053778331726789474, 0.03623468428850174, -0.0005274752038531005, -0.034880779683589935, 0.023468347266316414, 0.004364219959825277, -0.047133784741163254, -0.1703653782606125, 0.007222937420010567, 0.026133187115192413, 0.05617231875658035, 0.07301293313503265, 0.10102945566177368, 0.025579804554581642, -0.05385005474090576, -0.0555582195520401, -0.13130509853363037, -0.04168553650379181, 0.030019473284482956, -0.027529029175639153, 0.10433699935674667, 0.03757080063223839, 0.05385574698448181, 0.04629175364971161, -0.05947795510292053, 0.017914440482854843, -0.06673383712768555, -0.05268454924225807, -0.028204839676618576, 0.024508904665708542, 0.17321600019931793, 0.08049169927835464, -0.03939174488186836, 0.006469078827649355, 0.01631207764148712, 0.02891041338443756, -0.0036250539124011993, 0.006309249438345432, -0.07988305389881134, -0.04572330787777901, -0.0419328510761261, 0.13584238290786743, -0.01818705163896084, -0.03777428716421127, 0.037934087216854095, -0.06545425951480865, 0.04396090656518936, -0.00815650261938572, -0.0679878443479538, 0.10546671599149704, 0.0002722869976423681, 0.031584590673446655, 0.004533008206635714, 0.043001122772693634, 0.09008019417524338, 0.022355614230036736, -0.07222282886505127, -0.03772768750786781, -0.06330432742834091, -0.004991333000361919, -0.15373650193214417, 0.023274973034858704, 0.06875389814376831, 0.0004204704600851983, 0.04802889749407768, 0.0032657592091709375, 0.03705120459198952, 0.11556895822286606, -0.06470666080713272, -0.01811632513999939, -0.023649543523788452, -0.08130848407745361, 0.03533134609460831, -0.019464407116174698, 0.10195142775774002, -0.016525939106941223, 0.015285222791135311, -0.06270735710859299, 0.0024424754083156586, -0.023152539506554604, -0.10391084104776382, -0.011716264300048351, 0.08675333857536316, 0.035855114459991455, 0.07687202095985413, 0.006416786927729845, -0.005526426248252392, 0.05332198739051819, 0.0525825135409832, -0.014741340652108192, -0.19828499853610992, -0.06996481865644455, 0.008406919427216053, -0.07731698453426361, -0.03923378139734268, 0.038885701447725296, -0.19254516065120697, 0.020023223012685776, 0.03601549193263054, 0.09228967130184174, -0.004802187904715538, 0.028056852519512177, -0.03979368135333061, 0.04133777692914009, -0.02547542005777359, 0.017259342595934868, -0.09669588506221771, -0.030957648530602455, 0.07946819067001343, 0.03585262969136238, -0.13001805543899536, 0.056305546313524246, 0.052431512624025345, -0.06352300941944122, -0.06445366144180298, 0.11811008304357529, -0.01940128207206726, -0.04521448165178299, -0.027709390968084335, 0.020463839173316956, 0.013408693484961987, -0.092995785176754, -0.09574583917856216, -0.016510846093297005, 0.06330838799476624, 0.03560104966163635, -0.03962705656886101, -0.05756544694304466, 0.010663256049156189, -0.056203924119472504, -0.0068932571448385715, 0.09518014639616013, -0.02059267833828926, -0.13517098128795624, 0.07644947618246078, 0.011981558986008167, -0.00549006462097168, 0.08341588079929352, -0.11324670910835266, 0.06859417259693146, 0.004125794395804405, 0.04923666641116142, -0.02047049067914486, 0.06117679178714752, 0.06690790504217148, -0.03251194208860397, 0.025743886828422546, -0.035280294716358185, 0.01873832382261753, 0.03888208791613579, 0.04791322350502014, 0.09041979163885117, -0.01951701194047928, 0.010100691579282284, -0.2902204990386963, 0.2800319790840149, 0.020803051069378853, 0.12313125282526016, -0.05184900760650635, 0.043194547295570374, 0.2541971504688263, -0.01930316723883152], [-0.1318170577287674, -0.07410618662834167, -0.022765325382351875, 0.04476993530988693, 0.17311140894889832, 0.02736290916800499, -0.17834563553333282, -0.06090833991765976, 0.008733092807233334, -0.037288494408130646, 0.12056933343410492, -0.2364228069782257, -0.019985245540738106, 0.014113878831267357, 0.2076127827167511, 0.10730110108852386, -0.09048488736152649, -0.028074759989976883, -0.0648423582315445, -0.06901758164167404, 0.026049254462122917, -0.02943846955895424, 0.016043273732066154, -0.048778265714645386, 0.26971936225891113, 0.16836054623126984, 0.0714791789650917, 0.023268569260835648, 0.0430927537381649, 0.007097521331161261, 0.08570708334445953, -0.06775744259357452, 0.014026293531060219, 0.07888278365135193, 0.15445126593112946, -0.013954023830592632, 0.0872361809015274, -0.12232644110918045, -0.0019216543296352029, 0.032179094851017, -0.0062265354208648205, -0.07067911326885223, -0.0023457524366676807, 0.12615245580673218, 0.11365263909101486, 0.03033927083015442, -0.013027043081820011, 0.03375145420432091, -0.06954828649759293, 0.013581322506070137, -0.0025539130438119173, -0.03094688430428505, -0.07304605096578598, 0.07139146327972412, 0.052485544234514236, 0.04940952733159065, 0.05967459827661514, 0.032513346523046494, 0.060904547572135925, 0.003086215816438198, -0.047037120908498764, 0.05998570844531059, -0.04184163361787796, 0.04020063579082489, 0.1260129064321518, -0.01954910159111023, 0.030877115204930305, 0.04616643860936165, -0.032807301729917526, 0.0711962878704071, -0.013627581298351288, -0.07379358261823654, -0.027729637920856476, -0.06618954241275787, 0.004471112042665482, 0.019404159858822823, -0.04030774161219597, 0.03472262993454933, -0.09593714028596878, 0.007776271551847458, -0.039085086435079575, 0.0463692843914032, 0.012593044899404049, -0.04170001670718193, 0.10765991359949112, 0.0828576311469078, -0.005893305875360966, 0.03718225657939911, 0.08095898479223251, 0.1273079514503479, -0.011501134373247623, 0.036911267787218094, 0.05341145023703575, -0.0190993994474411, 0.07808353006839752, 0.06831713765859604, 0.015101199969649315, 0.08756418526172638, -0.1080351397395134, 0.051970042288303375, 0.11348871886730194, 0.11940944194793701, 0.03258524462580681, -0.041632816195487976, -0.01755937933921814, -0.028921961784362793, -0.09123031049966812, 0.07867328077554703, -0.10342344641685486, 0.021756423637270927, -0.004841895308345556, 0.04921707510948181, -0.040009722113609314, -0.04021652415394783, -0.09118053317070007, -0.08547932654619217, 0.058690838515758514, 0.08647286146879196, -0.09797077625989914, -0.000566319387871772, -0.1966579258441925, -0.0676032230257988, 0.11087921261787415, 0.12357074022293091, -0.00937254074960947, -0.056016504764556885, 0.11077795922756195, -0.07823625952005386, 0.0874413326382637, 0.04947446659207344, -0.10641314834356308, 0.003394156927242875, 0.04507717862725258, -0.0002305590605828911, -0.0030581632163375616, -0.041026074439287186, 0.03254552185535431, -0.0008948929025791585, 0.0201631560921669, -0.05619819089770317, 0.009715639054775238, 0.0013127954443916678, 0.04076611250638962, -0.04536161199212074, 0.04239236190915108, -0.030866997316479683, -0.03160660341382027, -0.07892271876335144, 0.057610735297203064, -0.04355455935001373, -0.08478880673646927, -0.06843306869268417, -0.04997410252690315, -0.12442291527986526, -0.01734326407313347, 0.03815250098705292, -0.02548941969871521, -0.014098040759563446, -0.08615616708993912, -0.10006409138441086, -0.10208653658628464, 0.02409496158361435, 0.04401446878910065, 0.026248732581734657, -0.03465757891535759, 0.024262262508273125, 0.04873192310333252, -0.03457845747470856, -0.005873009096831083, 0.07231219857931137, -0.061942871659994125, -0.053783148527145386, 0.030376136302947998, 0.036694660782814026, -0.08399677276611328, -0.051475316286087036, 0.0026562728453427553, -0.05010686814785004, -0.05224570259451866, -0.016493242233991623, -0.030740370973944664, -0.028463030233979225, 0.03447107598185539, 0.07894814014434814, -0.0200320053845644, -0.07890952378511429, -0.004382625222206116, -0.0216747485101223, -0.04959482327103615, -0.017429815605282784, 0.004923858679831028, -0.0004355125711299479, 0.009805887937545776, 0.012821879237890244, -0.07310880720615387, -0.004930738825351, 0.038719385862350464, 0.0918344184756279, 0.044046130031347275, -0.08594875037670135, -0.02953387051820755, 0.004360920283943415, 0.047133155167102814, -0.09637847542762756, 0.01711101457476616, -0.0028796044643968344, 0.008271342143416405, 0.002803455339744687, 0.18008778989315033, 0.08085073530673981, 0.06397919356822968, 0.07518432289361954, -0.019698355346918106, -0.08953571319580078, 0.027864821255207062], [-0.12314395606517792, -0.01773986779153347, 0.015102031640708447, -0.08070579916238785, 0.0319027453660965, -0.1054818257689476, 0.17756615579128265, -0.02455708011984825, 0.010836509056389332, -0.05532589182257652, -0.06243135780096054, -0.08905696868896484, -0.08501072227954865, 0.10467920452356339, -0.11656109243631363, -0.08083947002887726, -0.11716005206108093, -0.05005430802702904, -0.06723055988550186, 0.0762019082903862, -0.04897056519985199, -0.19474026560783386, -0.2158326357603073, -0.07698707282543182, -0.2268814593553543, -0.06020291894674301, 0.018445858731865883, 0.1323653608560562, 0.1424538940191269, 0.21450075507164001, -0.18577110767364502, -0.10456608235836029, 0.10350331664085388, 0.012430566363036633, -0.0852745771408081, -0.05740649253129959, -0.23047633469104767, -0.03025778755545616, 0.009495767764747143, -0.002875522943213582, -0.06438742578029633, -0.03544558212161064, 0.004483108874410391, 0.013026542961597443, -0.00805650930851698, -0.11737395823001862, -0.04566437751054764, -0.16976061463356018, -0.06830686330795288, -0.1547069251537323, -0.08129484206438065, -0.06614047288894653, -0.013431518338620663, -0.02401907369494438, -0.06421543657779694, 0.12028752267360687, 0.014063006266951561, -0.10180385410785675, 0.0814659520983696, 0.0010502366349101067, -0.12442761659622192, -0.007114554289728403, -0.04878303408622742, 0.06917784363031387, 0.04599190130829811, 0.113817498087883, -0.01311042346060276, 0.0003086153301410377, 0.05295851081609726, -0.137332022190094, -0.04066356644034386, -0.14328445494174957, -0.035606253892183304, 0.10619659721851349, -0.0800144374370575, -0.026582058519124985, -0.04635004699230194, -0.018164653331041336, 0.15393605828285217, -0.10330846160650253, -0.08521682769060135, 0.04394194483757019, 0.07027057558298111, 0.07827594876289368, 0.028001636266708374, -0.050945766270160675, -0.01614329218864441, -0.04574732482433319, 0.06419020146131516, -0.06342349946498871, -0.11746794730424881, -0.07283502072095871, 0.14097850024700165, -0.0939047709107399, 0.04179181158542633, -0.07939986884593964, -0.11233218759298325, -0.027701083570718765, 0.017654607072472572, 0.022195272147655487, 0.025426793843507767, -0.009779645130038261, 0.10008563846349716, -0.03129156678915024, 0.020186182111501694, -0.03514406830072403, 0.0005811159498989582, -0.07602927833795547, -0.12508076429367065, -0.049415212124586105, -0.23743170499801636, -0.023066697642207146, -0.09844111651182175, -0.03130505979061127, 0.006645940709859133, 0.0011604204773902893, -0.09536059200763702, 0.013159786351025105, 0.0053799767047166824, -0.08802515268325806, 0.0009141237824223936, -0.01852940395474434, -0.022035378962755203, 0.024766363203525543, -0.008176748640835285, 0.013939078897237778, -0.09083791822195053, -0.04151065647602081, -0.058712296187877655, -0.0393742173910141, 0.04559047892689705, -0.026678815484046936, 0.004165991209447384, -0.055743761360645294, -0.03785941004753113, -0.11646633595228195, -0.022687453776597977, -0.01582125388085842, -0.057022660970687866, 0.031869955360889435, -0.060785047709941864, 0.014125662855803967, 0.01327334064990282, 0.03415914997458458, -0.0676940307021141, 0.0036867058370262384, -0.014311867766082287, 0.00512405950576067, -0.027133505791425705, 0.07162192463874817, -0.044699061661958694, -0.010412618517875671, 0.0100588109344244, 0.16675697267055511, 0.02185293473303318, 0.03643524646759033, 0.02730622887611389, -0.08613865822553635, 0.006580232642591, 0.05805475264787674, 0.053832121193408966, -0.05121380835771561, -0.06263235211372375, 0.03110242821276188, 0.10870227962732315, -0.04389422386884689, -0.025776145979762077, 0.05319571495056152, -0.015470468439161777, -0.014748165383934975, -0.017346646636724472, 0.07664487510919571, 0.0025671443436294794, 0.058715417981147766, 0.016754580661654472, -0.027862103655934334, 0.0485665537416935, 0.09187968075275421, 0.043873392045497894, -0.02818012237548828, 0.019644845277071, -0.02441532164812088, 0.02991452068090439, -0.016606394201517105, 0.025642989203333855, 0.12980809807777405, 0.09695173799991608, 0.03097457066178322, -0.02594742737710476, -0.03499617427587509, 0.0030129491351544857, 0.05581406131386757, -0.05875345692038536, 0.08365551382303238, 0.06936913728713989, 0.058110397309064865, 0.036155954003334045, 0.08813872188329697, -0.04328248277306557, -0.03359069302678108, 0.10552963614463806, -0.014211036264896393, -0.00010149145236937329, -0.019802318885922432, -0.026514533907175064, 0.024211078882217407, 0.020614000037312508, -0.06699129939079285, -0.35305270552635193, -0.007077956572175026, -0.14376196265220642, 0.009570781141519547, 0.046491123735904694, -0.2045368105173111, -0.006781994830816984], [-0.17789670825004578, -0.015548156574368477, -0.25062957406044006, 0.24208757281303406, -0.04876282811164856, -0.24166664481163025, -0.10776010155677795, -0.1612626165151596, 0.14141836762428284, -0.07090307027101517, -0.04594723880290985, -0.13037587702274323, -0.00849508959800005, -0.05461727827787399, -0.12495884299278259, -0.1374235302209854, -0.0568523034453392, -0.0445915125310421, 0.025354409590363503, -0.001706184004433453, -0.02207445353269577, -0.05539561063051224, -0.06066793575882912, -0.0900755226612091, -0.046336784958839417, 0.08712711185216904, -0.06614609062671661, -0.17152149975299835, -0.12681743502616882, -0.01678726077079773, 0.06653451919555664, -0.0031134490855038166, 0.05483664944767952, 0.012299132533371449, -0.23222211003303528, -0.08694394677877426, -0.06156260147690773, 0.01952699013054371, -0.020528579130768776, -0.011853884905576706, -0.11530761420726776, -0.1701958179473877, 0.03593454509973526, -0.044006749987602234, -0.10487881302833557, 0.10558535158634186, 0.008512609638273716, -0.12258495390415192, -0.08188434690237045, 0.01591404713690281, -0.10958078503608704, -0.026039376854896545, 0.01569303683936596, -0.15250934660434723, -0.08145836740732193, -0.033570628613233566, 0.07940641790628433, -0.028304973617196083, 0.011442218907177448, 0.010639804415404797, -0.11322107911109924, 0.04841199889779091, 0.012528084218502045, -0.1215565949678421, 0.028777411207556725, 0.017047923058271408, 0.04096633940935135, -0.17299893498420715, 0.023564528673887253, -0.015445522964000702, 0.0488097257912159, 0.056723520159721375, 0.12618885934352875, -0.04798567667603493, -0.08630087226629257, 0.011277927085757256, -0.008226838894188404, 0.02531791850924492, -0.01925053633749485, -0.05204872041940689, -0.04364446550607681, 0.059317607432603836, -0.026032818481326103, -0.017273074015975, 0.0011609307257458568, -0.023176781833171844, -0.022356348112225533, -0.049269482493400574, -0.08792153000831604, -0.0072357384487986565, 0.08803404122591019, -0.02776230126619339, -0.0013301061699166894, 0.0188700370490551, -0.01594291254878044, -0.013040849938988686, 0.03170137107372284, -0.03428059071302414, 0.032735325396060944, 0.0374164879322052, 0.07636259496212006, -0.04932672902941704, 0.061014119535684586, 0.029554195702075958, 0.012492732144892216, 0.027022231370210648, -0.051791220903396606, 0.03622771054506302, 0.03729010745882988, 0.06730403751134872, 0.14930805563926697, 0.019893161952495575, -0.023177199065685272, 0.020847303792834282, -0.0232246033847332, -0.0611640103161335, -0.07163140922784805, 0.07235308736562729, -0.22136451303958893, -0.022709162905812263, 0.05382769554853439, 0.07338480651378632, 0.06371699273586273, 0.022220604121685028, 0.07782737165689468, 0.022643018513917923, 0.06457830965518951, 0.03255046159029007, 0.008105969056487083, 0.033725932240486145, 0.04048876464366913, -0.03420593962073326, 0.02348313480615616, 0.0396096371114254, -0.014895611442625523, 0.046606432646512985, 0.008520257659256458, 0.04103998839855194, -0.025894416496157646, -0.08068637549877167, -0.03741757944226265, -0.02159511297941208, 0.08562976866960526, -0.05811589956283569, 0.11890280246734619, 0.17110367119312286, 0.060160670429468155, -0.05386385694146156, 0.00463075190782547, 0.06022723764181137, 0.02537698484957218, 0.020989177748560905, -0.06643730401992798, 0.011807448230683804, 0.030863221734762192, 0.04143952950835228, -0.043225888162851334, -0.017306439578533173, 0.011863894760608673, 0.008204051293432713, -0.008082089014351368, 0.06946078687906265, 0.055074501782655716, 0.004858547821640968, 0.021059490740299225, -0.03125322610139847, 0.07626624405384064, -0.018790995702147484, 0.014580891467630863, 0.024976005777716637, 0.10297074168920517, -0.10339297354221344, -0.05883723124861717, -0.049275949597358704, -0.029009010642766953, 0.018413120880723, 0.04028843715786934, 0.02343498170375824, -0.017588887363672256, -0.002851307624951005, -0.055506929755210876, -0.004534033127129078, -0.03840862587094307, 0.056414905935525894, 0.06403002142906189, -0.08153924345970154, 0.059744253754615784, 0.03877890110015869, 0.07830213010311127, -0.06089862436056137, 0.023806510493159294, -0.044999800622463226, 0.05335521697998047, -0.018950559198856354, 0.031319357454776764, 0.020597100257873535, 0.004984634928405285, -0.013120393268764019, -0.09150917828083038, 0.0714799165725708, -0.021564079448580742, -0.05085792392492294, -0.0726889818906784, -0.12163332104682922, -0.08581563830375671, -0.028168832883238792, -0.07602156698703766, -0.19118626415729523, -0.27641981840133667, -0.04972109943628311, -0.08235955238342285, -0.16498176753520966, 0.014820877462625504, -0.35345762968063354, -0.041514892131090164], [-0.041301000863313675, -0.05074558034539223, -0.10985475778579712, 0.08122219890356064, -0.16293200850486755, -0.009104080498218536, -0.23852062225341797, -0.13810597360134125, 0.036503054201602936, -0.13265635073184967, -0.08745606988668442, -0.052871622145175934, 0.007207423914223909, 0.14863473176956177, 0.12043214589357376, 0.1673455387353897, 0.13189716637134552, -0.055874962359666824, -0.06934480369091034, -0.14950984716415405, -0.014706100337207317, -0.0621318519115448, 0.0620662122964859, 0.13358205556869507, 0.013367255218327045, 0.06907165795564651, 0.02194039151072502, 0.001252923859283328, -0.060627467930316925, -0.13966526091098785, 0.1264791190624237, 0.05308981239795685, 0.018849169835448265, -0.053795892745256424, 0.11116816848516464, 0.06266775727272034, 0.0588923804461956, 0.13033314049243927, 0.09642058610916138, 0.10271645337343216, 0.04479825496673584, -0.058461759239435196, -0.006893104873597622, 0.060250889509916306, -0.03390652313828468, -0.03272860869765282, -0.05743333324790001, -0.018300611525774002, 0.06508441269397736, -0.04885365813970566, -0.07950208336114883, -0.1377546787261963, -0.10701796412467957, -0.07727628201246262, 0.05450164154171944, 0.029547566547989845, -0.08604136854410172, 0.05243762955069542, -0.06510113924741745, -0.10627878457307816, -0.004461349919438362, -0.09043377637863159, -0.02244492620229721, -0.1518203169107437, 0.0727463960647583, -0.019735511392354965, -0.0468410886824131, 0.014105523936450481, -0.035302817821502686, -0.042971041053533554, -0.0946999117732048, 0.016638074070215225, -0.022914398461580276, -0.11632432043552399, 0.011188644915819168, 0.032587576657533646, -0.013675708323717117, -0.03513138368725777, -0.03055991232395172, -0.01851671002805233, -0.16700728237628937, -0.09469413757324219, -0.020798269659280777, 0.12987680733203888, 0.05969228595495224, -0.046715617179870605, -0.01093931496143341, 0.1254996806383133, 0.03408833220601082, -0.026759842410683632, -0.03119746968150139, -0.027920478954911232, -0.03177410364151001, 0.0028526727110147476, 0.03171129152178764, -0.09698750823736191, -0.1726265847682953, -0.08051679283380508, -0.03252951800823212, -0.040411364287137985, -0.09078659117221832, 0.08123160898685455, -0.04013312608003616, -0.0582597516477108, -0.047753073275089264, -0.03885293006896973, -0.08523601293563843, 0.0944269448518753, 0.008145780302584171, -0.0013168274890631437, -0.036341067403554916, -0.15764516592025757, -0.11993897706270218, 0.02179393358528614, 0.07597976177930832, -0.008465941064059734, -0.0295258779078722, 0.045590803027153015, -0.014681744389235973, -0.0035357200540602207, 0.07283148169517517, 0.019722769036889076, -0.12254473567008972, -0.011728409677743912, -0.0017931013135239482, 0.04418618232011795, -0.020516006276011467, 0.02203807421028614, -0.0748651847243309, 0.0422305203974247, 0.04301874339580536, -0.05403813719749451, 0.011016816832125187, -0.0942181646823883, -0.10724364966154099, -0.05584127828478813, -0.11009757965803146, 0.012797893024981022, -0.01488890778273344, 0.03875540569424629, -0.004985205829143524, -0.03940315917134285, 0.08557967841625214, -0.08179115504026413, 0.021636081859469414, 0.04544059932231903, 0.060233063995838165, 0.08427371829748154, -0.08771646022796631, -0.03367520123720169, 0.011821359395980835, -0.04663829505443573, 0.06909489631652832, -0.03727821633219719, 0.03706759959459305, 0.07487446814775467, 0.0736224427819252, -0.06583914905786514, 0.019397657364606857, 0.030167534947395325, -0.024140670895576477, 0.061908889561891556, 0.015367609448730946, -0.010855477303266525, 0.05771152302622795, -0.05829093977808952, -0.05921230465173721, -0.08415775001049042, -0.03613043576478958, -0.052594929933547974, 0.012630949728190899, -0.062318380922079086, -0.046606194227933884, 0.0430125966668129, -0.07243815064430237, 0.06772390007972717, 0.07201656699180603, 0.03591831028461456, 0.04224848002195358, -0.022359982132911682, -0.07024607062339783, 0.038960050791502, -0.00996827706694603, 0.08447767794132233, -0.006173277739435434, 0.021957457065582275, 0.05506662279367447, -0.14297954738140106, -0.01252509281039238, 0.02841394580900669, 0.116641566157341, 0.03401479125022888, 0.0714828297495842, 0.09341377019882202, -0.0707530826330185, 0.011370822787284851, 0.03645111247897148, 0.04949731379747391, 0.02954455092549324, 0.07043597102165222, 0.11190967261791229, -0.04357555881142616, -0.040352750569581985, -0.04641084372997284, -0.023248372599482536, -0.03151904419064522, 0.013209091499447823, -0.03337277099490166, 0.226450115442276, -0.06068256497383118, 0.07383260875940323, -0.01142305601388216, 0.040007177740335464, 0.18823206424713135, 0.04618071764707565], [-0.11550457775592804, -0.04641193524003029, -0.11832526326179504, -0.07248656451702118, 0.0540514811873436, 0.09223417937755585, 0.16431906819343567, 0.07080238312482834, -0.04543516784906387, -0.039010096341371536, 0.05855945497751236, -0.0050749643705785275, -0.037619397044181824, 0.05197137966752052, 0.09250279515981674, 0.09901988506317139, 0.05257200822234154, -0.03332078456878662, 0.016351578757166862, 0.045011747628450394, 0.02876579388976097, 0.12552179396152496, -0.02921205386519432, 0.014453543350100517, -0.10557164251804352, -0.1732802838087082, -0.08757159113883972, -0.11209487915039062, 0.04758010059595108, 0.022748442366719246, 0.07538504153490067, 0.050972145050764084, -0.025405246764421463, -0.0031437212601304054, -0.19563627243041992, -0.047507498413324356, -0.028680121526122093, 0.009249604307115078, 0.04117130860686302, 0.04377118498086929, 0.05319606140255928, 0.047897666692733765, 0.07822239398956299, -0.042435772716999054, -0.16194064915180206, -0.21853633224964142, -0.15374097228050232, 0.008500808849930763, 0.013547544367611408, -0.0778164193034172, 0.03249227628111839, 0.027608368545770645, 0.04468042030930519, 0.0249504242092371, -0.09912435710430145, -0.14319640398025513, -0.003023056546226144, 0.08079055696725845, -0.001709367730654776, 0.05133398249745369, -0.030729103833436966, 0.012809102423489094, 0.026410315185785294, 0.025662146508693695, 0.00012414716184139252, -0.08320500701665878, 0.05954376980662346, -0.07557808607816696, -0.03345192223787308, 0.03730753809213638, -0.07597744464874268, -0.0536639429628849, -0.05075669661164284, -0.029124615713953972, -0.036711350083351135, -0.018456894904375076, -0.01437322050333023, -0.005678427405655384, 0.020600587129592896, 0.04269886761903763, -0.058607254177331924, -0.004149510990828276, -0.0737781748175621, -0.00804336741566658, -0.040352534502744675, 0.07710475474596024, -0.012064116075634956, 0.022557510063052177, -0.017842985689640045, 0.0015069261426106095, -0.003935104701668024, -0.08697350323200226, 0.035043660551309586, 0.04782389849424362, -0.048435844480991364, 0.07820964604616165, 0.10358554124832153, 0.03098643384873867, 0.0019898395985364914, 0.009917979128658772, -0.00409485399723053, -0.025567887350916862, 0.012284218333661556, 0.05803227052092552, 0.07040669769048691, 0.11803311854600906, -0.018507670611143112, -0.009980392642319202, 0.05042796954512596, 0.09780581295490265, -0.11614668369293213, 0.02969374693930149, -0.036559510976076126, -0.03230118378996849, -0.04243858903646469, 0.012611309066414833, -0.011041335761547089, 0.057730235159397125, 0.02940184623003006, 0.0465371198952198, 0.0709427073597908, -0.00939237978309393, -0.005679275840520859, 0.0010757173877209425, 0.043038833886384964, 0.01375830452889204, -0.005512911360710859, 0.056499890983104706, 0.024153493344783783, 0.03982103615999222, -0.0518038384616375, 0.007708586286753416, 0.03266841173171997, -0.03921917453408241, -0.04114854708313942, 0.06330772489309311, 0.045749131590127945, 0.03277427330613136, 0.060962118208408356, -0.023983847349882126, -0.015486402437090874, -0.012510785833001137, 0.041342683136463165, 0.07230585068464279, 0.024053193628787994, -0.06402789056301117, 0.08916066586971283, -0.02600961923599243, -0.003789181588217616, -0.08542615175247192, -0.007039717864245176, -0.06708516925573349, 0.035856153815984726, 0.054812368005514145, -0.00736731244251132, 0.057809434831142426, 0.058888886123895645, -0.061967480927705765, -0.046388860791921616, -0.05456908792257309, -0.00425418745726347, -0.07167378813028336, 0.02529708482325077, -0.023902826011180878, 0.02052803710103035, 0.09078092128038406, 0.03277726098895073, 0.01030081044882536, -0.01108552236109972, 0.038904156535863876, 0.018158135935664177, 0.05498962476849556, -0.009001780301332474, -0.07401831448078156, -0.029893945902585983, -0.05440107733011246, 0.032054588198661804, 0.04453788325190544, 0.0673016756772995, 0.0027158702723681927, 0.006776364985853434, 0.03323519229888916, -0.003411263460293412, 0.02246427908539772, 0.06334354728460312, -0.05549413710832596, 0.03678702935576439, -0.05302589014172554, -0.030589966103434563, -0.05557532235980034, 0.02925294078886509, 0.05260121822357178, 0.06259148567914963, -0.03881606459617615, 0.01693759672343731, -0.029126571491360664, -0.023418810218572617, 0.023065617308020592, -0.04743664711713791, -0.028253115713596344, -0.1816546767950058, 0.09624319523572922, 0.13671794533729553, -0.043675512075424194, -0.006384036969393492, 0.07726337760686874, 0.05711956322193146, -0.1268790066242218, 0.309516966342926, 0.005403077229857445, 0.1329161822795868, 0.09475647658109665, 0.04598941653966904, 0.2469295710325241, -0.038870539516210556], [0.08108329027891159, 0.07454751431941986, 0.009319525212049484, -0.04684550687670708, -0.1831776350736618, -0.08793905377388, -0.16697818040847778, 0.03430034592747688, 0.07345641404390335, 0.028566502034664154, 0.18858987092971802, 0.15518024563789368, 0.12134050577878952, 0.02233155071735382, -0.034733980894088745, -0.05996640771627426, -0.05915413051843643, 0.08136044442653656, 0.09610896557569504, -0.08712188154459, -0.01760455034673214, 0.0816643089056015, 0.09453076124191284, 0.08635824918746948, 0.059655316174030304, 0.12644843757152557, 0.0032584352884441614, 0.12028113007545471, -0.049840912222862244, 0.03966344892978668, -0.017406173050403595, 0.02144971489906311, 0.03142249956727028, -0.017648795619606972, 0.04475955292582512, 0.082540363073349, 0.024466438218951225, 0.04267589747905731, -0.04506528750061989, 0.06990507245063782, 0.03908946365118027, -0.010238021612167358, 0.013401183299720287, 0.05908019468188286, 0.08273319154977798, 0.12936978042125702, 0.04816192761063576, 0.006751608103513718, -0.019084712490439415, -0.03302691504359245, -0.027894550934433937, -0.01855413429439068, 0.027751272544264793, 0.07574336975812912, -0.05611662194132805, 0.050330471247434616, -0.11072412878274918, -0.08377714455127716, 0.0946183055639267, -0.02261904813349247, -0.1240164190530777, 0.12100016325712204, 0.08359289914369583, 0.08325424045324326, -0.04537055268883705, 0.0846465453505516, 0.016116540879011154, 0.04775812104344368, 0.09379194676876068, -0.03554476425051689, -0.19724461436271667, -0.0350143238902092, -0.03842071071267128, 0.01618642918765545, 0.0912591814994812, 0.0788382962346077, -0.13874201476573944, 0.12200818955898285, 0.14904998242855072, -0.004398691467940807, -0.025036953389644623, -0.04763323813676834, -0.06281484663486481, 0.1146283745765686, -0.05247895047068596, 0.08301445096731186, 0.12928776443004608, 0.09742994606494904, 0.13567398488521576, -0.005686255171895027, -0.04371526464819908, -0.07585955411195755, -0.1633450984954834, 0.019870154559612274, 0.07662587612867355, -0.042075276374816895, -0.039520084857940674, -0.02200498804450035, -0.04013250023126602, 0.006540565751492977, 0.015222106128931046, -0.05459244176745415, 0.048926178365945816, -0.009966966696083546, -0.058039888739585876, 0.07266217470169067, 0.027649441733956337, -0.1120515912771225, 0.0576171949505806, -0.0011581990402191877, 0.06262072920799255, -0.0013663617428392172, -0.05523011460900307, -0.09056273847818375, 0.01022987812757492, 0.022054297849535942, -0.04622233659029007, -0.05031721666455269, -0.012662752531468868, 0.03716856241226196, -0.017486782744526863, -0.05364598333835602, 0.025559673085808754, 0.01152423582971096, 0.07128944993019104, -0.011036149226129055, -0.02391892299056053, 0.03331201523542404, 0.05302569270133972, 0.14715376496315002, -0.03518657386302948, -0.0033856562804430723, 0.08770634233951569, 0.045772939920425415, -0.04341797158122063, 0.049733519554138184, -0.022998346015810966, -0.050311364233493805, 0.15573151409626007, 0.03850530833005905, -0.019343256950378418, 0.006462457589805126, -0.01172231137752533, 0.03698937967419624, 0.058086227625608444, -0.02241840586066246, 0.05017109587788582, -0.12101428955793381, 0.007255258038640022, 0.032967668026685715, 0.06271516531705856, 0.0483381450176239, 0.06072444096207619, 0.010343792848289013, 0.08403243869543076, -0.030611706897616386, 0.045371443033218384, 0.04095839709043503, 0.0028331910725682974, 0.05784681439399719, -0.04690919071435928, -0.03305068239569664, 0.020568061619997025, -0.04640791192650795, -0.054203107953071594, -0.02865476906299591, -0.008098432794213295, -0.026669858023524284, -0.09932724386453629, 0.023065980523824692, -0.04121778532862663, 0.040952473878860474, 0.04532422870397568, 0.055249691009521484, -0.0841682106256485, -0.14544539153575897, -0.09891491383314133, -0.04197894409298897, 0.03209444880485535, -0.02753845602273941, -0.08080478012561798, -0.14094257354736328, -0.03713935613632202, -0.05943356454372406, -0.038732994347810745, -0.09477473795413971, 0.037201736122369766, -0.04385433346033096, -0.030431479215621948, 0.007996698841452599, -0.032095614820718765, 0.012646033428609371, -0.014024069532752037, -0.07809466123580933, 0.007501507643610239, -0.04077012091875076, 0.040081869810819626, 0.0476297028362751, -0.18843945860862732, -0.04759405553340912, 0.013115981593728065, -0.034015972167253494, -0.06474481523036957, 0.04960431158542633, -0.0005482130218297243, -0.05490997061133385, -0.10451246798038483, -0.10986536741256714, 0.05238195136189461, -0.042871251702308655, 0.0712287425994873, 0.042055681347846985, -0.005088599398732185, -0.14798815548419952, 0.039588768035173416], [-0.14194481074810028, 0.154699444770813, 0.17975160479545593, 0.04263528436422348, -0.03756283223628998, -0.28216737508773804, -0.11230562627315521, -0.07373636215925217, -0.0695478692650795, 0.017758792266249657, -0.08153218030929565, 0.1912590116262436, 0.18930011987686157, 0.12841542065143585, -0.0771157518029213, 0.06992646306753159, 0.03316481411457062, -0.06249994784593582, -0.17316068708896637, -0.12026219815015793, -0.14276975393295288, -0.17180557548999786, -0.03698006644845009, -0.037248484790325165, -0.023457003757357597, 0.03715404495596886, 0.11150554567575455, 0.13038353621959686, -0.11435549706220627, -0.13956433534622192, -0.16757327318191528, 0.026973864063620567, -0.09119568020105362, 0.00020425909315235913, 0.13673759996891022, 0.004673426505178213, 0.04879646748304367, 0.2579842209815979, 0.007456684019416571, 0.009601656347513199, -0.21781893074512482, -0.08243495970964432, -0.22844120860099792, -0.09383921325206757, 0.09597266465425491, -0.15384221076965332, 0.05745783820748329, 0.22236427664756775, 0.08212900161743164, 0.1476140022277832, -0.1600751429796219, -0.11732541769742966, -0.045585550367832184, -0.1927376389503479, 0.057514071464538574, 0.004474658519029617, -0.040380898863077164, 0.10459541529417038, 0.12795326113700867, -0.08875498920679092, -0.09691701084375381, -0.10541073232889175, -0.003375423839315772, -0.13263766467571259, 0.009549925103783607, -0.010720829479396343, 0.03382602706551552, -0.013230319134891033, 0.06261483579874039, -0.09135887026786804, -0.12960544228553772, -0.05711036175489426, 0.037082452327013016, 0.03274904564023018, 0.0016430625692009926, -0.01924527809023857, -0.026923106983304024, -0.017795506864786148, 0.1706278771162033, 0.06170627847313881, -0.0416182316839695, -0.1106218472123146, -0.062184691429138184, 0.020553380250930786, 0.05148344859480858, -0.03003988228738308, -0.033228158950805664, 0.0025158345233649015, -0.018976733088493347, -0.06705682724714279, 0.03055509552359581, -0.0620238333940506, 0.010538153350353241, 0.06742002815008163, -0.009586125612258911, 0.05948862433433533, -0.03089546412229538, -0.049834080040454865, 0.0941951647400856, -0.005606294143944979, -0.0005613862886093557, 0.008468774147331715, 0.02124365232884884, 0.05213918909430504, 0.018808480352163315, -0.04284442588686943, 0.0028080125339329243, -0.0027784882113337517, 0.07930552959442139, 0.022685574367642403, -0.3667292594909668, -0.042214591056108475, 0.08189281821250916, 0.03990664333105087, -0.07624541223049164, 0.02508416771888733, 0.08827710896730423, -0.04740026965737343, -0.1017116904258728, 0.061174456030130386, -0.08027465641498566, -0.0057987947948277, -0.04418930411338806, 0.05942024290561676, 0.0003744467976503074, 0.0760965570807457, -0.013685431331396103, 0.0689929649233818, 0.003059085924178362, 0.07041457295417786, -0.012577035464346409, 0.018339764326810837, 0.057999614626169205, -0.07822469621896744, -0.0007056863396428525, 0.011351854540407658, 0.07663188129663467, -0.08710037916898727, -0.03870610520243645, -0.0037188942078500986, 0.04809362068772316, -0.019982775673270226, 0.0619199313223362, -0.020133821293711662, 0.0511302724480629, -0.02528676576912403, -0.08276746422052383, -0.017426544800400734, -0.03577104210853577, -0.09640892595052719, 0.027441825717687607, 0.008845478296279907, 0.010882392525672913, -0.07180102169513702, 0.011892670765519142, -0.04808346927165985, 0.059431787580251694, 0.0401957631111145, -0.1809794008731842, -0.05504612997174263, 0.04452987387776375, -0.014169513247907162, 0.024688951671123505, 0.06150176748633385, 0.04168388247489929, 0.043185144662857056, 0.030164388939738274, -0.09336592257022858, -0.10588743537664413, -0.04436168074607849, -0.057104963809251785, 0.017967883497476578, 0.042521215975284576, 0.020790712907910347, -0.031754571944475174, 0.04580024629831314, 0.029744891449809074, 0.053587932139635086, 0.046434253454208374, 0.04139680787920952, 0.025367088615894318, -0.025072095915675163, -0.044236037880182266, -0.0021896320395171642, -0.05738991126418114, 0.07289347052574158, 0.009669668041169643, 0.050697099417448044, 0.05919966101646423, 0.050781480967998505, -0.12890152633190155, 0.04176389425992966, -0.027683259919285774, -0.024034440517425537, -0.05447608605027199, 0.08936629444360733, 0.0011087609454989433, -0.006538537330925465, 0.08127408474683762, -0.015199897810816765, -0.0033984712790697813, -0.0007267073378898203, 0.019943181425333023, 0.004474333953112364, -0.05967814102768898, 0.013258980587124825, -0.055776167660951614, -0.27174410223960876, -0.19785723090171814, -0.07817290723323822, -0.1625339239835739, -0.03222067281603813, -0.03879345953464508, -0.16701428592205048, -0.03134496137499809], [-0.08516628295183182, 0.023779259994626045, -0.012826277874410152, -0.02737353928387165, -0.06692340970039368, 0.10904521495103836, 0.07815902680158615, -0.056714724749326706, -0.028126882389187813, -0.03727184236049652, -0.04375540837645531, 0.01862347684800625, 0.05816216766834259, 0.030224526301026344, 0.06957312673330307, 0.07498276978731155, -0.032753732055425644, -0.04905041307210922, 0.04751427471637726, 0.02176635153591633, -0.12562908232212067, 0.01630393974483013, 0.05264633893966675, -0.0322328545153141, 0.07641097158193588, 0.020630570128560066, -0.07225598394870758, -0.06490040570497513, -0.11067960411310196, -0.10036098957061768, -0.029475565999746323, 0.16426032781600952, -0.01654285192489624, 0.05572289973497391, 0.037309590727090836, -0.028803128749132156, 0.047730475664138794, -0.07665926963090897, 0.06537112593650818, -0.04949251934885979, -0.08580484986305237, 0.16329826414585114, 0.10957590490579605, 0.004055137280374765, 0.04110880196094513, 0.05862268805503845, -0.02419760450720787, -0.04767291992902756, 0.06571923196315765, 0.1402551829814911, 0.11806528270244598, 0.04974636435508728, 0.020537959411740303, 0.11224234849214554, 0.05434924736618996, 0.005545509979128838, -0.05470136180520058, -0.07901764661073685, -0.009472544305026531, 0.10009805113077164, -0.05448281764984131, 0.051981423050165176, 0.014220469631254673, 0.03661225736141205, 0.08165883272886276, 